2 0.0226855 0.93952 0.0205013 0.0108239 0.00423615 0.001098 0.000710199 0.000197118 0.000227545 0 
3 0.040289 0.95923 0.000291729 7.08753e-05 7.10444e-05 2.36732e-05 0 1.01316e-07 2.35738e-05 0 
4 0.0101093 0.867779 0.0731165 0.0263689 0.0153891 0.00413378 0.00310347 0 0 0 
5 0.122912 0.877088 0 0 0 0 0 0 0 0 
6 0.0626524 0.922679 0.00727256 0.00502744 0.00130093 0.000473976 0.000236797 0 0.000237692 0.000118851 
7 0.0537495 0.944079 0.00126019 0.00034119 0.000342005 0.000113962 0 4.87731e-07 0.000113483 0 
8 0.174349 0.825651 0 0 0 0 0 0 0 0 
9 0.0265216 0.929289 0.0239703 0.0126556 0.00495303 0.00128382 0.000830387 0.000230476 0.000266052 0 
10 0.0105553 0.861946 0.0763422 0.0275323 0.016068 0.00431616 0.00324039 0 0 0 
11 0.0711704 0.926466 0.00137196 0.000371423 0.000372309 0.00012406 0 5.30947e-07 0.000123539 0 
12 0.0644291 0.934911 0.000383342 0.000103683 0.000103931 3.46315e-05 0 1.48215e-07 3.44861e-05 0 
13 0.0789939 0.921006 0 0 0 0 0 0 0 0 
14 0.0480458 0.94225 0.00481164 0.00332584 0.000860614 0.000313553 0.00015665 0 0.000157242 7.86246e-05 
15 0.0410519 0.914758 0.0239703 0.0126556 0.00495303 0.00128382 0.000830387 0.000230476 0.000266052 0 
16 0.0712492 0.927006 0.00101286 0.000274228 0.000274882 9.15956e-05 0 3.92008e-07 9.12109e-05 0 
17 0.0166784 0.710313 0.188024 0.0472247 0.0233503 0.00241048 0.00479402 0.00240215 0.00243366 0.00236881 
18 0.0257299 0.931399 0.0232548 0.0122778 0.00480518 0.00124549 0.000805599 0.000223596 0.00025811 0 
19 0.0496552 0.949457 0.000543966 0.000128695 0.000129002 4.29856e-05 0 1.83969e-07 4.28051e-05 0 
20 0.0618043 0.920429 0.00880901 0.00608957 0.00157577 0.000574111 0.000286824 0 0.000287908 0.00014396 
21 0.0654941 0.915678 0.00933492 0.00645313 0.00166985 0.000608387 0.000303948 0 0.000305097 0.000152555 
22 0.0898172 0.908238 0.00112892 0.00030565 0.000306379 0.000102091 0 4.36925e-07 0.000101662 0 
23 0.0660351 0.931297 0.00154823 0.000419177 0.000420177 0.00014001 0 5.99212e-07 0.000139422 0 
24 0.0689919 0.928221 0.00161756 0.000437946 0.000438991 0.000146279 0 6.26042e-07 0.000145665 0 
25 0.0396934 0.959113 0.000596366 0.000405971 0.000105051 3.8274e-05 1.91216e-05 0 1.91939e-05 9.59735e-06 
26 0.00886127 0.884103 0.0640897 0.0231135 0.0134892 0.00362344 0.00272032 0 0 0 
27 0.0577382 0.925664 0.00822947 0.00568894 0.0014721 0.000536341 0.000267954 0 0.000268967 0.000134489 
28 0.0619712 0.936511 0.000881109 0.000238556 0.000239125 7.96807e-05 0 3.41015e-07 7.93461e-05 0 
29 0.0445559 0.954495 0.000648597 0.000112423 0.000112691 3.75507e-05 0 1.60708e-07 3.7393e-05 0 
30 0.0601802 0.939254 0.000329371 8.86476e-05 8.88592e-05 2.96094e-05 0 1.26722e-07 2.94851e-05 0 
31 0.0206572 0.776801 0.0969559 0.0586721 0.0290109 0.00299484 0.00595621 0.00298449 0.00302364 0.00294306 
32 0.0265216 0.913904 0.0393549 0.0126556 0.00495303 0.00128382 0.000830387 0.000230476 0.000266052 0 
33 0.0782024 0.921057 0.000454303 0.000107089 0.000107345 3.57691e-05 0 1.53083e-07 3.56189e-05 0 
34 0.020975 0.773368 0.0984475 0.0595748 0.0294573 0.00304092 0.00604784 0.0030304 0.00307016 0.00298834 
35 0.107895 0.890763 0.000782235 0.000209588 0.000210089 7.00052e-05 0 2.99606e-07 6.97112e-05 0 
36 0.0759169 0.906316 0.00880901 0.00608957 0.00157577 0.000574111 0.000286824 0 0.000287908 0.00014396 
37 0.0626944 0.91928 0.00893984 0.00617657 0.00159828 0.000582313 0.000290922 0 0.000292021 0.000146017 
38 0.020975 0.757983 0.0984475 0.0617635 0.0426531 0.00304092 0.00604785 0.0030304 0.00307016 0.00298834 
39 0.0734225 0.918838 0.00383778 0.00265251 0.000686379 0.000250073 0.000124936 0 0.000125408 6.27067e-05 
40 0.144398 0.854797 0.000467286 0.000126476 0.000126778 4.22445e-05 0 1.80797e-07 4.20671e-05 0 
41 0.0702807 0.914885 0.0138547 0.000366795 0.000367655 0.000122509 0 5.24311e-07 0.000121995 0 
42 0.084054 0.899348 0.00822947 0.00568894 0.0014721 0.000536341 0.000267954 0 0.000268967 0.000134489 
43 0.0261197 0.915257 0.0387103 0.0124639 0.00487799 0.00126436 0.000817805 0.000226984 0.000262021 0 
44 0.0566786 0.942902 0.000243752 6.57901e-05 6.59471e-05 2.19747e-05 0 0 2.18824e-05 0 
45 0.0796439 0.91847 0.00109472 0.000296388 0.000297095 9.89972e-05 0 4.23685e-07 9.85815e-05 0 
46 0.0606581 0.913264 0.0185956 0.00508659 0.00131623 0.000479552 0.000239583 0 0.000240488 0.000120249 
47 0.0512201 0.947786 0.000576877 0.000156076 0.000156449 5.21315e-05 0 2.23111e-07 5.19126e-05 0 
48 0.0715155 0.926889 0.000926294 0.00025079 0.000251388 8.37669e-05 0 3.58503e-07 8.34151e-05 0 
49 0.060111 0.881514 0.0496622 0.00592274 0.0015326 0.000558382 0.000278966 0 0.00028002 0.000140016 
50 0.0567268 0.942045 0.000713003 0.000193042 0.000193503 6.44784e-05 0 2.75953e-07 6.42077e-05 0 
51 0.122224 0.876403 0.000796886 0.000215753 0.000216268 7.20641e-05 0 3.08418e-07 7.17615e-05 0 
52 0.0609469 0.921533 0.00868667 0.006005 0.00155389 0.000566138 0.000282841 0 0.00028391 0.000141961 
53 0.0110425 0.840192 0.0952472 0.028803 0.0168096 0.00451536 0.00338994 0 0 0 
54 0.120516 0.879484 0 0 0 0 0 0 0 0 
55 0.0624656 0.935011 0.00146455 0.000396519 0.000397465 0.000132442 0 5.66822e-07 0.000131886 0 
56 0.0882968 0.911344 0.000208403 5.63193e-05 5.64537e-05 1.88114e-05 0 0 1.87324e-05 0 
57 0.0181463 0.951619 0.0164007 0.00865911 0.00338892 0.000878401 0.00056816 0.000157694 0.000182036 0 
58 0.114754 0.885246 0 0 0 0 0 0 0 0 
59 0.0555542 0.928478 0.00791696 0.00547291 0.0014162 0.000515973 0.000257779 0 0.000258753 0.000129382 
60 0.0296653 0.939114 0.0169355 0.00894147 0.00349943 0.000907044 0.000586687 0.000162836 0.000187972 0 
61 0.0223447 0.954095 0.012788 0.00674275 0.00263891 0.000684001 0.000442419 0.000122795 0.000141749 0 
62 0.0239431 0.936163 0.0216398 0.0114252 0.00447149 0.001159 0.000749655 0.000208069 0.000240186 0 
63 0.018424 0.799209 0.0881967 0.0523292 0.0258746 0.00267108 0.0053123 0.00266184 0.00269676 0.00262489 
64 0.0788387 0.918938 0.0012902 0.000349314 0.000350148 0.000116675 0 4.99343e-07 0.000116185 0 
65 0.00996893 0.841838 0.0859898 0.0398916 0.0151754 0.00407637 0.00306036 0 0 0 
66 0.073775 0.925707 0.000301329 8.12808e-05 8.14748e-05 2.71488e-05 0 1.16191e-07 2.70348e-05 0 
67 0.0236151 0.937038 0.0213434 0.0112687 0.00441023 0.00114312 0.000739386 0.000205218 0.000236896 0 
68 0.0595815 0.930245 0.00504387 0.00348677 0.000902257 0.000328725 0.00016423 0 0.000164851 8.2429e-05 
69 0.0493045 0.936522 0.00702742 0.00485797 0.00125708 0.000457999 0.000228815 0 0.00022968 0.000114845 
70 0.0385235 0.945249 0.00880265 0.00464755 0.00181891 0.000471458 0.000304944 8.46381e-05 9.77028e-05 0 
71 0.0826757 0.90999 0.00363628 0.00251372 0.000650464 0.000236988 0.000118398 0 0.000118846 5.94255e-05 
72 0.0831891 0.916204 0.000352208 9.52675e-05 9.54948e-05 3.18205e-05 0 1.36185e-07 3.16869e-05 0 
73 0.0418272 0.946159 0.00595662 0.00411771 0.00106552 0.000388209 0.000193948 0 0.000194681 9.73447e-05 
74 0.0654941 0.915678 0.00933492 0.00645313 0.00166985 0.000608387 0.000303948 0 0.000305097 0.000152555 
75 0.0675093 0.913084 0.00962215 0.00665169 0.00172123 0.000627106 0.0003133 0 0.000314484 0.000157249 
76 0.0689925 0.913295 0.0165429 0.000437946 0.000438991 0.000146279 0 6.26042e-07 0.000145665 0 
77 0.0110425 0.840189 0.0799251 0.0441281 0.0168096 0.00451536 0.00338994 0 0 0 
78 0.0354683 0.835129 0.077482 0.0279432 0.0163079 0.00438058 0.00328875 0 0 0 
79 0.0352208 0.956532 0.0040899 0.00282588 0.000731241 0.000266418 0.000133101 0 0.000133604 6.68052e-05 
80 0.0675093 0.913084 0.00962215 0.00665169 0.00172123 0.000627106 0.0003133 0 0.000314484 0.000157249 
81 0.0675093 0.913084 0.00962215 0.00665169 0.00172123 0.000627106 0.0003133 0 0.000314484 0.000157249 
82 0.010254 0.865879 0.0741714 0.0267456 0.015609 0.00419284 0.0031478 0 0 0 
83 0.0977238 0.899882 0.00138944 0.000376184 0.000377082 0.00012565 0 5.37754e-07 0.000125123 0 
84 0.0730189 0.924556 0.00140749 0.00038107 0.000381979 0.000127282 0 5.44738e-07 0.000126748 0 
85 0.0780897 0.919317 0.00150523 0.000407533 0.000408506 0.000136121 0 5.82567e-07 0.00013555 0 
86 0.0531983 0.935294 0.00686339 0.00290677 0.00113762 0.00029487 0.000190725 5.29362e-05 6.11074e-05 0 
87 0.0246599 0.957786 0.00954016 0.00501595 0.00196309 0.00050883 0.000329117 9.13472e-05 0.000105447 0 
88 0.103195 0.895389 0.000822225 0.000222291 0.000222821 7.42479e-05 0 3.17764e-07 7.39361e-05 0 
89 0.0608224 0.936721 0.00142613 0.000386084 0.000387005 0.000128957 0 5.51906e-07 0.000128415 0 
90 0.135842 0.86246 0.000985329 0.000266749 0.000267385 8.90975e-05 0 3.81317e-07 8.87233e-05 0 
91 0.0654941 0.900753 0.00933494 0.0213785 0.00166985 0.000608387 0.000303948 0 0.000305097 0.000152555 
92 0.0882898 0.909962 0.00101614 0.000274228 0.000274882 9.15956e-05 0 3.92008e-07 9.12109e-05 0 
93 0.0718332 0.926438 0.00100353 0.000271689 0.000272337 9.07474e-05 0 3.88378e-07 9.03664e-05 0 
94 0.0669488 0.931165 0.00109472 0.000296388 0.000297095 9.89972e-05 0 4.23685e-07 9.85815e-05 0 
95 0.0596622 0.938656 0.000976364 0.000264346 0.000264977 8.82948e-05 0 3.77881e-07 8.7924e-05 0 
96 0.0664864 0.9144 0.00947636 0.0065509 0.00169515 0.000617605 0.000308553 0 0.00030972 0.000154867 
97 0.0384885 0.948852 0.00686993 0.00362386 0.00141827 0.000367613 0.000237776 6.59954e-05 7.61823e-05 0 
98 0.0577382 0.925664 0.00822947 0.00568894 0.0014721 0.000536341 0.000267954 0 0.000268967 0.000134489 
99 0.0249841 0.933388 0.0225807 0.011922 0.0046659 0.00120939 0.000782249 0.000217115 0.000250629 0 
100 0.0675093 0.897699 0.00962215 0.00665169 0.0171058 0.000627106 0.0003133 0 0.000314484 0.000157249 
101 0.0239431 0.936163 0.0216398 0.0114252 0.00447149 0.001159 0.000749655 0.000208069 0.000240186 0 
102 0.0618043 0.906344 0.0228935 0.00608957 0.00157577 0.000574111 0.000286824 0 0.000287908 0.00014396 
103 0.0675093 0.913084 0.00962215 0.00665169 0.00172123 0.000627106 0.0003133 0 0.000314484 0.000157249 
104 0.0105553 0.847245 0.0910425 0.0275323 0.016068 0.00431616 0.00324039 0 0 0 
105 0.0466336 0.944159 0.00456525 0.00315591 0.000816641 0.000297532 0.000148646 0 0.000149208 7.46073e-05 
106 0.0239431 0.936163 0.0216398 0.0114252 0.00447149 0.001159 0.000749655 0.000208069 0.000240186 0 
107 0.0769595 0.9099 0.006515 0.00450375 0.00116542 0.000424603 0.000212131 0 0.000212932 0.000106471 
108 0.0558096 0.943523 0.000387381 0.000104794 0.000105044 3.50026e-05 0 1.49803e-07 3.48556e-05 0 
109 0.0181783 0.803585 0.0853212 0.0516315 0.0255296 0.00263546 0.00524147 0.00262635 0.0026608 0.00258989 
110 0.0358608 0.962692 0.000840127 0.00022746 0.000228003 7.59746e-05 0 3.25154e-07 7.56555e-05 0 
111 0.0686893 0.917747 0.00672516 0.00464903 0.00120301 0.0004383 0.000218973 0 0.000219801 0.000109905 
112 0.079442 0.906994 0.00672516 0.00464903 0.00120301 0.0004383 0.000218973 0 0.000219801 0.000109905 
113 0.0257299 0.931399 0.0232548 0.0122778 0.00480518 0.00124549 0.000805599 0.000223596 0.00025811 0 
114 0.0290228 0.941052 0.0162345 0.00856891 0.00335362 0.000869251 0.000562241 0.000156051 0.000180139 0 
115 0.0202812 0.945927 0.0183302 0.00967783 0.00378761 0.000981742 0.000635002 0.000176246 0.000203452 0 
116 0.0609459 0.921534 0.00868667 0.006005 0.00155389 0.000566138 0.000282841 0 0.00028391 0.000141961 
117 0.0381574 0.950873 0.00543861 0.00375965 0.000972868 0.000354451 0.000177083 0 0.000177752 8.88799e-05 
118 0.0571742 0.931951 0.00539173 0.00372724 0.000964481 0.000351396 0.000175556 0 0.00017622 8.81137e-05 
119 0.0239431 0.936163 0.0216398 0.0114252 0.00447149 0.001159 0.000749655 0.000208069 0.000240186 0 
120 0.0582503 0.937647 0.00203815 0.00140377 0.000363246 0.000132344 6.61186e-05 0 6.63685e-05 3.31857e-05 
121 0.0645309 0.916918 0.00919765 0.00635823 0.00164529 0.00059944 0.000299478 0 0.00030061 0.000150312 
122 0.0257299 0.916474 0.0232548 0.0122778 0.00480518 0.0161709 0.000805599 0.000223596 0.00025811 0 
123 0.0618043 0.906344 0.0228935 0.00608957 0.00157577 0.000574111 0.000286824 0 0.000287908 0.00014396 
124 0.0654941 0.900753 0.00933492 0.0213785 0.00166985 0.000608387 0.000303948 0 0.000305097 0.000152555 
125 0.026521 0.972598 0.00051121 0.000138407 0.000138738 4.62298e-05 0 1.97853e-07 4.60357e-05 0 
126 0.0562678 0.92755 0.00802852 0.00554307 0.00143436 0.000522589 0.000261084 0 0.00026207 0.000131041 
127 0.0206572 0.776801 0.0969559 0.0586721 0.0290109 0.00299484 0.00595621 0.00298449 0.00302364 0.00294306 
128 0.0246288 0.934338 0.0222582 0.0117516 0.00459925 0.00119212 0.000771074 0.000214013 0.000247048 0 
129 0.0257299 0.931399 0.0232548 0.0122778 0.00480518 0.00124549 0.000805599 0.000223596 0.00025811 0 
130 0.0204282 0.94578 0.0183302 0.00967783 0.00378761 0.000981742 0.000635002 0.000176246 0.000203452 0 
131 0.0265216 0.929289 0.0239703 0.0126556 0.00495303 0.00128382 0.000830387 0.000230476 0.000266052 0 
132 0.0749661 0.922544 0.00144505 0.000391232 0.000392165 0.000130676 0 5.59265e-07 0.000130128 0 
133 0.0837132 0.914474 0.0010522 0.000284877 0.000285557 9.51527e-05 0 4.07231e-07 9.47531e-05 0 
134 0.0110425 0.855574 0.0798657 0.028803 0.0168096 0.00451536 0.00338994 0 0 0 
135 0.0229854 0.938717 0.0207742 0.0109682 0.00429263 0.00111264 0.000719669 0.000199746 0.000230579 0 
136 0.043507 0.949956 0.003242 0.0022402 0.000579688 0.000211202 0.000105516 0 0.000105914 5.29595e-05 
137 0.0265216 0.929289 0.0239703 0.0126556 0.00495303 0.00128382 0.000830387 0.000230476 0.000266052 0 
138 0.0675093 0.913084 0.00962215 0.00665169 0.00172123 0.000627106 0.0003133 0 0.000314484 0.000157249 
139 0.0654941 0.900753 0.0242603 0.00645313 0.00166985 0.000608387 0.000303948 0 0.000305097 0.000152555 
140 0.0236151 0.937038 0.0213434 0.0112687 0.00441023 0.00114312 0.000739386 0.000205218 0.000236896 0 
141 0.067582 0.913011 0.00962215 0.00665169 0.00172123 0.000627106 0.0003133 0 0.000314484 0.000157249 
142 0.0522265 0.935644 0.00601389 0.00415731 0.00107577 0.000391941 0.000195813 0 0.000196553 9.82807e-05 
143 0.0445651 0.928337 0.0146988 0.00776052 0.00303724 0.000787246 0.0005092 0.00014133 0.000163145 0 
144 0.060111 0.922609 0.00856767 0.00592274 0.0015326 0.000558382 0.000278966 0 0.00028002 0.000140016 
145 0.0110425 0.855574 0.0798657 0.028803 0.0168096 0.00451536 0.00338994 0 0 0 
146 0.0619322 0.923568 0.00718896 0.00496965 0.00128598 0.000468528 0.000234075 0 0.00023496 0.000117485 
147 0.0893893 0.909041 0.000911618 0.000246575 0.000247163 8.2359e-05 0 3.52478e-07 8.20132e-05 0 
148 0.0635957 0.918122 0.00906435 0.00626608 0.00162145 0.000590752 0.000295138 0 0.000296253 0.000148133 
149 0.0675093 0.913084 0.00962215 0.00665169 0.00172123 0.000627106 0.0003133 0 0.000314484 0.000157249 
150 0.0242803 0.935264 0.0219446 0.0115861 0.00453447 0.00117533 0.000760214 0.000210999 0.000243569 0 
151 0.0664864 0.9144 0.00947636 0.0065509 0.00169515 0.000617605 0.000308553 0 0.00030972 0.000154867 
152 0.0566771 0.930041 0.00658668 0.00455116 0.00117768 0.000429073 0.000214363 0 0.000215174 0.000107592 
153 9.94063e-07 0.82333 0.0577273 0.0709071 0.0102253 0.013794 0 1.22665e-07 0.024015 0 
154 0.056262 0.927565 0.00801846 0.00554307 0.00143436 0.000522589 0.000261084 0 0.00026207 0.000131041 
155 0.0665198 0.917907 0.00772148 0.00533777 0.00138123 0.000503233 0.000251414 0 0.000252364 0.000126188 
156 0.0249841 0.918895 0.0370734 0.011922 0.0046659 0.00120939 0.000782249 0.000217115 0.000250629 0 
157 0.00897204 0.882654 0.0648909 0.0234024 0.0136578 0.00366873 0.00275433 0 0 0 
158 0.0664864 0.9144 0.00947636 0.0065509 0.00169515 0.000617605 0.000308553 0 0.00030972 0.000154867 
159 0.122342 0.875693 0.0011408 0.000308867 0.000309604 0.000103166 0 4.41525e-07 0.000102732 0 
160 0.0646022 0.916847 0.00919765 0.00635823 0.00164529 0.00059944 0.000299478 0 0.00030061 0.000150312 
161 0.0110425 0.855574 0.0798657 0.028803 0.0168096 0.00451536 0.00338994 0 0 0 
162 0.0592987 0.923654 0.00845189 0.0058427 0.00151189 0.000550837 0.000275196 0 0.000276236 0.000138124 
163 1.25405e-06 0.763796 0.086153 0.089452 0.0128996 0.0174016 0 1.54746e-07 0.0302958 0 
164 0.0265216 0.929289 0.0239703 0.0126556 0.00495303 0.00128382 0.000830387 0.000230476 0.000266052 0 
165 0.020975 0.773368 0.0984475 0.0595748 0.0294573 0.00304092 0.00604784 0.0030304 0.00307016 0.00298834 
166 0.0194901 0.948934 0.0171333 0.00903973 0.00353788 0.000917012 0.000593134 0.000164626 0.000190037 0 
167 0.0535135 0.931103 0.00762732 0.00527268 0.00136439 0.000497096 0.000248348 0 0.000249286 0.000124649 
168 0.0212827 0.943256 0.0192354 0.0101557 0.00397466 0.00103022 0.00066636 0.00018495 0.000213499 0 
169 0.0431797 0.944453 0.00613177 0.00423882 0.00109686 0.000399627 0.000199652 0 0.000200407 0.000100208 
170 0.045711 0.952771 0.000881109 0.000238556 0.000239125 7.96807e-05 0 3.41015e-07 7.93461e-05 0 
171 0.0632485 0.924262 0.00619248 0.00428079 0.00110772 0.000403583 0.000201629 0 0.000202391 0.0001012 
172 0.0253515 0.932408 0.0229128 0.0120973 0.00473452 0.00122718 0.000793752 0.000220308 0.000254315 0 
173 0.0246272 0.891501 0.0650962 0.0117516 0.00459925 0.00119212 0.000771074 0.000214013 0.000247048 0 
174 0.0654941 0.885834 0.0391794 0.00645313 0.00166985 0.000608387 0.000303948 0 0.000305097 0.000152555 
175 0.037239 0.934038 0.0155807 0.00822615 0.00321947 0.000834481 0.000539752 0.000149809 0.000172934 0 
176 0.046864 0.938889 0.00748093 0.00459957 0.00119021 0.000433637 0.000216644 0 0.000217463 0.000108736 
177 0.0257299 0.931399 0.0232548 0.0122778 0.00480518 0.00124549 0.000805599 0.000223596 0.00025811 0 
178 0.0522394 0.932743 0.00744572 0.00514714 0.0013319 0.000485261 0.000242435 0 0.000243351 0.000121681 
179 0.082503 0.916273 0.000711487 0.00019178 0.000192238 6.4057e-05 0 2.74149e-07 6.3788e-05 0 
180 0.0287101 0.956928 0.00779046 0.00411308 0.00160974 0.00041724 0.000269876 7.49047e-05 8.64669e-05 0 
181 0.0707064 0.926506 0.00161792 0.000437946 0.000438991 0.000146279 0 6.26042e-07 0.000145665 0 
182 0.065987 0.92275 0.00558429 0.00386035 0.000998927 0.000363946 0.000181826 0 0.000182513 9.12607e-05 
183 0.0657919 0.901193 0.0179088 0.00945535 0.00370054 0.000959173 0.000620404 0.000172195 0.000198775 0 
184 0.0513089 0.937326 0.00563459 0.00389513 0.00100793 0.000367224 0.000183464 0 0.000184158 9.20828e-05 
185 0.0412719 0.957061 0.000967647 0.000261986 0.000262611 8.75065e-05 0 3.74507e-07 8.7139e-05 0 
186 0.0265216 0.91391 0.0393491 0.0126556 0.00495303 0.00128382 0.000830387 0.000230476 0.000266052 0 
187 0.0257299 0.931399 0.0232548 0.0122778 0.00480518 0.00124549 0.000805599 0.000223596 0.00025811 0 
188 0.0261197 0.93036 0.0236071 0.0124639 0.00487799 0.00126436 0.000817805 0.000226984 0.000262021 0 
189 0.0229861 0.938715 0.020775 0.0109682 0.00429263 0.00111264 0.000719669 0.000199746 0.000230579 0 
190 0.0249841 0.933388 0.0225807 0.011922 0.0046659 0.00120939 0.000782249 0.000217115 0.000250629 0 
191 0.0748348 0.907645 0.00868667 0.006005 0.00155389 0.000566138 0.000282841 0 0.00028391 0.000141961 
192 0.0585081 0.924672 0.0083392 0.0057648 0.00149173 0.000543492 0.000271527 0 0.000272553 0.000136283 
193 0.0229169 0.952933 0.0131054 0.00691273 0.00270544 0.000701244 0.000453573 0.00012589 0.000145323 0 
194 0.0618043 0.906345 0.0228931 0.00608957 0.00157577 0.000574111 0.000286824 0 0.000287908 0.00014396 
195 0.0774805 0.907135 0.00762807 0.00527268 0.00136439 0.000497096 0.000248348 0 0.000249286 0.000124649 
196 0.0679773 0.929277 0.00159377 0.000431506 0.000432535 0.000144128 0 6.16836e-07 0.000143523 0 
197 0.0679773 0.929277 0.00159377 0.000431506 0.000432535 0.000144128 0 6.16836e-07 0.000143523 0 
198 1.25405e-06 0.76174 0.0882098 0.089452 0.0128996 0.0174016 0 1.54746e-07 0.0302958 0 
199 0.00619393 0.919059 0.0447586 0.0161396 0.0094192 0.00253016 0.00189954 0 0 0 
200 0.0104024 0.863946 0.0752358 0.0271332 0.0158352 0.0042536 0.00319342 0 0 0 
201 0.0228979 0.944573 0.0214853 0.00691274 0.00270544 0.000701245 0.000453573 0.00012589 0.000145323 0 
202 0.0514764 0.93835 0.0050441 0.00348677 0.000902257 0.000328725 0.00016423 0 0.000164851 8.2429e-05 
203 0.0798305 0.91792 0.00130574 0.000353523 0.000354366 0.000118081 0 5.0536e-07 0.000117585 0 
204 0.0647535 0.920046 0.00753758 0.00520915 0.00134795 0.000491107 0.000245356 0 0.000246283 0.000123147 
205 0.0654941 0.915678 0.00933492 0.00645313 0.00166985 0.000608387 0.000303948 0 0.000305097 0.000152555 
206 0.0711147 0.926013 0.00166733 0.000451421 0.000452498 0.00015078 0 6.45305e-07 0.000150147 0 
207 1.23505e-06 0.7718 0.0804232 0.0880967 0.0127042 0.0171379 0 1.52401e-07 0.0298368 0 
208 0.0110425 0.855574 0.0798657 0.028803 0.0168096 0.00451536 0.00338994 0 0 0 
209 0.0159621 0.957442 0.0144266 0.00761681 0.00298099 0.000772668 0.00049977 0.000138712 0.000160124 0 
210 0.0245876 0.935519 0.0216399 0.0114252 0.00447149 0.001159 0.000749655 0.000208069 0.000240186 0 
211 0.0316733 0.934923 0.0181219 0.0095653 0.00374357 0.000970327 0.000627618 0.000174197 0.000201086 0 
212 0 0.848066 0.08715 0.0429036 0 0 0 0 0.0218804 0 
213 0.0645309 0.916918 0.00919765 0.00635823 0.00164529 0.00059944 0.000299478 0 0.00030061 0.000150312 
214 0.0223883 0.940309 0.0202347 0.0106833 0.00418113 0.00108374 0.000700976 0.000194558 0.000224589 0 
215 0.0977238 0.899882 0.00138944 0.000376184 0.000377082 0.00012565 0 5.37754e-07 0.000125123 0 
216 0.0664864 0.9144 0.00947636 0.0065509 0.00169515 0.000617605 0.000308553 0 0.00030972 0.000154867 
217 0.0675093 0.913084 0.00962215 0.00665169 0.00172123 0.000627106 0.0003133 0 0.000314484 0.000157249 
218 0.0261197 0.93036 0.0236071 0.0124639 0.00487799 0.00126436 0.000817805 0.000226984 0.000262021 0 
219 0.0360979 0.923864 0.0307171 0.00583431 0.00228331 0.000591831 0.000382803 0.000106248 0.000122648 0 
220 0.0665971 0.926026 0.00365754 0.00252842 0.000654268 0.000238374 0.000119091 0 0.000119541 5.97731e-05 
221 0.0665199 0.917906 0.00772148 0.00533777 0.00138123 0.000503233 0.000251414 0 0.000252364 0.000126188 
222 0.0711147 0.926013 0.00166733 0.000451421 0.000452498 0.00015078 0 6.45305e-07 0.000150147 0 
223 0.0618043 0.920429 0.00880902 0.00608957 0.00157577 0.000574111 0.000286824 0 0.000287908 0.00014396 
224 0.0669921 0.930302 0.00157067 0.000425252 0.000426267 0.000142039 0 6.07896e-07 0.000141443 0 
225 0.0236151 0.937038 0.0213434 0.0112687 0.00441023 0.00114312 0.000739386 0.000205218 0.000236896 0 
226 0.0666917 0.926058 0.00359455 0.00248483 0.000642988 0.000234264 0.000117038 0 0.00011748 5.87425e-05 
227 0.0675093 0.913084 0.00962215 0.00665169 0.00172123 0.000627106 0.0003133 0 0.000314484 0.000157249 
228 0.0265216 0.929289 0.0239703 0.0126556 0.00495303 0.00128382 0.000830387 0.000230476 0.000266052 0 
229 0.0246272 0.934339 0.0222581 0.0117516 0.00459924 0.00119212 0.000771074 0.000214013 0.000247048 0 
230 0.0654941 0.915678 0.00933492 0.00645313 0.00166985 0.000608387 0.000303948 0 0.000305097 0.000152555 
231 0.0608218 0.936721 0.00142601 0.000386084 0.000387005 0.000128957 0 5.51906e-07 0.000128415 0 
232 0.0645309 0.916918 0.00919765 0.00635823 0.00164529 0.00059944 0.000299478 0 0.00030061 0.000150312 
233 0.0675093 0.913084 0.00962215 0.00665169 0.00172123 0.000627106 0.0003133 0 0.000314484 0.000157249 
234 0.0638916 0.933986 0.00123163 0.000333436 0.000334232 0.000111372 0 4.76646e-07 0.000110904 0 
235 0.0781765 0.90644 0.00762734 0.00527268 0.00136439 0.000497096 0.000248348 0 0.000249286 0.000124649 
236 0.0261197 0.93036 0.0236071 0.0124639 0.00487799 0.00126436 0.000817805 0.000226984 0.000262021 0 
237 0.0223883 0.940309 0.0202347 0.0106833 0.00418113 0.00108374 0.000700976 0.000194558 0.000224589 0 
238 0.0265216 0.929289 0.0239703 0.0126556 0.00495303 0.00128382 0.000830387 0.000230476 0.000266052 0 
239 0.0110425 0.855574 0.0798657 0.028803 0.0168096 0.00451536 0.00338994 0 0 0 
240 0.0265216 0.929289 0.0239703 0.0126556 0.00495303 0.00128382 0.000830387 0.000230476 0.000266052 0 
241 0.0794553 0.919001 0.000895703 0.000242499 0.000243078 8.09977e-05 0 3.46652e-07 8.06576e-05 0 
242 0.0524187 0.936535 0.00653561 0.00306638 0.000793474 0.000289091 0.000144429 0 0.000144975 7.24907e-05 
243 0.0433893 0.928924 0.0145372 0.0103555 0.00182949 0.000474137 0.000306677 8.5119e-05 9.82579e-05 0 
244 0.0548812 0.92935 0.007818 0.0054045 0.0013985 0.000509524 0.000254557 0 0.000255519 0.000127765 
245 0.0265216 0.929289 0.0239703 0.0126556 0.00495303 0.00128382 0.000830387 0.000230476 0.000266052 0 
246 0.050438 0.935062 0.00718896 0.00496965 0.00128598 0.000468528 0.000234075 0 0.00023496 0.000117485 
247 0.0543818 0.943421 0.00127502 0.000345204 0.000346028 0.000115303 0 4.93469e-07 0.000114818 0 
248 0.0718414 0.911339 0.0083392 0.0057648 0.00149173 0.000543492 0.000271527 0 0.000272553 0.000136283 
249 0.0575505 0.931085 0.00563459 0.00389513 0.00100793 0.000367224 0.000183464 0 0.000184158 9.20828e-05 
250 0.0528687 0.931933 0.00753542 0.00520915 0.00134795 0.000491107 0.000245356 0 0.000246283 0.000123147 
251 0.0924923 0.905521 0.00115294 0.000312153 0.000312898 0.000104263 0 4.46222e-07 0.000103825 0 
252 0.0836754 0.899726 0.00822947 0.00568894 0.0014721 0.000536341 0.000267954 0 0.000268967 0.000134489 
253 0.0605056 0.922214 0.00856767 0.00592274 0.0015326 0.000558382 0.000278966 0 0.00028002 0.000140016 
254 0.129738 0.868484 0.00103216 0.000279451 0.000280118 9.33402e-05 0 3.99475e-07 9.29483e-05 0 
255 0.0483309 0.919609 0.0234094 0.00541605 0.00211807 0.000549001 0.0003551 9.85588e-05 0.000113772 0 
256 0.0515822 0.94629 0.00140933 0.000269196 0.000269839 8.99149e-05 0 3.84815e-07 8.95373e-05 0 
257 0.0257299 0.931399 0.0232548 0.0122778 0.00480518 0.00124549 0.000805599 0.000223596 0.00025811 0 
258 0.0828169 0.914848 0.0013552 0.00036678 0.000367655 0.000122509 0 5.24311e-07 0.000121995 0 
259 0.0642008 0.933206 0.00150523 0.000407533 0.000408506 0.000136121 0 5.82567e-07 0.00013555 0 
260 0.116719 0.867314 0.00791696 0.00547291 0.0014162 0.000515973 0.000257779 0 0.000258753 0.000129382 
261 0.0239434 0.936157 0.0216454 0.0114252 0.00447149 0.001159 0.000749655 0.000208069 0.000240186 0 
262 0.0110425 0.855574 0.0798657 0.028803 0.0168096 0.00451536 0.00338994 0 0 0 
263 0.0618043 0.906344 0.00880901 0.00608957 0.00157577 0.000574111 0.000286824 0 0.000287909 0.0142285 
264 0.0535136 0.931099 0.00763112 0.00527268 0.00136439 0.000497096 0.000248348 0 0.000249286 0.000124649 
265 0.0609459 0.921534 0.00868667 0.006005 0.00155389 0.000566138 0.000282841 0 0.00028391 0.000141961 
266 0.0609459 0.921534 0.00868667 0.006005 0.00155389 0.000566138 0.000282841 0 0.00028391 0.000141961 
267 0.0232962 0.937821 0.0211226 0.0111164 0.00435064 0.00112768 0.000729394 0.000202445 0.000233694 0 
268 0.0246272 0.920055 0.0309651 0.0173289 0.00459925 0.00119212 0.000771074 0.000214013 0.000247048 0 
269 0.0662246 0.931908 0.00108376 0.000293424 0.000294124 9.80072e-05 0 4.19448e-07 9.75957e-05 0 
270 0.0462246 0.951908 0.00108376 0.000293424 0.000294124 9.80072e-05 0 4.19448e-07 9.75957e-05 0 
271 0.0690783 0.914749 0.00801846 0.00554307 0.00143436 0.000522589 0.000261084 0 0.00026207 0.000131041 
272 0.0104024 0.863946 0.0752358 0.0271332 0.0158352 0.0042536 0.00319342 0 0 0 
273 0.0773256 0.912251 0.00520975 0.00354393 0.000917048 0.000334114 0.000166922 0 0.000167553 8.37803e-05 
274 0.0193697 0.948357 0.0175064 0.00924287 0.00361738 0.000937619 0.000606462 0.000168325 0.000194308 0 
275 0.0239431 0.936163 0.0216398 0.0114252 0.00447149 0.001159 0.000749655 0.000208069 0.000240186 0 
276 0.0654941 0.900753 0.0242603 0.00645313 0.00166985 0.000608387 0.000303948 0 0.000305097 0.000152555 
277 0.0592706 0.938335 0.00138944 0.000376184 0.000377082 0.00012565 0 5.37754e-07 0.000125123 0 
278 0.0780885 0.903629 0.00906435 0.00626608 0.00162145 0.000590752 0.000295138 0 0.000296253 0.000148133 
279 0.0528687 0.931933 0.00753542 0.00520915 0.00134795 0.000491107 0.000245356 0 0.000246283 0.000123147 
280 0.0223937 0.940298 0.02024 0.0106833 0.00418113 0.00108374 0.000700976 0.000194558 0.000224589 0 
281 0.0508385 0.92782 0.0153416 0.00407887 0.00105547 0.000384546 0.000192118 0 0.000192844 9.64264e-05 
282 0.0585081 0.924672 0.0083392 0.0057648 0.00149173 0.000543492 0.000271527 0 0.000272553 0.000136283 
283 0.0555456 0.928486 0.00791696 0.00547291 0.0014162 0.000515973 0.000257779 0 0.000258753 0.000129382 
284 0.0608218 0.936721 0.00142601 0.000386084 0.000387005 0.000128957 0 5.51906e-07 0.000128415 0 
285 0.0948782 0.90307 0.00119095 0.000322444 0.000323213 0.0001077 0 4.60932e-07 0.000107248 0 
286 0.0200496 0.783366 0.0941043 0.0569465 0.0281577 0.00290676 0.00578103 0.00289671 0.00293471 0.0028565 
287 0.020975 0.757983 0.113832 0.0595748 0.0294573 0.00304092 0.00604785 0.0030304 0.00307016 0.00298834 
288 0.026128 0.930352 0.0236071 0.0124639 0.00487799 0.00126436 0.000817805 0.000226984 0.000262021 0 
289 0.0257299 0.931399 0.0232548 0.0122778 0.00480518 0.00124549 0.000805599 0.000223596 0.00025811 0 
290 0.0194768 0.789556 0.0914156 0.0553194 0.0273532 0.00282371 0.00561586 0.00281395 0.00285086 0.00277489 
291 0.0261197 0.93036 0.0236071 0.0124639 0.00487799 0.00126436 0.000817805 0.000226984 0.000262021 0 
292 0.0261197 0.93036 0.0236071 0.0124639 0.00487799 0.00126436 0.000817805 0.000226984 0.000262021 0 
293 0.0203489 0.779549 0.0960923 0.0577964 0.0285779 0.00295014 0.00586731 0.00293994 0.00297851 0.00289914 
294 0.0105553 0.847815 0.0904732 0.0275323 0.016068 0.00431616 0.00324039 0 0 0 
295 0.0661465 0.931657 0.00127502 0.000345204 0.000346028 0.000115303 0 4.93469e-07 0.000114818 0 
296 0.0107129 0.859885 0.0774816 0.0279432 0.0163079 0.00438058 0.00328875 0 0 0 
297 0.0242803 0.935264 0.0219446 0.0115861 0.00453447 0.00117533 0.000760214 0.000210999 0.000243569 0 
298 0.0253515 0.902996 0.0523245 0.0120973 0.00473452 0.00122718 0.000793752 0.000220308 0.000254315 0 
299 0.0110425 0.855574 0.0798657 0.028803 0.0168096 0.00451536 0.00338994 0 0 0 
300 0.0654941 0.915678 0.00933492 0.00645313 0.00166985 0.000608387 0.000303948 0 0.000305097 0.000152555 
301 0.0108752 0.832334 0.104084 0.0283666 0.016555 0.00444695 0.00333858 0 0 0 
302 0.0236151 0.937038 0.0213434 0.0112687 0.00441023 0.00114312 0.000739386 0.000205218 0.000236896 0 
303 0.090579 0.895707 0.00680093 0.00469956 0.00121609 0.000443064 0.000221354 0 0.00022219 0.0001111 
304 0.0626872 0.919292 0.00893486 0.00617657 0.00159828 0.000582313 0.000290922 0 0.000292021 0.000146017 
305 0.0110425 0.855574 0.0798657 0.028803 0.0168096 0.00451536 0.00338994 0 0 0 
306 0.0180965 0.890626 0.0546597 0.0197073 0.0115013 0.00308946 0.00231943 0 0 0 
307 0.0626872 0.919292 0.00893486 0.00617657 0.00159828 0.000582313 0.000290922 0 0.000292021 0.000146017 
308 0.0257299 0.931399 0.0232548 0.0122778 0.00480518 0.00124549 0.000805599 0.000223596 0.00025811 0 
309 0.0107129 0.859885 0.0774816 0.0279432 0.0163079 0.00438058 0.00328875 0 0 0 
310 0.0110425 0.840286 0.0951532 0.028803 0.0168096 0.00451536 0.00338994 0 0 0 
311 0.0110425 0.855574 0.0798657 0.028803 0.0168096 0.00451536 0.00338994 0 0 0 
312 0.0265216 0.929289 0.0239703 0.0126556 0.00495303 0.00128382 0.000830387 0.000230476 0.000266052 0 
313 0.0257299 0.931399 0.0232553 0.0122778 0.00480518 0.00124549 0.000805599 0.000223596 0.00025811 0 
314 0.0242803 0.935264 0.0219446 0.0115861 0.00453447 0.00117533 0.000760214 0.000210999 0.000243569 0 
315 0.0265216 0.913904 0.0239703 0.0126556 0.00495303 0.00128384 0.016215 0.000230476 0.000266052 0 
316 0.0105553 0.861946 0.0763422 0.0275323 0.016068 0.00431616 0.00324039 0 0 0 
317 0.0383648 0.92118 0.0219446 0.0115861 0.00453447 0.00117533 0.000760214 0.000210999 0.000243569 0 
318 0.0608218 0.918416 0.0197317 0.000386084 0.000387005 0.000128957 0 5.51906e-07 0.000128415 0 
319 0.0614644 0.90678 0.00938705 0.0195392 0.00155413 0.000566138 0.000282841 0 0.00028391 0.000141961 
320 0.0555806 0.901549 0.0232548 0.0122778 0.00480518 0.00124549 0.000805599 0.000223596 0.00025811 0 
321 0.0675093 0.913084 0.00962215 0.00665169 0.00172123 0.000627106 0.0003133 0 0.000314484 0.000157249 
322 0.0675122 0.913081 0.00962215 0.00665169 0.00172123 0.000627106 0.0003133 0 0.000314484 0.000157249 
323 0.0265216 0.929289 0.0239703 0.0126556 0.00495303 0.00128382 0.000830387 0.000230476 0.000266052 0 
324 0.020975 0.757983 0.0984475 0.0595748 0.0294573 0.00304092 0.00604785 0.0030344 0.0184508 0.00298834 
325 0.0242837 0.935261 0.0219448 0.0115861 0.00453447 0.00117533 0.000760214 0.000210999 0.000243569 0 
326 0.0229854 0.938717 0.0207742 0.0109682 0.00429263 0.00111264 0.000719669 0.000199746 0.000230579 0 
327 0.0473516 0.940159 0.00619247 0.00428079 0.00110772 0.000403583 0.000201629 0 0.000202391 0.0001012 
328 0.0110425 0.855574 0.0798657 0.028803 0.0168096 0.00451536 0.00338994 0 0 0 
329 0.0689919 0.928221 0.00161756 0.000437946 0.000438991 0.000146279 0 6.26042e-07 0.000145665 0 
330 0.0516248 0.933534 0.00735812 0.00508658 0.00131623 0.000479552 0.000239583 0 0.000240488 0.000120249 
331 0.0107129 0.859885 0.0774816 0.0279432 0.0163079 0.00438058 0.00328875 0 0 0 
332 0.0822931 0.913478 0.00323759 0.000371423 0.000372309 0.00012406 0 5.30947e-07 0.000123539 0 
333 0.0265216 0.929289 0.0239703 0.0126556 0.00495303 0.00128382 0.000830387 0.000230476 0.000266052 0 
334 0.0110425 0.855574 0.0798657 0.028803 0.0168096 0.00451536 0.00338994 0 0 0 
335 0.0261197 0.900057 0.0264373 0.0399265 0.00488813 0.00126436 0.000817805 0.000226984 0.000262021 0 
336 0.0261197 0.93036 0.0236071 0.0124639 0.00487799 0.00126436 0.000817805 0.000226984 0.000262021 0 
337 0.0105553 0.861946 0.0763422 0.0275323 0.016068 0.00431616 0.00324039 0 0 0 
338 0.0261197 0.915209 0.0236071 0.0124639 0.00487799 0.0164159 0.000817806 0.000226984 0.000262021 0 
339 0.0349218 0.928253 0.0199752 0.0105464 0.00412753 0.00106985 0.000691989 0.000192063 0.00022171 0 
340 0.0585121 0.939124 0.00137185 0.000371423 0.000372309 0.00012406 0 5.30947e-07 0.000123539 0 
341 0.0438875 0.943498 0.0062544 0.0043236 0.0011188 0.000407619 0.000203645 0 0.000204415 0.000102212 
342 0.0215488 0.917547 0.0319759 0.0227826 0.00402434 0.0010431 0.00067469 0.000187262 0.000216167 0 
343 0.112119 0.886167 0.000994279 0.000269196 0.000269839 8.99149e-05 0 3.84815e-07 8.95373e-05 0 
344 0.0239431 0.922274 0.0355287 0.0114252 0.00447149 0.001159 0.000749655 0.000208069 0.000240186 0 
345 0.0242803 0.935264 0.0219446 0.0115861 0.00453447 0.00117533 0.000760214 0.000210999 0.000243569 0 
346 0 0.848066 0.08715 0.0429036 0 0 0 0 0.0218804 0 
347 0.064865 0.919759 0.00771352 0.00520915 0.00134795 0.000491107 0.000245356 0 0.000246283 0.000123147 
348 0.0108752 0.857762 0.0786556 0.0283666 0.016555 0.00444695 0.00333858 0 0 0 
349 0.0533651 0.923837 0.0123668 0.00652869 0.00255514 0.000662286 0.000428374 0.000118896 0.000137249 0 
350 0.0236151 0.923339 0.0350418 0.0112687 0.00441023 0.00114312 0.000739386 0.000205218 0.000236896 0 
351 0 0.848066 0.08715 0.0429036 0 0 0 0 0.0218804 0 
352 0.0393292 0.951452 0.00457589 0.00315591 0.000816641 0.000297532 0.000148646 0 0.000149208 7.46073e-05 
353 0.0108752 0.842611 0.0786556 0.0283666 0.01657 0.0195834 0.00333858 0 0 0 
354 0.0626872 0.919292 0.00893486 0.00617657 0.00159828 0.000582313 0.000290922 0 0.000292021 0.000146017 
355 0.0600319 0.937543 0.00140749 0.00038107 0.000381979 0.000127282 0 5.44738e-07 0.000126748 0 
356 0.0187381 0.950041 0.0169355 0.00894147 0.00349943 0.000907044 0.000586687 0.000162836 0.000187972 0 
357 0.119759 0.878496 0.00101297 0.000274228 0.000274882 9.15956e-05 0 3.92008e-07 9.12109e-05 0 
358 0.0960121 0.902551 0.000833665 0.000225711 0.000226249 7.53902e-05 0 3.22653e-07 7.50736e-05 0 
359 0.0563735 0.941347 0.00132378 0.000357834 0.000358688 0.000119521 0 5.11522e-07 0.000119019 0 
360 0.0682067 0.915825 0.00791697 0.00547291 0.0014162 0.000515973 0.000257779 0 0.000258753 0.000129382 
361 0.0389129 0.920054 0.0222581 0.0117516 0.00459924 0.00119212 0.000771074 0.000214013 0.000247048 0 
362 0.0374356 0.923217 0.0213434 0.0112687 0.00441023 0.00114312 0.000739386 0.000205218 0.000236896 0 
363 0.0608218 0.936721 0.00142601 0.000386084 0.000387005 0.000128957 0 5.51906e-07 0.000128415 0 
364 0.0265216 0.913904 0.0239703 0.0280402 0.00495303 0.00128382 0.000830387 0.000230476 0.000266052 0 
365 0.0692555 0.927958 0.00161756 0.000437946 0.000438991 0.000146279 0 6.26042e-07 0.000145665 0 
366 0.0754282 0.923562 0.000669157 0.000127576 0.00012788 4.26118e-05 0 1.82369e-07 4.24329e-05 0 
367 0.0265216 0.929289 0.0239703 0.0126556 0.00495303 0.00128382 0.000830387 0.000230476 0.000266052 0 
368 0.0776004 0.920894 0.000874004 0.000236632 0.000237197 7.90381e-05 0 3.38265e-07 7.87062e-05 0 
369 0.0105553 0.861946 0.0763422 0.0275323 0.016068 0.00431616 0.00324039 0 0 0 
370 0.0664864 0.9144 0.00947636 0.0065509 0.00169515 0.000617605 0.000308553 0 0.00030972 0.000154867 
371 0.0567925 0.941321 0.00109471 0.000296388 0.000297095 9.89972e-05 0 4.23685e-07 9.85815e-05 0 
372 0.0654941 0.915678 0.00933492 0.00645313 0.00166985 0.000608387 0.000303948 0 0.000305097 0.000152555 
373 0.0261197 0.93036 0.0236071 0.0124639 0.00487799 0.00126436 0.000817805 0.000226984 0.000262021 0 
374 0.0102538 0.86585 0.0742011 0.0267456 0.015609 0.00419284 0.0031478 0 0 0 
375 0.020975 0.773367 0.0984479 0.0595748 0.0294573 0.00304092 0.00604785 0.0030304 0.00307016 0.00298834 
376 0.0253515 0.932408 0.0229128 0.0120973 0.00473452 0.00122718 0.000793752 0.000220308 0.000254315 0 
377 0.0493046 0.936522 0.00702743 0.00485797 0.00125708 0.000457999 0.000228815 0 0.00022968 0.000114845 
378 0.0715252 0.910454 0.00893486 0.00617657 0.00159828 0.000582313 0.000290922 0 0.000292021 0.000146017 
379 0.0249841 0.918896 0.0370724 0.011922 0.0046659 0.00120939 0.000782249 0.000217115 0.000250629 0 
380 0.0660351 0.931297 0.00154823 0.000419177 0.000420177 0.00014001 0 5.99212e-07 0.000139422 0 
381 0.0770152 0.921099 0.00109471 0.000296388 0.000297095 9.89972e-05 0 4.23685e-07 9.85815e-05 0 
382 0.020975 0.773368 0.0984475 0.0595748 0.0294573 0.00304092 0.00604784 0.0030304 0.00307016 0.00298834 
383 0.0675093 0.913084 0.00962215 0.00665169 0.00172123 0.000627106 0.0003133 0 0.000314484 0.000157249 
384 0.0253515 0.932408 0.0229128 0.0120973 0.00473452 0.00122718 0.000793752 0.000220308 0.000254315 0 
385 0.0108752 0.857762 0.0786556 0.0283666 0.016555 0.00444695 0.00333858 0 0 0 
386 0.0229854 0.925383 0.0341076 0.0109682 0.00429263 0.00111264 0.000719669 0.000199746 0.000230579 0 
387 0.0585664 0.927722 0.00679826 0.00469956 0.00121609 0.000443064 0.000221354 0 0.00022219 0.0001111 
388 0.0685665 0.929156 0.00132166 0.000357834 0.000358688 0.000119521 0 5.11522e-07 0.000119019 0 
389 0.0105553 0.861946 0.0763422 0.0275323 0.016068 0.00431616 0.00324039 0 0 0 
390 0.0246272 0.934339 0.0222581 0.0117516 0.00459924 0.00119212 0.000771074 0.000214013 0.000247048 0 
391 0.0591491 0.929171 0.00579111 0.00400333 0.00103592 0.000377425 0.00018856 0 0.000189273 9.46407e-05 
392 0.0851549 0.913193 0.000959084 0.000259667 0.000260287 8.67321e-05 0 3.71193e-07 8.63679e-05 0 
393 0.0253515 0.932408 0.0229128 0.0120973 0.00473452 0.00122718 0.000793752 0.000220308 0.000254315 0 
394 0.0361669 0.935944 0.0151292 0.00798656 0.0031257 0.000810176 0.000524031 0.000145446 0.000167897 0 
395 0.0658567 0.921138 0.00644783 0.00445732 0.0011534 0.000420226 0.000209944 0 0.000210737 0.000105373 
396 0.0748348 0.907644 0.00868737 0.006005 0.00155389 0.000566138 0.000282841 0 0.00028391 0.000141961 
397 0.0708961 0.912506 0.00822947 0.00568894 0.0014721 0.000536341 0.000267954 0 0.000268967 0.000134489 
398 0.0675093 0.913083 0.00962215 0.00665169 0.00172123 0.000627106 0.0003133 0 0.000314484 0.000157249 
399 0.0609459 0.921534 0.00868667 0.006005 0.00155389 0.000566138 0.000282841 0 0.00028391 0.000141961 
400 0.0617235 0.920756 0.00868667 0.006005 0.00155389 0.000566138 0.000282841 0 0.00028391 0.000141961 
401 0.0265216 0.929289 0.0239703 0.0126556 0.00495303 0.00128382 0.000830387 0.000230476 0.000266052 0 
402 0.0110425 0.855574 0.0798657 0.028803 0.0168096 0.00451536 0.00338994 0 0 0 
403 0.0493045 0.936522 0.00702742 0.00485797 0.00125708 0.000457999 0.000228815 0 0.00022968 0.000114845 
404 0.00922124 0.876561 0.0696197 0.0240025 0.014008 0.0037628 0.00282495 0 0 0 
405 0.0107129 0.859885 0.0774816 0.0279432 0.0163079 0.00438058 0.00328875 0 0 0 
406 0.0316749 0.776754 0.098656 0.0516315 0.0255296 0.00263546 0.00524147 0.00262635 0.0026608 0.00258989 
407 0.00908458 0.883728 0.0642409 0.0231135 0.0134892 0.00362344 0.00272032 0 0 0 
408 0.0265216 0.929289 0.0239703 0.0126556 0.00495303 0.00128382 0.000830387 0.000230476 0.000266052 0 
409 0.045207 0.815546 0.0666572 0.0403371 0.019945 0.00205896 0.0040949 0.00205184 0.00207875 0.00202335 
410 0.0601143 0.922605 0.00856767 0.00592274 0.0015326 0.000558382 0.000278966 0 0.00028002 0.000140016 
411 0.0548513 0.92938 0.007818 0.0054045 0.0013985 0.000509524 0.000254557 0 0.000255519 0.000127765 
412 0.0645309 0.902212 0.00919765 0.0210641 0.00164529 0.00059944 0.000299478 0 0.00030061 0.000150312 
413 0.0791765 0.90665 0.00702742 0.00485797 0.00125708 0.000457999 0.000228815 0 0.00022968 0.000114845 
414 0.0555886 0.928443 0.00791697 0.00547291 0.0014162 0.000515973 0.000257779 0 0.000258753 0.000129382 
415 0.060822 0.924003 0.0141439 0.000386084 0.000387005 0.000128957 0 5.51906e-07 0.000128415 0 
416 0.023296 0.937889 0.021055 0.0111164 0.00435064 0.00112768 0.000729394 0.000202445 0.000233694 0 
417 0.0706652 0.926472 0.00167524 0.000444582 0.000445642 0.000148496 0 6.35528e-07 0.000147872 0 
418 0.0249841 0.933388 0.0225807 0.011922 0.0046659 0.00120939 0.000782249 0.000217115 0.000250629 0 
419 0.0242803 0.935264 0.0219446 0.0115861 0.00453447 0.00117533 0.000760214 0.000210999 0.000243569 0 
420 0.0592987 0.923647 0.00845919 0.0058427 0.00151189 0.000550837 0.000275196 0 0.000276236 0.000138124 
421 0.0609478 0.921532 0.00868668 0.006005 0.00155389 0.000566138 0.000282841 0 0.00028391 0.000141961 
422 0.0760489 0.908934 0.00744571 0.00514714 0.0013319 0.000485261 0.000242435 0 0.000243351 0.000121681 
423 0.0229854 0.938717 0.0207742 0.0109682 0.00429263 0.00111264 0.000719669 0.000199746 0.000230579 0 
424 0.0110425 0.855574 0.0798657 0.028803 0.0168096 0.00451536 0.00338994 0 0 0 
425 0.0257299 0.931399 0.0232548 0.0122778 0.00480518 0.00124549 0.000805599 0.000223596 0.00025811 0 
426 0.0206572 0.761665 0.112093 0.0586721 0.0290109 0.00299484 0.00595621 0.00298449 0.00302364 0.00294306 
427 0.0645309 0.916918 0.00919765 0.00635823 0.00164529 0.00059944 0.000299478 0 0.00030061 0.000150312 
428 0.0261197 0.93036 0.0236071 0.0124639 0.00487799 0.00126436 0.000817805 0.000226984 0.000262021 0 
429 0.0609459 0.921534 0.00868667 0.006005 0.00155389 0.000566138 0.000282841 0 0.00028391 0.000141961 
430 0.0253515 0.932408 0.0229128 0.0120973 0.00473452 0.00122718 0.000793752 0.000220308 0.000254315 0 
431 0.0265216 0.929289 0.0239703 0.0126556 0.00495303 0.00128382 0.000830387 0.000230476 0.000266052 0 
432 0.0562923 0.927535 0.00801846 0.00554307 0.00143436 0.000522589 0.000261084 0 0.00026207 0.000131041 
433 0.0108752 0.8426 0.0938178 0.0283666 0.016555 0.00444695 0.00333858 0 0 0 
434 0.0689423 0.919157 0.00590038 0.00407887 0.00105547 0.000384546 0.000192118 0 0.000192844 9.64264e-05 
435 0.0700372 0.927134 0.00164207 0.000444582 0.000445642 0.000148496 0 6.35528e-07 0.000147872 0 
436 0.0110425 0.855574 0.0798657 0.028803 0.0168096 0.00451536 0.00338994 0 0 0 
437 0.0664864 0.9144 0.00947636 0.0065509 0.00169515 0.000617605 0.000308553 0 0.00030972 0.000154867 
438 0.0261197 0.93036 0.0236071 0.0124639 0.00487799 0.00126436 0.000817805 0.000226984 0.000262021 0 
439 0.0633242 0.934118 0.00148461 0.00040195 0.00040291 0.000134256 0 5.74587e-07 0.000133693 0 
440 0.0108765 0.857742 0.0786747 0.0283666 0.016555 0.00444695 0.00333858 0 0 0 
441 0.020975 0.760261 0.111554 0.0595748 0.0294573 0.00304092 0.00604785 0.0030304 0.00307016 0.00298834 
442 0.0693569 0.913123 0.00868667 0.006005 0.00155389 0.000566138 0.000282841 0 0.00028391 0.000141961 
443 0.0827807 0.914885 0.00135471 0.00036678 0.000367655 0.000122509 0 5.24311e-07 0.000121995 0 
444 0.0645309 0.916918 0.00919765 0.00635823 0.00164529 0.00059944 0.000299478 0 0.00030061 0.000150312 
445 0.0654941 0.915678 0.00933492 0.00645313 0.00166985 0.000608387 0.000303948 0 0.000305097 0.000152555 
446 0.0842848 0.899747 0.00791708 0.00547291 0.0014162 0.000515973 0.000257779 0 0.000258753 0.000129382 
447 0.0711147 0.926013 0.00166733 0.000451421 0.000452498 0.00015078 0 6.45305e-07 0.000150147 0 
448 0.0675093 0.913084 0.00962215 0.00665169 0.00172123 0.000627106 0.0003133 0 0.000314484 0.000157249 
449 0.0543818 0.943421 0.00127502 0.000345204 0.000346028 0.000115303 0 4.93469e-07 0.000114818 0 
450 0.0769729 0.905006 0.00893486 0.00617657 0.00159828 0.000582313 0.000290922 0 0.000292021 0.000146017 
451 0.0110425 0.855574 0.0798657 0.028803 0.0168096 0.00451536 0.00338994 0 0 0 
452 0.0769729 0.905006 0.00893486 0.00617657 0.00159828 0.000582313 0.000290922 0 0.000292021 0.000146017 
453 0.0543532 0.932905 0.00631757 0.00436727 0.0011301 0.000411736 0.000205702 0 0.00020648 0.000103244 
454 0.0682039 0.915828 0.00791696 0.00547291 0.0014162 0.000515973 0.000257779 0 0.000258753 0.000129382 
455 0.0382659 0.931812 0.0162316 0.00856891 0.00335362 0.000869251 0.000562241 0.000156051 0.000180139 0 
456 0.0242883 0.935248 0.0219526 0.0115861 0.00453447 0.00117533 0.000760214 0.000210999 0.000243569 0 
457 0.0249844 0.933387 0.0225807 0.011922 0.0046659 0.00120939 0.000782249 0.000217115 0.000250629 0 
458 0.0618043 0.920429 0.00880901 0.00608957 0.00157577 0.000574111 0.000286824 0 0.000287908 0.00014396 
459 0.0645309 0.916918 0.00919765 0.00635823 0.00164529 0.00059944 0.000299478 0 0.00030061 0.000150312 
460 0.0570673 0.940627 0.00133798 0.000362252 0.000363116 0.000120997 0 5.17838e-07 0.000120488 0 
461 0.0242803 0.935264 0.0219446 0.0115861 0.00453447 0.00117533 0.000760214 0.000210999 0.000243569 0 
462 0.0937129 0.90409 0.00127502 0.000345204 0.000346028 0.000115303 0 4.93469e-07 0.000114818 0 
463 0.0242803 0.935264 0.0219446 0.0115861 0.00453447 0.00117533 0.000760214 0.000210999 0.000243569 0 
464 0.0257299 0.931399 0.0232548 0.0122778 0.00480518 0.00124549 0.000805599 0.000223596 0.00025811 0 
465 0.0110425 0.855574 0.0798657 0.028803 0.0168096 0.00451536 0.00338994 0 0 0 
466 0.0412712 0.915208 0.0236071 0.0124639 0.00487799 0.00126436 0.000817805 0.000226984 0.000262021 0 
467 0.0110425 0.855574 0.0798657 0.028803 0.0168096 0.00451536 0.00338994 0 0 0 
468 1.07254e-06 0.809383 0.0622847 0.076505 0.0110326 0.0148829 0 1.32349e-07 0.0259109 0 
469 0.0626872 0.919292 0.00893486 0.00617657 0.00159828 0.000582313 0.000290922 0 0.000292021 0.000146017 
470 0.0736091 0.924316 0.00120419 0.000326026 0.000326804 0.000108897 0 4.66054e-07 0.00010844 0 
471 0.0102538 0.86589 0.074161 0.0267456 0.015609 0.00419284 0.0031478 0 0 0 
472 0.0108752 0.857762 0.0786556 0.0283666 0.016555 0.00444695 0.00333858 0 0 0 
473 0.0569884 0.926629 0.0081226 0.00561506 0.00145299 0.000529375 0.000264474 0 0.000265474 0.000132743 
474 0.0618043 0.920429 0.00880901 0.00608957 0.00157577 0.000574111 0.000286824 0 0.000287908 0.00014396 
475 0.0664864 0.9144 0.00947636 0.0065509 0.00169515 0.000617605 0.000308553 0 0.00030972 0.000154867 
476 1.25405e-06 0.777124 0.0728252 0.089452 0.0128996 0.0174016 0 1.54746e-07 0.0302958 0 
477 0.0205226 0.945283 0.0185484 0.00979304 0.0038327 0.00099343 0.000642561 0.000178345 0.000205874 0 
478 0.0110425 0.855574 0.0798657 0.028803 0.0168096 0.00451536 0.00338994 0 0 0 
479 0.0253515 0.917702 0.0376187 0.0120973 0.00473452 0.00122718 0.000793752 0.000220308 0.000254315 0 
480 0.023296 0.937889 0.021055 0.0111164 0.00435064 0.00112768 0.000729394 0.000202445 0.000233694 0 
481 0.0664864 0.901472 0.0224052 0.0065509 0.00169515 0.000617605 0.000308553 0 0.00030972 0.000154867 
482 0.112809 0.870145 0.00845189 0.0058427 0.00151189 0.000550837 0.000275196 0 0.000276236 0.000138124 
483 0.0738096 0.90891 0.00856767 0.00592274 0.0015326 0.000558382 0.000278966 0 0.00028002 0.000140016 
484 0.0258101 0.931288 0.0232858 0.0122778 0.00480518 0.00124549 0.000805599 0.000223596 0.00025811 0 
485 0.0265216 0.913936 0.0393229 0.0126556 0.00495303 0.00128382 0.000830387 0.000230476 0.000266052 0 
486 0.0654941 0.915678 0.00933492 0.00645313 0.00166985 0.000608387 0.000303948 0 0.000305097 0.000152555 
487 0.020975 0.773368 0.0984475 0.0595748 0.0294573 0.00304092 0.00604784 0.0030304 0.00307016 0.00298834 
488 0.0711147 0.926013 0.00166733 0.000451421 0.000452498 0.00015078 0 6.45305e-07 0.000150147 0 
489 0.0107129 0.844953 0.0924138 0.0279432 0.0163079 0.00438058 0.00328875 0 0 0 
490 0.0664864 0.899287 0.0245902 0.00655091 0.00169515 0.000617605 0.000308553 0 0.00030972 0.000154867 
491 0.0246281 0.934339 0.0222581 0.0117516 0.00459924 0.00119212 0.000771074 0.000214013 0.000247048 0 
492 0.0645309 0.916918 0.00919765 0.00635823 0.00164529 0.00059944 0.000299478 0 0.00030061 0.000150312 
493 0.0609459 0.921534 0.00868667 0.006005 0.00155389 0.000566138 0.000282841 0 0.00028391 0.000141961 
494 0.0261197 0.915209 0.0387586 0.0124639 0.00487799 0.00126436 0.000817805 0.000226984 0.000262021 0 
495 0.0110425 0.840189 0.0798657 0.0289356 0.0320616 0.00451536 0.00338994 0 0 0 
496 0.00996893 0.869615 0.072101 0.0260027 0.0151754 0.00407637 0.00306036 0 0 0 
497 0.0874769 0.901735 0.0100761 0.000266749 0.000267385 8.90975e-05 0 3.81317e-07 8.87233e-05 0 
498 0.0645309 0.916918 0.00919765 0.00635823 0.00164529 0.00059944 0.000299478 0 0.00030061 0.000150312 
499 0.0246351 0.934909 0.0219446 0.0115861 0.00453447 0.00117533 0.000760214 0.000210999 0.000243569 0 
500 0.0226021 0.850162 0.0814641 0.0246341 0.0143767 0.00386182 0.00289929 0 0 0 
501 0.0107129 0.859885 0.0774816 0.0279432 0.0163079 0.00438058 0.00328875 0 0 0 
502 0.0645309 0.916918 0.00919765 0.00635823 0.00164529 0.00059944 0.000299478 0 0.00030061 0.000150312 
503 0.0645309 0.916918 0.00919765 0.00635823 0.00164529 0.00059944 0.000299478 0 0.00030061 0.000150312 
504 0.0679773 0.929277 0.00159377 0.000431506 0.000432535 0.000144128 0 6.16836e-07 0.000143523 0 
505 0.0265216 0.929289 0.0239703 0.0126556 0.00495303 0.00128382 0.000830387 0.000230476 0.000266052 0 
506 0.0229035 0.861497 0.0692169 0.0249626 0.0145684 0.00391332 0.00293795 0 0 0 
507 0 0.852601 0.0845484 0.0416229 0 0 0 0 0.0212272 0 
508 0.0711147 0.926013 0.00166733 0.000451421 0.000452498 0.00015078 0 6.45305e-07 0.000150147 0 
509 0.0711147 0.926013 0.00166733 0.000451421 0.000452498 0.00015078 0 6.45305e-07 0.000150147 0 
510 0.0110425 0.840189 0.0798657 0.0288572 0.03214 0.00451536 0.00338994 0 0 0 
511 0.0110425 0.840189 0.0798657 0.0441875 0.0168096 0.00451536 0.00338994 0 0 0 
512 0.0860847 0.899247 0.00727268 0.00502744 0.00130093 0.000473976 0.000236797 0 0.000237692 0.000118851 
513 0.0735843 0.924341 0.00120418 0.000326026 0.000326804 0.000108897 0 4.66054e-07 0.00010844 0 
514 0.0495291 0.940683 0.00485742 0.00335163 0.000867286 0.000315984 0.000157865 0 0.000158461 7.92341e-05 
515 0.0239431 0.936163 0.0216398 0.0114252 0.00447149 0.001159 0.000749655 0.000208069 0.000240186 0 
516 0.0982589 0.886515 0.00791562 0.00496965 0.00128598 0.000468528 0.000234075 0 0.00023496 0.000117485 
517 0.0261197 0.93036 0.0236071 0.0124639 0.00487799 0.00126436 0.000817805 0.000226984 0.000262021 0 
518 0.0257299 0.916474 0.0232548 0.0122786 0.0197298 0.00124549 0.000805599 0.000223596 0.00025811 0 
519 0.0645309 0.916918 0.00919765 0.00635823 0.00164529 0.00059944 0.000299478 0 0.00030061 0.000150312 
520 0.0265216 0.929289 0.0239703 0.0126556 0.00495303 0.00128382 0.000830387 0.000230476 0.000266052 0 
521 0.0110425 0.855574 0.0798657 0.028803 0.0168096 0.00451536 0.00338994 0 0 0 
522 0.0246272 0.93093 0.025668 0.0117516 0.00459924 0.00119212 0.000771074 0.000214013 0.000247048 0 
523 0.0578168 0.925585 0.00822947 0.00568894 0.0014721 0.000536341 0.000267954 0 0.000268967 0.000134489 
524 0.0664864 0.9144 0.00947636 0.0065509 0.00169515 0.000617605 0.000308553 0 0.00030972 0.000154867 
525 0.00956007 0.864856 0.0674191 0.0244786 0.0270126 0.00381167 0.00286164 0 0 0 
526 0.0253515 0.932408 0.0229128 0.0120973 0.00473452 0.00122718 0.000793752 0.000220308 0.000254315 0 
527 0.0645309 0.916918 0.00919765 0.00635823 0.00164529 0.00059944 0.000299478 0 0.00030061 0.000150312 
528 0.0654941 0.915678 0.00933492 0.00645313 0.00166985 0.000608387 0.000303948 0 0.000305097 0.000152555 
529 0.0265216 0.929289 0.0239703 0.0126556 0.00495303 0.00128382 0.000830387 0.000230476 0.000266052 0 
530 0.0265216 0.929289 0.0239703 0.0126556 0.00495303 0.00128382 0.000830387 0.000230476 0.000266052 0 
531 0.0363469 0.923904 0.0222257 0.0109682 0.00429263 0.00111264 0.000719669 0.000199746 0.000230579 0 
532 0.0353903 0.925877 0.0216638 0.0106833 0.00418113 0.00108374 0.000700976 0.000194558 0.000224589 0 
533 0.0679766 0.92045 0.00573798 0.0039666 0.00102642 0.000373962 0.000186831 0 0.000187537 9.37724e-05 
534 0.206573 0.778586 0.00735812 0.00508658 0.00131623 0.000479552 0.000239583 0 0.000240488 0.000120249 
535 0.0664864 0.9144 0.00947636 0.0065509 0.00169515 0.000617605 0.000308553 0 0.00030972 0.000154867 
536 0.060111 0.922609 0.00856767 0.00592274 0.0015326 0.000558382 0.000278966 0 0.00028002 0.000140016 
537 0 0.848066 0.08715 0.0429036 0 0 0 0 0.0218804 0 
538 0.0248138 0.935839 0.0213435 0.0112687 0.00441023 0.00114312 0.000739386 0.000205218 0.000236896 0 
539 0.0257299 0.931399 0.0232548 0.0122778 0.00480518 0.00124549 0.000805599 0.000223596 0.00025811 0 
540 0.0342518 0.772013 0.0927404 0.0561211 0.0277496 0.00286463 0.00569725 0.00285473 0.00289218 0.0028151 
541 0.0675093 0.913084 0.00962215 0.00665169 0.00172123 0.000627106 0.0003133 0 0.000314484 0.000157249 
542 0.642854 0.352299 0.00241034 0.00165655 0.000428658 0.000156176 7.8025e-05 0 7.83199e-05 3.91617e-05 
543 0.037832 0.922274 0.0216398 0.0114252 0.00447149 0.001159 0.000749655 0.000208069 0.000240186 0 
544 0.0265216 0.929289 0.0239703 0.0126556 0.00495303 0.00128382 0.000830387 0.000230476 0.000266052 0 
545 0.0107129 0.859885 0.0774816 0.0279432 0.0163079 0.00438058 0.00328875 0 0 0 
546 0.0624659 0.935011 0.00146457 0.000396519 0.000397465 0.000132442 0 5.66822e-07 0.000131886 0 
547 0.0108752 0.857762 0.0786556 0.0283666 0.016555 0.00444695 0.00333858 0 0 0 
548 0.0664864 0.9144 0.00947636 0.0065509 0.00169515 0.000617605 0.000308553 0 0.00030972 0.000154867 
549 0.020975 0.757983 0.113832 0.0595748 0.0294573 0.00304092 0.00604784 0.0030304 0.00307016 0.00298834 
550 0.0110425 0.855574 0.0798657 0.028803 0.0168096 0.00451536 0.00338994 0 0 0 
551 0.0265216 0.929289 0.0239703 0.0126556 0.00495303 0.00128382 0.000830387 0.000230476 0.000266052 0 
552 0.0608218 0.936721 0.00142601 0.000386084 0.000387005 0.000128957 0 5.51906e-07 0.000128415 0 
553 0.0257299 0.931399 0.0232548 0.0122778 0.00480518 0.00124549 0.000805599 0.000223596 0.00025811 0 
554 0.0101093 0.853715 0.0871804 0.0263689 0.0153891 0.00413378 0.00310347 0 0 0 
555 0.0645309 0.916918 0.00919765 0.00635823 0.00164529 0.00059944 0.000299478 0 0.00030061 0.000150312 
556 0.0626872 0.919292 0.00893486 0.00617657 0.00159828 0.000582313 0.000290922 0 0.000292021 0.000146017 
557 0.0257299 0.916475 0.0381793 0.0122778 0.00480518 0.00124549 0.000805599 0.000223596 0.00025811 0 
558 0.0226829 0.939523 0.0205009 0.0108239 0.00423615 0.001098 0.000710199 0.000197118 0.000227545 0 
559 0.0664864 0.9144 0.00947636 0.0065509 0.00169515 0.000617605 0.000308553 0 0.00030972 0.000154867 
560 0 0.848066 0.08715 0.0429036 0 0 0 0 0.0218804 0 
561 0.0320459 0.934162 0.0183302 0.00967783 0.00378761 0.000981742 0.000635002 0.000176246 0.000203452 0 
562 0.0246272 0.934339 0.0222581 0.0117516 0.00459924 0.00119212 0.000771074 0.000214013 0.000247048 0 
563 0.0105553 0.861908 0.0763797 0.0275323 0.016068 0.00431616 0.00324039 0 0 0 
564 0.020975 0.757983 0.113832 0.0595748 0.0294573 0.00304092 0.00604784 0.0030304 0.00307016 0.00298834 
565 0.0675093 0.913084 0.00962215 0.00665169 0.00172123 0.000627106 0.0003133 0 0.000314484 0.000157249 
566 0.0654941 0.915678 0.00933492 0.00645313 0.00166985 0.000608387 0.000303948 0 0.000305097 0.000152555 
567 0.0110425 0.855574 0.0798657 0.028803 0.0168096 0.00451536 0.00338994 0 0 0 
568 0.0562578 0.92757 0.00801846 0.00554307 0.00143436 0.000522589 0.000261084 0 0.00026207 0.000131041 
569 0.0618043 0.920429 0.00880901 0.00608957 0.00157577 0.000574111 0.000286824 0 0.000287908 0.00014396 
570 0.065105 0.932265 0.00152643 0.000413273 0.000414259 0.000138038 0 5.90772e-07 0.000137459 0 
571 0.0540743 0.930727 0.00753542 0.00520915 0.00134795 0.000491107 0.000245356 0 0.000246283 0.000123147 
572 0.0641585 0.933448 0.00138944 0.000376184 0.000377082 0.00012565 0 5.37754e-07 0.000125123 0 
573 0.0265216 0.913904 0.0239706 0.0280399 0.00495306 0.00128382 0.000830387 0.000230476 0.000266052 0 
574 0.020975 0.773368 0.0984475 0.0595748 0.0294573 0.00304092 0.00604784 0.0030304 0.00307016 0.00298834 
575 0.112029 0.871151 0.0083392 0.0057648 0.00149173 0.000543492 0.000271527 0 0.000272553 0.000136283 
576 0.0664864 0.9144 0.00947636 0.0065509 0.00169515 0.000617605 0.000308553 0 0.00030972 0.000154867 
577 0.0876144 0.910239 0.00124571 0.000337269 0.000338074 0.000112652 0 4.82125e-07 0.000112179 0 
578 0.020975 0.757983 0.0984475 0.0595748 0.0448419 0.00304092 0.00604784 0.0030304 0.00307016 0.00298834 
579 0.0645314 0.916918 0.00919765 0.00635823 0.00164529 0.00059944 0.000299478 0 0.00030061 0.000150312 
580 0.0257299 0.916474 0.0232972 0.0271607 0.00480518 0.00124549 0.000805599 0.000223596 0.00025811 0 
581 0.0246272 0.934339 0.0222581 0.0117516 0.00459924 0.00119212 0.000771074 0.000214013 0.000247048 0 
582 0.0206572 0.776801 0.0969559 0.0586721 0.0290109 0.00299484 0.00595621 0.00298449 0.00302364 0.00294306 
583 0.0626872 0.919292 0.00893486 0.00617657 0.00159828 0.000582313 0.000290922 0 0.000292021 0.000146017 
584 0.0664864 0.9144 0.00947636 0.0065509 0.00169515 0.000617605 0.000308553 0 0.00030972 0.000154867 
585 0.0624717 0.935453 0.00120419 0.000326026 0.000326804 0.000108897 0 4.66054e-07 0.00010844 0 
586 0.0110425 0.855574 0.0798657 0.028803 0.0168096 0.00451536 0.00338994 0 0 0 
587 0.0257299 0.916474 0.0232548 0.0272032 0.00480518 0.00124549 0.000805599 0.000223596 0.00025811 0 
588 0.0654941 0.915678 0.00933492 0.00645313 0.00166985 0.000608387 0.000303948 0 0.000305097 0.000152555 
589 0.0257299 0.931399 0.0232548 0.0122778 0.00480518 0.00124549 0.000805599 0.000223596 0.00025811 0 
590 0.0265216 0.913904 0.0239703 0.0280402 0.00495303 0.00128382 0.000830387 0.000230476 0.000266052 0 
591 0.0675093 0.913084 0.00962215 0.00665169 0.00172123 0.000627106 0.0003133 0 0.000314484 0.000157249 
592 0.0108752 0.842611 0.078715 0.0434586 0.016555 0.00444695 0.00333858 0 0 0 
593 0.0675093 0.913084 0.00962215 0.00665169 0.00172123 0.000627106 0.0003133 0 0.000314484 0.000157249 
594 0.0626874 0.876435 0.051792 0.00617657 0.00159828 0.000582313 0.000290922 0 0.000292021 0.000146017 
595 0.0749512 0.922559 0.00144502 0.000391232 0.000392165 0.000130676 0 5.59265e-07 0.000130128 0 
596 0.0675093 0.913084 0.00962215 0.00665169 0.00172123 0.000627106 0.0003133 0 0.000314484 0.000157249 
597 0.0110425 0.855574 0.0798657 0.028803 0.0168096 0.00451536 0.00338994 0 0 0 
598 0.0675093 0.913084 0.00962215 0.00665169 0.00172123 0.000627106 0.0003133 0 0.000314484 0.000157249 
599 0.0633213 0.934121 0.00148461 0.00040195 0.00040291 0.000134256 0 5.74587e-07 0.000133693 0 
600 0.0242803 0.935264 0.0219446 0.0115861 0.00453447 0.00117533 0.000760214 0.000210999 0.000243569 0 
601 0.0110425 0.855574 0.0798657 0.028803 0.0168096 0.00451536 0.00338994 0 0 0 
602 0.0110425 0.855574 0.0798657 0.028803 0.0168096 0.00451536 0.00338994 0 0 0 
603 0.0265216 0.929289 0.0239703 0.0126556 0.00495303 0.00128382 0.000830387 0.000230476 0.000266052 0 
604 0.0645309 0.916918 0.00919765 0.00635823 0.00164529 0.00059944 0.000299478 0 0.00030061 0.000150312 
605 0.0261197 0.93036 0.0236071 0.0124639 0.00487799 0.00126436 0.000817805 0.000226984 0.000262021 0 
606 0.0261197 0.93036 0.0236071 0.0124639 0.00487799 0.00126436 0.000817805 0.000226984 0.000262021 0 
607 0.065105 0.932265 0.00152643 0.000413273 0.000414259 0.000138038 0 5.90772e-07 0.000137459 0 
608 0.0664864 0.899249 0.00949141 0.0216874 0.00169515 0.000617605 0.000308553 0 0.00030972 0.000154867 
609 0.0344814 0.92916 0.0197224 0.0104129 0.00407528 0.0010563 0.00068323 0.000189632 0.000218904 0 
610 0.0265216 0.913904 0.0393549 0.0126556 0.00495303 0.00128382 0.000830387 0.000230476 0.000266052 0 
611 0.0265216 0.913904 0.0393547 0.0126556 0.00495303 0.00128382 0.000830387 0.000230476 0.000266052 0 
612 0.0675093 0.907872 0.0148337 0.00665169 0.00172123 0.000627106 0.0003133 0 0.000314484 0.000157249 
613 0.0261197 0.93036 0.0236071 0.0124639 0.00487799 0.00126436 0.000817805 0.000226984 0.000262021 0 
614 0.0253515 0.932408 0.0229128 0.0120973 0.00473452 0.00122718 0.000793752 0.000220308 0.000254315 0 
615 0.0108752 0.84261 0.0786558 0.0283666 0.0166019 0.0195515 0.00333858 0 0 0 
616 0.0618043 0.920429 0.00880901 0.00608957 0.00157577 0.000574111 0.000286824 0 0.000287908 0.00014396 
617 0.0637605 0.917947 0.00907473 0.00626608 0.00162145 0.000590752 0.000295138 0 0.000296253 0.000148133 
618 0.0711147 0.926013 0.00166733 0.000451421 0.000452498 0.00015078 0 6.45305e-07 0.000150147 0 
619 0.0675093 0.913084 0.00962215 0.00665169 0.00172123 0.000627106 0.0003133 0 0.000314484 0.000157249 
620 0.0265216 0.913904 0.0393549 0.0126556 0.00495303 0.00128382 0.000830387 0.000230476 0.000266052 0 
621 0.0265216 0.929289 0.0239703 0.0126556 0.00495303 0.00128382 0.000830387 0.000230476 0.000266052 0 
622 0.0645309 0.916918 0.00919765 0.00635823 0.00164529 0.00059944 0.000299478 0 0.00030061 0.000150312 
623 0.0689919 0.928221 0.00161756 0.000437946 0.000438991 0.000146279 0 6.26042e-07 0.000145665 0 
624 0.0257299 0.931399 0.0232548 0.0122778 0.00480518 0.00124549 0.000805599 0.000223596 0.00025811 0 
625 0.0609459 0.921534 0.00868667 0.006005 0.00155389 0.000566138 0.000282841 0 0.00028391 0.000141961 
626 0.0675093 0.913084 0.00962215 0.00665169 0.00172123 0.000627106 0.0003133 0 0.000314484 0.000157249 
627 0.0110425 0.855574 0.0798657 0.028803 0.0168096 0.00451536 0.00338994 0 0 0 
628 0.023296 0.924375 0.0345685 0.0111164 0.00435064 0.00112768 0.000729394 0.000202445 0.000233694 0 
629 0.0626872 0.919292 0.00893486 0.00617657 0.00159828 0.000582313 0.000290922 0 0.000292021 0.000146017 
630 0.0635957 0.918122 0.00906435 0.00626608 0.00162145 0.000590752 0.000295138 0 0.000296253 0.000148133 
631 0.0675093 0.913084 0.00962215 0.00665169 0.00172123 0.000627106 0.0003133 0 0.000314484 0.000157249 
632 0.0618043 0.920429 0.00880901 0.00608957 0.00157577 0.000574111 0.000286824 0 0.000287908 0.00014396 
633 0.0387907 0.931289 0.0162299 0.00856891 0.00335362 0.000869251 0.000562241 0.000156051 0.000180139 0 
634 0.0265216 0.929289 0.0239703 0.0126556 0.00495303 0.00128382 0.000830387 0.000230476 0.000266052 0 
635 0.0257299 0.916474 0.0381801 0.0122778 0.00480518 0.00124549 0.000805599 0.000223596 0.00025811 0 
636 0.0592987 0.923654 0.00845189 0.0058427 0.00151189 0.000550837 0.000275196 0 0.000276236 0.000138124 
637 0.0108752 0.857762 0.0786556 0.0283666 0.016555 0.00444695 0.00333858 0 0 0 
638 0.0265216 0.929289 0.0239703 0.0126556 0.00495303 0.00128382 0.000830387 0.000230476 0.000266052 0 
639 0.0654941 0.915678 0.00933492 0.00645313 0.00166985 0.000608387 0.000303948 0 0.000305097 0.000152555 
640 0.0635957 0.918122 0.00906435 0.00626608 0.00162145 0.000590752 0.000295138 0 0.000296253 0.000148133 
641 0.0645309 0.916918 0.00919765 0.00635823 0.00164529 0.00059944 0.000299478 0 0.00030061 0.000150312 
642 0.0679773 0.929277 0.00159377 0.000431506 0.000432535 0.000144128 0 6.16836e-07 0.000143523 0 
643 0.0686712 0.914731 0.00822947 0.00568894 0.0014721 0.000536341 0.000267954 0 0.000268967 0.000134489 
644 1.25405e-06 0.777124 0.0728252 0.089452 0.0128996 0.0174016 0 1.54746e-07 0.0302958 0 
645 0.0635957 0.918122 0.00906435 0.00626608 0.00162145 0.000590752 0.000295138 0 0.000296253 0.000148133 
646 0.0618062 0.920427 0.00880913 0.00608957 0.00157577 0.000574111 0.000286824 0 0.000287908 0.00014396 
647 0.0679773 0.929277 0.00159377 0.000431506 0.000432535 0.000144128 0 6.16836e-07 0.000143523 0 
648 0.0675093 0.913084 0.00962215 0.00665169 0.00172123 0.000627106 0.0003133 0 0.000314484 0.000157249 
649 0.0675093 0.913084 0.00962215 0.00665169 0.00172123 0.000627106 0.0003133 0 0.000314484 0.000157249 
650 0.0206572 0.776801 0.0969559 0.0586721 0.0290109 0.00299484 0.00595621 0.00298449 0.00302364 0.00294306 
651 0.0679773 0.929277 0.00159377 0.000431506 0.000432535 0.000144128 0 6.16836e-07 0.000143523 0 
652 0.0253515 0.932408 0.0229128 0.0120973 0.00473452 0.00122718 0.000793752 0.000220308 0.000254315 0 
653 0.0212827 0.943256 0.0192354 0.0101557 0.00397466 0.00103022 0.00066636 0.00018495 0.000213499 0 
654 0.0265216 0.929289 0.0239703 0.0126556 0.00495303 0.00128382 0.000830387 0.000230476 0.000266052 0 
655 0.0876082 0.896571 0.00787001 0.0054045 0.0013985 0.000509524 0.000254557 0 0.000255519 0.000127765 
656 0.0690783 0.914749 0.00801846 0.00554307 0.00143436 0.000522589 0.000261084 0 0.00026207 0.000131041 
657 0.0200496 0.783366 0.0941043 0.0569465 0.0281577 0.00290676 0.00578103 0.00289671 0.00293471 0.0028565 
658 0.0197591 0.772013 0.0927405 0.0582591 0.0401043 0.00286463 0.00569725 0.00285473 0.00289218 0.0028151 
659 0.0664864 0.9144 0.00947636 0.0065509 0.00169515 0.000617605 0.000308553 0 0.00030972 0.000154867 
660 0.0261197 0.930355 0.0236119 0.0124639 0.00487799 0.00126436 0.000817805 0.000226984 0.000262021 0 
661 0.0738097 0.90891 0.00856767 0.00592274 0.0015326 0.000558382 0.000278966 0 0.00028002 0.000140016 
662 0.0253515 0.932408 0.0229128 0.0120973 0.00473452 0.00122718 0.000793752 0.000220308 0.000254315 0 
663 0.0675093 0.913084 0.00962215 0.00665169 0.00172123 0.000627106 0.0003133 0 0.000314484 0.000157249 
664 0.0203503 0.779208 0.0964325 0.0577964 0.0285779 0.00295015 0.00586731 0.00293994 0.00297851 0.00289914 
665 0.0616327 0.935878 0.00144502 0.000391232 0.000392165 0.000130676 0 5.59265e-07 0.000130128 0 
666 0.0814849 0.915809 0.00157067 0.000425252 0.000426267 0.000142039 0 6.07896e-07 0.000141443 0 
667 0.0249841 0.933388 0.0225807 0.011922 0.0046659 0.00120939 0.000782249 0.000217115 0.000250629 0 
668 0.020975 0.773368 0.0984475 0.0595748 0.0294573 0.00304092 0.00604784 0.0030304 0.00307016 0.00298834 
669 0.155719 0.844281 0 0 0 0 0 0 0 0 
670 0.0210232 0.943948 0.0190008 0.0100319 0.00392618 0.00101766 0.000658234 0.000182694 0.000210895 0 
671 0.0739797 0.923563 0.00142601 0.000386084 0.000387005 0.000128957 0 5.51906e-07 0.000128415 0 
672 0.0265216 0.929289 0.0239703 0.0126556 0.00495303 0.00128382 0.000830387 0.000230476 0.000266052 0 
673 1.23505e-06 0.76535 0.0717218 0.0880967 0.0127042 0.0171379 0 1.52401e-07 0.0449883 0 
674 0.0635957 0.918122 0.00906435 0.00626608 0.00162145 0.000590752 0.000295138 0 0.000296253 0.000148133 
675 0.0689919 0.913296 0.00163146 0.0153494 0.000438991 0.000146279 0 6.26042e-07 0.000145665 0 
676 0.0257299 0.916474 0.0381801 0.0122778 0.00480518 0.00124549 0.000805599 0.000223596 0.00025811 0 
677 0.0110425 0.855574 0.0798657 0.028803 0.0168096 0.00451536 0.00338994 0 0 0 
678 0.0316733 0.923309 0.0297357 0.0095653 0.00374357 0.000970327 0.000627618 0.000174197 0.000201086 0 
679 0.0261197 0.915209 0.0236239 0.0275887 0.0048878 0.00126437 0.000817806 0.000226984 0.000262021 0 
680 0.0627952 0.919168 0.0089509 0.00617657 0.00159828 0.000582313 0.000290922 0 0.000292021 0.000146017 
681 0.0860056 0.912029 0.00114084 0.000308867 0.000309604 0.000103166 0 4.41525e-07 0.000102732 0 
682 0.0701453 0.89708 0.00906768 0.0207555 0.00162145 0.000590752 0.000295138 0 0.000296253 0.000148133 
683 0.0110425 0.855574 0.0798657 0.028803 0.0168096 0.00451536 0.00338994 0 0 0 
684 0.0689919 0.928221 0.00161756 0.000437946 0.000438991 0.000146279 0 6.26042e-07 0.000145665 0 
685 0.0110425 0.855574 0.0798657 0.028803 0.0168096 0.00451536 0.00338994 0 0 0 
686 0.0261197 0.915209 0.0387585 0.0124639 0.00487799 0.00126436 0.000817805 0.000226984 0.000262021 0 
687 0.0257299 0.916474 0.0381612 0.0122968 0.00480518 0.00124549 0.000805599 0.000223596 0.00025811 0 
688 0.0675093 0.913084 0.00962215 0.00665169 0.00172123 0.000627106 0.0003133 0 0.000314484 0.000157249 
689 0.0253515 0.932408 0.0229128 0.0120973 0.00473452 0.00122718 0.000793752 0.000220308 0.000254315 0 
690 0.0675093 0.913084 0.00962215 0.00665169 0.00172123 0.000627106 0.0003133 0 0.000314484 0.000157249 
691 1.25405e-06 0.777124 0.0728252 0.089452 0.0128996 0.0174016 0 1.54746e-07 0.0302958 0 
692 0.0624656 0.935011 0.00146455 0.000396519 0.000397465 0.000132442 0 5.66822e-07 0.000131886 0 
693 0.0654941 0.915678 0.00933492 0.00645313 0.00166985 0.000608387 0.000303948 0 0.000305097 0.000152555 
694 0.0649169 0.919885 0.00753542 0.00520915 0.00134795 0.000491107 0.000245356 0 0.000246283 0.000123147 
695 0.020975 0.757983 0.0984475 0.0595748 0.0294573 0.00304092 0.00604799 0.0184149 0.00307016 0.00298834 
696 0.0261197 0.93036 0.0236071 0.0124639 0.00487799 0.00126436 0.000817805 0.000226984 0.000262021 0 
697 0.0905288 0.907248 0.0012902 0.000349314 0.000350148 0.000116675 0 4.99343e-07 0.000116185 0 
698 0.0110425 0.855574 0.0798657 0.028803 0.0168096 0.00451536 0.00338994 0 0 0 
699 0.0675093 0.913084 0.00962215 0.00665169 0.00172123 0.000627106 0.0003133 0 0.000314484 0.000157249 
700 0.0265216 0.929289 0.0239703 0.0126556 0.00495303 0.00128382 0.000830387 0.000230476 0.000266052 0 
701 0.0265216 0.913904 0.0239703 0.0128163 0.020177 0.00128382 0.000830387 0.000230476 0.000266052 0 
702 0.0711147 0.926013 0.00166733 0.000451421 0.000452498 0.00015078 0 6.45305e-07 0.000150147 0 
703 0.0675093 0.913084 0.00962215 0.00665169 0.00172123 0.000627106 0.0003133 0 0.000314484 0.000157249 
704 0.0261197 0.93036 0.0236071 0.0124639 0.00487799 0.00126436 0.000817805 0.000226984 0.000262021 0 
705 0.0261197 0.915209 0.0236071 0.01257 0.0199233 0.00126437 0.000817805 0.000226984 0.000262021 0 
706 0.0261197 0.93036 0.0236071 0.0124639 0.00487799 0.00126436 0.000817805 0.000226984 0.000262021 0 
707 0.0664864 0.9144 0.00947636 0.0065509 0.00169515 0.000617605 0.000308553 0 0.00030972 0.000154867 
708 0.0675093 0.913084 0.00962215 0.00665169 0.00172123 0.000627106 0.0003133 0 0.000314484 0.000157249 
709 0.0265216 0.929289 0.0239703 0.0126556 0.00495303 0.00128382 0.000830387 0.000230476 0.000266052 0 
710 0.0946586 0.902674 0.00154824 0.000419177 0.000420177 0.00014001 0 5.99212e-07 0.000139422 0 
711 0.0200496 0.783366 0.0941043 0.0569465 0.0281577 0.00290676 0.00578103 0.00289671 0.00293471 0.0028565 
712 0.0257299 0.918372 0.0362824 0.0122778 0.00480518 0.00124549 0.000805599 0.000223596 0.00025811 0 
713 0.0257299 0.931399 0.0232548 0.0122778 0.00480518 0.00124549 0.000805599 0.000223596 0.00025811 0 
714 0.0261197 0.93036 0.0236071 0.0124639 0.00487799 0.00126436 0.000817805 0.000226984 0.000262021 0 
715 0.0265216 0.929289 0.0239703 0.0126556 0.00495303 0.00128382 0.000830387 0.000230476 0.000266052 0 
716 0.0711147 0.926013 0.00166733 0.000451421 0.000452498 0.00015078 0 6.45305e-07 0.000150147 0 
717 0.0261197 0.915209 0.0236071 0.0124639 0.0200295 0.00126437 0.000817806 0.000226984 0.000262021 0 
718 0.0206572 0.776801 0.0969559 0.0586721 0.0290109 0.00299484 0.00595621 0.00298449 0.00302364 0.00294306 
719 0.0609459 0.921534 0.00868667 0.006005 0.00155389 0.000566138 0.000282841 0 0.00028391 0.000141961 
720 0.064531 0.916918 0.00919765 0.00635823 0.00164529 0.00059944 0.000299478 0 0.00030061 0.000150312 
721 0.0257299 0.931399 0.0232548 0.0122778 0.00480518 0.00124549 0.000805599 0.000223596 0.00025811 0 
722 0.0673978 0.916834 0.007818 0.0054045 0.0013985 0.000509524 0.000254557 0 0.000255519 0.000127765 
723 0.0781049 0.903613 0.00906435 0.00626608 0.00162145 0.000590752 0.000295138 0 0.000296253 0.000148133 
724 0.0108752 0.857762 0.0786556 0.0283666 0.016555 0.00444695 0.00333858 0 0 0 
725 0.0110425 0.855574 0.0798657 0.028803 0.0168096 0.00451536 0.00338994 0 0 0 
726 1.23505e-06 0.780501 0.0717218 0.0880967 0.0127042 0.0171379 0 1.52401e-07 0.0298368 0 
727 0.0675093 0.913084 0.00962215 0.00665169 0.00172123 0.000627106 0.0003133 0 0.000314484 0.000157249 
728 0.0261197 0.93036 0.0236071 0.0124639 0.00487799 0.00126436 0.000817805 0.000226984 0.000262021 0 
729 0.0265216 0.929289 0.0239703 0.0126556 0.00495303 0.00128382 0.000830387 0.000230476 0.000266052 0 
730 0.0265216 0.929289 0.0239703 0.0126556 0.00495303 0.00128382 0.000830387 0.000230476 0.000266052 0 
731 0.0664864 0.9144 0.00947636 0.0065509 0.00169515 0.000617605 0.000308553 0 0.00030972 0.000154867 
732 0.0675093 0.913084 0.00962215 0.00665169 0.00172123 0.000627106 0.0003133 0 0.000314484 0.000157249 
733 0.0682039 0.915828 0.00791696 0.00547291 0.0014162 0.000515973 0.000257779 0 0.000258753 0.000129382 
734 0.0675093 0.913084 0.00962215 0.00665169 0.00172123 0.000627106 0.0003133 0 0.000314484 0.000157249 
735 0.0601113 0.922608 0.00856767 0.00592274 0.0015326 0.000558382 0.000278966 0 0.00028002 0.000140016 
736 0.0664864 0.9144 0.00947636 0.0065509 0.00169515 0.000617605 0.000308553 0 0.00030972 0.000154867 
737 0.0261197 0.93036 0.0236071 0.0124639 0.00487799 0.00126436 0.000817805 0.000226984 0.000262021 0 
738 0.0110425 0.855574 0.0798657 0.028803 0.0168096 0.00451536 0.00338994 0 0 0 
739 0.0265216 0.929289 0.0239703 0.0126556 0.00495303 0.00128382 0.000830387 0.000230476 0.000266052 0 
740 0.0535135 0.931103 0.00762732 0.00527268 0.00136439 0.000497096 0.000248348 0 0.000249286 0.000124649 
741 0.0242803 0.935264 0.0219446 0.0115861 0.00453447 0.00117533 0.000760214 0.000210999 0.000243569 0 
742 0.0265216 0.929289 0.0239703 0.0126556 0.00495303 0.00128382 0.000830387 0.000230476 0.000266052 0 
743 0.0633213 0.934121 0.00148461 0.00040195 0.00040291 0.000134256 0 5.74587e-07 0.000133693 0 
744 0.0881429 0.89603 0.00787688 0.0054045 0.0013985 0.000509524 0.000254557 0 0.000255519 0.000127765 
745 0.0110425 0.855574 0.0798657 0.028803 0.0168096 0.00451536 0.00338994 0 0 0 
746 0.0261201 0.914963 0.023852 0.0127102 0.0197828 0.00126474 0.000817805 0.000226984 0.000262021 0 
747 0.020975 0.773368 0.0984475 0.0595748 0.0294573 0.00304092 0.00604784 0.0030304 0.00307016 0.00298834 
748 0.0745101 0.923033 0.00142601 0.000386084 0.000387005 0.000128957 0 5.51906e-07 0.000128415 0 
749 0.0675093 0.913084 0.00962215 0.00665169 0.00172123 0.000627106 0.0003133 0 0.000314484 0.000157249 
750 0.0261197 0.93036 0.0236071 0.0124639 0.00487799 0.00126436 0.000817805 0.000226984 0.000262021 0 
751 0.10645 0.891245 0.00133798 0.000362252 0.000363116 0.000120997 0 5.17838e-07 0.000120488 0 
752 0.0265216 0.913904 0.0239704 0.0280401 0.00495303 0.00128382 0.000830387 0.000230476 0.000266052 0 
753 0.0635957 0.918122 0.00906435 0.00626608 0.00162145 0.000590752 0.000295138 0 0.000296253 0.000148133 
754 0.0366468 0.928535 0.0197121 0.00945535 0.00370054 0.000959173 0.000620404 0.000172195 0.000198775 0 
755 0.0249843 0.927395 0.0285735 0.011922 0.0046659 0.00120939 0.000782249 0.000217115 0.000250629 0 
756 0.0261197 0.93036 0.0236071 0.0124639 0.00487799 0.00126436 0.000817805 0.000226984 0.000262021 0 
757 0.020975 0.773368 0.0984475 0.0595748 0.0294573 0.00304092 0.00604784 0.0030304 0.00307016 0.00298834 
758 0.0108752 0.842706 0.0937115 0.0283666 0.016555 0.00444695 0.00333858 0 0 0 
759 0.0265216 0.929289 0.0239703 0.0126556 0.00495303 0.00128382 0.000830387 0.000230476 0.000266052 0 
760 0.0108752 0.827621 0.0936454 0.0435181 0.016555 0.00444695 0.00333858 0 0 0 
761 0.0110425 0.840189 0.0798658 0.0441874 0.0168096 0.00451536 0.00338994 0 0 0 
762 0 0.507692 0.492307 0 0 0 0 0 0 0 
763 0.0261336 0.930346 0.0236071 0.0124639 0.00487799 0.00126436 0.000817805 0.000226984 0.000262021 0 
764 0.0261197 0.93036 0.0236071 0.0124639 0.00487799 0.00126436 0.000817805 0.000226984 0.000262021 0 
765 0.0368094 0.924374 0.0210562 0.0111164 0.00435064 0.00112768 0.000729394 0.000202445 0.000233694 0 
766 0.0265216 0.913904 0.0239704 0.0280401 0.00495303 0.00128382 0.000830387 0.000230476 0.000266052 0 
767 0.0925812 0.874644 0.0235571 0.00626608 0.00162145 0.000590752 0.000295138 0 0.000296253 0.000148133 
768 0.0107129 0.859885 0.0774816 0.0279432 0.0163079 0.00438058 0.00328875 0 0 0 
769 0.0110425 0.840189 0.0798657 0.0288085 0.0321887 0.00451536 0.00338994 0 0 0 
770 0.061159 0.912629 0.0173772 0.00600653 0.00155389 0.000566138 0.000282841 0 0.00028391 0.000141961 
771 0.00996893 0.869615 0.072101 0.0260027 0.0151754 0.00407637 0.00306036 0 0 0 
772 0.0110425 0.840189 0.0952503 0.028803 0.0168096 0.00451536 0.00338994 0 0 0 
773 0.0612288 0.924436 0.00710727 0.00491318 0.00127136 0.000463203 0.000231415 0 0.00023229 0.00011615 
774 0.0711147 0.926013 0.00166733 0.000451421 0.000452498 0.00015078 0 6.45305e-07 0.000150147 0 
775 0.0265216 0.929289 0.0239703 0.0126556 0.00495303 0.00128382 0.000830387 0.000230476 0.000266052 0 
776 0.0664864 0.9144 0.00947636 0.0065509 0.00169515 0.000617605 0.000308553 0 0.00030972 0.000154867 
777 0.0265216 0.929289 0.0239703 0.0126556 0.00495303 0.00128382 0.000830387 0.000230476 0.000266052 0 
778 0.0253515 0.932408 0.0229128 0.0120973 0.00473452 0.00122718 0.000793752 0.000220308 0.000254315 0 
779 0.0261197 0.93036 0.0236071 0.0124639 0.00487799 0.00126436 0.000817805 0.000226984 0.000262021 0 
780 0.0108752 0.857762 0.0786556 0.0283666 0.016555 0.00444695 0.00333858 0 0 0 
781 0.0689919 0.928221 0.00161756 0.000437946 0.000438991 0.000146279 0 6.26042e-07 0.000145665 0 
782 0.0664864 0.9144 0.00947636 0.0065509 0.00169515 0.000617605 0.000308553 0 0.00030972 0.000154867 
783 0.0662825 0.931792 0.00111728 0.000302499 0.000303221 0.000101038 0 4.32421e-07 0.000100614 0 
784 0.0682039 0.915828 0.00791698 0.00547291 0.0014162 0.000515973 0.000257779 0 0.000258753 0.000129382 
785 0.0577385 0.925663 0.00822947 0.00568894 0.0014721 0.000536341 0.000267954 0 0.000268967 0.000134489 
786 0.0261197 0.93036 0.0236071 0.0124639 0.00487799 0.00126436 0.000817805 0.000226984 0.000262021 0 
787 0.020975 0.773368 0.0984475 0.0595748 0.0294573 0.00304092 0.00604784 0.0030304 0.00307016 0.00298834 
788 0.0265216 0.929289 0.0239703 0.0126556 0.00495303 0.00128382 0.000830387 0.000230476 0.000266052 0 
789 0.0689963 0.928217 0.00161756 0.000437946 0.000438991 0.000146279 0 6.26042e-07 0.000145665 0 
790 0.0675093 0.913084 0.00962215 0.00665169 0.00172123 0.000627106 0.0003133 0 0.000314484 0.000157249 
791 0.0675093 0.913084 0.00962215 0.00665169 0.00172123 0.000627106 0.0003133 0 0.000314484 0.000157249 
792 0.0242803 0.935264 0.0219446 0.0115861 0.00453447 0.00117533 0.000760214 0.000210999 0.000243569 0 
793 0.0265216 0.929289 0.0239703 0.0126556 0.00495303 0.00128382 0.000830387 0.000230476 0.000266052 0 
794 0.0654941 0.915678 0.00933492 0.00645313 0.00166985 0.000608387 0.000303948 0 0.000305097 0.000152555 
795 0.0700372 0.927134 0.00164207 0.000444582 0.000445642 0.000148496 0 6.35528e-07 0.000147872 0 
796 0.0110425 0.840226 0.0952139 0.028803 0.0168096 0.00451536 0.00338994 0 0 0 
797 0.0675093 0.897699 0.0250068 0.00665169 0.00172123 0.000627106 0.0003133 0 0.000314484 0.000157249 
798 0.0700372 0.927134 0.00164207 0.000444582 0.000445642 0.000148496 0 6.35528e-07 0.000147872 0 
799 3.14344e-06 0.777122 0.0728252 0.089452 0.0128996 0.0174016 0 1.54746e-07 0.0302958 0 
800 0.0206572 0.761663 0.112095 0.0586721 0.0290109 0.00299484 0.00595621 0.00298449 0.00302364 0.00294306 
801 0.0675093 0.913084 0.00962215 0.00665169 0.00172123 0.000627106 0.0003133 0 0.000314484 0.000157249 
802 0.0108752 0.857762 0.0786556 0.0283666 0.016555 0.00444695 0.00333858 0 0 0 
803 0.0239431 0.936161 0.0216419 0.0114252 0.00447149 0.001159 0.000749655 0.000208069 0.000240186 0 
804 0.0664864 0.899249 0.00947636 0.00655304 0.0168445 0.000617606 0.000308553 0 0.00030972 0.000154867 
805 0.0635957 0.918122 0.00906435 0.00626608 0.00162145 0.000590752 0.000295138 0 0.000296253 0.000148133 
806 0.0108752 0.857762 0.0786556 0.0283666 0.016555 0.00444695 0.00333858 0 0 0 
807 0.0206572 0.776802 0.0969559 0.0586721 0.0290109 0.00299484 0.00595621 0.00298449 0.00302364 0.00294306 
808 0.0814849 0.915809 0.00157067 0.000425252 0.000426267 0.000142039 0 6.07896e-07 0.000141443 0 
809 0.0664864 0.9144 0.00947636 0.0065509 0.00169515 0.000617605 0.000308553 0 0.00030972 0.000154867 
810 0.0664879 0.914399 0.00947636 0.0065509 0.00169515 0.000617605 0.000308553 0 0.00030972 0.000154867 
811 0.0246309 0.934336 0.0222581 0.0117516 0.00459924 0.00119212 0.000771074 0.000214013 0.000247048 0 
812 1.25405e-06 0.76174 0.0735459 0.104116 0.0128996 0.0174016 0 1.54746e-07 0.0302958 0 
813 0.0894926 0.907984 0.00146455 0.000396519 0.000397465 0.000132442 0 5.66822e-07 0.000131886 0 
814 0.0104024 0.849403 0.0897789 0.0271332 0.0158352 0.0042536 0.00319342 0 0 0 
815 0 0.858918 0.0809249 0.0398391 0 0 0 0 0.0203175 0 
816 0.0675093 0.913084 0.00962215 0.00665169 0.00172123 0.000627106 0.0003133 0 0.000314484 0.000157249 
817 0.0646204 0.933233 0.00124571 0.000337269 0.000338074 0.000112652 0 4.82125e-07 0.000112179 0 
818 0.0654941 0.915678 0.00933492 0.00645313 0.00166985 0.000608387 0.000303948 0 0.000305097 0.000152555 
819 0.0627558 0.919223 0.00893503 0.00617657 0.00159828 0.000582313 0.000290922 0 0.000292021 0.000146017 
820 0.0645309 0.916918 0.00919765 0.00635823 0.00164529 0.00059944 0.000299478 0 0.00030061 0.000150312 
821 0.0265216 0.929289 0.0239703 0.0126556 0.00495303 0.00128382 0.000830387 0.000230476 0.000266052 0 
822 0.0265216 0.929289 0.0239703 0.0126556 0.00495303 0.00128382 0.000830387 0.000230476 0.000266052 0 
823 0.0609459 0.921534 0.00868667 0.006005 0.00155389 0.000566138 0.000282841 0 0.00028391 0.000141961 
824 0.0110425 0.855574 0.0798657 0.028803 0.0168096 0.00451536 0.00338994 0 0 0 
825 0.020975 0.757983 0.0984476 0.0749593 0.0294573 0.00304092 0.00604784 0.0030304 0.00307016 0.00298834 
826 0.0265216 0.929289 0.0239703 0.0126556 0.00495303 0.00128382 0.000830387 0.000230476 0.000266052 0 
827 0.0711147 0.926013 0.00166733 0.000451421 0.000452498 0.00015078 0 6.45305e-07 0.000150147 0 
828 0.0206572 0.776801 0.0969559 0.0586721 0.0290109 0.00299484 0.00595621 0.00298449 0.00302364 0.00294306 
829 0.0347555 0.76866 0.0941043 0.0569465 0.0281577 0.00290676 0.00578103 0.00289671 0.00293471 0.0028565 
830 0.020975 0.773368 0.0984475 0.0595748 0.0294573 0.00304092 0.00604784 0.0030304 0.00307016 0.00298834 
831 0.0108752 0.857762 0.0786556 0.0283666 0.016555 0.00444695 0.00333858 0 0 0 
832 0.0752552 0.922623 0.00123155 0.000333436 0.000334232 0.000111372 0 4.76646e-07 0.000110904 0 
833 1.18135e-06 0.790045 0.0686034 0.0842664 0.0121518 0.0163928 0 1.45775e-07 0.0285395 0 
834 0.0699754 0.913642 0.0081226 0.00561506 0.00145299 0.000529375 0.000264474 0 0.000265474 0.000132743 
835 0.060946 0.921534 0.00868667 0.006005 0.00155389 0.000566138 0.000282841 0 0.00028391 0.000141961 
836 0.0638287 0.917889 0.00906435 0.00626608 0.00162145 0.000590752 0.000295138 0 0.000296253 0.000148133 
837 0.0679773 0.929277 0.00159377 0.000431506 0.000432535 0.000144128 0 6.16836e-07 0.000143523 0 
838 0.0265216 0.913904 0.0239831 0.0279303 0.0050501 0.00128382 0.000830387 0.000230476 0.000266052 0 
839 0.060111 0.922289 0.00888753 0.00592274 0.0015326 0.000558382 0.000278966 0 0.00028002 0.000140016 
840 0.0654941 0.915678 0.00933492 0.00645313 0.00166985 0.000608387 0.000303948 0 0.000305097 0.000152555 
841 0.0108752 0.857762 0.0786556 0.0283666 0.016555 0.00444695 0.00333858 0 0 0 
842 0.0664864 0.9144 0.00947636 0.0065509 0.00169515 0.000617605 0.000308553 0 0.00030972 0.000154867 
843 0.0713277 0.913099 0.00772149 0.00533777 0.00138123 0.000503233 0.000251414 0 0.000252364 0.000126188 
844 0.023296 0.937889 0.021055 0.0111164 0.00435064 0.00112768 0.000729394 0.000202445 0.000233694 0 
845 0.0253515 0.932408 0.0229128 0.0120973 0.00473452 0.00122718 0.000793752 0.000220308 0.000254315 0 
846 0.0669921 0.930302 0.00157067 0.000425252 0.000426267 0.000142039 0 6.07896e-07 0.000141443 0 
847 0.0102538 0.851947 0.0881037 0.0267456 0.015609 0.00419284 0.0031478 0 0 0 
848 0.0700372 0.927134 0.00164207 0.000444582 0.000445642 0.000148496 0 6.35528e-07 0.000147872 0 
849 1.25405e-06 0.777124 0.0728252 0.089452 0.0128996 0.0174016 0 1.54746e-07 0.0302958 0 
850 0.0618043 0.920429 0.00880901 0.00608957 0.00157577 0.000574111 0.000286824 0 0.000287908 0.00014396 
851 0.0242803 0.935264 0.0219446 0.0115861 0.00453447 0.00117533 0.000760214 0.000210999 0.000243569 0 
852 0.0257299 0.916474 0.0232548 0.0122779 0.0197305 0.00124549 0.000805599 0.000223596 0.00025811 0 
853 0.00957017 0.874831 0.0692169 0.0249626 0.0145684 0.00391332 0.00293795 0 0 0 
854 0.0976771 0.805272 0.0080378 0.086909 0.00115812 0.000420226 0.000209944 0 0.000210737 0.000105373 
855 0.0618051 0.920422 0.00881515 0.00608957 0.00157577 0.000574111 0.000286824 0 0.000287908 0.00014396 
856 0.0261197 0.93036 0.0236071 0.0124639 0.00487799 0.00126436 0.000817805 0.000226984 0.000262021 0 
857 0.0257299 0.916474 0.0232548 0.0272032 0.00480518 0.00124549 0.000805599 0.000223596 0.00025811 0 
858 0.0200496 0.76866 0.0941044 0.0716522 0.0281577 0.00290676 0.00578103 0.00289671 0.00293471 0.0028565 
859 0.0108752 0.842611 0.0938069 0.0283666 0.016555 0.00444695 0.00333858 0 0 0 
860 0.0261197 0.93036 0.0236071 0.0124639 0.00487799 0.00126436 0.000817805 0.000226984 0.000262021 0 
861 0.0675093 0.897699 0.00962215 0.0220363 0.00172123 0.000627106 0.0003133 0 0.000314484 0.000157249 
862 0.0110425 0.855574 0.0798657 0.028803 0.0168096 0.00451536 0.00338994 0 0 0 
863 0.0265216 0.929289 0.0239703 0.0126556 0.00495303 0.00128382 0.000830387 0.000230476 0.000266052 0 
864 0.0246272 0.920054 0.0365384 0.0117571 0.00459924 0.00119212 0.000771074 0.000214013 0.000247048 0 
865 0.0939427 0.887506 0.00919765 0.00635823 0.00164529 0.00059944 0.000299478 0 0.00030061 0.000150312 
866 1.23505e-06 0.780501 0.0717218 0.0880967 0.0127042 0.0171379 0 1.52401e-07 0.0298368 0 
867 0.0265216 0.929289 0.0239703 0.0126556 0.00495303 0.00128382 0.000830387 0.000230476 0.000266052 0 
868 0.0257299 0.931399 0.0232548 0.0122778 0.00480518 0.00124549 0.000805599 0.000223596 0.00025811 0 
869 0.0700372 0.911982 0.00164207 0.000444581 0.000445642 0.000148496 0 6.50261e-05 0.015235 0 
870 0.0654941 0.886165 0.0274889 0.0178119 0.00166985 0.000608387 0.000303948 0 0.000305097 0.000152555 
871 0.0110425 0.855574 0.0798657 0.028803 0.0168096 0.00451536 0.00338994 0 0 0 
872 0.0110425 0.855574 0.0798657 0.028803 0.0168096 0.00451536 0.00338994 0 0 0 
873 0.0675093 0.913084 0.00962215 0.00665169 0.00172123 0.000627106 0.0003133 0 0.000314484 0.000157249 
874 0.0635957 0.918122 0.00906435 0.00626608 0.00162145 0.000590752 0.000295138 0 0.000296253 0.000148133 
875 0.0257299 0.886654 0.0680006 0.0122778 0.00480518 0.00124549 0.000805599 0.000223596 0.00025811 0 
876 0.020975 0.773368 0.0984475 0.0595748 0.0294573 0.00304092 0.00604784 0.0030304 0.00307016 0.00298834 
877 1.25405e-06 0.777124 0.0728252 0.089452 0.0128996 0.0174016 0 1.54746e-07 0.0302958 0 
878 0.0675093 0.897699 0.0250068 0.00665169 0.00172123 0.000627106 0.0003133 0 0.000314484 0.000157249 
879 0 0.832681 0.08715 0.0582882 0 0 0 0 0.0218804 0 
880 0.0265216 0.929289 0.0239703 0.0126556 0.00495303 0.00128382 0.000830387 0.000230476 0.000266052 0 
881 0.0110425 0.840189 0.0952502 0.0288031 0.0168096 0.00451537 0.00338994 0 0 0 
882 0.0728148 0.910073 0.00851708 0.0058427 0.00151189 0.000550837 0.000275196 0 0.000276236 0.000138124 
883 0.0108752 0.857762 0.0786556 0.0283666 0.016555 0.00444695 0.00333858 0 0 0 
884 0.0236151 0.937038 0.0213434 0.0112687 0.00441023 0.00114312 0.000739386 0.000205218 0.000236896 0 
885 0.0265216 0.929289 0.0239703 0.0126556 0.00495303 0.00128382 0.000830387 0.000230476 0.000266052 0 
886 0.0246272 0.920054 0.0365438 0.0117516 0.00459925 0.00119212 0.000771074 0.000214013 0.000247048 0 
887 0.0838463 0.913848 0.00133798 0.000362252 0.000363116 0.000120997 0 5.17838e-07 0.000120488 0 
888 0.0108752 0.857762 0.0786556 0.0283666 0.016555 0.00444695 0.00333858 0 0 0 
889 0.0249841 0.933388 0.0225807 0.011922 0.0046659 0.00120939 0.000782249 0.000217115 0.000250629 0 
890 0.0108752 0.857762 0.0786556 0.0283666 0.016555 0.00444695 0.00333858 0 0 0 
891 0.0236151 0.937038 0.0213434 0.0112687 0.00441023 0.00114312 0.000739386 0.000205218 0.000236896 0 
892 0.0110425 0.855574 0.0798657 0.028803 0.0168096 0.00451536 0.00338994 0 0 0 
893 0.0110425 0.855574 0.0798657 0.028803 0.0168096 0.00451536 0.00338994 0 0 0 
894 0.0257299 0.931399 0.0232548 0.0122778 0.00480518 0.00124549 0.000805599 0.000223596 0.00025811 0 
895 0.0110425 0.855574 0.0798657 0.028803 0.0168096 0.00451536 0.00338994 0 0 0 
896 0.0792368 0.902212 0.00919765 0.00635823 0.00164529 0.00059944 0.000299478 0 0.00030061 0.000150312 
897 0.0654941 0.915678 0.00933492 0.00645313 0.00166985 0.000608387 0.000303948 0 0.000305097 0.000152555 
898 0.0664864 0.899249 0.0246273 0.0065509 0.00169515 0.000617605 0.000308553 0 0.00030972 0.000154867 
899 0.0265216 0.929289 0.0239703 0.0126556 0.00495303 0.00128382 0.000830387 0.000230476 0.000266052 0 
900 0.0253515 0.932408 0.0229128 0.0120973 0.00473452 0.00122718 0.000793752 0.000220308 0.000254315 0 
901 0.0265216 0.929289 0.0239703 0.0126556 0.00495303 0.00128382 0.000830387 0.000230476 0.000266052 0 
902 0.0792364 0.872801 0.00924167 0.0353564 0.00201482 0.00059944 0.000299478 0 0.00030061 0.000150312 
903 0.0570197 0.926598 0.0081226 0.00561506 0.00145299 0.000529375 0.000264474 0 0.000265474 0.000132743 
904 0.0257299 0.931399 0.0232548 0.0122778 0.00480518 0.00124549 0.000805599 0.000223596 0.00025811 0 
905 0.0664864 0.9144 0.00947636 0.0065509 0.00169515 0.000617605 0.000308553 0 0.00030972 0.000154867 
906 0.0242803 0.92118 0.0360291 0.0115861 0.00453447 0.00117533 0.000760214 0.000210999 0.000243569 0 
907 0.0265216 0.929289 0.0239703 0.0126556 0.00495303 0.00128382 0.000830387 0.000230476 0.000266052 0 
908 0.067273 0.930021 0.00157067 0.000425252 0.000426267 0.000142039 0 6.07896e-07 0.000141443 0 
909 0.0257299 0.931399 0.0232548 0.0122778 0.00480518 0.00124549 0.000805599 0.000223596 0.00025811 0 
910 0.0265216 0.913904 0.0251931 0.0268174 0.00495303 0.00128382 0.000830387 0.000230476 0.000266052 0 
911 0.0675093 0.913084 0.00962215 0.00665169 0.00172123 0.000627106 0.0003133 0 0.000314484 0.000157249 
912 0.0675093 0.913084 0.00962215 0.00665169 0.00172123 0.000627106 0.0003133 0 0.000314484 0.000157249 
913 0.0253515 0.932408 0.0229128 0.0120973 0.00473452 0.00122718 0.000793752 0.000220308 0.000254315 0 
914 0.0265216 0.929289 0.0239703 0.0126556 0.00495303 0.00128382 0.000830387 0.000230476 0.000266052 0 
915 0.0105553 0.861946 0.0763422 0.0275323 0.016068 0.00431616 0.00324039 0 0 0 
916 0.0253515 0.932408 0.0229128 0.0120973 0.00473452 0.00122718 0.000793752 0.000220308 0.000254315 0 
917 0.0257299 0.916474 0.0232548 0.0272032 0.00480518 0.00124549 0.000805599 0.000223596 0.00025811 0 
918 0.0265216 0.913904 0.0239703 0.0126556 0.00783261 0.0137889 0.000830387 0.000230476 0.000266052 0 
919 0.0261197 0.93036 0.0236071 0.0124639 0.00487799 0.00126436 0.000817805 0.000226984 0.000262021 0 
920 0.0110425 0.855574 0.0798657 0.028803 0.0168096 0.00451536 0.00338994 0 0 0 
921 0.0711147 0.926013 0.00166733 0.000451421 0.000452498 0.00015078 0 6.45305e-07 0.000150147 0 
922 0.0245395 0.851604 0.074161 0.0267456 0.015609 0.00419284 0.0031478 0 0 0 
923 0.0265216 0.929289 0.0239703 0.0126556 0.00495303 0.00128382 0.000830387 0.000230476 0.000266052 0 
924 0.0257299 0.931399 0.0232548 0.0122778 0.00480518 0.00124549 0.000805599 0.000223596 0.00025811 0 
925 0.0689919 0.928221 0.00161756 0.000437946 0.000438991 0.000146279 0 6.26042e-07 0.000145665 0 
926 0.0641441 0.920838 0.00744571 0.00514714 0.0013319 0.000485261 0.000242435 0 0.000243351 0.000121681 
927 0.0246272 0.920054 0.0365438 0.0117516 0.00459924 0.00119212 0.000771074 0.000214013 0.000247048 0 
928 0.0645309 0.916918 0.00919765 0.00635823 0.00164529 0.00059944 0.000299478 0 0.00030061 0.000150312 
929 0.0108752 0.857762 0.0786556 0.0283666 0.016555 0.00444695 0.00333858 0 0 0 
930 0.0664864 0.899249 0.0141362 0.0170425 0.00169515 0.000617605 0.000308553 0 0.00030972 0.000154867 
931 0.0265216 0.917577 0.0356821 0.0126556 0.00495303 0.00128382 0.000830387 0.000230476 0.000266052 0 
932 0.0257299 0.931399 0.0232548 0.0122778 0.00480518 0.00124549 0.000805599 0.000223596 0.00025811 0 
933 0.0221013 0.941074 0.0199752 0.0105464 0.00412753 0.00106985 0.000691989 0.000192063 0.00022171 0 
934 0.0257299 0.916474 0.0381801 0.0122778 0.00480518 0.00124549 0.000805599 0.000223596 0.00025811 0 
935 0.0223901 0.940306 0.0202358 0.0106833 0.00418113 0.00108374 0.000700976 0.000194558 0.000224589 0 
936 0.0249841 0.918895 0.0370735 0.011922 0.0046659 0.00120939 0.000782249 0.000217115 0.000250629 0 
937 1.79497e-06 0.777124 0.0728252 0.089452 0.0128996 0.0174016 0 1.54746e-07 0.0302958 0 
938 0.020975 0.773367 0.0984478 0.0595748 0.0294573 0.00304092 0.00604784 0.0030304 0.00307016 0.00298834 
939 0.0664866 0.899249 0.00947636 0.0217024 0.00169515 0.000617605 0.000308553 0 0.00030972 0.000154867 
940 0.0742803 0.89943 0.0188939 0.00502744 0.00130093 0.000473976 0.000236797 0 0.000237692 0.000118851 
941 0.0253515 0.90295 0.0256869 0.0387813 0.00473453 0.00122718 0.000793752 0.000220308 0.000254315 0 
942 0.0618043 0.920429 0.00880902 0.00608957 0.00157577 0.000574111 0.000286824 0 0.000287908 0.00014396 
943 0.0203489 0.780133 0.0955088 0.0577964 0.0285779 0.00295014 0.00586731 0.00293994 0.00297851 0.00289914 
944 0.0253515 0.932408 0.0229128 0.0120973 0.00473452 0.00122718 0.000793752 0.000220308 0.000254315 0 
945 0.0265216 0.929289 0.0239703 0.0126556 0.00495303 0.00128382 0.000830387 0.000230476 0.000266052 0 
946 0.0349218 0.928253 0.0199752 0.0105464 0.00412753 0.00106985 0.000691989 0.000192063 0.00022171 0 
947 0.0108752 0.857762 0.0786556 0.0283666 0.016555 0.00444695 0.00333858 0 0 0 
948 0.0635957 0.918122 0.00906435 0.00626608 0.00162145 0.000590752 0.000295138 0 0.000296253 0.000148133 
949 0.0206572 0.76165 0.112107 0.0586721 0.0290109 0.00299484 0.00595621 0.00298449 0.00302364 0.00294306 
950 0.0197591 0.786506 0.0927404 0.0561211 0.0277496 0.00286463 0.00569725 0.00285473 0.00289218 0.0028151 
951 0.0265216 0.929289 0.0239703 0.0126556 0.00495303 0.00128382 0.000830387 0.000230476 0.000266052 0 
952 0.0261197 0.93036 0.0236071 0.0124639 0.00487799 0.00126436 0.000817805 0.000226984 0.000262021 0 
953 0.0679773 0.929277 0.00159377 0.000431506 0.000432535 0.000144128 0 6.16836e-07 0.000143523 0 
954 0.0265216 0.929289 0.0239703 0.0126556 0.00495303 0.00128382 0.000830387 0.000230476 0.000266052 0 
955 0.0664864 0.9144 0.00947636 0.0065509 0.00169515 0.000617605 0.000308553 0 0.00030972 0.000154867 
956 0.020975 0.773368 0.0984475 0.0595748 0.0294573 0.00304092 0.00604784 0.0030304 0.00307016 0.00298834 
957 0.0261197 0.93036 0.0236071 0.0124639 0.00487799 0.00126436 0.000817805 0.000226984 0.000262021 0 
958 0.0110425 0.855571 0.0798686 0.028803 0.0168096 0.00451536 0.00338994 0 0 0 
959 0.0261197 0.93036 0.0236071 0.0124639 0.00487799 0.00126436 0.000817805 0.000226984 0.000262021 0 
960 0.0246272 0.920054 0.0222581 0.0260374 0.00459924 0.00119212 0.000771074 0.000214013 0.000247048 0 
961 0.0675093 0.913084 0.00962215 0.00665169 0.00172123 0.000627106 0.0003133 0 0.000314484 0.000157249 
962 0.0265216 0.929289 0.0239703 0.0126556 0.00495303 0.00128382 0.000830387 0.000230476 0.000266052 0 
963 0.0675093 0.913084 0.00962215 0.00665169 0.00172123 0.000627106 0.0003133 0 0.000314484 0.000157249 
964 0.0261197 0.93036 0.0236071 0.0124639 0.00487799 0.00126436 0.000817805 0.000226984 0.000262021 0 
965 0.0654941 0.915678 0.00933492 0.00645313 0.00166985 0.000608387 0.000303948 0 0.000305097 0.000152555 
966 0.0265216 0.929289 0.0239703 0.0126556 0.00495303 0.00128382 0.000830387 0.000230476 0.000266052 0 
967 0.060111 0.881511 0.0222721 0.033316 0.00153263 0.000558382 0.000278966 0 0.00028002 0.000140016 
968 0.0110425 0.855574 0.0798657 0.028803 0.0168096 0.00451536 0.00338994 0 0 0 
969 0.0769729 0.904844 0.00909667 0.00617657 0.00159828 0.000582313 0.000290922 0 0.000292021 0.000146017 
970 0.0110425 0.840189 0.079866 0.0441872 0.0168097 0.00451537 0.00338994 0 0 0 
971 0.0257446 0.916457 0.0232571 0.0123789 0.0196265 0.00124847 0.000805599 0.000223596 0.00025811 0 
972 0.0206572 0.776801 0.0969559 0.0586721 0.0290109 0.00299484 0.00595621 0.00298449 0.00302364 0.00294306 
973 0.0265216 0.929289 0.0239703 0.0126556 0.00495303 0.00128382 0.000830387 0.000230476 0.000266052 0 
974 0.0654941 0.900753 0.0242603 0.00645313 0.00166985 0.000608387 0.000303948 0 0.000305097 0.000152555 
975 0.0110425 0.855574 0.0798657 0.028803 0.0168096 0.00451536 0.00338994 0 0 0 
976 0.00971805 0.873079 0.070194 0.0252999 0.0147652 0.0039662 0.00297765 0 0 0 
977 0.0261197 0.93036 0.0236071 0.0124639 0.00487799 0.00126436 0.000817805 0.000226984 0.000262021 0 
978 0.0110425 0.855574 0.0798657 0.028803 0.0168096 0.00451536 0.00338994 0 0 0 
979 0.0110425 0.855574 0.0798657 0.028803 0.0168096 0.00451536 0.00338994 0 0 0 
980 1.25405e-06 0.777124 0.0728252 0.089452 0.0128996 0.0174016 0 1.54746e-07 0.0302958 0 
981 0.0689919 0.928221 0.00161756 0.000437946 0.000438991 0.000146279 0 6.26042e-07 0.000145665 0 
982 0.0675093 0.897699 0.00962215 0.00810403 0.0156535 0.000627106 0.0003133 0 0.000314484 0.000157249 
983 0.020975 0.757983 0.0984475 0.0749594 0.0294573 0.00304092 0.00604784 0.0030304 0.00307016 0.00298834 
984 0.0592987 0.923654 0.00845189 0.0058427 0.00151189 0.000550837 0.000275196 0 0.000276236 0.000138124 
985 0.0265216 0.918001 0.0352574 0.0126556 0.00495303 0.00128382 0.000830387 0.000230476 0.000266052 0 
986 0.0265216 0.929289 0.0239703 0.0126556 0.00495303 0.00128382 0.000830387 0.000230476 0.000266052 0 
987 0.0265216 0.913904 0.0239703 0.0280402 0.00495303 0.00128382 0.000830387 0.000230476 0.000266052 0 
988 0.0105553 0.861946 0.0763422 0.0275323 0.016068 0.00431616 0.00324039 0 0 0 
989 0.0265216 0.913904 0.0393549 0.0126556 0.00495303 0.00128382 0.000830387 0.000230476 0.000266052 0 
990 0.010406 0.863943 0.0752358 0.0271332 0.0158352 0.0042536 0.00319342 0 0 0 
991 0.0700372 0.927134 0.00164207 0.000444582 0.000445642 0.000148496 0 6.35528e-07 0.000147872 0 
992 0.0265216 0.929289 0.0239703 0.0126556 0.00495303 0.00128382 0.000830387 0.000230476 0.000266052 0 
993 0.0675093 0.911225 0.0114811 0.00665169 0.00172123 0.000627106 0.0003133 0 0.000314484 0.000157249 
994 0.020975 0.773368 0.0984475 0.0595748 0.0294573 0.00304092 0.00604784 0.0030304 0.00307016 0.00298834 
995 0.0654941 0.915678 0.00933492 0.00645313 0.00166985 0.000608387 0.000303948 0 0.000305097 0.000152555 
996 0.0265216 0.929289 0.0239703 0.0126556 0.00495303 0.00128382 0.000830387 0.000230476 0.000266052 0 
997 0.0261197 0.915209 0.0236071 0.0124639 0.0200295 0.00126436 0.000817805 0.000226984 0.000262021 0 
998 0.0108752 0.857762 0.0786556 0.0283666 0.016555 0.00444695 0.00333858 0 0 0 
999 0.0682038 0.915828 0.00791696 0.00547291 0.0014162 0.000515973 0.000257779 0 0.000258753 0.000129382 
1000 0.0569884 0.926629 0.0081226 0.00561506 0.00145299 0.000529375 0.000264474 0 0.000265474 0.000132743 
1001 0.0645309 0.916918 0.00919765 0.00635823 0.00164529 0.00059944 0.000299478 0 0.00030061 0.000150312 
1002 0.0654952 0.915677 0.00933496 0.00645313 0.00166985 0.000608387 0.000303948 0 0.000305097 0.000152555 
1003 0.020975 0.773368 0.0984475 0.0595748 0.0294573 0.00304092 0.00604784 0.0030304 0.00307016 0.00298834 
1004 0.0645309 0.916918 0.00919765 0.00635823 0.00164529 0.00059944 0.000299478 0 0.00030061 0.000150312 
1005 0.0108752 0.842611 0.0786556 0.0435181 0.016555 0.00444695 0.00333858 0 0 0 
