2 0.0345693 0.951782 0.00920925 0.00227099 0.00144447 0.000724174 0 0 0 0 
3 0.0499755 0.949528 0.000362263 0.000133958 0 0 0 0 0 0 
4 0.017932 0.929673 0.0369632 0.00808712 0.00588904 0.000718593 0 0.000736476 0 0 
5 9.73845e-07 0.851436 0.114515 0.0193199 0.014729 0 0 0 0 0 
6 0.033429 0.911865 0.0385939 0.0084439 0.00614885 0.000750295 0 0.000768967 0 0 
7 0.0663666 0.9312 0.00174356 0.000690137 0 0 0 0 0 0 
8 0.108763 0.888287 0.00208881 0.000619715 0.00016127 0 8.07828e-05 0 0 0 
9 0.0761495 0.91763 0.00440082 0.00130884 0.000340603 0 0.000170613 0 0 0 
10 0.0407873 0.943286 0.0107357 0.00265531 0.00168892 0.000846726 0 0 0 0 
11 0.0748993 0.922354 0.00196755 0.000778869 0 0 0 0 0 0 
12 0.010494 0.932212 0.0410904 0.0132591 0.000978169 0.000983027 0 0.000983019 0 0 
13 0.0339279 0.91055 0.03917 0.00856993 0.00624062 0.000761494 0 0.000780444 0 0 
14 0.0344556 0.964607 0.000678711 0.000258393 0 0 0 0 0 0 
15 0.104933 0.884116 0.00774649 0.00230429 0.000599652 0 0.000300376 0 0 0 
16 0.00522954 0.909359 0.0671618 0.00678485 0.00533951 0.00232282 0.00125389 1.61113e-06 0.00254698 0 
17 0.0385853 0.946187 0.010266 0.00253817 0.00161441 0.00080937 0 0 0 0 
18 0.063328 0.933803 0.00205565 0.000813744 0 0 0 0 0 0 
19 0.0630044 0.934972 0.000728887 0.00122532 4.65864e-05 0 2.33079e-05 0 0 0 
20 0.0157182 0.938356 0.0323998 0.00708871 0.00516199 0.000629878 0 0.000645553 0 0 
21 0.00515149 0.910712 0.0661594 0.00668358 0.00525982 0.00228815 0.00123517 1.58708e-06 0.00250896 0 
22 0.0608736 0.938529 0.000429098 0.000167756 0 0 0 0 0 0 
23 0.0128283 0.916704 0.0503365 0.0164734 0.0012153 0.00122134 0 0.00122133 0 0 
24 0.0403661 0.943707 0.0107357 0.00265531 0.00168892 0.000846726 0 0 0 0 
25 0.00214529 0.882749 0.0821667 0.0180309 0.00637603 0.00446783 0.00192785 0 0.00213588 0 
26 0.105284 0.88588 0.00843466 0.000401255 0 0 0 0 0 0 
27 0.0271578 0.902375 0.0503365 0.0164734 0.0012153 0.00122134 0 0.00122133 0 0 
28 0.00213704 0.867373 0.0821667 0.0180309 0.00637603 0.00596641 0.0158139 0 0.00213588 0 
29 0.107744 0.887273 0.00358789 0.00100371 0.000261198 0 0.000130838 0 0 0 
30 0.161974 0.837156 0.000623347 0.000246701 0 0 0 0 0 0 
31 0.065537 0.91956 0.0142214 0.000681637 0 0 0 0 0 0 
32 0.00213704 0.882757 0.0821667 0.0180309 0.00637603 0.00446783 0.00192785 0 0.00213588 0 
33 0.0554252 0.944049 0.000376899 0.000148558 0 0 0 0 0 0 
34 0.017932 0.929673 0.0369632 0.00808712 0.00588904 0.000718593 0 0.000736476 0 0 
35 0.0702855 0.922379 0.00518869 0.00154344 0.000401654 0 0.000201195 0 0 0 
36 0.107349 0.885175 0.00528847 0.00157312 0.000409378 0 0.000205064 0 0 0 
37 9.73845e-07 0.836051 0.114515 0.021422 0.0280115 0 0 0 0 0 
38 0.0195873 0.907797 0.0557598 0.00883362 0.00643264 0.000784924 0 0.000804458 0 0 
39 0.222664 0.777336 0 0 0 0 0 0 0 0 
40 0.0573373 0.940065 0.0018612 0.000736768 0 0 0 0 0 0 
41 0.0115981 0.924691 0.0455098 0.0148937 0.00109877 0.00110422 0 0.00110421 0 0 
42 0.0195873 0.923182 0.0403752 0.00883362 0.00643264 0.000784924 0 0.000804458 0 0 
43 0.0513755 0.937122 0.00775358 0.00191773 0.00121977 0.000611524 0 0 0 0 
44 0.0466302 0.944725 0.00583282 0.00143829 0.00091483 0.000458643 0 0 0 0 
45 0.0364416 0.94918 0.00969198 0.00239716 0.00152472 0.000764405 0 0 0 0 
46 0.003672 0.834377 0.123922 0.0280572 0.00997085 0 0 0 0 0 
47 0.0581226 0.939244 0.00188669 0.000746861 0 0 0 0 0 0 
48 0.017683 0.916761 0.0503387 0.0079748 0.00580724 0.000708612 0 0.000726247 0 0 
49 0.0447833 0.954461 0.00054198 0.000213807 0 0 0 0 0 0 
50 0.038026 0.946971 0.0101134 0.00250138 0.00159101 0.00079764 0 0 0 0 
51 0.00951309 0.93823 0.0373282 0.0122162 0.000901235 0.00090571 0 0.000905703 0 0 
52 0 0.808352 0.137745 0.0419443 0.00597968 0 0 0 0.00597968 0 
53 0.0130256 0.915422 0.0511109 0.0167268 0.001234 0.00124013 0 0.00124012 0 0 
54 0.0633276 0.918878 0.00205565 0.0157391 0 0 0 0 0 0 
55 0.00530999 0.89258 0.0835797 0.00688923 0.00542166 0.00235856 0.00127318 1.63591e-06 0.00258616 0 
56 0.034442 0.909194 0.0397634 0.00869978 0.00633517 0.000773032 0 0.000792269 0 0 
57 0.0662008 0.928121 0.00401801 0.0011942 0.000310769 0 0.000155669 0 0 0 
58 0 0.691188 0.15619 0.116123 0.0364978 0 0 0 0 0 
59 0.0181884 0.928669 0.0374912 0.00820265 0.00597316 0.000728858 0 0.000746997 0 0 
60 0.0122705 0.92029 0.0481841 0.0157572 0.00116246 0.00116824 0 0.00116823 0 0 
61 0.0467601 0.949233 0.00279287 0.000620847 0.000394891 0.000197976 0 0 0 0 
62 0.0221104 0.971571 0.00426157 0.00105241 0.000669388 0.000335593 0 0 0 0 
63 0.0128283 0.916704 0.0503365 0.0164734 0.0012153 0.00122134 0 0.00122133 0 0 
64 0.0960257 0.895139 0.00625001 0.00185914 0.00048381 0 0.000242349 0 0 0 
65 0.0192905 0.924346 0.0397634 0.00869978 0.00633517 0.000773032 0 0.000792269 0 0 
66 0.0725841 0.925489 0.00138131 0.000545208 0 0 0 0 0 0 
67 0.00854703 0.89305 0.053656 0.0340675 0.00227912 0.00840035 0 0 0 0 
68 0.0610413 0.934332 0.00311992 0.000770515 0.000490087 0.000245702 0 0 0 0 
69 0.333885 0.666115 0 0 0 0 0 0 0 0 
70 0.00500217 0.9133 0.0642417 0.00648985 0.00510736 0.00222183 0.00119937 1.54108e-06 0.00243624 0 
71 0.00530999 0.907965 0.068195 0.00688923 0.00542166 0.00235856 0.00127318 1.63591e-06 0.00258616 0 
72 0.0130256 0.915422 0.0511109 0.0167268 0.001234 0.00124013 0 0.00124012 0 0 
73 0.0187867 0.926507 0.0385939 0.0084439 0.00614885 0.000750295 0 0.000768967 0 0 
74 0.00479375 0.916912 0.061565 0.00621944 0.00489455 0.00212925 0.0011494 1.47687e-06 0.00233473 0 
75 0.0341125 0.927121 0.0273543 0.0059811 0.00435543 0.000531459 0 0.000544685 0 0 
76 0.0647655 0.934442 0.000590162 0.00020268 0 0 0 0 0 0 
77 0.0745113 0.921885 0.00255068 0.00075743 0.000197108 0 9.87346e-05 0 0 0 
78 0.0112889 0.926699 0.0442962 0.0144966 0.00106947 0.00107478 0 0.00107477 0 0 
79 0.0424295 0.955648 0.00137729 0.000545208 0 0 0 0 0 0 
80 0.00383891 0.796546 0.159858 0.0293325 0.0104241 0 0 0 0 0 
81 0.0287484 0.960464 0.00727278 0.00179787 0.00114354 0.000573304 0 0 0 0 
82 0.0308682 0.956953 0.00820968 0.00203053 0.00129152 0.000647496 0 0 0 0 
83 0.0117592 0.923645 0.0461418 0.0151006 0.00111403 0.00111956 0 0.00111955 0 0 
84 0.003726 0.831941 0.125745 0.0284698 0.0101175 0 0 0 0 0 
85 0.0742026 0.923266 0.00179302 0.000531184 0.000138232 0 6.92425e-05 0 0 0 
86 0.00515149 0.910712 0.0661594 0.00668358 0.00525982 0.00228815 0.00123517 1.58708e-06 0.00250896 0 
87 0.00213704 0.882757 0.0821667 0.0180309 0.00637603 0.00446783 0.00192785 0 0.00213588 0 
88 0.0955298 0.894489 0.00706487 0.0020975 0.000545837 0 0.000273419 0 0 0 
89 0.0130256 0.915422 0.0511109 0.0167268 0.001234 0.00124013 0 0.00124012 0 0 
90 0.0374828 0.947728 0.00996889 0.00246565 0.00156828 0.000786246 0 0 0 0 
91 0.0391611 0.945388 0.0104153 0.00257605 0.0016385 0.000821451 0 0 0 0 
92 0.0543976 0.933423 0.00820968 0.00203053 0.00129152 0.000647496 0 0 0 0 
93 0.0403661 0.943707 0.0107357 0.00265531 0.00168892 0.000846726 0 0 0 0 
94 0.0121721 0.957786 0.0213465 0.00455703 0.00331843 0.000404921 0 0.000414998 0 0 
95 0.00210466 0.884534 0.0809218 0.0177577 0.00627942 0.00440014 0.00189864 0 0.00210352 0 
96 0.00389797 0.824185 0.131548 0.0297838 0.0105844 0 0 0 0 0 
97 0.0511199 0.946564 0.00165938 0.000656877 0 0 0 0 0 0 
98 0.034984 0.951213 0.0093043 0.00230127 0.00146373 0.000733829 0 0 0 0 
99 0.0430663 0.952438 0.0031801 0.000945692 0.0002461 0 0.000123276 0 0 0 
100 0.0440901 0.939983 0.0107357 0.00265531 0.00168892 0.000846726 0 0 0 0 
101 0.12628 0.861758 0.00846155 0.002517 0.000655005 0 0.000328103 0 0 0 
102 0.111198 0.862272 0.0231343 0.00244186 0.000635452 0 0.000318309 0 0 0 
103 0.049641 0.936178 0.00955921 0.00236432 0.00150383 0.000753934 0 0 0 0 
104 0.114756 0.873282 0.00846155 0.002517 0.000655005 0 0.000328103 0 0 0 
105 0.00854703 0.89305 0.053656 0.0340675 0.00227912 0.00840035 0 0 0 0 
106 0.00389797 0.824185 0.131548 0.0297838 0.0105844 0 0 0 0 0 
107 0.0165649 0.935093 0.0341132 0.00745695 0.00543015 0.000662598 0 0.000679088 0 0 
108 0.0928816 0.905371 0.00125222 0.000495644 0 0 0 0 0 0 
109 0.0130256 0.915422 0.0511109 0.0167268 0.001234 0.00124013 0 0.00124012 0 0 
110 0.00522954 0.909359 0.0671618 0.00678485 0.00533951 0.00232282 0.00125389 1.61113e-06 0.00254698 0 
111 0.0177349 0.916709 0.0503387 0.0079748 0.00580724 0.000708612 0 0.000726247 0 0 
112 0.0469395 0.951615 0.00103555 0.000409931 0 0 0 0 0 0 
113 0.00420914 0.927045 0.054057 0.00546097 0.00429766 0.00186959 0.00100923 1.29676e-06 0.00205001 0 
114 0.00771607 0.903448 0.0484394 0.0307554 0.00205754 0.00758365 0 0 0 0 
115 0.00522954 0.909359 0.0671618 0.00678485 0.00533951 0.00232282 0.00125389 1.61113e-06 0.00254698 0 
116 0.00431437 0.925221 0.0554085 0.0055975 0.0044051 0.00191633 0.00103446 1.32918e-06 0.00210126 0 
117 0.00213704 0.882757 0.0821667 0.0180309 0.00637603 0.00446783 0.00192785 0 0.00213588 0 
118 0.0195873 0.923182 0.0403752 0.00883362 0.00643264 0.000784924 0 0.000804458 0 0 
119 0.0174407 0.9316 0.0359505 0.00786555 0.00572769 0.000698905 0 0.000716298 0 0 
120 9.73845e-07 0.836051 0.114515 0.0347045 0.014729 0 0 0 0 0 
121 0 0.788355 0.14779 0.0496878 0.00708362 0 0 0 0.00708362 0 
122 0.0291093 0.959509 0.00767368 0.00189665 0.00120637 0.000604804 0 0 0 0 
123 0.00500217 0.9133 0.0642417 0.00648985 0.00510736 0.00222183 0.00119937 1.54108e-06 0.00243624 0 
124 0 0.821338 0.124758 0.0419443 0.00597968 0 0 0 0.00597968 0 
125 0.00363315 0.937028 0.0466598 0.00471368 0.00370956 0.00161375 0.000871123 1.11931e-06 0.00176948 0 
126 6.13153e-07 0.901963 0.0773527 0.0117364 0.00894753 0 0 0 0 0 
127 0.0845027 0.907722 0.00550001 0.00163605 0.000425753 0 0.000213267 0 0 0 
128 0.0385852 0.946191 0.0102621 0.00253817 0.00161441 0.00080937 0 0 0 0 
129 0.0374828 0.947728 0.00996889 0.00246565 0.00156828 0.000786246 0 0 0 0 
130 0.00530999 0.907965 0.068195 0.00688923 0.00542166 0.00235856 0.00127318 1.63591e-06 0.00258616 0 
131 0.0659649 0.901966 0.0226241 0.00494987 0.0036045 0.000439828 0 0.000450774 0 0 
132 0.0917077 0.90002 0.00585179 0.00174048 0.000452929 0 0.00022688 0 0 0 
133 0.0130256 0.915422 0.0511109 0.0167268 0.001234 0.00124013 0 0.00124012 0 0 
134 0.104327 0.886074 0.00679013 0.00201981 0.000525621 0 0.000263292 0 0 0 
135 0.0865602 0.912178 0.000905527 0.000356345 0 0 0 0 0 0 
136 0.0385679 0.95623 0.00350668 0.000867313 0.000551656 0.000276569 0 0 0 0 
137 0.0636432 0.933487 0.00205565 0.000813744 0 0 0 0 0 0 
138 0.124417 0.868384 0.0050926 0.00151486 0.000394216 0 0.000197469 0 0 0 
139 0.0538539 0.934247 0.008021 0.00198385 0.00126183 0.000632611 0 0 0 0 
140 0.00854703 0.89305 0.053656 0.0340675 0.00227912 0.00840035 0 0 0 0 
141 0.00389797 0.8088 0.146655 0.0300613 0.0105844 0 0 0 0 0 
142 0.0349919 0.951197 0.00931221 0.00230127 0.00146373 0.000733829 0 0 0 0 
143 0.038026 0.946971 0.0101134 0.00250138 0.00159101 0.00079764 0 0 0 0 
144 0.0126368 0.917947 0.0495853 0.0162275 0.00119716 0.00120311 0 0.0012031 0 0 
145 0.0305187 0.960772 0.00587421 0.00145038 0.000922518 0.000462497 0 0 0 0 
146 0.012451 0.919154 0.0488561 0.0159889 0.00117956 0.00118542 0 0.00118541 0 0 
147 0.012451 0.919154 0.0488561 0.0159889 0.00117956 0.00118542 0 0.00118541 0 0 
148 0.00854703 0.877665 0.0690406 0.0340675 0.00227912 0.00840035 0 0 0 0 
149 0.0109777 0.956951 0.0226261 0.00494987 0.0036045 0.000439828 0 0.000450774 0 0 
150 0.00201316 0.875062 0.0918961 0.0169857 0.0060064 0.00420883 0.00181609 0 0.00201206 0 
151 0.0303516 0.960939 0.00587371 0.00145038 0.000922518 0.000462497 0 0 0 0 
152 0.00204276 0.88793 0.0785417 0.0172354 0.00609473 0.00427072 0.0018428 0 0.00204165 0 
153 0.0126368 0.917947 0.0495853 0.0162275 0.00119716 0.00120311 0 0.0012031 0 0 
154 0.00854703 0.89305 0.053656 0.0340675 0.00227912 0.00840035 0 0 0 0 
155 0.0195873 0.923182 0.0403752 0.00883362 0.00643264 0.000784924 0 0.000804458 0 0 
156 0.0242944 0.96612 0.00646132 0.0015981 0.00101648 0.000509604 0 0 0 0 
157 0 0.695867 0.153824 0.114363 0.0359448 0 0 0 0 0 
158 0.0307676 0.957195 0.00811447 0.00200692 0.00127651 0.000639967 0 0 0 0 
159 0 0.788355 0.14779 0.0496878 0.00708362 0 0 0 0.00708362 0 
160 0.0130256 0.915422 0.0511109 0.0167268 0.001234 0.00124013 0 0.00124012 0 0 
161 0.00337824 0.847627 0.114009 0.0258126 0.00917318 0 0 0 0 0 
162 0.00530999 0.907965 0.068195 0.00688923 0.00542166 0.00235856 0.00127318 1.63591e-06 0.00258616 0 
163 0.0130256 0.915422 0.0511109 0.0167268 0.001234 0.00124013 0 0.00124012 0 0 
164 0.0192905 0.924346 0.0397634 0.00869978 0.00633517 0.000773032 0 0.000792269 0 0 
165 0.0463132 0.946166 0.00512776 0.00122408 0.000778579 0.000390335 0 0 0 0 
166 9.73845e-07 0.836051 0.129899 0.0193199 0.014729 0 0 0 0 0 
167 0.0195873 0.923182 0.0403752 0.00883362 0.00643264 0.000784924 0 0.000804458 0 0 
168 0.0126368 0.917947 0.0495853 0.0162275 0.00119716 0.00120311 0 0.0012031 0 0 
169 0 0.691188 0.15619 0.116123 0.0364978 0 0 0 0 0 
170 0 0.691188 0.15619 0.116123 0.0364978 0 0 0 0 0 
171 0.0403661 0.943707 0.0107357 0.00265531 0.00168892 0.000846726 0 0 0 0 
172 0.003726 0.831941 0.125745 0.0284698 0.0101175 0 0 0 0 0 
173 0.0130256 0.915422 0.0511109 0.0167268 0.001234 0.00124013 0 0.00124012 0 0 
174 0.0195873 0.923182 0.0403752 0.00883362 0.00643264 0.000784924 0 0.000804458 0 0 
175 0.103108 0.888699 0.00579827 0.00172216 0.000448161 0 0.000224491 0 0 0 
176 0.0195873 0.923182 0.0403752 0.00883362 0.00643264 0.000784924 0 0.000804458 0 0 
177 0.0616818 0.936056 0.00162034 0.000641421 0 0 0 0 0 0 
178 0.00854707 0.89305 0.053656 0.0340675 0.00227912 0.00840035 0 0 0 0 
179 0.012451 0.904448 0.0488561 0.0306948 0.00117956 0.00118542 0 0.00118541 0 0 
180 0.0397545 0.94456 0.0105731 0.00261508 0.00166333 0.000833897 0 0 0 0 
181 0.0364416 0.94918 0.00969198 0.00239716 0.00152472 0.000764405 0 0 0 0 
182 0.00854703 0.89305 0.053656 0.0340675 0.00227912 0.00840035 0 0 0 0 
183 0.0130256 0.915422 0.0511109 0.0167268 0.001234 0.00124013 0 0.00124012 0 0 
184 0.0192642 0.94921 0.0222406 0.00486598 0.0035434 0.000432374 0 0.000443134 0 0 
185 0.0432744 0.93948 0.00964672 0.00666245 0.000623765 0.000312711 0 0 0 0 
186 0.00530999 0.907965 0.068195 0.00688923 0.00542166 0.00235856 0.00127318 1.63591e-06 0.00258616 0 
187 9.73845e-07 0.851436 0.114515 0.0193199 0.014729 0 0 0 0 0 
188 0.00486126 0.915742 0.0624321 0.00630704 0.00496349 0.00215924 0.00116559 1.49767e-06 0.00236761 0 
189 0.0125715 0.934745 0.0414269 0.00418504 0.00329353 0.00143277 0.000773427 9.93779e-07 0.00157103 0 
190 0.0115982 0.92469 0.0455105 0.0148937 0.00109877 0.00110422 0 0.00110421 0 0 
191 0.00173635 0.90474 0.0667605 0.0146501 0.00518052 0.00363011 0.00156638 0 0.0017354 0 
192 0.0962094 0.890401 0.0111697 0.0011355 0.000722234 0.000362087 0 0 0 0 
193 0.0082919 0.896243 0.0520543 0.0330505 0.00221109 0.0081496 0 0 0 0 
194 0.00207325 0.886257 0.079714 0.0174927 0.0061857 0.00433446 0.0018703 0 0.00207213 0 
195 0.104933 0.884116 0.00774649 0.00230429 0.000599652 0 0.000300376 0 0 0 
196 0.0367412 0.948881 0.009692 0.00239716 0.00152472 0.000764405 0 0 0 0 
197 0.0195873 0.907799 0.0557581 0.00883362 0.00643264 0.000784924 0 0.000804458 0 0 
198 0.104933 0.870032 0.0218306 0.00230429 0.000599652 0 0.000300376 0 0 0 
199 0.0983723 0.87824 0.0203947 0.00215269 0.000560202 0 0.000280614 0 0 0 
200 0.0119249 0.92257 0.0467917 0.0153133 0.00112972 0.00113533 0 0.00113532 0 0 
201 0.0360612 0.949754 0.00956298 0.00236432 0.00150383 0.000753934 0 0 0 0 
202 0.00841753 0.894671 0.052843 0.0335513 0.00224459 0.00827308 0 0 0 0 
203 0.00173635 0.90474 0.0667605 0.0146501 0.00518052 0.00363011 0.00156638 0 0.0017354 0 
204 0.00210466 0.884534 0.0809218 0.0177577 0.00627942 0.00440014 0.00189864 0 0.00210352 0 
205 0.0184518 0.927635 0.0380346 0.00832153 0.00605973 0.000739422 0 0.000757823 0 0 
206 0.0184518 0.927635 0.0380346 0.00832153 0.00605973 0.000739422 0 0.000757823 0 0 
207 0.0130256 0.915422 0.0511109 0.0167268 0.001234 0.00124013 0 0.00124012 0 0 
208 0.0503305 0.935291 0.00969198 0.00239716 0.00152472 0.000764405 0 0 0 0 
209 0.112883 0.875337 0.00833334 0.00247886 0.000645081 0 0.000323131 0 0 0 
210 0.111198 0.877198 0.00820896 0.00244186 0.000635452 0 0.000318309 0 0 0 
211 0 0.695867 0.153824 0.114363 0.0359448 0 0 0 0 0 
212 0.017683 0.93065 0.0364498 0.0079748 0.00580724 0.000708612 0 0.000726247 0 0 
213 0.0797247 0.912935 0.00519388 0.00154344 0.000401654 0 0.000201195 0 0 0 
214 0.00192927 0.894156 0.0741783 0.0162779 0.00575613 0.00403346 0.00174042 0 0.00192823 0 
215 0.0128283 0.916704 0.0503365 0.0164734 0.0012153 0.00122134 0 0.00122133 0 0 
216 0.012451 0.919154 0.0488561 0.0159889 0.00117956 0.00118542 0 0.00118541 0 0 
217 0.0130256 0.900044 0.0664898 0.0167268 0.001234 0.00124013 0 0.00124012 0 0 
218 0.0397545 0.94456 0.0105731 0.00261508 0.00166333 0.000833897 0 0 0 0 
219 0.0385913 0.946179 0.0102681 0.00253817 0.00161441 0.00080937 0 0 0 0 
220 0.0391611 0.945388 0.0104153 0.00257605 0.0016385 0.000821451 0 0 0 0 
221 0.0120952 0.921464 0.0474602 0.0155321 0.00114586 0.00115155 0 0.00115154 0 0 
222 0.00210466 0.884534 0.0809218 0.0177577 0.00627942 0.00440014 0.00189864 0 0.00210352 0 
223 0.0126368 0.917947 0.0495853 0.0162275 0.00119716 0.00120311 0 0.0012031 0 0 
224 0.012451 0.919154 0.0488561 0.0159889 0.00117956 0.00118542 0 0.00118541 0 0 
225 0.00515149 0.910712 0.0661594 0.00668358 0.00525982 0.00228815 0.00123517 1.58708e-06 0.00250896 0 
226 0.0119249 0.92257 0.0467917 0.0153133 0.00112972 0.00113533 0 0.00113532 0 0 
227 0.0385853 0.946191 0.0102621 0.00253817 0.00161441 0.00080937 0 0 0 0 
228 0.109563 0.864301 0.0227911 0.00240595 0.000626108 0 0.000313628 0 0 0 
229 0.0195873 0.923182 0.0403752 0.00883362 0.00643264 0.000784924 0 0.000804458 0 0 
230 0.112883 0.875337 0.00833334 0.00247886 0.000645081 0 0.000323131 0 0 0 
231 0.00522954 0.909359 0.0671618 0.00678485 0.00533951 0.00232282 0.00125389 1.61113e-06 0.00254698 0 
232 0.00854703 0.89305 0.053656 0.0340675 0.00227912 0.00840035 0 0 0 0 
233 0.00522954 0.909359 0.0671618 0.00678485 0.00533951 0.00232282 0.00125389 1.61113e-06 0.00254698 0 
234 0.0195873 0.923182 0.0403752 0.00883362 0.00643264 0.000784924 0 0.000804458 0 0 
235 0.0239314 0.936907 0.0276284 0.00604406 0.00440128 0.000537054 0 0.000550419 0 0 
236 0.0187231 0.926571 0.0385939 0.0084439 0.00614885 0.000750295 0 0.000768967 0 0 
237 0.0126368 0.917947 0.0495853 0.0162275 0.00119716 0.00120311 0 0.0012031 0 0 
238 0.0192905 0.924346 0.0397634 0.00869978 0.00633517 0.000773032 0 0.000792269 0 0 
239 0.00530999 0.907965 0.068195 0.00688923 0.00542166 0.00235856 0.00127318 1.63591e-06 0.00258616 0 
240 0.0195873 0.923182 0.0403752 0.00883362 0.00643264 0.000784924 0 0.000804458 0 0 
241 0.0130256 0.915422 0.0511109 0.0167268 0.001234 0.00124013 0 0.00124012 0 0 
242 0.0130256 0.915422 0.0511109 0.0167268 0.001234 0.00124013 0 0.00124012 0 0 
243 0.0403661 0.943707 0.0107357 0.00265531 0.00168892 0.000846726 0 0 0 0 
244 0.0403661 0.943707 0.0107357 0.00265531 0.00168892 0.000846726 0 0 0 0 
245 0.0187231 0.926571 0.0385939 0.0084439 0.00614885 0.000750295 0 0.000768967 0 0 
246 0.038026 0.94697 0.0101137 0.00250138 0.00159101 0.00079764 0 0 0 0 
247 0.00530999 0.89258 0.0835796 0.00688923 0.00542166 0.00235856 0.00127318 1.63591e-06 0.00258616 0 
248 0.0128283 0.916704 0.0503365 0.0164734 0.0012153 0.00122134 0 0.00122133 0 0 
249 0.054906 0.929409 0.0105731 0.00261508 0.00166333 0.000833897 0 0 0 0 
250 0.122313 0.865726 0.00846155 0.002517 0.000655005 0 0.000328103 0 0 0 
251 0.122311 0.865728 0.00846155 0.002517 0.000655005 0 0.000328103 0 0 0 
252 0.0403661 0.943707 0.0107357 0.00265531 0.00168892 0.000846726 0 0 0 0 
253 0.0130256 0.900038 0.0511109 0.0167268 0.001234 0.0166247 0 0.00124012 0 0 
254 0.0369734 0.948446 0.00982849 0.00243092 0.00154619 0.000775172 0 0 0 0 
255 0.034984 0.951213 0.0093043 0.00230127 0.00146373 0.000733829 0 0 0 0 
256 0.00213704 0.882757 0.0821667 0.0180309 0.00637603 0.00446783 0.00192785 0 0.00213588 0 
257 0.00383891 0.826849 0.129555 0.0293325 0.0104241 0 0 0 0 0 
258 0.00448246 0.922308 0.0575672 0.00581558 0.00457673 0.00199099 0.00107476 1.38097e-06 0.00218313 0 
259 0.0303156 0.968309 0.000985945 0.000389434 0 0 0 0 0 0 
260 0.0130256 0.915422 0.0511109 0.0167268 0.001234 0.00124013 0 0.00124012 0 0 
261 0.00530999 0.907965 0.068195 0.00688923 0.00542166 0.00235856 0.00127318 1.63591e-06 0.00258616 0 
262 0.0397545 0.914257 0.0105731 0.0180724 0.016509 0.000833897 0 0 0 0 
263 0.0397545 0.94456 0.0105731 0.00261508 0.00166333 0.000833897 0 0 0 0 
264 0.114193 0.8753 0.00743244 0.00221088 0.000575342 0 0.000288198 0 0 0 
265 0.0187231 0.926571 0.0385939 0.0084439 0.00614885 0.000750295 0 0.000768967 0 0 
266 0.0397545 0.929409 0.0105731 0.00261508 0.00166333 0.0159854 0 0 0 0 
267 0.0600489 0.926506 0.00906263 0.0022415 0.00142571 0.000714769 0 0 0 0 
268 0.0195873 0.923182 0.0403752 0.00883362 0.00643264 0.000784924 0 0.000804458 0 0 
269 0.0031671 0.85715 0.106883 0.0241993 0.00859986 0 0 0 0 0 
270 0.0385856 0.94619 0.0102621 0.00253817 0.00161441 0.00080937 0 0 0 0 
271 0.0126405 0.917942 0.0495864 0.0162275 0.00119716 0.00120311 0 0.0012031 0 0 
272 0.0120952 0.921464 0.0474602 0.0155321 0.00114586 0.00115155 0 0.00115154 0 0 
273 0 0.538683 0.30744 0.092338 0 0.0615385 0 0 0 0 
274 0.00210466 0.869382 0.0960732 0.0177578 0.00627942 0.00440014 0.00189864 0 0.00210352 0 
275 0.0773057 0.914412 0.00558258 0.00138076 0.000878237 0.000440297 0 0 0 0 
276 0.100679 0.875301 0.0209455 0.00221088 0.000575342 0 0.000288198 0 0 0 
277 0.0364416 0.94918 0.00969198 0.00239716 0.00152472 0.000764405 0 0 0 0 
278 0.00389797 0.824185 0.131548 0.0297838 0.0105844 0 0 0 0 0 
279 0.00210466 0.884534 0.0809218 0.0177577 0.00627942 0.00440014 0.00189864 0 0.00210352 0 
280 0.00530999 0.907965 0.068195 0.00688923 0.00542166 0.00235856 0.00127318 1.63591e-06 0.00258616 0 
281 9.73845e-07 0.851436 0.114515 0.0193199 0.014729 0 0 0 0 0 
282 0.00750753 0.906057 0.0471303 0.0299241 0.00200193 0.00737869 0 0 0 0 
283 0.00167359 0.908184 0.0643474 0.0141206 0.00499327 0.0034989 0.00150976 0 0.00167268 0 
284 0.0517457 0.945907 0.00168197 0.000664888 0 0 0 0 0 0 
285 0.00793653 0.900689 0.0498234 0.0316341 0.00211633 0.00780033 0 0 0 0 
286 0.00361954 0.822458 0.136438 0.0276564 0.00982841 0 0 0 0 0 
287 0.0130256 0.915422 0.0511109 0.0167268 0.001234 0.00124013 0 0.00124012 0 0 
288 0.0633285 0.933802 0.00205565 0.000813744 0 0 0 0 0 0 
289 0.0910055 0.899449 0.00677149 0.00199518 0.000519211 0 0.000260081 0 0 0 
290 0.0192905 0.924346 0.0397634 0.00869978 0.00633517 0.000773032 0 0.000792269 0 0 
291 0.0130256 0.915422 0.0511109 0.0167268 0.001234 0.00124013 0 0.00124012 0 0 
292 0.0111403 0.927664 0.0437133 0.0143058 0.00105539 0.00106063 0 0.00106063 0 0 
293 0.0190026 0.91056 0.054085 0.00856993 0.00624062 0.000761494 0 0.000780445 0 0 
294 0.105003 0.886358 0.00611112 0.00181783 0.000473059 0 0.000236963 0 0 0 
295 0.00522954 0.909359 0.0671618 0.00678485 0.00533951 0.00232282 0.00125389 1.61113e-06 0.00254698 0 
296 0.0126368 0.917947 0.0495853 0.0162275 0.00119716 0.00120311 0 0.0012031 0 0 
297 0.0397545 0.94456 0.0105731 0.00261508 0.00166333 0.000833897 0 0 0 0 
298 0.0187606 0.911828 0.038594 0.0231497 0.00614895 0.000750295 0 0.000768967 0 0 
299 0.00854703 0.89305 0.053656 0.0340675 0.00227912 0.00840035 0 0 0 0 
300 0.00816996 0.897768 0.0512888 0.0325645 0.00217857 0.00802975 0 0 0 0 
301 0.0111403 0.927664 0.0437133 0.0143058 0.00105539 0.00106063 0 0.00106063 0 0 
302 0.00530999 0.907965 0.068195 0.00688923 0.00542166 0.00235856 0.00127318 1.63591e-06 0.00258616 0 
303 0.038026 0.933077 0.0240065 0.00250138 0.00159101 0.00079764 0 0 0 0 
304 0.0181882 0.928669 0.0374912 0.00820265 0.00597316 0.000728858 0 0.000746997 0 0 
305 0.00653638 0.918207 0.0410385 0.0260516 0.00174286 0.0064238 0 0 0 0 
306 0.00213704 0.882757 0.0821667 0.0180309 0.00637603 0.00446783 0.00192785 0 0.00213588 0 
307 0.115757 0.873592 0.00753426 0.00224116 0.000583223 0 0.000292146 0 0 0 
308 0.11462 0.873419 0.00846155 0.002517 0.000655005 0 0.000328103 0 0 0 
309 0.00816996 0.897768 0.0512888 0.0325645 0.00217857 0.00802975 0 0 0 0 
310 0.0195873 0.923182 0.0403752 0.00883362 0.00643264 0.000784924 0 0.000804458 0 0 
311 0.00213704 0.882757 0.0821667 0.0180309 0.00637603 0.00446783 0.00192785 0 0.00213588 0 
312 0.034984 0.951213 0.0093043 0.00230127 0.00146373 0.000733829 0 0 0 0 
313 0.00515149 0.895787 0.0810847 0.00668358 0.00525982 0.00228815 0.00123517 1.58708e-06 0.00250896 0 
314 0.003726 0.831941 0.125745 0.0284698 0.0101175 0 0 0 0 0 
315 0.0082919 0.896243 0.0520543 0.0330505 0.00221109 0.0081496 0 0 0 0 
316 8.91548e-07 0.853438 0.11539 0.0176872 0.0134843 0 0 0 0 0 
317 0.0385852 0.946191 0.0102621 0.00253817 0.00161441 0.00080937 0 0 0 0 
318 0.0546592 0.935051 0.00701426 0.00167568 0.00106582 0.000534342 0 0 0 0 
319 0.00507573 0.912025 0.0651864 0.00658529 0.00518247 0.0022545 0.00121701 1.56374e-06 0.00247207 0 
320 0.012451 0.919154 0.0488561 0.0159889 0.00117956 0.00118542 0 0.00118541 0 0 
321 0 0.788355 0.14779 0.0496878 0.00708362 0 0 0 0.00708362 0 
322 0 0.691188 0.15619 0.116123 0.0364978 0 0 0 0 0 
323 0.0263287 0.90723 0.0474602 0.0155321 0.00114586 0.00115155 0 0.00115154 0 0 
324 9.73845e-07 0.851436 0.114515 0.0193199 0.014729 0 0 0 0 0 
325 0.0184518 0.927635 0.0380346 0.00832153 0.00605973 0.000739422 0 0.000757823 0 0 
326 0.016429 0.934658 0.0348662 0.00736135 0.00536053 0.000654104 0 0.000670382 0 0 
327 0.0190026 0.925475 0.03917 0.00856993 0.00624062 0.000761494 0 0.000780444 0 0 
328 0.0379733 0.900015 0.0442966 0.0144966 0.00106947 0.00107478 0 0.00107477 0 0 
329 0.015919 0.937564 0.0328215 0.00717732 0.00522652 0.000637751 0 0.000653622 0 0 
330 0.0403661 0.943707 0.0107357 0.00265531 0.00168892 0.000846726 0 0 0 0 
331 0.0198546 0.930136 0.0357227 0.0116908 0.000862472 0.000866755 0 0.000866748 0 0 
332 0.0190026 0.925475 0.03917 0.00856993 0.00624062 0.000761494 0 0.000780444 0 0 
333 9.59089e-07 0.853687 0.11278 0.0190271 0.0145058 0 0 0 0 0 
334 0.00213704 0.882757 0.0821667 0.0180309 0.00637603 0.00446783 0.00192785 0 0.00213588 0 
335 0.0187231 0.926571 0.0385939 0.0084439 0.00614885 0.000750295 0 0.000768967 0 0 
336 0.00854703 0.89305 0.053656 0.0340675 0.00227912 0.00840035 0 0 0 0 
337 0 0.695867 0.153824 0.114363 0.0359448 0 0 0 0 0 
338 0.0184518 0.927635 0.0380346 0.00832153 0.00605973 0.000739422 0 0.000757823 0 0 
339 0.0558283 0.941642 0.00181222 0.000717379 0 0 0 0 0 0 
340 0.0192905 0.924346 0.0397634 0.00869978 0.00633517 0.000773032 0 0.000792269 0 0 
341 0.0354567 0.950554 0.00943003 0.00233237 0.00148351 0.000743746 0 0 0 0 
342 0.0642929 0.932794 0.0020868 0.000826073 0 0 0 0 0 0 
343 0.00782475 0.902088 0.0491217 0.0311885 0.00208652 0.00769047 0 0 0 0 
344 0.00500217 0.9133 0.0642417 0.00648985 0.00510736 0.00222183 0.00119937 1.54108e-06 0.00243624 0 
345 0.0119249 0.92257 0.0467917 0.0153133 0.00112972 0.00113533 0 0.00113532 0 0 
346 0.0184518 0.927635 0.0380346 0.00832153 0.00605973 0.000739422 0 0.000757823 0 0 
347 0.106432 0.88246 0.00785715 0.00233721 0.000608219 0 0.000304667 0 0 0 
348 0.0430681 0.907984 0.0345314 0.00755507 0.0055016 0.000671317 0 0.000688023 0 0 
349 0.110744 0.88793 0.000950238 0.000376006 0 0 0 0 0 0 
350 0.0130256 0.915422 0.0511109 0.0167268 0.001234 0.00124013 0 0.00124012 0 0 
351 0.00389797 0.824185 0.131548 0.0297838 0.0105844 0 0 0 0 0 
352 0.0397545 0.94456 0.0105731 0.00261508 0.00166333 0.000833897 0 0 0 0 
353 0.0128283 0.916704 0.0503365 0.0164734 0.0012153 0.00122134 0 0.00122133 0 0 
354 0.00854703 0.89305 0.053656 0.0340675 0.00227912 0.00840035 0 0 0 0 
355 0.00854703 0.89305 0.053656 0.0340675 0.00227912 0.00840035 0 0 0 0 
356 0 0.791561 0.145551 0.048935 0.00697629 0 0 0 0.0069763 0 
357 0.00213704 0.882757 0.0821667 0.0180309 0.00637603 0.00446783 0.00192785 0 0.00213588 0 
358 0.00213704 0.882757 0.0821667 0.0180309 0.00637603 0.00446783 0.00192785 0 0.00213588 0 
359 0.0919786 0.898423 0.00679013 0.00201981 0.000525621 0 0.000263292 0 0 0 
360 0.00207325 0.886257 0.079714 0.0174927 0.0061857 0.00433446 0.0018703 0 0.00207213 0 
361 0.00530999 0.907965 0.068195 0.00688923 0.00542166 0.00235856 0.00127318 1.63591e-06 0.00258616 0 
362 0.00522954 0.909359 0.0671618 0.00678485 0.00533951 0.00232282 0.00125389 1.61113e-06 0.00254698 0 
363 0 0.782987 0.155975 0.0474957 0.00677111 0 0 0 0.00677111 0 
364 0.00522954 0.879072 0.0974486 0.00678484 0.00533951 0.00232282 0.00125389 1.61113e-06 0.00254698 0 
365 9.73845e-07 0.851436 0.114515 0.0193199 0.014729 0 0 0 0 0 
366 0.0267633 0.905833 0.048148 0.0157572 0.00116246 0.00116824 0 0.00116823 0 0 
367 0 0.800624 0.139223 0.0468074 0.00667297 0 0 0 0.00667298 0 
368 0.0130256 0.915422 0.0511109 0.0167268 0.001234 0.00124013 0 0.00124012 0 0 
369 0.00389797 0.8088 0.146933 0.0297838 0.0105844 0 0 0 0 0 
370 0.0190026 0.925475 0.03917 0.00856993 0.00624062 0.000761494 0 0.000780444 0 0 
371 0.00454148 0.921285 0.0583247 0.0058921 0.00463695 0.00201719 0.0010889 1.39914e-06 0.00221185 0 
372 0.00213704 0.882757 0.0821667 0.0180309 0.00637603 0.00446783 0.00192785 0 0.00213588 0 
373 0.0335243 0.89584 0.0540276 0.0135905 0.00100262 0.0010076 0 0.00100759 0 0 
374 0.126123 0.862272 0.00820896 0.00244186 0.000635452 0 0.000318309 0 0 0 
375 0.0195873 0.923182 0.0403752 0.00883362 0.00643264 0.000784924 0 0.000804458 0 0 
376 0.00213704 0.882757 0.0821667 0.0180309 0.00637603 0.00446783 0.00192785 0 0.00213588 0 
377 9.73845e-07 0.851436 0.114515 0.0193199 0.014729 0 0 0 0 0 
378 0.057242 0.931974 0.00726898 0.00179787 0.00114354 0.000573304 0 0 0 0 
379 0.0119249 0.92257 0.0467917 0.0153133 0.00112972 0.00113533 0 0.00113532 0 0 
380 0.0506264 0.934781 0.00984077 0.00243092 0.00154619 0.000775172 0 0 0 0 
381 0.00515149 0.910712 0.0661594 0.00668358 0.00525982 0.00228815 0.00123517 1.58708e-06 0.00250896 0 
382 0.017932 0.929673 0.0369632 0.00808712 0.00588904 0.000718593 0 0.000736476 0 0 
383 0.0195873 0.923182 0.0403752 0.00883362 0.00643264 0.000784924 0 0.000804458 0 0 
384 0.0119249 0.92257 0.0467917 0.0153133 0.00112972 0.00113533 0 0.00113532 0 0 
385 0.0169128 0.937719 0.0320066 0.00700226 0.00509904 0.000622196 0 0.00063768 0 0 
386 0.0082919 0.892264 0.0560334 0.0330505 0.00221109 0.0081496 0 0 0 0 
387 0.0190026 0.925475 0.03917 0.00856993 0.00624062 0.000761494 0 0.000780444 0 0 
388 0.0195873 0.923182 0.0403752 0.00883362 0.00643264 0.000784924 0 0.000804458 0 0 
389 0.0172562 0.869382 0.0809218 0.0177577 0.00627942 0.00440014 0.00189864 0 0.00210352 0 
390 0.0195873 0.923182 0.0403752 0.00883362 0.00643264 0.000784924 0 0.000804458 0 0 
391 0.0152506 0.922042 0.0341925 0.0217097 0.00145238 0.00535317 0 0 0 0 
392 0.00454144 0.921286 0.0583247 0.0058921 0.00463695 0.00201719 0.0010889 1.39914e-06 0.00221185 0 
393 0.106432 0.88246 0.00785715 0.00233721 0.000608219 0 0.000304667 0 0 0 
394 0.0184518 0.927635 0.0380346 0.00832153 0.00605973 0.000739422 0 0.000757823 0 0 
395 0 0.788355 0.14779 0.0496878 0.00708362 0 0 0 0.00708362 0 
396 0 0.530521 0.317933 0.0909389 0 0.0606061 0 0 0 0 
397 0.00841754 0.89467 0.052843 0.0335513 0.00224459 0.00827308 0 0 0 0 
398 0.00213704 0.882757 0.0821667 0.0180309 0.00637603 0.00446783 0.00192785 0 0.00213588 0 
399 0.00530999 0.907965 0.068195 0.00688923 0.00542166 0.00235856 0.00127318 1.63591e-06 0.00258616 0 
400 0.104933 0.884116 0.00774649 0.00230429 0.000599652 0 0.000300376 0 0 0 
401 0.00389797 0.824185 0.131548 0.0297838 0.0105844 0 0 0 0 0 
402 0.00854703 0.89305 0.053656 0.0340675 0.00227912 0.00840035 0 0 0 0 
403 0.0385853 0.935405 0.0210474 0.00253817 0.00161441 0.00080937 0 0 0 0 
404 0.0354567 0.950554 0.00943003 0.00233237 0.00148351 0.000743746 0 0 0 0 
405 0.0195873 0.907797 0.0557598 0.00883362 0.00643264 0.000784924 0 0.000804458 0 0 
406 0.0126368 0.917947 0.0495853 0.0162275 0.00119716 0.00120311 0 0.0012031 0 0 
407 0.00854703 0.89305 0.053656 0.0340675 0.00227912 0.00840035 0 0 0 0 
408 9.73845e-07 0.836051 0.129899 0.0193199 0.014729 0 0 0 0 0 
409 0.00854703 0.89305 0.053656 0.0340675 0.00227912 0.00840035 0 0 0 0 
410 0.0652762 0.931766 0.0021189 0.000838782 0 0 0 0 0 0 
411 0.0192905 0.894043 0.0700665 0.00869978 0.00633517 0.000773032 0 0.000792269 0 0 
412 0.0130256 0.915422 0.0511109 0.0167268 0.001234 0.00124013 0 0.00124012 0 0 
413 0.00204276 0.88793 0.0785417 0.0172354 0.00609473 0.00427072 0.0018428 0 0.00204165 0 
414 0.0187231 0.926571 0.0385939 0.0084439 0.00614885 0.000750295 0 0.000768967 0 0 
415 0.103476 0.885725 0.0076389 0.00227229 0.000591324 0 0.000296204 0 0 0 
416 0.0397545 0.94456 0.0105731 0.00261508 0.00166333 0.000833897 0 0 0 0 
417 0.00213704 0.882757 0.0821667 0.0180309 0.00637603 0.00446783 0.00192785 0 0.00213588 0 
418 0.0195873 0.907797 0.0403752 0.0242182 0.00643264 0.000784924 0 0.000804458 0 0 
419 0.017683 0.93065 0.0364498 0.0079748 0.00580724 0.000708612 0 0.000726247 0 0 
420 0.00522954 0.909359 0.0671618 0.00678485 0.00533951 0.00232282 0.00125389 1.61113e-06 0.00254698 0 
421 0.111198 0.877198 0.00820896 0.00244186 0.000635452 0 0.000318309 0 0 0 
422 0.0374828 0.947728 0.0099689 0.00246565 0.00156828 0.000786246 0 0 0 0 
423 0.0167523 0.9343 0.0345314 0.00755507 0.0055016 0.000671317 0 0.000688023 0 0 
424 0.0190026 0.925475 0.03917 0.00856993 0.00624062 0.000761494 0 0.000780444 0 0 
425 0 0.691095 0.156283 0.116123 0.0364978 0 0 0 0 0 
426 0.012451 0.889748 0.078262 0.0159889 0.00117956 0.00118542 0 0.00118541 0 0 
427 0.0130256 0.915422 0.0511109 0.0167268 0.001234 0.00124013 0 0.00124012 0 0 
428 0.030309 0.920091 0.0349918 0.0076558 0.00557495 0.000680268 0 0.000697197 0 0 
429 0.111198 0.877198 0.00820896 0.00244186 0.000635452 0 0.000318309 0 0 0 
430 0.00207325 0.885594 0.0803776 0.0174927 0.0061857 0.00433446 0.0018703 0 0.00207213 0 
431 0.0195873 0.923182 0.0403752 0.00883362 0.00643264 0.000784924 0 0.000804458 0 0 
432 0.0195873 0.923182 0.0403752 0.00883362 0.00643264 0.000784924 0 0.000804458 0 0 
433 0.0195873 0.907797 0.0403752 0.00883363 0.0218172 0.000784924 0 0.000804458 0 0 
434 0.00530999 0.89258 0.0835797 0.00688923 0.00542166 0.00235856 0.00127318 1.63591e-06 0.00258616 0 
435 0.14122 0.848273 0.00743244 0.00221088 0.000575342 0 0.000288198 0 0 0 
436 0.0683475 0.929156 0.00178868 0.000708063 0 0 0 0 0 0 
437 0.0699325 0.924033 0.00427113 0.00126825 0.000330041 0 0.000165323 0 0 0 
438 0.0364416 0.94918 0.00969198 0.00239716 0.00152472 0.000764405 0 0 0 0 
439 0.121688 0.869132 0.00650351 0.00192476 0.000500886 0 0.000250902 0 0 0 
440 0.00389797 0.8088 0.131564 0.0451529 0.0105844 0 0 0 0 0 
441 9.59089e-07 0.853687 0.11278 0.0190271 0.0145058 0 0 0 0 0 
442 0 0.794672 0.143379 0.0482046 0.00687217 0 0 0 0.00687217 0 
443 0.0403661 0.935405 0.0190377 0.00265531 0.00168892 0.000846726 0 0 0 0 
444 0.0195873 0.923182 0.0403752 0.00883362 0.00643264 0.000784924 0 0.000804458 0 0 
445 0.0374828 0.94771 0.00998668 0.00246565 0.00156828 0.000786246 0 0 0 0 
446 0.099097 0.890673 0.00723686 0.00215269 0.000560201 0 0.000280614 0 0 0 
447 0.112883 0.875337 0.00833334 0.00247886 0.000645081 0 0.000323131 0 0 0 
448 0.0082919 0.896243 0.0520543 0.0330505 0.00221109 0.0081496 0 0 0 0 
449 0.018463 0.920238 0.0340836 0.00751451 0.0183596 0.000662599 0 0.000679088 0 0 
450 0.0385852 0.946191 0.0102621 0.00253817 0.00161441 0.00080937 0 0 0 0 
451 0.0126469 0.91792 0.0496028 0.0162275 0.00119716 0.00120311 0 0.0012031 0 0 
452 0.0403661 0.943707 0.0107357 0.00265531 0.00168892 0.000846726 0 0 0 0 
453 0.00530999 0.907965 0.068195 0.00688923 0.00542166 0.00235856 0.00127318 1.63591e-06 0.00258616 0 
454 0.00500217 0.9133 0.0642417 0.00648985 0.00510736 0.00222183 0.00119937 1.54108e-06 0.00243624 0 
455 0.00854703 0.877665 0.0536561 0.049452 0.00227912 0.00840035 0 0 0 0 
456 0.251556 0.739296 0.00647064 0.00192476 0.000500886 0 0.000250902 0 0 0 
457 0.0192905 0.909194 0.0549149 0.00869978 0.00633517 0.000773032 0 0.000792269 0 0 
458 0 0.691188 0.15619 0.116123 0.0364978 0 0 0 0 0 
459 0.0117592 0.923645 0.0461418 0.0151006 0.00111403 0.00111956 0 0.00111955 0 0 
460 0.0362798 0.949527 0.0095714 0.00236432 0.00150383 0.000753934 0 0 0 0 
461 0.00383891 0.826849 0.129555 0.0293325 0.0104241 0 0 0 0 0 
462 0.00530999 0.907965 0.068195 0.00688923 0.00542166 0.00235856 0.00127318 1.63591e-06 0.00258616 0 
463 0.687943 0.309033 0.00214897 0.000629249 0.000163751 0 8.20257e-05 0 0 0 
464 0.0364416 0.94918 0.009692 0.00239716 0.00152472 0.000764405 0 0 0 0 
465 0.00213704 0.882757 0.0821667 0.0180309 0.00637603 0.00446783 0.00192785 0 0.00213588 0 
466 0.00210466 0.869382 0.0809218 0.0329092 0.00627942 0.00440014 0.00189864 0 0.00210352 0 
467 0.114193 0.875282 0.00745114 0.00221088 0.000575342 0 0.000288198 0 0 0 
468 0 0.695867 0.153824 0.114363 0.0359448 0 0 0 0 0 
469 0.017205 0.932525 0.0354647 0.00775926 0.00565029 0.000689461 0 0.000706619 0 0 
470 0.111198 0.877198 0.00820896 0.00244186 0.000635452 0 0.000318309 0 0 0 
471 0.00522954 0.909359 0.0671618 0.00678485 0.00533951 0.00232282 0.00125389 1.61113e-06 0.00254698 0 
472 0.112883 0.875337 0.00833334 0.00247886 0.000645081 0 0.000323131 0 0 0 
473 0.0130304 0.915415 0.0511138 0.0167268 0.001234 0.00124013 0 0.00124012 0 0 
474 0.00530999 0.907965 0.068195 0.00688923 0.00542166 0.00235856 0.00127318 1.63591e-06 0.00258616 0 
475 0.0130256 0.915422 0.0511109 0.0167268 0.001234 0.00124013 0 0.00124012 0 0 
476 0.0565736 0.940863 0.00183638 0.000726944 0 0 0 0 0 0 
477 0.0391611 0.930462 0.0219115 0.00600549 0.0016385 0.000821451 0 0 0 0 
478 0.017932 0.929673 0.0369632 0.00808712 0.00588904 0.000718593 0 0.000736476 0 0 
479 0.109563 0.879003 0.00808825 0.00240595 0.000626108 0 0.000313628 0 0 0 
480 0.107975 0.880757 0.00797102 0.00237108 0.000617034 0 0.000309082 0 0 0 
481 0.0391611 0.930462 0.0253406 0.00257605 0.0016385 0.000821451 0 0 0 0 
482 0.0345236 0.951855 0.00918187 0.00227099 0.00144447 0.000724174 0 0 0 0 
483 0.103476 0.885725 0.0076389 0.00227229 0.000591324 0 0.000296204 0 0 0 
484 0.0195873 0.923182 0.0403752 0.00883362 0.00643264 0.000784924 0 0.000804458 0 0 
485 0 0.691188 0.15619 0.116123 0.0364978 0 0 0 0 0 
486 0.0431404 0.944535 0.00830741 0.00205471 0.0013069 0.000655205 0 0 0 0 
487 0.00816996 0.897768 0.0512888 0.0325645 0.00217857 0.00802975 0 0 0 0 
488 0.00204276 0.885171 0.0813011 0.0172354 0.00609473 0.00427072 0.0018428 0 0.00204165 0 
489 0.0130256 0.900038 0.0664956 0.0167268 0.001234 0.00124013 0 0.00124012 0 0 
490 0.00213704 0.867373 0.0975513 0.0180309 0.00637603 0.00446783 0.00192785 0 0.00213588 0 
491 0.112883 0.875337 0.00833334 0.00247886 0.000645081 0 0.000323131 0 0 0 
492 0.0195873 0.923182 0.0403752 0.00883362 0.00643264 0.000784924 0 0.000804458 0 0 
493 0 0.665565 0.184127 0.114363 0.0359448 0 0 0 0 0 
494 0.00782475 0.902088 0.0491217 0.0311885 0.00208652 0.00769047 0 0 0 0 
495 0.102109 0.888524 0.00662651 0.00197114 0.000512956 0 0.000256948 0 0 0 
496 0.0130256 0.915422 0.0511109 0.0167268 0.001234 0.00124013 0 0.00124012 0 0 
497 0.0130256 0.915422 0.0511109 0.0167268 0.001234 0.00124013 0 0.00124012 0 0 
498 0 0.77297 0.163175 0.0496878 0.00708362 0 0 0 0.00708362 0 
499 0.0190026 0.910587 0.0540582 0.00856993 0.00624062 0.000761494 0 0.000780444 0 0 
500 0 0.77297 0.163175 0.0496878 0.00708362 0 0 0 0.00708362 0 
501 0.00383891 0.826849 0.129555 0.0293325 0.0104241 0 0 0 0 0 
502 0.00383891 0.826849 0.129555 0.0293325 0.0104241 0 0 0 0 0 
503 0.0082919 0.896243 0.0520543 0.0330505 0.00221109 0.0081496 0 0 0 0 
504 0.114619 0.873419 0.00846155 0.002517 0.000655005 0 0.000328103 0 0 0 
505 0.00530999 0.89258 0.0835797 0.00688923 0.00542166 0.00235856 0.00127318 1.63591e-06 0.00258616 0 
506 0.0391611 0.915537 0.0104153 0.0175014 0.0165638 0.00082145 0 0 0 0 
507 0.00841753 0.894671 0.052843 0.0335513 0.00224459 0.00827308 0 0 0 0 
508 0.0130256 0.900038 0.0664956 0.0167268 0.001234 0.00124013 0 0.00124012 0 0 
509 0.114619 0.873419 0.00846155 0.002517 0.000655005 0 0.000328103 0 0 0 
510 0.00389797 0.824185 0.131548 0.0297838 0.0105844 0 0 0 0 0 
511 0.0403661 0.943707 0.0107357 0.00265531 0.00168892 0.000846726 0 0 0 0 
512 0.0192905 0.909194 0.0402422 0.0233726 0.00633518 0.000773032 0 0.000792269 0 0 
513 0.0195873 0.923182 0.0403752 0.00883362 0.00643264 0.000784924 0 0.000804458 0 0 
514 0.00530999 0.907965 0.068195 0.00688923 0.00542166 0.00235856 0.00127318 1.63591e-06 0.00258616 0 
515 0.0505113 0.935295 0.0135442 0.000649057 0 0 0 0 0 0 
516 0.00530999 0.907965 0.068195 0.00688923 0.00542166 0.00235856 0.00127318 1.63591e-06 0.00258616 0 
517 0.00213704 0.882757 0.0821667 0.0180309 0.00637603 0.00446783 0.00192785 0 0.00213588 0 
518 0.00213704 0.882757 0.0821667 0.0180309 0.00637603 0.00446783 0.00192785 0 0.00213588 0 
519 0.0019844 0.891132 0.0762977 0.016743 0.0059206 0.0041487 0.00179014 0 0.00198332 0 
520 0.00213704 0.882757 0.0821667 0.0180309 0.00637603 0.00446783 0.00192785 0 0.00213588 0 
521 0.00530999 0.907965 0.068195 0.00688923 0.00542166 0.00235856 0.00127318 1.63591e-06 0.00258616 0 
522 0.0403661 0.943707 0.0107357 0.00265531 0.00168892 0.000846726 0 0 0 0 
523 9.73845e-07 0.851436 0.114515 0.0193199 0.014729 0 0 0 0 0 
524 0.00210466 0.884534 0.0809218 0.0177577 0.00627942 0.00440014 0.00189864 0 0.00210352 0 
525 0.034442 0.909194 0.0397634 0.00869978 0.00633517 0.000773032 0 0.000792269 0 0 
526 0.0332126 0.953683 0.0088332 0.00218475 0.00138962 0.000696673 0 0 0 0 
527 0.00530999 0.907965 0.068195 0.00688923 0.00542166 0.00235856 0.00127318 1.63591e-06 0.00258616 0 
528 0.00854703 0.877666 0.053656 0.0494521 0.00227912 0.00840036 0 0 0 0 
529 0.0128283 0.916704 0.0503365 0.0164734 0.0012153 0.00122134 0 0.00122133 0 0 
530 0 0.77641 0.145563 0.0640746 0.00697629 0 0 0 0.0069763 0 
531 0.004602 0.920236 0.0591024 0.00597066 0.00469877 0.00204408 0.00110342 1.41779e-06 0.00224134 0 
532 0.00210466 0.869382 0.0816973 0.0321337 0.00627942 0.00440014 0.00189864 0 0.00210352 0 
533 0.00522954 0.909359 0.0671618 0.00678485 0.00533951 0.00232282 0.00125389 1.61113e-06 0.00254698 0 
534 0.0192905 0.924346 0.0397634 0.00869978 0.00633517 0.000773032 0 0.000792269 0 0 
535 0.0130256 0.915422 0.0511109 0.0167268 0.001234 0.00124013 0 0.00124012 0 0 
536 0.00854703 0.89305 0.053656 0.0340675 0.00227912 0.00840035 0 0 0 0 
537 0.0403661 0.943707 0.0107357 0.00265531 0.00168892 0.000846726 0 0 0 0 
538 0.00507573 0.912025 0.0651864 0.00658529 0.00518247 0.0022545 0.00121701 1.56374e-06 0.00247207 0 
539 0.0190026 0.925475 0.03917 0.00856993 0.00624062 0.000761494 0 0.000780444 0 0 
540 0.00530999 0.907965 0.068195 0.00688923 0.00542166 0.00235856 0.00127318 1.63591e-06 0.00258616 0 
541 0.103476 0.885725 0.0076389 0.00227229 0.000591324 0 0.000296204 0 0 0 
542 0.00389797 0.824185 0.131548 0.0297838 0.0105844 0 0 0 0 0 
543 0.0354567 0.950554 0.00943003 0.00233237 0.00148351 0.000743746 0 0 0 0 
544 0.0122705 0.920325 0.048148 0.0157572 0.00116246 0.00116824 0 0.00116823 0 0 
545 0.0195873 0.923182 0.0403752 0.00883362 0.00643264 0.000784924 0 0.000804458 0 0 
546 0.00389905 0.824184 0.131548 0.0297838 0.0105844 0 0 0 0 0 
547 0.00854703 0.89305 0.053656 0.0340675 0.00227912 0.00840035 0 0 0 0 
548 9.59089e-07 0.853687 0.11278 0.0190271 0.0145058 0 0 0 0 0 
549 0.00854703 0.89305 0.053656 0.0340675 0.00227912 0.00840035 0 0 0 0 
550 0.0774884 0.911614 0.0073455 0.00181679 0.00115557 0.000579339 0 0 0 0 
551 0.0403661 0.943707 0.0107357 0.00265531 0.00168892 0.000846726 0 0 0 0 
552 0.00522954 0.909359 0.0671618 0.00678485 0.00533951 0.00232282 0.00125389 1.61113e-06 0.00254698 0 
553 0.00210466 0.884534 0.0809218 0.0177577 0.00627942 0.00440014 0.00189864 0 0.00210352 0 
554 0.00530999 0.907965 0.068195 0.00688923 0.00542166 0.00235856 0.00127318 1.63591e-06 0.00258616 0 
555 0.0403661 0.943707 0.0107357 0.00265531 0.00168892 0.000846726 0 0 0 0 
556 0.0192905 0.924346 0.0397634 0.00869978 0.00633517 0.000773032 0 0.000792269 0 0 
557 0.107975 0.880757 0.00797102 0.00237108 0.000617034 0 0.000309082 0 0 0 
558 0.111198 0.877198 0.00820896 0.00244186 0.000635452 0 0.000318309 0 0 0 
559 0.0190026 0.925475 0.03917 0.00856993 0.00624062 0.000761494 0 0.000780444 0 0 
560 0 0.788355 0.14779 0.0496878 0.00708362 0 0 0 0.00708362 0 
561 0.00389797 0.824185 0.131548 0.0297838 0.0105844 0 0 0 0 0 
562 0.0195873 0.923182 0.0403752 0.00883362 0.00643264 0.000784924 0 0.000804458 0 0 
563 0.0623963 0.934777 0.00202542 0.000801777 0 0 0 0 0 0 
564 0.0130256 0.915422 0.0511109 0.0167268 0.001234 0.00124013 0 0.00124012 0 0 
565 0.00210466 0.884534 0.0809218 0.0177577 0.00627942 0.00440014 0.00189864 0 0.00210352 0 
566 0.0633276 0.933803 0.00205565 0.000813744 0 0 0 0 0 0 
567 0 0.78613 0.153717 0.0468074 0.00667297 0 0 0 0.00667298 0 
568 0 0.791561 0.145551 0.048935 0.00697629 0 0 0 0.0069763 0 
569 0.00507573 0.912025 0.0651864 0.00658529 0.00518247 0.0022545 0.00121701 1.56374e-06 0.00247207 0 
570 0.00530999 0.907965 0.068195 0.00688923 0.00542166 0.00235856 0.00127318 1.63591e-06 0.00258616 0 
571 0.0403661 0.943707 0.0107357 0.00265531 0.00168892 0.000846726 0 0 0 0 
572 0.124434 0.865336 0.00723685 0.00215269 0.000560201 0 0.000280614 0 0 0 
573 0.0204679 0.895372 0.04589 0.0291367 0.00194925 0.00718451 0 0 0 0 
574 0.00816996 0.897768 0.0512888 0.0325645 0.00217857 0.00802975 0 0 0 0 
575 0.0122705 0.920326 0.048148 0.0157572 0.00116246 0.00116824 0 0.00116823 0 0 
576 0.00530999 0.907965 0.068195 0.00688923 0.00542166 0.00235856 0.00127318 1.63591e-06 0.00258616 0 
577 0.00507573 0.912025 0.0651864 0.00658529 0.00518247 0.0022545 0.00121701 1.56374e-06 0.00247207 0 
578 0.00530999 0.907965 0.068195 0.00688923 0.00542166 0.00235856 0.00127318 1.63591e-06 0.00258616 0 
579 0.0126368 0.917947 0.0495853 0.0162275 0.00119716 0.00120311 0 0.0012031 0 0 
580 0.0192905 0.924346 0.0397634 0.00869978 0.00633517 0.000773032 0 0.000792269 0 0 
581 0.00210466 0.884534 0.0809218 0.0177577 0.00627942 0.00440014 0.00189864 0 0.00210352 0 
582 0.00213704 0.882757 0.0821667 0.0180309 0.00637603 0.00446783 0.00192785 0 0.00213588 0 
583 9.59089e-07 0.853687 0.11278 0.0190271 0.0145058 0 0 0 0 0 
584 0.0122705 0.920325 0.048148 0.0157572 0.00116246 0.00116824 0 0.00116823 0 0 
585 0.00854703 0.89305 0.053656 0.0340675 0.00227912 0.00840035 0 0 0 0 
586 0.0082919 0.896243 0.0520543 0.0330505 0.00221109 0.0081496 0 0 0 0 
587 0.0128283 0.916704 0.0503365 0.0164734 0.0012153 0.00122134 0 0.00122133 0 0 
588 0.0403661 0.943707 0.0107357 0.00265531 0.00168892 0.000846726 0 0 0 0 
589 0.00522961 0.894207 0.0823133 0.00678485 0.00533951 0.00232282 0.00125389 1.61113e-06 0.00254698 0 
590 0.0126368 0.903022 0.0645106 0.0162275 0.00119716 0.00120311 0 0.0012031 0 0 
591 0.00530999 0.89258 0.068195 0.00688923 0.0208063 0.00235856 0.00127318 1.63591e-06 0.00258616 0 
592 0.064305 0.917631 0.00209724 0.0159671 0 0 0 0 0 0 
593 0.00854703 0.89305 0.053656 0.0340675 0.00227912 0.00840035 0 0 0 0 
594 0.00530999 0.907965 0.068195 0.00688923 0.00542166 0.00235856 0.00127318 1.63591e-06 0.00258616 0 
595 0.0542953 0.933667 0.00811453 0.00200692 0.00127651 0.000639967 0 0 0 0 
596 0.00530999 0.89258 0.068195 0.00689373 0.0208016 0.00235875 0.00127318 1.63591e-06 0.00258616 0 
597 0.106521 0.882338 0.00789036 0.00233721 0.000608219 0 0.000304667 0 0 0 
598 0.0184518 0.910954 0.0402233 0.00832535 0.0205487 0.000739422 0 0.000757823 0 0 
599 0.0192905 0.924346 0.0397634 0.00869978 0.00633517 0.000773032 0 0.000792269 0 0 
600 0 0.773097 0.162602 0.0501345 0.00708362 0 0 0 0.00708362 0 
601 0.00530999 0.907852 0.0683076 0.00688923 0.00542166 0.00235856 0.00127318 1.63591e-06 0.00258616 0 
602 0.00530999 0.89258 0.0835796 0.00688923 0.00542166 0.00235856 0.00127318 1.63591e-06 0.00258616 0 
603 0.0128283 0.916704 0.0503365 0.0164734 0.0012153 0.00122134 0 0.00122133 0 0 
604 0.00378161 0.814508 0.142547 0.0288947 0.0102685 0 0 0 0 0 
605 0.00389797 0.824185 0.131548 0.0297838 0.0105844 0 0 0 0 0 
606 0.003519 0.841278 0.118759 0.0268881 0.00955539 0 0 0 0 0 
607 0.114619 0.873419 0.00846155 0.002517 0.000655005 0 0.000328103 0 0 0 
608 0.00854703 0.89305 0.053656 0.0340675 0.00227912 0.00840035 0 0 0 0 
609 0.00854703 0.89305 0.053656 0.0340675 0.00227912 0.00840035 0 0 0 0 
610 0.0190026 0.925475 0.03917 0.00856993 0.00624062 0.000761494 0 0.000780444 0 0 
611 0.0130256 0.900038 0.0511109 0.0321114 0.001234 0.00124013 0 0.00124012 0 0 
612 0.0403661 0.943707 0.0107357 0.00265531 0.00168892 0.000846726 0 0 0 0 
613 0.00389797 0.824185 0.131548 0.0297838 0.0105844 0 0 0 0 0 
614 0.0195873 0.923182 0.0403752 0.00883362 0.00643264 0.000784924 0 0.000804458 0 0 
615 0.00530999 0.907965 0.068195 0.00688923 0.00542166 0.00235856 0.00127318 1.63591e-06 0.00258616 0 
616 0.00530999 0.89258 0.068195 0.00692689 0.0207686 0.00235856 0.00127318 1.63591e-06 0.00258616 0 
617 0.00213704 0.882757 0.0821667 0.0180309 0.00637603 0.00446783 0.00192785 0 0.00213588 0 
618 0.0195873 0.923182 0.0403752 0.00883362 0.00643264 0.000784924 0 0.000804458 0 0 
619 0.00530999 0.907965 0.068195 0.00688923 0.00542166 0.00235856 0.00127318 1.63591e-06 0.00258616 0 
620 0.0397545 0.929409 0.0105731 0.00266453 0.0167654 0.000833898 0 0 0 0 
621 0.00841753 0.894671 0.052843 0.0335513 0.00224459 0.00827308 0 0 0 0 
622 0.114619 0.873419 0.00846155 0.002517 0.000655005 0 0.000328103 0 0 0 
623 0.0403661 0.943707 0.0107357 0.00265531 0.00168892 0.000846726 0 0 0 0 
624 0.0187232 0.926571 0.0385939 0.0084439 0.00614885 0.000750295 0 0.000768967 0 0 
625 0.00507573 0.912025 0.0651864 0.00658529 0.00518247 0.0022545 0.00121701 1.56374e-06 0.00247207 0 
626 0.0391612 0.930462 0.0253406 0.00257605 0.0016385 0.000821451 0 0 0 0 
627 0.00213704 0.882757 0.0821667 0.0180309 0.00637603 0.00446783 0.00192785 0 0.00213588 0 
628 0.00522954 0.909359 0.0671618 0.00678485 0.00533951 0.00232282 0.00125389 1.61113e-06 0.00254698 0 
629 0.0403661 0.943707 0.0107357 0.00265531 0.00168892 0.000846726 0 0 0 0 
630 0.00213704 0.882757 0.0821667 0.0180309 0.00637603 0.00446783 0.00192785 0 0.00213588 0 
631 0.0128283 0.916704 0.0503365 0.0164734 0.0012153 0.00122134 0 0.00122133 0 0 
632 0.0181882 0.928669 0.0374912 0.00820265 0.00597316 0.000728858 0 0.000746997 0 0 
633 0.0190026 0.925475 0.03917 0.00856993 0.00624062 0.000761494 0 0.000780444 0 0 
634 0.123887 0.864679 0.00808907 0.00240595 0.000626108 0 0.000313628 0 0 0 
635 0.0397545 0.94456 0.0105731 0.00261508 0.00166333 0.000833897 0 0 0 0 
636 0.0195873 0.923182 0.0403752 0.00883362 0.00643264 0.000784924 0 0.000804458 0 0 
637 0.118151 0.872131 0.00687501 0.00204506 0.000532191 0 0.000266583 0 0 0 
638 0.0184518 0.915654 0.0500152 0.00832153 0.00605973 0.000739422 0 0.000757823 0 0 
639 0.0192905 0.924346 0.0397634 0.00869978 0.00633517 0.000773032 0 0.000792269 0 0 
640 0.00530999 0.907965 0.068195 0.00688923 0.00542166 0.00235856 0.00127318 1.63591e-06 0.00258616 0 
641 9.59089e-07 0.853687 0.11278 0.0190271 0.0145058 0 0 0 0 0 
642 0.114619 0.873419 0.00846155 0.002517 0.000655005 0 0.000328103 0 0 0 
643 0.00389797 0.824185 0.131548 0.0297838 0.0105844 0 0 0 0 0 
644 0.0403661 0.943707 0.0107357 0.00265531 0.00168892 0.000846726 0 0 0 0 
645 0.0192905 0.924346 0.0397634 0.00869978 0.00633517 0.000773032 0 0.000792269 0 0 
646 0.00213704 0.882757 0.0821667 0.0180309 0.00637603 0.00446783 0.00192785 0 0.00213588 0 
647 0.0130256 0.915422 0.0511109 0.0167268 0.001234 0.00124013 0 0.00124012 0 0 
648 0.114619 0.873419 0.00846155 0.002517 0.000655005 0 0.000328103 0 0 0 
649 0.0123463 0.918286 0.0501121 0.0157572 0.00116246 0.00116824 0 0.00116823 0 0 
650 0.0192905 0.924346 0.0397634 0.00869978 0.00633517 0.000773032 0 0.000792269 0 0 
651 9.73845e-07 0.836051 0.129899 0.0193199 0.014729 0 0 0 0 0 
652 9.73845e-07 0.851436 0.114515 0.0193199 0.014729 0 0 0 0 0 
653 0.017683 0.93065 0.0364498 0.0079748 0.00580724 0.000708612 0 0.000726247 0 0 
654 0.0403661 0.943707 0.0107357 0.00265531 0.00168892 0.000846726 0 0 0 0 
655 0.00204276 0.88793 0.0785417 0.0172354 0.00609473 0.00427072 0.0018428 0 0.00204165 0 
656 0.0403661 0.943707 0.0107357 0.00265531 0.00168892 0.000846726 0 0 0 0 
657 0.00507573 0.912025 0.0651864 0.00658529 0.00518247 0.0022545 0.00121701 1.56374e-06 0.00247207 0 
658 0.0403661 0.943707 0.0107357 0.00265531 0.00168892 0.000846726 0 0 0 0 
659 0.0195873 0.923182 0.0403752 0.00883362 0.00643264 0.000784924 0 0.000804458 0 0 
660 0.0195873 0.923182 0.0403752 0.00883362 0.00643264 0.000784924 0 0.000804458 0 0 
661 0.0397545 0.94456 0.0105731 0.00261508 0.00166333 0.000833897 0 0 0 0 
662 0.00213704 0.882757 0.0821667 0.0180309 0.00637603 0.00446783 0.00192785 0 0.00213588 0 
663 0.00389797 0.824185 0.131548 0.0297838 0.0105844 0 0 0 0 0 
664 0.00530999 0.907965 0.068195 0.00688923 0.00542166 0.00235856 0.00127318 1.63591e-06 0.00258616 0 
665 0 0.776397 0.159747 0.0496878 0.00708362 0 0 0 0.00708362 0 
666 0.00383891 0.823473 0.132931 0.0293325 0.0104241 0 0 0 0 0 
667 0.00213704 0.882757 0.0821667 0.0180309 0.00637603 0.00446783 0.00192785 0 0.00213588 0 
668 0.0403661 0.928323 0.0107357 0.00265531 0.00176493 0.0161553 0 0 0 0 
669 0.0184518 0.927635 0.0380346 0.00832153 0.00605973 0.000739422 0 0.000757823 0 0 
670 0.0548822 0.932016 0.00922328 0.00198385 0.00126183 0.000632611 0 0 0 0 
671 0.00500217 0.898807 0.0787345 0.00648985 0.00510736 0.00222183 0.00119937 1.54108e-06 0.00243624 0 
672 0.0397545 0.94456 0.0105731 0.00261508 0.00166333 0.000833897 0 0 0 0 
673 9.73845e-07 0.851436 0.114515 0.0193199 0.014729 0 0 0 0 0 
674 0.00530999 0.907965 0.068195 0.00688923 0.00542166 0.00235856 0.00127318 1.63591e-06 0.00258616 0 
675 0.0403661 0.943707 0.0107357 0.00265531 0.00168892 0.000846726 0 0 0 0 
676 9.73845e-07 0.851436 0.114515 0.0193199 0.014729 0 0 0 0 0 
677 0 0.788355 0.14779 0.0496878 0.00708362 0 0 0 0.00708362 0 
678 0.0130256 0.915422 0.0511109 0.0167268 0.001234 0.00124013 0 0.00124012 0 0 
679 0.0397545 0.94456 0.0105731 0.00261508 0.00166333 0.000833897 0 0 0 0 
680 9.59089e-07 0.853687 0.11278 0.0190271 0.0145058 0 0 0 0 0 
681 0 0.811536 0.131606 0.0442426 0.00630733 0 0 0 0.00630734 0 
682 0.00500217 0.9133 0.0642417 0.00648985 0.00510736 0.00222183 0.00119937 1.54108e-06 0.00243624 0 
683 0.00213704 0.867373 0.0821668 0.0334154 0.00637603 0.00446783 0.00192785 0 0.00213588 0 
684 0.00805155 0.89925 0.0505455 0.0320926 0.002147 0.00791338 0 0 0 0 
685 0.00210466 0.884534 0.0809218 0.0177577 0.00627942 0.00440014 0.00189864 0 0.00210352 0 
686 0 0.693067 0.156624 0.114363 0.0359448 0 0 0 0 0 
687 0.00530999 0.89258 0.068195 0.00688923 0.00839495 0.0147699 0.00127318 1.63591e-06 0.00258616 0 
688 0.10486 0.88031 0.0116705 0.00227229 0.000591324 0 0.000296204 0 0 0 
689 0.00479375 0.916912 0.061565 0.00621944 0.00489455 0.00212925 0.0011494 1.47687e-06 0.00233473 0 
690 0.00515149 0.910712 0.0661594 0.00668358 0.00525982 0.00228815 0.00123517 1.58708e-06 0.00250896 0 
691 0.00530999 0.89258 0.0681951 0.0222738 0.00542166 0.00235856 0.00127318 1.63591e-06 0.00258616 0 
692 0.0112889 0.926473 0.0445223 0.0144966 0.00106947 0.00107478 0 0.00107477 0 0 
693 0.012451 0.919154 0.0488561 0.0159889 0.00117956 0.00118542 0 0.00118541 0 0 
694 0.00389797 0.824185 0.131548 0.0297838 0.0105844 0 0 0 0 0 
695 0.00530999 0.907965 0.068195 0.00688923 0.00542166 0.00235856 0.00127318 1.63591e-06 0.00258616 0 
696 0.0195873 0.923182 0.0403752 0.00883362 0.00643264 0.000784924 0 0.000804458 0 0 
697 0.0195873 0.923182 0.0403752 0.00883362 0.00643264 0.000784924 0 0.000804458 0 0 
698 0.0403661 0.943707 0.0107357 0.00265531 0.00168892 0.000846726 0 0 0 0 
699 0.0195873 0.923182 0.0403752 0.00883362 0.00643264 0.000784924 0 0.000804458 0 0 
700 0.0128283 0.916704 0.0503365 0.0164734 0.0012153 0.00122134 0 0.00122133 0 0 
701 0.00213704 0.882757 0.0821667 0.0180309 0.00637603 0.00446783 0.00192785 0 0.00213588 0 
702 0.00213704 0.882757 0.0821667 0.0180309 0.00637603 0.00446783 0.00192785 0 0.00213588 0 
703 0.0198759 0.926981 0.0374912 0.00820265 0.00597316 0.000728858 0 0.000746997 0 0 
704 0.0397545 0.94456 0.0105731 0.00261508 0.00166333 0.000833897 0 0 0 0 
705 0.0361948 0.90828 0.0391726 0.00856993 0.00624062 0.000761494 0 0.000780445 0 0 
706 9.73845e-07 0.836052 0.129898 0.0193201 0.014729 0 0 0 0 0 
707 0.00854703 0.89305 0.053656 0.0340675 0.00227912 0.00840035 0 0 0 0 
708 0.0195873 0.923182 0.0403752 0.00883362 0.00643264 0.000784924 0 0.000804458 0 0 
709 0.0112889 0.926699 0.0442962 0.0144966 0.00106947 0.00107478 0 0.00107477 0 0 
710 0.0397545 0.944559 0.0105738 0.00261508 0.00166333 0.000833897 0 0 0 0 
711 0.0130256 0.915422 0.0511109 0.0167268 0.001234 0.00124013 0 0.00124012 0 0 
712 0.0403661 0.943707 0.0107357 0.00265531 0.00168892 0.000846726 0 0 0 0 
713 0.0195873 0.923182 0.0403752 0.00883362 0.00643264 0.000784924 0 0.000804458 0 0 
714 0.114619 0.873419 0.00846155 0.002517 0.000655005 0 0.000328103 0 0 0 
715 0.00515149 0.910712 0.0661594 0.00668358 0.00525982 0.00228815 0.00123517 1.58708e-06 0.00250896 0 
716 0.0403661 0.943707 0.0107357 0.00265531 0.00168892 0.000846726 0 0 0 0 
717 0.0130256 0.915422 0.0511109 0.0167268 0.001234 0.00124013 0 0.00124012 0 0 
718 0.0642871 0.9328 0.0020868 0.000826073 0 0 0 0 0 0 
719 0.0130256 0.900038 0.0664955 0.0167268 0.001234 0.00124013 0 0.00124012 0 0 
720 0.00854703 0.877665 0.0690406 0.0340675 0.00227912 0.00840035 0 0 0 0 
721 0.00854703 0.877665 0.053656 0.0340676 0.0176637 0.00840035 0 0 0 0 
722 0.00841753 0.894671 0.052843 0.0335513 0.00224459 0.00827308 0 0 0 0 
723 0.00530999 0.907965 0.068195 0.00688923 0.00542166 0.00235856 0.00127318 1.63591e-06 0.00258616 0 
724 0.00210466 0.884534 0.0809218 0.0177577 0.00627942 0.00440014 0.00189864 0 0.00210352 0 
725 9.59089e-07 0.853687 0.11278 0.0190271 0.0145058 0 0 0 0 0 
726 0.00378161 0.829433 0.127622 0.0288947 0.0102685 0 0 0 0 0 
727 0.112883 0.860185 0.0234848 0.00247886 0.000645081 0 0.000323131 0 0 0 
728 0.00854703 0.89305 0.053656 0.0340675 0.00227912 0.00840035 0 0 0 0 
729 0.114619 0.858034 0.00846156 0.0179016 0.000655005 0 0.000328103 0 0 0 
730 0.0128283 0.916704 0.0503365 0.0164734 0.0012153 0.00122134 0 0.00122133 0 0 
731 0.00210466 0.884534 0.0809218 0.0177577 0.00627942 0.00440014 0.00189864 0 0.00210352 0 
732 0.00389797 0.8088 0.146933 0.0297838 0.0105844 0 0 0 0 0 
733 0.0195873 0.923182 0.0403752 0.00883362 0.00643264 0.000784924 0 0.000804458 0 0 
734 0.0374918 0.947719 0.00996889 0.00246565 0.00156828 0.000786246 0 0 0 0 
735 0.00854703 0.89305 0.053656 0.0340675 0.00227912 0.00840035 0 0 0 0 
736 0.017683 0.93065 0.0364498 0.0079748 0.00580724 0.000708612 0 0.000726247 0 0 
737 0.00816996 0.897768 0.0512888 0.0325645 0.00217857 0.00802975 0 0 0 0 
738 0.0019844 0.891132 0.0762977 0.016743 0.0059206 0.0041487 0.00179014 0 0.00198332 0 
739 0.00213704 0.882757 0.0821667 0.0180309 0.00637603 0.00446783 0.00192785 0 0.00213588 0 
740 0 0.791561 0.145551 0.048935 0.00697629 0 0 0 0.0069763 0 
741 0.106633 0.882252 0.0078653 0.00233721 0.000608219 0 0.000304667 0 0 0 
742 0.00389797 0.824185 0.131548 0.0297838 0.0105844 0 0 0 0 0 
743 0.00854703 0.89305 0.053656 0.0340675 0.00227912 0.00840035 0 0 0 0 
744 0.106432 0.88246 0.00785715 0.00233721 0.000608219 0 0.000304667 0 0 0 
745 0.00213704 0.882757 0.0821667 0.0180309 0.00637603 0.00446783 0.00192785 0 0.00213588 0 
746 0.0192905 0.894134 0.0699754 0.00869978 0.00633518 0.000773032 0 0.000792269 0 0 
747 0.0130256 0.91533 0.0512034 0.0167268 0.001234 0.00124013 0 0.00124012 0 0 
748 0.0403661 0.943707 0.0107357 0.00265531 0.00168892 0.000846726 0 0 0 0 
749 0.0195873 0.923182 0.0403752 0.00883362 0.00643264 0.000784924 0 0.000804458 0 0 
750 0.00841753 0.883908 0.0636055 0.0335513 0.00224459 0.00827308 0 0 0 0 
751 0.0271568 0.904448 0.0488561 0.0159889 0.00117956 0.00118542 0 0.00118541 0 0 
752 0.00530999 0.907965 0.068195 0.00688923 0.00542166 0.00235856 0.00127318 1.63591e-06 0.00258616 0 
753 0.0130256 0.915422 0.0511109 0.0167268 0.001234 0.00124013 0 0.00124012 0 0 
754 0.0225443 0.884757 0.0505455 0.0320926 0.002147 0.00791338 0 0 0 0 
755 0.00761037 0.904771 0.0477759 0.0303341 0.00202935 0.00747977 0 0 0 0 
756 0.012451 0.904448 0.0635619 0.0159889 0.00117956 0.00118542 0 0.00118541 0 0 
757 0.103476 0.885725 0.0076389 0.00227229 0.000591324 0 0.000296204 0 0 0 
758 0.0195873 0.923182 0.0403752 0.00883362 0.00643264 0.000784924 0 0.000804458 0 0 
759 0.00213704 0.882757 0.0821667 0.0180309 0.00637603 0.00446783 0.00192785 0 0.00213588 0 
760 0.0179338 0.929672 0.0369632 0.00808712 0.00588904 0.000718593 0 0.000736476 0 0 
761 0.00530999 0.907965 0.068195 0.00688923 0.00542166 0.00235856 0.00127318 1.63591e-06 0.00258616 0 
762 0.0403661 0.928323 0.0107357 0.0180399 0.00168892 0.000846726 0 0 0 0 
763 0.102058 0.887291 0.00753426 0.00224116 0.000583223 0 0.000292146 0 0 0 
764 0.00213704 0.882757 0.0821667 0.0180309 0.00637603 0.00446783 0.00192785 0 0.00213588 0 
765 0.00515149 0.910712 0.0661594 0.00668358 0.00525982 0.00228815 0.00123517 1.58708e-06 0.00250896 0 
766 0.0192905 0.924346 0.0397634 0.00869978 0.00633517 0.000773032 0 0.000792269 0 0 
767 0.0195873 0.923182 0.0403752 0.00883362 0.00643264 0.000784924 0 0.000804458 0 0 
768 0.0128283 0.916704 0.0503365 0.0164734 0.0012153 0.00122134 0 0.00122133 0 0 
769 0.0354567 0.950554 0.00943003 0.00233237 0.00148351 0.000743746 0 0 0 0 
770 0.012451 0.919154 0.0488561 0.0159889 0.00117956 0.00118542 0 0.00118541 0 0 
771 0.0019844 0.877965 0.0894641 0.016743 0.0059206 0.0041487 0.00179014 0 0.00198332 0 
772 0.0130256 0.915422 0.0511109 0.0167268 0.001234 0.00124013 0 0.00124012 0 0 
773 9.73845e-07 0.851436 0.114515 0.0193199 0.014729 0 0 0 0 0 
774 0.00378161 0.829433 0.127622 0.0288947 0.0102685 0 0 0 0 0 
775 0.00515149 0.910712 0.0661594 0.00668358 0.00525982 0.00228815 0.00123517 1.58708e-06 0.00250896 0 
776 0.00342389 0.845568 0.115549 0.0261614 0.00929714 0 0 0 0 0 
777 0.0786548 0.860736 0.0582624 0.00168756 0.000438921 0 0.000219863 0 0 0 
778 0.104936 0.884095 0.00776403 0.00230429 0.000599652 0 0.000300376 0 0 0 
779 0.0397545 0.94456 0.0105731 0.00261508 0.00166333 0.000833897 0 0 0 0 
780 0.0122705 0.920325 0.048148 0.0157572 0.00116246 0.00116824 0 0.00116823 0 0 
781 0.0391611 0.945388 0.0104153 0.00257605 0.0016385 0.000821451 0 0 0 0 
782 0.0195873 0.907797 0.0557598 0.00883362 0.00643264 0.000784924 0 0.000804458 0 0 
783 0.00816996 0.883063 0.051289 0.0472702 0.00217857 0.00802975 0 0 0 0 
784 0.0192905 0.909194 0.0397634 0.0238513 0.00633518 0.000773032 0 0.000792269 0 0 
785 0.00210466 0.884534 0.0809218 0.0177577 0.00627942 0.00440014 0.00189864 0 0.00210352 0 
786 0.00389797 0.8088 0.146933 0.0297838 0.0105844 0 0 0 0 0 
787 0.00530999 0.907965 0.068195 0.00688923 0.00542166 0.00235856 0.00127318 1.63591e-06 0.00258616 0 
788 0.0517685 0.933442 0.00996889 0.00246565 0.00156828 0.000786246 0 0 0 0 
789 0.0195873 0.923182 0.0403752 0.00883362 0.00643264 0.000784924 0 0.000804458 0 0 
790 0.138974 0.849592 0.00808825 0.00240595 0.000626108 0 0.000313628 0 0 0 
791 0.00522954 0.909359 0.0671618 0.00678485 0.00533951 0.00232282 0.00125389 1.61113e-06 0.00254698 0 
792 0.0403661 0.943707 0.0107357 0.00265531 0.00168892 0.000846726 0 0 0 0 
793 0.0192905 0.924346 0.0397634 0.00869978 0.00633517 0.000773032 0 0.000792269 0 0 
794 0.134584 0.854148 0.00797102 0.00237108 0.000617034 0 0.000309082 0 0 0 
795 0.00530999 0.89258 0.068195 0.00688923 0.00542166 0.00235856 0.00127318 2.0382e-05 0.017952 0 
796 0.00854703 0.89305 0.0536561 0.0340675 0.00227912 0.00840035 0 0 0 0 
797 0.0195873 0.923182 0.0403752 0.00883362 0.00643264 0.000784924 0 0.000804458 0 0 
798 0.0126368 0.917947 0.0495853 0.0162275 0.00119716 0.00120311 0 0.0012031 0 0 
799 0.111198 0.862272 0.0231342 0.00244186 0.000635452 0 0.000318309 0 0 0 
800 0.0195873 0.923182 0.0403752 0.00883362 0.00643264 0.000784924 0 0.000804458 0 0 
801 0.0130256 0.915422 0.0511109 0.0167268 0.001234 0.00124013 0 0.00124012 0 0 
802 0.0195873 0.923182 0.0403752 0.00883362 0.00643264 0.000784924 0 0.000804458 0 0 
803 0.0130256 0.915422 0.0511109 0.0167268 0.001234 0.00124013 0 0.00124012 0 0 
804 0.0195873 0.923182 0.0403754 0.00883362 0.00643264 0.000784924 0 0.000804458 0 0 
805 0.00500217 0.9133 0.0642417 0.00648985 0.00510736 0.00222183 0.00119937 1.54108e-06 0.00243624 0 
806 0.0391611 0.945388 0.0104153 0.00257605 0.0016385 0.000821451 0 0 0 0 
807 0.00854703 0.89305 0.053656 0.0340675 0.00227912 0.00840035 0 0 0 0 
808 0.00530999 0.892819 0.0833403 0.00688923 0.00542166 0.00235856 0.00127318 1.63591e-06 0.00258616 0 
809 9.73845e-07 0.836051 0.12966 0.0195592 0.014729 0 0 0 0 0 
810 0.00389797 0.8088 0.146931 0.0297852 0.0105844 0 0 0 0 0 
811 0.143758 0.845735 0.00743246 0.00221088 0.000575342 0 0.000288198 0 0 0 
812 0 0.691188 0.15619 0.116123 0.0364978 0 0 0 0 0 
813 0.0597599 0.937532 0.00193984 0.000767899 0 0 0 0 0 0 
814 0.00854703 0.89305 0.053656 0.0340675 0.00227912 0.00840035 0 0 0 0 
815 8.91548e-07 0.86399 0.104837 0.0176872 0.0134843 0 0 0 0 0 
816 0.0403661 0.943707 0.0107357 0.00265531 0.00168892 0.000846726 0 0 0 0 
817 0.003726 0.831941 0.125745 0.0284698 0.0101175 0 0 0 0 0 
818 0.0159147 0.937585 0.0328049 0.00717732 0.00522652 0.000637751 0 0.000653622 0 0 
819 0.00522954 0.909359 0.0671618 0.00678485 0.00533951 0.00232282 0.00125389 1.61113e-06 0.00254698 0 
820 0.00515149 0.910712 0.0661594 0.00668358 0.00525982 0.00228815 0.00123517 1.58708e-06 0.00250896 0 
821 0.0192905 0.924346 0.0397634 0.00869978 0.00633517 0.000773032 0 0.000792269 0 0 
822 0.017932 0.929604 0.0370327 0.00808712 0.00588904 0.000718593 0 0.000736476 0 0 
823 0.0195873 0.923182 0.0403752 0.00883362 0.00643264 0.000784924 0 0.000804458 0 0 
824 0.00530999 0.907965 0.068195 0.00688923 0.00542166 0.00235856 0.00127318 1.63591e-06 0.00258616 0 
825 0.00854703 0.89305 0.053656 0.0340675 0.00227912 0.00840035 0 0 0 0 
826 0.00530999 0.907965 0.068195 0.00688923 0.00542166 0.00235856 0.00127318 1.63591e-06 0.00258616 0 
827 0.00854703 0.89305 0.053656 0.0340675 0.00227912 0.00840035 0 0 0 0 
828 0.114619 0.873419 0.00846155 0.002517 0.000655005 0 0.000328103 0 0 0 
829 0.0195873 0.907797 0.0557597 0.00883362 0.00643264 0.000784924 0 0.000804458 0 0 
830 0.00213704 0.882757 0.0821667 0.0180309 0.00637603 0.00446783 0.00192785 0 0.00213588 0 
831 0.0403661 0.943707 0.0107357 0.00265531 0.00168892 0.000846726 0 0 0 0 
832 0.033914 0.880713 0.03917 0.00860455 0.0360567 0.000761494 0 0.000780445 0 0 
833 0.0967575 0.893145 0.00714287 0.00212474 0.000552926 0 0.00027697 0 0 0 
834 0.00213704 0.882757 0.0821667 0.0180309 0.00637603 0.00446783 0.00192785 0 0.00213588 0 
835 9.59089e-07 0.853687 0.11278 0.0190271 0.0145058 0 0 0 0 0 
836 0.0391613 0.945387 0.0104153 0.00257605 0.0016385 0.000821451 0 0 0 0 
837 0.00530999 0.907965 0.068195 0.00688923 0.00542166 0.00235856 0.00127318 1.63591e-06 0.00258616 0 
838 0.00530999 0.907965 0.068195 0.00688923 0.00542166 0.00235856 0.00127318 1.63591e-06 0.00258616 0 
839 0.0130256 0.915422 0.0511116 0.0167268 0.001234 0.00124013 0 0.00124012 0 0 
840 0.00530999 0.892581 0.083579 0.00688923 0.00542166 0.00235856 0.00127318 1.63591e-06 0.00258616 0 
841 0.0380262 0.946969 0.0101152 0.00250138 0.00159101 0.00079764 0 0 0 0 
842 0.0391611 0.945388 0.0104153 0.00257605 0.0016385 0.000821451 0 0 0 0 
843 0.0130256 0.915422 0.0511109 0.0167268 0.001234 0.00124013 0 0.00124012 0 0 
844 0.00841753 0.894671 0.052843 0.0335513 0.00224459 0.00827308 0 0 0 0 
845 0.0184518 0.927635 0.0380346 0.00832153 0.00605973 0.000739422 0 0.000757823 0 0 
846 0.00530999 0.907965 0.068195 0.00688923 0.00542166 0.00235856 0.00127318 1.63591e-06 0.00258616 0 
847 0.00515149 0.910712 0.0661594 0.00668358 0.00525982 0.00228815 0.00123517 1.58708e-06 0.00250896 0 
848 0.00522954 0.894208 0.0823133 0.00678485 0.00533951 0.00232282 0.00125389 1.61113e-06 0.00254698 0 
849 0.0403661 0.928323 0.0107772 0.0179984 0.00168892 0.000846726 0 0 0 0 
850 0 0.675804 0.156199 0.131499 0.0364978 0 0 0 0 0 
851 0.0130256 0.915422 0.0511109 0.0167268 0.001234 0.00124013 0 0.00124012 0 0 
852 0.0187231 0.926571 0.0385939 0.0084439 0.00614885 0.000750295 0 0.000768967 0 0 
853 0.0128283 0.916704 0.0503365 0.0164734 0.0012153 0.00122134 0 0.00122133 0 0 
854 0.0391611 0.945388 0.0104153 0.00257605 0.0016385 0.000821451 0 0 0 0 
855 0.00530999 0.892582 0.0786389 0.0118282 0.00542166 0.00235856 0.00127318 1.63591e-06 0.00258616 0 
856 0.114619 0.873419 0.00846155 0.002517 0.000655005 0 0.000328103 0 0 0 
857 0.00530999 0.900138 0.0760217 0.00688923 0.00542166 0.00235856 0.00127318 1.63591e-06 0.00258616 0 
858 0.00531117 0.90796 0.0681988 0.00688923 0.00542166 0.00235856 0.00127318 1.63591e-06 0.00258616 0 
859 0.0652762 0.931766 0.0021189 0.000838782 0 0 0 0 0 0 
860 0.0192164 0.900253 0.063324 0.00639714 0.0050344 0.00219009 0.00118224 1.51906e-06 0.00240144 0 
861 0.0130256 0.914103 0.0524301 0.0167268 0.001234 0.00124013 0 0.00124012 0 0 
862 0.00854703 0.89305 0.053656 0.0340675 0.00227912 0.00840035 0 0 0 0 
863 0.00389797 0.824185 0.131548 0.0297838 0.0105844 0 0 0 0 0 
864 0.017932 0.929673 0.0369632 0.00808712 0.00588904 0.000718593 0 0.000736476 0 0 
865 0.00213704 0.882757 0.0821667 0.0180309 0.00637603 0.00446783 0.00192785 0 0.00213588 0 
866 0.0374828 0.947728 0.00996889 0.00246565 0.00156828 0.000786246 0 0 0 0 
867 0.00389797 0.824185 0.131548 0.0297838 0.0105844 0 0 0 0 0 
868 0.112883 0.845034 0.00924941 0.0318464 0.000664502 0 0.000323131 0 0 0 
869 0.0195873 0.923182 0.0403752 0.00883362 0.00643264 0.000784924 0 0.000804458 0 0 
870 0.0130256 0.900057 0.0664761 0.0167268 0.001234 0.00124013 0 0.00124012 0 0 
871 0.0397545 0.94456 0.0105731 0.00261508 0.00166333 0.000833897 0 0 0 0 
872 0.0336384 0.953089 0.00894644 0.00221276 0.00140743 0.000705605 0 0 0 0 
873 0.00530999 0.907965 0.068195 0.00688923 0.00542166 0.00235856 0.00127318 1.63591e-06 0.00258616 0 
874 0.0130256 0.900038 0.0664956 0.0167268 0.001234 0.00124013 0 0.00124012 0 0 
875 0.0126368 0.917947 0.0495853 0.0162275 0.00119716 0.00120311 0 0.0012031 0 0 
876 0.00507573 0.912025 0.0651864 0.00658529 0.00518247 0.0022545 0.00121701 1.56374e-06 0.00247207 0 
877 0.00679284 0.906482 0.068195 0.00688923 0.00542166 0.00235856 0.00127318 1.63591e-06 0.00258616 0 
878 0.0130256 0.915422 0.0511109 0.0167268 0.001234 0.00124013 0 0.00124012 0 0 
879 0.00384043 0.811696 0.140908 0.0331314 0.0104241 0 0 0 0 0 
880 0.0190026 0.925475 0.03917 0.00856993 0.00624062 0.000761494 0 0.000780444 0 0 
881 0.00530999 0.907965 0.068195 0.00688923 0.00542166 0.00235856 0.00127318 1.63591e-06 0.00258616 0 
882 0.012451 0.889742 0.0488584 0.045398 0.00117991 0.00118542 0 0.00118541 0 0 
883 0.00210466 0.884534 0.0809218 0.0177577 0.00627942 0.00440014 0.00189864 0 0.00210352 0 
884 9.44775e-07 0.85587 0.111096 0.0187431 0.0142893 0 0 0 0 0 
885 0.020202 0.883744 0.058281 0.0287583 0.00192393 0.00709121 0 0 0 0 
886 0 0.791561 0.145551 0.048935 0.00697629 0 0 0 0.0069763 0 
887 0.00530999 0.907965 0.068195 0.00688923 0.00542166 0.00235856 0.00127318 1.63591e-06 0.00258616 0 
888 0.0403661 0.943707 0.0107357 0.00265531 0.00168892 0.000846726 0 0 0 0 
889 0.00507573 0.912025 0.0651864 0.00658529 0.00518247 0.0022545 0.00121701 1.56374e-06 0.00247207 0 
890 0.00522954 0.909359 0.0671618 0.00678485 0.00533951 0.00232282 0.00125389 1.61113e-06 0.00254698 0 
891 0.00805155 0.884758 0.0650379 0.0320926 0.002147 0.00791338 0 0 0 0 
892 0.0192905 0.924346 0.0397634 0.00869978 0.00633517 0.000773032 0 0.000792269 0 0 
893 0 0.776415 0.160697 0.048935 0.00697629 0 0 0 0.0069763 0 
894 0.00500217 0.9133 0.0642417 0.00648985 0.00510736 0.00222183 0.00119937 1.54108e-06 0.00243624 0 
895 0.0130256 0.915422 0.0511109 0.0167268 0.001234 0.00124013 0 0.00124012 0 0 
896 0.0397545 0.94456 0.0105731 0.00261508 0.00166333 0.000833897 0 0 0 0 
897 0.00207325 0.885901 0.0800702 0.0174927 0.0061857 0.00433446 0.0018703 0 0.00207213 0 
898 0.00854703 0.877893 0.0688127 0.0340675 0.00227912 0.00840035 0 0 0 0 
899 0.00854703 0.89305 0.053656 0.0340675 0.00227912 0.00840035 0 0 0 0 
900 0.00854703 0.89305 0.053656 0.0340675 0.00227912 0.00840035 0 0 0 0 
901 0.0397545 0.94456 0.0105731 0.00261508 0.00166333 0.000833897 0 0 0 0 
902 0.00493071 0.914539 0.063324 0.00639714 0.0050344 0.00219009 0.00118224 1.51906e-06 0.00240144 0 
903 0.00530999 0.907965 0.068195 0.00688923 0.00542166 0.00235856 0.00127318 1.63591e-06 0.00258616 0 
904 0.0195873 0.923182 0.0403752 0.00883362 0.00643264 0.000784924 0 0.000804458 0 0 
905 0.00854703 0.89305 0.053656 0.0340675 0.00227912 0.00840035 0 0 0 0 
906 0.00530999 0.907965 0.068195 0.00688923 0.00542166 0.00235856 0.00127318 1.63591e-06 0.00258616 0 
907 0.0130256 0.915422 0.0511109 0.0167268 0.001234 0.00124013 0 0.00124012 0 0 
908 0.00213704 0.882757 0.0821667 0.0180309 0.00637603 0.00446783 0.00192785 0 0.00213588 0 
909 0.00854703 0.89305 0.053656 0.0340675 0.00227912 0.00840035 0 0 0 0 
910 0.00210466 0.884534 0.0809218 0.0177577 0.00627942 0.00440014 0.00189864 0 0.00210352 0 
911 0.0195873 0.907797 0.0403752 0.0242182 0.00643264 0.000784924 0 0.000804458 0 0 
912 0.0391612 0.945387 0.0104155 0.00257605 0.0016385 0.000821451 0 0 0 0 
913 0 0.691188 0.15619 0.116123 0.0364978 0 0 0 0 0 
914 0 0.797692 0.14127 0.0474957 0.00677111 0 0 0 0.00677111 0 
915 0.00210466 0.884534 0.0809218 0.0177577 0.00627942 0.00440014 0.00189864 0 0.00210352 0 
916 0.0403661 0.943707 0.0107357 0.00265531 0.00168892 0.000846726 0 0 0 0 
917 0.00213704 0.882757 0.0821667 0.0180309 0.00637603 0.00446783 0.00192785 0 0.00213588 0 
918 0 0.791561 0.145551 0.048935 0.00697629 0 0 0 0.0069763 0 
919 0.0195873 0.923182 0.0403752 0.00883362 0.00643264 0.000784924 0 0.000804458 0 0 
920 0.0082919 0.896243 0.0520543 0.0330505 0.00221109 0.0081496 0 0 0 0 
921 0.0172211 0.932479 0.0354941 0.00775926 0.00565029 0.000689461 0 0.000706619 0 0 
922 0.0397545 0.94456 0.0105731 0.00261508 0.00166333 0.000833897 0 0 0 0 
923 0.00530999 0.907965 0.068195 0.00688923 0.00542166 0.00235856 0.00127318 1.63591e-06 0.00258616 0 
924 0.00854703 0.89305 0.053656 0.0340675 0.00227912 0.00840035 0 0 0 0 
925 0.00530999 0.907965 0.068195 0.00688923 0.00542166 0.00235856 0.00127318 1.63591e-06 0.00258616 0 
926 0.0521157 0.932199 0.0105731 0.00261508 0.00166333 0.000833897 0 0 0 0 
927 0.0195873 0.923182 0.0403752 0.00883362 0.00643264 0.000784924 0 0.000804458 0 0 
928 0.00854703 0.89305 0.053656 0.0340675 0.00227912 0.00840035 0 0 0 0 
929 0.00389797 0.8088 0.131549 0.0451681 0.0105844 0 0 0 0 0 
930 0 0.77297 0.147792 0.0650708 0.00708362 0 0 0 0.00708362 0 
931 9.59089e-07 0.853687 0.11278 0.0190271 0.0145058 0 0 0 0 0 
932 0.0403661 0.943707 0.0107357 0.00265531 0.00168892 0.000846726 0 0 0 0 
933 0.0130256 0.915422 0.0511109 0.0167268 0.001234 0.00124013 0 0.00124012 0 0 
934 0.00530999 0.907965 0.068195 0.00688923 0.00542166 0.00235856 0.00127318 1.63591e-06 0.00258616 0 
935 0.0403661 0.928527 0.0259164 0.00265531 0.00168892 0.000846726 0 0 0 0 
936 0.003726 0.831941 0.125745 0.0284698 0.0101175 0 0 0 0 0 
937 0.0403661 0.928323 0.0261203 0.00265531 0.00168892 0.000846726 0 0 0 0 
938 0.00210466 0.884534 0.0809218 0.0177577 0.00627942 0.00440014 0.00189864 0 0.00210352 0 
939 0 0.523302 0.322821 0.092338 0 0.0615385 0 0 0 0 
940 0.114619 0.873419 0.00846155 0.002517 0.000655005 0 0.000328103 0 0 0 
941 0.00854703 0.877665 0.0690406 0.0340675 0.00227912 0.00840035 0 0 0 0 
942 0.00507573 0.912025 0.0651864 0.00658529 0.00518247 0.0022545 0.00121701 1.56374e-06 0.00247207 0 
943 0.0195873 0.923182 0.0403752 0.00883362 0.00643264 0.000784924 0 0.000804458 0 0 
944 9.44775e-07 0.85587 0.111096 0.0187431 0.0142893 0 0 0 0 0 
945 0.00530999 0.89258 0.0835797 0.00688923 0.00542166 0.00235856 0.00127318 1.63591e-06 0.00258616 0 
946 0.0130256 0.915422 0.0511109 0.0167268 0.001234 0.00124013 0 0.00124012 0 0 
947 0.0397545 0.94456 0.0105731 0.00261508 0.00166333 0.000833897 0 0 0 0 
948 0.00213704 0.882757 0.0821667 0.0180309 0.00637603 0.00446783 0.00192785 0 0.00213588 0 
949 0.00530999 0.907965 0.068195 0.00688923 0.00542166 0.00235856 0.00127318 1.63591e-06 0.00258616 0 
950 0.00213704 0.882757 0.0821667 0.0180309 0.00637603 0.00446783 0.00192785 0 0.00213588 0 
951 9.73845e-07 0.851436 0.114515 0.0193199 0.014729 0 0 0 0 0 
952 0.00378161 0.814508 0.142547 0.0288947 0.0102685 0 0 0 0 0 
953 0.00515149 0.910712 0.0661594 0.00668358 0.00525982 0.00228815 0.00123517 1.58708e-06 0.00250896 0 
954 0.0192905 0.894867 0.0692422 0.00869978 0.00633518 0.000773032 0 0.000792269 0 0 
955 0.00854703 0.89305 0.053656 0.0340675 0.00227912 0.00840035 0 0 0 0 
956 0.0187231 0.92453 0.0406343 0.0084439 0.00614885 0.000750295 0 0.000768967 0 0 
957 0.0192905 0.924346 0.0397634 0.00869978 0.00633517 0.000773032 0 0.000792269 0 0 
958 0.0403661 0.943707 0.0107357 0.00265531 0.00168892 0.000846726 0 0 0 0 
959 0.00841753 0.894671 0.052843 0.0335513 0.00224459 0.00827308 0 0 0 0 
960 0.0195873 0.907798 0.0557594 0.00883362 0.00643264 0.000784924 0 0.000804458 0 0 
961 0.00383891 0.826849 0.129555 0.0293325 0.0104241 0 0 0 0 0 
962 0.00213704 0.882757 0.0821667 0.0180309 0.00637603 0.00446783 0.00192785 0 0.00213588 0 
963 0.114619 0.873419 0.00846155 0.002517 0.000655005 0 0.000328103 0 0 0 
964 0.00841753 0.894671 0.052843 0.0335513 0.00224459 0.00827308 0 0 0 0 
965 0.00854703 0.89305 0.053656 0.0340675 0.00227912 0.00840035 0 0 0 0 
966 0.0403661 0.943707 0.0107357 0.00265531 0.00168892 0.000846726 0 0 0 0 
967 0.00389797 0.824185 0.131548 0.0297838 0.0105844 0 0 0 0 0 
968 0 0.591765 0.32573 0.0825034 0 0 0 0 0 0 
969 0.00530999 0.907965 0.068195 0.00688923 0.00542166 0.00235856 0.00127318 1.63591e-06 0.00258616 0 
970 0.00854703 0.89305 0.053656 0.0340675 0.00227912 0.00840035 0 0 0 0 
971 0.0403661 0.943707 0.0107357 0.00265531 0.00168892 0.000846726 0 0 0 0 
972 0.0195873 0.923182 0.0403752 0.00883362 0.00643264 0.000784924 0 0.000804458 0 0 
973 0.00854703 0.89305 0.053656 0.0340675 0.00227912 0.00840035 0 0 0 0 
974 0.0380356 0.946952 0.0101229 0.00250138 0.00159101 0.00079764 0 0 0 0 
975 0.0403661 0.943707 0.0107357 0.00265531 0.00168892 0.000846726 0 0 0 0 
976 0.0130256 0.915422 0.0511109 0.0167268 0.001234 0.00124013 0 0.00124012 0 0 
977 0 0.788355 0.14779 0.0496878 0.00708362 0 0 0 0.00708362 0 
978 0.00854703 0.89305 0.053656 0.0340675 0.00227912 0.00840035 0 0 0 0 
979 0.112883 0.875337 0.00833334 0.00247886 0.000645081 0 0.000323131 0 0 0 
980 0.00530999 0.907965 0.068195 0.00688923 0.00542166 0.00235856 0.00127318 1.63591e-06 0.00258616 0 
981 0.00389797 0.824185 0.131548 0.0297838 0.0105844 0 0 0 0 0 
982 0.0130256 0.915422 0.0511109 0.0167268 0.001234 0.00124013 0 0.00124012 0 0 
983 0.00530999 0.907965 0.068195 0.00688923 0.00542166 0.00235856 0.00127318 1.63591e-06 0.00258616 0 
984 0.00522954 0.909359 0.0671618 0.00678485 0.00533951 0.00232282 0.00125389 1.61113e-06 0.00254698 0 
985 9.73845e-07 0.851436 0.114515 0.0193199 0.014729 0 0 0 0 0 
986 0 0.77297 0.163175 0.0496878 0.00708362 0 0 0 0.00708362 0 
987 0.0186826 0.902989 0.0615995 0.00621944 0.00489455 0.00212925 0.0011494 1.47687e-06 0.00233473 0 
988 0.0130256 0.915388 0.0511459 0.0167268 0.001234 0.00124013 0 0.00124012 0 0 
989 0.00522954 0.909359 0.0671618 0.00678485 0.00533951 0.00232282 0.00125389 1.61113e-06 0.00254698 0 
990 0.0195873 0.923182 0.0403752 0.00883362 0.00643264 0.000784924 0 0.000804458 0 0 
991 0.0128283 0.901552 0.0516739 0.0302876 0.0012153 0.00122134 0 0.00122133 0 0 
992 0.00507573 0.912025 0.0651864 0.00658529 0.00518247 0.0022545 0.00121701 1.56374e-06 0.00247207 0 
993 0.00854703 0.89305 0.053656 0.0340675 0.00227912 0.00840035 0 0 0 0 
994 0.0195873 0.908095 0.0554618 0.00883362 0.00643264 0.000784924 0 0.000804458 0 0 
995 0.00204276 0.88793 0.0785417 0.0172354 0.00609473 0.00427072 0.0018428 0 0.00204165 0 
996 0.0385852 0.946191 0.0102621 0.00253817 0.00161441 0.00080937 0 0 0 0 
997 0.00841753 0.894671 0.052843 0.0335513 0.00224459 0.00827308 0 0 0 0 
998 0.00479375 0.916912 0.061565 0.00621944 0.00489455 0.00212925 0.0011494 1.47687e-06 0.00233473 0 
999 0.034984 0.951213 0.0093043 0.00230127 0.00146373 0.000733829 0 0 0 0 
1000 0.0130256 0.915422 0.0511109 0.0167268 0.001234 0.00124013 0 0.00124012 0 0 
1001 0.0082919 0.881317 0.0669797 0.0330506 0.00221109 0.0081496 0 0 0 0 
1002 0.0192905 0.924346 0.0397634 0.00869978 0.00633517 0.000773032 0 0.000792269 0 0 
1003 0 0.537528 0.298263 0.0895816 0 0.0746269 0 0 0 0 
1004 0.0195873 0.923182 0.0403752 0.00883362 0.00643264 0.000784924 0 0.000804458 0 0 
1005 0.0195873 0.923182 0.0403752 0.00883362 0.00643264 0.000784924 0 0.000804458 0 0 
1006 0.00389797 0.8088 0.146933 0.0297838 0.0105844 0 0 0 0 0 
1007 0.00530999 0.89258 0.0835797 0.00688923 0.00542166 0.00235856 0.00127318 1.63591e-06 0.00258616 0 
1008 0.0195873 0.923182 0.0403752 0.00883362 0.00643264 0.000784924 0 0.000804458 0 0 
1009 0.0128283 0.901552 0.065488 0.0164734 0.0012153 0.00122134 0 0.00122133 0 0 
1010 0.00210466 0.884534 0.0809218 0.0177577 0.00627942 0.00440014 0.00189864 0 0.00210352 0 
1011 0.0385852 0.946191 0.0102621 0.00253817 0.00161441 0.00080937 0 0 0 0 
1012 0.00522954 0.909359 0.0671618 0.00678485 0.00533951 0.00232282 0.00125389 1.61113e-06 0.00254698 0 
1013 0.00530999 0.907965 0.068195 0.00688923 0.00542166 0.00235856 0.00127318 1.63591e-06 0.00258616 0 
1014 0.0130256 0.915422 0.0511109 0.0167268 0.001234 0.00124013 0 0.00124012 0 0 
1015 0.00213704 0.882757 0.0821667 0.0180309 0.00637603 0.00446783 0.00192785 0 0.00213588 0 
1016 0.00389797 0.824185 0.131548 0.0297838 0.0105844 0 0 0 0 0 
1017 0.0192905 0.924346 0.0397634 0.00869978 0.00633517 0.000773032 0 0.000792269 0 0 
1018 0.00213704 0.882757 0.0821667 0.0180309 0.00637603 0.00446783 0.00192785 0 0.00213588 0 
1019 0.0192905 0.924346 0.0397634 0.00869978 0.00633517 0.000773032 0 0.000792269 0 0 
1020 0.0126368 0.903022 0.0645106 0.0162275 0.00119716 0.00120311 0 0.0012031 0 0 
1021 0.0128283 0.916704 0.0503365 0.0164734 0.0012153 0.00122134 0 0.00122133 0 0 
1022 0.00522954 0.909359 0.0671618 0.00678485 0.00533951 0.00232282 0.00125389 1.61113e-06 0.00254698 0 
1023 0.0391611 0.945388 0.0104153 0.00257605 0.0016385 0.000821451 0 0 0 0 
1024 0.003672 0.819884 0.138415 0.0280572 0.00997085 0 0 0 0 0 
1025 0.0385852 0.946191 0.0102621 0.00253817 0.00161441 0.00080937 0 0 0 0 
1026 0.0403661 0.943707 0.0107357 0.00265531 0.00168892 0.000846726 0 0 0 0 
1027 0.00210466 0.884534 0.0809218 0.0177577 0.00627942 0.00440014 0.00189864 0 0.00210352 0 
1028 0.0403661 0.943707 0.0107357 0.00265531 0.00168892 0.000846726 0 0 0 0 
1029 0.0130256 0.915422 0.0511109 0.0167268 0.001234 0.00124013 0 0.00124012 0 0 
1030 0.0187231 0.926571 0.0385939 0.0084439 0.00614885 0.000750295 0 0.000768967 0 0 
1031 0.00531 0.907965 0.068195 0.00688923 0.00542166 0.00235856 0.00127318 1.63591e-06 0.00258616 0 
1032 0.00530999 0.89258 0.0835797 0.00688923 0.00542166 0.00235856 0.00127318 1.63591e-06 0.00258616 0 
1033 0 0.691188 0.15619 0.116123 0.0364978 0 0 0 0 0 
1034 0.00207325 0.871332 0.0946391 0.0174927 0.0061857 0.00433446 0.0018703 0 0.00207213 0 
1035 0.00213704 0.882757 0.0821667 0.0180309 0.00637603 0.00446783 0.00192785 0 0.00213588 0 
1036 0.0642871 0.917649 0.0172383 0.000826073 0 0 0 0 0 0 
1037 0.0184646 0.927609 0.0380475 0.00832153 0.00605973 0.000739422 0 0.000757823 0 0 
1038 0.0126368 0.917947 0.0495853 0.0162275 0.00119716 0.00120311 0 0.0012031 0 0 
1039 0.00210466 0.884534 0.0809218 0.0177577 0.00627942 0.00440014 0.00189864 0 0.00210352 0 
1040 0.0403661 0.928323 0.0261203 0.00265531 0.00168892 0.000846726 0 0 0 0 
1041 0 0.680716 0.168975 0.114364 0.0359448 0 0 0 0 0 
1042 0.00213704 0.867376 0.0975483 0.0180309 0.00637603 0.00446783 0.00192785 0 0.00213588 0 
1043 0.00530999 0.89258 0.0835797 0.00688923 0.00542166 0.00235856 0.00127318 1.63591e-06 0.00258616 0 
1044 0.0391611 0.945388 0.0104153 0.00257605 0.0016385 0.000821451 0 0 0 0 
1045 0.00213704 0.882757 0.0821667 0.0180309 0.00637603 0.00446783 0.00192785 0 0.00213588 0 
1046 0.00841753 0.894671 0.052843 0.0335513 0.00224459 0.00827308 0 0 0 0 
1047 0.00854703 0.89305 0.053656 0.0340675 0.00227912 0.00840035 0 0 0 0 
1048 0.00213704 0.882757 0.0821667 0.0180309 0.00637603 0.00446783 0.00192785 0 0.00213588 0 
1049 0.0192905 0.924346 0.0397634 0.00869978 0.00633517 0.000773032 0 0.000792269 0 0 
1050 0.00530999 0.907963 0.0681971 0.00688923 0.00542166 0.00235856 0.00127318 1.63591e-06 0.00258616 0 
1051 0.00213704 0.867373 0.0823007 0.0332815 0.00637603 0.00446783 0.00192785 0 0.00213588 0 
1052 0.0128283 0.916704 0.0503365 0.0164734 0.0012153 0.00122134 0 0.00122133 0 0 
1053 0.114619 0.873419 0.00846155 0.002517 0.000655005 0 0.000328103 0 0 0 
1054 0.00483047 0.916875 0.0615662 0.00621944 0.00489455 0.00212925 0.0011494 1.47687e-06 0.00233473 0 
1055 0 0.691188 0.15619 0.116123 0.0364978 0 0 0 0 0 
1056 0.00530999 0.907965 0.068195 0.00688923 0.00542166 0.00235856 0.00127318 1.63591e-06 0.00258616 0 
1057 0.0540865 0.930462 0.0104153 0.00257605 0.0016385 0.000821451 0 0 0 0 
1058 0 0.691188 0.15619 0.116123 0.0364978 0 0 0 0 0 
1059 0.00507573 0.912025 0.0651864 0.00658529 0.00518247 0.0022545 0.00121701 1.56374e-06 0.00247207 0 
1060 0.0130256 0.915422 0.0511109 0.0167268 0.001234 0.00124013 0 0.00124012 0 0 
1061 0.0374828 0.947728 0.00996889 0.00246565 0.00156828 0.000786246 0 0 0 0 
1062 0.0192905 0.924346 0.0397634 0.00869978 0.00633517 0.000773032 0 0.000792269 0 0 
1063 0.0195873 0.908128 0.0553471 0.00891563 0.00643264 0.000784924 0 0.000804458 0 0 
1064 0.0128524 0.916656 0.0503607 0.0164734 0.0012153 0.00122134 0 0.00122133 0 0 
1065 0.0403661 0.943707 0.0107357 0.00265531 0.00168892 0.000846726 0 0 0 0 
1066 0.0130256 0.915422 0.0511109 0.0167268 0.001234 0.00124013 0 0.00124012 0 0 
1067 0.0130256 0.915422 0.0511109 0.0167268 0.001234 0.00124013 0 0.00124012 0 0 
1068 0.0403661 0.943707 0.0107357 0.00265531 0.00168892 0.000846726 0 0 0 0 
1069 0.0195873 0.923182 0.0403752 0.00883362 0.00643264 0.000784924 0 0.000804458 0 0 
1070 0.0403661 0.943707 0.0107357 0.00265531 0.00168892 0.000846726 0 0 0 0 
1071 0 0.788355 0.14779 0.0496878 0.00708362 0 0 0 0.00708362 0 
1072 0.00383891 0.811697 0.144707 0.0293325 0.0104241 0 0 0 0 0 
1073 0.0187231 0.926571 0.0385939 0.0084439 0.00614885 0.000750295 0 0.000768967 0 0 
1074 9.44775e-07 0.85587 0.111096 0.0187431 0.0142893 0 0 0 0 0 
1075 0.0190026 0.925475 0.03917 0.00856993 0.00624062 0.000761494 0 0.000780444 0 0 
1076 0.0369549 0.948464 0.00982849 0.00243092 0.00154619 0.000775172 0 0 0 0 
1077 0.0195873 0.923182 0.0403752 0.00883362 0.00643264 0.000784924 0 0.000804458 0 0 
1078 0.003672 0.834377 0.123922 0.0280572 0.00997085 0 0 0 0 0 
1079 0.0195873 0.923182 0.0403752 0.00883362 0.00643264 0.000784924 0 0.000804458 0 0 
1080 0.0385852 0.946191 0.0102621 0.00253817 0.00161441 0.00080937 0 0 0 0 
1081 0.0128283 0.916704 0.0503365 0.0164734 0.0012153 0.00122134 0 0.00122133 0 0 
1082 0.078253 0.918878 0.00205565 0.000813744 0 0 0 0 0 0 
1083 0.00515149 0.910712 0.0661594 0.00668358 0.00525982 0.00228815 0.00123517 1.58708e-06 0.00250896 0 
1084 0.0187231 0.926571 0.0385939 0.0084439 0.00614885 0.000750295 0 0.000768967 0 0 
1085 0.00530999 0.892707 0.0834529 0.00688923 0.00542166 0.00235856 0.00127318 1.63591e-06 0.00258616 0 
1086 0.012451 0.919039 0.0489706 0.0159889 0.00117956 0.00118542 0 0.00118541 0 0 
1087 0.0130256 0.915422 0.0511109 0.0167268 0.001234 0.00124013 0 0.00124012 0 0 
1088 0.0195873 0.923182 0.0403752 0.00883362 0.00643264 0.000784924 0 0.000804458 0 0 
1089 0.00213704 0.867373 0.0975513 0.0180309 0.00637603 0.00446783 0.00192785 0 0.00213588 0 
1090 0.00515149 0.910712 0.0661594 0.00668358 0.00525982 0.00228815 0.00123517 1.58708e-06 0.00250896 0 
1091 0.0130256 0.900039 0.0664946 0.0167268 0.001234 0.00124013 0 0.00124012 0 0 
1092 0.0130256 0.915422 0.0511119 0.0167268 0.001234 0.00124013 0 0.00124012 0 0 
1093 0.00213704 0.882757 0.0821667 0.0180309 0.00637603 0.00446783 0.00192785 0 0.00213588 0 
1094 9.30881e-07 0.85799 0.109463 0.0184675 0.0140792 0 0 0 0 0 
1095 0.00213704 0.882757 0.0821667 0.0180309 0.00637603 0.00446783 0.00192785 0 0.00213588 0 
1096 0.00213704 0.882757 0.0821667 0.0180309 0.00637603 0.00446783 0.00192785 0 0.00213588 0 
1097 0.0397545 0.94456 0.0105731 0.00261508 0.00166333 0.000833897 0 0 0 0 
1098 0.00383891 0.811697 0.144707 0.0293325 0.0104241 0 0 0 0 0 
1099 9.73845e-07 0.851436 0.114515 0.0193199 0.014729 0 0 0 0 0 
1100 0.114619 0.873419 0.00846155 0.002517 0.000655005 0 0.000328103 0 0 0 
1101 0.00213704 0.882757 0.0821667 0.0180309 0.00637603 0.00446783 0.00192785 0 0.00213588 0 
1102 0.00389797 0.8088 0.146933 0.0297838 0.0105844 0 0 0 0 0 
1103 0.0397545 0.94456 0.0105731 0.00261508 0.00166333 0.000833897 0 0 0 0 
1104 0.00854703 0.89305 0.0536561 0.0340675 0.00227912 0.00840035 0 0 0 0 
1105 0.0397545 0.92941 0.0257234 0.00261508 0.00166333 0.000833897 0 0 0 0 
1106 0.00389797 0.808816 0.146918 0.0297838 0.0105844 0 0 0 0 0 
1107 0.0403661 0.943707 0.0107357 0.00265531 0.00168892 0.000846726 0 0 0 0 
1108 0.0130256 0.915422 0.0511109 0.0167268 0.001234 0.00124013 0 0.00124012 0 0 
1109 0.0187231 0.911865 0.038594 0.0231497 0.00614885 0.000750295 0 0.000768967 0 0 
1110 0.0195873 0.923182 0.0403752 0.00883362 0.00643264 0.000784924 0 0.000804458 0 0 
1111 0.0190026 0.925475 0.03917 0.00856993 0.00624062 0.000761494 0 0.000780444 0 0 
1112 0 0.691188 0.15619 0.116123 0.0364978 0 0 0 0 0 
1113 0 0.591765 0.32573 0.0825034 0 0 0 0 0 0 
1114 0.0391611 0.945388 0.0104153 0.00257605 0.0016385 0.000821451 0 0 0 0 
1115 0.012451 0.904448 0.0635618 0.0159889 0.00117956 0.00118542 0 0.00118541 0 0 
1116 0.00841753 0.879519 0.0528511 0.0486948 0.00224459 0.00827308 0 0 0 0 
1117 0.00522954 0.909359 0.0671618 0.00678485 0.00533951 0.00232282 0.00125389 1.61113e-06 0.00254698 0 
1118 0.0195873 0.923182 0.0403752 0.00883362 0.00643264 0.000784924 0 0.000804458 0 0 
1119 0.0403661 0.943707 0.0107357 0.00265531 0.00168892 0.000846726 0 0 0 0 
1120 0.0130256 0.915422 0.0511109 0.0167268 0.001234 0.00124013 0 0.00124012 0 0 
1121 0.00530999 0.907965 0.068195 0.00688923 0.00542166 0.00235856 0.00127318 1.63591e-06 0.00258616 0 
1122 0.00530999 0.907965 0.068195 0.00688923 0.00542166 0.00235856 0.00127318 1.63591e-06 0.00258616 0 
1123 0.00531008 0.907965 0.068195 0.00688923 0.00542166 0.00235856 0.00127318 1.63591e-06 0.00258616 0 
1124 0 0.691188 0.15619 0.116123 0.0364978 0 0 0 0 0 
1125 0.00207325 0.886257 0.079714 0.0174927 0.0061857 0.00433446 0.0018703 0 0.00207213 0 
1126 0.100679 0.888814 0.00743244 0.00221088 0.000575342 0 0.000288198 0 0 0 
1127 0.00530999 0.898276 0.0778834 0.00688923 0.00542166 0.00235856 0.00127318 1.63591e-06 0.00258616 0 
1128 0.0130256 0.915422 0.0511109 0.0167268 0.001234 0.00124013 0 0.00124012 0 0 
1129 0.00213704 0.882757 0.0821667 0.0180309 0.00637603 0.00446783 0.00192785 0 0.00213588 0 
1130 0.0397545 0.94456 0.0105731 0.00261508 0.00166333 0.000833897 0 0 0 0 
1131 0.00389797 0.824185 0.131548 0.0297838 0.0105844 0 0 0 0 0 
1132 0.00530999 0.907965 0.068195 0.00688923 0.00542166 0.00235856 0.00127318 1.63591e-06 0.00258616 0 
1133 0.00213704 0.882757 0.0821667 0.0180309 0.00637603 0.00446783 0.00192785 0 0.00213588 0 
1134 0.0120952 0.921464 0.0474602 0.0155321 0.00114586 0.00115155 0 0.00115154 0 0 
1135 0.0339279 0.91055 0.03917 0.00856993 0.00624062 0.000761494 0 0.000780444 0 0 
1136 0.00854703 0.89305 0.053656 0.0340675 0.00227912 0.00840035 0 0 0 0 
1137 0.114619 0.873419 0.00846155 0.002517 0.000655005 0 0.000328103 0 0 0 
1138 0.00841753 0.879519 0.0679944 0.0335513 0.00224459 0.00827308 0 0 0 0 
1139 0.0195873 0.923182 0.0403752 0.00883362 0.00643264 0.000784924 0 0.000804458 0 0 
1140 0.00530999 0.907965 0.068195 0.00688923 0.00542166 0.00235856 0.00127318 1.63591e-06 0.00258616 0 
1141 0.0403661 0.943707 0.0107357 0.00265531 0.00168892 0.000846726 0 0 0 0 
1142 0.00207325 0.886257 0.079714 0.0174927 0.0061857 0.00433446 0.0018703 0 0.00207213 0 
1143 0.00854703 0.877665 0.053656 0.0340675 0.00227912 0.023785 0 0 0 0 
1144 0.00213704 0.867373 0.0975513 0.0180309 0.00637603 0.00446783 0.00192785 0 0.00213588 0 
1145 0.0403661 0.943707 0.0107357 0.00265531 0.00168892 0.000846726 0 0 0 0 
1146 0.0391611 0.945388 0.0104153 0.00257605 0.0016385 0.000821451 0 0 0 0 
1147 0.00854703 0.89305 0.053656 0.0340675 0.00227912 0.00840035 0 0 0 0 
1148 0.0195875 0.923182 0.0403752 0.00883362 0.00643264 0.000784924 0 0.000804458 0 0 
1149 0.00530999 0.907965 0.068195 0.00688923 0.00542166 0.00235856 0.00127318 1.63591e-06 0.00258616 0 
1150 0.0187819 0.926512 0.0385939 0.0084439 0.00614885 0.000750295 0 0.000768967 0 0 
1151 0.00854703 0.878 0.0687063 0.0340675 0.00227912 0.00840035 0 0 0 0 
1152 0.0120952 0.921464 0.0474602 0.0155321 0.00114586 0.00115155 0 0.00115154 0 0 
1153 0.00841753 0.894671 0.052843 0.0335513 0.00224459 0.00827308 0 0 0 0 
1154 0.00515149 0.910712 0.0661594 0.00668358 0.00525982 0.00228815 0.00123517 1.58708e-06 0.00250896 0 
1155 0.00530999 0.907965 0.068195 0.00688923 0.00542166 0.00235856 0.00127318 1.63591e-06 0.00258616 0 
1156 0.00213704 0.882757 0.0821667 0.0180309 0.00637603 0.00446783 0.00192785 0 0.00213588 0 
1157 0.038026 0.946971 0.0101134 0.00250138 0.00159101 0.00079764 0 0 0 0 
1158 0.112883 0.875337 0.00833334 0.00247886 0.000645081 0 0.000323131 0 0 0 
1159 0.0130256 0.915422 0.0511109 0.0167268 0.001234 0.00124013 0 0.00124012 0 0 
1160 0.00530999 0.907965 0.068195 0.00688923 0.00542166 0.00235856 0.00127318 1.63591e-06 0.00258616 0 
1161 0.0403661 0.943707 0.0107357 0.00265531 0.00168892 0.000846726 0 0 0 0 
1162 0.00213704 0.882757 0.0821667 0.0180309 0.00637603 0.00446783 0.00192785 0 0.00213588 0 
1163 0.00213704 0.882757 0.0821667 0.0180309 0.00637603 0.00446783 0.00192785 0 0.00213588 0 
1164 0.0130256 0.901943 0.0645905 0.0167268 0.001234 0.00124013 0 0.00124012 0 0 
1165 0.00854703 0.877665 0.0568243 0.0462837 0.00227915 0.00840035 0 0 0 0 
1166 0.0130256 0.915422 0.0511109 0.0167268 0.001234 0.00124013 0 0.00124012 0 0 
1167 0.0195873 0.923182 0.0403752 0.00883362 0.00643264 0.000784924 0 0.000804458 0 0 
1168 0.00507573 0.912025 0.0651864 0.00658529 0.00518247 0.0022545 0.00121701 1.56374e-06 0.00247207 0 
1169 0.00207325 0.886257 0.079714 0.0174927 0.0061857 0.00433446 0.0018703 0 0.00207213 0 
1170 0.0403661 0.928407 0.0260359 0.00265531 0.00168892 0.000846726 0 0 0 0 
1171 0.034714 0.867889 0.0815187 0.00832153 0.00605973 0.000739422 0 0.000757823 0 0 
1172 0 0.77297 0.163175 0.0496878 0.00708362 0 0 0 0.00708362 0 
1173 0.0082919 0.896243 0.0520543 0.0330505 0.00221109 0.0081496 0 0 0 0 
1174 0.0195873 0.923182 0.0403752 0.00883362 0.00643264 0.000784924 0 0.000804458 0 0 
1175 0.00530999 0.907965 0.068195 0.00688923 0.00542166 0.00235856 0.00127318 1.63591e-06 0.00258616 0 
1176 0.0397545 0.929428 0.0257052 0.00261508 0.00166333 0.000833897 0 0 0 0 
1177 0.0192905 0.924346 0.0397634 0.00869978 0.00633517 0.000773032 0 0.000792269 0 0 
1178 9.73845e-07 0.851436 0.114515 0.0193199 0.014729 0 0 0 0 0 
1179 0.0195873 0.907797 0.041031 0.0235624 0.00643264 0.000784924 0 0.000804458 0 0 
1180 0.00213704 0.882757 0.0821667 0.0180309 0.00637603 0.00446783 0.00192785 0 0.00213588 0 
1181 0.00854703 0.877665 0.0690406 0.0340675 0.00227912 0.00840035 0 0 0 0 
1182 0.00530999 0.892719 0.0834404 0.00688923 0.00542166 0.00235856 0.00127318 1.63591e-06 0.00258616 0 
1183 0.111188 0.878582 0.00723685 0.00215269 0.000560201 0 0.000280614 0 0 0 
1184 0.0195873 0.912692 0.050865 0.00883362 0.00643264 0.000784924 0 0.000804458 0 0 
1185 0.00389797 0.824185 0.131548 0.0297838 0.0105844 0 0 0 0 0 
1186 0.0130256 0.915422 0.0511109 0.0167268 0.001234 0.00124013 0 0.00124012 0 0 
1187 0.00213704 0.867373 0.0823623 0.0332199 0.00637603 0.00446783 0.00192785 0 0.00213588 0 
1188 0.00383891 0.811697 0.129555 0.0293439 0.0255642 0 0 0 0 0 
1189 0.0357539 0.950324 0.00954048 0.0022415 0.00142571 0.000714769 0 0 0 0 
1190 0.0354567 0.93704 0.0229435 0.00233237 0.00148351 0.000743746 0 0 0 0 
1191 0.00530999 0.907965 0.068195 0.00688923 0.00542166 0.00235856 0.00127318 1.63591e-06 0.00258616 0 
1192 0.00389797 0.824185 0.131548 0.0297838 0.0105844 0 0 0 0 0 
1193 0.0403661 0.943707 0.0107357 0.00265531 0.00168892 0.000846726 0 0 0 0 
1194 0.0403661 0.943707 0.0107357 0.00265531 0.00168892 0.000846726 0 0 0 0 
1195 0.00210466 0.884533 0.0809226 0.0177577 0.00627942 0.00440014 0.00189864 0 0.00210352 0 
1196 0.0082919 0.896243 0.0520543 0.0330505 0.00221109 0.0081496 0 0 0 0 
1197 0.00530999 0.907965 0.068195 0.00688923 0.00542166 0.00235856 0.00127318 1.63591e-06 0.00258616 0 
1198 0.00522954 0.909359 0.0671618 0.00678485 0.00533951 0.00232282 0.00125389 1.61113e-06 0.00254698 0 
1199 0.00210466 0.884534 0.0809218 0.0177577 0.00627942 0.00440014 0.00189864 0 0.00210352 0 
1200 0.00213704 0.867373 0.0975513 0.0180309 0.00637603 0.00446783 0.00192785 0 0.00213588 0 
1201 0.00204276 0.88793 0.0785417 0.0172354 0.00609473 0.00427072 0.0018428 0 0.00204165 0 
1202 0.0190026 0.925475 0.03917 0.00856993 0.00624062 0.000761494 0 0.000780444 0 0 
1203 0.00515149 0.910712 0.0661594 0.00668358 0.00525982 0.00228815 0.00123517 1.58708e-06 0.00250896 0 
1204 0 0.77297 0.14779 0.0496878 0.00708362 0 0 0 0.0224682 0 
1205 0.00213704 0.867373 0.0975513 0.0180309 0.00637603 0.00446783 0.00192785 0 0.00213588 0 
1206 0.0391642 0.945385 0.0104153 0.00257605 0.0016385 0.000821451 0 0 0 0 
1207 0.00530999 0.907965 0.068195 0.00688923 0.00542166 0.00235856 0.00127318 1.63591e-06 0.00258616 0 
1208 0 0.675804 0.15619 0.119492 0.0485137 0 0 0 0 0 
1209 0.00522954 0.909359 0.0671618 0.00678485 0.00533951 0.00232282 0.00125389 1.61113e-06 0.00254698 0 
1210 0 0.246154 0.262914 0.490932 0 0 0 0 0 0 
1211 0.00389797 0.824185 0.131548 0.0297838 0.0105844 0 0 0 0 0 
1212 0.0126368 0.917947 0.0495853 0.0162275 0.00119716 0.00120311 0 0.0012031 0 0 
1213 0.0195873 0.923182 0.0403752 0.00883362 0.00643264 0.000784924 0 0.000804458 0 0 
1214 0.0130256 0.915422 0.0511115 0.0167268 0.001234 0.00124013 0 0.00124012 0 0 
1215 0.0195873 0.923182 0.0403754 0.00883362 0.00643264 0.000784924 0 0.000804458 0 0 
1216 0.00213704 0.867373 0.0975511 0.0180309 0.00637603 0.00446783 0.00192785 0 0.00213588 0 
1217 0.0126368 0.917947 0.0495853 0.0162275 0.00119716 0.00120311 0 0.0012031 0 0 
1218 0.0195873 0.923182 0.0403752 0.00883362 0.00643264 0.000784924 0 0.000804458 0 0 
1219 0.0128283 0.902166 0.0648749 0.0164734 0.0012153 0.00122134 0 0.00122133 0 0 
1220 0.00530999 0.893847 0.0823129 0.00688923 0.00542166 0.00235856 0.00127318 1.63591e-06 0.00258616 0 
1221 0.0130256 0.900039 0.0664946 0.0167268 0.001234 0.00124013 0 0.00124012 0 0 
1222 0.00854703 0.877665 0.0690406 0.0340675 0.00227912 0.00840035 0 0 0 0 
1223 0.0126368 0.917947 0.0495853 0.0162275 0.00119716 0.00120311 0 0.0012031 0 0 
1224 0.0192905 0.924346 0.0397634 0.00869978 0.00633517 0.000773032 0 0.000792269 0 0 
1225 9.73845e-07 0.851436 0.114515 0.0193199 0.014729 0 0 0 0 0 
1226 0.00530999 0.907965 0.068195 0.00688923 0.00542166 0.00235856 0.00127318 1.63591e-06 0.00258616 0 
1227 0.00854703 0.89305 0.053656 0.0340675 0.00227912 0.00840035 0 0 0 0 
1228 0.0195873 0.923182 0.0403752 0.00883362 0.00643264 0.000784924 0 0.000804458 0 0 
1229 0.0195873 0.923182 0.0403752 0.00883362 0.00643264 0.000784924 0 0.000804458 0 0 
1230 0.0403661 0.943707 0.0107357 0.00265531 0.00168892 0.000846726 0 0 0 0 
1231 0.0403661 0.943707 0.0107362 0.00265531 0.00168892 0.000846726 0 0 0 0 
1232 0.0130256 0.915422 0.0511109 0.0167268 0.001234 0.00124013 0 0.00124012 0 0 
1233 0.017683 0.93065 0.0364498 0.0079748 0.00580724 0.000708612 0 0.000726247 0 0 
1234 0.00389797 0.824185 0.131548 0.0297838 0.0105844 0 0 0 0 0 
1235 0.0130256 0.915422 0.0511109 0.0167268 0.001234 0.00124013 0 0.00124012 0 0 
1236 0 0.77297 0.163175 0.0496878 0.00708362 0 0 0 0.00708362 0 
1237 0.0192905 0.923034 0.0410749 0.00869978 0.00633518 0.000773032 0 0.000792269 0 0 
