1 1 1 100 1
0 2 1 100 0.333333
1 2 1 100 0.666667
1 3 1 100 1
1 4 1 100 1
1 5 1 100 1
0 1 2 100 1.01211e-05
1 1 2 100 0.888879
2 1 2 100 0.111111
1 2 2 100 0.111111
2 2 2 100 0.888889
2 3 2 100 1
0 1 3 100 8.53786e-05
1 1 3 100 0.999915
0 2 3 100 0.000417039
1 2 3 100 0.0666667
2 2 3 100 0.86625
3 2 3 100 0.0666667
2 3 3 100 0.0714286
3 3 3 100 0.928571
3 4 3 100 1
3 5 3 100 1
3 6 3 100 1
3 7 3 100 1
0 1 4 100 0.000225059
1 1 4 100 0.89637
4 1 4 100 0.103405
0 2 4 100 0.00044858
1 2 4 100 0.107143
2 2 4 100 0.856694
3 2 4 100 0.0357143
0 3 4 100 0.0360971
2 3 4 100 0.0714005
3 3 4 100 0.762959
4 3 4 100 0.129543
0 4 4 100 0.0683233
3 4 4 100 0.124222
4 4 4 100 0.807455
2 5 4 100 0.333334
3 5 4 100 0.166666
4 5 4 100 0.5
3 6 4 100 1
4 7 4 100 1
0 1 5 100 3.81406e-05
1 1 5 100 0.958295
3 1 5 100 1.03311e-05
4 1 5 100 4.92541e-06
5 1 5 100 0.0416512
0 2 5 100 0.00019288
1 2 5 100 0.0416631
2 2 5 100 0.958144
0 3 5 100 0.000257393
1 3 5 100 0.0410184
2 3 5 100 0.0423207
3 3 5 100 0.916404
0 4 5 100 0.042238
2 4 5 100 0.0416667
3 4 5 100 0.0260159
4 4 5 100 0.889854
5 4 5 100 0.0002259
0 5 5 100 0.0445034
3 5 5 100 0.0545365
4 5 5 100 0.0268601
5 5 5 100 0.8741
0 6 5 100 0.2
4 6 5 100 0.4
5 6 5 100 0.4
5 7 5 100 1
0 8 5 100 0.999905
5 8 5 100 9.52791e-05
5 9 5 100 1
0 1 6 100 4.40095e-05
1 1 6 100 0.966629
6 1 6 100 0.0333269
0 2 6 100 0.0340452
1 2 6 100 0.0330587
2 2 6 100 0.899561
3 2 6 100 0.0333355
0 3 6 100 0.0355176
2 3 6 100 0.100002
3 3 6 100 0.797811
4 3 6 100 0.0500003
5 3 6 100 0.0166694
0 4 6 100 0.0531387
2 4 6 100 0.0333333
3 4 6 100 0.109658
4 4 6 100 0.733821
5 4 6 100 0.0367154
6 4 6 100 0.0333333
0 5 6 100 0.0318271
2 5 6 100 0.0344774
3 5 6 100 0.0344888
4 5 6 100 0.144241
5 5 6 100 0.689267
6 5 6 100 0.0656994
0 6 6 100 0.000284188
4 6 6 100 0.0714276
5 6 6 100 0.178292
6 6 6 100 0.749996
0 7 6 100 0.100497
5 7 6 100 0.0999075
6 7 6 100 0.799595
0 8 6 100 7.69059e-05
5 8 6 100 0.2
6 8 6 100 0.799923
6 9 6 100 1
0 1 7 100 4.54416e-06
1 1 7 100 0.909071
2 1 7 100 0.0311477
4 1 7 100 0.0294734
7 1 7 100 0.0303031
0 2 7 100 0.0913557
1 2 7 100 0.03036
2 2 7 100 0.787364
3 2 7 100 0.0303162
6 2 7 100 0.0303006
7 2 7 100 0.0303031
0 3 7 100 0.00118583
1 3 7 100 0.0303026
2 3 7 100 0.180866
3 3 7 100 0.681574
4 3 7 100 0.0454653
5 3 7 100 0.030303
7 3 7 100 0.030303
0 4 7 100 0.037812
2 4 7 100 0.0624992
3 4 7 100 0.187432
4 4 7 100 0.556037
5 4 7 100 0.12497
6 4 7 100 0.03125
0 5 7 100 0.0271896
3 5 7 100 0.031257
4 5 7 100 0.25448
5 5 7 100 0.530838
6 5 7 100 0.09375
7 5 7 100 0.0624854
0 6 7 100 0.000209167
4 6 7 100 0.0322581
5 6 7 100 0.258053
6 6 7 100 0.580447
7 6 7 100 0.129032
0 7 7 100 0.0324491
5 7 7 100 0.0357143
6 7 7 100 0.214159
7 7 7 100 0.717677
6 8 7 100 0.100001
7 8 7 100 0.899999
7 9 7 100 1
0 1 8 100 1.9003e-05
1 1 8 100 0.995391
2 1 8 100 0.00458977
0 2 8 100 0.0958894
2 2 8 100 0.808873
3 2 8 100 0.0476191
8 2 8 100 0.0476191
0 3 8 100 0.0478187
1 3 8 100 0.0476191
2 3 8 100 0.0476774
3 3 8 100 0.809269
4 3 8 100 0.0476161
0 4 8 100 0.0477974
1 4 8 100 0.0476191
2 4 8 100 0.0476191
3 4 8 100 0.0476191
4 4 8 100 0.714107
5 4 8 100 0.0952381
0 5 8 100 0.000145561
1 5 8 100 0.047619
3 5 8 100 0.047619
4 5 8 100 0.0952381
5 5 8 100 0.714143
6 5 8 100 0.0952348
0 6 8 100 0.000426353
2 6 8 100 0.0476191
4 6 8 100 0.0476191
5 6 8 100 0.0952396
6 6 8 100 0.713856
7 6 8 100 1.87156e-06
8 6 8 100 0.0952381
0 7 8 100 0.000793845
3 7 8 100 0.0499155
5 7 8 100 0.049998
6 7 8 100 0.149988
7 7 8 100 0.699306
8 7 8 100 0.049999
0 8 8 100 0.0526316
4 8 8 100 0.0526316
6 8 8 100 0.0526427
7 8 8 100 0.105252
8 8 8 100 0.736842
5 9 8 100 0.166666
7 9 8 100 0.333334
8 9 8 100 0.5
7 10 8 100 0.333333
8 10 8 100 0.666667
8 11 8 100 1
0 1 9 100 0.000297296
1 1 9 100 0.958021
2 1 9 100 1.69232e-06
9 1 9 100 0.0416804
0 2 9 100 0.0001698
1 2 9 100 0.0434768
2 2 9 100 0.91288
3 2 9 100 0.0434732
0 3 9 100 0.0438684
2 3 9 100 0.0435007
3 3 9 100 0.869136
4 3 9 100 0.0434872
5 3 9 100 7.32065e-06
0 4 9 100 0.000398629
3 4 9 100 0.130435
4 4 9 100 0.825688
5 4 9 100 0.0434783
0 5 9 100 0.0307
3 5 9 100 0.0574361
4 5 9 100 0.0869565
5 5 9 100 0.781428
6 5 9 100 0.043479
0 6 9 100 0.000222229
5 6 9 100 0.130359
6 6 9 100 0.782463
7 6 9 100 0.0434783
9 6 9 100 0.0434773
0 7 9 100 0.0439497
6 7 9 100 0.217391
7 7 9 100 0.695125
8 7 9 100 0.0434783
9 7 9 100 5.58917e-05
0 8 9 100 0.000728102
7 8 9 100 0.21739
8 8 9 100 0.696977
9 8 9 100 0.0849047
0 9 9 100 0.0546957
4 9 9 100 0.0454546
8 9 9 100 0.172183
9 9 9 100 0.727667
0 10 9 100 0.00288353
8 10 9 100 0.142857
9 10 9 100 0.854259
9 11 9 100 1
0 12 9 100 0.999894
7 12 9 100 0.000105724
9 13 9 100 1
0 1 10 100 1.43955e-05
1 1 10 100 0.952365
2 1 10 100 0.0476209
0 2 10 100 0.000569512
1 2 10 100 2.03858e-06
2 2 10 100 0.951782
3 2 10 100 0.0476464
0 3 10 100 0.000286976
2 3 10 100 0.0476191
3 3 10 100 0.856856
4 3 10 100 0.0952381
0 4 10 100 0.0842879
2 4 10 100 0.047619
4 4 10 100 0.725231
5 4 10 100 0.0952381
9 4 10 100 5.04827e-06
10 4 10 100 0.0476191
0 5 10 100 0.0103368
3 5 10 100 0.0476191
4 5 10 100 0.0851008
5 5 10 100 0.666475
6 5 10 100 0.14285
10 5 10 100 0.0476191
0 6 10 100 0.00209634
4 6 10 100 0.0932976
5 6 10 100 0.190476
6 6 10 100 0.572095
7 6 10 100 0.142035
0 7 10 100 0.189907
5 7 10 100 0.0951864
6 7 10 100 0.142659
7 7 10 100 0.475771
8 7 10 100 0.0964767
10 7 10 100 9.90324e-07
0 8 10 100 0.000567682
6 8 10 100 0.190436
7 8 10 100 0.190016
8 8 10 100 0.476122
9 8 10 100 0.142857
0 9 10 100 0.0443
2 9 10 100 5.45955e-06
7 9 10 100 0.19457
8 9 10 100 0.142683
9 9 10 100 0.475578
10 9 10 100 0.142863
0 10 10 100 0.0275583
8 10 10 100 0.277778
9 10 10 100 0.166401
10 10 10 100 0.528263
0 11 10 100 0.000457882
8 11 10 100 0.2
9 11 10 100 0.299542
10 11 10 100 0.5
9 12 10 100 0.4
10 12 10 100 0.6
10 13 10 100 1
0 1 11 100 0.00113096
1 1 11 100 0.971095
2 1 11 100 0.0277739
0 2 11 100 0.0182573
1 2 11 100 0.0555279
2 2 11 100 0.875805
3 2 11 100 0.0504094
0 3 11 100 0.0284172
2 3 11 100 0.0555569
3 3 11 100 0.832693
4 3 11 100 0.0555556
11 3 11 100 0.0277778
0 4 11 100 0.0282032
2 4 11 100 0.000317326
3 4 11 100 0.0552382
4 4 11 100 0.805115
5 4 11 100 0.0555719
11 4 11 100 0.0555544
0 5 11 100 0.000428481
4 5 11 100 0.111123
5 5 11 100 0.805115
6 5 11 100 0.0555556
11 5 11 100 0.0277778
0 6 11 100 0.000745808
4 6 11 100 4.26469e-06
5 6 11 100 0.11099
6 6 11 100 0.804927
7 6 11 100 0.0555548
11 6 11 100 0.0277778
0 7 11 100 0.00100422
6 7 11 100 0.0833333
7 7 11 100 0.77697
8 7 11 100 0.110915
10 7 11 100 0.0277778
0 8 11 100 0.00258185
6 8 11 100 0.0532684
7 8 11 100 0.0555563
8 8 11 100 0.749701
9 8 11 100 0.111114
10 8 11 100 0.0277778
0 9 11 100 0.000666092
7 9 11 100 0.0833282
8 9 11 100 0.0831383
9 9 11 100 0.693979
10 9 11 100 0.132164
11 9 11 100 0.00672396
0 10 11 100 0.00114062
7 10 11 100 5.26409e-06
8 10 11 100 0.0857086
9 10 11 100 0.0857147
10 10 11 100 0.713145
11 10 11 100 0.114286
0 11 11 100 1.73075e-05
9 11 11 100 0.0644988
10 11 11 100 0.129032
11 11 11 100 0.806452
0 12 11 100 0.117595
8 12 11 100 0.00414999
9 12 11 100 0.142857
10 12 11 100 0.285253
11 12 11 100 0.450145
0 13 11 100 6.74302e-05
10 13 11 100 0.249938
11 13 11 100 0.749995
11 14 11 100 1
11 15 11 100 1
0 1 12 100 0.00628287
1 1 12 100 0.993717
0 2 12 100 0.0396854
1 2 12 100 0.0384615
2 2 12 100 0.883614
3 2 12 100 0.0382386
0 3 12 100 0.0432362
1 3 12 100 0.0384614
2 3 12 100 0.0736295
3 3 12 100 0.767747
4 3 12 100 0.0384616
11 3 12 100 3.32726e-06
12 3 12 100 0.0384616
0 4 12 100 0.00193674
1 4 12 100 0.0384616
2 4 12 100 0.0384616
3 4 12 100 0.115385
4 4 12 100 0.728833
5 4 12 100 0.0384521
6 4 12 100 9.09595e-06
12 4 12 100 0.0384616
0 5 12 100 0.07735
2 5 12 100 0.0384615
4 5 12 100 0.115385
5 5 12 100 0.691887
6 5 12 100 0.0384533
10 5 12 100 2.1096e-06
12 5 12 100 0.0384615
0 6 12 100 0.0940069
3 6 12 100 0.0672807
4 6 12 100 0.0478002
5 6 12 100 0.0769243
6 6 12 100 0.67552
7 6 12 100 0.0384615
8 6 12 100 3.22565e-06
10 6 12 100 3.24042e-06
0 7 12 100 0.0775918
2 7 12 100 9.51475e-07
4 7 12 100 0.0769221
5 7 12 100 0.0769231
6 7 12 100 0.114904
7 7 12 100 0.576735
8 7 12 100 0.0769231
0 8 12 100 0.000147381
5 8 12 100 0.115385
6 8 12 100 0.0769231
7 8 12 100 0.15384
8 8 12 100 0.539325
9 8 12 100 0.11438
0 9 12 100 0.0387478
4 9 12 100 2.72073e-06
6 9 12 100 0.0769231
7 9 12 100 0.0769332
8 9 12 100 0.192229
9 9 12 100 0.49955
10 9 12 100 0.11538
11 9 12 100 2.75626e-06
12 9 12 100 0.000231062
0 10 12 100 0.0435704
7 10 12 100 0.0724638
8 10 12 100 0.153836
9 10 12 100 0.192267
10 10 12 100 0.422504
11 10 12 100 0.0496078
12 10 12 100 0.0657511
0 11 12 100 0.0015962
8 11 12 100 0.0768842
9 11 12 100 0.115367
10 11 12 100 0.230065
11 11 12 100 0.460703
12 11 12 100 0.115385
0 12 12 100 0.00566473
9 12 12 100 0.0833421
10 12 12 100 0.124988
11 12 12 100 0.208332
12 12 12 100 0.577673
0 13 12 100 0.000910577
10 13 12 100 0.153777
11 13 12 100 0.230566
12 13 12 100 0.614747
0 14 12 100 0.111408
7 14 12 100 0.000305307
11 14 12 100 0.22162
12 14 12 100 0.666667
12 15 12 100 1
12 16 12 100 1
0 1 13 100 1.87972e-05
1 1 13 100 0.999981
0 2 13 100 0.00196955
2 2 13 100 0.988252
3 2 13 100 0.00977842
0 3 13 100 0.0459289
2 3 13 100 4.97679e-06
3 3 13 100 0.908573
4 3 13 100 0.0454909
12 3 13 100 2.58615e-06
0 4 13 100 0.000209479
3 4 13 100 0.0454909
4 4 13 100 0.908846
5 4 13 100 1.23686e-06
7 4 13 100 0.0454527
0 5 13 100 0.000715847
4 5 13 100 0.0909091
5 5 13 100 0.9063
6 5 13 100 0.00207157
7 5 13 100 7.18424e-07
9 5 13 100 2.97408e-06
0 6 13 100 0.0454929
5 6 13 100 0.136354
6 6 13 100 0.727141
7 6 13 100 0.0910122
0 7 13 100 0.0786053
5 7 13 100 9.842e-06
6 7 13 100 0.226553
7 7 13 100 0.60392
8 7 13 100 0.0909091
10 7 13 100 2.98552e-06
0 8 13 100 0.00391903
5 8 13 100 3.72542e-06
7 8 13 100 0.316385
8 8 13 100 0.543804
9 8 13 100 0.135889
0 9 13 100 0.000276261
5 9 13 100 1.13075e-06
6 9 13 100 0.0454546
7 9 13 100 0.136359
8 9 13 100 0.181833
9 9 13 100 0.408828
10 9 13 100 0.136339
11 9 13 100 0.090909
0 10 13 100 0.000300479
8 10 13 100 0.136351
9 10 13 100 0.181678
10 10 13 100 0.545302
11 10 13 100 0.0454616
12 10 13 100 0.0454525
13 10 13 100 0.0454545
0 11 13 100 0.0499799
7 11 13 100 5.14178e-06
8 11 13 100 1.56048e-06
9 11 13 100 0.136325
10 11 13 100 0.26878
11 11 13 100 0.317636
12 11 13 100 0.136364
13 11 13 100 0.090909
0 12 13 100 0.0483839
9 12 13 100 0.0454546
10 12 13 100 0.136208
11 12 13 100 0.227137
12 12 13 100 0.365331
13 12 13 100 0.177485
0 13 13 100 0.0320943
3 13 13 100 2.86827e-06
10 13 13 100 0.0500037
11 13 13 100 0.0999972
12 13 13 100 0.267258
13 13 13 100 0.550644
0 14 13 100 0.00150585
11 14 13 100 0.152613
12 14 13 100 0.153842
13 14 13 100 0.692038
0 15 13 100 1.2003e-06
11 15 13 100 0.111111
12 15 13 100 0.111111
13 15 13 100 0.777777
0 16 13 100 0.200287
12 16 13 100 0.2
13 16 13 100 0.599713
0 17 13 100 0.000134999
6 17 13 100 0.199865
13 17 13 100 0.8
7 18 13 100 0.5
13 18 13 100 0.5
8 19 13 100 1
9 20 13 100 1
0 21 13 100 1
0 22 13 100 1
12 23 13 100 1
13 24 13 100 1
0 1 14 100 0.00646913
1 1 14 100 0.993531
0 2 14 100 0.107614
2 2 14 100 0.792366
3 2 14 100 0.10002
0 3 14 100 0.200524
1 3 14 100 2.31841e-05
2 3 14 100 0.00013193
3 3 14 100 0.699317
4 3 14 100 0.1
12 3 14 100 4.17239e-06
0 4 14 100 0.000340494
2 4 14 100 0.100008
3 4 14 100 0.2
4 4 14 100 0.499741
5 4 14 100 0.0999107
10 4 14 100 0.1
0 5 14 100 1.35448e-05
3 5 14 100 0.1
4 5 14 100 0.299999
5 5 14 100 0.499987
6 5 14 100 0.1
0 6 14 100 2.4956e-06
4 6 14 100 0.1
5 6 14 100 0.399998
6 6 14 100 0.4
7 6 14 100 0.1
0 7 14 100 0.100021
5 7 14 100 0.1
6 7 14 100 0.399889
7 7 14 100 0.300089
8 7 14 100 1.43558e-06
12 7 14 100 0.1
0 8 14 100 0.000381016
5 8 14 100 0.00633388
6 8 14 100 0.0937762
7 8 14 100 0.399521
8 8 14 100 0.498924
9 8 14 100 0.000532111
10 8 14 100 0.000532111
0 9 14 100 0.101356
7 9 14 100 0.1
8 9 14 100 0.298656
9 9 14 100 0.299988
11 9 14 100 0.2
0 10 14 100 0.1
8 10 14 100 0.2
9 10 14 100 0.2
10 10 14 100 0.4
12 10 14 100 0.1
0 11 14 100 0.00215081
9 11 14 100 0.3
10 11 14 100 0.3
11 11 14 100 0.298254
12 11 14 100 2.78793e-06
13 11 14 100 0.0995928
0 12 14 100 0.000569468
10 12 14 100 0.199963
11 12 14 100 0.299466
12 12 14 100 0.199997
13 12 14 100 0.104268
14 12 14 100 0.195737
0 13 14 100 0.0877161
3 13 14 100 4.69766e-06
11 13 14 100 0.134532
12 13 14 100 0.333315
13 13 14 100 0.222209
14 13 14 100 0.222222
0 14 14 100 0.125006
13 14 14 100 0.374994
14 14 14 100 0.5
0 15 14 100 0.042158
11 15 14 100 0.157842
14 15 14 100 0.8
0 16 14 100 0.0010878
12 16 14 100 0.333333
14 16 14 100 0.665579
0 17 14 100 0.33389
2 17 14 100 2.9455e-05
13 17 14 100 0.332746
14 17 14 100 0.333334
14 18 14 100 1
14 19 14 100 1
0 1 15 100 0.000287371
1 1 15 100 0.933043
2 1 15 100 2.54507e-06
15 1 15 100 0.0666667
0 2 15 100 0.000306319
1 2 15 100 0.0666693
2 2 15 100 0.799826
3 2 15 100 0.0666617
15 2 15 100 0.0665363
0 3 15 100 0.0878676
1 3 15 100 2.78323e-06
2 3 15 100 0.0666621
3 3 15 100 0.7321
4 3 15 100 0.0467034
15 3 15 100 0.0666639
0 4 15 100 0.000225793
1 4 15 100 0.0666667
2 4 15 100 0.0666652
3 4 15 100 0.133333
4 4 15 100 0.733109
0 5 15 100 0.000218183
2 5 15 100 0.0666667
3 5 15 100 0.133327
5 5 15 100 0.799786
6 5 15 100 2.79792e-06
0 6 15 100 0.0523364
4 6 15 100 0.14839
5 6 15 100 2.79792e-06
6 6 15 100 0.799271
0 7 15 100 0.00157702
5 7 15 100 0.199497
6 7 15 100 0.0666667
7 7 15 100 0.73226
0 8 15 100 1.23516e-05
6 8 15 100 0.199986
7 8 15 100 1.37133e-05
8 8 15 100 0.733321
15 8 15 100 0.0666667
0 9 15 100 0.0492723
1 9 15 100 3.78956e-06
6 9 15 100 1.37133e-05
7 9 15 100 0.199979
8 9 15 100 0.000679583
9 9 15 100 0.616708
10 9 15 100 1.0346e-05
11 9 15 100 0.0666666
15 9 15 100 0.0666667
0 10 15 100 0.000112861
8 10 15 100 0.266644
9 10 15 100 0.0666968
10 10 15 100 0.59988
12 10 15 100 0.0666667
0 11 15 100 0.000428752
8 11 15 100 1.97971e-05
9 11 15 100 0.266596
11 11 15 100 0.599622
12 11 15 100 0.0666664
13 11 15 100 0.0666667
0 12 15 100 0.000133592
10 12 15 100 0.266667
12 12 15 100 0.666533
14 12 15 100 0.0666661
0 13 15 100 0.000481637
11 13 15 100 0.266656
12 13 15 100 0.066674
13 13 15 100 0.532855
14 13 15 100 0.0666667
15 13 15 100 0.0666667
0 14 15 100 0.00104233
11 14 15 100 0.0714364
12 14 15 100 0.213679
13 14 15 100 0.0714286
14 14 15 100 0.499682
15 14 15 100 0.142732
0 15 15 100 0.0672065
12 15 15 100 0.00979731
13 15 15 100 0.230761
14 15 15 100 0.0769231
15 15 15 100 0.615312
0 16 15 100 0.021647
12 16 15 100 0.146174
14 16 15 100 0.498845
15 16 15 100 0.333334
13 17 15 100 0.25
15 17 15 100 0.75
14 18 15 100 1
15 19 15 100 1
0 1 16 100 1.57301e-05
1 1 16 100 0.933318
2 1 16 100 0.0666667
0 2 16 100 0.000518264
2 2 16 100 0.79948
3 2 16 100 0.0666687
5 2 16 100 0.133333
0 3 16 100 0.0666662
1 3 16 100 0.0666654
2 3 16 100 2.29366e-06
3 3 16 100 0.61079
4 3 16 100 0.0666667
5 3 16 100 0.0666667
6 3 16 100 0.0666667
11 3 16 100 0.0558759
0 4 16 100 0.00020936
2 4 16 100 0.0666667
3 4 16 100 0.0666667
4 4 16 100 0.666457
5 4 16 100 0.0666667
7 4 16 100 0.0666667
14 4 16 100 0.0666667
0 5 16 100 0.068076
2 5 16 100 0.0531475
3 5 16 100 0.0135192
4 5 16 100 0.0666667
5 5 16 100 0.598611
6 5 16 100 0.0666667
8 5 16 100 0.0666667
15 5 16 100 0.0666468
0 6 16 100 0.0699857
4 6 16 100 0.0666667
5 6 16 100 0.262977
6 6 16 100 0.400185
7 6 16 100 0.0666667
9 6 16 100 0.0666667
11 6 16 100 0.0666667
16 6 16 100 0.000185581
0 7 16 100 0.133457
2 7 16 100 0.000548843
5 7 16 100 0.133335
6 7 16 100 0.13333
7 7 16 100 0.399329
8 7 16 100 0.0666667
10 7 16 100 0.0666667
14 7 16 100 0.0666667
0 8 16 100 0.000101884
6 8 16 100 0.199985
7 8 16 100 0.133102
8 8 16 100 0.4
9 8 16 100 0.0666667
11 8 16 100 0.0666667
14 8 16 100 0.0666667
15 8 16 100 0.0666667
16 8 16 100 0.000143817
0 9 16 100 0.0673241
3 9 16 100 0.000161625
4 9 16 100 6.41692e-06
6 9 16 100 2.29327e-06
7 9 16 100 0.199947
8 9 16 100 0.133333
9 9 16 100 0.399996
10 9 16 100 0.0666694
12 9 16 100 0.0658939
15 9 16 100 0.0666667
0 10 16 100 0.00278088
8 10 16 100 0.266516
9 10 16 100 0.133333
10 10 16 100 0.398572
11 10 16 100 0.00449646
13 10 16 100 0.0666667
15 10 16 100 0.0616691
16 10 16 100 0.0659662
0 11 16 100 0.0669023
7 11 16 100 2.59303e-06
8 11 16 100 0.0666641
9 11 16 100 0.266667
10 11 16 100 0.133333
11 11 16 100 0.333096
12 11 16 100 0.0666691
13 11 16 100 2.40876e-06
14 11 16 100 0.0666639
0 12 16 100 0.00212011
3 12 16 100 2.6981e-06
4 12 16 100 6.39585e-06
8 12 16 100 0.0666444
9 12 16 100 0.0666885
10 12 16 100 0.199625
11 12 16 100 0.132356
12 12 16 100 0.266659
13 12 16 100 0.0666667
14 12 16 100 0.133333
15 12 16 100 0.0658965
16 12 16 100 9.91589e-07
0 13 16 100 0.133415
2 13 16 100 0.000537545
8 13 16 100 0.000493681
11 13 16 100 0.133333
12 13 16 100 0.133349
13 13 16 100 0.332577
14 13 16 100 0.133333
15 13 16 100 0.066294
16 13 16 100 0.0666667
0 14 16 100 3.63992e-05
9 14 16 100 0.0714286
10 14 16 100 0.142857
11 14 16 100 0.0714286
12 14 16 100 0.142857
13 14 16 100 0.142854
14 14 16 100 0.285709
15 14 16 100 0.0714006
16 14 16 100 0.0714286
0 15 16 100 0.00117933
10 15 16 100 0.0833331
11 15 16 100 0.0833334
12 15 16 100 0.0833334
13 15 16 100 0.166667
14 15 16 100 0.165488
15 15 16 100 0.333332
16 15 16 100 0.0833346
0 16 16 100 0.0909091
12 16 16 100 0.0909091
13 16 16 100 0.0909091
14 16 16 100 0.18178
15 16 16 100 0.272266
16 16 16 100 0.273226
0 17 16 100 0.150156
2 17 16 100 6.38016e-06
5 17 16 100 6.38878e-06
13 17 16 100 0.142857
14 17 16 100 0.142917
15 17 16 100 0.285655
16 17 16 100 0.278403
0 18 16 100 0.333329
7 18 16 100 7.12488e-06
14 18 16 100 0.33333
16 18 16 100 0.333333
0 19 16 100 9.18294e-06
15 19 16 100 0.749991
16 19 16 100 0.25
0 20 16 100 1.07471e-05
16 20 16 100 0.999989
16 21 16 100 1
0 1 17 100 4.11637e-05
1 1 17 100 0.999959
0 2 17 100 0.00137361
2 2 17 100 0.998626
3 2 17 100 8.77749e-07
0 3 17 100 0.00171213
2 3 17 100 8.77749e-07
3 3 17 100 0.998287
0 4 17 100 0.0955308
4 4 17 100 0.856801
5 4 17 100 0.0476191
13 4 17 100 4.67005e-05
16 4 17 100 2.13598e-06
0 5 17 100 0.00345607
4 5 17 100 0.235101
5 5 17 100 0.713824
6 5 17 100 0.0476189
0 6 17 100 0.00996568
4 6 17 100 0.0476232
5 6 17 100 0.190451
6 6 17 100 0.665809
7 6 17 100 0.0476191
13 6 17 100 0.0385317
0 7 17 100 0.0936492
3 7 17 100 4.75209e-06
5 7 17 100 0.0476191
6 7 17 100 0.0476191
7 7 17 100 0.75998
8 7 17 100 0.0511275
0 8 17 100 0.000597124
5 8 17 100 0.0473299
6 8 17 100 0.0476191
8 8 17 100 0.761598
9 8 17 100 0.142856
0 9 17 100 0.000916021
6 9 17 100 0.0476037
7 9 17 100 0.0476191
9 9 17 100 0.713396
10 9 17 100 0.0952269
14 9 17 100 0.0476191
17 9 17 100 0.0476191
0 10 17 100 0.000104918
7 10 17 100 0.047619
8 10 17 100 0.047619
9 10 17 100 0.0370103
10 10 17 100 0.724788
11 10 17 100 0.0476206
15 10 17 100 0.0316879
16 10 17 100 0.0157467
17 10 17 100 0.0478034
0 11 17 100 0.000734649
8 11 17 100 0.0476191
9 11 17 100 0.0476191
10 11 17 100 0.0952385
11 11 17 100 0.665934
12 11 17 100 0.0476189
15 11 17 100 0.000184358
16 11 17 100 0.0157467
17 11 17 100 0.0793048
0 12 17 100 4.82644e-05
9 12 17 100 0.0476178
10 12 17 100 0.0952374
12 12 17 100 0.666661
13 12 17 100 0.142857
17 12 17 100 0.0475786
0 13 17 100 0.155298
4 13 17 100 3.02257e-06
10 13 17 100 0.047619
11 13 17 100 0.0476191
13 13 17 100 0.480071
14 13 17 100 0.22177
15 13 17 100 1.09629e-06
17 13 17 100 0.0476191
0 14 17 100 0.00077856
5 14 17 100 0.05
11 14 17 100 0.0997689
12 14 17 100 0.05
13 14 17 100 0.1
14 14 17 100 0.499701
15 14 17 100 0.149999
17 14 17 100 0.049753
0 15 17 100 0.0565942
6 15 17 100 0.0499964
12 15 17 100 0.05
13 15 17 100 0.0502398
14 15 17 100 0.143183
15 15 17 100 0.449987
16 15 17 100 0.149999
17 15 17 100 0.0500005
0 16 17 100 0.10001
7 16 17 100 0.0499955
13 16 17 100 0.0500492
14 16 17 100 0.149962
15 16 17 100 0.0999877
16 16 17 100 0.399996
17 16 17 100 0.15
0 17 17 100 0.00590586
8 17 17 100 0.0496516
12 17 17 100 0.0555555
14 17 17 100 0.11111
15 17 17 100 0.111113
16 17 17 100 0.166664
17 17 17 100 0.5
0 18 17 100 0.000561912
9 18 17 100 0.0909091
13 18 17 100 0.0907166
15 18 17 100 0.0909091
16 18 17 100 0.272358
17 18 17 100 0.454545
0 19 17 100 3.42137e-06
10 19 17 100 0.125
14 19 17 100 0.124997
16 19 17 100 0.125
17 19 17 100 0.625
11 20 17 100 0.25
15 20 17 100 0.25
17 20 17 100 0.5
12 21 17 100 0.5
16 21 17 100 0.5
0 22 17 100 5.29618e-06
14 22 17 100 0.499995
17 22 17 100 0.5
0 23 17 100 3.79808e-05
15 23 17 100 0.999962
16 24 17 100 1
17 25 17 100 1
0 1 18 100 1.41867e-05
1 1 18 100 0.999986
0 2 18 100 0.00152011
2 2 18 100 0.99848
0 3 18 100 0.0694084
3 3 18 100 0.93054
4 3 18 100 5.13919e-05
0 4 18 100 0.142548
3 4 18 100 5.13919e-05
4 4 18 100 0.857401
0 5 18 100 0.00164124
4 5 18 100 0.142857
5 5 18 100 0.784067
6 5 18 100 5.80007e-06
11 5 18 100 0.0713863
18 5 18 100 4.22844e-05
0 6 18 100 0.00148791
5 6 18 100 0.142863
6 6 18 100 0.784221
12 6 18 100 0.0714286
0 7 18 100 0.0719559
6 7 18 100 0.142815
7 7 18 100 0.785229
0 8 18 100 0.00243907
4 8 18 100 0.0714286
7 8 18 100 0.142748
8 8 18 100 0.783384
0 9 18 100 0.00123617
5 9 18 100 0.0714286
7 9 18 100 0.0714286
8 9 18 100 0.0714286
9 9 18 100 0.784478
0 10 18 100 0.000477688
6 10 18 100 0.0714285
8 10 18 100 0.0711904
9 10 18 100 0.0714286
10 10 18 100 0.785475
0 11 18 100 0.000635067
6 11 18 100 0.0714286
9 11 18 100 0.0714286
10 11 18 100 0.0714069
11 11 18 100 0.785101
0 12 18 100 0.00154687
7 12 18 100 0.0714155
10 12 18 100 0.0714307
11 12 18 100 0.0714252
12 12 18 100 0.784182
0 13 18 100 8.18527e-05
8 13 18 100 0.0713642
11 13 18 100 0.0714286
12 13 18 100 0.0714286
13 13 18 100 0.714274
18 13 18 100 0.0714226
0 14 18 100 0.00222697
9 14 18 100 0.0714286
12 14 18 100 0.0714286
13 14 18 100 0.0714286
14 14 18 100 0.783486
15 14 18 100 8.95378e-07
0 15 18 100 0.00140175
10 15 18 100 0.0714286
13 15 18 100 0.0713401
14 15 18 100 0.0701485
15 15 18 100 0.785681
0 16 18 100 0.0714494
14 16 18 100 0.0714286
15 16 18 100 0.142836
16 16 18 100 0.714286
0 17 18 100 0.000518161
11 17 18 100 0.0708864
15 17 18 100 0.142853
16 17 18 100 0.0713634
17 17 18 100 0.713837
18 17 18 100 0.000541886
0 18 18 100 0.140216
3 18 18 100 4.33442e-06
5 18 18 100 4.32969e-06
6 18 18 100 2.36516e-06
12 18 18 100 0.0714286
15 18 18 100 0.0714286
16 18 18 100 1.21366e-06
17 18 18 100 0.0740392
18 18 18 100 0.642875
0 19 18 100 5.4114e-06
13 19 18 100 0.142857
16 19 18 100 0.142857
17 19 18 100 0.142849
18 19 18 100 0.571432
0 20 18 100 8.1685e-06
14 20 18 100 0.333333
16 20 18 100 0.333375
17 20 18 100 0.333283
15 21 18 100 0.333333
17 21 18 100 0.333333
18 21 18 100 0.333333
0 22 18 100 0.499985
8 22 18 100 1.54892e-05
16 22 18 100 0.5
17 23 18 100 0.5
18 23 18 100 0.5
11 24 18 100 0.000199917
18 24 18 100 0.9998
0 1 19 100 0.0586466
1 1 19 100 0.882356
2 1 19 100 0.0588235
4 1 19 100 0.000172604
5 1 19 100 1.64546e-06
0 2 19 100 0.0615108
2 2 19 100 0.820842
3 2 19 100 0.117647
0 3 19 100 0.049042
2 3 19 100 0.0588235
3 3 19 100 0.774486
4 3 19 100 0.117648
0 4 19 100 0.000176855
3 4 19 100 0.0588248
4 4 19 100 0.764528
5 4 19 100 0.117647
7 4 19 100 0.0588236
0 5 19 100 9.58118e-05
4 5 19 100 0.0588235
5 5 19 100 0.705813
6 5 19 100 0.11762
7 5 19 100 0.0588235
11 5 19 100 0.0588235
0 6 19 100 0.000447304
4 6 19 100 0.0283016
5 6 19 100 0.14805
6 6 19 100 0.588584
7 6 19 100 0.175793
12 6 19 100 0.0588235
0 7 19 100 0.000691777
5 7 19 100 0.0588235
6 7 19 100 0.117647
7 7 19 100 0.646367
8 7 19 100 0.176471
0 8 19 100 0.00101312
6 8 19 100 0.1142
7 8 19 100 0.127744
8 8 19 100 0.473897
9 8 19 100 0.17637
19 8 19 100 0.106775
0 9 19 100 0.114158
6 9 19 100 0.00344689
7 9 19 100 0.0588235
8 9 19 100 0.172701
9 9 19 100 0.415662
10 9 19 100 0.176385
19 9 19 100 0.0588235
0 10 19 100 0.00926535
8 10 19 100 0.0593557
9 10 19 100 0.284398
10 10 19 100 0.411765
11 10 19 100 0.117637
12 10 19 100 0.0587699
13 10 19 100 1.91394e-06
19 10 19 100 0.058807
0 11 19 100 0.0597921
5 11 19 100 1.92744e-06
8 11 19 100 0.0579947
9 11 19 100 0.117647
10 11 19 100 0.176456
11 11 19 100 0.470561
12 11 19 100 0.0587264
13 11 19 100 0.0588193
14 11 19 100 1.94842e-06
0 12 19 100 3.10583e-06
9 12 19 100 0.0588235
10 12 19 100 0.117661
11 12 19 100 0.176456
12 12 19 100 0.470585
13 12 19 100 0.0588255
14 12 19 100 0.0588187
19 12 19 100 0.0588264
0 13 19 100 0.0012256
10 13 19 100 0.0588235
11 13 19 100 0.117647
12 13 19 100 0.235267
13 13 19 100 0.411791
14 13 19 100 0.0588235
15 13 19 100 0.0580264
19 13 19 100 0.0583951
0 14 19 100 0.000377693
10 14 19 100 0.0588235
11 14 19 100 0.0588235
12 14 19 100 0.176497
13 14 19 100 0.176444
14 14 19 100 0.352563
15 14 19 100 0.0588235
16 14 19 100 0.0588235
19 14 19 100 0.0588235
0 15 19 100 0.0608823
11 15 19 100 0.0588235
12 15 19 100 0.0588235
13 15 19 100 0.175431
14 15 19 100 0.117642
15 15 19 100 0.351887
16 15 19 100 0.0588634
17 15 19 100 0.0588235
19 15 19 100 0.0588235
0 16 19 100 0.000523864
12 16 19 100 0.0625
13 16 19 100 0.125
14 16 19 100 0.25
15 16 19 100 0.125042
16 16 19 100 0.374393
17 16 19 100 0.0625414
0 17 19 100 0.0630372
13 17 19 100 0.0625
14 17 19 100 0.125
15 17 19 100 0.187492
16 17 19 100 0.187012
17 17 19 100 0.374959
0 18 19 100 0.0837184
14 18 19 100 0.0625
15 18 19 100 0.105114
16 18 19 100 0.125
17 18 19 100 0.216273
18 18 19 100 0.407395
0 19 19 100 0.000355727
15 19 19 100 0.0625
16 19 19 100 0.125
17 19 19 100 0.0621814
18 19 19 100 0.3125
19 19 19 100 0.437463
0 20 19 100 0.00298828
16 20 19 100 0.180059
17 20 19 100 0.0896804
18 20 19 100 0.0909091
19 20 19 100 0.636364
0 21 19 100 0.000334409
17 21 19 100 0.499667
18 21 19 100 0.25
19 21 19 100 0.249999
18 22 19 100 0.666667
19 22 19 100 0.333333
19 23 19 100 1
0 1 20 100 2.56193e-05
1 1 20 100 0.999972
2 1 20 100 1.92446e-06
0 2 20 100 0.000691851
1 2 20 100 0.0344828
2 2 20 100 0.861688
3 2 20 100 0.0341715
19 2 20 100 0.0344828
20 2 20 100 0.0344828
0 3 20 100 0.0352592
2 3 20 100 0.0698862
3 3 20 100 0.791405
4 3 20 100 0.0689673
20 3 20 100 0.0344828
0 4 20 100 0.0480564
2 4 20 100 0.0244845
3 4 20 100 0.113449
4 4 20 100 0.745808
5 4 20 100 0.0344837
6 4 20 100 0.0337174
12 4 20 100 1.14676e-06
0 5 20 100 0.000788194
4 5 20 100 0.137931
5 5 20 100 0.619902
6 5 20 100 0.206896
20 5 20 100 0.0344828
0 6 20 100 0.0352931
5 6 20 100 0.172377
6 6 20 100 0.585575
7 6 20 100 0.13779
20 6 20 100 0.0689655
0 7 20 100 0.0354252
5 7 20 100 0.0689838
6 7 20 100 0.172414
7 7 20 100 0.585407
8 7 20 100 0.103287
20 7 20 100 0.0344828
0 8 20 100 9.29898e-05
6 8 20 100 0.0344828
7 8 20 100 0.241388
8 8 20 100 0.517217
9 8 20 100 0.172336
10 8 20 100 5.85117e-07
20 8 20 100 0.0344828
0 9 20 100 0.0348981
4 9 20 100 9.61161e-07
5 9 20 100 0.0344818
7 9 20 100 0.0344828
8 9 20 100 0.17242
9 9 20 100 0.482406
10 9 20 100 0.206825
14 9 20 100 7.61874e-07
20 9 20 100 0.0344847
0 10 20 100 0.0632895
5 10 20 100 0.0344833
8 10 20 100 0.0343999
9 10 20 100 0.206893
10 10 20 100 0.482381
11 10 20 100 0.143966
12 10 20 100 2.16269e-05
20 10 20 100 0.0345656
0 11 20 100 0.0444171
6 11 20 100 0.0233062
7 11 20 100 0.0689685
9 11 20 100 0.0344818
10 11 20 100 0.204487
11 11 20 100 0.484143
12 11 20 100 0.137932
20 11 20 100 0.00226496
0 12 20 100 0.100646
7 12 20 100 0.0344828
8 12 20 100 0.0342145
10 12 20 100 0.0352553
11 12 20 100 0.240887
12 12 20 100 0.382263
13 12 20 100 0.137768
20 12 20 100 0.0344828
0 13 20 100 0.0416905
5 13 20 100 1.36096e-06
8 13 20 100 0.0344828
9 13 20 100 0.0344828
11 13 20 100 0.136002
12 13 20 100 0.271116
13 13 20 100 0.378924
14 13 20 100 0.0688172
20 13 20 100 0.0344828
0 14 20 100 0.000143214
7 14 20 100 1.32241e-05
9 14 20 100 0.0344828
10 14 20 100 0.0689514
11 14 20 100 1.16867e-06
12 14 20 100 0.137927
13 14 20 100 0.24138
14 14 20 100 0.413653
15 14 20 100 0.0689655
17 14 20 100 0.0344828
0 15 20 100 0.00206436
10 15 20 100 0.0344677
11 15 20 100 0.0344978
13 15 20 100 0.137921
14 15 20 100 0.239653
15 15 20 100 0.413687
16 15 20 100 0.0859947
17 15 20 100 0.0517143
0 16 20 100 0.034609
7 16 20 100 8.39505e-06
10 16 20 100 1.5045e-05
11 16 20 100 0.0344677
12 16 20 100 0.0344828
14 16 20 100 0.137846
15 16 20 100 0.275862
16 16 20 100 0.380308
17 16 20 100 0.0679183
18 16 20 100 0.0344828
0 17 20 100 0.0354126
3 17 20 100 8.96958e-07
5 17 20 100 0.000188653
8 17 20 100 1.36303e-06
11 17 20 100 2.11513e-06
12 17 20 100 0.0344828
13 17 20 100 0.034481
14 17 20 100 2.04185e-06
15 17 20 100 0.172414
16 17 20 100 0.309671
17 17 20 100 0.24093
18 17 20 100 0.137931
19 17 20 100 0.0344828
0 18 20 100 0.0337208
11 18 20 100 0.0344828
13 18 20 100 0.0344821
14 18 20 100 0.068962
16 18 20 100 0.172423
17 18 20 100 0.241362
18 18 20 100 0.227123
19 18 20 100 0.103447
20 18 20 100 0.0839985
0 19 20 100 0.00172773
12 19 20 100 0.037037
14 19 20 100 0.0370351
15 19 20 100 0.0366741
17 19 20 100 0.222221
18 19 20 100 0.36972
19 19 20 100 0.184473
20 19 20 100 0.111111
0 20 20 100 0.0481274
3 20 20 100 1.04197e-06
9 20 20 100 5.35698e-07
13 20 20 100 0.0416474
15 20 20 100 0.0416667
16 20 20 100 0.0416667
17 20 20 100 0.0416667
18 20 20 100 0.208262
19 20 20 100 0.326962
20 20 20 100 0.25
0 21 20 100 6.38451e-07
14 21 20 100 0.0526315
16 21 20 100 0.0526316
17 21 20 100 0.157895
18 21 20 100 0.0526316
19 21 20 100 0.157895
20 21 20 100 0.526315
0 22 20 100 0.00621879
14 22 20 100 0.124999
17 22 20 100 0.125
18 22 20 100 0.368782
19 22 20 100 0.125
20 22 20 100 0.25
0 23 20 100 0.000133016
15 23 20 100 0.166639
18 23 20 100 0.166561
19 23 20 100 0.5
20 23 20 100 0.166667
0 24 20 100 0.399995
7 24 20 100 2.61198e-05
19 24 20 100 0.199979
20 24 20 100 0.4
16 25 20 100 0.333333
20 25 20 100 0.666667
0 26 20 100 0.00715391
17 26 20 100 0.5
20 26 20 100 0.492846
18 27 20 100 0.5
20 27 20 100 0.5
0 28 20 100 0.00257868
19 28 20 100 0.997421
20 29 20 100 1
0 1 21 100 0.0687788
1 1 21 100 0.857184
2 1 21 100 0.0714294
3 1 21 100 0.00260335
10 1 21 100 1.05167e-06
13 1 21 100 1.16775e-06
14 1 21 100 1.14948e-06
16 1 21 100 1.13306e-06
0 2 21 100 0.00134509
1 2 21 100 0.0714059
2 2 21 100 0.838124
3 2 21 100 0.0534107
4 2 21 100 0.0357143
0 3 21 100 0.0725116
1 3 21 100 0.0357125
2 3 21 100 0.107097
3 3 21 100 0.713249
4 3 21 100 0.071423
5 3 21 100 5.57382e-06
19 3 21 100 6.50623e-07
21 3 21 100 4.07346e-07
0 4 21 100 0.00144675
2 4 21 100 0.0357102
3 4 21 100 0.178528
4 4 21 100 0.677176
5 4 21 100 0.0714238
6 4 21 100 8.21366e-07
17 4 21 100 0.0357143
0 5 21 100 0.0417275
2 5 21 100 1.19845e-06
3 5 21 100 0.0330888
4 5 21 100 0.142836
5 5 21 100 0.571218
6 5 21 100 0.071426
7 5 21 100 0.0357143
8 5 21 100 0.0325592
13 5 21 100 0.0178573
16 5 21 100 0.0357143
20 5 21 100 0.017857
0 6 21 100 0.000877053
4 6 21 100 0.1068
5 6 21 100 0.142839
6 6 21 100 0.570937
7 6 21 100 0.106658
9 6 21 100 0.0361742
21 6 21 100 0.0357143
0 7 21 100 0.0360871
5 7 21 100 0.0714286
6 7 21 100 0.107175
7 7 21 100 0.606738
8 7 21 100 0.0714286
9 7 21 100 0.0357143
10 7 21 100 0.0357143
18 7 21 100 0.0357143
0 8 21 100 0.0373162
5 8 21 100 0.0343797
6 8 21 100 0.0714288
7 8 21 100 0.107143
8 8 21 100 0.499685
9 8 21 100 0.0357143
10 8 21 100 0.0357155
11 8 21 100 0.0357155
12 8 21 100 0.0357143
15 8 21 100 8.96744e-07
16 8 21 100 4.48966e-05
17 8 21 100 0.0357143
21 8 21 100 0.0714278
0 9 21 100 0.0752225
3 9 21 100 7.34715e-07
4 9 21 100 1.0431e-06
5 9 21 100 2.82281e-06
6 9 21 100 0.0370399
7 9 21 100 0.110622
8 9 21 100 0.259336
9 9 21 100 0.443567
10 9 21 100 0.0370543
11 9 21 100 0.0370734
18 9 21 100 5.06569e-07
19 9 21 100 1.52738e-06
21 9 21 100 7.84014e-05
0 10 21 100 0.0742973
7 10 21 100 0.0740728
8 10 21 100 0.0740741
9 10 21 100 0.148077
10 10 21 100 0.444297
11 10 21 100 0.0740694
12 10 21 100 0.074075
13 10 21 100 0.037037
0 11 21 100 0.00236338
7 11 21 100 0.0370371
8 11 21 100 0.0721399
9 11 21 100 0.148148
10 11 21 100 0.222038
11 11 21 100 0.369127
12 11 21 100 0.0750731
13 11 21 100 0.0740712
14 11 21 100 2.93451e-06
0 12 21 100 0.0357606
7 12 21 100 0.037037
9 12 21 100 0.037037
10 12 21 100 0.148101
11 12 21 100 0.186669
12 12 21 100 0.37021
13 12 21 100 0.148152
14 12 21 100 0.0370341
0 13 21 100 0.0010413
9 13 21 100 0.037037
10 13 21 100 0.0725605
11 13 21 100 0.112621
12 13 21 100 0.222222
13 13 21 100 0.407407
14 13 21 100 0.110698
15 13 21 100 0.0364119
0 14 21 100 0.0447863
5 14 21 100 5.06903e-07
6 14 21 100 5.06903e-07
8 14 21 100 5.06569e-07
10 14 21 100 0.037037
11 14 21 100 0.0745073
12 14 21 100 0.147736
13 14 21 100 0.213712
14 14 21 100 0.369613
15 14 21 100 0.0754909
16 14 21 100 0.0370371
18 14 21 100 5.26184e-07
21 14 21 100 7.84014e-05
0 15 21 100 0.0374443
11 15 21 100 0.074076
12 15 21 100 0.111108
13 15 21 100 0.0740814
14 15 21 100 0.221819
15 15 21 100 0.37036
16 15 21 100 0.0740743
17 15 21 100 0.037037
0 16 21 100 0.0768312
5 16 21 100 2.09615e-06
6 16 21 100 9.49695e-07
8 16 21 100 3.72923e-06
10 16 21 100 1.449e-06
11 16 21 100 1.31464e-06
12 16 21 100 0.0370393
13 16 21 100 0.116191
14 16 21 100 0.0740731
15 16 21 100 0.177685
16 16 21 100 0.370354
17 16 21 100 0.110778
18 16 21 100 0.0370371
19 16 21 100 1.1527e-06
0 17 21 100 0.138832
2 17 21 100 2.03109e-06
4 17 21 100 0.037037
5 17 21 100 5.06903e-07
6 17 21 100 5.06903e-07
8 17 21 100 5.06569e-07
11 17 21 100 5.06569e-07
12 17 21 100 2.84651e-06
13 17 21 100 0.0740669
14 17 21 100 0.0741175
15 17 21 100 0.111138
16 17 21 100 0.148148
17 17 21 100 0.331752
18 17 21 100 0.0477857
19 17 21 100 0.037037
21 17 21 100 7.84014e-05
0 18 21 100 0.000896843
11 18 21 100 0.0370366
13 18 21 100 7.1589e-06
14 18 21 100 0.0740669
15 18 21 100 0.111111
16 18 21 100 0.148074
17 18 21 100 0.185186
18 18 21 100 0.296296
19 18 21 100 0.111111
20 18 21 100 0.036214
0 19 21 100 0.111405
11 19 21 100 2.75728e-06
14 19 21 100 1.34162e-06
15 19 21 100 0.0740711
16 19 21 100 0.110973
17 19 21 100 0.111111
18 19 21 100 0.148146
19 19 21 100 0.296143
20 19 21 100 0.111111
21 19 21 100 0.0370371
0 20 21 100 0.00215072
16 20 21 100 0.0400013
17 20 21 100 0.199982
18 20 21 100 0.12
19 20 21 100 0.159841
20 20 21 100 0.398025
21 20 21 100 0.08
0 21 21 100 0.00117235
17 21 21 100 0.0434783
18 21 21 100 0.217296
19 21 21 100 0.130201
20 21 21 100 0.173128
21 21 21 100 0.434724
0 22 21 100 0.00113714
3 22 21 100 0.000857017
18 22 21 100 0.0714286
19 22 21 100 0.355149
20 22 21 100 0.214286
21 22 21 100 0.357143
0 23 21 100 0.000836064
19 23 21 100 0.0909091
20 23 21 100 0.453712
21 23 21 100 0.454542
20 24 21 100 0.125
21 24 21 100 0.875
21 25 21 100 1
21 26 21 100 1
0 1 22 100 1.00499e-05
1 1 22 100 0.965551
2 1 22 100 0.0344394
0 2 22 100 0.0689159
1 2 22 100 0.103632
2 2 22 100 0.724025
3 2 22 100 0.103345
8 2 22 100 4.65975e-07
14 2 22 100 1.18126e-06
17 2 22 100 7.63532e-05
18 2 22 100 3.90075e-06
21 2 22 100 4.42808e-07
0 3 22 100 0.103675
2 3 22 100 0.103469
3 3 22 100 0.689406
4 3 22 100 0.103448
10 3 22 100 8.16031e-07
17 3 22 100 9.23507e-07
0 4 22 100 0.00804924
1 4 22 100 0.0344828
2 4 22 100 0.0344828
3 4 22 100 0.164815
4 4 22 100 0.551422
5 4 22 100 0.172266
22 4 22 100 0.034482
0 5 22 100 0.0367644
2 5 22 100 0.03448
3 5 22 100 0.0344828
4 5 22 100 0.205382
5 5 22 100 0.516477
6 5 22 100 0.172414
0 6 22 100 0.035566
3 6 22 100 0.0344816
4 6 22 100 0.0344828
5 6 22 100 0.241378
6 6 22 100 0.481682
7 6 22 100 0.103472
8 6 22 100 0.0689363
11 6 22 100 8.07929e-07
0 7 22 100 0.000715451
2 7 22 100 0.0344821
3 7 22 100 0.0344826
4 7 22 100 0.0344835
5 7 22 100 0.0345563
6 7 22 100 0.241258
7 7 22 100 0.482758
8 7 22 100 0.0682987
9 7 22 100 0.0689656
0 8 22 100 0.103386
4 8 22 100 1.14082e-06
5 8 22 100 0.0344828
6 8 22 100 0.0689656
7 8 22 100 0.241844
8 8 22 100 0.343559
9 8 22 100 0.103532
10 8 22 100 0.0689666
13 8 22 100 0.0344828
22 8 22 100 0.000780763
0 9 22 100 0.0344874
7 9 22 100 0.137931
8 9 22 100 0.310344
9 9 22 100 0.310403
10 9 22 100 0.103386
11 9 22 100 0.0689655
13 9 22 100 0.0344828
0 10 22 100 0.069836
5 10 22 100 0.0344828
6 10 22 100 1.6441e-06
8 10 22 100 0.172323
9 10 22 100 0.275856
10 10 22 100 0.240603
11 10 22 100 0.103448
12 10 22 100 0.0689654
17 10 22 100 4.82258e-07
20 10 22 100 1.03221e-06
22 10 22 100 0.0344828
0 11 22 100 0.0350681
3 11 22 100 1.26826e-06
7 11 22 100 0.0689655
8 11 22 100 0.0344856
9 11 22 100 0.172083
10 11 22 100 0.310206
11 11 22 100 0.137931
12 11 22 100 0.13781
13 11 22 100 0.0689655
22 11 22 100 0.0344828
0 12 22 100 0.00051691
8 12 22 100 0.0689655
9 12 22 100 0.0689502
10 12 22 100 0.172427
11 12 22 100 0.275513
12 12 22 100 0.206732
13 12 22 100 0.137931
14 12 22 100 0.0689655
0 13 22 100 0.0347181
4 13 22 100 6.93158e-07
9 13 22 100 0.0688275
10 13 22 100 0.0689502
11 13 22 100 0.13793
12 13 22 100 0.275862
13 13 22 100 0.137927
14 13 22 100 0.172335
15 13 22 100 0.0689663
22 13 22 100 0.0344827
0 14 22 100 0.00859365
10 14 22 100 0.0689625
11 14 22 100 0.0689667
12 14 22 100 0.137154
13 14 22 100 0.240276
14 14 22 100 0.138501
15 14 22 100 0.172309
16 14 22 100 0.0617879
19 14 22 100 3.85478e-07
21 14 22 100 0.0689655
22 14 22 100 0.0344828
0 15 22 100 0.000607801
10 15 22 100 1.15077e-06
11 15 22 100 0.068962
12 15 22 100 0.0686356
13 15 22 100 0.137926
14 15 22 100 0.24138
15 15 22 100 0.172148
16 15 22 100 0.206892
17 15 22 100 0.0344828
22 15 22 100 0.0689652
0 16 22 100 0.032456
8 16 22 100 8.95884e-07
12 16 22 100 0.108103
13 16 22 100 0.0689655
14 16 22 100 0.172414
15 16 22 100 0.241375
16 16 22 100 0.17241
17 16 22 100 0.174398
18 16 22 100 0.0298299
20 16 22 100 9.09948e-06
21 16 22 100 3.90667e-05
0 17 22 100 0.0351112
11 17 22 100 1.08459e-06
13 17 22 100 0.103448
14 17 22 100 0.0689655
15 17 22 100 0.172167
16 17 22 100 0.206871
17 17 22 100 0.172084
18 17 22 100 0.172394
19 17 22 100 0.0344839
20 17 22 100 0.0344737
0 18 22 100 0.000961008
14 18 22 100 0.103448
15 18 22 100 0.0689885
16 18 22 100 0.240562
17 18 22 100 0.172407
18 18 22 100 0.181766
19 18 22 100 0.128419
20 18 22 100 0.0344828
21 18 22 100 0.0344828
22 18 22 100 0.0344828
0 19 22 100 0.00209055
15 19 22 100 0.106898
16 19 22 100 0.0714286
17 19 22 100 0.249703
18 19 22 100 0.178191
19 19 22 100 0.213068
20 19 22 100 0.107191
21 19 22 100 0.0714286
0 20 22 100 0.0369908
16 20 22 100 0.111111
17 20 22 100 0.092158
18 20 22 100 0.240558
19 20 22 100 0.16005
20 20 22 100 0.248027
21 20 22 100 0.111106
0 21 22 100 0.111076
2 21 22 100 6.8064e-07
3 21 22 100 6.25211e-07
9 21 22 100 9.01749e-07
13 21 22 100 0.0370371
17 21 22 100 0.111104
18 21 22 100 0.11115
19 21 22 100 0.111117
20 21 22 100 0.148143
21 21 22 100 0.222222
22 21 22 100 0.148148
0 22 22 100 0.000287147
17 22 22 100 7.92234e-06
18 22 22 100 0.130427
19 22 22 100 0.217391
20 22 22 100 0.13043
21 22 22 100 0.217391
22 22 22 100 0.304066
0 23 22 100 0.0608503
4 23 22 100 0.0588231
19 23 22 100 0.116505
20 23 22 100 0.293239
21 23 22 100 0.117647
22 23 22 100 0.352935
0 24 22 100 0.153822
17 24 22 100 1.46234e-06
20 24 22 100 0.153846
21 24 22 100 0.461562
22 24 22 100 0.230769
0 25 22 100 0.00228976
21 25 22 100 0.199883
22 25 22 100 0.797827
0 26 22 100 0.203351
22 26 22 100 0.796649
0 27 22 100 0.000560462
21 27 22 100 0.666106
22 27 22 100 0.333333
0 28 22 100 0.0136149
20 28 22 100 0.00250831
21 28 22 100 0.319718
22 28 22 100 0.664158
22 29 22 100 1
0 1 23 100 0.000447901
1 1 23 100 0.948268
2 1 23 100 2.11395e-06
6 1 23 100 0.025641
18 1 23 100 0.025641
0 2 23 100 0.0290468
1 2 23 100 2.03728e-06
2 2 23 100 0.94531
18 2 23 100 0.025641
0 3 23 100 0.027103
2 3 23 100 0.102535
3 3 23 100 0.793437
4 3 23 100 0.0256429
7 3 23 100 0.025641
19 3 23 100 0.025641
0 4 23 100 0.0274885
1 4 23 100 0.025641
3 4 23 100 0.17742
4 4 23 100 0.743799
5 4 23 100 0.0256517
0 5 23 100 0.0517428
2 5 23 100 0.0256417
4 5 23 100 0.180013
5 5 23 100 0.691334
6 5 23 100 0.0256466
8 5 23 100 0.0256205
10 5 23 100 5.99465e-07
15 5 23 100 7.31496e-07
18 5 23 100 7.03785e-07
0 6 23 100 0.0773538
3 6 23 100 0.025604
5 6 23 100 0.230705
6 6 23 100 0.588842
7 6 23 100 0.0262085
9 6 23 100 0.025641
12 6 23 100 6.54546e-07
16 6 23 100 5.75639e-07
21 6 23 100 4.48124e-06
22 6 23 100 0.0256402
0 7 23 100 0.0516902
4 7 23 100 0.0256415
5 7 23 100 0.0256614
6 7 23 100 0.306963
7 7 23 100 0.490615
8 7 23 100 0.0737931
10 7 23 100 0.0256339
12 7 23 100 6.52713e-07
21 7 23 100 6.52826e-07
0 8 23 100 0.0611338
5 8 23 100 0.051282
7 8 23 100 0.306587
8 8 23 100 0.504083
9 8 23 100 0.0512713
11 8 23 100 0.025641
17 8 23 100 5.2776e-07
20 8 23 100 5.29896e-07
21 8 23 100 5.76307e-07
0 9 23 100 0.0154572
6 9 23 100 0.0510898
7 9 23 100 0.0351003
8 9 23 100 0.335102
9 9 23 100 0.460683
10 9 23 100 0.0769231
12 9 23 100 0.025641
21 9 23 100 3.15579e-06
0 10 23 100 0.0272286
1 10 23 100 4.52673e-07
7 10 23 100 0.0512821
8 10 23 100 0.025641
9 10 23 100 0.307341
10 10 23 100 0.485979
11 10 23 100 0.0512452
12 10 23 100 0.025641
13 10 23 100 0.025641
21 10 23 100 4.80035e-07
0 11 23 100 0.014481
7 11 23 100 0.0512821
8 11 23 100 0.025641
9 11 23 100 0.0376578
10 11 23 100 0.307227
11 11 23 100 0.461342
12 11 23 100 0.0511053
13 11 23 100 0.025641
14 11 23 100 0.0256228
0 12 23 100 0.0501724
3 12 23 100 7.3283e-07
8 12 23 100 0.050264
9 12 23 100 0.025641
10 12 23 100 0.0512676
11 12 23 100 0.336005
12 12 23 100 0.409729
13 12 23 100 0.025641
14 12 23 100 0.00043254
15 12 23 100 0.0508465
0 13 23 100 0.000912403
9 13 23 100 0.0256409
10 13 23 100 0.025641
11 13 23 100 0.102471
12 13 23 100 0.373214
13 13 23 100 0.369556
14 13 23 100 0.025641
16 13 23 100 0.0769231
0 14 23 100 0.0260593
10 14 23 100 0.0512821
11 14 23 100 0.0511032
12 14 23 100 0.102561
13 14 23 100 0.384496
14 14 23 100 0.333219
17 14 23 100 0.0512794
0 15 23 100 0.0460165
11 15 23 100 0.0512821
12 15 23 100 0.025641
13 15 23 100 0.133608
14 15 23 100 0.358959
15 15 23 100 0.333211
18 15 23 100 0.0512823
0 16 23 100 0.0780989
10 16 23 100 0.025641
11 16 23 100 2.15245e-06
12 16 23 100 0.0512663
13 16 23 100 0.025641
14 16 23 100 0.118876
15 16 23 100 0.255753
16 16 23 100 0.367802
19 16 23 100 0.0512768
20 16 23 100 3.57587e-06
23 16 23 100 0.0256389
0 17 23 100 0.129184
7 17 23 100 8.30063e-07
11 17 23 100 0.025641
12 17 23 100 5.87599e-07
13 17 23 100 0.0512892
14 17 23 100 8.23109e-06
15 17 23 100 0.179487
16 17 23 100 0.205415
17 17 23 100 0.357691
18 17 23 100 3.78672e-07
19 17 23 100 1.10845e-05
20 17 23 100 0.0512705
21 17 23 100 5.55514e-07
0 18 23 100 0.00175464
13 18 23 100 0.025641
14 18 23 100 0.0769218
15 18 23 100 0.0769103
16 18 23 100 0.153789
17 18 23 100 0.230686
18 18 23 100 0.331733
21 18 23 100 0.0512821
23 18 23 100 0.0512819
0 19 23 100 0.0565258
9 19 23 100 7.06578e-07
12 19 23 100 0.025641
14 19 23 100 0.022662
15 19 23 100 0.0767269
16 19 23 100 0.0764597
17 19 23 100 0.179487
18 19 23 100 0.204106
19 19 23 100 0.255825
20 19 23 100 6.1839e-06
23 19 23 100 0.102559
0 20 23 100 0.000249378
12 20 23 100 0.0277777
15 20 23 100 0.0555725
16 20 23 100 0.0555372
17 20 23 100 0.138885
18 20 23 100 0.138875
19 20 23 100 0.249916
20 20 23 100 0.305545
23 20 23 100 0.027642
0 21 23 100 0.00724672
12 21 23 100 0.0272326
13 21 23 100 0.0219128
16 21 23 100 0.0555537
17 21 23 100 0.0553611
18 21 23 100 0.138889
19 21 23 100 0.138749
20 21 23 100 0.221922
21 21 23 100 0.30547
22 21 23 100 0.0276637
0 22 23 100 0.0557309
6 22 23 100 5.48241e-07
11 22 23 100 5.24338e-07
14 22 23 100 0.0277778
15 22 23 100 5.14447e-07
16 22 23 100 1.73154e-06
17 22 23 100 0.055552
18 22 23 100 0.0555556
19 22 23 100 0.111057
20 22 23 100 0.138711
21 22 23 100 0.249906
22 22 23 100 0.277797
23 22 23 100 0.0279099
0 23 23 100 0.000462983
10 23 23 100 3.52016e-07
15 23 23 100 0.0285721
18 23 23 100 0.0571425
19 23 23 100 0.114058
20 23 23 100 0.142846
21 23 23 100 0.142766
22 23 23 100 0.228547
23 23 23 100 0.285606
0 24 23 100 0.075658
6 24 23 100 7.31045e-07
7 24 23 100 4.35371e-07
11 24 23 100 6.9207e-07
13 24 23 100 0.0361262
15 24 23 100 6.84651e-07
16 24 23 100 0.037037
19 24 23 100 0.0740741
20 24 23 100 0.11085
21 24 23 100 0.184677
22 24 23 100 0.148073
23 24 23 100 0.333502
0 25 23 100 0.00348544
16 25 23 100 0.0555556
18 25 23 100 0.0555556
20 25 23 100 0.0855129
21 25 23 100 0.166586
22 25 23 100 0.299972
23 25 23 100 0.333333
0 26 23 100 0.0666663
17 26 23 100 0.0666667
19 26 23 100 0.0666667
20 26 23 100 1.2727e-06
21 26 23 100 0.0666667
22 26 23 100 0.199999
23 26 23 100 0.533333
0 27 23 100 0.10048
18 27 23 100 0.0998021
19 27 23 100 1.27831e-06
21 27 23 100 0.1
22 27 23 100 0.0999357
23 27 23 100 0.599781
19 28 23 100 0.2
22 28 23 100 0.199991
23 28 23 100 0.600009
0 29 23 100 0.00584108
20 29 23 100 0.333333
23 29 23 100 0.660826
23 30 23 100 1
23 31 23 100 1
0 1 24 100 0.0347654
1 1 24 100 0.930752
2 1 24 100 0.0344827
0 2 24 100 0.0350458
1 2 24 100 2.82742e-06
2 2 24 100 0.827022
3 2 24 100 0.13793
0 3 24 100 0.00422787
2 3 24 100 0.0689655
3 3 24 100 0.756044
4 3 24 100 0.170762
0 4 24 100 0.0361427
1 4 24 100 0.0344399
3 4 24 100 0.0344828
4 4 24 100 0.690254
5 4 24 100 0.137931
7 4 24 100 0.0344828
17 4 24 100 5.89554e-07
24 4 24 100 0.0322664
0 5 24 100 0.0352556
3 5 24 100 0.0212939
4 5 24 100 0.0689655
5 5 24 100 0.667584
6 5 24 100 0.137936
9 5 24 100 0.0344828
24 5 24 100 0.0344828
0 6 24 100 0.00105845
4 6 24 100 0.0685268
5 6 24 100 0.0348796
6 6 24 100 0.723521
7 6 24 100 0.137568
24 6 24 100 0.0344457
0 7 24 100 0.00552987
3 7 24 100 0.0131889
5 7 24 100 0.0212939
6 7 24 100 0.0682307
7 7 24 100 0.687888
8 7 24 100 0.135673
10 7 24 100 0.033713
24 7 24 100 0.0344828
0 8 24 100 0.00593853
6 8 24 100 0.0993645
7 8 24 100 0.137933
8 8 24 100 0.618953
9 8 24 100 0.103328
11 8 24 100 0.0344828
0 9 24 100 0.000744413
6 9 24 100 0.0344828
7 9 24 100 0.13793
8 9 24 100 0.0689611
9 9 24 100 0.61995
10 9 24 100 0.103448
13 9 24 100 0.0344828
0 10 24 100 0.00261214
6 10 24 100 0.0344828
8 10 24 100 0.102736
9 10 24 100 0.0681875
10 10 24 100 0.619716
11 10 24 100 0.137783
14 10 24 100 0.0344828
0 11 24 100 0.00051419
9 11 24 100 0.0689655
10 11 24 100 0.152068
11 11 24 100 0.623366
12 11 24 100 0.120714
15 11 24 100 0.0343705
16 11 24 100 1.63515e-06
0 12 24 100 0.00313488
10 12 24 100 0.0689655
11 12 24 100 0.172414
12 12 24 100 0.583447
13 12 24 100 0.137557
16 12 24 100 0.0344827
0 13 24 100 0.0348558
2 13 24 100 0.0344827
11 13 24 100 0.0683046
12 13 24 100 0.172196
13 13 24 100 0.517746
14 13 24 100 0.137935
17 13 24 100 0.0344802
0 14 24 100 0.0698458
12 14 24 100 0.0344792
13 14 24 100 0.172418
14 14 24 100 0.5854
15 14 24 100 0.103373
18 14 24 100 0.0344836
0 15 24 100 0.000476894
2 15 24 100 3.23411e-06
12 15 24 100 0.0344825
13 15 24 100 0.0344828
14 15 24 100 0.206725
15 15 24 100 0.585901
16 15 24 100 0.0689624
17 15 24 100 0.0344828
19 15 24 100 0.0344828
0 16 24 100 0.0348948
13 16 24 100 0.0344742
14 16 24 100 0.10333
15 16 24 100 0.137734
16 16 24 100 0.517152
17 16 24 100 0.103448
18 16 24 100 0.0344828
20 16 24 100 0.0344828
0 17 24 100 0.0369918
8 17 24 100 0.0344828
14 17 24 100 0.0344827
15 17 24 100 0.104247
16 17 24 100 0.17225
17 17 24 100 0.481755
18 17 24 100 0.0343911
19 17 24 100 0.034484
21 17 24 100 0.0344828
24 17 24 100 0.0324325
0 18 24 100 0.0241956
9 18 24 100 0.0344828
15 18 24 100 0.0344828
16 18 24 100 0.137923
17 18 24 100 0.251853
18 18 24 100 0.379137
19 18 24 100 0.0689604
20 18 24 100 0.0344828
22 18 24 100 0.0344828
0 19 24 100 0.00357177
16 19 24 100 0.0689655
17 19 24 100 0.172286
18 19 24 100 0.240687
19 19 24 100 0.342692
20 19 24 100 0.103448
21 19 24 100 0.0344826
23 19 24 100 0.033868
0 20 24 100 0.00102213
14 20 24 100 5.2947e-07
17 20 24 100 0.103448
18 20 24 100 0.10345
19 20 24 100 0.241201
20 20 24 100 0.378469
21 20 24 100 0.137926
22 20 24 100 1.00173e-06
24 20 24 100 0.0344828
0 21 24 100 0.0375732
16 21 24 100 1.02581e-06
18 21 24 100 0.106763
19 21 24 100 0.142646
20 21 24 100 0.213461
21 21 24 100 0.356858
22 21 24 100 0.142697
0 22 24 100 0.00163929
19 22 24 100 0.142857
20 22 24 100 0.107143
21 22 24 100 0.249796
22 22 24 100 0.33538
23 22 24 100 0.141757
24 22 24 100 0.0214279
0 23 24 100 0.000455533
20 23 24 100 0.148148
21 23 24 100 0.111108
22 23 24 100 0.295849
23 23 24 100 0.296292
24 23 24 100 0.148148
0 24 24 100 0.00419506
18 24 24 100 1.12269e-06
21 24 24 100 0.173898
22 24 24 100 0.129855
23 24 24 100 0.347019
24 24 24 100 0.345031
0 25 24 100 0.00016947
22 25 24 100 0.266503
23 25 24 100 0.133329
24 25 24 100 0.599998
23 26 24 100 0.666666
24 26 24 100 0.333334
14 27 24 100 0.25
24 27 24 100 0.75
0 1 25 100 0.000210109
1 1 25 100 0.885741
2 1 25 100 0.0854767
3 1 25 100 9.41609e-07
25 1 25 100 0.0285714
0 2 25 100 0.00204839
1 2 25 100 5.07333e-06
2 2 25 100 0.686476
3 2 25 100 0.256965
11 2 25 100 1.54187e-06
23 2 25 100 0.0259326
25 2 25 100 0.0285714
0 3 25 100 0.0858265
1 3 25 100 0.0285715
2 3 25 100 0.0568363
3 3 25 100 0.656196
4 3 25 100 0.142855
5 3 25 100 0.0285737
6 3 25 100 8.56388e-07
25 3 25 100 0.00114005
0 4 25 100 0.0279455
2 4 25 100 0.0285714
3 4 25 100 0.0856237
4 4 25 100 0.629982
5 4 25 100 0.170733
6 4 25 100 0.0285714
9 4 25 100 0.0285714
11 4 25 100 6.95568e-07
25 4 25 100 3.2747e-07
0 5 25 100 0.0587885
3 5 25 100 0.0571376
4 5 25 100 0.0285714
5 5 25 100 0.655695
6 5 25 100 0.11422
7 5 25 100 0.0284411
8 5 25 100 0.0285714
11 5 25 100 0.0285714
14 5 25 100 6.7806e-07
18 5 25 100 1.48816e-06
24 5 25 100 8.61215e-07
25 5 25 100 8.61215e-07
0 6 25 100 0.0290625
4 6 25 100 0.0855428
5 6 25 100 0.0857143
6 6 25 100 0.628246
7 6 25 100 0.114291
8 6 25 100 0.0285714
9 6 25 100 0.0285714
14 6 25 100 6.77971e-07
0 7 25 100 0.0584985
4 7 25 100 0.0285715
5 7 25 100 0.0569517
6 7 25 100 0.142855
7 7 25 100 0.513176
8 7 25 100 0.114233
9 7 25 100 0.0285713
17 7 25 100 0.0285712
25 7 25 100 0.0285715
0 8 25 100 0.000204993
5 8 25 100 0.028568
6 8 25 100 0.0857126
7 8 25 100 0.114286
8 8 25 100 0.542659
9 8 25 100 0.199998
10 8 25 100 0.0285714
0 9 25 100 0.0588794
6 9 25 100 0.0285714
7 9 25 100 0.0856803
8 9 25 100 0.113981
9 9 25 100 0.370384
10 9 25 100 0.313931
12 9 25 100 0.0285711
18 9 25 100 5.83649e-07
20 9 25 100 5.74898e-07
24 9 25 100 7.3942e-07
0 10 25 100 0.031664
7 10 25 100 0.0285714
8 10 25 100 0.0856217
9 10 25 100 0.17073
10 10 25 100 0.370771
11 10 25 100 0.255499
13 10 25 100 0.0285714
25 10 25 100 0.0285714
0 11 25 100 0.0294918
8 11 25 100 0.0285714
9 11 25 100 0.114213
10 11 25 100 0.171371
11 11 25 100 0.284924
12 11 25 100 0.285714
13 11 25 100 0.0571429
14 11 25 100 0.0285714
24 11 25 100 9.7835e-07
0 12 25 100 0.0394496
2 12 25 100 6.61685e-07
4 12 25 100 1.48404e-05
9 12 25 100 0.0285714
10 12 25 100 0.113365
11 12 25 100 0.192433
12 12 25 100 0.313929
13 12 25 100 0.171355
14 12 25 100 0.110059
15 12 25 100 0.0189476
16 12 25 100 8.6746e-07
17 12 25 100 0.0118703
25 12 25 100 3.81103e-06
0 13 25 100 0.0295561
4 13 25 100 3.58433e-07
10 13 25 100 0.0285714
11 13 25 100 0.114286
12 13 25 100 0.171429
13 13 25 100 0.37131
14 13 25 100 0.142114
15 13 25 100 0.113046
16 13 25 100 0.00111469
17 13 25 100 4.94544e-07
22 13 25 100 3.54992e-07
25 13 25 100 0.0285714
0 14 25 100 0.00188417
11 14 25 100 0.084406
12 14 25 100 0.114182
13 14 25 100 0.200005
14 14 25 100 0.313881
15 14 25 100 0.114273
16 14 25 100 0.0867302
17 14 25 100 0.027551
19 14 25 100 0.0285756
20 14 25 100 4.84981e-06
21 14 25 100 0.028507
0 15 25 100 0.0296482
7 15 25 100 5.82179e-07
12 15 25 100 0.0571429
13 15 25 100 0.0855846
14 15 25 100 0.256458
15 15 25 100 0.314231
16 15 25 100 0.114288
17 15 25 100 0.0571413
18 15 25 100 0.0569337
25 15 25 100 0.0285714
0 16 25 100 0.0103985
8 16 25 100 0.00210929
11 16 25 100 4.11787e-07
12 16 25 100 0.0285714
13 16 25 100 0.0571432
14 16 25 100 0.114286
15 16 25 100 0.22376
16 16 25 100 0.342577
17 16 25 100 0.0571429
18 16 25 100 0.0284273
19 16 25 100 0.0571629
21 16 25 100 0.0550314
24 16 25 100 0.011764
25 16 25 100 0.0116256
0 17 25 100 0.0352449
11 17 25 100 7.05849e-07
12 17 25 100 0.0237642
14 17 25 100 0.113954
15 17 25 100 0.0571309
16 17 25 100 0.25677
17 17 25 100 0.31342
18 17 25 100 0.0854189
19 17 25 100 0.0285796
20 17 25 100 0.0285715
21 17 25 100 0.0571429
24 17 25 100 7.39041e-07
25 17 25 100 1.51439e-06
0 18 25 100 0.00118856
15 18 25 100 0.0857034
16 18 25 100 0.0571429
17 18 25 100 0.199877
18 18 25 100 0.371126
19 18 25 100 0.0849648
20 18 25 100 0.0571429
21 18 25 100 0.0571429
22 18 25 100 0.085711
25 18 25 100 6.88157e-07
0 19 25 100 0.0298426
10 19 25 100 7.08673e-07
16 19 25 100 0.114222
17 19 25 100 0.0571145
18 19 25 100 0.199892
19 19 25 100 0.398843
20 19 25 100 0.0572244
21 19 25 100 0.0571454
22 19 25 100 0.0285714
23 19 25 100 0.0571429
0 20 25 100 0.00128677
2 20 25 100 5.65166e-07
16 20 25 100 0.0285714
17 20 25 100 0.0857143
18 20 25 100 0.0571489
19 20 25 100 0.185795
20 20 25 100 0.4284
21 20 25 100 0.0424107
22 20 25 100 0.05654
23 20 25 100 0.0285714
24 20 25 100 0.0855604
0 21 25 100 0.0874387
4 21 25 100 5.8217e-05
11 21 25 100 3.56417e-06
14 21 25 100 1.1348e-06
15 21 25 100 5.22741e-07
16 21 25 100 3.41103e-06
17 21 25 100 6.70561e-07
18 21 25 100 0.116791
19 21 25 100 0.0588225
20 21 25 100 0.148706
21 21 25 100 0.367345
22 21 25 100 0.103176
23 21 25 100 0.0294118
25 21 25 100 0.0882422
0 22 25 100 0.0153139
13 22 25 100 9.29303e-06
14 22 25 100 0.0164393
19 22 25 100 0.125
20 22 25 100 0.0933096
21 22 25 100 0.218742
22 22 25 100 0.343653
23 22 25 100 0.125
24 22 25 100 0.0625325
25 22 25 100 8.75576e-07
0 23 25 100 0.000194108
12 23 25 100 4.89989e-07
20 23 25 100 0.124998
21 23 25 100 0.0937511
22 23 25 100 0.218745
23 23 25 100 0.374809
24 23 25 100 0.0857118
25 23 25 100 0.10179
0 24 25 100 0.00125268
11 24 25 100 9.37987e-07
20 24 25 100 0.0384615
21 24 25 100 0.115378
22 24 25 100 0.115382
23 24 25 100 0.307698
24 24 25 100 0.306434
25 24 25 100 0.115393
0 25 25 100 0.0365027
13 25 25 100 0.000143655
15 25 25 100 1.66554e-06
16 25 25 100 8.19844e-07
19 25 25 100 1.52531e-05
21 25 25 100 0.0434783
22 25 25 100 0.130435
23 25 25 100 0.0868544
24 25 25 100 0.347833
25 25 25 100 0.354736
0 26 25 100 0.063463
22 26 25 100 0.124375
23 26 25 100 0.187164
24 26 25 100 0.125
25 26 25 100 0.499998
0 27 25 100 0.000376732
4 27 25 100 0.000570227
23 27 25 100 0.125
24 27 25 100 0.499134
25 27 25 100 0.374919
0 28 25 100 0.00173719
24 28 25 100 0.16493
25 28 25 100 0.833333
25 29 25 100 1
25 30 25 100 1
25 31 25 100 1
25 32 25 100 1
25 33 25 100 1
0 1 26 100 0.00013769
1 1 26 100 0.965364
2 1 26 100 1.34664e-05
3 1 26 100 1.20392e-06
5 1 26 100 1.20392e-06
23 1 26 100 0.0344827
0 2 26 100 0.0662145
1 2 26 100 0.0345
2 2 26 100 0.899093
3 2 26 100 1.71452e-06
11 2 26 100 6.98459e-07
16 2 26 100 1.31034e-06
24 2 26 100 0.00018853
0 3 26 100 0.0366342
2 3 26 100 0.0689673
3 3 26 100 0.825474
4 3 26 100 0.0344613
6 3 26 100 0.0344633
0 4 26 100 0.000345253
3 4 26 100 0.137891
4 4 26 100 0.792798
5 4 26 100 0.0344828
7 4 26 100 0.0344828
0 5 26 100 0.00121021
4 5 26 100 0.137669
5 5 26 100 0.792153
6 5 26 100 0.0344851
8 5 26 100 0.0344828
0 6 26 100 0.0339299
5 6 26 100 0.173069
6 6 26 100 0.724122
7 6 26 100 0.0343966
9 6 26 100 0.0344828
0 7 26 100 0.0227494
6 7 26 100 0.181925
7 7 26 100 0.720904
8 7 26 100 0.0344828
9 7 26 100 0.00545564
10 7 26 100 0.0344828
11 7 26 100 4.04154e-07
0 8 26 100 0.139871
1 8 26 100 8.38856e-07
5 8 26 100 8.01269e-07
6 8 26 100 1.99046e-05
7 8 26 100 0.103428
8 8 26 100 0.687252
9 8 26 100 0.0344828
11 8 26 100 0.0344835
18 8 26 100 7.4281e-07
20 8 26 100 7.42542e-07
21 8 26 100 6.85166e-07
23 8 26 100 7.4281e-07
24 8 26 100 0.000457652
25 8 26 100 7.42448e-07
0 9 26 100 0.00182146
7 9 26 100 0.0689655
8 9 26 100 0.171378
9 9 26 100 0.620371
10 9 26 100 0.102985
12 9 26 100 0.0344785
0 10 26 100 0.103777
6 10 26 100 0.000142711
8 10 26 100 0.0689609
9 10 26 100 0.10345
10 10 26 100 0.574934
11 10 26 100 0.114252
13 10 26 100 0.0344835
25 10 26 100 7.50057e-07
0 11 26 100 0.0364715
9 11 26 100 0.136529
10 11 26 100 0.103455
11 11 26 100 0.551138
12 11 26 100 0.0689655
13 11 26 100 0.0344749
14 11 26 100 0.0689643
24 11 26 100 7.01847e-07
0 12 26 100 0.0354801
8 12 26 100 0.0330221
10 12 26 100 0.0689593
11 12 26 100 0.172414
12 12 26 100 0.552184
13 12 26 100 0.0344922
14 12 26 100 0.039459
15 12 26 100 0.0639893
0 13 26 100 0.0354956
10 13 26 100 0.0344828
11 13 26 100 0.0689242
12 13 26 100 0.206906
13 13 26 100 0.516415
14 13 26 100 0.0344828
15 13 26 100 0.0688097
16 13 26 100 0.0344828
23 13 26 100 1.18815e-06
0 14 26 100 0.0348065
9 14 26 100 4.19229e-06
10 14 26 100 0.0344786
11 14 26 100 0.0689655
12 14 26 100 0.0689655
13 14 26 100 0.17221
14 14 26 100 0.448191
15 14 26 100 0.0345061
16 14 26 100 0.103389
17 14 26 100 0.0344828
0 15 26 100 0.0360996
11 15 26 100 0.0344828
12 15 26 100 0.0686876
13 15 26 100 0.0689421
14 15 26 100 0.207361
15 15 26 100 0.413394
16 15 26 100 0.0344828
17 15 26 100 0.102206
18 15 26 100 0.0343437
0 16 26 100 0.104037
12 16 26 100 1.10666e-05
13 16 26 100 0.0689525
14 16 26 100 0.0685707
15 16 26 100 0.172416
16 16 26 100 0.448082
17 16 26 100 0.0344828
18 16 26 100 0.0689655
19 16 26 100 0.0344828
0 17 26 100 0.0494213
13 17 26 100 0.0344828
14 17 26 100 0.0689442
15 17 26 100 0.17231
16 17 26 100 0.158836
17 17 26 100 0.309108
18 17 26 100 0.0689655
19 17 26 100 0.0689652
20 17 26 100 0.0689662
0 18 26 100 0.00541464
14 18 26 100 0.0337342
15 18 26 100 0.0697141
16 18 26 100 0.137724
17 18 26 100 0.275862
18 18 26 100 0.305277
19 18 26 100 0.0344825
20 18 26 100 0.103448
21 18 26 100 0.0343437
0 19 26 100 0.025921
16 19 26 100 0.103448
17 19 26 100 0.172414
18 19 26 100 0.250168
19 19 26 100 0.275721
21 19 26 100 0.137844
22 19 26 100 0.0344828
0 20 26 100 0.0691831
17 20 26 100 0.0689913
18 20 26 100 0.206691
19 20 26 100 0.241368
20 20 26 100 0.275836
22 20 26 100 0.103441
23 20 26 100 0.0344901
0 21 26 100 0.0701792
5 21 26 100 7.25142e-07
6 21 26 100 6.76949e-07
10 21 26 100 7.34911e-07
13 21 26 100 0.0344828
18 21 26 100 0.0347206
19 21 26 100 0.172207
20 21 26 100 0.240721
21 21 26 100 0.240986
22 21 26 100 0.0344901
23 21 26 100 0.0689582
24 21 26 100 0.0687702
25 21 26 100 0.0344828
0 22 26 100 0.0347329
19 22 26 100 0.103447
20 22 26 100 0.241343
21 22 26 100 0.206774
22 22 26 100 0.275842
24 22 26 100 0.0344124
25 22 26 100 0.0689655
26 22 26 100 0.0344828
0 23 26 100 0.0363799
20 23 26 100 0.102531
21 23 26 100 0.241296
22 23 26 100 0.241269
23 23 26 100 0.240593
25 23 26 100 0.0689655
26 23 26 100 0.0689655
0 24 26 100 0.0726989
20 24 26 100 0.00134228
21 24 26 100 0.0740059
22 24 26 100 0.259365
23 24 26 100 0.259255
24 24 26 100 0.259259
26 24 26 100 0.0740741
0 25 26 100 0.0011045
21 25 26 100 0.0399363
22 25 26 100 0.04
23 25 26 100 0.401073
24 25 26 100 0.238632
25 25 26 100 0.276549
26 25 26 100 0.00270528
0 26 26 100 0.000975694
22 26 26 100 0.04
23 26 26 100 0.0400085
24 26 26 100 0.359713
25 26 26 100 0.279302
26 26 26 100 0.28
0 27 26 100 0.0534385
10 27 26 100 1.14436e-06
11 27 26 100 1.04629e-06
23 27 26 100 0.0526316
24 27 26 100 0.0526316
25 27 26 100 0.472919
26 27 26 100 0.368377
0 28 26 100 0.000191241
12 28 26 100 8.23772e-05
13 28 26 100 0.076838
25 28 26 100 0.0769231
26 28 26 100 0.845965
0 29 26 100 0.333333
26 29 26 100 0.666667
0 30 26 100 0.999986
18 30 26 100 1.35282e-05
25 31 26 100 1
26 32 26 100 1
0 1 27 100 0.000436791
1 1 27 100 0.944464
2 1 27 100 0.0550993
0 2 27 100 0.0373082
1 2 27 100 0.0370371
2 2 27 100 0.814403
3 2 27 100 0.111051
6 2 27 100 1.02936e-06
12 2 27 100 9.13312e-07
27 2 27 100 0.000198031
0 3 27 100 0.045096
2 3 27 100 0.110653
3 3 27 100 0.733141
4 3 27 100 0.0740735
27 3 27 100 0.037037
0 4 27 100 0.0380746
2 4 27 100 0.036908
3 4 27 100 0.0740741
4 4 27 100 0.702819
5 4 27 100 0.148124
14 4 27 100 6.03389e-07
0 5 27 100 0.0377616
3 5 27 100 0.0737247
4 5 27 100 0.0740751
5 5 27 100 0.666269
6 5 27 100 0.148149
11 5 27 100 2.00235e-05
0 6 27 100 0.00121486
3 6 27 100 0.0370336
4 6 27 100 0.0740353
5 6 27 100 0.111113
6 6 27 100 0.628455
7 6 27 100 0.148148
16 6 27 100 8.49074e-07
0 7 27 100 0.00071898
4 7 27 100 0.0370323
5 7 27 100 0.0740741
6 7 27 100 0.138274
7 7 27 100 0.491086
8 7 27 100 0.221618
9 7 27 100 0.0369637
20 7 27 100 0.000232666
0 8 27 100 0.000123826
5 8 27 100 0.0370371
6 8 27 100 0.0370371
7 8 27 100 0.185146
8 8 27 100 0.44436
9 8 27 100 0.259256
10 8 27 100 0.0370371
11 8 27 100 1.94022e-06
0 9 27 100 0.0381879
1 9 27 100 9.6155e-07
2 9 27 100 4.09607e-05
5 9 27 100 9.94572e-05
7 9 27 100 0.0741691
8 9 27 100 0.184764
9 9 27 100 0.444084
10 9 27 100 0.220902
11 9 27 100 0.0370371
18 9 27 100 0.000715246
0 10 27 100 0.000732513
8 10 27 100 0.1481
9 10 27 100 0.203181
10 10 27 100 0.351843
11 10 27 100 0.174773
12 10 27 100 0.0740741
13 10 27 100 0.0102599
17 10 27 100 0.0370367
0 11 27 100 0.0772852
9 11 27 100 0.148148
10 11 27 100 0.171813
11 11 27 100 0.344264
12 11 27 100 0.184415
13 11 27 100 0.0740741
0 12 27 100 0.00567658
10 12 27 100 0.148081
11 12 27 100 0.153067
12 12 27 100 0.407139
13 12 27 100 0.211961
14 12 27 100 0.0370378
15 12 27 100 0.037037
0 13 27 100 0.0400373
2 13 27 100 0.0370371
11 13 27 100 0.148069
12 13 27 100 0.222235
13 13 27 100 0.33299
14 13 27 100 0.0744517
15 13 27 100 0.073806
16 13 27 100 0.0713748
0 14 27 100 0.0375195
2 14 27 100 0.037037
8 14 27 100 0.0368918
11 14 27 100 1.29198e-05
12 14 27 100 0.148134
13 14 27 100 0.185177
14 14 27 100 0.407079
15 14 27 100 0.0740741
16 14 27 100 0.037037
17 14 27 100 0.0370377
0 15 27 100 0.112178
6 15 27 100 8.13121e-07
12 15 27 100 0.037037
13 15 27 100 0.185185
14 15 27 100 0.185413
15 15 27 100 0.333124
16 15 27 100 0.072987
17 15 27 100 4.78559e-07
18 15 27 100 0.0740741
0 16 27 100 0.0384766
4 16 27 100 4.02063e-07
13 16 27 100 0.037037
14 16 27 100 0.184865
15 16 27 100 0.259063
16 16 27 100 0.259254
17 16 27 100 0.0731559
18 16 27 100 0.111111
19 16 27 100 0.037037
0 17 27 100 0.0294138
14 17 27 100 0.037037
15 17 27 100 0.185185
16 17 27 100 0.290401
17 17 27 100 0.295318
18 17 27 100 0.110154
20 17 27 100 0.0524911
0 18 27 100 0.00114698
15 18 27 100 0.110954
16 18 27 100 0.111137
17 18 27 100 0.222158
18 18 27 100 0.339303
19 18 27 100 0.104691
20 18 27 100 0.0740741
21 18 27 100 0.0365353
0 19 27 100 0.00230486
15 19 27 100 0.037037
16 19 27 100 0.0738936
17 19 27 100 0.147751
18 19 27 100 0.185409
19 19 27 100 0.369136
20 19 27 100 0.0740741
21 19 27 100 0.0733573
22 19 27 100 0.037037
0 20 27 100 0.00275106
16 20 27 100 0.0370502
17 20 27 100 0.0740741
18 20 27 100 0.148148
19 20 27 100 0.18514
20 20 27 100 0.332382
21 20 27 100 0.109352
22 20 27 100 0.074067
23 20 27 100 0.0370359
0 21 27 100 0.114224
17 21 27 100 0.037037
18 21 27 100 0.0740726
19 21 27 100 0.148068
20 21 27 100 0.145143
21 21 27 100 0.259259
22 21 27 100 0.11109
23 21 27 100 0.0740758
25 21 27 100 0.0370294
0 22 27 100 0.0741226
18 22 27 100 0.0740269
19 22 27 100 0.037037
20 22 27 100 0.222124
21 22 27 100 0.111358
22 22 27 100 0.222088
23 22 27 100 0.148145
24 22 27 100 0.0740741
26 22 27 100 0.0370248
0 23 27 100 0.00256205
19 23 27 100 0.0740741
20 23 27 100 0.037037
21 23 27 100 0.296075
22 23 27 100 0.0740741
23 23 27 100 0.220072
24 23 27 100 0.184995
25 23 27 100 0.0740741
27 23 27 100 0.037037
0 24 27 100 0.0759321
4 24 27 100 8.93368e-07
8 24 27 100 8.91503e-07
13 24 27 100 8.90331e-07
17 24 27 100 4.57358e-07
20 24 27 100 0.0769229
21 24 27 100 0.0380723
22 24 27 100 0.307691
23 24 27 100 0.0779559
24 24 27 100 0.192306
25 24 27 100 0.115746
26 24 27 100 0.115371
0 25 27 100 0.00162413
21 25 27 100 0.0769123
22 25 27 100 0.0384702
23 25 27 100 0.268824
24 25 27 100 0.153846
25 25 27 100 0.230769
26 25 27 100 0.114409
27 25 27 100 0.115144
0 26 27 100 0.00143881
21 26 27 100 9.84422e-06
22 26 27 100 0.0869464
23 26 27 100 0.0434783
24 26 27 100 0.217156
25 26 27 100 0.260765
26 26 27 100 0.259771
27 26 27 100 0.130435
0 27 27 100 0.000233613
23 27 27 100 0.15
25 27 27 100 0.25
26 27 27 100 0.249766
27 27 27 100 0.35
0 28 27 100 0.0257038
24 28 27 100 0.142857
26 28 27 100 0.4285
27 28 27 100 0.402939
0 29 27 100 0.0134946
25 29 27 100 0.181674
27 29 27 100 0.804831
26 30 27 100 0.4
27 30 27 100 0.6
27 31 27 100 1
0 1 28 100 8.70759e-05
1 1 28 100 0.999895
2 1 28 100 1.82772e-05
0 2 28 100 0.000437724
1 2 28 100 0.0689838
2 2 28 100 0.896092
3 2 28 100 0.0344793
4 2 28 100 3.3651e-06
13 2 28 100 3.70148e-06
0 3 28 100 0.0698951
1 3 28 100 0.0689641
2 3 28 100 0.0344912
3 3 28 100 0.792166
4 3 28 100 0.0344806
10 3 28 100 1.60136e-06
13 3 28 100 1.58716e-06
0 4 28 100 0.00117619
2 4 28 100 0.0344771
3 4 28 100 0.102677
4 4 28 100 0.758221
5 4 28 100 0.103448
23 4 28 100 6.6171e-07
0 5 28 100 0.0351146
2 5 28 100 1.09877e-05
4 5 28 100 0.137931
5 5 28 100 0.723519
6 5 28 100 0.103424
0 6 28 100 0.0359429
1 6 28 100 0.0344588
4 6 28 100 0.0344827
5 6 28 100 0.0689049
6 6 28 100 0.722762
7 6 28 100 0.0689655
8 6 28 100 0.0344828
0 7 28 100 0.093186
2 7 28 100 6.8731e-07
4 7 28 100 0.0344828
5 7 28 100 6.90841e-07
6 7 28 100 0.135227
7 7 28 100 0.633654
8 7 28 100 0.103449
0 8 28 100 0.036746
5 8 28 100 0.0344828
7 8 28 100 0.241007
8 8 28 100 0.549899
9 8 28 100 0.137859
10 8 28 100 5.68263e-07
11 8 28 100 4.81889e-06
22 8 28 100 6.96607e-07
0 9 28 100 0.00111801
6 9 28 100 0.0344828
8 9 28 100 0.208612
9 9 28 100 0.551193
10 9 28 100 0.137839
12 9 28 100 0.0344828
21 9 28 100 0.0322725
0 10 28 100 0.0347653
7 10 28 100 0.0344828
8 10 28 100 0.0344842
9 10 28 100 0.241378
10 10 28 100 0.516963
11 10 28 100 0.137927
0 11 28 100 0.101282
8 11 28 100 0.0344828
9 11 28 100 0.0518562
10 11 28 100 0.29494
11 11 28 100 0.44811
12 11 28 100 0.0693283
22 11 28 100 7.55756e-07
0 12 28 100 0.0427655
2 12 28 100 2.5503e-06
9 12 28 100 4.48144e-07
10 12 28 100 0.0958959
11 12 28 100 0.241379
12 12 28 100 0.516509
13 12 28 100 0.0344828
14 12 28 100 0.0689655
0 13 28 100 0.0683895
7 13 28 100 0.0344828
10 13 28 100 0.0689529
11 13 28 100 0.0689653
12 13 28 100 0.276509
13 13 28 100 0.379296
14 13 28 100 0.0689226
15 13 28 100 0.0344828
0 14 28 100 0.0691561
10 14 28 100 6.61536e-07
11 14 28 100 0.0687796
12 14 28 100 0.0689655
13 14 28 100 0.241644
14 14 28 100 0.448025
15 14 28 100 0.0344833
16 14 28 100 0.0689455
0 15 28 100 0.108717
12 15 28 100 0.105669
13 15 28 100 0.0344828
14 15 28 100 0.241104
15 15 28 100 0.372905
16 15 28 100 0.0336419
17 15 28 100 0.0689974
19 15 28 100 0.0344828
26 15 28 100 3.56747e-07
0 16 28 100 0.0193624
12 16 28 100 0.0344828
13 16 28 100 0.118964
14 16 28 100 0.0344828
15 16 28 100 0.286941
16 16 28 100 0.344331
17 16 28 100 0.0349739
18 16 28 100 0.0804711
21 16 28 100 0.0344768
25 16 28 100 0.0115147
0 17 28 100 0.00174851
6 17 28 100 0.0344828
13 17 28 100 0.0689655
14 17 28 100 5.03529e-07
15 17 28 100 0.137844
16 17 28 100 0.275452
17 17 28 100 0.274741
18 17 28 100 0.103448
19 17 28 100 0.103318
0 18 28 100 0.00721716
14 18 28 100 0.0689655
16 18 28 100 0.137863
17 18 28 100 0.235073
18 18 28 100 0.275213
19 18 28 100 0.137737
20 18 28 100 0.103448
28 18 28 100 0.0344828
0 19 28 100 0.00109144
10 19 28 100 6.92628e-06
15 19 28 100 0.0689254
16 19 28 100 0.0344828
17 19 28 100 0.137905
18 19 28 100 0.206664
19 19 28 100 0.310338
20 19 28 100 0.10266
21 19 28 100 0.103443
28 19 28 100 0.0344828
0 20 28 100 0.0347766
15 20 28 100 0.0344828
16 20 28 100 0.0344828
18 20 28 100 0.172394
19 20 28 100 0.241282
20 20 28 100 0.241373
21 20 28 100 0.137761
22 20 28 100 0.103448
0 21 28 100 0.000924371
16 21 28 100 0.0344633
17 21 28 100 0.0344828
18 21 28 100 0.00149828
19 21 28 100 0.137928
20 21 28 100 0.206896
21 21 28 100 0.275859
22 21 28 100 0.170033
23 21 28 100 0.103434
28 21 28 100 0.0344828
0 22 28 100 0.00118905
17 22 28 100 0.0344828
18 22 28 100 0.0344828
19 22 28 100 1.14193e-06
20 22 28 100 0.137916
21 22 28 100 0.17236
22 22 28 100 0.310336
23 22 28 100 0.137118
24 22 28 100 0.137632
28 22 28 100 0.0344828
0 23 28 100 0.000663768
18 23 28 100 0.0344828
19 23 28 100 0.0344511
20 23 28 100 1.1401e-06
21 23 28 100 0.137901
22 23 28 100 0.137927
23 23 28 100 0.379077
24 23 28 100 0.103448
25 23 28 100 0.137565
27 23 28 100 0.0344828
0 24 28 100 0.0634175
2 24 28 100 6.13221e-07
13 24 28 100 0.000372485
19 24 28 100 0.0344828
20 24 28 100 0.0344518
22 24 28 100 0.137757
23 24 28 100 0.137704
24 24 28 100 0.38511
25 24 28 100 0.0343514
26 24 28 100 0.103387
27 24 28 100 0.0344828
28 24 28 100 0.0344828
0 25 28 100 0.000384062
20 25 28 100 0.0357143
21 25 28 100 0.0362309
23 25 28 100 0.142857
24 25 28 100 0.210252
25 25 28 100 0.39606
26 25 28 100 0.0357795
27 25 28 100 0.107008
28 25 28 100 0.0357143
0 26 28 100 0.0380821
21 26 28 100 0.037037
22 26 28 100 0.037037
23 26 28 100 0.037037
24 26 28 100 0.111041
25 26 28 100 0.148148
26 26 28 100 0.44347
27 26 28 100 0.037037
28 26 28 100 0.111111
0 27 28 100 0.000725423
22 27 28 100 0.0415954
23 27 28 100 0.0416667
24 27 28 100 0.0416667
25 27 28 100 0.124999
26 27 28 100 0.166107
27 27 28 100 0.499995
28 27 28 100 0.0832455
0 28 28 100 0.0457132
10 28 28 100 1.03905e-05
18 28 28 100 9.89559e-07
23 28 28 100 0.05
24 28 28 100 0.05
25 28 28 100 0.0499538
26 28 28 100 0.1
27 28 28 100 0.249998
28 28 28 100 0.454324
0 29 28 100 0.0838632
24 29 28 100 0.0833334
25 29 28 100 0.0833334
26 29 28 100 0.083333
27 29 28 100 0.166137
28 29 28 100 0.5
0 30 28 100 0.2
25 30 28 100 0.2
26 30 28 100 0.199999
28 30 28 100 0.4
0 31 28 100 0.000537067
26 31 28 100 0.66613
27 31 28 100 0.333333
0 32 28 100 0.370494
3 32 28 100 0.000159378
27 32 28 100 0.629346
0 33 28 100 0.00020166
28 33 28 100 0.999798
28 34 28 100 1
0 1 29 100 0.0490044
1 1 29 100 0.90337
2 1 29 100 0.0476191
10 1 29 100 8.05642e-07
26 1 29 100 5.58756e-06
0 2 29 100 0.000144941
1 2 29 100 0.0476191
2 2 29 100 0.857031
3 2 29 100 0.0952048
0 3 29 100 0.0497315
2 3 29 100 0.0469977
3 3 29 100 0.712811
4 3 29 100 0.143395
5 3 29 100 0.0470642
0 4 29 100 0.00010211
3 4 29 100 0.095256
4 4 29 100 0.714166
5 4 29 100 0.0952381
6 4 29 100 0.0952381
0 5 29 100 0.000934031
3 5 29 100 0.0476191
4 5 29 100 0.0952381
5 5 29 100 0.665731
6 5 29 100 0.0952396
7 5 29 100 0.0952381
0 6 29 100 0.0479634
4 6 29 100 0.0476191
5 6 29 100 0.095731
6 6 29 100 0.619027
7 6 29 100 0.0946023
8 6 29 100 0.0950567
0 7 29 100 0.0477597
5 7 29 100 0.0476191
6 7 29 100 0.190476
7 7 29 100 0.428856
8 7 29 100 0.142529
9 7 29 100 0.0951404
16 7 29 100 0.0476191
0 8 29 100 0.00690243
6 8 29 100 0.0476191
7 8 29 100 0.285714
8 8 29 100 0.426924
9 8 29 100 0.137602
10 8 29 100 0.0952381
0 9 29 100 0.000847373
7 9 29 100 0.0476191
8 9 29 100 0.285714
9 9 29 100 0.428568
10 9 29 100 0.0949532
11 9 29 100 0.142298
0 10 29 100 0.00212869
8 10 29 100 0.0476191
9 10 29 100 0.28532
10 10 29 100 0.428479
11 10 29 100 0.0946457
12 10 29 100 0.0941877
13 10 29 100 0.0476191
0 11 29 100 0.026613
9 11 29 100 0.0952381
10 11 29 100 0.212029
11 11 29 100 0.428534
12 11 29 100 0.0952398
13 11 29 100 0.0952333
14 11 29 100 0.0471081
15 11 29 100 4.80541e-06
25 11 29 100 5.21307e-07
0 12 29 100 0.0480322
9 12 29 100 0.0473026
10 12 29 100 0.0952057
11 12 29 100 0.190462
12 12 29 100 0.285696
13 12 29 100 0.190457
14 12 29 100 0.0476191
15 12 29 100 0.0952259
0 13 29 100 0.00148271
10 13 29 100 0.0476207
11 13 29 100 0.0952349
12 13 29 100 0.190478
13 13 29 100 0.285638
14 13 29 100 0.238079
15 13 29 100 0.0471991
16 13 29 100 0.0942687
0 14 29 100 0.0326065
11 14 29 100 0.047619
12 14 29 100 0.0476169
13 14 29 100 0.189017
14 14 29 100 0.333061
15 14 29 100 0.205535
16 14 29 100 0.0493041
17 14 29 100 0.0952381
20 14 29 100 2.77025e-06
0 15 29 100 0.0276446
12 15 29 100 0.0476191
13 15 29 100 0.0476168
14 15 29 100 0.190478
15 15 29 100 0.354439
16 15 29 100 0.189904
17 15 29 100 0.0476214
18 15 29 100 0.0946772
21 15 29 100 7.66312e-07
0 16 29 100 0.00313711
13 16 29 100 0.0476181
14 16 29 100 0.047617
15 16 29 100 0.190762
16 16 29 100 0.379747
17 16 29 100 0.190462
18 16 29 100 0.0464543
19 16 29 100 0.0942025
0 17 29 100 0.00162358
1 17 29 100 1.36941e-06
14 17 29 100 0.0468157
15 17 29 100 0.0476125
16 17 29 100 0.190149
17 17 29 100 0.333333
18 17 29 100 0.142857
19 17 29 100 0.142153
20 17 29 100 0.0952382
25 17 29 100 0.000216163
0 18 29 100 0.0480595
15 18 29 100 0.0476191
16 18 29 100 0.0476158
17 18 29 100 0.190478
18 18 29 100 0.237899
19 18 29 100 0.190264
20 18 29 100 0.142854
21 18 29 100 0.0952113
0 19 29 100 0.144563
10 19 29 100 9.07325e-07
11 19 29 100 9.28963e-07
12 19 29 100 1.20566e-06
13 19 29 100 9.08536e-07
16 19 29 100 1.68874e-06
17 19 29 100 0.0475705
18 19 29 100 0.142851
19 19 29 100 0.260461
20 19 29 100 0.166328
21 19 29 100 0.142863
22 19 29 100 0.0476191
29 19 29 100 0.0477386
0 20 29 100 0.0019687
12 20 29 100 8.34129e-07
18 20 29 100 0.0952382
19 20 29 100 0.189794
20 20 29 100 0.237867
21 20 29 100 0.23808
22 20 29 100 0.184464
23 20 29 100 0.0476191
25 20 29 100 0.00496811
0 21 29 100 0.0478516
14 21 29 100 6.87022e-07
19 21 29 100 0.0476191
20 21 29 100 0.143026
21 21 29 100 0.237871
22 21 29 100 0.238172
23 21 29 100 0.190476
26 21 29 100 0.0476191
29 21 29 100 0.047364
0 22 29 100 0.0486913
12 22 29 100 7.62246e-07
15 22 29 100 0.0476191
20 22 29 100 4.88859e-07
21 22 29 100 0.142917
22 22 29 100 0.238082
23 22 29 100 0.238095
24 22 29 100 0.189414
25 22 29 100 1.10775e-06
27 22 29 100 0.0476191
29 22 29 100 0.0475593
0 23 29 100 0.00177286
17 23 29 100 0.0476191
20 23 29 100 1.72824e-06
21 23 29 100 0.0476205
22 23 29 100 0.190391
23 23 29 100 0.237295
24 23 29 100 0.237831
25 23 29 100 0.18977
28 23 29 100 0.0476191
29 23 29 100 7.93222e-05
0 24 29 100 0.00149572
13 24 29 100 0.000198452
18 24 29 100 0.0476191
19 24 29 100 2.23762e-05
23 24 29 100 0.190239
24 24 29 100 0.238092
25 24 29 100 0.236648
26 24 29 100 0.190447
29 24 29 100 0.0952381
0 25 29 100 0.00192118
18 25 29 100 0.05
22 25 29 100 0.0499579
24 25 29 100 0.199979
25 25 29 100 0.249519
26 25 29 100 0.19863
27 25 29 100 0.199994
29 25 29 100 0.0499995
0 26 29 100 0.0440423
19 26 29 100 0.0499594
20 26 29 100 4.06491e-05
23 26 29 100 0.05
25 26 29 100 0.199998
26 26 29 100 0.24997
27 26 29 100 0.249931
28 26 29 100 0.156059
0 27 29 100 0.0515939
15 27 29 100 8.85866e-07
19 27 29 100 4.06491e-05
20 27 29 100 0.0499594
24 27 29 100 0.05
25 27 29 100 0.0500022
26 27 29 100 0.149998
27 27 29 100 0.248677
28 27 29 100 0.249728
29 27 29 100 0.15
0 28 29 100 0.00179943
21 28 29 100 0.0588225
25 28 29 100 0.0588216
26 28 29 100 0.0585184
27 28 29 100 0.176206
28 28 29 100 0.292891
29 28 29 100 0.352941
0 29 29 100 0.0909118
13 29 29 100 1.3662e-06
18 29 29 100 1.99586e-06
20 29 29 100 2.01581e-06
22 29 29 100 0.0909031
26 29 29 100 0.0909091
27 29 29 100 0.0909072
28 29 29 100 0.0909091
29 29 29 100 0.545454
0 30 29 100 0.0206439
23 30 29 100 0.312695
27 30 29 100 0.166661
28 30 29 100 0.166667
29 30 29 100 0.333333
24 31 29 100 0.249991
25 31 29 100 9.45756e-06
28 31 29 100 0.25
29 31 29 100 0.5
0 32 29 100 5.01105e-06
29 32 29 100 0.999995
29 33 29 100 1
0 34 29 100 0.0184981
29 34 29 100 0.981502
29 35 29 100 1
29 36 29 100 1
26 37 29 100 1
27 38 29 100 1
28 39 29 100 1
29 40 29 100 1
0 1 30 100 0.00140163
1 1 30 100 0.831932
4 1 30 100 0.166667
0 2 30 100 0.16442
1 2 30 100 0.168914
2 2 30 100 0.666667
0 3 30 100 0.0018229
2 3 30 100 0.333333
3 3 30 100 0.664844
0 4 30 100 0.000346977
3 4 30 100 0.166667
4 4 30 100 0.832986
0 5 30 100 1.11727e-05
4 5 30 100 0.333333
5 5 30 100 0.666655
0 6 30 100 1.92502e-06
5 6 30 100 0.333333
6 6 30 100 0.666591
7 6 30 100 7.36197e-05
0 7 30 100 0.00233175
6 7 30 100 0.331077
7 7 30 100 0.666591
0 8 30 100 1.90787e-05
7 8 30 100 0.333314
8 8 30 100 0.666667
0 9 30 100 0.16819
8 9 30 100 0.498911
9 9 30 100 0.166235
10 9 30 100 0.120554
11 9 30 100 0.0460464
12 9 30 100 6.13242e-05
21 9 30 100 2.6662e-06
0 10 30 100 0.00208493
8 10 30 100 0.166674
9 10 30 100 0.33163
10 10 30 100 0.333395
11 10 30 100 0.0460465
12 10 30 100 0.120103
13 10 30 100 6.2593e-05
14 10 30 100 4.25177e-06
0 11 30 100 0.000777859
9 11 30 100 0.166408
10 11 30 100 0.333333
11 11 30 100 0.332835
12 11 30 100 6.2593e-05
13 11 30 100 0.164591
14 11 30 100 0.00198666
15 11 30 100 5.37265e-06
0 12 30 100 0.169102
9 12 30 100 1.91454e-05
10 12 30 100 0.164337
11 12 30 100 0.333213
12 12 30 100 0.333329
0 13 30 100 0.00276012
11 13 30 100 0.166582
12 13 30 100 0.332135
13 13 30 100 0.331096
14 13 30 100 0.0195691
15 13 30 100 0.14235
16 13 30 100 0.00474502
20 13 30 100 0.00076229
0 14 30 100 0.0024159
12 14 30 100 0.166661
13 14 30 100 0.332239
14 14 30 100 0.332215
17 14 30 100 0.166469
0 15 30 100 0.00233238
13 15 30 100 0.164337
14 15 30 100 0.499999
15 15 30 100 0.166667
18 15 30 100 0.166664
0 16 30 100 0.172027
14 16 30 100 0.162247
15 16 30 100 0.332391
17 16 30 100 0.166667
19 16 30 100 0.166667
0 17 30 100 0.000875045
15 17 30 100 0.333333
16 17 30 100 0.332957
18 17 30 100 0.166168
20 17 30 100 0.166667
0 18 30 100 0.00209031
16 18 30 100 0.166667
17 18 30 100 0.49791
19 18 30 100 0.166667
21 18 30 100 0.166665
0 19 30 100 0.00472231
17 19 30 100 0.161945
18 19 30 100 0.500001
20 19 30 100 0.166667
22 19 30 100 0.166665
0 20 30 100 0.00245745
18 20 30 100 0.333334
19 20 30 100 0.333006
21 20 30 100 0.164535
23 20 30 100 0.166667
0 21 30 100 0.166673
19 21 30 100 0.166667
20 21 30 100 0.333325
21 21 30 100 0.166667
22 21 30 100 0.166667
0 22 30 100 0.00298362
14 22 30 100 9.96215e-06
16 22 30 100 1.68204e-06
20 22 30 100 0.166663
21 22 30 100 0.333334
22 22 30 100 0.166667
23 22 30 100 0.164598
24 22 30 100 0.165743
0 23 30 100 0.000780604
10 23 30 100 0.166661
21 23 30 100 0.166667
22 23 30 100 0.332558
23 23 30 100 0.166667
25 23 30 100 0.166667
0 24 30 100 5.8405e-06
22 24 30 100 0.166667
23 24 30 100 0.333333
24 24 30 100 0.333328
26 24 30 100 0.166667
0 25 30 100 0.00226634
23 25 30 100 0.166667
24 25 30 100 0.331069
25 25 30 100 0.333333
27 25 30 100 0.166665
24 26 30 100 0.166667
25 26 30 100 0.166667
26 26 30 100 0.333333
27 26 30 100 0.166667
28 26 30 100 0.166667
0 27 30 100 0.166667
25 27 30 100 0.166667
26 27 30 100 0.166667
27 27 30 100 0.333333
29 27 30 100 0.166667
0 28 30 100 0.165522
26 28 30 100 0.166667
27 28 30 100 0.333333
28 28 30 100 0.166667
29 28 30 100 0.00114507
30 28 30 100 0.166667
0 29 30 100 0.00291536
25 29 30 100 0.2
27 29 30 100 0.2
28 29 30 100 0.397395
29 29 30 100 0.19969
0 30 30 100 0.000880464
26 30 30 100 0.182198
28 30 30 100 0.199126
29 30 30 100 0.417795
30 30 30 100 0.2
0 31 30 100 0.00664031
29 31 30 100 0.24337
30 31 30 100 0.74999
30 32 30 100 1
0 1 31 100 2.97091e-05
1 1 31 100 0.99997
0 2 31 100 0.00488705
1 2 31 100 0.2
2 2 31 100 0.795113
0 3 31 100 0.00141141
1 3 31 100 0.2
3 3 31 100 0.798589
0 4 31 100 0.00157669
2 4 31 100 0.199999
4 4 31 100 0.798424
0 5 31 100 0.00276777
4 5 31 100 0.2
5 5 31 100 0.797233
0 6 31 100 0.0022723
5 6 31 100 0.198746
6 6 31 100 0.798982
0 7 31 100 5.17826e-05
6 7 31 100 0.199948
7 7 31 100 0.695698
8 7 31 100 0.104302
0 8 31 100 0.000761231
7 8 31 100 0.2
8 8 31 100 0.59948
9 8 31 100 0.199759
0 9 31 100 0.00276655
8 9 31 100 0.198746
9 9 31 100 0.598487
10 9 31 100 0.2
0 10 31 100 0.00672062
9 10 31 100 0.197615
10 10 31 100 0.595664
11 10 31 100 0.2
0 11 31 100 0.199995
4 11 31 100 3.02106e-06
10 11 31 100 0.2
11 11 31 100 0.400001
12 11 31 100 0.2
0 12 31 100 0.0608066
11 12 31 100 0.4
12 12 31 100 0.339193
13 12 31 100 0.2
0 13 31 100 0.00388019
12 13 31 100 0.39612
13 13 31 100 0.4
14 13 31 100 0.2
12 14 31 100 0.2
13 14 31 100 0.2
14 14 31 100 0.4
15 14 31 100 0.2
0 15 31 100 0.000572388
12 15 31 100 0.2
14 15 31 100 0.199428
15 15 31 100 0.4
17 15 31 100 0.199999
0 16 31 100 0.00176815
12 16 31 100 0.199898
15 16 31 100 0.2
16 16 31 100 0.199998
17 16 31 100 0.2
18 16 31 100 0.198336
0 17 31 100 0.00141102
14 17 31 100 0.2
16 17 31 100 0.199471
17 17 31 100 0.2
18 17 31 100 0.199117
19 17 31 100 0.2
0 18 31 100 0.000367545
17 18 31 100 0.2
18 18 31 100 0.199632
19 18 31 100 0.2
20 18 31 100 0.4
17 19 31 100 0.2
18 19 31 100 0.2
19 19 31 100 0.2
20 19 31 100 0.2
21 19 31 100 0.2
0 20 31 100 3.16634e-05
19 20 31 100 0.2
20 20 31 100 0.2
21 20 31 100 0.399968
22 20 31 100 0.2
20 21 31 100 0.2
21 21 31 100 0.306291
22 21 31 100 0.293709
23 21 31 100 0.2
0 22 31 100 0.000990892
21 22 31 100 0.2
22 22 31 100 0.4
23 22 31 100 0.2
25 22 31 100 0.199009
0 23 31 100 4.2929e-05
21 23 31 100 0.2
23 23 31 100 0.399957
24 23 31 100 0.2
26 23 31 100 0.2
0 24 31 100 0.000367641
22 24 31 100 0.0238432
23 24 31 100 0.176153
24 24 31 100 0.399636
25 24 31 100 0.2
27 24 31 100 0.2
0 25 31 100 0.200001
6 25 31 100 2.53936e-06
9 25 31 100 2.45755e-06
25 25 31 100 0.4
26 25 31 100 0.2
27 25 31 100 2.85965e-06
28 25 31 100 0.199991
24 26 31 100 0.2
26 26 31 100 0.4
27 26 31 100 0.2
29 26 31 100 0.2
0 27 31 100 0.00100023
25 27 31 100 0.199601
27 27 31 100 0.399997
28 27 31 100 0.2
30 27 31 100 0.199402
0 28 31 100 2.15192e-05
26 28 31 100 0.2
28 28 31 100 0.399978
29 28 31 100 0.2
31 28 31 100 0.2
0 29 31 100 0.000954924
22 29 31 100 2.54619e-05
27 29 31 100 0.24902
29 29 31 100 0.25
30 29 31 100 0.25
31 29 31 100 0.25
0 30 31 100 0.00558831
28 30 31 100 0.329264
30 30 31 100 0.331814
31 30 31 100 0.333333
29 31 31 100 0.5
31 31 31 100 0.5
30 32 31 100 1
31 33 31 100 1
0 1 32 100 6.73161e-05
1 1 32 100 0.999933
0 2 32 100 0.000313226
2 2 32 100 0.999687
0 3 32 100 0.00443969
3 3 32 100 0.99556
0 4 32 100 0.00208447
4 4 32 100 0.997902
29 4 32 100 1.36935e-05
0 5 32 100 0.0029675
5 5 32 100 0.997033
0 6 32 100 0.000468155
5 6 32 100 0.499532
6 6 32 100 0.5
0 7 32 100 0.000810347
6 7 32 100 0.5
7 7 32 100 0.49919
0 8 32 100 0.00215994
7 8 32 100 0.497826
8 8 32 100 0.5
29 8 32 100 1.41895e-05
8 9 32 100 0.5
9 9 32 100 0.5
0 10 32 100 3.91898e-05
8 10 32 100 0.5
10 10 32 100 0.499961
9 11 32 100 0.5
11 11 32 100 0.5
0 12 32 100 0.00539561
10 12 32 100 0.5
12 12 32 100 0.494604
11 13 32 100 0.5
13 13 32 100 0.5
0 14 32 100 0.00112168
12 14 32 100 0.498878
14 14 32 100 0.5
13 15 32 100 0.5
15 15 32 100 0.5
0 16 32 100 0.0138637
14 16 32 100 0.5
16 16 32 100 0.486136
0 17 32 100 0.430615
2 17 32 100 9.89821e-06
15 17 32 100 0.0693743
17 17 32 100 0.500001
15 18 32 100 0.5
18 18 32 100 0.5
16 19 32 100 0.5
19 19 32 100 0.5
0 20 32 100 6.31897e-05
17 20 32 100 0.5
20 20 32 100 0.498954
21 20 32 100 0.000965472
22 20 32 100 1.7155e-05
0 21 32 100 0.00289483
18 21 32 100 0.497869
20 21 32 100 0.000138047
21 21 32 100 7.88016e-06
22 21 32 100 0.499076
29 21 32 100 1.39081e-05
19 22 32 100 0.5
23 22 32 100 0.5
0 23 32 100 0.499995
24 23 32 100 0.500005
20 24 32 100 0.5
25 24 32 100 0.5
0 25 32 100 0.00306896
21 25 32 100 0.497882
26 25 32 100 0.499035
29 25 32 100 1.38248e-05
22 26 32 100 0.5
27 26 32 100 0.5
23 27 32 100 0.5
28 27 32 100 0.5
0 28 32 100 0.5
29 28 32 100 0.5
0 29 32 100 1.70269e-05
24 29 32 100 0.5
30 29 32 100 0.499958
31 29 32 100 2.54333e-05
0 30 32 100 0.00211658
25 30 32 100 0.497879
29 30 32 100 1.38425e-05
30 30 32 100 0.000285106
31 30 32 100 0.499705
26 31 32 100 0.5
32 31 32 100 0.5
27 32 32 100 1
0 33 32 100 0.00621943
28 33 32 100 0.993781
0 34 32 100 1.59591e-05
32 34 32 100 0.999984
0 35 32 100 0.993737
28 35 32 100 0.00622123
29 35 32 100 4.21819e-05
30 36 32 100 1
31 37 32 100 1
32 38 32 100 1
1 1 33 100 1
0 2 33 100 0.00425152
2 2 33 100 0.995748
3 3 33 100 1
0 4 33 100 0.000756408
4 4 33 100 0.999244
0 5 33 100 1.62938e-05
5 5 33 100 0.999984
0 6 33 100 0.00425478
6 6 33 100 0.995745
0 7 33 100 9.72851e-05
7 7 33 100 0.999903
0 8 33 100 0.00347974
8 8 33 100 0.99652
9 9 33 100 1
10 10 33 100 1
0 11 33 100 0.00448433
11 11 33 100 0.995516
12 12 33 100 1
13 13 33 100 0.742721
14 13 33 100 0.257279
0 14 33 100 0.000901419
14 14 33 100 0.499113
15 14 33 100 0.499986
15 15 33 100 0.5
16 15 33 100 0.5
0 16 33 100 0.000678041
16 16 33 100 0.499322
17 16 33 100 0.5
17 17 33 100 0.5
18 17 33 100 0.5
0 18 33 100 0.000856367
18 18 33 100 0.499144
19 18 33 100 0.5
0 19 33 100 0.00346921
19 19 33 100 0.5
20 19 33 100 0.496531
20 20 33 100 0.5
21 20 33 100 0.5
0 21 33 100 0.499967
6 21 33 100 5.51432e-06
21 21 33 100 0.5
22 21 33 100 2.21068e-05
28 21 33 100 5.39495e-06
0 22 33 100 5.20021e-06
21 22 33 100 0.5
22 22 33 100 0.499995
0 23 33 100 0.501565
5 23 33 100 5.60186e-06
23 23 33 100 0.49843
0 24 33 100 0.0171369
22 24 33 100 0.482863
24 24 33 100 0.5
0 25 33 100 0.5
23 25 33 100 0.5
24 26 33 100 0.5
25 26 33 100 0.5
25 27 33 100 0.5
27 27 33 100 0.5
0 28 33 100 0.0391767
25 28 33 100 0.460823
28 28 33 100 0.5
26 29 33 100 0.5
29 29 33 100 0.5
0 30 33 100 5.20019e-06
27 30 33 100 0.5
30 30 33 100 0.499995
0 31 33 100 2.15798e-05
28 31 33 100 0.499978
31 31 33 100 0.5
29 32 33 100 0.500001
32 32 33 100 0.499999
30 33 33 100 0.5
33 33 33 100 0.5
31 34 33 100 1
32 35 33 100 1
33 36 33 100 1
0 1 34 100 0.000359859
1 1 34 100 0.99964
0 2 34 100 0.00089115
2 2 34 100 0.999079
3 2 34 100 2.98249e-05
0 3 34 100 7.69151e-05
3 3 34 100 0.999923
0 4 34 100 0.00673481
3 4 34 100 3.11194e-05
4 4 34 100 0.993234
0 5 34 100 0.00803715
5 5 34 100 0.991963
0 6 34 100 0.0330537
6 6 34 100 0.966946
0 7 34 100 0.00672676
7 7 34 100 0.993273
8 8 34 100 1
9 9 34 100 1
0 10 34 100 1.29179e-05
10 10 34 100 0.999987
0 11 34 100 2.95614e-05
11 11 34 100 0.99997
12 12 34 100 1
0 13 34 100 0.00112249
13 13 34 100 0.498878
15 13 34 100 0.5
14 14 34 100 0.5
15 14 34 100 0.5
12 15 34 100 3.30149e-05
13 15 34 100 0.499966
14 15 34 100 0.500001
0 16 34 100 5.60151e-05
14 16 34 100 0.499944
15 16 34 100 0.5
0 17 34 100 1.12366e-05
15 17 34 100 0.5
16 17 34 100 0.499989
0 18 34 100 0.0031591
16 18 34 100 0.498587
17 18 34 100 0.498254
0 19 34 100 0.000201741
17 19 34 100 0.499798
18 19 34 100 0.5
0 20 34 100 0.00366847
18 20 34 100 0.496332
19 20 34 100 0.5
0 21 34 100 0.496762
4 21 34 100 6.20399e-06
7 21 34 100 6.31022e-06
19 21 34 100 0.5
20 21 34 100 0.00322583
0 22 34 100 0.00338113
20 22 34 100 0.496619
21 22 34 100 0.5
21 23 34 100 0.5
22 23 34 100 0.5
22 24 34 100 0.5
23 24 34 100 0.5
23 25 34 100 0.500001
25 25 34 100 0.499999
0 26 34 100 0.00366847
24 26 34 100 0.496332
26 26 34 100 0.5
25 27 34 100 0.5
27 27 34 100 0.5
0 28 34 100 0.0072159
26 28 34 100 0.492891
28 28 34 100 0.499893
0 29 34 100 0.0014095
27 29 34 100 0.5
29 29 34 100 0.49859
29 30 34 100 0.5
30 30 34 100 0.5
0 31 34 100 6.14075e-05
30 31 34 100 0.499939
31 31 34 100 0.5
31 32 34 100 0.5
32 32 34 100 0.5
0 33 34 100 0.0152688
32 33 34 100 0.484731
33 33 34 100 0.5
33 34 34 100 0.5
34 34 34 100 0.5
34 35 34 100 1
1 1 35 100 1
0 2 35 100 0.00364024
2 2 35 100 0.829692
3 2 35 100 0.166666
9 2 35 100 1.88581e-06
0 3 35 100 0.00139094
3 3 35 100 0.831942
5 3 35 100 0.166667
0 4 35 100 0.000266523
4 4 35 100 0.833068
6 4 35 100 0.166666
0 5 35 100 5.00767e-06
5 5 35 100 0.833328
7 5 35 100 0.166667
0 6 35 100 0.000984648
5 6 35 100 0.166667
6 6 35 100 0.665682
8 6 35 100 0.166667
0 7 35 100 0.16676
5 7 35 100 0.166667
7 7 35 100 0.5
10 7 35 100 0.166573
0 8 35 100 0.00474418
6 8 35 100 0.166667
7 8 35 100 0.166667
8 8 35 100 0.495256
11 8 35 100 0.166667
0 9 35 100 3.05017e-05
7 9 35 100 0.166667
8 9 35 100 0.166667
9 9 35 100 0.49997
12 9 35 100 0.166667
0 10 35 100 3.52972e-06
8 10 35 100 0.166667
9 10 35 100 0.166667
10 10 35 100 0.499997
13 10 35 100 0.013678
15 10 35 100 0.013678
17 10 35 100 0.0936131
20 10 35 100 0.0456962
0 11 35 100 0.00495008
10 11 35 100 0.333304
11 11 35 100 0.495081
20 11 35 100 0.0456962
23 11 35 100 0.120969
0 12 35 100 0.000458895
11 12 35 100 0.333334
12 12 35 100 0.499994
24 12 35 100 0.166213
0 13 35 100 0.00289253
12 13 35 100 0.333334
13 13 35 100 0.497107
25 13 35 100 0.166667
0 14 35 100 9.05538e-06
13 14 35 100 0.333333
14 14 35 100 0.499991
25 14 35 100 0.165136
28 14 35 100 0.00153027
0 15 35 100 0.333205
9 15 35 100 1.88085e-06
13 15 35 100 1.8975e-06
14 15 35 100 0.210383
15 15 35 100 0.456272
18 15 35 100 5.78056e-05
21 15 35 100 5.78056e-05
30 15 35 100 2.02182e-05
0 16 35 100 6.95815e-06
14 16 35 100 4.77233e-06
15 16 35 100 0.499994
16 16 35 100 0.333327
25 16 35 100 0.166667
0 17 35 100 0.00106395
16 17 35 100 0.5
17 17 35 100 0.332269
26 17 35 100 0.166667
0 18 35 100 0.166666
17 18 35 100 0.333334
18 18 35 100 0.166667
19 18 35 100 0.166666
27 18 35 100 0.166667
0 19 35 100 0.00136281
17 19 35 100 0.166667
18 19 35 100 0.331978
19 19 35 100 0.166667
20 19 35 100 0.166659
28 19 35 100 2.36042e-06
29 19 35 100 0.166664
0 20 35 100 0.00240068
18 20 35 100 0.166667
19 20 35 100 0.333333
20 20 35 100 0.166667
21 20 35 100 0.164266
29 20 35 100 0.166667
0 21 35 100 0.00055964
19 21 35 100 0.166667
20 21 35 100 0.332774
21 21 35 100 0.166667
22 21 35 100 0.166667
31 21 35 100 0.166667
0 22 35 100 4.52189e-06
20 22 35 100 0.166667
21 22 35 100 0.333333
22 22 35 100 0.166662
23 22 35 100 0.166667
33 22 35 100 0.166667
0 23 35 100 0.000546966
21 23 35 100 0.166517
22 23 35 100 0.332936
23 23 35 100 0.166667
24 23 35 100 0.166667
34 23 35 100 0.166667
22 24 35 100 0.166667
23 24 35 100 0.333333
24 24 35 100 0.166667
25 24 35 100 0.166667
35 24 35 100 0.166667
0 25 35 100 0.00784526
20 25 35 100 0.199996
23 25 35 100 0.4
24 25 35 100 0.197682
26 25 35 100 0.194476
0 26 35 100 2.39637e-06
21 26 35 100 0.199998
24 26 35 100 0.4
25 26 35 100 0.2
27 26 35 100 0.2
0 27 35 100 0.203808
25 27 35 100 0.396894
26 27 35 100 0.2
28 27 35 100 0.199299
0 28 35 100 0.00563695
25 28 35 100 0.2
26 28 35 100 0.4
27 28 35 100 0.19982
28 28 35 100 5.57745e-06
29 28 35 100 0.194537
0 29 35 100 0.000340617
25 29 35 100 0.199708
27 29 35 100 0.400006
28 29 35 100 0.199941
29 29 35 100 4.7905e-06
30 29 35 100 0.2
0 30 35 100 0.00675107
25 30 35 100 0.198673
28 30 35 100 0.395495
29 30 35 100 0.199987
31 30 35 100 0.199093
0 31 35 100 0.199162
29 31 35 100 0.400001
30 31 35 100 0.200429
31 31 35 100 0.000428809
32 31 35 100 0.199979
26 32 35 100 0.2
30 32 35 100 0.4
31 32 35 100 0.2
33 32 35 100 0.2
0 33 35 100 0.00228467
30 33 35 100 0.0653949
31 33 35 100 0.463753
32 33 35 100 0.268567
34 33 35 100 0.2
32 34 35 100 0.4
33 34 35 100 0.4
35 34 35 100 0.2
0 35 35 100 0.00278479
33 35 35 100 0.5
34 35 35 100 0.497215
34 36 35 100 0.499999
35 36 35 100 0.500001
35 37 35 100 1
0 1 37 100 0.144047
1 1 37 100 0.827961
2 1 37 100 0.0279804
5 1 37 100 2.35437e-06
9 1 37 100 2.34645e-06
19 1 37 100 2.34889e-06
21 1 37 100 2.34727e-06
35 1 37 100 2.3675e-06
0 2 37 100 0.199954
1 2 37 100 1.80778e-05
2 2 37 100 0.800016
5 2 37 100 2.35623e-06
9 2 37 100 2.34649e-06
19 2 37 100 2.34891e-06
21 2 37 100 2.3489e-06
35 2 37 100 2.36751e-06
0 3 37 100 9.69835e-05
3 3 37 100 0.799898
4 3 37 100 0.2
33 3 37 100 4.98942e-06
0 4 37 100 0.000838789
4 4 37 100 0.797238
5 4 37 100 0.199988
34 4 37 100 0.00193517
0 5 37 100 0.00373063
5 5 37 100 0.796269
8 5 37 100 0.2
0 6 37 100 0.000669062
6 6 37 100 0.799338
9 6 37 100 0.19999
36 6 37 100 2.87999e-06
7 7 37 100 0.8
10 7 37 100 0.2
0 8 37 100 0.200002
8 8 37 100 0.599998
11 8 37 100 0.2
0 9 37 100 5.20461e-06
8 9 37 100 0.4
9 9 37 100 0.19999
10 9 37 100 0.200004
11 9 37 100 0.2
0 10 37 100 5.11737e-06
8 10 37 100 0.2
9 10 37 100 0.200004
10 10 37 100 0.19999
11 10 37 100 0.2
12 10 37 100 0.2
9 11 37 100 0.2
10 11 37 100 0.2
11 11 37 100 0.2
12 11 37 100 0.2
14 11 37 100 0.199999
0 12 37 100 0.00184555
10 12 37 100 0.198202
11 12 37 100 0.199953
12 12 37 100 0.2
14 12 37 100 0.2
15 12 37 100 0.199997
33 12 37 100 2.47113e-06
0 13 37 100 6.43231e-05
11 13 37 100 0.2
12 13 37 100 0.199947
13 13 37 100 0.2
15 13 37 100 3.01597e-06
16 13 37 100 0.398186
17 13 37 100 0.00179901
0 14 37 100 0.2
12 14 37 100 0.2
13 14 37 100 0.2
14 14 37 100 0.2
17 14 37 100 0.2
0 15 37 100 0.200004
13 15 37 100 0.2
14 15 37 100 0.2
15 15 37 100 0.199984
16 15 37 100 2.24974e-05
18 15 37 100 0.000288947
19 15 37 100 0.199407
20 15 37 100 0.000288947
21 15 37 100 5.13402e-06
0 16 37 100 0.000748448
14 16 37 100 0.2
15 16 37 100 0.200016
16 16 37 100 0.199984
20 16 37 100 2.359e-06
21 16 37 100 0.199249
26 16 37 100 0.2
0 17 37 100 0.20019
15 17 37 100 0.2
16 17 37 100 0.2
17 17 37 100 0.2
22 17 37 100 0.19981
0 18 37 100 0.19991
9 18 37 100 2.17054e-05
13 18 37 100 2.16927e-05
15 18 37 100 1.73968e-05
16 18 37 100 0.2
17 18 37 100 0.2
18 18 37 100 0.200006
24 18 37 100 1.46233e-05
25 18 37 100 0.2
27 18 37 100 8.26466e-06
0 19 37 100 0.000338238
17 19 37 100 0.2
18 19 37 100 0.2
19 19 37 100 0.2
21 19 37 100 0.2
23 19 37 100 0.000619219
26 19 37 100 0.19904
30 19 37 100 2.26594e-06
0 20 37 100 0.200014
5 20 37 100 2.70551e-06
9 20 37 100 2.38419e-06
18 20 37 100 0.199998
19 20 37 100 0.200003
20 20 37 100 0.199985
21 20 37 100 2.39873e-06
22 20 37 100 0.19999
35 20 37 100 2.36751e-06
0 21 37 100 4.92416e-05
19 21 37 100 0.2
20 21 37 100 0.199959
21 21 37 100 0.199998
23 21 37 100 0.2
25 21 37 100 0.199994
0 22 37 100 2.14526e-05
20 22 37 100 0.2
21 22 37 100 0.2
22 22 37 100 0.2
23 22 37 100 0.199359
25 22 37 100 0.2
26 22 37 100 0.000619232
0 23 37 100 5.22152e-05
21 23 37 100 0.2
22 23 37 100 0.199953
23 23 37 100 0.2
26 23 37 100 0.199995
27 23 37 100 0.199999
0 24 37 100 0.0132868
13 24 37 100 0.00242132
21 24 37 100 0.200001
23 24 37 100 0.199948
24 24 37 100 0.202675
27 24 37 100 0.181667
28 24 37 100 0.200001
22 25 37 100 0.2
24 25 37 100 0.2
25 25 37 100 0.2
26 25 37 100 0.2
29 25 37 100 0.199999
23 26 37 100 0.2
25 26 37 100 0.2
26 26 37 100 0.200003
29 26 37 100 5.28573e-06
30 26 37 100 0.199991
32 26 37 100 0.2
0 27 37 100 0.000682765
24 27 37 100 0.2
26 27 37 100 0.197955
27 27 37 100 0.2
31 27 37 100 0.2
33 27 37 100 0.2
36 27 37 100 0.00136185
25 28 37 100 0.199999
27 28 37 100 0.2
28 28 37 100 0.2
34 28 37 100 0.4
0 29 37 100 0.00207458
26 29 37 100 0.199989
28 29 37 100 0.2
29 29 37 100 0.198691
35 29 37 100 0.399245
0 30 37 100 5.35825e-06
27 30 37 100 0.199995
28 30 37 100 5.1887e-06
29 30 37 100 0.199995
30 30 37 100 0.2
36 30 37 100 0.4
27 31 37 100 5.1887e-06
28 31 37 100 0.199995
30 31 37 100 0.4
37 31 37 100 0.4
0 32 37 100 1.83108e-05
29 32 37 100 0.333315
30 32 37 100 0.333333
32 32 37 100 0.333334
0 33 37 100 0.00172115
30 33 37 100 0.333333
31 33 37 100 0.331612
33 33 37 100 0.333333
0 34 37 100 4.71967e-05
31 34 37 100 0.333333
32 34 37 100 0.333293
34 34 37 100 0.333327
0 35 37 100 0.333283
32 35 37 100 4.99699e-05
33 35 37 100 0.333333
37 35 37 100 0.333333
31 36 37 100 0.333333
34 36 37 100 0.333334
37 36 37 100 0.333333
0 37 37 100 4.9948e-05
32 37 37 100 0.333283
35 37 37 100 0.666667
0 38 37 100 0.0177256
35 38 37 100 0.5
36 38 37 100 0.482274
36 39 37 100 0.5
37 39 37 100 0.5
37 40 37 100 1
1 1 38 100 1
0 2 38 100 0.00944169
2 2 38 100 0.990558
0 3 38 100 7.01919e-05
3 3 38 100 0.99993
4 4 38 100 1
5 5 38 100 1
5 6 38 100 0.5
6 6 38 100 0.5
0 7 38 100 0.499998
6 7 38 100 0.500002
6 8 38 100 0.5
7 8 38 100 0.5
0 9 38 100 0.00185683
7 9 38 100 0.499336
8 9 38 100 0.498807
8 10 38 100 0.5
9 10 38 100 0.5
9 11 38 100 0.5
10 11 38 100 0.5
10 12 38 100 0.5
11 12 38 100 0.5
0 13 38 100 0.499996
12 13 38 100 0.500004
0 14 38 100 0.499998
13 14 38 100 0.500002
0 15 38 100 0.0123779
11 15 38 100 0.487622
14 15 38 100 0.5
0 16 38 100 0.506136
15 16 38 100 0.493864
12 17 38 100 0.5
16 17 38 100 0.5
0 18 38 100 0.0105131
13 18 38 100 0.499992
17 18 38 100 0.489494
18 19 38 100 0.5
31 19 38 100 0.5
19 20 38 100 0.5
32 20 38 100 0.5
20 21 38 100 0.5
32 21 38 100 0.5
15 22 38 100 0.500002
21 22 38 100 0.499998
0 23 38 100 0.00159318
16 23 38 100 0.498407
22 23 38 100 0.5
17 24 38 100 0.5
23 24 38 100 0.5
0 25 38 100 0.499998
24 25 38 100 0.500002
0 26 38 100 0.51715
25 26 38 100 0.48285
18 27 38 100 0.5
26 27 38 100 0.5
0 28 38 100 0.499997
27 28 38 100 0.500003
0 29 38 100 6.56599e-05
19 29 38 100 0.499934
28 29 38 100 0.5
20 30 38 100 0.5
29 30 38 100 0.5
0 31 38 100 0.0157714
21 31 38 100 0.5
30 31 38 100 0.484229
22 32 38 100 0.5
31 32 38 100 0.5
0 33 38 100 3.52733e-05
23 33 38 100 0.5
32 33 38 100 0.499965
0 34 38 100 0.00148571
24 34 38 100 0.5
33 34 38 100 0.498514
0 35 38 100 5.43883e-06
25 35 38 100 0.499995
34 35 38 100 0.5
26 36 38 100 0.5
35 36 38 100 0.5
0 37 38 100 0.0164278
27 37 38 100 0.5
36 37 38 100 0.483572
28 38 38 100 0.5
37 38 38 100 0.5
30 39 38 100 0.5
38 39 38 100 0.5
31 40 38 100 1
32 41 38 100 1
33 42 38 100 1
34 43 38 100 1
35 44 38 100 1
0 45 38 100 0.000602394
36 45 38 100 0.999398
37 46 38 100 1
38 47 38 100 1
0 1 42 100 0.0118262
1 1 42 100 0.988174
0 2 42 100 0.00100974
2 2 42 100 0.99899
0 3 42 100 7.75821e-05
3 3 42 100 0.999922
0 4 42 100 2.80878e-05
4 4 42 100 0.999972
0 5 42 100 0.00122968
5 5 42 100 0.99877
6 6 42 100 1
0 7 42 100 0.000143883
7 7 42 100 0.999856
8 8 42 100 1
0 9 42 100 0.00325623
9 9 42 100 0.996744
10 10 42 100 1
0 11 42 100 0.500024
11 11 42 100 0.499964
26 11 42 100 1.21522e-05
0 12 42 100 0.5
10 12 42 100 0.5
0 13 42 100 3.57115e-05
11 13 42 100 0.5
12 13 42 100 0.499964
12 14 42 100 0.5
13 14 42 100 0.5
14 15 42 100 1
15 16 42 100 1
0 17 42 100 3.18339e-05
16 17 42 100 0.999968
17 18 42 100 1
0 19 42 100 0.00628806
18 19 42 100 0.993712
19 20 42 100 1
20 21 42 100 1
0 22 42 100 0.0015366
21 22 42 100 0.998463
22 23 42 100 1
0 24 42 100 0.00219191
23 24 42 100 0.997808
24 25 42 100 1
24 26 42 100 0.5
25 26 42 100 0.5
25 27 42 100 0.5
26 27 42 100 0.5
0 28 42 100 5.67647e-05
26 28 42 100 0.499943
27 28 42 100 0.5
27 29 42 100 0.5
28 29 42 100 0.5
0 30 42 100 5.41203e-06
28 30 42 100 0.499995
29 30 42 100 0.5
29 31 42 100 1
0 32 42 100 0.00271648
30 32 42 100 0.997284
31 33 42 100 0.5
32 33 42 100 0.5
0 34 42 100 0.0019222
32 34 42 100 0.998078
32 35 42 100 0.5
33 35 42 100 0.5
0 36 42 100 0.00911235
33 36 42 100 0.5
34 36 42 100 0.490888
34 37 42 100 0.5
35 37 42 100 0.5
0 38 42 100 3.51381e-05
35 38 42 100 0.499965
36 38 42 100 0.5
37 39 42 100 1
38 40 42 100 1
39 41 42 100 1
0 42 42 100 0.00309488
40 42 42 100 0.996905
0 43 42 100 0.494302
41 43 42 100 0.505698
0 44 42 100 0.00947658
42 44 42 100 0.990523
0 1 44 100 0.00216263
1 1 44 100 0.997837
2 2 44 100 1
0 3 44 100 0.00616076
3 3 44 100 0.993839
4 4 44 100 1
0 5 44 100 1.12859e-05
5 5 44 100 0.999989
0 6 44 100 0.00464393
6 6 44 100 0.495355
7 6 44 100 0.500001
0 7 44 100 2.80292e-05
7 7 44 100 0.5
8 7 44 100 0.499972
0 8 44 100 1.20709e-05
8 8 44 100 0.499988
9 8 44 100 0.5
0 9 44 100 0.00153166
9 9 44 100 0.499999
10 9 44 100 0.49847
10 10 44 100 0.5
11 10 44 100 0.5
11 11 44 100 0.5
12 11 44 100 0.5
0 12 44 100 0.499997
12 12 44 100 0.500003
13 13 44 100 0.5
14 13 44 100 0.5
0 14 44 100 9.66434e-06
14 14 44 100 0.5
15 14 44 100 0.49999
15 15 44 100 0.5
16 15 44 100 0.5
16 16 44 100 0.5
17 16 44 100 0.5
17 17 44 100 0.987677
18 17 44 100 0.012323
17 18 44 100 0.00277517
18 18 44 100 0.997225
19 19 44 100 1
0 20 44 100 2.5407e-05
20 20 44 100 0.999975
21 21 44 100 0.999959
37 21 44 100 4.13167e-05
21 22 44 100 0.5
22 22 44 100 0.5
22 23 44 100 0.5
23 23 44 100 0.5
0 24 44 100 0.00908565
23 24 44 100 0.500001
24 24 44 100 0.490914
0 25 44 100 1.2274e-05
24 25 44 100 0.499988
25 25 44 100 0.5
25 26 44 100 0.5
26 26 44 100 0.5
0 27 44 100 1.59345e-05
26 27 44 100 0.499984
27 27 44 100 0.5
0 28 44 100 1.24625e-05
27 28 44 100 0.499988
28 28 44 100 0.5
28 29 44 100 0.5
29 29 44 100 0.5
28 30 44 100 0.5
30 30 44 100 0.5
0 31 44 100 0.00898971
28 31 44 100 0.500002
31 31 44 100 0.491009
29 32 44 100 0.5
32 32 44 100 0.5
0 33 44 100 0.00362644
31 33 44 100 0.5
33 33 44 100 0.496374
32 34 44 100 0.5
34 34 44 100 0.5
0 35 44 100 0.499999
35 35 44 100 0.500001
0 36 44 100 0.499999
36 36 44 100 0.500001
0 37 44 100 0.0104199
33 37 44 100 0.48958
37 37 44 100 0.5
0 38 44 100 0.00185639
34 38 44 100 0.5
38 38 44 100 0.498144
35 39 44 100 0.5
39 39 44 100 0.5
34 40 44 100 0.499998
40 40 44 100 0.500002
0 41 44 100 0.0137745
30 41 44 100 8.83662e-06
36 41 44 100 0.486217
41 41 44 100 0.5
0 42 44 100 0.5
42 42 44 100 0.5
37 43 44 100 0.5
43 43 44 100 0.5
38 44 44 100 0.5
44 44 44 100 0.5
39 45 44 100 1
40 46 44 100 1
41 47 44 100 1
42 48 44 100 1
43 49 44 100 1
44 50 44 100 1
0 1 46 100 0.00360673
1 1 46 100 0.996386
37 1 46 100 7.01794e-06
2 2 46 100 1
3 3 46 100 1
0 4 46 100 0.0569327
4 4 46 100 0.5
32 4 46 100 0.443067
4 5 46 100 0.5
5 5 46 100 0.5
5 6 46 100 0.5
6 6 46 100 0.5
0 7 46 100 0.00107163
6 7 46 100 0.498928
7 7 46 100 0.5
7 8 46 100 0.5
8 8 46 100 0.5
8 9 46 100 0.5
9 9 46 100 0.5
9 10 46 100 0.5
10 10 46 100 0.5
10 11 46 100 0.5
12 11 46 100 0.5
0 12 46 100 0.00225806
11 12 46 100 0.497742
13 12 46 100 0.5
0 13 46 100 0.500008
12 13 46 100 0.499992
13 14 46 100 0.500001
14 14 46 100 0.499998
14 15 46 100 0.5
15 15 46 100 0.5
15 16 46 100 0.5
16 16 46 100 0.5
0 17 46 100 0.5
17 17 46 100 0.5
0 18 46 100 0.00187044
16 18 46 100 0.49813
18 18 46 100 0.5
17 19 46 100 0.5
19 19 46 100 0.5
0 20 46 100 0.486382
18 20 46 100 0.500005
20 20 46 100 0.0136126
0 21 46 100 0.00410018
19 21 46 100 0.5
20 21 46 100 0.4959
20 22 46 100 0.5
21 22 46 100 0.5
21 23 46 100 0.5
22 23 46 100 0.5
