1 1 100 1 1
1 4 100 1 1
1 0 100 2 1
1 1 100 2 0.888888
2 1 100 2 0.111112
2 2 100 2 1
2 3 100 2 1
2 0 100 3 1
1 1 100 3 0.9375
2 1 100 3 0.0625
1 2 100 3 0.0570088
2 2 100 3 0.776523
3 2 100 3 0.166468
2 3 100 3 0.0833333
3 3 100 3 0.916667
1 4 100 3 0.327193
3 4 100 3 0.672807
2 6 100 3 1
1 7 100 3 0.111852
2 7 100 3 0.00251023
3 7 100 3 0.885638
1 0 100 4 0.00132171
2 0 100 4 0.989108
3 0 100 4 0.00957056
1 1 100 4 0.888883
2 1 100 4 0.0370389
3 1 100 4 0.0370389
4 1 100 4 0.0370389
2 2 100 4 0.956498
3 2 100 4 0.043502
3 3 100 4 0.910556
4 3 100 4 0.0894435
1 4 100 4 8.12185e-07
3 4 100 4 0.0534639
4 4 100 4 0.946535
3 5 100 4 1
3 6 100 4 0.000486158
4 6 100 4 0.999514
1 0 100 5 0.0715952
2 0 100 5 0.124268
3 0 100 5 0.184579
4 0 100 5 0.619558
1 1 100 5 0.79999
2 1 100 5 0.100005
3 1 100 5 0.033335
4 1 100 5 0.033335
5 1 100 5 0.033335
2 2 100 5 0.916673
3 2 100 5 0.0833267
2 3 100 5 0.0400229
3 3 100 5 0.799955
4 3 100 5 0.120017
5 3 100 5 0.0400054
1 4 100 5 0.074092
3 4 100 5 0.074045
4 4 100 5 0.740655
5 4 100 5 0.111208
3 5 100 5 0.047628
4 5 100 5 0.0474393
5 5 100 5 0.904933
4 6 100 5 0.5
5 6 100 5 0.5
1 7 100 5 0.00273263
2 7 100 5 0.00110334
3 7 100 5 2.64943e-06
5 7 100 5 0.996161
1 0 100 6 0.0259048
2 0 100 6 0.286511
3 0 100 6 0.277164
4 0 100 6 0.195289
5 0 100 6 0.21494
6 0 100 6 0.00019111
1 1 100 6 0.954547
2 1 100 6 0.0454533
1 2 100 6 0.0416935
2 2 100 6 0.91661
3 2 100 6 0.0416962
1 3 100 6 1.0557e-05
2 3 100 6 0.0425805
3 3 100 6 0.914834
4 3 100 6 0.0265878
5 3 100 6 0.015987
1 4 100 6 5.49725e-06
3 4 100 6 0.0696962
4 4 100 6 0.90032
5 4 100 6 0.0299786
1 5 100 6 0.0398773
4 5 100 6 0.159769
5 5 100 6 0.72057
6 5 100 6 0.0797842
1 6 100 6 0.0418241
5 6 100 6 0.205198
6 6 100 6 0.752978
6 7 100 6 1
4 8 100 6 0.218003
5 8 100 6 0.0747389
6 8 100 6 0.707258
1 0 100 7 0.000652628
2 0 100 7 0.145893
3 0 100 7 0.148188
4 0 100 7 0.414822
5 0 100 7 0.145921
6 0 100 7 0.144524
1 1 100 7 0.935507
2 1 100 7 0.0644935
1 2 100 7 0.00302213
2 2 100 7 0.779577
3 2 100 7 0.155012
5 2 100 7 0.0623891
2 3 100 7 0.02843
3 3 100 7 0.625399
4 3 100 7 0.204021
5 3 100 7 0.02843
6 3 100 7 0.08529
7 3 100 7 0.02843
3 4 100 7 0.0345724
4 4 100 7 0.619972
5 4 100 7 0.241736
6 4 100 7 0.0345732
7 4 100 7 0.0691463
4 5 100 7 0.038479
5 5 100 7 0.653756
6 5 100 7 0.230811
7 5 100 7 0.0769534
5 6 100 7 0.0434854
6 6 100 7 0.739064
7 6 100 7 0.21745
7 7 100 7 1
6 8 100 7 1
1 0 100 8 7.2492e-05
2 0 100 8 0.270326
3 0 100 8 0.142355
4 0 100 8 0.22439
5 0 100 8 0.236785
6 0 100 8 0.00214114
7 0 100 8 0.12393
1 1 100 8 0.961486
2 1 100 8 0.0385135
2 2 100 8 0.84604
3 2 100 8 0.115477
4 2 100 8 0.0384833
3 3 100 8 0.821186
4 3 100 8 0.137614
5 3 100 8 0.0411995
3 4 100 8 0.0450843
4 4 100 8 0.714825
5 4 100 8 0.195082
6 4 100 8 0.0450086
3 5 100 8 6.97364e-07
4 5 100 8 0.0877067
5 5 100 8 0.62093
6 5 100 8 0.249732
7 5 100 8 0.0416311
5 6 100 8 0.0384817
6 6 100 8 0.576851
7 6 100 8 0.269227
8 6 100 8 0.115441
5 7 100 8 0.0398531
6 7 100 8 0.0797451
7 7 100 8 0.6013
8 7 100 8 0.279102
7 8 100 8 0.0714286
8 8 100 8 0.928571
8 9 100 8 1
5 13 100 8 1
3 17 100 8 6.22572e-06
4 17 100 8 0.999994
4 19 100 8 1
5 20 100 8 1
6 21 100 8 0.431562
7 21 100 8 0.14307
8 21 100 8 0.425368
1 0 100 9 1.86856e-05
2 0 100 9 0.147621
3 0 100 9 0.00186117
4 0 100 9 0.29488
5 0 100 9 0.112863
6 0 100 9 0.000935057
7 0 100 9 0.292437
8 0 100 9 0.149384
1 1 100 9 0.929086
2 1 100 9 1.89338e-06
3 1 100 9 0.0709122
1 2 100 9 0.0333219
2 2 100 9 0.766242
3 2 100 9 0.0671595
4 2 100 9 0.0999617
5 2 100 9 0.0333153
2 3 100 9 0.0708125
3 3 100 9 0.813947
4 3 100 9 0.0354088
5 3 100 9 0.0798322
3 4 100 9 0.0370521
4 4 100 9 0.740682
5 4 100 9 0.111133
6 4 100 9 0.111132
4 5 100 9 0.0690174
5 5 100 9 0.654909
6 5 100 9 0.138035
7 5 100 9 0.0690174
8 5 100 9 0.034512
9 5 100 9 0.0345087
5 6 100 9 0.0689456
6 6 100 9 0.62093
7 6 100 9 0.172229
8 6 100 9 0.0689448
9 6 100 9 0.0689503
1 7 100 9 0.0370756
2 7 100 9 0.0370756
6 7 100 9 0.110586
7 7 100 9 0.555742
8 7 100 9 0.148294
9 7 100 9 0.111227
2 8 100 9 0.0416491
7 8 100 9 0.167673
8 8 100 9 0.665731
9 8 100 9 0.124947
8 9 100 9 0.210526
9 9 100 9 0.789474
9 10 100 9 1
6 11 100 9 1.14216e-05
8 11 100 9 4.46574e-06
9 11 100 9 0.999984
1 0 100 10 0.00127204
2 0 100 10 0.191725
3 0 100 10 0.190533
4 0 100 10 0.000940329
5 0 100 10 0.00195786
6 0 100 10 0.000362322
7 0 100 10 0.192954
8 0 100 10 0.189745
9 0 100 10 0.230506
10 0 100 10 4.69297e-06
1 1 100 10 0.900175
2 1 100 10 0.0499116
3 1 100 10 0.0499138
1 2 100 10 2.11726e-06
2 2 100 10 0.889925
3 2 100 10 0.0550506
4 2 100 10 0.0550222
2 3 100 10 0.0457451
3 3 100 10 0.785799
4 3 100 10 0.112304
5 3 100 10 0.056152
3 4 100 10 0.105291
4 4 100 10 0.736773
5 4 100 10 0.105291
6 4 100 10 0.0526454
3 5 100 10 8.86742e-06
4 5 100 10 0.105329
5 5 100 10 0.736762
6 5 100 10 0.105237
7 5 100 10 0.0526626
5 6 100 10 0.100001
6 6 100 10 0.7
7 6 100 10 0.149998
8 6 100 10 0.0500005
6 7 100 10 0.111183
7 7 100 10 0.610847
8 7 100 10 0.166785
9 7 100 10 0.111185
7 8 100 10 0.167887
8 8 100 10 0.563531
9 8 100 10 0.156393
10 8 100 10 0.112189
1 9 100 10 0.0506994
7 9 100 10 6.79858e-05
8 9 100 10 0.209047
9 9 100 10 0.475756
10 9 100 10 0.26443
9 10 100 10 0.333339
10 10 100 10 0.666661
10 11 100 10 1
1 0 100 11 0.0294352
2 0 100 11 0.208809
3 0 100 11 0.224288
4 0 100 11 0.158972
5 0 100 11 0.0467053
6 0 100 11 0.00463859
7 0 100 11 0.208628
8 0 100 11 0.00420225
9 0 100 11 0.00562546
10 0 100 11 0.108697
1 1 100 11 0.942619
4 1 100 11 0.0286904
5 1 100 11 0.0286904
2 2 100 11 0.941799
3 2 100 11 0.0277967
6 2 100 11 0.030404
2 3 100 11 0.0284283
3 3 100 11 0.885838
4 3 100 11 0.0285941
5 3 100 11 0.028594
7 3 100 11 0.0285457
4 4 100 11 0.915532
5 4 100 11 0.0238675
8 4 100 11 0.0303002
9 4 100 11 0.0303002
4 5 100 11 1.78227e-05
5 5 100 11 0.909025
6 5 100 11 0.0606381
9 5 100 11 0.0303189
6 6 100 11 0.909028
7 6 100 11 0.0909719
7 7 100 11 0.843872
8 7 100 11 0.124842
10 7 100 11 0.031286
7 8 100 11 0.0312431
8 8 100 11 0.812674
9 8 100 11 0.0936052
10 8 100 11 0.0312388
11 8 100 11 0.0312388
4 9 100 11 3.3186e-06
8 9 100 11 0.0617945
9 9 100 11 0.813138
10 9 100 11 0.0937608
11 9 100 11 0.0313035
9 10 100 11 0.0615941
10 10 100 11 0.784412
11 10 100 11 0.153994
10 11 100 11 0.0509931
11 11 100 11 0.949007
10 12 100 11 0.262081
11 12 100 11 0.737919
1 0 100 12 0.00242819
2 0 100 12 0.00173282
3 0 100 12 0.00204532
4 0 100 12 0.282015
5 0 100 12 0.00157243
6 0 100 12 0.00902321
7 0 100 12 0.424083
8 0 100 12 0.000399684
9 0 100 12 0.129607
10 0 100 12 0.142835
11 0 100 12 0.00425583
12 0 100 12 1.55066e-06
1 1 100 12 0.954553
2 1 100 12 0.0454469
2 2 100 12 0.949417
3 2 100 12 0.0505734
4 2 100 12 4.13522e-06
9 2 100 12 5.79827e-06
2 3 100 12 0.0667893
3 3 100 12 0.878269
4 3 100 12 0.0549417
3 4 100 12 0.182157
4 4 100 12 0.637542
5 4 100 12 0.136618
6 4 100 12 0.0436835
4 5 100 12 0.095466
5 5 100 12 0.665935
6 5 100 12 0.19084
7 5 100 12 0.0477596
4 6 100 12 1.07389e-05
5 6 100 12 0.138285
6 6 100 12 0.589442
7 6 100 12 0.0906281
8 6 100 12 0.181634
4 7 100 12 0.0433237
5 7 100 12 6.84773e-07
6 7 100 12 0.129977
7 7 100 12 0.56302
8 7 100 12 0.086652
9 7 100 12 0.177027
7 8 100 12 0.090966
8 8 100 12 0.590658
9 8 100 12 0.0454824
10 8 100 12 0.227412
11 8 100 12 0.0454824
8 9 100 12 0.111437
9 9 100 12 0.610962
10 9 100 12 0.0555715
11 9 100 12 0.166458
12 9 100 12 0.0555708
4 10 100 12 0.0476375
5 10 100 12 0.0476375
7 10 100 12 9.90707e-07
8 10 100 12 0.000253484
9 10 100 12 0.0952749
10 10 100 12 0.570998
11 10 100 12 0.0952849
12 10 100 12 0.142912
9 11 100 12 0.111244
10 11 100 12 0.0556338
11 11 100 12 0.666256
12 11 100 12 0.166866
10 12 100 12 0.0714286
11 12 100 12 0.142857
12 12 100 12 0.785714
11 13 100 12 0.332427
12 13 100 12 0.667573
6 14 100 12 5.19388e-06
8 14 100 12 4.14393e-06
12 14 100 12 0.999991
1 0 100 13 0.00982405
2 0 100 13 0.239828
3 0 100 13 0.00730866
4 0 100 13 0.00023865
5 0 100 13 0.003142
6 0 100 13 3.23861e-05
7 0 100 13 0.239996
8 0 100 13 0.0268512
9 0 100 13 0.00458797
10 0 100 13 0.00501906
11 0 100 13 0.0238265
12 0 100 13 0.437382
13 0 100 13 0.00196305
1 1 100 13 0.947253
2 1 100 13 0.052747
1 2 100 13 0.0500384
2 2 100 13 0.799843
3 2 100 13 0.100081
4 2 100 13 0.0500384
2 3 100 13 1.85281e-06
3 3 100 13 0.841846
4 3 100 13 0.105435
5 3 100 13 0.0527176
4 4 100 13 0.7222
5 4 100 13 0.222223
6 4 100 13 0.0555665
9 4 100 13 5.34767e-06
12 4 100 13 5.3301e-06
2 5 100 13 0.0526715
5 5 100 13 0.684036
6 5 100 13 0.210678
7 5 100 13 0.0526143
3 6 100 13 0.0528983
6 6 100 13 0.581875
7 6 100 13 0.263772
8 6 100 13 0.101455
4 7 100 13 0.0526391
6 7 100 13 0.0526391
7 7 100 13 0.526317
8 7 100 13 0.263121
9 7 100 13 0.105269
10 7 100 13 9.69839e-06
12 7 100 13 5.56524e-06
5 8 100 13 0.0476185
7 8 100 13 0.0476185
8 8 100 13 0.475238
9 8 100 13 0.285295
10 8 100 13 0.0952282
11 8 100 13 0.0476185
12 8 100 13 0.00138332
6 9 100 13 0.0954032
8 9 100 13 0.047211
9 9 100 13 0.381377
10 9 100 13 0.2852
11 9 100 13 0.0954043
12 9 100 13 0.0477021
13 9 100 13 0.0477021
4 10 100 13 0.0528865
7 10 100 13 0.0528865
9 10 100 13 0.0528865
10 10 100 13 0.423083
11 10 100 13 0.312655
12 10 100 13 0.0527159
13 10 100 13 0.0528865
4 11 100 13 0.0619612
8 11 100 13 0.0619638
9 11 100 13 0.0619638
10 11 100 13 9.61999e-06
11 11 100 13 0.432963
12 11 100 13 0.257213
13 11 100 13 0.123926
9 12 100 13 0.0766773
10 12 100 13 0.0771078
12 12 100 13 0.538423
13 12 100 13 0.307792
10 13 100 13 0.0909091
11 13 100 13 0.0909091
12 13 100 13 0.181818
13 13 100 13 0.636364
11 14 100 13 0.249993
12 14 100 13 0.250001
13 14 100 13 0.500006
9 15 100 13 0.000695738
10 15 100 13 0.109969
11 15 100 13 0.0004913
12 15 100 13 0.39186
13 15 100 13 0.496984
10 16 100 13 0.370968
11 16 100 13 0.0739595
12 16 100 13 0.000521735
13 16 100 13 0.554551
10 17 100 13 0.0486365
11 17 100 13 0.772926
12 17 100 13 0.0886772
13 17 100 13 0.0897603
1 0 100 14 0.00010394
2 0 100 14 0.0727775
3 0 100 14 0.338488
4 0 100 14 0.000901776
5 0 100 14 0.112473
6 0 100 14 0.271652
7 0 100 14 0.112476
8 0 100 14 0.000294764
9 0 100 14 1.32175e-05
10 0 100 14 0.00199284
11 0 100 14 0.00407216
12 0 100 14 0.0155697
13 0 100 14 0.0691851
1 1 100 14 0.941173
3 1 100 14 0.0588265
2 2 100 14 0.938184
3 2 100 14 7.51344e-06
4 2 100 14 0.0618087
2 3 100 14 5.18492e-06
3 3 100 14 0.857646
4 3 100 14 0.142341
6 3 100 14 4.5426e-06
13 3 100 14 4.10452e-06
3 4 100 14 5.70862e-05
4 4 100 14 0.857
5 4 100 14 0.142938
6 4 100 14 4.53745e-06
4 5 100 14 0.0625039
5 5 100 14 0.749986
6 5 100 14 0.0625025
7 5 100 14 0.125008
5 6 100 14 0.0603141
6 6 100 14 0.69843
7 6 100 14 0.120628
8 6 100 14 0.120628
6 7 100 14 0.0667464
7 7 100 14 0.59929
8 7 100 14 0.200773
9 7 100 14 0.13319
6 8 100 14 4.93847e-06
7 8 100 14 0.0588854
8 8 100 14 0.587818
9 8 100 14 0.235538
10 8 100 14 0.117754
8 9 100 14 0.0555701
9 9 100 14 0.444555
10 9 100 14 0.222067
11 9 100 14 0.222238
12 9 100 14 0.0555701
6 10 100 14 4.68692e-06
9 10 100 14 0.0556305
10 10 100 14 0.444748
11 10 100 14 0.277113
12 10 100 14 0.111257
13 10 100 14 0.0556166
14 10 100 14 0.0556304
3 11 100 14 6.15921e-06
9 11 100 14 0.0711976
10 11 100 14 0.00480206
11 11 100 14 0.425982
12 11 100 14 0.284604
13 11 100 14 0.14221
14 11 100 14 0.0711976
7 12 100 14 0.0494769
10 12 100 14 0.0494375
11 12 100 14 0.04948
12 12 100 14 0.290139
13 12 100 14 0.314083
14 12 100 14 0.247384
11 13 100 14 5.09809e-06
12 13 100 14 0.147113
13 13 100 14 0.288488
14 13 100 14 0.564393
12 14 100 14 0.245982
13 14 100 14 0.377009
14 14 100 14 0.377009
10 15 100 14 0.316853
13 15 100 14 0.340616
14 15 100 14 0.342531
14 16 100 14 1
1 0 100 15 0.000526334
2 0 100 15 0.131231
3 0 100 15 0.00219574
4 0 100 15 0.00668337
5 0 100 15 0.130027
6 0 100 15 0.131085
7 0 100 15 0.0939151
8 0 100 15 0.00713021
9 0 100 15 0.22663
10 0 100 15 0.129378
11 0 100 15 0.130117
12 0 100 15 0.00658969
13 0 100 15 0.00282092
14 0 100 15 0.00167007
1 1 100 15 0.947353
2 1 100 15 2.10128e-06
4 1 100 15 0.0526423
9 1 100 15 2.99237e-06
1 2 100 15 0.052667
2 2 100 15 0.841973
3 2 100 15 0.0526857
5 2 100 15 0.0526725
7 2 100 15 1.30303e-06
2 3 100 15 0.100545
3 3 100 15 0.761262
4 3 100 15 0.0502661
6 3 100 15 0.0879273
3 4 100 15 0.0549478
4 4 100 15 0.76643
5 4 100 15 0.0549478
6 4 100 15 0.0137768
7 4 100 15 0.109894
9 4 100 15 3.88695e-06
4 5 100 15 0.0526455
5 5 100 15 0.684121
6 5 100 15 0.157936
8 5 100 15 0.105295
9 5 100 15 1.30964e-06
5 6 100 15 0.0625317
6 6 100 15 0.687349
7 6 100 15 0.187588
9 6 100 15 0.0625317
6 7 100 15 0.0491991
7 7 100 15 0.508247
8 7 100 15 0.195193
9 7 100 15 0.197886
10 7 100 15 0.0494694
11 7 100 15 5.59595e-06
7 8 100 15 0.0454659
8 8 100 15 0.454617
9 8 100 15 0.136245
10 8 100 15 0.272785
11 8 100 15 0.0908875
5 9 100 15 3.58506e-06
8 9 100 15 0.0547926
9 9 100 15 0.39731
10 9 100 15 0.164388
11 9 100 15 0.219117
12 9 100 15 0.164389
5 10 100 15 2.74296e-06
7 10 100 15 0.0500121
8 10 100 15 0.0500089
9 10 100 15 0.0999985
10 10 100 15 0.300041
11 10 100 15 0.150102
12 10 100 15 0.199854
13 10 100 15 0.149982
3 11 100 15 0.0805435
4 11 100 15 0.043818
5 11 100 15 0.043818
6 11 100 15 0.043818
9 11 100 15 3.14011e-06
11 11 100 15 0.306478
12 11 100 15 0.0874006
13 11 100 15 0.175267
14 11 100 15 0.175036
15 11 100 15 0.043818
10 12 100 15 0.0622421
11 12 100 15 2.02702e-06
12 12 100 15 0.439374
13 12 100 15 0.124592
14 12 100 15 0.186894
15 12 100 15 0.186897
10 13 100 15 0.0529247
11 13 100 15 0.105842
12 13 100 15 0.0479062
13 13 100 15 0.423005
14 13 100 15 0.15863
15 13 100 15 0.211692
4 14 100 15 0.0714516
7 14 100 15 0.0714516
11 14 100 15 2.3667e-06
12 14 100 15 0.142897
13 14 100 15 0.0714516
14 14 100 15 0.499842
15 14 100 15 0.142903
5 15 100 15 0.0909999
8 15 100 15 0.0910269
13 15 100 15 0.0897934
14 15 100 15 0.0909913
15 15 100 15 0.637189
14 16 100 15 0.5
15 16 100 15 0.5
15 17 100 15 1
13 18 100 15 1
10 19 100 15 0.965704
11 19 100 15 0.0216688
12 19 100 15 0.0126274
1 0 100 16 1.21471e-05
2 0 100 16 0.000905841
3 0 100 16 0.00166268
4 0 100 16 0.0011523
5 0 100 16 0.00542844
6 0 100 16 0.074476
7 0 100 16 0.37163
8 0 100 16 0.000485883
9 0 100 16 2.37643e-05
10 0 100 16 0.0506026
11 0 100 16 0.00126967
12 0 100 16 0.00548366
13 0 100 16 0.113265
14 0 100 16 0.368042
15 0 100 16 0.00556023
1 1 100 16 0.9
2 1 100 16 0.1
2 2 100 16 0.999995
3 2 100 16 4.91672e-06
2 3 100 16 4.91816e-06
3 3 100 16 0.999995
4 4 100 16 0.778384
5 4 100 16 0.111247
6 4 100 16 0.110369
2 5 100 16 0.0770458
3 5 100 16 0.0770458
4 5 100 16 0.0770458
5 5 100 16 0.461136
6 5 100 16 0.153635
7 5 100 16 0.0770458
8 5 100 16 0.0770458
5 6 100 16 0.142868
6 6 100 16 0.714268
8 6 100 16 2.64417e-06
9 6 100 16 0.142862
7 7 100 16 0.787783
8 7 100 16 0.112289
10 7 100 16 0.0996182
14 7 100 16 0.000309625
8 8 100 16 0.857143
9 8 100 16 0.142857
8 9 100 16 0.125001
9 9 100 16 0.749998
10 9 100 16 0.125001
9 10 100 16 0.125336
10 10 100 16 0.749329
11 10 100 16 0.125336
10 11 100 16 0.143228
11 11 100 16 0.715644
12 11 100 16 0.141128
3 12 100 16 0.0555563
4 12 100 16 0.0555563
5 12 100 16 0.0555563
11 12 100 16 0.166669
12 12 100 16 0.388881
13 12 100 16 0.166669
15 12 100 16 0.0555563
16 12 100 16 0.0555563
6 13 100 16 0.103153
12 13 100 16 0.12748
13 13 100 16 0.514413
14 13 100 16 0.254954
13 14 100 16 0.249474
14 14 100 16 0.451593
15 14 100 16 0.298933
14 15 100 16 0.272769
15 15 100 16 0.363821
16 15 100 16 0.363409
6 16 100 16 0.000694113
8 16 100 16 0.000537906
12 16 100 16 3.70877e-06
15 16 100 16 0.4987
16 16 100 16 0.500064
16 17 100 16 1
1 0 100 17 0.010219
2 0 100 17 0.000932333
3 0 100 17 0.518987
4 0 100 17 0.00112949
5 0 100 17 0.158519
6 0 100 17 0.128659
7 0 100 17 0.00893378
8 0 100 17 0.0010016
9 0 100 17 1.36067e-05
10 0 100 17 7.32821e-06
11 0 100 17 0.00254617
12 0 100 17 0.157164
13 0 100 17 0.00568433
14 0 100 17 0.00480769
15 0 100 17 6.33498e-05
16 0 100 17 0.0013325
1 1 100 17 0.881889
2 1 100 17 0.0590488
3 1 100 17 1.36899e-05
4 1 100 17 0.0590488
2 2 100 17 0.812376
3 2 100 17 0.062587
4 2 100 17 0.0625186
5 2 100 17 0.0625187
2 3 100 17 0.0625235
3 3 100 17 0.624842
4 3 100 17 0.187581
5 3 100 17 0.125054
3 4 100 17 0.0439843
4 4 100 17 0.627401
5 4 100 17 0.188356
6 4 100 17 0.140259
5 5 100 17 0.53283
6 5 100 17 0.263388
7 5 100 17 0.199558
8 5 100 17 0.00422359
6 6 100 17 0.502385
7 6 100 17 0.313126
8 6 100 17 0.184476
9 6 100 17 1.29226e-05
7 7 100 17 0.498792
8 7 100 17 0.214814
9 7 100 17 0.286394
8 8 100 17 0.533139
9 8 100 17 0.13339
10 8 100 17 0.333451
11 8 100 17 1.98055e-05
9 9 100 17 0.500028
10 9 100 17 0.142888
11 9 100 17 0.357084
10 10 100 17 0.533344
11 10 100 17 0.133336
12 10 100 17 0.333315
13 10 100 17 4.894e-06
11 11 100 17 0.466634
12 11 100 17 0.133592
13 11 100 17 0.267222
14 11 100 17 0.0657432
15 11 100 17 0.0668084
3 12 100 17 4.0672e-06
11 12 100 17 0.0714855
12 12 100 17 0.428904
13 12 100 17 0.142786
14 12 100 17 0.213849
15 12 100 17 0.0714855
16 12 100 17 0.0714855
12 13 100 17 0.0477014
13 13 100 17 0.379994
14 13 100 17 0.143088
15 13 100 17 0.190791
16 13 100 17 0.0953298
17 13 100 17 0.143097
9 14 100 17 0.0625505
13 14 100 17 0.0625505
14 14 100 17 0.437479
15 14 100 17 0.125101
16 14 100 17 0.249768
17 14 100 17 0.0625505
8 15 100 17 0.0769246
9 15 100 17 0.0769246
14 15 100 17 0.0769246
15 15 100 17 0.461528
16 15 100 17 0.0769246
17 15 100 17 0.230774
15 16 100 17 0.11111
16 16 100 17 0.777777
17 16 100 17 0.111113
17 17 100 17 1
1 0 100 18 3.89461e-05
2 0 100 18 0.00502058
3 0 100 18 0.00191619
4 0 100 18 7.40736e-05
5 0 100 18 0.00179402
6 0 100 18 0.122121
7 0 100 18 0.123184
8 0 100 18 0.00397507
9 0 100 18 0.241837
10 0 100 18 0.00109391
11 0 100 18 0.00146584
12 0 100 18 0.00114675
13 0 100 18 0.209484
14 0 100 18 0.124208
15 0 100 18 0.0416259
16 0 100 18 0.120045
17 0 100 18 0.000969458
1 1 100 18 0.944444
3 1 100 18 0.0555556
2 2 100 18 0.904176
4 2 100 18 0.053318
5 2 100 18 0.0425058
3 3 100 18 0.987275
4 3 100 18 4.4442e-05
5 3 100 18 0.012526
9 3 100 18 0.000149751
12 3 100 18 2.49989e-06
13 3 100 18 2.61152e-06
3 4 100 18 4.23243e-05
4 4 100 18 0.941132
6 4 100 18 0.0588257
5 5 100 18 0.833189
6 5 100 18 0.0556061
7 5 100 18 0.111205
5 6 100 18 0.058889
6 6 100 18 0.764459
7 6 100 18 0.0588963
8 6 100 18 0.117754
9 6 100 18 2.02556e-06
6 7 100 18 0.0626044
7 7 100 18 0.812192
8 7 100 18 0.0626066
9 7 100 18 0.0625971
8 8 100 18 0.799576
10 8 100 18 0.200424
8 9 100 18 0.117706
9 9 100 18 0.705632
11 9 100 18 0.176662
8 10 100 18 1.0615e-06
9 10 100 18 0.0625552
10 10 100 18 0.750121
11 10 100 18 1.98368e-06
12 10 100 18 0.187321
9 11 100 18 0.062534
10 11 100 18 0.062536
11 11 100 18 0.687328
13 11 100 18 0.13825
15 11 100 18 0.0493525
10 12 100 18 0.058845
11 12 100 18 0.117489
12 12 100 18 0.647123
14 12 100 18 0.117695
16 12 100 18 0.0588477
11 13 100 18 0.0415876
12 13 100 18 0.12474
13 13 100 18 0.417701
14 13 100 18 0.124733
15 13 100 18 0.124962
16 13 100 18 0.0415876
17 13 100 18 0.0831018
18 13 100 18 0.0415876
13 14 100 18 0.178195
14 14 100 18 0.532755
15 14 100 18 0.110848
16 14 100 18 0.118777
17 14 100 18 2.48216e-05
18 14 100 18 0.0594007
14 15 100 18 0.133165
15 15 100 18 0.600118
16 15 100 18 0.133377
17 15 100 18 0.13334
15 16 100 18 0.10306
16 16 100 18 0.551966
17 16 100 18 0.206983
18 16 100 18 0.137991
15 17 100 18 0.0434793
16 17 100 18 0.0869832
17 17 100 18 0.608519
18 17 100 18 0.261019
16 18 100 18 0.111111
17 18 100 18 0.111111
18 18 100 18 0.777778
17 19 100 18 1
16 20 100 18 0.181536
17 20 100 18 0.150363
18 20 100 18 0.668101
3 21 100 18 0.0035934
15 21 100 18 0.996407
17 22 100 18 4.38811e-05
18 22 100 18 0.999956
1 0 100 19 1.5622e-05
2 0 100 19 0.0604122
3 0 100 19 0.0962736
4 0 100 19 0.159732
5 0 100 19 0.00125137
6 0 100 19 0.0541248
7 0 100 19 0.053853
8 0 100 19 0.000290534
9 0 100 19 0.0545388
10 0 100 19 0.000606309
11 0 100 19 0.000150204
12 0 100 19 0.001207
13 0 100 19 0.0544072
14 0 100 19 0.0509497
15 0 100 19 0.0480579
16 0 100 19 0.0595614
17 0 100 19 0.198477
18 0 100 19 0.106087
19 0 100 19 3.93896e-06
1 1 100 19 0.999998
3 1 100 19 1.73954e-06
2 2 100 19 0.958079
3 2 100 19 9.21808e-07
4 2 100 19 0.0419142
17 2 100 19 5.57579e-06
2 3 100 19 0.0431474
3 3 100 19 0.870552
4 3 100 19 0.0431506
5 3 100 19 0.043143
7 3 100 19 4.30584e-06
18 3 100 19 2.61827e-06
3 4 100 19 0.0800299
4 4 100 19 0.76024
5 4 100 19 0.12004
6 4 100 19 0.03969
4 5 100 19 0.0433912
5 5 100 19 0.738966
6 5 100 19 0.13058
7 5 100 19 0.0870539
9 5 100 19 3.31744e-06
14 5 100 19 5.95726e-07
17 5 100 19 2.54231e-06
18 5 100 19 2.63841e-06
1 6 100 19 0.0435169
4 6 100 19 0.042552
5 6 100 19 0.0870339
6 6 100 19 0.565803
7 6 100 19 0.130539
8 6 100 19 0.128001
9 6 100 19 0.00255328
14 6 100 19 5.95589e-07
17 6 100 19 5.95589e-07
3 7 100 19 0.0435614
5 7 100 19 0.0435614
6 7 100 19 0.129856
7 7 100 19 0.609005
8 7 100 19 0.0868951
9 7 100 19 0.0871178
11 7 100 19 1.69434e-06
18 7 100 19 1.86222e-06
5 8 100 19 0.0399551
6 8 100 19 0.0399869
7 8 100 19 0.0799743
8 8 100 19 0.562143
9 8 100 19 0.117712
10 8 100 19 0.0799723
11 8 100 19 0.0399856
12 8 100 19 0.0399738
13 8 100 19 0.000296113
14 8 100 19 5.46918e-07
17 8 100 19 5.46918e-07
6 9 100 19 0.0834605
7 9 100 19 0.0834605
8 9 100 19 0.0834696
9 9 100 19 0.540944
10 9 100 19 0.0834605
11 9 100 19 0.0834605
12 9 100 19 1.3938e-05
14 9 100 19 0.0417303
7 10 100 19 0.0769206
8 10 100 19 0.0769313
9 10 100 19 0.115341
10 10 100 19 0.538489
11 10 100 19 0.0769196
12 10 100 19 0.0769324
15 10 100 19 0.0384655
5 11 100 19 0.038459
6 11 100 19 0.038459
8 11 100 19 0.038459
9 11 100 19 0.0769557
10 11 100 19 0.0769115
11 11 100 19 0.53842
12 11 100 19 0.0769161
13 11 100 19 0.0769179
14 11 100 19 0.0385015
17 11 100 19 5.26017e-07
3 12 100 19 1.53851e-06
6 12 100 19 0.0368736
8 12 100 19 0.0368736
9 12 100 19 0.0368736
10 12 100 19 0.110621
11 12 100 19 0.0736852
12 12 100 19 0.515565
13 12 100 19 0.110619
14 12 100 19 0.0368736
15 12 100 19 0.00469641
16 12 100 19 0.0373168
10 13 100 19 0.0769905
11 13 100 19 0.153978
12 13 100 19 0.115308
13 13 100 19 0.499742
14 13 100 19 0.0769905
15 13 100 19 0.0384953
17 13 100 19 0.0384953
8 14 100 19 0.0312665
11 14 100 19 0.0312467
12 14 100 19 0.063058
13 14 100 19 0.0624425
14 14 100 19 0.468794
15 14 100 19 0.0931627
16 14 100 19 0.0936975
17 14 100 19 0.0312665
18 14 100 19 0.0937989
19 14 100 19 0.0312665
1 15 100 19 0.0370576
2 15 100 19 0.0369851
3 15 100 19 0.037056
9 15 100 19 0.0370576
12 15 100 19 0.0734856
13 15 100 19 0.0734896
14 15 100 19 0.0384751
15 15 100 19 0.518165
16 15 100 19 0.0370576
17 15 100 19 0.0370576
19 15 100 19 0.0741137
4 16 100 19 1.87192e-06
10 16 100 19 0.0412937
13 16 100 19 0.0834644
14 16 100 19 0.0834644
15 16 100 19 0.0834644
16 16 100 19 0.501993
17 16 100 19 0.0812905
18 16 100 19 0.0832955
19 16 100 19 0.0417321
14 17 100 19 0.0799779
15 17 100 19 0.0799821
16 17 100 19 0.158731
17 17 100 19 0.399911
18 17 100 19 0.121435
19 17 100 19 0.159964
9 18 100 19 6.60764e-07
13 18 100 19 0.0483067
14 18 100 19 6.8635e-07
15 18 100 19 0.0966213
16 18 100 19 0.0901008
17 18 100 19 0.158953
18 18 100 19 0.412776
19 18 100 19 0.193241
16 19 100 19 0.166644
17 19 100 19 0.166698
18 19 100 19 0.249988
19 19 100 19 0.41667
16 20 100 19 1.65757e-05
17 20 100 19 0.237662
18 20 100 19 0.286891
19 20 100 19 0.475431
4 21 100 19 3.65274e-06
9 21 100 19 0.000133908
13 21 100 19 2.15299e-05
14 21 100 19 0.000181274
17 21 100 19 0.000193002
18 21 100 19 0.49987
19 21 100 19 0.499597
6 22 100 19 2.9433e-05
12 22 100 19 0.0179767
14 22 100 19 0.977745
19 22 100 19 0.00424891
18 23 100 19 2.01624e-05
19 23 100 19 0.99998
1 0 100 20 0.087844
2 0 100 20 0.00184746
3 0 100 20 0.0911761
4 0 100 20 0.00217694
5 0 100 20 0.000941804
6 0 100 20 0.00145217
7 0 100 20 0.0897327
8 0 100 20 0.000159988
9 0 100 20 0.171526
10 0 100 20 0.014593
11 0 100 20 0.00214571
12 0 100 20 5.77796e-06
13 0 100 20 0.176285
14 0 100 20 0.00138349
15 0 100 20 0.0893941
16 0 100 20 0.000806091
17 0 100 20 0.176483
18 0 100 20 0.0899445
19 0 100 20 0.00162773
20 0 100 20 0.000474521
1 1 100 20 1
1 2 100 20 0.0624142
2 2 100 20 0.87249
3 2 100 20 0.0640792
7 2 100 20 0.000513834
13 2 100 20 0.000503256
2 3 100 20 0.211208
3 3 100 20 0.683187
4 3 100 20 0.105604
1 4 100 20 0.000150651
3 4 100 20 0.205364
4 4 100 20 0.667099
5 4 100 20 0.102684
6 4 100 20 0.024702
1 5 100 20 1.69586e-06
4 5 100 20 0.12016
5 5 100 20 0.726884
6 5 100 20 0.152585
7 5 100 20 3.21414e-05
10 5 100 20 2.33501e-06
13 5 100 20 2.39276e-06
17 5 100 20 0.000331678
5 6 100 20 0.166779
6 6 100 20 0.666416
7 6 100 20 0.0556015
8 6 100 20 0.111203
4 7 100 20 0.0909123
5 7 100 20 0.0454561
6 7 100 20 0.181823
7 7 100 20 0.545472
8 7 100 20 0.0454562
9 7 100 20 0.0908812
7 8 100 20 0.235726
8 8 100 20 0.531008
10 8 100 20 0.117869
11 8 100 20 0.115394
17 8 100 20 2.33221e-06
5 9 100 20 0.0461362
8 9 100 20 0.184466
9 9 100 20 0.417792
10 9 100 20 0.213197
11 9 100 20 0.0922719
12 9 100 20 0.0461362
7 10 100 20 0.0440476
9 10 100 20 0.180143
10 10 100 20 0.325276
11 10 100 20 0.225255
12 10 100 20 0.135171
13 10 100 20 0.0450534
14 10 100 20 0.0450534
8 11 100 20 0.0952887
10 11 100 20 0.190377
11 11 100 20 0.333188
12 11 100 20 0.142922
13 11 100 20 0.0476444
14 11 100 20 0.0952887
15 11 100 20 0.0952887
17 11 100 20 2.92244e-06
11 12 100 20 0.119208
12 12 100 20 0.469752
13 12 100 20 0.176132
14 12 100 20 0.117465
15 12 100 20 0.0587194
16 12 100 20 0.0587229
9 13 100 20 0.0588369
12 13 100 20 0.117673
13 13 100 20 0.411885
14 13 100 20 0.117647
15 13 100 20 0.117448
16 13 100 20 0.117674
17 13 100 20 0.0588369
10 14 100 20 0.0526757
12 14 100 20 0.0526756
13 14 100 20 0.105123
14 14 100 20 0.368163
15 14 100 20 0.105347
16 14 100 20 0.157987
17 14 100 20 0.105354
18 14 100 20 0.0526757
11 15 100 20 0.0586695
13 15 100 20 0.0586065
14 15 100 20 0.117722
15 15 100 20 0.411795
16 15 100 20 0.117762
17 15 100 20 0.117722
18 15 100 20 0.0588612
19 15 100 20 0.0588612
11 16 100 20 1.90988e-06
12 16 100 20 0.0588818
14 16 100 20 0.0588818
15 16 100 20 0.0589215
16 16 100 20 0.4116
17 16 100 20 0.176185
18 16 100 20 0.117764
19 16 100 20 0.0588818
20 16 100 20 0.0588818
13 17 100 20 0.102796
14 17 100 20 0.051146
15 17 100 20 0.0514005
16 17 100 20 0.102831
17 17 100 20 0.359765
18 17 100 20 0.177862
19 17 100 20 0.0513999
20 17 100 20 0.1028
14 18 100 20 0.0644677
15 18 100 20 0.0639957
18 18 100 20 0.484731
19 18 100 20 0.386805
2 19 100 20 0.0500016
8 19 100 20 0.0500015
9 19 100 20 0.0500016
15 19 100 20 0.0500016
16 19 100 20 0.0500016
18 19 100 20 0.0500016
19 19 100 20 0.349979
20 19 100 20 0.350011
16 20 100 20 0.125
19 20 100 20 0.125
20 20 100 20 0.75
3 21 100 20 3.80188e-06
17 21 100 20 0.666664
20 21 100 20 0.333332
4 22 100 20 5.04215e-06
18 22 100 20 0.999995
19 23 100 20 1
4 24 100 20 4.82542e-05
20 24 100 20 0.999952
4 25 100 20 0.969741
12 25 100 20 0.00135774
15 25 100 20 0.000482814
18 25 100 20 0.0271143
20 25 100 20 0.00130455
1 0 100 21 5.18772e-05
2 0 100 21 0.00229214
3 0 100 21 0.133396
4 0 100 21 0.0267661
5 0 100 21 0.000769056
6 0 100 21 0.000416181
7 0 100 21 0.00225288
8 0 100 21 0.00057851
9 0 100 21 0.000317462
10 0 100 21 0.00340005
11 0 100 21 0.0673117
12 0 100 21 0.0608339
13 0 100 21 0.141218
14 0 100 21 0.000428545
15 0 100 21 0.0689946
16 0 100 21 0.0673598
17 0 100 21 0.0819262
18 0 100 21 0.128567
19 0 100 21 0.134348
20 0 100 21 0.0787705
21 0 100 21 7.96325e-07
1 1 100 21 0.931035
2 1 100 21 0.0689655
1 2 100 21 0.0662084
2 2 100 21 0.810888
3 2 100 21 0.0993814
4 2 100 21 0.0235219
1 3 100 21 1.10801e-06
2 3 100 21 0.0836131
3 3 100 21 0.738574
4 3 100 21 0.177809
9 3 100 21 6.66941e-07
17 3 100 21 8.74531e-07
20 3 100 21 8.40756e-07
3 4 100 21 0.0376015
4 4 100 21 0.736789
5 4 100 21 0.225609
7 4 100 21 8.30047e-07
3 5 100 21 0.0333443
4 5 100 21 0.0666508
5 5 100 21 0.633304
6 5 100 21 0.233357
7 5 100 21 0.0333443
4 6 100 21 0.0357191
5 6 100 21 0.107157
6 6 100 21 0.678495
7 6 100 21 0.142909
8 6 100 21 0.0357191
5 7 100 21 0.0343189
6 7 100 21 0.068951
7 7 100 21 0.688972
8 7 100 21 0.173282
9 7 100 21 0.0344762
6 8 100 21 0.0345507
7 8 100 21 0.102987
8 8 100 21 0.655241
9 8 100 21 0.172753
10 8 100 21 0.0344677
16 8 100 21 8.97649e-07
7 9 100 21 0.0344858
8 9 100 21 0.103473
9 9 100 21 0.586159
10 9 100 21 0.206912
11 9 100 21 0.034485
12 9 100 21 0.0344858
8 10 100 21 0.0345019
9 10 100 21 0.172444
10 10 100 21 0.58632
11 10 100 21 0.172231
12 10 100 21 0.0345019
10 11 100 21 0.146844
11 11 100 21 0.593609
12 11 100 21 0.185372
13 11 100 21 0.0370388
14 11 100 21 0.0371337
19 11 100 21 2.76447e-06
9 12 100 21 0.0347598
11 12 100 21 0.138936
12 12 100 21 0.489469
13 12 100 21 0.238539
14 12 100 21 0.0347603
15 12 100 21 0.0347603
17 12 100 21 0.0287764
10 13 100 21 0.0344834
11 13 100 21 0.0344834
12 13 100 21 0.172418
13 13 100 21 0.448265
14 13 100 21 0.206901
15 13 100 21 0.0344834
16 13 100 21 0.0344834
21 13 100 21 0.0344834
11 14 100 21 0.0358018
12 14 100 21 0.0358018
13 14 100 21 0.142832
14 14 100 21 0.429458
15 14 100 21 0.248791
16 14 100 21 0.0715122
17 14 100 21 0.0358018
19 14 100 21 1.29688e-06
12 15 100 21 0.0179395
13 15 100 21 0.0306906
14 15 100 21 0.122759
15 15 100 21 0.368276
16 15 100 21 0.30689
17 15 100 21 0.0920658
18 15 100 21 0.0306899
19 15 100 21 0.0306899
15 16 100 21 0.138022
16 16 100 21 0.379539
17 16 100 21 0.309878
18 16 100 21 0.0690168
19 16 100 21 0.0345299
20 16 100 21 0.0345093
21 16 100 21 0.0345055
12 17 100 21 0.0151608
14 17 100 21 0.0364916
15 17 100 21 0.0364912
16 17 100 21 0.11128
17 17 100 21 0.362885
18 17 100 21 0.328406
19 17 100 21 0.0727993
20 17 100 21 0.0364861
16 18 100 21 1.67538e-06
17 18 100 21 0.152034
18 18 100 21 0.316191
19 18 100 21 0.417489
20 18 100 21 0.0762701
21 18 100 21 0.0380141
3 19 100 21 6.3827e-07
14 19 100 21 0.0700775
15 19 100 21 0.0350362
16 19 100 21 2.45217e-05
17 19 100 21 1.18163e-06
18 19 100 21 0.165516
19 19 100 21 0.314407
20 19 100 21 0.344865
21 19 100 21 0.0700721
9 20 100 21 2.41442e-06
10 20 100 21 0.000104656
14 20 100 21 7.39477e-06
19 20 100 21 0.0871851
20 20 100 21 0.433492
21 20 100 21 0.479208
14 21 100 21 0.154563
16 21 100 21 0.0717387
19 21 100 21 1.06898e-05
20 21 100 21 0.154738
21 21 100 21 0.61895
18 22 100 21 0.4
21 22 100 21 0.6
6 23 100 21 9.23707e-07
14 23 100 21 2.72681e-05
19 23 100 21 0.999972
20 24 100 21 1
13 25 100 21 0.222086
14 25 100 21 0.111424
15 25 100 21 0.222091
16 25 100 21 0.000209501
17 25 100 21 2.11256e-06
18 25 100 21 5.56646e-06
21 25 100 21 0.444182
1 0 100 22 0.135408
2 0 100 22 0.00169924
3 0 100 22 0.000746252
4 0 100 22 0.292876
5 0 100 22 0.0209732
6 0 100 22 0.00426449
8 0 100 22 0.14987
9 0 100 22 7.5076e-05
10 0 100 22 0.123259
11 0 100 22 7.44267e-05
12 0 100 22 0.00480436
13 0 100 22 0.000721788
14 0 100 22 0.0377857
15 0 100 22 0.00520375
16 0 100 22 0.152076
17 0 100 22 0.00131631
18 0 100 22 0.0503184
19 0 100 22 0.00604906
20 0 100 22 0.00830588
21 0 100 22 0.0032266
22 0 100 22 0.000946637
1 1 100 22 0.928568
3 1 100 22 0.0714322
1 2 100 22 0.0769415
2 2 100 22 0.846126
4 2 100 22 0.0769303
5 2 100 22 2.58181e-06
1 3 100 22 0.00521216
2 3 100 22 0.142362
3 3 100 22 0.786175
4 3 100 22 3.93899e-06
5 3 100 22 0.0662471
2 4 100 22 0.0627812
3 4 100 22 0.125554
4 4 100 22 0.627267
5 4 100 22 0.0588335
6 4 100 22 0.0627813
8 4 100 22 2.07705e-06
17 4 100 22 0.0627813
3 5 100 22 9.18765e-06
4 5 100 22 0.117731
5 5 100 22 0.588268
6 5 100 22 0.11774
7 5 100 22 0.11774
8 5 100 22 0.0585124
5 6 100 22 0.133591
6 6 100 22 0.599237
7 6 100 22 0.133598
8 6 100 22 0.0667972
9 6 100 22 0.0667773
6 7 100 22 0.125103
7 7 100 22 0.562963
8 7 100 22 0.186831
9 7 100 22 0.0625515
10 7 100 22 0.0625515
7 8 100 22 0.133331
8 8 100 22 0.466074
9 8 100 22 0.26666
10 8 100 22 0.0672692
11 8 100 22 0.0666657
8 9 100 22 0.133446
9 9 100 22 0.466925
10 9 100 22 0.26622
11 9 100 22 0.0667053
12 9 100 22 0.0667035
9 10 100 22 0.125197
10 10 100 22 0.436628
11 10 100 22 0.31298
12 10 100 22 0.0625975
13 10 100 22 0.0625975
10 11 100 22 0.0777434
11 11 100 22 0.461524
12 11 100 22 0.329168
13 11 100 22 0.0659346
14 11 100 22 0.0656299
4 12 100 22 2.08171e-06
10 12 100 22 4.08752e-05
11 12 100 22 0.0625894
12 12 100 22 0.436596
13 12 100 22 0.312981
14 12 100 22 0.0625967
15 12 100 22 0.0625967
17 12 100 22 0.0625967
1 13 100 22 1.93765e-06
4 13 100 22 5.81175e-05
12 13 100 22 0.0592607
13 13 100 22 0.473795
14 13 100 22 0.34112
15 13 100 22 0.0584431
16 13 100 22 0.00818604
18 13 100 22 0.0591352
1 14 100 22 2.14862e-06
2 14 100 22 2.28688e-06
14 14 100 22 0.466588
15 14 100 22 0.333135
16 14 100 22 0.133517
19 14 100 22 0.0667557
15 15 100 22 0.515707
16 15 100 22 0.246589
17 15 100 22 0.129123
18 15 100 22 0.0440202
20 15 100 22 0.0645613
1 16 100 22 1.98277e-06
15 16 100 22 2.00567e-06
16 16 100 22 0.499965
17 16 100 22 0.250041
18 16 100 22 0.124995
19 16 100 22 0.0624974
21 16 100 22 0.0624974
17 17 100 22 0.466743
18 17 100 22 0.267074
19 17 100 22 0.133542
20 17 100 22 0.0658692
22 17 100 22 0.0667717
17 18 100 22 2.02984e-06
18 18 100 22 0.538286
19 18 100 22 0.230832
20 18 100 22 0.153712
21 18 100 22 0.0771681
14 19 100 22 7.84202e-07
19 19 100 22 0.558902
20 19 100 22 0.230643
21 19 100 22 0.140303
22 19 100 22 0.0701506
2 20 100 22 0.0600281
3 20 100 22 0.060028
5 20 100 22 0.060028
6 20 100 22 0.0600281
19 20 100 22 5.79876e-06
20 20 100 22 0.460825
21 20 100 22 0.179001
22 20 100 22 0.120056
21 21 100 22 0.7
22 21 100 22 0.3
21 22 100 22 0.124652
22 22 100 22 0.875348
22 23 100 22 1
1 0 100 23 9.21601e-05
2 0 100 23 0.00142294
3 0 100 23 0.190429
4 0 100 23 0.0779574
5 0 100 23 0.00190138
6 0 100 23 0.0020358
7 0 100 23 0.0382659
8 0 100 23 0.00205684
9 0 100 23 0.00182957
10 0 100 23 0.00391509
11 0 100 23 0.124367
12 0 100 23 0.0679986
13 0 100 23 0.0663748
14 0 100 23 0.0143213
15 0 100 23 0.0651885
16 0 100 23 0.0740761
17 0 100 23 0.00313619
18 0 100 23 0.067946
19 0 100 23 0.00305726
20 0 100 23 0.00315577
21 0 100 23 0.125713
22 0 100 23 0.0645183
23 0 100 23 0.000240876
1 1 100 23 1
1 2 100 23 0.0604118
2 2 100 23 0.87896
3 2 100 23 0.0302953
13 2 100 23 0.0303327
2 3 100 23 0.0976147
3 3 100 23 0.844469
4 3 100 23 0.0579159
3 4 100 23 0.0613107
4 4 100 23 0.813386
5 4 100 23 0.125225
12 4 100 23 1.62632e-05
13 4 100 23 3.92798e-07
21 4 100 23 6.19757e-05
3 5 100 23 2.65795e-06
4 5 100 23 0.0665353
5 5 100 23 0.79996
6 5 100 23 0.1335
11 5 100 23 1.09353e-06
16 5 100 23 1.0319e-06
3 6 100 23 9.37637e-07
5 6 100 23 0.0938533
6 6 100 23 0.781035
7 6 100 23 0.12511
18 6 100 23 1.03582e-06
6 7 100 23 0.0598724
7 7 100 23 0.72511
8 7 100 23 0.155164
9 7 100 23 0.0598534
6 8 100 23 0.0312617
7 8 100 23 0.0625769
8 8 100 23 0.68742
9 8 100 23 0.187557
10 8 100 23 0.0311838
22 8 100 23 9.69256e-07
7 9 100 23 0.0411669
8 9 100 23 0.070959
9 9 100 23 0.638993
10 9 100 23 0.177788
11 9 100 23 0.0710924
3 10 100 23 7.77426e-07
8 10 100 23 0.0328514
9 10 100 23 0.164204
10 10 100 23 0.524277
11 10 100 23 0.180153
12 10 100 23 0.0656622
14 10 100 23 0.0328514
5 11 100 23 0.0322861
8 11 100 23 1.69133e-06
9 11 100 23 0.0322861
10 11 100 23 0.225381
11 11 100 23 0.421148
12 11 100 23 0.161474
13 11 100 23 0.095135
14 11 100 23 1.09422e-06
15 11 100 23 0.0322861
16 11 100 23 4.65324e-07
10 12 100 23 0.0635739
11 12 100 23 0.20598
12 12 100 23 0.412579
13 12 100 23 0.158936
14 12 100 23 0.127144
16 12 100 23 0.031787
23 12 100 23 4.98409e-07
11 13 100 23 0.0937538
12 13 100 23 0.187522
13 13 100 23 0.406222
14 13 100 23 0.156268
15 13 100 23 0.0937273
16 13 100 23 0.031254
17 13 100 23 0.0312537
12 14 100 23 0.0932567
13 14 100 23 0.12515
14 14 100 23 0.406166
15 14 100 23 0.156429
16 14 100 23 0.125149
17 14 100 23 0.0625595
18 14 100 23 0.0312877
20 14 100 23 4.80411e-07
21 14 100 23 4.74702e-07
12 15 100 23 0.0307472
13 15 100 23 0.0958258
14 15 100 23 0.129369
15 15 100 23 0.420425
16 15 100 23 0.129456
17 15 100 23 0.12945
18 15 100 23 0.0323628
19 15 100 23 0.0323634
21 15 100 23 5.75201e-07
11 16 100 23 4.30394e-07
12 16 100 23 8.72104e-07
13 16 100 23 0.029845
14 16 100 23 0.0812155
15 16 100 23 0.114054
16 16 100 23 0.344691
17 16 100 23 0.143557
18 16 100 23 0.114842
19 16 100 23 0.0574488
20 16 100 23 0.114342
21 16 100 23 3.33131e-06
13 17 100 23 5.9857e-07
14 17 100 23 0.0679276
15 17 100 23 0.103742
16 17 100 23 0.103742
17 17 100 23 0.34428
18 17 100 23 0.103744
19 17 100 23 0.172865
21 17 100 23 0.103699
15 18 100 23 0.0645032
16 18 100 23 0.0967873
17 18 100 23 0.161489
18 18 100 23 0.321798
19 18 100 23 0.0968878
20 18 100 23 0.129267
21 18 100 23 0.0323168
22 18 100 23 0.0646335
23 18 100 23 0.0323168
8 19 100 23 0.028379
10 19 100 23 0.0347726
12 19 100 23 0.034813
13 19 100 23 0.0345595
16 19 100 23 0.0696271
17 19 100 23 0.0696273
18 19 100 23 0.138334
19 19 100 23 0.311715
20 19 100 23 0.104102
21 19 100 23 0.0696314
22 19 100 23 0.034813
23 19 100 23 0.069626
17 20 100 23 0.103444
18 20 100 23 0.137933
19 20 100 23 0.172425
20 20 100 23 0.379303
21 20 100 23 0.103444
22 20 100 23 0.0689667
23 20 100 23 0.0344833
8 21 100 23 0.0298768
18 21 100 23 0.118985
19 21 100 23 0.119508
20 21 100 23 0.149383
21 21 100 23 0.313352
22 21 100 23 0.179265
23 21 100 23 0.0896313
4 22 100 23 0.0408481
13 22 100 23 5.07536e-07
19 22 100 23 0.122547
20 22 100 23 0.0808429
21 22 100 23 0.224812
22 22 100 23 0.367555
23 22 100 23 0.163395
13 23 100 23 1.72591e-06
20 23 100 23 0.150267
21 23 100 23 0.0500895
22 23 100 23 0.298938
23 23 100 23 0.500704
16 24 100 23 0.0405664
21 24 100 23 0.196491
22 24 100 23 0.197148
23 24 100 23 0.565794
2 25 100 23 1.02701e-06
3 25 100 23 0.00169467
4 25 100 23 7.49889e-05
5 25 100 23 1.26318e-06
6 25 100 23 2.82126e-07
12 25 100 23 1.41904e-05
13 25 100 23 3.37251e-06
14 25 100 23 3.57464e-07
16 25 100 23 0.0189776
17 25 100 23 1.74118e-06
18 25 100 23 2.94307e-06
21 25 100 23 0.222703
22 25 100 23 0.340511
23 25 100 23 0.416014
17 26 100 23 2.8065e-06
22 26 100 23 0.333258
23 26 100 23 0.66674
23 27 100 23 1
1 0 100 24 0.0315404
2 0 100 24 0.0319112
3 0 100 24 0.031641
4 0 100 24 0.0611035
5 0 100 24 0.0342739
6 0 100 24 0.00102552
7 0 100 24 0.0972587
8 0 100 24 0.0325006
9 0 100 24 0.0638889
10 0 100 24 0.0636704
11 0 100 24 0.0336438
12 0 100 24 0.0642856
13 0 100 24 0.000243859
14 0 100 24 1.79782e-05
15 0 100 24 0.0643826
16 0 100 24 0.0644142
17 0 100 24 0.0956916
18 0 100 24 0.000368216
19 0 100 24 0.0980618
20 0 100 24 0.000250664
21 0 100 24 0.0323919
22 0 100 24 0.0635004
23 0 100 24 0.00041496
24 0 100 24 0.0335183
1 1 100 24 0.971441
2 1 100 24 0.0285586
1 2 100 24 0.0303172
2 2 100 24 0.909054
3 2 100 24 0.0606279
17 2 100 24 9.50237e-07
1 3 100 24 9.99678e-07
2 3 100 24 0.11453
3 3 100 24 0.801606
4 3 100 24 0.0552284
5 3 100 24 0.0176815
7 3 100 24 0.0109514
11 3 100 24 1.05311e-06
12 3 100 24 8.1834e-07
3 4 100 24 0.0830312
4 4 100 24 0.778578
5 4 100 24 0.0553554
6 4 100 24 0.0553552
7 4 100 24 4.92492e-07
8 4 100 24 0.0276777
9 4 100 24 1.55099e-06
1 5 100 24 9.98635e-07
3 5 100 24 0.0286031
4 5 100 24 0.057207
5 5 100 24 0.726015
6 5 100 24 0.0857493
7 5 100 24 0.0176858
8 5 100 24 0.0275335
9 5 100 24 0.0572054
3 6 100 24 0.0212961
4 6 100 24 0.0213079
5 6 100 24 0.0639218
6 6 100 24 0.553085
7 6 100 24 0.14863
8 6 100 24 0.0426162
9 6 100 24 0.0639242
10 6 100 24 0.0426172
11 6 100 24 0.0213081
17 6 100 24 0.0212937
4 7 100 24 0.0263148
5 7 100 24 0.0263148
6 7 100 24 0.052631
7 7 100 24 0.526338
8 7 100 24 0.184201
9 7 100 24 0.0263158
10 7 100 24 0.0263148
11 7 100 24 0.0526297
12 7 100 24 0.0526249
18 7 100 24 0.0263148
24 7 100 24 3.09331e-07
5 8 100 24 0.0519208
6 8 100 24 0.0271601
7 8 100 24 0.0525408
8 8 100 24 0.5427
9 8 100 24 0.190112
10 8 100 24 0.0271601
11 8 100 24 2.30014e-06
12 8 100 24 0.0269488
13 8 100 24 0.0271356
17 8 100 24 0.0271601
19 8 100 24 0.0271601
6 9 100 24 0.0316786
8 9 100 24 0.0625517
9 9 100 24 0.499587
10 9 100 24 0.218525
11 9 100 24 0.0312783
13 9 100 24 0.0625517
14 9 100 24 0.0312758
18 9 100 24 0.0312758
19 9 100 24 8.61854e-07
20 9 100 24 0.0312758
1 10 100 24 7.96469e-07
7 10 100 24 0.0540802
8 10 100 24 7.90409e-07
9 10 100 24 0.0810852
10 10 100 24 0.459569
11 10 100 24 0.297075
12 10 100 24 0.0270467
14 10 100 24 0.0540948
15 10 100 24 0.0270477
5 11 100 24 0.0250215
8 11 100 24 0.0500727
10 11 100 24 0.075109
11 11 100 24 0.374244
12 11 100 24 0.300481
13 11 100 24 0.075109
15 11 100 24 0.0500739
17 11 100 24 0.0248471
18 11 100 24 0.025036
24 11 100 24 5.00519e-06
6 12 100 24 0.0256625
9 12 100 24 0.0513217
11 12 100 24 0.0769873
12 12 100 24 0.35844
13 12 100 24 0.307949
14 12 100 24 0.0769837
15 12 100 24 3.32328e-06
16 12 100 24 0.0513249
17 12 100 24 1.97231e-06
18 12 100 24 0.0256625
23 12 100 24 0.0256625
10 13 100 24 0.0300062
12 13 100 24 0.0277304
13 13 100 24 0.360425
14 13 100 24 0.33227
15 13 100 24 0.110918
16 13 100 24 0.0277309
17 13 100 24 0.055454
18 13 100 24 5.36002e-06
19 13 100 24 0.0277304
24 13 100 24 0.0277303
11 14 100 24 0.0297014
12 14 100 24 0.030169
13 14 100 24 0.0594087
14 14 100 24 0.356936
15 14 100 24 0.296983
16 14 100 24 0.0782978
17 14 100 24 0.0297072
18 14 100 24 0.0890955
19 14 100 24 8.18514e-07
20 14 100 24 0.0297014
5 15 100 24 8.30605e-07
10 15 100 24 0.00238941
12 15 100 24 0.0286567
13 15 100 24 0.0580987
14 15 100 24 0.0291151
15 15 100 24 0.348758
16 15 100 24 0.271229
17 15 100 24 0.116441
18 15 100 24 0.0582496
19 15 100 24 0.0579457
21 15 100 24 0.0291151
8 16 100 24 3.76973e-05
14 16 100 24 0.0899617
15 16 100 24 0.0299847
16 16 100 24 0.42987
17 16 100 24 0.210267
18 16 100 24 0.119931
19 16 100 24 0.0599725
20 16 100 24 0.0299884
22 16 100 24 0.0299874
4 17 100 24 4.68539e-07
7 17 100 24 0.0274044
10 17 100 24 0.0153926
15 17 100 24 0.0815903
16 17 100 24 0.0274046
17 17 100 24 0.300381
18 17 100 24 0.191648
19 17 100 24 0.136954
20 17 100 24 0.137011
21 17 100 24 0.0548092
23 17 100 24 0.0274046
5 18 100 24 2.01781e-05
15 18 100 24 1.04219e-05
16 18 100 24 0.0701233
17 18 100 24 0.000227961
18 18 100 24 0.30034
19 18 100 24 0.268765
20 18 100 24 0.120196
21 18 100 24 0.150177
22 18 100 24 0.0600973
24 18 100 24 0.0300426
9 19 100 24 1.33318e-06
17 19 100 24 0.128835
19 19 100 24 0.257139
20 19 100 24 0.290847
21 19 100 24 0.096984
22 19 100 24 0.161538
23 19 100 24 0.064656
10 20 100 24 0.00794448
11 20 100 24 0.00794361
18 20 100 24 0.11589
20 20 100 24 0.2896
21 20 100 24 0.260225
22 20 100 24 0.0869178
23 20 100 24 0.173533
24 20 100 24 0.0579452
9 21 100 24 4.10391e-06
14 21 100 24 0.0333445
15 21 100 24 1.1565e-05
19 21 100 24 0.133378
21 21 100 24 0.299833
22 21 100 24 0.29999
23 21 100 24 0.0667171
24 21 100 24 0.166723
8 22 100 24 0.000841498
10 22 100 24 0.0371652
15 22 100 24 0.0371648
20 22 100 24 0.144775
21 22 100 24 0.0371731
22 22 100 24 0.33419
23 22 100 24 0.33436
24 22 100 24 0.0743303
11 23 100 24 0.029355
18 23 100 24 0.0404438
20 23 100 24 8.56936e-06
21 23 100 24 0.121319
22 23 100 24 0.0404445
23 23 100 24 0.363992
24 23 100 24 0.404437
4 24 100 24 5.67846e-05
5 24 100 24 2.75736e-06
9 24 100 24 2.36741e-06
11 24 100 24 3.13239e-06
12 24 100 24 0.0912279
17 24 100 24 2.36619e-06
22 24 100 24 0.182771
23 24 100 24 0.0914727
24 24 100 24 0.634461
5 25 100 24 4.05486e-06
13 25 100 24 0.134523
14 25 100 24 0.133288
16 25 100 24 0.179444
17 25 100 24 0.000610657
20 25 100 24 0.0140348
22 25 100 24 3.76912e-06
23 25 100 24 0.269046
24 25 100 24 0.269046
2 26 100 24 3.53656e-06
7 26 100 24 1.62971e-06
17 26 100 24 0.249869
21 26 100 24 0.250049
24 26 100 24 0.500077
17 27 100 24 7.56569e-07
18 27 100 24 0.32818
22 27 100 24 0.336243
23 27 100 24 0.335576
10 28 100 24 0.0469382
11 28 100 24 0.00556856
14 28 100 24 0.000435726
19 28 100 24 2.40608e-06
23 28 100 24 0.473976
24 28 100 24 0.473079
18 29 100 24 0.0079309
19 29 100 24 0.330758
20 29 100 24 0.330339
21 29 100 24 0.000182851
23 29 100 24 2.87734e-05
24 29 100 24 0.330761
15 30 100 24 0.999763
20 30 100 24 0.000236658
20 31 100 24 0.00126972
21 31 100 24 0.99873
21 33 100 24 1.18575e-06
22 33 100 24 0.999999
7 34 100 24 1.4296e-06
23 34 100 24 0.999999
24 35 100 24 1
1 0 100 25 0.00082116
2 0 100 25 0.0758612
3 0 100 25 0.00179582
4 0 100 25 0.00233723
5 0 100 25 0.0766479
6 0 100 25 0.0743431
7 0 100 25 0.0724131
8 0 100 25 0.0759651
9 0 100 25 0.0386217
10 0 100 25 0.0386908
11 0 100 25 0.0382333
12 0 100 25 0.0467282
13 0 100 25 0.0746311
14 0 100 25 0.00199101
15 0 100 25 0.000742708
16 0 100 25 0.0788055
17 0 100 25 0.0310389
18 0 100 25 0.00107191
19 0 100 25 0.0390492
20 0 100 25 0.036433
21 0 100 25 0.112247
22 0 100 25 0.00289556
23 0 100 25 0.00120819
24 0 100 25 0.0762799
25 0 100 25 0.00114676
1 1 100 25 0.93936
2 1 100 25 0.060639
9 1 100 25 7.87143e-07
1 2 100 25 0.0571161
2 2 100 25 0.771181
3 2 100 25 0.143046
7 2 100 25 0.0286224
9 2 100 25 3.16553e-05
15 2 100 25 2.68453e-06
21 2 100 25 5.26013e-07
2 3 100 25 0.0606425
3 3 100 25 0.726654
4 3 100 25 0.182004
7 3 100 25 0.0303354
21 3 100 25 5.12085e-07
22 3 100 25 0.000363973
3 4 100 25 0.111471
4 4 100 25 0.61134
5 4 100 25 0.193851
6 4 100 25 0.0554686
13 4 100 25 1.76889e-06
23 4 100 25 0.0278676
4 5 100 25 0.151639
5 5 100 25 0.605691
6 5 100 25 0.181931
7 5 100 25 0.0303278
8 5 100 25 7.79852e-07
9 5 100 25 8.14404e-05
14 5 100 25 0.0303278
16 5 100 25 7.78702e-07
2 6 100 25 8.42618e-07
5 6 100 25 0.121277
6 6 100 25 0.605863
7 6 100 25 0.181907
8 6 100 25 0.0606367
15 6 100 25 0.0303157
16 6 100 25 7.77403e-07
6 7 100 25 0.0916186
7 7 100 25 0.515273
8 7 100 25 0.1809
9 7 100 25 0.15149
10 7 100 25 0.03036
16 7 100 25 0.0303583
2 8 100 25 3.65294e-07
7 8 100 25 0.109885
8 8 100 25 0.432203
9 8 100 25 0.189221
10 8 100 25 0.162139
11 8 100 25 0.0534673
14 8 100 25 0.0269262
16 8 100 25 0.00199838
17 8 100 25 0.0241595
8 9 100 25 0.194658
9 9 100 25 0.388494
10 9 100 25 0.139031
11 9 100 25 0.166581
12 9 100 25 0.0834137
13 9 100 25 1.23482e-05
18 9 100 25 0.0278087
21 9 100 25 6.77064e-07
8 10 100 25 9.70334e-07
9 10 100 25 0.145685
10 10 100 25 0.408871
11 10 100 25 0.18115
12 10 100 25 0.147134
13 10 100 25 0.0878635
16 10 100 25 1.14604e-06
19 10 100 25 0.0292941
23 10 100 25 3.60911e-07
2 11 100 25 1.66042e-06
4 11 100 25 7.49046e-07
5 11 100 25 1.66343e-05
8 11 100 25 1.01284e-06
10 11 100 25 0.0922707
11 11 100 25 0.392257
12 11 100 25 0.207442
13 11 100 25 0.184609
14 11 100 25 0.0926302
16 11 100 25 1.09212e-06
17 11 100 25 7.60117e-07
20 11 100 25 0.0307681
24 11 100 25 7.50362e-07
2 12 100 25 7.064e-07
6 12 100 25 7.31262e-07
7 12 100 25 7.29214e-07
11 12 100 25 0.0859389
12 12 100 25 0.343067
13 12 100 25 0.199828
14 12 100 25 0.199563
15 12 100 25 0.114307
16 12 100 25 0.0286463
21 12 100 25 0.0286463
11 13 100 25 0.0322483
12 13 100 25 0.096662
13 13 100 25 0.355156
14 13 100 25 0.225591
15 13 100 25 0.161232
16 13 100 25 0.0967462
17 13 100 25 0.0322483
22 13 100 25 9.58989e-06
25 13 100 25 0.00010655
12 14 100 25 0.0285921
13 14 100 25 0.0572182
14 14 100 25 0.342464
15 14 100 25 0.257211
16 14 100 25 0.171554
17 14 100 25 0.0857762
18 14 100 25 0.0285921
22 14 100 25 0.0285918
8 15 100 25 7.90119e-07
13 15 100 25 0.0627085
14 15 100 25 0.0314678
15 15 100 25 0.377424
16 15 100 25 0.213934
17 15 100 25 0.15713
18 15 100 25 0.0944034
19 15 100 25 0.0314652
23 15 100 25 0.0314666
25 15 100 25 5.9337e-07
14 16 100 25 0.0314044
15 16 100 25 0.0314044
16 16 100 25 0.313963
17 16 100 25 0.310022
18 16 100 25 0.156298
19 16 100 25 0.0940984
20 16 100 25 0.0314044
21 16 100 25 9.0202e-07
24 16 100 25 0.0314044
25 16 100 25 5.92174e-07
2 17 100 25 5.33762e-05
9 17 100 25 0.0241059
10 17 100 25 0.0482119
11 17 100 25 0.0241047
12 17 100 25 0.0240854
15 17 100 25 3.11474e-07
16 17 100 25 0.0241059
17 17 100 25 0.265028
18 17 100 25 0.265169
19 17 100 25 0.168731
20 17 100 25 0.0840876
21 17 100 25 0.0482117
25 17 100 25 0.0241059
2 18 100 25 3.84049e-06
9 18 100 25 0.000655631
14 18 100 25 8.17989e-07
15 18 100 25 0.0339501
16 18 100 25 0.0339501
17 18 100 25 0.0336078
18 18 100 25 0.271582
19 18 100 25 0.271601
20 18 100 25 0.186557
21 18 100 25 0.101879
22 18 100 25 0.0662111
24 18 100 25 8.76651e-07
16 19 100 25 0.0322945
17 19 100 25 9.23786e-06
18 19 100 25 0.0644096
19 19 100 25 0.289618
20 19 100 25 0.259591
21 19 100 25 0.128804
22 19 100 25 0.160673
23 19 100 25 0.0645891
25 19 100 25 1.13296e-05
7 20 100 25 0.000199768
11 20 100 25 0.00208876
17 20 100 25 0.0132741
18 20 100 25 0.0636002
19 20 100 25 0.0318001
20 20 100 25 0.31781
21 20 100 25 0.221868
22 20 100 25 0.1272
23 20 100 25 0.158559
24 20 100 25 0.0318001
25 20 100 25 0.0318001
2 21 100 25 3.78015e-07
6 21 100 25 8.03427e-07
7 21 100 25 7.49475e-07
19 21 100 25 0.0583045
20 21 100 25 0.0294352
21 21 100 25 0.294367
22 21 100 25 0.235329
23 21 100 25 0.117629
24 21 100 25 0.176622
25 21 100 25 0.0883113
20 22 100 25 0.0704647
21 22 100 25 0.0352362
22 22 100 25 0.295989
23 22 100 25 0.281553
24 22 100 25 0.140576
25 22 100 25 0.176181
21 23 100 25 0.0953541
22 23 100 25 0.0475894
23 23 100 25 0.381164
24 23 100 25 0.332862
25 23 100 25 0.143031
22 24 100 25 0.166583
23 24 100 25 0.0463913
24 24 100 25 0.369559
25 24 100 25 0.417467
7 25 100 25 0.0835304
10 25 100 25 0.0835302
17 25 100 25 4.42741e-06
23 25 100 25 0.250591
24 25 100 25 1.76659e-05
25 25 100 25 0.582326
24 26 100 25 1
2 27 100 25 0.000538225
6 27 100 25 0.0250629
10 27 100 25 4.16282e-05
14 27 100 25 1.51024e-06
15 27 100 25 8.13445e-07
18 27 100 25 6.70961e-06
24 27 100 25 0.244255
25 27 100 25 0.730093
25 28 100 25 1
1 0 100 26 4.25917e-05
2 0 100 26 0.051157
3 0 100 26 0.0462502
4 0 100 26 0.00143426
5 0 100 26 0.0900814
6 0 100 26 0.0444115
7 0 100 26 0.0474666
8 0 100 26 0.0608892
9 0 100 26 0.00223409
10 0 100 26 0.0447451
11 0 100 26 0.0672313
12 0 100 26 0.0448829
13 0 100 26 0.00185945
14 0 100 26 0.00206096
15 0 100 26 0.00159937
16 0 100 26 0.088556
17 0 100 26 0.134585
18 0 100 26 0.0306028
19 0 100 26 0.0012765
20 0 100 26 0.0898314
21 0 100 26 0.0418248
22 0 100 26 0.021496
23 0 100 26 0.0455923
24 0 100 26 0.00172171
25 0 100 26 0.0381662
26 0 100 26 1.49196e-06
1 1 100 26 0.999812
2 1 100 26 0.000187841
1 2 100 26 5.08564e-06
2 2 100 26 0.838101
3 2 100 26 0.129433
4 2 100 26 0.032459
5 2 100 26 7.85468e-07
12 2 100 26 7.51716e-07
17 2 100 26 7.62583e-07
2 3 100 26 0.100229
3 3 100 26 0.733711
4 3 100 26 0.132644
5 3 100 26 0.033416
3 4 100 26 0.103169
4 4 100 26 0.689198
5 4 100 26 0.138703
6 4 100 26 0.0689295
4 5 100 26 0.172954
5 5 100 26 0.619445
6 5 100 26 0.172939
7 5 100 26 0.0346616
5 6 100 26 0.133624
6 6 100 26 0.534568
7 6 100 26 0.264959
8 6 100 26 0.066849
6 7 100 26 0.172243
7 7 100 26 0.482881
8 7 100 26 0.2413
9 7 100 26 0.103575
17 7 100 26 1.1181e-06
7 8 100 26 0.174441
8 8 100 26 0.475021
9 8 100 26 0.245895
10 8 100 26 0.104643
8 9 100 26 0.169852
9 9 100 26 0.441369
10 9 100 26 0.236979
11 9 100 26 0.151799
3 10 100 26 1.42466e-06
5 10 100 26 7.17219e-07
9 10 100 26 0.183242
10 10 100 26 0.398723
11 10 100 26 0.204557
12 10 100 26 0.184048
13 10 100 26 0.0294278
10 11 100 26 0.176609
11 11 100 26 0.364513
12 11 100 26 0.247252
13 11 100 26 0.142599
14 11 100 26 0.0690269
10 12 100 26 0.0303396
11 12 100 26 0.151698
12 12 100 26 0.333157
13 12 100 26 0.212376
14 12 100 26 0.121329
15 12 100 26 0.0303372
16 12 100 26 0.0303396
19 12 100 26 0.0303396
20 12 100 26 0.0303395
21 12 100 26 0.0297442
3 13 100 26 1.53711e-06
11 13 100 26 0.0333954
12 13 100 26 0.0998231
13 13 100 26 0.366671
14 13 100 26 0.267163
15 13 100 26 0.133581
16 13 100 26 0.0333954
17 13 100 26 0.0333954
24 13 100 26 0.0325742
5 14 100 26 8.32612e-07
6 14 100 26 8.32503e-07
12 14 100 26 0.0350838
13 14 100 26 0.140335
14 14 100 26 0.350838
15 14 100 26 0.279831
16 14 100 26 0.140331
17 14 100 26 3.87419e-05
18 14 100 26 0.0350838
21 14 100 26 8.21345e-07
22 14 100 26 0.0184561
12 15 100 26 0.0345031
13 15 100 26 0.0345031
14 15 100 26 0.103509
15 15 100 26 0.34456
16 15 100 26 0.206884
17 15 100 26 0.172548
18 15 100 26 0.0689889
19 15 100 26 0.0345031
25 15 100 26 6.71117e-07
5 16 100 26 0.0345463
6 16 100 26 7.91973e-07
13 16 100 26 0.0338984
14 16 100 26 0.0345262
15 16 100 26 0.103639
16 16 100 26 0.276223
17 16 100 26 0.24121
18 16 100 26 0.172731
19 16 100 26 0.0686794
20 16 100 26 0.0345463
3 17 100 26 9.83587e-07
8 17 100 26 0.0367261
14 17 100 26 0.0367261
15 17 100 26 0.0367601
16 17 100 26 0.145993
17 17 100 26 0.292161
18 17 100 26 0.194751
19 17 100 26 0.146704
20 17 100 26 0.0734522
21 17 100 26 0.0367261
7 18 100 26 0.0331821
15 18 100 26 0.0331821
16 18 100 26 0.0995462
17 18 100 26 0.131871
18 18 100 26 0.304227
19 18 100 26 0.165735
20 18 100 26 0.132711
21 18 100 26 0.0663639
22 18 100 26 0.0331821
15 19 100 26 0.0324774
17 19 100 26 0.0648316
18 19 100 26 0.12428
19 19 100 26 0.324645
20 19 100 26 0.161972
21 19 100 26 0.162356
22 19 100 26 0.0973687
23 19 100 26 0.0320699
18 20 100 26 0.0739546
19 20 100 26 0.110932
20 20 100 26 0.332727
21 20 100 26 0.150256
22 20 100 26 0.184212
23 20 100 26 0.110941
24 20 100 26 0.0369773
8 21 100 26 6.09555e-07
9 21 100 26 0.025382
16 21 100 26 0.0271156
19 21 100 26 0.081289
20 21 100 26 0.107195
21 21 100 26 0.244018
22 21 100 26 0.162716
23 21 100 26 0.1356
24 21 100 26 0.135323
25 21 100 26 0.0542407
26 21 100 26 0.0271203
6 22 100 26 0.029433
11 22 100 26 0.0294339
13 22 100 26 0.0294339
14 22 100 26 0.0294339
15 22 100 26 0.0294339
20 22 100 26 0.0588686
21 22 100 26 0.117719
22 22 100 26 0.235464
23 22 100 26 0.176599
24 22 100 26 0.088217
25 22 100 26 0.117096
26 22 100 26 0.0588677
21 23 100 26 0.0690114
22 23 100 26 0.103567
23 23 100 26 0.275265
24 23 100 26 0.24157
25 23 100 26 0.138038
26 23 100 26 0.17255
22 24 100 26 0.095237
23 24 100 26 0.142857
24 24 100 26 0.333334
25 24 100 26 0.333334
26 24 100 26 0.0952382
23 25 100 26 0.14875
24 25 100 26 0.149282
25 25 100 26 0.303885
26 25 100 26 0.398083
24 26 100 26 0.249011
25 26 100 26 0.25267
26 26 100 26 0.498319
25 27 100 26 0.499686
26 27 100 26 0.500314
17 28 100 26 0.000354723
18 28 100 26 0.14297
19 28 100 26 0.143094
20 28 100 26 2.36329e-07
21 28 100 26 0.143096
22 28 100 26 0.141184
23 28 100 26 3.43399e-07
26 28 100 26 0.4293
1 0 100 27 0.0388557
2 0 100 27 0.033445
3 0 100 27 0.0395912
4 0 100 27 0.0022847
5 0 100 27 0.00090209
6 0 100 27 0.0387396
7 0 100 27 0.0399016
8 0 100 27 0.0441744
9 0 100 27 0.0391404
10 0 100 27 0.003753
11 0 100 27 0.0365055
12 0 100 27 0.0335222
13 0 100 27 0.00451292
14 0 100 27 0.0761037
15 0 100 27 0.0772307
16 0 100 27 0.00237035
17 0 100 27 0.132064
18 0 100 27 0.00632701
19 0 100 27 0.0725614
20 0 100 27 0.00179014
21 0 100 27 0.0394852
22 0 100 27 0.039766
23 0 100 27 0.0398104
24 0 100 27 0.0386021
25 0 100 27 0.00283978
26 0 100 27 0.0777199
27 0 100 27 0.0380008
1 1 100 27 0.909047
2 1 100 27 0.0303305
3 1 100 27 0.0303292
4 1 100 27 0.0302928
1 2 100 27 6.83638e-06
2 2 100 27 0.965743
3 2 100 27 0.0342465
12 2 100 27 2.53217e-06
20 2 100 27 6.77247e-07
3 3 100 27 0.928598
4 3 100 27 0.0714021
3 4 100 27 0.0337114
4 4 100 27 0.833419
5 4 100 27 0.0999696
6 4 100 27 0.0328994
24 4 100 27 7.74016e-07
3 5 100 27 0.032972
5 5 100 27 0.83322
6 5 100 27 0.100447
8 5 100 27 7.75195e-07
10 5 100 27 0.0333599
4 6 100 27 0.0670206
6 6 100 27 0.736595
7 6 100 27 0.166843
8 6 100 27 0.0295417
5 7 100 27 0.0588655
6 7 100 27 0.0294324
7 7 100 27 0.587973
8 7 100 27 0.205999
9 7 100 27 0.058865
11 7 100 27 0.0294328
12 7 100 27 0.0294328
6 8 100 27 0.0664699
7 8 100 27 0.0662738
8 8 100 27 0.568347
9 8 100 27 0.199701
10 8 100 27 0.0659093
13 8 100 27 0.0332984
24 8 100 27 7.71825e-07
7 9 100 27 0.0648184
8 9 100 27 0.0934946
9 9 100 27 0.550824
10 9 100 27 0.193536
11 9 100 27 0.0648849
14 9 100 27 0.0324425
8 10 100 27 0.0624049
9 10 100 27 0.0624049
10 10 100 27 0.529752
11 10 100 27 0.220629
12 10 100 27 0.0624049
15 10 100 27 0.0311889
16 10 100 27 0.0312161
9 11 100 27 0.0903504
10 11 100 27 0.0520947
11 11 100 27 0.452731
12 11 100 27 0.254222
13 11 100 27 0.0901246
14 11 100 27 3.68354e-06
15 11 100 27 1.31917e-05
16 11 100 27 0.030222
17 11 100 27 0.0302352
21 11 100 27 3.66395e-06
10 12 100 27 0.0647847
11 12 100 27 0.0655072
12 12 100 27 0.457937
13 12 100 27 0.280637
14 12 100 27 0.0654998
15 12 100 27 0.0327534
17 12 100 27 0.0328819
10 13 100 27 0.0406544
11 13 100 27 0.0636676
12 13 100 27 0.0548696
13 13 100 27 0.39513
14 13 100 27 0.254675
15 13 100 27 0.0955063
16 13 100 27 0.0318262
18 13 100 27 0.0636702
24 13 100 27 7.36945e-07
9 14 100 27 6.93278e-07
11 14 100 27 0.0310414
12 14 100 27 0.0313781
13 14 100 27 0.0628601
14 14 100 27 0.439201
15 14 100 27 0.188248
16 14 100 27 0.125402
17 14 100 27 0.0313835
19 14 100 27 0.059108
27 14 100 27 0.0313781
11 15 100 27 3.15389e-06
12 15 100 27 0.0624987
13 15 100 27 0.0309777
14 15 100 27 0.0312734
15 15 100 27 0.437318
16 15 100 27 0.187177
17 15 100 27 0.125738
18 15 100 27 0.0625068
20 15 100 27 0.0625068
23 15 100 27 7.41046e-07
2 16 100 27 1.17085e-06
6 16 100 27 6.91725e-07
13 16 100 27 0.0901408
14 16 100 27 0.0304554
15 16 100 27 0.0300631
16 16 100 27 0.431313
17 16 100 27 0.110187
18 16 100 27 0.153988
19 16 100 27 0.0922272
21 16 100 27 0.0616219
22 16 100 27 1.92067e-06
14 17 100 27 0.057213
15 17 100 27 0.0286065
16 17 100 27 0.0286074
17 17 100 27 0.342153
18 17 100 27 0.143032
19 17 100 27 0.142936
20 17 100 27 0.171635
21 17 100 27 0.0286067
22 17 100 27 0.0572111
8 18 100 27 6.7226e-07
15 18 100 27 0.0620478
16 18 100 27 0.0304444
17 18 100 27 0.0312077
18 18 100 27 0.400568
19 18 100 27 0.164002
20 18 100 27 0.0624197
21 18 100 27 0.155707
22 18 100 27 0.0312077
23 18 100 27 0.0623953
16 19 100 27 0.0619367
17 19 100 27 0.0313088
18 19 100 27 0.0313074
19 19 100 27 0.34357
20 19 100 27 0.187852
21 19 100 27 0.0624982
22 19 100 27 0.156544
23 19 100 27 0.0623682
24 19 100 27 0.0626142
27 19 100 27 4.00225e-07
8 20 100 27 6.07319e-07
17 20 100 27 0.0564069
18 20 100 27 0.0282032
19 20 100 27 0.0275556
20 20 100 27 0.309517
21 20 100 27 0.196882
22 20 100 27 0.0846095
23 20 100 27 0.141005
24 20 100 27 0.0564064
25 20 100 27 0.0434112
26 20 100 27 0.0278002
27 20 100 27 0.0282032
6 21 100 27 5.27028e-06
17 21 100 27 7.74237e-07
18 21 100 27 0.0714533
19 21 100 27 0.0357415
20 21 100 27 0.0357367
21 21 100 27 0.321221
22 21 100 27 0.214397
23 21 100 27 0.0714746
24 21 100 27 0.178548
25 21 100 27 0.0714213
11 22 100 27 8.00838e-07
19 22 100 27 0.0365397
20 22 100 27 0.0722782
21 22 100 27 0.0365374
22 22 100 27 0.328638
23 22 100 27 0.182715
24 22 100 27 0.0730051
25 22 100 27 0.197206
26 22 100 27 0.073079
2 23 100 27 0.0267852
8 23 100 27 6.35706e-07
20 23 100 27 0.0295108
21 23 100 27 0.0885324
22 23 100 27 0.0288153
23 23 100 27 0.264853
24 23 100 27 0.206572
25 23 100 27 0.0598874
26 23 100 27 0.177065
27 23 100 27 0.117979
4 24 100 27 0.0324673
5 24 100 27 0.0347204
6 24 100 27 0.0346831
7 24 100 27 0.0347204
17 24 100 27 0.032656
22 24 100 27 0.103388
23 24 100 27 0.069262
24 24 100 27 0.277372
25 24 100 27 0.241848
26 24 100 27 0.0347216
27 24 100 27 0.104161
8 25 100 27 1.02731e-06
23 25 100 27 0.142433
24 25 100 27 0.0475314
25 25 100 27 0.429191
26 25 100 27 0.285448
27 25 100 27 0.0953957
24 26 100 27 0.158084
25 26 100 27 0.0527058
26 26 100 27 0.47302
27 26 100 27 0.316191
25 27 100 27 0.249993
26 27 100 27 0.0833342
27 27 100 27 0.666673
26 28 100 27 0.600251
27 28 100 27 0.399749
10 29 100 27 3.44817e-07
13 29 100 27 3.6312e-07
16 29 100 27 3.43059e-07
20 29 100 27 1.329e-06
23 29 100 27 9.03583e-07
27 29 100 27 0.999997
1 0 100 28 0.000361742
2 0 100 28 0.0447821
3 0 100 28 0.0688526
4 0 100 28 0.000337714
5 0 100 28 0.0451028
6 0 100 28 0.0449029
7 0 100 28 0.0459436
8 0 100 28 0.0697661
9 0 100 28 0.0576139
10 0 100 28 0.133767
11 0 100 28 0.0800116
12 0 100 28 0.0461215
13 0 100 28 0.0667969
14 0 100 28 0.0225423
15 0 100 28 0.0490855
16 0 100 28 0.0673031
17 0 100 28 0.000870176
18 0 100 28 0.000591829
19 0 100 28 0.000829116
20 0 100 28 0.000244936
21 0 100 28 0.0230997
22 0 100 28 0.000406739
23 0 100 28 0.000562635
24 0 100 28 0.0633641
25 0 100 28 0.000890354
26 0 100 28 0.0207446
27 0 100 28 0.0450498
28 0 100 28 5.44844e-05
1 1 100 28 0.946635
2 1 100 28 0.0266914
4 1 100 28 0.0266726
8 1 100 28 6.48859e-07
1 2 100 28 0.014721
2 2 100 28 0.895624
3 2 100 28 0.0597825
5 2 100 28 0.029872
24 2 100 28 5.31256e-07
2 3 100 28 0.0812799
3 3 100 28 0.756153
4 3 100 28 0.135468
6 3 100 28 0.027099
2 4 100 28 3.05119e-06
3 4 100 28 0.0625289
4 4 100 28 0.781231
5 4 100 28 0.124827
7 4 100 28 0.031266
13 4 100 28 6.28496e-07
27 4 100 28 0.000142629
4 5 100 28 0.13157
5 5 100 28 0.657406
6 5 100 28 0.158389
8 5 100 28 0.0263175
10 5 100 28 0.0263175
5 6 100 28 0.110364
6 6 100 28 0.661229
7 6 100 28 0.228292
10 6 100 28 0.000114206
6 7 100 28 0.0895201
7 7 100 28 0.571284
8 7 100 28 0.179012
9 7 100 28 0.0408419
10 7 100 28 0.0298353
11 7 100 28 0.089506
15 7 100 28 6.07933e-07
7 8 100 28 0.127709
8 8 100 28 0.50491
9 8 100 28 0.199985
10 8 100 28 0.056573
12 8 100 28 0.110822
7 9 100 28 0.0294172
8 9 100 28 0.176817
9 9 100 28 0.471102
10 9 100 28 0.117657
11 9 100 28 0.116704
12 9 100 28 3.38592e-06
13 9 100 28 0.0882954
14 9 100 28 3.58353e-06
8 10 100 28 0.0271449
9 10 100 28 0.18215
10 10 100 28 0.425565
11 10 100 28 0.0937219
12 10 100 28 0.0814218
13 10 100 28 0.054279
14 10 100 28 0.135717
15 10 100 28 9.05874e-07
27 10 100 28 5.90197e-07
2 11 100 28 5.65172e-07
6 11 100 28 6.53752e-07
7 11 100 28 3.27029e-07
8 11 100 28 5.65977e-07
9 11 100 28 0.0356113
10 11 100 28 0.155958
11 11 100 28 0.417956
12 11 100 28 0.139353
13 11 100 28 0.0837072
14 11 100 28 0.0279034
15 11 100 28 0.139509
27 11 100 28 5.54685e-07
9 12 100 28 1.00088e-05
10 12 100 28 0.019602
11 12 100 28 0.136305
12 12 100 28 0.408417
13 12 100 28 0.218279
14 12 100 28 0.0816054
15 12 100 28 0.0269904
16 12 100 28 0.10879
20 12 100 28 4.76485e-07
2 13 100 28 2.9014e-06
8 13 100 28 0.0270293
9 13 100 28 0.0270293
10 13 100 28 1.07169e-05
11 13 100 28 0.0266926
12 13 100 28 0.189192
13 13 100 28 0.270246
14 13 100 28 0.18925
15 13 100 28 0.0809392
16 13 100 28 0.0270278
17 13 100 28 0.135146
21 13 100 28 0.0270293
24 13 100 28 0.000404616
10 14 100 28 7.271e-07
11 14 100 28 0.0288406
12 14 100 28 6.08974e-07
13 14 100 28 0.173731
14 14 100 28 0.313253
15 14 100 28 0.228601
16 14 100 28 0.0851792
17 14 100 28 0.0285019
18 14 100 28 0.141891
22 14 100 28 1.70364e-06
11 15 100 28 9.04729e-07
13 15 100 28 0.0239711
14 15 100 28 0.166989
15 15 100 28 0.247274
16 15 100 28 0.224663
17 15 100 28 0.16829
18 15 100 28 0.0286751
19 15 100 28 0.112053
20 15 100 28 0.028083
27 15 100 28 4.97252e-07
13 16 100 28 0.000836744
14 16 100 28 0.0307206
15 16 100 28 0.146598
16 16 100 28 0.293163
17 16 100 28 0.205534
18 16 100 28 0.146795
19 16 100 28 0.0587999
20 16 100 28 0.0881627
21 16 100 28 0.0293903
22 16 100 28 2.96614e-07
8 17 100 28 6.06014e-07
14 17 100 28 0.0294081
15 17 100 28 0.058497
16 17 100 28 0.118183
17 17 100 28 0.205259
18 17 100 28 0.235523
19 17 100 28 0.206101
20 17 100 28 0.029465
21 17 100 28 0.0881173
22 17 100 28 0.0294465
9 18 100 28 6.0141e-07
15 18 100 28 0.0294405
16 18 100 28 0.029196
17 18 100 28 0.147204
18 18 100 28 0.235056
19 18 100 28 0.147104
20 18 100 28 0.235355
21 18 100 28 0.0588863
22 18 100 28 0.0883174
23 18 100 28 0.0294409
16 19 100 28 0.0285919
17 19 100 28 0.0571828
18 19 100 28 0.142831
19 19 100 28 0.27097
20 19 100 28 0.157692
21 19 100 28 0.199969
22 19 100 28 0.0571831
23 19 100 28 0.0569869
24 19 100 28 0.0285919
8 20 100 28 6.36042e-07
9 20 100 28 6.19283e-07
17 20 100 28 0.0615546
18 20 100 28 0.0615522
19 20 100 28 0.13837
20 20 100 28 0.184647
21 20 100 28 0.153886
22 20 100 28 0.246088
23 20 100 28 0.0615536
24 20 100 28 0.061338
25 20 100 28 0.0307773
28 20 100 28 0.000231597
8 21 100 28 5.16264e-07
16 21 100 28 0.0259823
17 21 100 28 0.0259823
18 21 100 28 0.0519644
19 21 100 28 0.077947
20 21 100 28 0.194325
21 21 100 28 0.155892
22 21 100 28 0.103839
23 21 100 28 0.207796
24 21 100 28 0.0519668
25 21 100 28 0.0523405
26 21 100 28 0.0259823
27 21 100 28 0.0259823
19 22 100 28 0.0232836
20 22 100 28 0.0698482
21 22 100 28 0.185672
22 22 100 28 0.162985
23 22 100 28 0.116334
24 22 100 28 0.20962
25 22 100 28 0.0465676
26 22 100 28 0.0927449
27 22 100 28 0.0465526
28 22 100 28 0.0463924
20 23 100 28 0.0277939
21 23 100 28 0.0555879
22 23 100 28 0.222352
23 23 100 28 0.194371
24 23 100 28 0.0831159
25 23 100 28 0.305598
26 23 100 28 0.0277998
27 23 100 28 0.0277939
28 23 100 28 0.0555879
2 24 100 28 0.000176015
8 24 100 28 0.000427273
11 24 100 28 6.55257e-07
22 24 100 28 0.0642082
23 24 100 28 0.225175
24 24 100 28 0.231132
25 24 100 28 0.125146
26 24 100 28 0.289571
27 24 100 28 0.0641645
10 25 100 28 6.39067e-07
11 25 100 28 3.21638e-07
22 25 100 28 0.0292353
23 25 100 28 0.0881416
24 25 100 28 0.175388
25 25 100 28 0.237649
26 25 100 28 0.11745
27 25 100 28 0.263995
28 25 100 28 0.0881404
23 26 100 28 0.03455
24 26 100 28 0.0691006
25 26 100 28 0.137316
26 26 100 28 0.309967
27 26 100 28 0.10365
28 26 100 28 0.345416
3 27 100 28 0.0476224
24 27 100 28 0.0476225
25 27 100 28 0.0952445
26 27 100 28 0.238047
27 27 100 28 0.428597
28 27 100 28 0.142867
25 28 100 28 0.0661524
26 28 100 28 0.0741756
27 28 100 28 0.330422
28 28 100 28 0.52925
25 29 100 28 0.11111
26 29 100 28 0.111111
27 29 100 28 0.111111
28 29 100 28 0.666667
27 30 100 28 0.499194
28 30 100 28 0.500806
28 31 100 28 1
1 0 100 29 0.000196529
2 0 100 29 8.11825e-05
3 0 100 29 0.0278105
4 0 100 29 0.000317054
5 0 100 29 0.000564996
6 0 100 29 0.0279197
7 0 100 29 0.0729427
8 0 100 29 0.028762
9 0 100 29 0.00153282
10 0 100 29 0.0276484
11 0 100 29 0.0554327
12 0 100 29 0.000266684
13 0 100 29 0.000593801
14 0 100 29 0.100715
15 0 100 29 0.119254
16 0 100 29 0.0281938
17 0 100 29 0.0283787
18 0 100 29 0.0278849
19 0 100 29 0.0285815
20 0 100 29 0.0279813
21 0 100 29 0.116339
22 0 100 29 0.0549762
23 0 100 29 0.0013238
24 0 100 29 0.10975
25 0 100 29 0.000268602
26 0 100 29 0.0555629
27 0 100 29 0.00133211
28 0 100 29 0.0273058
29 0 100 29 0.0280828
1 1 100 29 0.925908
2 1 100 29 0.0370444
4 1 100 29 0.0370469
10 1 100 29 6.54035e-07
2 2 100 29 0.821516
3 2 100 29 0.107165
4 2 100 29 0.0355968
5 2 100 29 0.0357213
7 2 100 29 7.11997e-07
2 3 100 29 0.0689617
3 3 100 29 0.689618
4 3 100 29 0.137992
5 3 100 29 0.0689834
6 3 100 29 0.0344451
3 4 100 29 0.0800549
4 4 100 29 0.679991
5 4 100 29 0.0798784
6 4 100 29 0.0800368
7 4 100 29 0.0800384
11 4 100 29 6.045e-07
4 5 100 29 0.100076
5 5 100 29 0.599917
6 5 100 29 0.100078
7 5 100 29 0.0998545
8 5 100 29 0.100073
21 5 100 29 7.0151e-07
5 6 100 29 0.113712
6 6 100 29 0.56817
7 6 100 29 0.141146
8 6 100 29 0.0379233
9 6 100 29 0.113427
11 6 100 29 0.0256184
15 6 100 29 8.32148e-07
21 6 100 29 7.44108e-07
22 6 100 29 7.48093e-07
24 6 100 29 7.48152e-07
6 7 100 29 0.0723852
7 7 100 29 0.493664
8 7 100 29 0.28915
9 7 100 29 0.0361926
10 7 100 29 0.0723852
11 7 100 29 0.0361957
14 7 100 29 1.38799e-05
16 7 100 29 8.81132e-06
24 7 100 29 4.72672e-06
5 8 100 29 0.0358225
6 8 100 29 0.0358225
7 8 100 29 0.0358225
8 8 100 29 0.428522
9 8 100 29 0.284898
10 8 100 29 0.071645
11 8 100 29 0.071645
12 8 100 29 0.0358225
4 9 100 29 0.0350924
6 9 100 29 0.0350924
8 9 100 29 0.0352928
9 9 100 29 0.421071
10 9 100 29 0.298062
11 9 100 29 0.105204
12 9 100 29 0.0701848
20 9 100 29 4.51174e-07
9 10 100 29 0.0392291
10 10 100 29 0.451312
11 10 100 29 0.274169
12 10 100 29 0.117615
13 10 100 29 0.0784583
14 10 100 29 0.0392147
19 10 100 29 7.47465e-07
21 10 100 29 8.36068e-07
8 11 100 29 5.51887e-06
10 11 100 29 0.0394929
11 11 100 29 0.447387
12 11 100 29 0.276442
13 11 100 29 0.0789824
14 11 100 29 0.118194
16 11 100 29 3.31514e-06
18 11 100 29 0.0394916
19 11 100 29 7.70411e-07
22 11 100 29 7.4545e-07
24 11 100 29 7.37935e-07
9 12 100 29 0.0322896
11 12 100 29 1.12639e-06
12 12 100 29 0.387229
13 12 100 29 0.289975
14 12 100 29 0.0967835
15 12 100 29 0.129159
16 12 100 29 0.0322732
19 12 100 29 0.0322904
12 13 100 29 0.0399957
13 13 100 29 0.399965
14 13 100 29 0.240031
15 13 100 29 0.128441
16 13 100 29 0.120012
17 13 100 29 1.11778e-05
19 13 100 29 7.63249e-07
20 13 100 29 0.0399856
21 13 100 29 0.0315577
13 14 100 29 0.0714948
14 14 100 29 0.32151
15 14 100 29 0.214201
16 14 100 29 0.142961
17 14 100 29 0.106846
18 14 100 29 0.0357457
21 14 100 29 0.0357474
22 14 100 29 0.0714945
14 15 100 29 0.0529063
15 15 100 29 0.289483
16 15 100 29 0.309503
17 15 100 29 0.154796
18 15 100 29 0.077427
19 15 100 29 0.0384485
22 15 100 29 7.17105e-07
23 15 100 29 0.0774342
24 15 100 29 7.15768e-07
13 16 100 29 0.0333683
15 16 100 29 0.0667371
16 16 100 29 0.266489
17 16 100 29 0.299886
18 16 100 29 0.133407
19 16 100 29 0.0666393
20 16 100 29 0.0333683
24 16 100 29 0.0333683
25 16 100 29 0.0667366
14 17 100 29 6.93109e-07
16 17 100 29 0.0370547
17 17 100 29 0.333419
18 17 100 29 0.296413
19 17 100 29 0.184885
20 17 100 29 0.074113
24 17 100 29 1.14511e-06
26 17 100 29 0.074113
1 18 100 29 0.0370505
2 18 100 29 0.0370505
15 18 100 29 5.46726e-07
17 18 100 29 0.0370511
18 18 100 29 0.222047
19 18 100 29 0.29639
20 18 100 29 0.14818
21 18 100 29 0.111152
25 18 100 29 0.0370505
27 18 100 29 0.0740277
28 18 100 29 7.33274e-07
3 19 100 29 0.0357436
18 19 100 29 0.0714872
19 19 100 29 0.21394
20 19 100 29 0.285803
21 19 100 29 0.142895
22 19 100 29 0.107232
23 19 100 29 0.0357436
24 19 100 29 1.67959e-05
26 19 100 29 0.0357436
28 19 100 29 0.071395
6 20 100 29 0.031254
7 20 100 29 0.031254
8 20 100 29 0.031254
9 20 100 29 0.031254
10 20 100 29 0.031254
12 20 100 29 0.031254
13 20 100 29 0.031254
14 20 100 29 1.81821e-06
18 20 100 29 0.031254
19 20 100 29 0.0312534
20 20 100 29 0.218662
21 20 100 29 0.12513
22 20 100 29 0.187456
23 20 100 29 0.0937022
24 20 100 29 0.031254
29 20 100 29 0.0625081
10 21 100 29 7.06701e-07
15 21 100 29 6.07468e-07
20 21 100 29 0.0754919
21 21 100 29 0.246474
22 21 100 29 0.151256
23 21 100 29 0.301954
24 21 100 29 0.0754344
25 21 100 29 0.0377484
27 21 100 29 0.0754334
28 21 100 29 0.0362066
8 22 100 29 6.85894e-07
21 22 100 29 0.0499209
22 22 100 29 0.271608
23 22 100 29 0.20365
24 22 100 29 0.271446
25 22 100 29 0.101857
26 22 100 29 0.0336132
28 22 100 29 0.0339508
29 22 100 29 0.0339524
1 23 100 29 0.0370823
4 23 100 29 7.11596e-07
16 23 100 29 0.0370793
18 23 100 29 0.0370824
19 23 100 29 0.0370824
20 23 100 29 0.0369011
22 23 100 29 0.000177475
23 23 100 29 0.257914
24 23 100 29 0.149426
25 23 100 29 0.259573
26 23 100 29 0.0741648
27 23 100 29 0.0370824
28 23 100 29 1.60374e-06
29 23 100 29 0.0364326
23 24 100 29 3.02585e-06
24 24 100 29 0.304555
25 24 100 29 0.261049
26 24 100 29 0.304322
27 24 100 29 0.0870161
28 24 100 29 0.0430547
21 25 100 29 0.0400155
25 25 100 29 0.279722
26 25 100 29 0.240091
27 25 100 29 0.280109
28 25 100 29 0.0800309
29 25 100 29 0.0800309
22 26 100 29 0.0476575
26 26 100 29 0.286051
27 26 100 29 0.285079
28 26 100 29 0.285897
29 26 100 29 0.095315
27 27 100 29 0.349139
28 27 100 29 0.350462
29 27 100 29 0.300398
28 28 100 29 0.502715
29 28 100 29 0.497285
19 29 100 29 0.125077
21 29 100 29 0.124408
22 29 100 29 0.12492
23 29 100 29 0.000208349
29 29 100 29 0.625386
27 30 100 29 1
13 31 100 29 1.63654e-06
15 31 100 29 4.49474e-06
16 31 100 29 6.16289e-06
17 31 100 29 0.000224119
28 31 100 29 1.58779e-06
29 31 100 29 0.999762
1 0 100 30 0.000169675
2 0 100 30 4.43272e-05
3 0 100 30 0.227212
5 0 100 30 0.188163
6 0 100 30 0.00270117
8 0 100 30 0.000280493
9 0 100 30 0.00144206
10 0 100 30 0.0083401
11 0 100 30 0.00214819
12 0 100 30 0.215468
13 0 100 30 0.000492539
14 0 100 30 0.00822646
15 0 100 30 0.000109885
16 0 100 30 0.00119814
17 0 100 30 0.000845464
18 0 100 30 0.034395
20 0 100 30 0.00271394
21 0 100 30 0.0157639
22 0 100 30 0.187821
23 0 100 30 0.00203472
24 0 100 30 0.000137194
25 0 100 30 0.00197429
26 0 100 30 0.000833598
27 0 100 30 5.08163e-06
28 0 100 30 0.0683566
29 0 100 30 0.0291224
1 1 100 30 0.888875
2 1 100 30 0.111122
17 1 100 30 3.19559e-06
1 2 100 30 0.0910264
2 2 100 30 0.637163
3 2 100 30 0.0897574
13 2 100 30 0.0910264
14 2 100 30 0.0910264
2 3 100 30 0.113547
3 3 100 30 0.65936
4 3 100 30 0.227093
3 4 100 30 0.0768777
4 4 100 30 0.4616
5 4 100 30 0.307733
6 4 100 30 0.153789
4 5 100 30 0.125002
5 5 100 30 0.374989
6 5 100 30 0.375007
7 5 100 30 0.125002
5 6 100 30 0.111111
6 6 100 30 0.333333
7 6 100 30 0.333333
8 6 100 30 0.111111
17 6 100 30 0.111111
6 7 100 30 0.109801
7 7 100 30 0.333862
8 7 100 30 0.333794
9 7 100 30 0.111256
13 7 100 30 0.111287
7 8 100 30 0.200162
8 8 100 30 0.300155
9 8 100 30 0.399597
10 8 100 30 0.100086
8 9 100 30 0.190594
9 9 100 30 0.190583
10 9 100 30 0.475511
11 9 100 30 0.143311
12 9 100 30 1.2385e-06
9 10 100 30 0.211348
10 10 100 30 0.103383
11 10 100 30 0.473921
12 10 100 30 0.211347
10 11 100 30 0.224776
11 11 100 30 0.113093
12 11 100 30 0.435944
13 11 100 30 0.226148
14 11 100 30 3.9451e-05
11 12 100 30 0.181937
12 12 100 30 0.181937
13 12 100 30 0.272283
14 12 100 30 0.181905
15 12 100 30 0.181937
13 13 100 30 0.251167
14 13 100 30 0.372083
15 13 100 30 0.125583
16 13 100 30 0.251167
14 14 100 30 0.332871
15 14 100 30 0.444735
16 14 100 30 0.111195
17 14 100 30 0.1112
15 15 100 30 0.222362
16 15 100 30 0.444096
17 15 100 30 0.222362
18 15 100 30 0.111179
16 16 100 30 0.124928
17 16 100 30 0.375025
18 16 100 30 0.250023
19 16 100 30 0.250023
16 17 100 30 0.113415
17 17 100 30 0.113412
18 17 100 30 0.432928
19 17 100 30 0.22683
20 17 100 30 0.113415
17 18 100 30 0.0996027
18 18 100 30 0.100045
19 18 100 30 0.300134
20 18 100 30 0.400178
21 18 100 30 0.100041
18 19 100 30 0.125223
19 19 100 30 0.125223
20 19 100 30 0.24866
21 19 100 30 0.37567
22 19 100 30 0.125223
13 20 100 30 0.000577247
19 20 100 30 0.126209
20 20 100 30 0.126209
21 20 100 30 0.242182
22 20 100 30 0.378614
23 20 100 30 0.126209
20 21 100 30 0.111328
21 21 100 30 0.222396
22 21 100 30 0.111345
23 21 100 30 0.444713
24 21 100 30 0.110218
21 22 100 30 0.111111
22 22 100 30 0.222222
23 22 100 30 0.111111
24 22 100 30 0.444444
25 22 100 30 0.111111
22 23 100 30 0.111476
23 23 100 30 0.22202
24 23 100 30 0.111279
25 23 100 30 0.332668
26 23 100 30 0.111279
27 23 100 30 0.111279
23 24 100 30 0.142933
24 24 100 30 0.285866
25 24 100 30 0.285866
26 24 100 30 0.285334
24 25 100 30 0.126026
25 25 100 30 0.249708
26 25 100 30 0.374562
27 25 100 30 0.249703
25 26 100 30 0.11112
26 26 100 30 0.222161
27 26 100 30 0.33336
28 26 100 30 0.33336
26 27 100 30 0.074165
27 27 100 30 0.14833
28 27 100 30 0.195548
29 27 100 30 0.359462
30 27 100 30 0.222495
27 28 100 30 0.166667
28 28 100 30 0.333333
29 28 100 30 0.166667
30 28 100 30 0.333333
28 29 100 30 0.200063
29 29 100 30 0.39981
30 29 100 30 0.400126
29 30 100 30 0.5
30 30 100 30 0.5
30 31 100 30 1
1 0 100 31 0.0830476
2 0 100 31 0.0963929
3 0 100 31 0.0486152
4 0 100 31 0.0484789
5 0 100 31 0.00107387
6 0 100 31 0.0478013
7 0 100 31 8.39515e-05
9 0 100 31 0.0485455
10 0 100 31 0.000135729
11 0 100 31 0.0173189
12 0 100 31 0.0151283
13 0 100 31 0.000888635
14 0 100 31 0.096414
15 0 100 31 0.0480545
16 0 100 31 0.145883
17 0 100 31 0.048346
18 0 100 31 0.0489233
19 0 100 31 0.000321268
20 0 100 31 0.0487604
21 0 100 31 8.19055e-05
22 0 100 31 0.000668412
23 0 100 31 0.000238729
24 0 100 31 0.00292042
25 0 100 31 0.000768808
27 0 100 31 0.0480456
28 0 100 31 0.0479648
29 0 100 31 0.0489266
30 0 100 31 0.00616931
31 0 100 31 1.9453e-06
1 1 100 31 0.909055
2 1 100 31 0.0909446
1 2 100 31 0.0125914
2 2 100 31 0.808221
3 2 100 31 0.179188
2 3 100 31 8.93661e-07
3 3 100 31 0.667118
4 3 100 31 0.166838
5 3 100 31 0.082632
6 3 100 31 0.0834111
3 4 100 31 0.0833966
4 4 100 31 0.666423
5 4 100 31 0.166793
7 4 100 31 0.083386
16 4 100 31 9.05327e-07
1 5 100 31 9.81202e-07
2 5 100 31 9.81977e-07
4 5 100 31 0.0833464
5 5 100 31 0.665736
6 5 100 31 0.167563
8 5 100 31 0.0833516
20 5 100 31 1.12754e-06
6 6 100 31 0.699847
7 6 100 31 0.300153
7 7 100 31 0.604762
8 7 100 31 0.296429
9 7 100 31 0.0988097
5 8 100 31 0.0841968
7 8 100 31 0.0739171
8 8 100 31 0.505214
9 8 100 31 0.252585
10 8 100 31 0.0840867
1 9 100 31 1.17447e-06
2 9 100 31 1.17449e-06
6 9 100 31 0.100102
8 9 100 31 0.100066
9 9 100 31 0.39939
10 9 100 31 0.30032
11 9 100 31 0.100107
18 9 100 31 1.08643e-05
20 9 100 31 1.19336e-06
1 10 100 31 1.33749e-06
7 10 100 31 0.0790552
9 10 100 31 0.15811
10 10 100 31 0.316215
11 10 100 31 0.288511
12 10 100 31 0.0790552
23 10 100 31 0.0790525
8 11 100 31 0.0769599
9 11 100 31 0.07696
10 11 100 31 0.153809
11 11 100 31 0.307609
12 11 100 31 0.307838
13 11 100 31 0.0768233
10 12 100 31 0.157751
11 12 100 31 0.157203
12 12 100 31 0.290668
13 12 100 31 0.315502
14 12 100 31 0.0788756
12 13 100 31 0.0909458
13 13 100 31 0.453214
14 13 100 31 0.363782
15 13 100 31 0.0909458
18 13 100 31 9.86432e-06
24 13 100 31 0.00110104
29 13 100 31 1.36675e-06
4 14 100 31 1.25458e-06
11 14 100 31 0.0770076
12 14 100 31 0.0770081
14 14 100 31 0.307515
15 14 100 31 0.462035
16 14 100 31 0.0764327
12 15 100 31 0.0714355
13 15 100 31 1.07725e-06
15 15 100 31 0.21431
16 15 100 31 0.214493
17 15 100 31 0.285746
18 15 100 31 0.142578
19 15 100 31 0.0714365
13 16 100 31 0.199975
15 16 100 31 3.32104e-06
16 16 100 31 0.1981
17 16 100 31 0.301096
18 16 100 31 0.100432
19 16 100 31 0.0999535
20 16 100 31 0.10044
13 17 100 31 0.000817993
14 17 100 31 0.0909383
16 17 100 31 0.0909383
17 17 100 31 0.181877
18 17 100 31 0.362612
19 17 100 31 0.0909397
20 17 100 31 0.0909383
21 17 100 31 0.0909383
15 18 100 31 0.000131396
17 18 100 31 0.0906764
18 18 100 31 0.181732
19 18 100 31 0.363781
20 18 100 31 0.0909483
21 18 100 31 0.0909481
22 18 100 31 0.181781
29 18 100 31 1.99672e-06
1 19 100 31 1.17502e-06
2 19 100 31 1.17503e-06
15 19 100 31 0.0997521
18 19 100 31 0.100049
19 19 100 31 0.200098
20 19 100 31 0.400001
23 19 100 31 0.200098
15 20 100 31 0.000160535
16 20 100 31 1.31062e-06
19 20 100 31 0.111117
20 20 100 31 0.222001
21 20 100 31 0.444485
24 20 100 31 0.222233
29 20 100 31 2.46389e-06
1 21 100 31 8.39189e-07
2 21 100 31 8.39774e-07
9 21 100 31 1.14386e-06
15 21 100 31 1.83551e-06
16 21 100 31 0.0712352
19 21 100 31 0.0715037
20 21 100 31 0.0707282
21 21 100 31 0.143008
22 21 100 31 0.357507
23 21 100 31 0.0715058
24 21 100 31 0.0715037
25 21 100 31 0.142987
26 21 100 31 1.61897e-05
17 22 100 31 0.0833065
20 22 100 31 0.083384
21 22 100 31 0.166617
22 22 100 31 0.083388
23 22 100 31 0.333147
25 22 100 31 0.0834044
26 22 100 31 0.166752
29 22 100 31 1.25313e-06
19 23 100 31 0.000173321
21 23 100 31 0.0559804
22 23 100 31 0.167067
23 23 100 31 0.0559684
24 23 100 31 0.223919
26 23 100 31 0.0559804
27 23 100 31 0.167941
28 23 100 31 0.0559804
29 23 100 31 0.0559804
30 23 100 31 0.105029
31 23 100 31 0.0559804
18 24 100 31 8.11964e-06
23 24 100 31 0.111051
24 24 100 31 0.224191
25 24 100 31 0.442647
28 24 100 31 0.222102
18 25 100 31 0.0769326
21 25 100 31 0.0769304
22 25 100 31 0.0769325
24 25 100 31 0.0769326
25 25 100 31 0.153865
26 25 100 31 0.230798
27 25 100 31 0.0769326
29 25 100 31 0.230676
1 26 100 31 9.09443e-06
16 26 100 31 0.0775057
19 26 100 31 0.0771338
22 26 100 31 0.00023997
23 26 100 31 0.0775038
25 26 100 31 0.154862
26 26 100 31 0.155012
27 26 100 31 0.155011
28 26 100 31 0.0771036
30 26 100 31 0.225618
18 27 100 31 3.47011e-06
23 27 100 31 0.0839742
24 27 100 31 0.0762771
26 27 100 31 0.16795
27 27 100 31 0.16795
28 27 100 31 0.251924
29 27 100 31 0.0839729
31 27 100 31 0.16795
24 28 100 31 0.167028
27 28 100 31 0.167028
28 28 100 31 0.167028
29 28 100 31 0.331881
30 28 100 31 0.167033
25 29 100 31 0.140926
26 29 100 31 3.7245e-06
28 29 100 31 0.141895
29 29 100 31 0.140931
30 29 100 31 0.294392
31 29 100 31 0.281853
19 30 100 31 1.88959e-06
26 30 100 31 0.166774
29 30 100 31 0.166768
30 30 100 31 0.166117
31 30 100 31 0.500339
27 31 100 31 0.333393
29 31 100 31 1.69586e-05
30 31 100 31 0.333197
31 31 100 31 0.333393
26 32 100 31 0.5
31 32 100 31 0.5
12 33 100 31 0.000654416
27 33 100 31 0.999346
28 34 100 31 1
1 35 100 31 1.91516e-06
2 35 100 31 8.6654e-05
4 35 100 31 3.64501e-05
6 35 100 31 8.64284e-07
15 35 100 31 1.30512e-05
16 35 100 31 1.908e-06
20 35 100 31 0.000325069
29 35 100 31 0.999534
30 36 100 31 1
31 37 100 31 1
3 0 100 32 0.140478
7 0 100 32 0.00196874
8 0 100 32 0.140506
10 0 100 32 2.18992e-05
11 0 100 32 0.000217768
12 0 100 32 0.00207968
13 0 100 32 0.000244165
14 0 100 32 1.12358e-05
15 0 100 32 0.0019707
16 0 100 32 0.0037319
17 0 100 32 0.000106093
18 0 100 32 4.67404e-06
19 0 100 32 0.00412065
21 0 100 32 0.139517
22 0 100 32 0.14049
23 0 100 32 0.00345224
24 0 100 32 0.135399
25 0 100 32 0.000342075
28 0 100 32 9.63669e-06
29 0 100 32 0.14049
30 0 100 32 0.141112
31 0 100 32 0.00372591
32 0 100 32 1.40801e-06
1 1 100 32 0.666589
2 1 100 32 0.333411
1 2 100 32 7.79492e-05
2 2 100 32 0.666589
3 2 100 32 0.333333
3 3 100 32 0.250017
4 3 100 32 0.499989
5 3 100 32 0.249995
1 4 100 32 0.2
4 4 100 32 0.2
5 4 100 32 0.4
6 4 100 32 0.2
6 5 100 32 0.666667
7 5 100 32 0.333333
7 6 100 32 0.665102
8 6 100 32 0.334898
8 7 100 32 0.333308
9 7 100 32 0.666692
9 8 100 32 0.25001
10 8 100 32 0.74999
11 9 100 32 1
12 10 100 32 0.999988
13 10 100 32 1.16574e-05
12 11 100 32 8.70372e-06
13 11 100 32 0.749883
14 11 100 32 0.250109
14 12 100 32 0.666409
15 12 100 32 0.333122
16 12 100 32 0.00010694
22 12 100 32 5.33387e-06
28 12 100 32 0.000356844
15 13 100 32 0.498455
16 13 100 32 0.250871
28 13 100 32 0.250674
16 14 100 32 0.663827
17 14 100 32 0.336173
17 15 100 32 0.666651
18 15 100 32 0.333349
18 16 100 32 0.666651
19 16 100 32 0.333349
18 17 100 32 1.19379e-05
19 17 100 32 0.663363
20 17 100 32 0.336625
20 18 100 32 0.996541
21 18 100 32 0.00345224
30 18 100 32 6.74072e-06
21 19 100 32 0.666667
22 19 100 32 0.333333
22 20 100 32 0.497097
23 20 100 32 0.484887
24 20 100 32 0.0180158
23 21 100 32 0.667021
25 21 100 32 0.332979
24 22 100 32 0.333427
25 22 100 32 0.333146
26 22 100 32 0.333427
25 23 100 32 0.333333
26 23 100 32 0.333333
27 23 100 32 0.333333
26 24 100 32 0.5
27 24 100 32 0.5
27 25 100 32 0.333337
28 25 100 32 0.333326
31 25 100 32 0.333337
28 26 100 32 0.333333
29 26 100 32 0.333333
32 26 100 32 0.333333
29 27 100 32 0.500009
30 27 100 32 0.499991
30 28 100 32 0.498897
31 28 100 32 0.501103
24 29 100 32 0.336307
31 29 100 32 0.327388
32 29 100 32 0.336304
32 30 100 32 1
2 0 100 33 0.000485017
4 0 100 33 0.000219719
5 0 100 33 0.000585451
6 0 100 33 0.00178669
7 0 100 33 6.58632e-05
8 0 100 33 0.00125204
9 0 100 33 0.00103918
10 0 100 33 0.00220559
11 0 100 33 0.00133978
12 0 100 33 0.181656
13 0 100 33 0.145236
14 0 100 33 0.000787198
15 0 100 33 0.136298
16 0 100 33 0.0798887
17 0 100 33 0.000383099
18 0 100 33 4.02199e-06
19 0 100 33 0.00117684
21 0 100 33 0.00431
22 0 100 33 1.51054e-06
23 0 100 33 0.000599586
24 0 100 33 0.000149265
25 0 100 33 0.290639
26 0 100 33 0.000781805
27 0 100 33 0.000538039
29 0 100 33 0.000554766
30 0 100 33 0.0017744
31 0 100 33 0.000234008
32 0 100 33 0.146009
1 1 100 33 0.571429
2 1 100 33 0.142857
3 1 100 33 0.285714
2 2 100 33 0.599733
4 2 100 33 0.400267
3 3 100 33 0.75
5 3 100 33 0.25
4 4 100 33 0.6006
5 4 100 33 0.200301
6 4 100 33 0.199099
5 5 100 33 0.600431
6 5 100 33 0.199156
7 5 100 33 0.200413
6 6 100 33 0.600027
7 6 100 33 0.19996
8 6 100 33 0.200011
25 6 100 33 2.5395e-06
7 7 100 33 0.499984
8 7 100 33 0.333344
9 7 100 33 0.166672
8 8 100 33 0.399798
9 8 100 33 0.400092
10 8 100 33 0.200109
9 9 100 33 0.400994
10 9 100 33 0.398604
11 9 100 33 0.2004
25 9 100 33 2.46366e-06
10 10 100 33 0.258148
11 10 100 33 0.386995
12 10 100 33 0.225783
13 10 100 33 0.129074
11 11 100 33 0.165846
12 11 100 33 0.167011
13 11 100 33 0.167011
14 11 100 33 0.500132
12 12 100 33 0.197456
13 12 100 33 0.197456
15 12 100 33 0.407631
16 12 100 33 0.197456
13 13 100 33 0.0983592
14 13 100 33 0.202618
16 13 100 33 0.293786
17 13 100 33 0.405237
13 14 100 33 0.11405
15 14 100 33 0.221012
17 14 100 33 0.221646
18 14 100 33 0.443292
14 15 100 33 0.166696
16 15 100 33 0.166701
18 15 100 33 0.166696
19 15 100 33 0.333207
20 15 100 33 0.166701
15 16 100 33 0.200128
17 16 100 33 0.199599
19 16 100 33 0.200128
20 16 100 33 0.200128
21 16 100 33 0.200015
16 17 100 33 0.2
18 17 100 33 0.2
20 17 100 33 0.2
21 17 100 33 0.2
22 17 100 33 0.2
17 18 100 33 0.201171
19 18 100 33 0.201171
21 18 100 33 0.195315
22 18 100 33 0.201171
23 18 100 33 0.201171
18 19 100 33 0.200037
20 19 100 33 0.200037
22 19 100 33 0.200037
23 19 100 33 0.199853
24 19 100 33 0.200037
19 20 100 33 0.198927
21 20 100 33 0.200317
23 20 100 33 0.200302
24 20 100 33 0.200137
25 20 100 33 0.200317
20 21 100 33 0.142883
21 21 100 33 0.142883
22 21 100 33 0.142883
23 21 100 33 0.142883
24 21 100 33 0.142867
25 21 100 33 0.142717
26 21 100 33 0.142883
22 22 100 33 0.242858
24 22 100 33 0.0289529
25 22 100 33 0.24286
26 22 100 33 0.24286
27 22 100 33 0.242445
29 22 100 33 2.47347e-05
23 23 100 33 0.204599
24 23 100 33 0.180773
26 23 100 33 0.20414
27 23 100 33 0.205244
28 23 100 33 0.205244
24 24 100 33 0.2
26 24 100 33 0.2
27 24 100 33 0.2
28 24 100 33 0.2
29 24 100 33 0.2
1 25 100 33 0.0833472
2 25 100 33 0.0833472
26 25 100 33 0.0833472
27 25 100 33 0.0831809
28 25 100 33 0.0833472
29 25 100 33 0.166694
30 25 100 33 0.166694
31 25 100 33 0.0833472
32 25 100 33 0.0833472
33 25 100 33 0.0833472
15 26 100 33 3.4504e-06
28 26 100 33 0.333512
30 26 100 33 0.333511
31 26 100 33 0.332974
25 27 100 33 3.58281e-06
27 27 100 33 0.250577
29 27 100 33 0.249595
31 27 100 33 0.250577
32 27 100 33 0.249248
25 28 100 33 3.1445e-06
28 28 100 33 0.250765
30 28 100 33 0.247703
33 28 100 33 0.501529
29 29 100 33 0.5
31 29 100 33 0.5
30 30 100 33 0.499997
32 30 100 33 0.500003
31 31 100 33 0.5
33 31 100 33 0.5
32 32 100 33 1
33 33 100 33 1
1 0 100 34 0.000214033
2 0 100 34 0.00325655
3 0 100 34 1.63517e-05
4 0 100 34 0.00398339
5 0 100 34 0.297296
6 0 100 34 0.0216051
7 0 100 34 0.00400087
8 0 100 34 0.00845297
10 0 100 34 1.39813e-05
11 0 100 34 0.00877229
13 0 100 34 0.000667621
14 0 100 34 1.61576e-05
17 0 100 34 0.00168977
18 0 100 34 0.0010387
19 0 100 34 0.000219973
20 0 100 34 0.00428354
21 0 100 34 0.295458
25 0 100 34 0.00821412
27 0 100 34 0.00104282
28 0 100 34 0.00839954
29 0 100 34 0.000838325
30 0 100 34 0.298733
31 0 100 34 3.1365e-05
32 0 100 34 0.0315749
33 0 100 34 0.000179911
1 1 100 34 0.499998
2 1 100 34 0.166706
3 1 100 34 0.166706
6 1 100 34 0.16659
2 2 100 34 0.665416
4 2 100 34 0.334485
5 2 100 34 9.91034e-05
3 3 100 34 0.999761
32 3 100 34 0.000239017
4 4 100 34 0.665187
7 4 100 34 0.334808
21 4 100 34 4.1543e-06
5 5 100 34 0.666667
8 5 100 34 0.333333
6 6 100 34 0.658475
9 6 100 34 0.341525
7 7 100 34 0.665162
10 7 100 34 0.334833
21 7 100 34 4.22574e-06
8 8 100 34 0.663478
11 8 100 34 0.336522
9 9 100 34 1
10 10 100 34 0.999796
19 10 100 34 0.000100413
28 10 100 34 0.000103886
11 11 100 34 0.663358
13 11 100 34 0.336642
12 12 100 34 0.666667
14 12 100 34 0.333333
13 13 100 34 0.499719
15 13 100 34 0.25014
16 13 100 34 0.25014
12 14 100 34 0.250003
14 14 100 34 0.499993
15 14 100 34 0.250003
15 15 100 34 0.333333
16 15 100 34 0.333333
17 15 100 34 0.333333
16 16 100 34 0.333336
17 16 100 34 0.333328
18 16 100 34 0.333336
17 17 100 34 0.33256
18 17 100 34 0.333285
19 17 100 34 0.334154
19 18 100 34 0.489368
20 18 100 34 0.489368
21 18 100 34 0.0212631
18 19 100 34 0.499999
20 19 100 34 0.500001
19 20 100 34 0.993589
21 20 100 34 0.0064106
20 21 100 34 0.496373
22 21 100 34 0.503627
21 22 100 34 0.661768
23 22 100 34 0.338232
22 23 100 34 0.285714
23 23 100 34 0.142857
24 23 100 34 0.285714
25 23 100 34 0.142857
26 23 100 34 0.142857
23 24 100 34 0.5
27 24 100 34 0.5
24 25 100 34 0.333437
25 25 100 34 0.333435
28 25 100 34 0.333128
25 26 100 34 0.244785
26 26 100 34 0.251739
29 26 100 34 0.251738
31 26 100 34 0.251738
26 27 100 34 0.345621
27 27 100 34 0.345621
32 27 100 34 0.308759
27 28 100 34 0.249393
28 28 100 34 0.250217
33 28 100 34 0.250119
34 28 100 34 0.250271
28 29 100 34 0.493782
29 29 100 34 0.506218
29 30 100 34 0.5
30 30 100 34 0.5
30 31 100 34 0.498863
31 31 100 34 0.501137
31 32 100 34 0.499974
32 32 100 34 0.500026
32 33 100 34 0.5
33 33 100 34 0.5
33 34 100 34 0.5
34 34 100 34 0.5
34 35 100 34 1
2 0 100 35 0.0202615
3 0 100 35 0.00174877
4 0 100 35 0.00272123
5 0 100 35 0.182736
11 0 100 35 0.000672115
16 0 100 35 0.00127358
18 0 100 35 0.0321198
19 0 100 35 0.00458686
20 0 100 35 0.0834076
22 0 100 35 0.0768745
26 0 100 35 0.0834076
28 0 100 35 0.161639
31 0 100 35 0.00139618
33 0 100 35 0.347156
1 1 100 35 1
2 2 100 35 1
2 3 100 35 5.96518e-05
3 3 100 35 0.999878
4 3 100 35 6.22409e-05
4 4 100 35 1
5 5 100 35 1
6 6 100 35 1
7 7 100 35 1
8 8 100 35 1
9 9 100 35 1
10 10 100 35 1
11 11 100 35 1
12 12 100 35 0.999934
15 12 100 35 6.60255e-05
15 13 100 35 1
16 14 100 35 1
13 15 100 35 0.333333
14 15 100 35 0.333333
17 15 100 35 0.333333
18 16 100 35 1
19 17 100 35 1
20 18 100 35 1
21 19 100 35 1
22 20 100 35 1
23 21 100 35 1
24 22 100 35 1
25 23 100 35 1
26 24 100 35 1
27 25 100 35 1
28 26 100 35 1
29 27 100 35 1
12 28 100 35 1
30 29 100 35 1
31 30 100 35 1
32 31 100 35 1
33 32 100 35 1
34 33 100 35 1
35 34 100 35 1
2 0 100 36 0.0010332
3 0 100 36 3.68956e-05
4 0 100 36 0.000131839
5 0 100 36 6.29761e-06
6 0 100 36 0.00164449
7 0 100 36 0.193251
9 0 100 36 2.21389e-05
11 0 100 36 0.000424668
13 0 100 36 0.000318656
14 0 100 36 0.000343014
16 0 100 36 0.000270133
17 0 100 36 0.000139927
18 0 100 36 0.000330988
19 0 100 36 0.000841735
21 0 100 36 0.193239
22 0 100 36 5.24316e-06
23 0 100 36 0.19371
24 0 100 36 0.00662347
25 0 100 36 0.0022427
26 0 100 36 2.31551e-06
27 0 100 36 0.193251
28 0 100 36 0.01531
29 0 100 36 0.000329123
30 0 100 36 0.00128954
31 0 100 36 0.192429
33 0 100 36 0.000621211
35 0 100 36 0.00215266
1 1 100 36 1
2 2 100 36 1
3 3 100 36 1
4 4 100 36 1
5 5 100 36 0.999996
23 5 100 36 3.73459e-06
6 6 100 36 0.999996
21 6 100 36 3.68665e-06
7 7 100 36 0.666667
8 7 100 36 0.333333
8 8 100 36 0.666667
9 8 100 36 0.333333
9 9 100 36 0.666654
10 9 100 36 0.333346
10 10 100 36 0.666707
11 10 100 36 0.333293
11 11 100 36 0.666442
12 11 100 36 0.333558
12 12 100 36 0.666667
13 12 100 36 0.333333
13 13 100 36 0.666483
14 13 100 36 0.333517
14 14 100 36 0.883925
15 14 100 36 0.116075
15 15 100 36 0.732449
16 15 100 36 0.267552
16 16 100 36 0.666511
17 16 100 36 0.333489
17 17 100 36 0.666586
18 17 100 36 0.333414
18 18 100 36 0.667446
19 18 100 36 0.332554
19 19 100 36 0.666667
20 19 100 36 0.333333
20 20 100 36 0.500002
21 20 100 36 0.250001
25 20 100 36 0.249997
21 21 100 36 0.250001
22 21 100 36 0.500001
26 21 100 36 0.249998
21 22 100 36 1.49201e-05
22 22 100 36 0.337446
23 22 100 36 0.33665
24 22 100 36 0.325889
23 23 100 36 0.333333
24 23 100 36 0.333333
25 23 100 36 0.333333
24 24 100 36 0.334626
25 24 100 36 0.330748
26 24 100 36 0.334626
26 25 100 36 0.169103
27 25 100 36 0.169103
28 25 100 36 0.324956
29 25 100 36 0.168856
30 25 100 36 0.167981
27 26 100 36 0.333333
29 26 100 36 0.333333
32 26 100 36 0.333333
28 27 100 36 0.499768
29 27 100 36 1.39497e-05
30 27 100 36 0.500218
21 28 100 36 5.39569e-06
28 28 100 36 1.39455e-05
29 28 100 36 0.499922
30 28 100 36 1.19779e-05
31 28 100 36 0.500047
29 29 100 36 1.19765e-05
30 29 100 36 0.499978
32 29 100 36 0.50001
31 30 100 36 0.430268
33 30 100 36 0.569732
31 31 100 36 0.000920537
32 31 100 36 0.429347
33 31 100 36 0.140385
34 31 100 36 0.429347
33 32 100 36 0.573167
35 32 100 36 0.426833
34 33 100 36 0.666667
36 33 100 36 0.333333
35 34 100 36 1
36 35 100 36 1
2 0 100 37 0.00345191
3 0 100 37 0.00267746
4 0 100 37 0.00153301
5 0 100 37 9.68588e-06
6 0 100 37 0.00108177
8 0 100 37 0.322382
9 0 100 37 2.20662e-05
12 0 100 37 8.9127e-05
13 0 100 37 0.0051481
15 0 100 37 0.322386
18 0 100 37 0.322366
19 0 100 37 0.0012168
21 0 100 37 0.00114882
23 0 100 37 0.000365535
24 0 100 37 8.48873e-05
27 0 100 37 0.00610757
30 0 100 37 0.00727692
33 0 100 37 0.00264627
34 0 100 37 6.59269e-06
1 1 100 37 1
2 2 100 37 1
3 3 100 37 1
4 4 100 37 1
5 5 100 37 0.599998
6 5 100 37 0.200001
7 5 100 37 0.200001
6 6 100 37 0.666292
8 6 100 37 0.333708
7 7 100 37 0.666667
9 7 100 37 0.333333
8 8 100 37 0.333324
9 8 100 37 0.333338
10 8 100 37 0.333338
2 9 100 37 5.65755e-06
9 9 100 37 0.499977
10 9 100 37 0.500011
15 9 100 37 5.64266e-06
10 10 100 37 0.333333
11 10 100 37 0.666667
11 11 100 37 0.33336
12 11 100 37 0.66664
12 12 100 37 0.333354
13 12 100 37 0.666646
13 13 100 37 0.329823
14 13 100 37 0.670173
15 13 100 37 3.81495e-06
14 14 100 37 0.333342
15 14 100 37 0.666649
16 14 100 37 9.54489e-06
15 15 100 37 9.54468e-06
16 15 100 37 0.99999
17 16 100 37 1
18 17 100 37 0.666667
19 17 100 37 0.333333
19 18 100 37 0.666247
20 18 100 37 0.333753
20 19 100 37 0.666667
21 19 100 37 0.333333
21 20 100 37 0.66627
22 20 100 37 0.33373
22 21 100 37 0.666866
23 21 100 37 0.333134
23 22 100 37 0.66664
24 22 100 37 0.33336
24 23 100 37 0.499967
25 23 100 37 0.500033
25 24 100 37 0.333333
26 24 100 37 0.666667
26 25 100 37 0.335068
27 25 100 37 0.664932
27 26 100 37 0.331054
28 26 100 37 0.668946
28 27 100 37 0.333333
29 27 100 37 0.666667
29 28 100 37 0.335857
30 28 100 37 0.664143
30 29 100 37 0.333327
31 29 100 37 0.666673
31 30 100 37 0.333333
32 30 100 37 0.666667
33 31 100 37 1
32 32 100 37 0.333333
34 32 100 37 0.666667
33 33 100 37 0.333333
35 33 100 37 0.666667
34 34 100 37 0.33333
36 34 100 37 0.66667
37 35 100 37 1
6 36 100 37 0.0021103
27 36 100 37 0.99789
35 37 100 37 0.5
36 37 100 37 0.5
1 0 100 38 5.56188e-06
2 0 100 38 6.50245e-05
3 0 100 38 0.000567837
4 0 100 38 0.00107226
6 0 100 38 0.000240821
8 0 100 38 0.00111109
14 0 100 38 0.000576997
17 0 100 38 0.22151
21 0 100 38 0.00108905
23 0 100 38 0.257197
25 0 100 38 0.00108234
28 0 100 38 0.257202
30 0 100 38 0.00108392
33 0 100 38 0.00159965
34 0 100 38 4.10472e-06
35 0 100 38 0.255591
1 1 100 38 1
2 2 100 38 0.99998
17 2 100 38 1.9801e-05
3 3 100 38 1
4 4 100 38 1
5 5 100 38 0.500234
6 5 100 38 0.499766
7 6 100 38 1
8 7 100 38 1
9 8 100 38 0.5
10 8 100 38 0.5
11 9 100 38 1
12 10 100 38 1
13 11 100 38 1
14 12 100 38 1
15 13 100 38 1
16 14 100 38 1
17 15 100 38 0.121843
18 15 100 38 0.878157
19 16 100 38 1
20 17 100 38 1
21 18 100 38 1
22 19 100 38 1
24 20 100 38 1
25 21 100 38 1
26 22 100 38 1
27 23 100 38 1
29 24 100 38 1
30 25 100 38 1
31 26 100 38 1
32 27 100 38 1
33 28 100 38 0.993779
35 28 100 38 0.00622121
4 29 100 38 0.151227
8 29 100 38 0.156704
21 29 100 38 0.153597
25 29 100 38 0.152677
30 29 100 38 0.152873
35 29 100 38 0.232922
36 30 100 38 1
37 31 100 38 1
34 32 100 38 0.499998
38 32 100 38 0.500002
1 0 100 39 5.6177e-05
2 0 100 39 0.0894885
3 0 100 39 0.000664636
4 0 100 39 8.62581e-05
8 0 100 39 5.06794e-05
9 0 100 39 0.0114202
10 0 100 39 0.000121139
16 0 100 39 0.0581157
18 0 100 39 0.0994761
20 0 100 39 0.000374176
21 0 100 39 5.51277e-05
24 0 100 39 0.0345513
26 0 100 39 0.162407
29 0 100 39 0.030981
31 0 100 39 0.149337
33 0 100 39 0.0247799
34 0 100 39 0.0146414
37 0 100 39 0.155552
38 0 100 39 0.167841
1 1 100 39 1
2 2 100 39 1
3 3 100 39 1
4 4 100 39 1
5 5 100 39 1
6 6 100 39 0.666667
7 6 100 39 0.333333
7 7 100 39 0.5
8 7 100 39 0.5
8 8 100 39 0.500595
9 8 100 39 0.499405
9 9 100 39 0.499982
10 9 100 39 0.500018
9 10 100 39 1.10982e-05
10 10 100 39 0.499983
11 10 100 39 0.500006
11 11 100 39 0.5
12 11 100 39 0.5
12 12 100 39 0.5
13 12 100 39 0.5
13 13 100 39 0.5
14 13 100 39 0.5
14 14 100 39 0.5
15 14 100 39 0.5
15 15 100 39 0.503048
16 15 100 39 0.496952
15 16 100 39 3.97115e-05
16 16 100 39 0.49996
17 16 100 39 0.5
17 17 100 39 0.505309
18 17 100 39 0.494691
18 18 100 39 0.5
19 18 100 39 0.5
19 19 100 39 0.5
20 19 100 39 0.5
20 20 100 39 0.49998
21 20 100 39 0.50002
21 21 100 39 0.499999
22 21 100 39 0.500001
22 22 100 39 0.5
23 22 100 39 0.5
23 23 100 39 0.5
24 23 100 39 0.5
24 24 100 39 0.498169
25 24 100 39 0.501831
25 25 100 39 0.508726
26 25 100 39 0.491274
26 26 100 39 0.5
27 26 100 39 0.5
27 27 100 39 0.5
28 27 100 39 0.5
28 28 100 39 0.5
29 28 100 39 0.5
29 29 100 39 0.498359
30 29 100 39 0.501641
30 30 100 39 0.251987
31 30 100 39 0.496026
32 30 100 39 0.251987
32 31 100 39 0.501294
33 31 100 39 0.498706
33 32 100 39 0.500013
34 32 100 39 0.499987
34 33 100 39 0.499256
35 33 100 39 0.500744
35 34 100 39 0.5
36 34 100 39 0.5
36 35 100 39 0.5
37 35 100 39 0.5
37 36 100 39 0.500672
38 36 100 39 0.499328
38 37 100 39 0.5
39 37 100 39 0.5
39 38 100 39 1
1 0 100 40 2.97296e-05
3 0 100 40 0.000116881
4 0 100 40 9.29589e-05
5 0 100 40 0.0060797
12 0 100 40 0.0050969
16 0 100 40 6.32172e-06
17 0 100 40 0.00549876
19 0 100 40 0.325116
20 0 100 40 3.6436e-06
21 0 100 40 0.325929
28 0 100 40 5.76424e-06
29 0 100 40 4.42281e-05
32 0 100 40 1.79043e-05
34 0 100 40 0.00602914
35 0 100 40 0.325885
37 0 100 40 4.88392e-05
1 1 100 40 1
2 2 100 40 1
3 3 100 40 1
4 4 100 40 1
5 5 100 40 1
6 6 100 40 1
7 7 100 40 0.5
8 7 100 40 0.5
8 8 100 40 0.25
9 8 100 40 0.5
10 8 100 40 0.25
10 9 100 40 0.250416
11 9 100 40 0.500832
12 9 100 40 0.248752
12 10 100 40 0.497742
13 10 100 40 0.502258
13 11 100 40 0.5
14 11 100 40 0.5
14 12 100 40 0.5
15 12 100 40 0.5
15 13 100 40 0.500005
16 13 100 40 0.499995
16 14 100 40 0.50425
17 14 100 40 0.495743
21 14 100 40 7.27505e-06
17 15 100 40 0.333333
18 15 100 40 0.333333
22 15 100 40 0.333333
7 16 100 40 0.5
18 16 100 40 0.5
19 17 100 40 0.5
23 17 100 40 0.5
20 18 100 40 0.499999
24 18 100 40 0.250001
25 18 100 40 0.250001
21 19 100 40 0.5
26 19 100 40 0.499593
27 19 100 40 0.000406491
22 20 100 40 0.5
26 20 100 40 0.000406491
27 20 100 40 0.499593
23 21 100 40 0.333335
24 21 100 40 0.333335
28 21 100 40 0.333329
25 22 100 40 0.50002
29 22 100 40 0.49998
26 23 100 40 0.5
30 23 100 40 0.5
27 24 100 40 0.500009
31 24 100 40 0.499991
28 25 100 40 0.999962
31 25 100 40 3.78289e-05
29 26 100 40 0.499987
37 26 100 40 0.500013
30 27 100 40 0.499987
31 27 100 40 1.29718e-05
38 27 100 40 0.5
30 28 100 40 1.29718e-05
31 28 100 40 0.499987
39 28 100 40 0.5
19 29 100 40 0.00035942
32 29 100 40 0.286363
33 29 100 40 0.143185
34 29 100 40 0.140537
35 29 100 40 0.143185
36 29 100 40 0.143185
40 29 100 40 0.143185
33 30 100 40 1
34 31 100 40 0.5
36 31 100 40 0.5
35 32 100 40 0.00014991
37 32 100 40 0.99985
3 33 100 40 1
4 34 100 40 1
38 35 100 40 1
39 36 100 40 1
40 37 100 40 1
1 0 100 44 0.00673429
2 0 100 44 0.000486097
3 0 100 44 0.000776695
4 0 100 44 1.35216e-05
5 0 100 44 0.000591975
7 0 100 44 8.27598e-05
9 0 100 44 0.00230492
11 0 100 44 0.240715
12 0 100 44 0.481404
13 0 100 44 1.71917e-05
14 0 100 44 4.65248e-06
17 0 100 44 1.5325e-05
19 0 100 44 0.0030271
20 0 100 44 1.22311e-05
22 0 100 44 0.000739727
24 0 100 44 0.00542906
28 0 100 44 2.73269e-05
30 0 100 44 2.60539e-06
31 0 100 44 0.00432768
32 0 100 44 0.00130773
33 0 100 44 0.00174579
34 0 100 44 0.000925357
36 0 100 44 0.00438674
38 0 100 44 0.000910596
42 0 100 44 0.0014899
43 0 100 44 0.23796
44 0 100 44 0.00456209
1 1 100 44 1
2 2 100 44 1
3 3 100 44 1
4 4 100 44 1
5 5 100 44 1
6 6 100 44 1
6 7 100 44 0.333365
7 7 100 44 0.666635
7 8 100 44 0.333321
8 8 100 44 0.666679
8 9 100 44 0.334058
9 9 100 44 0.665941
9 10 100 44 0.249425
10 10 100 44 0.500383
12 10 100 44 0.250192
10 11 100 44 0.333341
11 11 100 44 0.333317
13 11 100 44 0.333341
11 12 100 44 0.333341
13 12 100 44 0.333317
14 12 100 44 0.333341
14 13 100 44 1
13 14 100 44 0.333334
15 14 100 44 0.666666
14 15 100 44 0.33333
16 15 100 44 0.66667
15 16 100 44 0.33334
17 16 100 44 0.66666
16 17 100 44 0.251199
17 17 100 44 0.245008
18 17 100 44 0.503793
17 18 100 44 0.00819751
18 18 100 44 0.330765
19 18 100 44 0.661037
19 19 100 44 0.333334
20 19 100 44 0.666666
20 20 100 44 0.333322
21 20 100 44 0.666678
21 21 100 44 0.333675
22 21 100 44 0.666325
22 22 100 44 0.333333
23 22 100 44 0.666667
23 23 100 44 0.333821
24 23 100 44 0.666179
24 24 100 44 0.246576
25 24 100 44 0.502283
26 24 100 44 0.251141
25 25 100 44 0.333333
26 25 100 44 0.333333
27 25 100 44 0.333333
11 26 100 44 8.10168e-06
26 26 100 44 0.333343
27 26 100 44 0.333343
28 26 100 44 0.333305
27 27 100 44 0.333333
28 27 100 44 0.333333
29 27 100 44 0.333333
28 28 100 44 0.333335
29 28 100 44 0.333335
30 28 100 44 0.333331
29 29 100 44 0.25
30 29 100 44 0.25
31 29 100 44 0.5
30 30 100 44 0.333938
32 30 100 44 0.666062
31 31 100 44 0.495462
33 31 100 44 0.504538
32 32 100 44 0.200154
33 32 100 44 0.200154
34 32 100 44 0.399538
35 32 100 44 0.200154
33 33 100 44 0.331718
35 33 100 44 0.334141
36 33 100 44 0.334141
34 34 100 44 0.335371
36 34 100 44 0.329259
37 34 100 44 0.335371
