0 1 1 100 0.023896
1 1 1 100 0.976104
0 2 1 100 0.5
1 2 1 100 0.5
0 3 1 100 0.499979
1 3 1 100 0.500021
1 4 1 100 1
1 5 1 100 1
0 1 2 100 4.92846e-06
1 1 2 100 0.999995
0 2 2 100 3.97116e-05
2 2 2 100 0.99996
2 3 2 100 1
0 1 3 100 0.00623695
1 1 3 100 0.909091
3 1 3 100 0.0846721
0 2 3 100 2.53437e-05
1 2 3 100 0.126491
2 2 3 100 0.727247
3 2 3 100 0.146236
0 3 3 100 0.0912603
2 3 3 100 0.181818
3 3 3 100 0.726921
0 4 3 100 0.200011
1 4 3 100 0.00134812
3 4 3 100 0.798641
3 5 3 100 1
0 1 4 100 1.17051e-06
1 1 4 100 0.888888
4 1 4 100 0.111111
0 2 4 100 0.000368323
2 2 4 100 0.815342
3 2 4 100 0.0731788
4 2 4 100 0.111111
0 3 4 100 6.97382e-06
3 3 4 100 0.777771
4 3 4 100 0.222222
1 4 4 100 2.24388e-06
4 4 4 100 0.999998
4 5 4 100 1
0 6 4 100 0.000126631
4 6 4 100 0.999873
0 7 4 100 6.37935e-06
4 7 4 100 0.999994
1 8 4 100 0.499991
4 8 4 100 0.500009
2 9 4 100 0.5
4 9 4 100 0.5
3 10 4 100 0.5
4 10 4 100 0.5
4 11 4 100 1
1 1 5 100 0.999719
2 1 5 100 0.000280871
0 2 5 100 0.000231782
2 2 5 100 0.799768
3 2 5 100 0.2
0 3 5 100 0.000756626
3 3 5 100 0.799243
4 3 5 100 0.2
0 4 5 100 1.06373e-05
4 4 5 100 0.799989
5 4 5 100 0.2
5 5 5 100 1
0 1 6 100 1.49278e-06
1 1 6 100 0.857143
6 1 6 100 0.142856
0 2 6 100 0.000362148
1 2 6 100 0.0769229
2 2 6 100 0.922715
0 3 6 100 5.76817e-05
2 3 6 100 0.0769186
3 3 6 100 0.860391
5 3 6 100 0.0626324
0 4 6 100 0.000148647
3 4 6 100 0.0769231
4 4 6 100 0.922926
5 4 6 100 2.25799e-06
0 5 6 100 1.58257e-05
4 5 6 100 0.0769254
5 5 6 100 0.923059
0 6 6 100 0.0769231
5 6 6 100 0.153846
6 6 6 100 0.769231
0 7 6 100 5.34945e-06
6 7 6 100 0.999995
0 1 7 100 6.40229e-05
1 1 7 100 0.937436
7 1 7 100 0.0624996
0 2 7 100 0.062804
1 2 7 100 0.0770852
2 2 7 100 0.750031
6 2 7 100 0.0625
7 2 7 100 0.04758
0 3 7 100 0.062586
1 3 7 100 4.37199e-05
2 3 7 100 0.187402
3 3 7 100 0.749968
0 4 7 100 0.000154883
2 4 7 100 6.11294e-06
3 4 7 100 0.187491
4 4 7 100 0.749848
6 4 7 100 0.0625
0 5 7 100 0.125211
4 5 7 100 0.125
5 5 7 100 0.749786
6 5 7 100 2.55769e-06
0 6 7 100 0.0625946
4 6 7 100 0.0624929
5 6 7 100 0.125
6 6 7 100 0.749912
7 6 7 100 7.3309e-07
0 7 7 100 0.00151737
4 7 7 100 0.133333
6 7 7 100 0.133333
7 7 7 100 0.731816
0 8 7 100 0.200003
5 8 7 100 0.4
7 8 7 100 0.399997
0 9 7 100 0.00168598
4 9 7 100 7.24205e-06
6 9 7 100 0.664973
7 9 7 100 0.333333
7 10 7 100 1
1 1 8 100 0.999997
2 1 8 100 2.90433e-06
0 2 8 100 0.00088559
2 2 8 100 0.999114
3 2 8 100 8.38008e-07
0 3 8 100 0.0414327
2 3 8 100 0.0398193
3 3 8 100 0.918748
0 4 8 100 0.0499884
3 4 8 100 0.106106
4 4 8 100 0.843413
5 4 8 100 0.000485583
6 4 8 100 6.77309e-06
0 5 8 100 0.000177817
2 5 8 100 0.04
3 5 8 100 0.0400049
4 5 8 100 0.0799349
5 5 8 100 0.799882
6 5 8 100 0.04
0 6 8 100 0.0163748
3 6 8 100 0.04
4 6 8 100 0.04
5 6 8 100 0.0799971
6 6 8 100 0.783636
7 6 8 100 0.0399926
0 7 8 100 0.079916
4 7 8 100 0.0399969
5 7 8 100 0.04
6 7 8 100 0.040102
7 7 8 100 0.759985
8 7 8 100 0.04
0 8 8 100 0.000399451
5 8 8 100 0.0416667
6 8 8 100 0.0416366
7 8 8 100 0.124643
8 8 8 100 0.791654
7 9 8 100 0.333333
8 9 8 100 0.666667
0 10 8 100 0.249999
8 10 8 100 0.750001
0 11 8 100 6.21794e-05
6 11 8 100 0.999938
8 12 8 100 1
8 13 8 100 1
0 1 9 100 0.000459035
1 1 9 100 0.888426
2 1 9 100 0.0349849
5 1 9 100 0.00205665
9 1 9 100 0.0740736
0 2 9 100 0.102259
1 2 9 100 0.11032
2 2 9 100 0.703563
3 2 9 100 0.0740464
4 2 9 100 1.98043e-05
9 2 9 100 0.00979079
0 3 9 100 0.06784
2 3 9 100 0.222212
3 3 9 100 0.61735
4 3 9 100 0.0185309
7 3 9 100 0.0370305
9 3 9 100 0.037037
0 4 9 100 0.00742851
2 4 9 100 0.074072
3 4 9 100 0.214798
4 4 9 100 0.592591
5 4 9 100 0.0370371
9 4 9 100 0.0740741
0 5 9 100 8.24762e-05
1 5 9 100 0.0384615
2 5 9 100 0.0384615
3 5 9 100 2.24875e-06
4 5 9 100 0.230747
5 5 9 100 0.576877
6 5 9 100 0.076906
7 5 9 100 0.0384615
0 6 9 100 0.000431685
3 6 9 100 0.0384602
4 6 9 100 1.39146e-06
5 6 9 100 0.23076
6 6 9 100 0.576735
7 6 9 100 0.0766909
8 6 9 100 0.0764196
9 6 9 100 0.000501575
0 7 9 100 0.000167914
3 7 9 100 0.0383879
5 7 9 100 0.0384705
6 7 9 100 0.19223
7 7 9 100 0.615377
8 7 9 100 0.0384616
9 7 9 100 0.0769048
0 8 9 100 0.0400138
4 8 9 100 0.04
7 8 9 100 0.199996
8 8 9 100 0.600058
9 8 9 100 0.119932
0 9 9 100 0.0331493
5 9 9 100 0.0434783
6 9 9 100 0.0434783
7 9 9 100 0.0434783
8 9 9 100 0.173847
9 9 9 100 0.662568
0 10 9 100 0.12504
6 10 9 100 0.124968
7 10 9 100 0.125
8 10 9 100 0.125
9 10 9 100 0.499991
8 11 9 100 0.500001
9 11 9 100 0.499999
8 12 9 100 0.5
9 12 9 100 0.5
9 13 9 100 1
0 1 10 100 9.16954e-07
1 1 10 100 0.949966
2 1 10 100 0.050033
0 2 10 100 0.050685
1 2 10 100 1.30757e-06
2 2 10 100 0.849965
3 2 10 100 0.0993485
0 3 10 100 0.0504723
3 3 10 100 0.849531
4 3 10 100 0.0999972
0 4 10 100 0.000120399
2 4 10 100 0.0999969
4 4 10 100 0.799884
5 4 10 100 0.0999986
0 5 10 100 0.0509397
2 5 10 100 6.38302e-06
3 5 10 100 0.049815
4 5 10 100 0.0999998
5 5 10 100 0.699229
6 5 10 100 0.1
8 5 10 100 1.03967e-05
0 6 10 100 0.000394928
4 6 10 100 0.05
5 6 10 100 0.199941
6 6 10 100 0.649677
7 6 10 100 0.0999872
0 7 10 100 0.0504742
5 7 10 100 0.05
6 7 10 100 0.15
7 7 10 100 0.649566
8 7 10 100 0.0999597
0 8 10 100 0.000215744
6 8 10 100 0.0999999
7 8 10 100 0.15
8 8 10 100 0.599784
9 8 10 100 0.149938
10 8 10 100 6.17892e-05
0 9 10 100 2.59284e-06
7 9 10 100 0.0999998
8 9 10 100 0.149997
9 9 10 100 0.6
10 9 10 100 0.15
0 10 10 100 1.47882e-06
8 10 10 100 0.117646
9 10 10 100 0.176471
10 10 10 100 0.705882
0 11 10 100 0.00211138
9 11 10 100 0.333331
10 11 10 100 0.664557
0 12 10 100 0.0958368
10 12 10 100 0.904163
0 13 10 100 0.499958
5 13 10 100 0.5
7 13 10 100 4.20335e-05
5 14 10 100 0.5
10 14 10 100 0.5
0 1 11 100 1.35038e-05
1 1 11 100 0.999986
2 1 11 100 9.34241e-07
0 2 11 100 0.0013364
1 2 11 100 0.00364528
2 2 11 100 0.899737
11 2 11 100 0.095281
0 3 11 100 0.000288395
2 3 11 100 0.05
3 3 11 100 0.899712
11 3 11 100 0.05
0 4 11 100 0.0500945
2 4 11 100 0.05
3 4 11 100 0.0499687
4 4 11 100 0.784562
5 4 11 100 0.05
8 4 11 100 1.53849e-05
11 4 11 100 0.0153594
0 5 11 100 0.000343414
3 5 11 100 0.0499952
4 5 11 100 0.1
5 5 11 100 0.749662
6 5 11 100 0.0999992
0 6 11 100 0.00163656
4 6 11 100 0.05
5 6 11 100 0.099797
6 6 11 100 0.699985
7 6 11 100 0.0999606
8 6 11 100 0.0486204
0 7 11 100 0.0511635
5 7 11 100 0.048959
6 7 11 100 0.15
7 7 11 100 0.580354
8 7 11 100 0.100003
11 7 11 100 0.0695204
0 8 11 100 0.0375449
6 8 11 100 0.05
7 8 11 100 0.150003
8 8 11 100 0.505348
9 8 11 100 0.157099
11 8 11 100 0.100005
0 9 11 100 0.000317514
7 9 11 100 0.1
8 9 11 100 0.0999953
9 9 11 100 0.499955
10 9 11 100 0.199732
11 9 11 100 0.1
0 10 11 100 0.049498
8 10 11 100 0.1
9 10 11 100 0.150365
10 10 11 100 0.450137
11 10 11 100 0.25
0 11 11 100 0.01923
9 11 11 100 0.18749
10 11 11 100 0.187502
11 11 11 100 0.605778
0 12 11 100 1.91332e-06
10 12 11 100 0.428572
11 12 11 100 0.571426
0 13 11 100 5.07946e-06
11 13 11 100 0.999995
0 1 12 100 1.49161e-06
1 1 12 100 0.999999
0 2 12 100 0.000175796
1 2 12 100 0.0833332
2 2 12 100 0.916491
0 3 12 100 1.0092e-05
2 3 12 100 0.166814
3 3 12 100 0.833176
0 4 12 100 0.00018541
2 4 12 100 0.0833333
3 4 12 100 0.0833285
4 4 12 100 0.833153
0 5 12 100 0.0012987
3 5 12 100 0.0833294
4 5 12 100 0.0833278
5 5 12 100 0.832044
0 6 12 100 0.0852988
4 6 12 100 0.0833333
5 6 12 100 0.0829396
6 6 12 100 0.665095
12 6 12 100 0.0833333
0 7 12 100 0.00030148
5 7 12 100 0.0833333
6 7 12 100 0.166366
7 7 12 100 0.666666
12 7 12 100 0.0833333
0 8 12 100 0.000322115
6 8 12 100 0.083298
7 8 12 100 0.166667
8 8 12 100 0.66638
12 8 12 100 0.0833333
0 9 12 100 0.0238988
7 9 12 100 0.0833333
8 9 12 100 0.166667
9 9 12 100 0.666667
11 9 12 100 0.0594346
0 10 12 100 0.00156413
8 10 12 100 0.0833334
9 10 12 100 0.166664
10 10 12 100 0.665105
12 10 12 100 0.0833333
8 11 12 100 0.0909091
10 11 12 100 0.181818
11 11 12 100 0.636364
12 11 12 100 0.0909091
9 12 12 100 0.1
11 12 12 100 0.2
12 12 12 100 0.7
10 13 12 100 0.333333
12 13 12 100 0.666667
11 14 12 100 1
12 15 12 100 1
0 1 13 100 2.38392e-05
1 1 13 100 0.928548
5 1 13 100 0.0714285
0 2 13 100 0.0717529
2 2 13 100 0.856819
5 2 13 100 0.0714286
0 3 13 100 0.000560346
2 3 13 100 0.142301
3 3 13 100 0.737261
4 3 13 100 0.119878
0 4 13 100 0.000371278
3 4 13 100 0.142857
4 4 13 100 0.785343
5 4 13 100 0.0714286
0 5 13 100 0.0541925
1 5 13 100 0.0174266
4 5 13 100 0.142857
5 5 13 100 0.700948
6 5 13 100 0.0845756
0 6 13 100 0.000218546
2 6 13 100 0.0713339
5 6 13 100 0.285597
6 6 13 100 0.571422
7 6 13 100 0.0714285
0 7 13 100 0.000124784
5 7 13 100 0.0714286
6 7 13 100 0.214281
7 7 13 100 0.642737
8 7 13 100 0.0714076
9 7 13 100 2.09628e-05
0 8 13 100 0.0714381
7 8 13 100 0.214284
8 8 13 100 0.64287
9 8 13 100 0.0714084
0 9 13 100 0.000337441
6 9 13 100 0.071316
8 9 13 100 0.214286
9 9 13 100 0.571215
10 9 13 100 0.142846
0 10 13 100 9.08528e-05
7 10 13 100 0.0714286
9 10 13 100 0.214281
10 10 13 100 0.571317
11 10 13 100 0.142882
0 11 13 100 0.000100629
8 11 13 100 0.0714286
10 11 13 100 0.214249
11 11 13 100 0.571365
12 11 13 100 0.142857
0 12 13 100 0.000124363
9 12 13 100 0.0714286
11 12 13 100 0.214285
12 12 13 100 0.571305
13 12 13 100 0.142857
0 13 13 100 2.91477e-05
10 13 13 100 0.0833042
12 13 13 100 0.25
13 13 13 100 0.666667
0 14 13 100 3.45448e-06
11 14 13 100 0.249997
13 14 13 100 0.75
12 15 13 100 1
13 16 13 100 1
0 1 14 100 2.19354e-06
1 1 14 100 0.769225
2 1 14 100 0.153849
14 1 14 100 0.0769231
0 2 14 100 0.013998
1 2 14 100 2.07065e-06
2 2 14 100 0.769227
3 2 14 100 0.139849
14 2 14 100 0.0769231
0 3 14 100 0.0648651
3 3 14 100 0.781256
4 3 14 100 0.0769201
6 3 14 100 2.64817e-06
11 3 14 100 5.14849e-06
13 3 14 100 2.82551e-05
14 3 14 100 0.0769231
0 4 14 100 0.00014453
4 4 14 100 0.769086
5 4 14 100 0.0769231
14 4 14 100 0.153846
0 5 14 100 0.000213691
1 5 14 100 0.0769219
5 5 14 100 0.769018
6 5 14 100 0.0769231
14 5 14 100 0.076923
0 6 14 100 0.0769262
2 6 14 100 0.0769218
6 6 14 100 0.615379
7 6 14 100 0.230769
9 6 14 100 3.56743e-06
0 7 14 100 0.00152606
3 7 14 100 0.0769231
6 7 14 100 0.0769231
7 7 14 100 0.615345
8 7 14 100 0.229283
0 8 14 100 0.000547128
4 8 14 100 0.0769231
7 8 14 100 0.0769231
8 8 14 100 0.614839
9 8 14 100 0.230767
0 9 14 100 0.000324705
5 9 14 100 0.0769199
8 9 14 100 0.0769231
9 9 14 100 0.615349
10 9 14 100 0.230483
0 10 14 100 0.0785341
6 10 14 100 0.0769231
9 10 14 100 0.153842
10 10 14 100 0.538329
11 10 14 100 0.152371
0 11 14 100 0.000533607
7 11 14 100 0.0769231
10 11 14 100 0.153837
11 11 14 100 0.461432
12 11 14 100 0.307274
0 12 14 100 0.000143776
8 12 14 100 0.0769231
11 12 14 100 0.153846
12 12 14 100 0.461395
13 12 14 100 0.307692
0 13 14 100 8.58022e-06
9 13 14 100 0.0769165
12 13 14 100 0.153846
13 13 14 100 0.457093
14 13 14 100 0.312135
0 14 14 100 0.000121009
10 14 14 100 0.125
13 14 14 100 0.125
14 14 14 100 0.749879
0 15 14 100 0.00246988
11 15 14 100 0.25
13 15 14 100 0.24753
14 15 14 100 0.5
12 16 14 100 0.5
14 16 14 100 0.5
13 17 14 100 0.5
14 17 14 100 0.5
14 18 14 100 1
0 1 15 100 0.0454631
1 1 15 100 0.954531
2 1 15 100 5.83052e-06
0 2 15 100 0.000172273
1 2 15 100 0.0454559
2 2 15 100 0.909015
3 2 15 100 0.0453569
0 3 15 100 0.0115711
2 3 15 100 0.0454546
3 3 15 100 0.908647
4 3 15 100 0.0343274
0 4 15 100 0.0459415
1 4 15 100 0.0454546
3 4 15 100 0.0454613
4 4 15 100 0.817688
5 4 15 100 0.0454546
0 5 15 100 0.0456118
4 5 15 100 0.0909091
5 5 15 100 0.818025
6 5 15 100 0.0454546
0 6 15 100 0.00121346
2 6 15 100 0.0454503
5 6 15 100 0.090879
6 6 15 100 0.75363
7 6 15 100 0.108828
0 7 15 100 0.0347437
4 7 15 100 0.0111253
5 7 15 100 0.0218774
6 7 15 100 0.0689884
7 7 15 100 0.726904
8 7 15 100 0.136362
0 8 15 100 0.000447297
5 8 15 100 0.0453995
6 8 15 100 0.0454543
7 8 15 100 0.0454546
8 8 15 100 0.726895
9 8 15 100 0.136349
0 9 15 100 0.0458362
6 9 15 100 0.0454452
7 9 15 100 0.0454639
8 9 15 100 0.0454546
9 9 15 100 0.635982
10 9 15 100 0.181818
0 10 15 100 0.0460993
6 10 15 100 9.37381e-06
7 10 15 100 0.0454452
9 10 15 100 0.13622
10 10 15 100 0.54587
11 10 15 100 0.226355
15 10 15 100 1.19357e-06
0 11 15 100 0.0455862
8 11 15 100 0.0908938
9 11 15 100 0.0454544
10 11 15 100 0.0909061
11 11 15 100 0.545341
12 11 15 100 0.136364
13 11 15 100 0.0454546
0 12 15 100 0.00035748
9 12 15 100 0.136341
10 12 15 100 0.0454613
12 12 15 100 0.590602
13 12 15 100 0.13633
14 12 15 100 0.0909091
0 13 15 100 0.000105097
9 13 15 100 0.0454613
10 13 15 100 0.0909023
11 13 15 100 0.0454545
13 13 15 100 0.590817
14 13 15 100 0.136351
15 13 15 100 0.0909091
0 14 15 100 0.0500033
10 14 15 100 0.05
11 14 15 100 0.149985
12 14 15 100 1.11124e-05
14 14 15 100 0.599966
15 14 15 100 0.150034
0 15 15 100 1.72168e-05
11 15 15 100 0.11766
12 15 15 100 0.117634
14 15 15 100 0.0588235
15 15 15 100 0.705865
0 16 15 100 0.000302519
11 16 15 100 3.69038e-05
12 16 15 100 0.333089
13 16 15 100 0.333333
14 16 15 100 1.73664e-06
15 16 15 100 0.333237
0 17 15 100 0.199989
10 17 15 100 1.09082e-05
13 17 15 100 0.4
14 17 15 100 0.2
15 17 15 100 0.2
14 18 15 100 0.333333
15 18 15 100 0.666667
0 1 16 100 1.06192e-06
1 1 16 100 0.937499
2 1 16 100 0.0625
0 2 16 100 0.0630993
2 2 16 100 0.811484
3 2 16 100 0.125417
0 3 16 100 0.0641542
1 3 16 100 7.91351e-05
2 3 16 100 0.00859342
3 3 16 100 0.802174
4 3 16 100 0.124999
0 4 16 100 0.000884622
1 4 16 100 0.0625
4 4 16 100 0.808048
5 4 16 100 0.128565
6 4 16 100 2.54973e-06
0 5 16 100 5.97578e-05
2 5 16 100 0.0625
5 5 16 100 0.687442
6 5 16 100 0.249998
9 5 16 100 6.47523e-07
0 6 16 100 1.51445e-06
3 6 16 100 0.0625
5 6 16 100 0.0625
6 6 16 100 0.749999
7 6 16 100 0.125
0 7 16 100 0.000281174
4 7 16 100 0.0625001
6 7 16 100 0.0625102
7 7 16 100 0.749729
8 7 16 100 0.12498
0 8 16 100 0.000892583
5 8 16 100 0.0625
7 8 16 100 0.0624918
8 8 16 100 0.749117
9 8 16 100 0.124999
0 9 16 100 0.0628159
6 9 16 100 0.0625
8 9 16 100 0.0625043
9 9 16 100 0.687313
10 9 16 100 0.124866
0 10 16 100 0.062606
7 10 16 100 0.0624443
9 10 16 100 7.1097e-05
10 10 16 100 0.562382
11 10 16 100 0.312497
0 11 16 100 0.125078
8 11 16 100 0.0625
9 11 16 100 0.0625
11 11 16 100 0.499936
12 11 16 100 0.249986
0 12 16 100 0.000177467
9 12 16 100 0.0625
10 12 16 100 0.0624507
11 12 16 100 0.0625052
12 12 16 100 0.499859
13 12 16 100 0.312508
0 13 16 100 0.000166292
9 13 16 100 2.00894e-06
10 13 16 100 0.0625073
11 13 16 100 0.0624838
12 13 16 100 0.0625076
13 13 16 100 0.499992
14 13 16 100 0.312341
0 14 16 100 0.000109172
11 14 16 100 0.0625
12 14 16 100 0.0625
13 14 16 100 0.0625
14 14 16 100 0.499928
15 14 16 100 0.312463
0 15 16 100 0.00149936
12 15 16 100 0.0625
13 15 16 100 0.0624997
14 15 16 100 0.0625
15 15 16 100 0.498501
16 15 16 100 0.3125
0 16 16 100 0.0908989
3 16 16 100 4.55787e-06
13 16 16 100 0.0909092
14 16 16 100 0.0909067
15 16 16 100 0.0909168
16 16 16 100 0.636364
0 17 16 100 0.204522
4 17 16 100 1.02484e-05
14 17 16 100 0.2
15 17 16 100 0.199995
16 17 16 100 0.395472
15 18 16 100 0.333333
16 18 16 100 0.666667
16 19 16 100 1
0 1 17 100 1.82489e-05
1 1 17 100 0.923075
2 1 17 100 0.0769066
0 2 17 100 0.0778491
2 2 17 100 0.845231
17 2 17 100 0.0769202
0 3 17 100 0.0778059
3 3 17 100 0.845271
5 3 17 100 0.0769231
0 4 17 100 0.0010916
2 4 17 100 0.0769219
3 4 17 100 0.076923
4 4 17 100 0.76814
6 4 17 100 0.076923
0 5 17 100 0.000950243
3 5 17 100 0.153846
5 5 17 100 0.768281
7 5 17 100 0.0769228
0 6 17 100 0.000182862
4 6 17 100 0.153846
6 6 17 100 0.692126
8 6 17 100 0.0769219
17 6 17 100 0.0769231
0 7 17 100 6.39411e-05
5 7 17 100 0.153846
7 7 17 100 0.692308
9 7 17 100 0.0769231
17 7 17 100 0.0768591
0 8 17 100 0.00631411
6 8 17 100 0.076923
7 8 17 100 0.0716858
8 8 17 100 0.615232
9 8 17 100 0.0769231
10 8 17 100 0.0769231
13 8 17 100 1.25808e-06
17 8 17 100 0.0759981
0 9 17 100 0.000193015
7 9 17 100 0.076906
8 9 17 100 0.23063
9 9 17 100 0.538269
10 9 17 100 0.000155835
11 9 17 100 0.0769221
17 9 17 100 0.0769231
0 10 17 100 4.06708e-05
7 10 17 100 1.70794e-05
8 10 17 100 0.076906
9 10 17 100 0.153846
10 10 17 100 0.538421
11 10 17 100 0.0769231
12 10 17 100 0.0769231
17 10 17 100 0.0769231
0 11 17 100 0.000208936
9 11 17 100 0.0769231
10 11 17 100 0.153645
11 11 17 100 0.538462
12 11 17 100 0.153839
13 11 17 100 0.0769231
0 12 17 100 0.0808515
9 12 17 100 0.0769231
10 12 17 100 0.0769231
11 12 17 100 0.0769231
12 12 17 100 0.534537
13 12 17 100 0.0769231
14 12 17 100 0.0769189
0 13 17 100 0.000190906
11 13 17 100 0.153846
12 13 17 100 0.0769231
13 13 17 100 0.6152
14 13 17 100 0.0769166
15 13 17 100 0.0769231
0 14 17 100 0.0776335
3 14 17 100 3.31782e-06
12 14 17 100 0.153846
13 14 17 100 4.34379e-05
14 14 17 100 0.614641
15 14 17 100 0.0769097
16 14 17 100 0.0769231
0 15 17 100 0.000193768
13 15 17 100 0.153834
14 15 17 100 0.0769231
15 15 17 100 0.615204
16 15 17 100 0.0769231
17 15 17 100 0.0769222
0 16 17 100 1.7706e-05
14 16 17 100 0.166667
15 16 17 100 0.0828074
16 16 17 100 0.666649
17 16 17 100 0.0838591
15 17 17 100 0.272727
17 17 17 100 0.727273
0 18 17 100 0.00260111
16 18 17 100 0.74617
17 18 17 100 0.251229
0 19 17 100 4.64409e-06
16 19 17 100 0.000149148
17 19 17 100 0.999846
0 20 17 100 0.000829729
17 20 17 100 0.99917
17 21 17 100 1
0 1 18 100 1.72034e-05
1 1 18 100 0.928813
2 1 18 100 0.0711694
0 2 18 100 0.00376403
2 2 18 100 0.912903
3 2 18 100 0.0833333
0 3 18 100 0.000630652
3 3 18 100 0.916049
4 3 18 100 0.0833209
0 4 18 100 0.00022828
3 4 18 100 0.0833107
4 4 18 100 0.912826
5 4 18 100 1.12977e-05
6 4 18 100 0.00362394
0 5 18 100 0.00158572
3 5 18 100 0.0833333
5 5 18 100 0.831748
7 5 18 100 0.0833333
0 6 18 100 0.0840746
5 6 18 100 0.0833217
6 6 18 100 0.749986
8 6 18 100 0.0826182
0 7 18 100 0.06677
4 7 18 100 0.0083798
5 7 18 100 0.0083798
6 7 18 100 0.0833334
7 7 18 100 0.749878
9 7 18 100 0.083257
15 7 18 100 2.38931e-06
0 8 18 100 0.00118465
6 8 18 100 0.0833333
7 8 18 100 0.0830966
8 8 18 100 0.66665
9 8 18 100 0.0824072
10 8 18 100 0.0833279
0 9 18 100 1.72975e-05
7 9 18 100 0.0833301
8 9 18 100 0.0833333
9 9 18 100 0.5
10 9 18 100 0.249987
11 9 18 100 0.0833321
0 10 18 100 0.0836339
8 10 18 100 0.0833334
9 10 18 100 0.0833334
10 10 18 100 0.499672
11 10 18 100 0.166689
12 10 18 100 0.0833334
13 10 18 100 4.35171e-06
0 11 18 100 0.0838114
2 11 18 100 4.2133e-06
6 11 18 100 4.47689e-06
8 11 18 100 0.0833333
9 11 18 100 0.0833333
10 11 18 100 0.0833578
11 11 18 100 0.416155
12 11 18 100 0.166667
13 11 18 100 0.0833333
0 12 18 100 1.56809e-06
3 12 18 100 0.0833334
8 12 18 100 0.0833334
11 12 18 100 0.0833334
12 12 18 100 0.499998
13 12 18 100 0.0833334
14 12 18 100 0.166667
0 13 18 100 0.000183841
3 13 18 100 0.0833334
9 13 18 100 0.0833334
12 13 18 100 0.166573
13 13 18 100 0.416643
14 13 18 100 0.0833426
15 13 18 100 0.16659
0 14 18 100 3.88323e-06
3 14 18 100 0.0833334
6 14 18 100 1.25725e-06
10 14 18 100 0.0833334
12 14 18 100 0.083332
13 14 18 100 0.0838205
14 14 18 100 0.416178
15 14 18 100 0.0833332
16 14 18 100 0.166664
0 15 18 100 0.0950211
11 15 18 100 0.0833335
12 15 18 100 0.0833335
13 15 18 100 0.0833335
15 15 18 100 0.333333
16 15 18 100 0.0833327
17 15 18 100 0.0833335
18 15 18 100 0.154979
0 16 18 100 0.0837374
12 16 18 100 0.0833333
13 16 18 100 0.0833316
14 16 18 100 0.0833383
16 16 18 100 0.333333
17 16 18 100 0.166259
18 16 18 100 0.166667
0 17 18 100 0.00161801
13 17 18 100 0.0832501
14 17 18 100 0.0833308
15 17 18 100 0.0833333
16 17 18 100 0.0833333
17 17 18 100 0.332207
18 17 18 100 0.332927
0 18 18 100 1.08062e-05
14 18 18 100 0.0999987
15 18 18 100 0.0999961
16 18 18 100 0.0999944
17 18 18 100 0.0999996
18 18 18 100 0.6
0 19 18 100 0.166705
15 19 18 100 0.000653311
16 19 18 100 0.333295
17 19 18 100 0.166667
18 19 18 100 0.33268
0 20 18 100 0.200934
15 20 18 100 2.34616e-05
17 20 18 100 0.399314
18 20 18 100 0.399728
0 21 18 100 0.25
18 21 18 100 0.75
18 22 18 100 1
0 23 18 100 1.27106e-05
16 23 18 100 0.5
18 23 18 100 0.499987
17 24 18 100 0.499999
18 24 18 100 0.500001
18 25 18 100 1
0 1 19 100 9.89915e-06
1 1 19 100 0.928562
2 1 19 100 0.0714285
0 2 19 100 0.0553503
2 2 19 100 0.873151
3 2 19 100 0.0714187
4 2 19 100 7.79657e-05
15 2 19 100 2.15765e-06
0 3 19 100 0.00393607
2 3 19 100 0.000884173
3 3 19 100 0.923895
4 3 19 100 0.0712852
0 4 19 100 0.0718019
3 4 19 100 0.00198227
4 4 19 100 0.854784
5 4 19 100 0.0714286
11 4 19 100 3.44167e-06
0 5 19 100 0.000254187
4 5 19 100 0.0713268
5 5 19 100 0.85699
6 5 19 100 0.0714286
0 6 19 100 0.000349046
5 6 19 100 0.0714286
6 6 19 100 0.856841
7 6 19 100 0.0713817
0 7 19 100 0.000686556
6 7 19 100 0.0714281
7 7 19 100 0.78579
8 7 19 100 0.142095
0 8 19 100 8.54732e-06
7 8 19 100 0.142857
8 8 19 100 0.785706
9 8 19 100 0.0714286
0 9 19 100 0.000418509
7 9 19 100 0.0714286
8 9 19 100 0.0710181
9 9 19 100 0.78571
10 9 19 100 0.0714252
0 10 19 100 0.00134339
8 10 19 100 0.0710146
9 10 19 100 0.0713992
10 10 19 100 0.784814
11 10 19 100 0.0714283
0 11 19 100 0.00207464
9 11 19 100 0.0714286
10 11 19 100 0.0714286
11 11 19 100 0.64079
12 11 19 100 0.214276
13 11 19 100 2.01763e-06
0 12 19 100 0.071918
1 12 19 100 3.56597e-06
9 12 19 100 0.0714286
10 12 19 100 4.27017e-06
11 12 19 100 0.0714171
12 12 19 100 0.572097
13 12 19 100 0.213131
0 13 19 100 0.14007
2 13 19 100 1.06525e-05
7 13 19 100 0.00279199
11 13 19 100 6.86258e-06
12 13 19 100 0.0714286
13 13 19 100 0.642834
14 13 19 100 0.142857
0 14 19 100 0.0768823
12 14 19 100 0.0714286
13 14 19 100 0.214284
14 14 19 100 0.494549
15 14 19 100 0.142856
0 15 19 100 0.000157702
9 15 19 100 0.0714286
13 15 19 100 0.0714286
14 15 19 100 0.214285
15 15 19 100 0.499843
16 15 19 100 0.142857
0 16 19 100 7.48689e-06
11 16 19 100 0.0714282
14 16 19 100 0.0714286
15 16 19 100 0.214283
16 16 19 100 0.571403
17 16 19 100 0.0714496
0 17 19 100 0.000615062
12 17 19 100 0.0714286
15 17 19 100 0.0714286
16 17 19 100 0.142884
17 17 19 100 0.642215
18 17 19 100 0.0714286
0 18 19 100 8.77819e-05
1 18 19 100 0.0714286
13 18 19 100 0.0714286
16 18 19 100 0.0714286
17 18 19 100 0.14277
18 18 19 100 0.571427
19 18 19 100 0.0714286
14 19 19 100 0.0833333
17 19 19 100 0.0833333
18 19 19 100 0.166667
19 19 19 100 0.666667
0 20 19 100 0.18608
4 20 19 100 4.6119e-06
15 20 19 100 0.0139155
18 20 19 100 0.2
19 20 19 100 0.6
0 21 19 100 0.5
19 21 19 100 0.5
0 22 19 100 0.0697777
15 22 19 100 0.930222
16 23 19 100 1
0 24 19 100 0.00117101
17 24 19 100 0.998829
18 25 19 100 1
19 26 19 100 1
0 1 20 100 0.0490514
1 1 20 100 0.855134
2 1 20 100 2.01447e-05
3 1 20 100 0.0048849
20 1 20 100 0.0909092
0 2 20 100 0.0910367
2 2 20 100 0.727501
3 2 20 100 0.0905534
20 2 20 100 0.0909092
0 3 20 100 0.0132022
2 3 20 100 0.0909091
3 3 20 100 0.714071
13 3 20 100 0.0909091
20 3 20 100 0.0909091
0 4 20 100 2.83171e-05
1 4 20 100 0.0908825
3 4 20 100 0.0909091
4 4 20 100 0.727271
13 4 20 100 0.0909091
0 5 20 100 0.0802237
2 5 20 100 0.0909092
3 5 20 100 0.0111153
4 5 20 100 0.0909092
5 5 20 100 0.726843
0 6 20 100 0.0919224
3 6 20 100 0.0909091
5 6 20 100 0.0909091
6 6 20 100 0.63535
8 6 20 100 0.0909091
0 7 20 100 0.0909091
4 7 20 100 0.181818
6 7 20 100 0.0909091
7 7 20 100 0.636364
0 8 20 100 2.00505e-06
5 8 20 100 0.181816
7 8 20 100 0.0909091
8 8 20 100 0.636364
9 8 20 100 0.0909091
0 9 20 100 0.00175662
6 9 20 100 0.0892185
8 9 20 100 0.0908614
9 9 20 100 0.727252
10 9 20 100 0.0909112
0 10 20 100 7.90142e-06
7 10 20 100 0.0909091
8 10 20 100 4.77325e-05
9 10 20 100 0.0908634
10 10 20 100 0.36363
11 10 20 100 0.272723
12 10 20 100 0.0909091
20 10 20 100 0.0909091
0 11 20 100 0.000498672
6 11 20 100 0.0909091
8 11 20 100 0.0909091
10 11 20 100 0.0909091
11 11 20 100 0.454047
12 11 20 100 0.272727
0 12 20 100 0.00123996
7 12 20 100 0.0909092
9 12 20 100 0.0909092
11 12 20 100 0.0909092
12 12 20 100 0.363636
13 12 20 100 0.271575
20 12 20 100 0.0908213
0 13 20 100 7.54196e-06
8 13 20 100 0.0909091
10 13 20 100 0.0909091
13 13 20 100 0.363629
14 13 20 100 0.272727
18 13 20 100 0.0603545
19 13 20 100 0.0300546
20 13 20 100 0.0914092
0 14 20 100 2.59394e-06
9 14 20 100 0.0909088
11 14 20 100 0.0909091
14 14 20 100 0.363635
15 14 20 100 0.272726
18 14 20 100 0.000500094
19 14 20 100 0.0300546
20 14 20 100 0.151264
0 15 20 100 0.00026757
10 15 20 100 0.0909091
12 15 20 100 0.0909091
13 15 20 100 0.0909091
15 15 20 100 0.27246
16 15 20 100 0.452211
17 15 20 100 0.00233407
0 16 20 100 4.28621e-06
10 16 20 100 4.10922e-06
11 16 20 100 0.0909091
13 16 20 100 0.0909091
14 16 20 100 0.0909091
16 16 20 100 0.272705
17 16 20 100 0.36365
18 16 20 100 0.0909091
0 17 20 100 1.18051e-05
3 17 20 100 0.1
7 17 20 100 5.44596e-06
14 17 20 100 0.1
15 17 20 100 0.1
16 17 20 100 2.45557e-05
17 17 20 100 0.299975
18 17 20 100 0.299983
19 17 20 100 0.1
0 18 20 100 6.00632e-05
3 18 20 100 0.1
15 18 20 100 0.1
16 18 20 100 0.0999964
17 18 20 100 2.0159e-06
18 18 20 100 0.3
19 18 20 100 0.299942
20 18 20 100 0.1
0 19 20 100 1.63194e-06
14 19 20 100 0.111111
16 19 20 100 0.0545082
17 19 20 100 0.111107
19 19 20 100 0.389938
20 19 20 100 0.333333
15 20 20 100 0.166667
20 20 20 100 0.833333
16 21 20 100 0.333333
20 21 20 100 0.666667
17 22 20 100 0.5
20 22 20 100 0.5
18 23 20 100 0.5
20 23 20 100 0.5
19 24 20 100 0.5
20 24 20 100 0.5
20 25 20 100 1
0 1 21 100 2.40768e-05
1 1 21 100 0.899969
2 1 21 100 0.0999922
13 1 21 100 1.49985e-05
0 2 21 100 0.100292
2 2 21 100 0.799708
17 2 21 100 0.1
0 3 21 100 0.0953405
3 3 21 100 0.618407
9 3 21 100 0.1
18 3 21 100 0.186253
0 4 21 100 0.00120564
1 4 21 100 0.1
4 4 21 100 0.798794
20 4 21 100 0.1
0 5 21 100 0.000176005
2 5 21 100 0.1
5 5 21 100 0.799826
20 5 21 100 0.0999981
0 6 21 100 0.000431092
3 6 21 100 0.1
6 6 21 100 0.701072
7 6 21 100 0.0984999
20 6 21 100 0.0999969
0 7 21 100 7.84874e-05
4 7 21 100 0.1
7 7 21 100 0.799914
8 7 21 100 0.1
9 7 21 100 6.86757e-06
0 8 21 100 0.000531966
5 8 21 100 0.1
8 8 21 100 0.699406
9 8 21 100 0.1
13 8 21 100 6.06967e-05
17 8 21 100 0.100001
0 9 21 100 0.0132589
6 9 21 100 0.0999955
9 9 21 100 0.699983
10 9 21 100 0.0867626
18 9 21 100 0.1
0 10 21 100 0.200241
4 10 21 100 2.42312e-06
8 10 21 100 0.1
10 10 21 100 0.599757
20 10 21 100 0.1
0 11 21 100 0.0862627
5 11 21 100 2.29087e-06
8 11 21 100 1.71497e-05
9 11 21 100 4.75927e-05
10 11 21 100 0.2137
11 11 21 100 0.69995
12 11 21 100 1.22892e-06
17 11 21 100 2.2925e-06
21 11 21 100 1.71636e-05
4 12 21 100 0.00390917
10 12 21 100 0.1
11 12 21 100 0.296091
12 12 21 100 0.6
0 13 21 100 0.101481
3 13 21 100 3.52038e-06
11 13 21 100 0.1
12 13 21 100 0.10875
13 13 21 100 0.49118
14 13 21 100 0.0986202
15 13 21 100 0.099965
0 14 21 100 0.000202554
12 14 21 100 0.0999022
13 14 21 100 0.200029
14 14 21 100 0.399866
15 14 21 100 0.1
16 14 21 100 0.1
17 14 21 100 0.1
0 15 21 100 5.69597e-06
13 15 21 100 0.1
14 15 21 100 0.2
15 15 21 100 0.499994
16 15 21 100 0.1
18 15 21 100 0.1
0 16 21 100 0.0164976
14 16 21 100 0.0995359
15 16 21 100 0.384976
16 16 21 100 0.398991
17 16 21 100 0.0999757
18 16 21 100 2.43136e-05
0 17 21 100 0.0014881
15 17 21 100 0.19969
16 17 21 100 0.2
17 17 21 100 0.398846
18 17 21 100 0.0999757
20 17 21 100 0.0999999
0 18 21 100 2.38717e-06
16 18 21 100 0.2
17 18 21 100 0.2
18 18 21 100 0.4
19 18 21 100 0.0999976
21 18 21 100 0.1
0 19 21 100 0.111076
7 19 21 100 1.27846e-05
9 19 21 100 2.06248e-06
10 19 21 100 4.00292e-06
17 19 21 100 0.222195
18 19 21 100 0.111111
19 19 21 100 0.444445
20 19 21 100 0.108991
21 19 21 100 0.00216341
0 20 21 100 0.00352683
17 20 21 100 0.111111
18 20 21 100 0.222222
19 20 21 100 0.111111
20 20 21 100 0.440918
21 20 21 100 0.111111
0 21 21 100 0.12533
18 21 21 100 0.125
19 21 21 100 0.249857
21 21 21 100 0.499813
20 22 21 100 1
21 23 21 100 1
0 1 22 100 0.00152341
1 1 22 100 0.902473
2 1 22 100 0.00633847
3 1 22 100 0.0127418
10 1 22 100 0.0769231
0 2 22 100 0.000163681
1 2 22 100 0.0769252
2 2 22 100 0.780471
4 2 22 100 0.0655167
6 2 22 100 0.0769231
0 3 22 100 0.0779078
2 3 22 100 0.0769188
3 3 22 100 0.645653
4 3 22 100 0.0456743
5 3 22 100 0.0769231
6 3 22 100 0.0769231
0 4 22 100 0.00053195
3 4 22 100 0.153351
4 4 22 100 0.692298
5 4 22 100 0.0768958
6 4 22 100 0.0769231
0 5 22 100 0.0767378
3 5 22 100 0.000199332
4 5 22 100 0.0773442
5 5 22 100 0.768796
7 5 22 100 0.0769214
8 5 22 100 1.74555e-06
0 6 22 100 0.00142303
5 6 22 100 0.0769231
6 6 22 100 0.719098
7 6 22 100 0.0481463
8 6 22 100 0.0769231
9 6 22 100 0.0769231
22 6 22 100 0.000562928
0 7 22 100 3.14483e-06
6 7 22 100 0.0769231
7 7 22 100 0.692304
8 7 22 100 0.0769231
9 7 22 100 0.0769231
10 7 22 100 0.0769231
0 8 22 100 0.0776983
6 8 22 100 0.0769229
7 8 22 100 0.0769222
8 8 22 100 0.691532
10 8 22 100 0.0769231
20 8 22 100 1.76845e-06
0 9 22 100 0.000229636
7 9 22 100 0.0769231
8 9 22 100 0.0769231
9 9 22 100 0.769001
11 9 22 100 0.0769231
0 10 22 100 0.00249428
8 10 22 100 2.57282e-06
9 10 22 100 0.0769231
10 10 22 100 0.766736
12 10 22 100 0.0769231
22 10 22 100 0.0769205
0 11 22 100 5.39133e-05
10 11 22 100 0.0769231
11 11 22 100 0.769176
12 11 22 100 1.30602e-06
13 11 22 100 0.0769231
22 11 22 100 0.0769231
0 12 22 100 0.0491517
11 12 22 100 0.104712
12 12 22 100 0.69229
14 12 22 100 0.0769231
22 12 22 100 0.0769231
0 13 22 100 1.38504e-06
12 13 22 100 0.153846
13 13 22 100 0.692306
15 13 22 100 0.0769231
22 13 22 100 0.076923
0 14 22 100 0.000252461
12 14 22 100 3.65202e-05
13 14 22 100 0.230711
14 14 22 100 0.692077
16 14 22 100 0.0769231
0 15 22 100 9.54654e-07
12 15 22 100 0.0768866
13 15 22 100 3.65202e-05
14 15 22 100 0.153846
15 15 22 100 0.692307
17 15 22 100 0.0769231
0 16 22 100 0.000473408
14 16 22 100 0.0769231
15 16 22 100 0.153476
16 16 22 100 0.692157
17 16 22 100 2.62201e-05
18 16 22 100 0.0769451
0 17 22 100 0.000580532
15 17 22 100 0.0769224
16 17 22 100 0.153848
17 17 22 100 0.614803
19 17 22 100 0.153846
0 18 22 100 0.00300803
16 18 22 100 0.0764884
17 18 22 100 0.153846
18 18 22 100 0.612811
20 18 22 100 0.153846
0 19 22 100 0.000675897
17 19 22 100 0.076923
18 19 22 100 0.153752
19 19 22 100 0.614996
21 19 22 100 0.153653
0 20 22 100 2.42767e-05
18 20 22 100 0.076923
19 20 22 100 0.153846
20 20 22 100 0.538437
21 20 22 100 0.0769231
22 20 22 100 0.153846
0 21 22 100 0.00295097
19 21 22 100 0.0909091
20 21 22 100 0.181808
21 21 22 100 0.633422
22 21 22 100 0.0909091
0 22 22 100 6.41123e-05
8 22 22 100 3.09953e-06
20 22 22 100 0.111044
21 22 22 100 0.222222
22 22 22 100 0.666667
21 23 22 100 0.333333
22 23 22 100 0.666667
22 24 22 100 1
0 1 23 100 4.76055e-06
1 1 23 100 0.999987
2 1 23 100 7.83301e-06
0 2 23 100 0.000126932
2 2 23 100 0.999873
0 3 23 100 0.000313195
3 3 23 100 0.888576
4 3 23 100 0.111111
0 4 23 100 0.000155337
4 4 23 100 0.777624
5 4 23 100 0.222221
0 5 23 100 0.11145
5 5 23 100 0.777438
6 5 23 100 0.111111
0 6 23 100 4.59064e-05
5 6 23 100 0.111089
6 6 23 100 0.666643
7 6 23 100 0.222222
6 7 23 100 0.111111
7 7 23 100 0.777778
8 7 23 100 0.111111
0 8 23 100 0.00396789
7 8 23 100 0.111111
8 8 23 100 0.662699
9 8 23 100 0.222222
0 9 23 100 0.00445547
8 9 23 100 0.222222
9 9 23 100 0.439989
10 9 23 100 0.222222
12 9 23 100 0.111111
0 10 23 100 0.11996
9 10 23 100 0.213365
10 10 23 100 0.333333
11 10 23 100 0.111111
12 10 23 100 0.222222
17 10 23 100 8.59774e-06
10 11 23 100 0.222222
11 11 23 100 0.555556
12 11 23 100 0.111111
13 11 23 100 0.111111
0 12 23 100 0.000227885
11 12 23 100 0.333333
12 12 23 100 0.444438
13 12 23 100 0.111111
14 12 23 100 0.110879
17 12 23 100 1.02534e-05
0 13 23 100 0.00196534
5 13 23 100 0.111111
12 13 23 100 0.222219
13 13 23 100 0.442429
14 13 23 100 0.111111
15 13 23 100 0.111111
21 13 23 100 5.34089e-05
0 14 23 100 0.000391574
5 14 23 100 0.111111
13 14 23 100 0.222219
14 14 23 100 0.333333
15 14 23 100 0.110722
16 14 23 100 8.33579e-06
23 14 23 100 0.222214
0 15 23 100 0.114031
6 15 23 100 0.111111
14 15 23 100 0.222218
15 15 23 100 0.333333
16 15 23 100 0.219307
0 16 23 100 0.117107
7 16 23 100 0.111111
15 16 23 100 0.222222
16 16 23 100 0.222222
17 16 23 100 0.111111
21 16 23 100 0.105115
23 16 23 100 0.111111
0 17 23 100 1.55608e-05
7 17 23 100 0.110757
8 17 23 100 0.111111
16 17 23 100 0.333333
17 17 23 100 0.11145
18 17 23 100 0.111111
20 17 23 100 0.111111
23 17 23 100 0.111111
0 18 23 100 0.0011513
9 18 23 100 0.109964
17 18 23 100 0.333333
18 18 23 100 0.222218
19 18 23 100 0.111111
21 18 23 100 0.111111
23 18 23 100 0.111111
0 19 23 100 0.00650258
10 19 23 100 0.111056
18 19 23 100 0.333173
19 19 23 100 0.222222
20 19 23 100 0.215935
22 19 23 100 0.111111
0 20 23 100 0.00298398
11 20 23 100 0.124989
15 20 23 100 0.122047
19 20 23 100 0.37498
20 20 23 100 0.125
21 20 23 100 0.125
23 20 23 100 0.125
0 21 23 100 0.00068343
20 21 23 100 0.427888
21 21 23 100 0.142857
22 21 23 100 0.285714
23 21 23 100 0.142857
0 22 23 100 0.000210737
15 22 23 100 0.142857
17 22 23 100 0.142857
21 22 23 100 0.428571
22 22 23 100 0.142857
23 22 23 100 0.142646
16 23 23 100 0.166667
18 23 23 100 0.166667
22 23 23 100 0.5
23 23 23 100 0.166667
0 24 23 100 0.2
19 24 23 100 0.2
23 24 23 100 0.6
0 25 23 100 0.501065
17 25 23 100 0.498935
0 26 23 100 0.0103846
16 26 23 100 0.489615
18 26 23 100 0.5
19 27 23 100 0.5
23 27 23 100 0.5
20 28 23 100 0.5
23 28 23 100 0.5
0 29 23 100 0.5
21 29 23 100 0.5
23 30 23 100 1
10 31 23 100 0.5
23 31 23 100 0.5
0 32 23 100 8.50824e-05
11 32 23 100 0.999915
0 33 23 100 0.000104695
12 33 23 100 0.999895
13 34 23 100 1
14 35 23 100 1
0 1 24 100 5.93991e-06
1 1 24 100 0.999994
0 2 24 100 0.142866
2 2 24 100 0.857134
0 3 24 100 0.00556928
2 3 24 100 0.13764
3 3 24 100 0.85672
20 3 24 100 7.05185e-05
0 4 24 100 0.000106696
4 4 24 100 0.999893
0 5 24 100 0.142869
5 5 24 100 0.857131
0 6 24 100 0.000277657
5 6 24 100 0.142857
6 6 24 100 0.714008
7 6 24 100 0.142857
0 7 24 100 0.000124456
6 7 24 100 0.142857
7 7 24 100 0.714161
8 7 24 100 0.142857
0 8 24 100 0.142933
7 8 24 100 0.142857
8 8 24 100 0.571416
9 8 24 100 0.142793
0 9 24 100 5.73645e-06
8 9 24 100 0.285715
9 9 24 100 0.571422
10 9 24 100 0.142857
0 10 24 100 0.000170442
9 10 24 100 0.285713
10 10 24 100 0.571151
11 10 24 100 0.142965
0 11 24 100 3.04549e-06
10 11 24 100 0.285711
11 11 24 100 0.428571
12 11 24 100 0.142857
22 11 24 100 0.142857
0 12 24 100 0.142854
10 12 24 100 8.28693e-06
11 12 24 100 0.285714
12 12 24 100 0.285714
13 12 24 100 0.142851
14 12 24 100 0.142857
0 13 24 100 0.000420204
12 13 24 100 0.285711
13 13 24 100 0.285295
14 13 24 100 0.142857
15 13 24 100 0.285715
20 13 24 100 2.45528e-06
0 14 24 100 3.57121e-06
12 14 24 100 2.91706e-06
13 14 24 100 0.285709
14 14 24 100 0.285713
15 14 24 100 0.142857
16 14 24 100 0.142857
22 14 24 100 0.142857
0 15 24 100 0.000771926
14 15 24 100 0.284975
15 15 24 100 0.285714
16 15 24 100 0.142831
17 15 24 100 0.142846
18 15 24 100 4.14096e-06
23 15 24 100 0.142857
0 16 24 100 0.0210427
15 16 24 100 0.142857
16 16 24 100 0.142857
17 16 24 100 0.143042
18 16 24 100 0.142852
24 16 24 100 0.407349
0 17 24 100 0.142151
3 17 24 100 3.94015e-06
12 17 24 100 0.142857
13 17 24 100 3.9403e-06
15 17 24 100 0.142857
16 17 24 100 0.142857
17 17 24 100 0.142857
18 17 24 100 0.142857
19 17 24 100 0.142849
20 17 24 100 0.000706657
13 18 24 100 0.142857
16 18 24 100 0.142857
18 18 24 100 0.142857
19 18 24 100 0.142857
20 18 24 100 0.142857
22 18 24 100 0.142857
24 18 24 100 0.142857
0 19 24 100 6.11892e-06
12 19 24 100 0.142857
17 19 24 100 0.142851
19 19 24 100 0.142857
20 19 24 100 0.142857
21 19 24 100 0.142857
23 19 24 100 0.142857
24 19 24 100 0.142857
0 20 24 100 0.102329
13 20 24 100 0.142857
18 20 24 100 0.142309
20 20 24 100 0.142857
21 20 24 100 0.0415188
22 20 24 100 0.142857
24 20 24 100 0.285272
0 21 24 100 0.000364457
19 21 24 100 0.142857
21 21 24 100 0.285714
22 21 24 100 0.285698
23 21 24 100 0.142857
24 21 24 100 0.142509
0 22 24 100 0.285745
8 22 24 100 4.0796e-06
19 22 24 100 0.0135997
20 22 24 100 0.27208
22 22 24 100 0.285714
24 22 24 100 0.142858
0 23 24 100 0.167428
22 23 24 100 0.166667
23 23 24 100 0.5
24 23 24 100 0.165906
0 24 24 100 0.166648
2 24 24 100 3.96795e-06
9 24 24 100 4.95463e-06
19 24 24 100 9.28587e-06
23 24 24 100 0.166667
24 24 24 100 0.666667
12 25 24 100 0.500001
24 25 24 100 0.499999
13 26 24 100 1
0 1 25 100 8.58374e-07
1 1 25 100 0.999997
2 1 25 100 2.43694e-06
0 2 25 100 0.000688566
2 2 25 100 0.932645
3 2 25 100 0.0666667
0 3 25 100 0.000204853
3 3 25 100 0.933128
4 3 25 100 0.0666667
0 4 25 100 0.000602747
4 4 25 100 0.866064
5 4 25 100 0.133287
6 4 25 100 4.67158e-05
0 5 25 100 0.00131002
5 5 25 100 0.93207
6 5 25 100 0.06662
0 6 25 100 0.000782484
5 6 25 100 0.133329
6 6 25 100 0.799563
7 6 25 100 0.0663255
0 7 25 100 0.00116884
6 7 25 100 0.0666494
7 7 25 100 0.798868
8 7 25 100 0.133307
24 7 25 100 7.34195e-06
0 8 25 100 0.202417
7 8 25 100 0.000176151
8 8 25 100 0.730741
9 8 25 100 0.0666667
0 9 25 100 0.0649028
5 9 25 100 0.0666667
7 9 25 100 0.000339532
8 9 25 100 0.0681235
9 9 25 100 0.733301
10 9 25 100 0.0666666
0 10 25 100 0.00224371
5 10 25 100 0.0666667
8 10 25 100 0.0646254
9 10 25 100 0.0666667
10 10 25 100 0.733131
11 10 25 100 0.0666667
0 11 25 100 0.0693269
5 11 25 100 0.0666667
9 11 25 100 0.0666635
10 11 25 100 0.0666667
11 11 25 100 0.664011
12 11 25 100 0.0666649
0 12 25 100 0.00266893
10 12 25 100 0.133332
11 12 25 100 0.133333
12 12 25 100 0.664001
13 12 25 100 0.0666648
0 13 25 100 0.00394707
11 13 25 100 0.133333
12 13 25 100 0.133333
13 13 25 100 0.662719
14 13 25 100 0.0666667
0 14 25 100 1.41979e-05
2 14 25 100 0.0666667
12 14 25 100 0.133333
13 14 25 100 0.133332
14 14 25 100 0.666654
0 15 25 100 1.90727e-05
3 15 25 100 0.0666667
13 15 25 100 0.133333
14 15 25 100 0.133333
15 15 25 100 0.666648
0 16 25 100 0.0692398
5 16 25 100 0.0666667
14 16 25 100 0.0666667
15 16 25 100 0.133333
16 16 25 100 0.664094
0 17 25 100 0.00262034
5 17 25 100 0.0666667
15 17 25 100 0.133333
16 17 25 100 0.133333
17 17 25 100 0.664046
0 18 25 100 0.000706726
16 18 25 100 0.133143
17 18 25 100 0.133333
18 18 25 100 0.666151
20 18 25 100 0.0666665
0 19 25 100 0.000405861
17 19 25 100 0.133333
18 19 25 100 0.0666667
19 19 25 100 0.732927
21 19 25 100 0.0666667
0 20 25 100 0.06767
18 20 25 100 0.133333
20 20 25 100 0.73233
21 20 25 100 0.0666667
0 21 25 100 0.000181077
18 21 25 100 0.066606
19 21 25 100 0.13328
21 21 25 100 0.733266
25 21 25 100 0.0666666
0 22 25 100 0.0673569
5 22 25 100 5.33372e-06
18 22 25 100 0.0666667
20 22 25 100 0.133333
22 22 25 100 0.666666
25 22 25 100 0.0659719
0 23 25 100 9.98307e-05
18 23 25 100 0.0666667
21 23 25 100 0.133255
22 23 25 100 0.0666676
23 23 25 100 0.666645
25 23 25 100 0.0666657
0 24 25 100 0.00243044
19 24 25 100 0.0666404
21 24 25 100 0.0666667
22 24 25 100 0.133333
23 24 25 100 0.133333
24 24 25 100 0.464262
25 24 25 100 0.133333
0 25 25 100 0.00075192
20 25 25 100 0.0714276
23 25 25 100 0.214284
24 25 25 100 0.213537
25 25 25 100 0.5
0 26 25 100 0.125435
4 26 25 100 2.76071e-06
7 26 25 100 2.75722e-06
21 26 25 100 0.125
24 26 25 100 0.5
25 26 25 100 0.249559
21 27 25 100 0.166667
25 27 25 100 0.833333
23 28 25 100 1
0 29 25 100 0.000307254
22 29 25 100 0.999693
25 30 25 100 1
0 1 26 100 0.141965
1 1 26 100 0.855051
2 1 26 100 0.00209084
8 1 26 100 1.66415e-05
18 1 26 100 0.00087721
0 2 26 100 1.31977e-05
2 2 26 100 0.85713
3 2 26 100 0.142857
0 3 26 100 1.97573e-05
1 3 26 100 0.142857
3 3 26 100 0.714266
4 3 26 100 0.142857
0 4 26 100 0.00233256
2 4 26 100 0.000488995
4 4 26 100 0.711464
5 4 26 100 0.142857
12 4 26 100 0.142857
0 5 26 100 0.149578
5 5 26 100 0.56399
6 5 26 100 0.142856
8 5 26 100 0.000719813
26 5 26 100 0.142856
0 6 26 100 0.144304
1 6 26 100 1.94027e-06
5 6 26 100 0.142857
6 6 26 100 0.569977
8 6 26 100 0.142857
20 6 26 100 3.16177e-06
0 7 26 100 0.000238016
4 7 26 100 0.0137515
6 7 26 100 0.142857
7 7 26 100 0.571429
9 7 26 100 0.271725
5 8 26 100 0.129106
7 8 26 100 0.142857
8 8 26 100 0.571429
9 8 26 100 0.142857
10 8 26 100 0.0137515
0 9 26 100 1.93515e-05
6 9 26 100 2.94345e-06
8 9 26 100 0.14284
9 9 26 100 0.714283
11 9 26 100 0.142854
0 10 26 100 0.00153178
9 10 26 100 0.208999
10 10 26 100 0.646612
12 10 26 100 0.142857
0 11 26 100 0.000115286
10 11 26 100 0.142857
11 11 26 100 0.571313
12 11 26 100 0.142857
14 11 26 100 0.142857
0 12 26 100 2.2942e-06
11 12 26 100 0.142857
12 12 26 100 0.571426
13 12 26 100 0.142857
15 12 26 100 0.142857
0 13 26 100 0.144609
12 13 26 100 3.97284e-06
13 13 26 100 0.569676
14 13 26 100 0.14285
16 13 26 100 0.142857
17 13 26 100 3.44047e-06
0 14 26 100 0.0007593
14 14 26 100 0.713526
15 14 26 100 0.142857
17 14 26 100 0.142857
0 15 26 100 0.000527055
15 15 26 100 0.714114
16 15 26 100 0.142501
18 15 26 100 0.142857
0 16 26 100 8.89515e-05
16 16 26 100 0.714198
17 16 26 100 0.142855
19 16 26 100 0.142858
0 17 26 100 1.7977e-05
17 17 26 100 0.714274
18 17 26 100 0.142855
20 17 26 100 0.142853
0 18 26 100 0.00194829
18 18 26 100 0.712337
19 18 26 100 0.142857
21 18 26 100 0.142857
0 19 26 100 0.000115005
19 19 26 100 0.698727
20 19 26 100 0.158301
22 19 26 100 0.142857
0 20 26 100 0.000297137
20 20 26 100 0.713989
21 20 26 100 0.142857
23 20 26 100 0.142857
0 21 26 100 0.00168697
21 21 26 100 0.712562
22 21 26 100 0.142894
24 21 26 100 0.142857
0 22 26 100 0.00110716
21 22 26 100 3.66826e-05
22 22 26 100 0.713141
23 22 26 100 0.142857
25 22 26 100 0.142857
0 23 26 100 0.000131233
22 23 26 100 1.52812e-06
23 23 26 100 0.571298
24 23 26 100 0.285709
25 23 26 100 2.78246e-06
26 23 26 100 0.142857
0 24 26 100 0.0128833
12 24 26 100 8.01975e-06
24 24 26 100 0.666504
25 24 26 100 0.166667
26 24 26 100 0.153937
0 25 26 100 0.000515988
25 25 26 100 0.666666
26 25 26 100 0.332818
0 26 26 100 2.82145e-06
26 26 26 100 0.999997
0 1 27 100 0.124994
1 1 27 100 0.750001
2 1 27 100 2.27546e-06
7 1 27 100 0.125
13 1 27 100 2.57086e-06
0 2 27 100 0.00165898
1 2 27 100 0.125
2 2 27 100 0.873341
0 3 27 100 0.0825227
2 3 27 100 0.124997
3 3 27 100 0.792479
22 3 27 100 1.54104e-06
0 4 27 100 0.00139262
3 4 27 100 0.127919
4 4 27 100 0.748609
26 4 27 100 0.122079
0 5 27 100 0.125012
4 5 27 100 0.249916
5 5 27 100 0.625031
6 5 27 100 3.62728e-05
17 5 27 100 2.73636e-06
20 5 27 100 2.56329e-06
0 6 27 100 1.3415e-06
5 6 27 100 0.248435
6 6 27 100 0.626563
7 6 27 100 0.125
0 7 27 100 0.130871
5 7 27 100 4.86474e-05
6 7 27 100 0.249952
7 7 27 100 0.369135
8 7 27 100 1.19287e-05
9 7 27 100 0.124998
13 7 27 100 0.124984
0 8 27 100 0.00029553
7 8 27 100 0.249856
8 8 27 100 0.5
9 8 27 100 0.124849
10 8 27 100 0.125
0 9 27 100 3.79217e-06
8 9 27 100 0.374998
9 9 27 100 0.374998
10 9 27 100 0.125
11 9 27 100 0.125
0 10 27 100 9.22076e-05
9 10 27 100 0.374921
10 10 27 100 0.267023
11 10 27 100 0.232964
13 10 27 100 0.125
0 11 27 100 0.125077
5 11 27 100 1.42969e-06
6 11 27 100 1.42969e-06
8 11 27 100 2.14541e-06
10 11 27 100 0.374567
11 11 27 100 0.249977
12 11 27 100 0.250039
22 11 27 100 1.39015e-06
27 11 27 100 0.000333903
0 12 27 100 0.000634028
11 12 27 100 0.375
12 12 27 100 0.249366
13 12 27 100 0.25
14 12 27 100 0.125
0 13 27 100 0.125002
12 13 27 100 0.375
13 13 27 100 0.25
14 13 27 100 0.249997
0 14 27 100 0.000127971
13 14 27 100 0.374917
14 14 27 100 0.374959
15 14 27 100 0.249996
0 15 27 100 0.000255568
14 15 27 100 0.374863
15 15 27 100 0.25
16 15 27 100 0.249879
17 15 27 100 2.82097e-06
27 15 27 100 0.125
0 16 27 100 0.000440556
14 16 27 100 0.125
15 16 27 100 0.25
16 16 27 100 0.250003
17 16 27 100 0.249991
27 16 27 100 0.124566
0 17 27 100 0.00106449
14 17 27 100 0.125
16 17 27 100 0.25
17 17 27 100 0.24944
18 17 27 100 0.249496
27 17 27 100 0.125
0 18 27 100 0.00115987
15 18 27 100 0.124563
17 18 27 100 0.249281
18 18 27 100 0.25
19 18 27 100 0.249997
27 18 27 100 0.125
0 19 27 100 0.113979
5 19 27 100 1.42969e-06
6 19 27 100 1.42969e-06
8 19 27 100 2.14541e-06
12 19 27 100 2.14541e-06
18 19 27 100 0.249997
19 19 27 100 0.25
20 19 27 100 0.125
22 19 27 100 1.39015e-06
27 19 27 100 0.261015
0 20 27 100 1.27862e-05
15 20 27 100 0.124992
17 20 27 100 0.125
19 20 27 100 0.25
20 20 27 100 0.374999
21 20 27 100 0.124996
0 21 27 100 0.125063
2 21 27 100 2.2259e-06
16 21 27 100 0.124999
18 21 27 100 0.125
20 21 27 100 0.124995
21 21 27 100 0.374943
22 21 27 100 0.124998
0 22 27 100 0.00867997
17 22 27 100 0.124896
19 22 27 100 0.25
21 22 27 100 0.125
22 22 27 100 0.366434
23 22 27 100 0.124991
0 23 27 100 0.12546
1 23 27 100 0.124544
18 23 27 100 0.125
20 23 27 100 0.249998
22 23 27 100 0.125
23 23 27 100 0.249996
24 23 27 100 2.50822e-06
0 24 27 100 0.00631624
18 24 27 100 0.125
21 24 27 100 0.249997
23 24 27 100 0.249822
24 24 27 100 0.368865
0 25 27 100 0.0427017
5 25 27 100 1.38712e-06
6 25 27 100 1.38712e-06
8 25 27 100 2.07939e-06
12 25 27 100 2.07939e-06
19 25 27 100 0.25
22 25 27 100 0.207078
24 25 27 100 0.249888
25 25 27 100 0.25
27 25 27 100 0.000325577
19 26 27 100 0.125
20 26 27 100 0.125
23 26 27 100 0.25
25 26 27 100 0.25
26 26 27 100 0.25
0 27 27 100 0.00049344
21 27 27 100 0.125
24 27 27 100 0.249509
26 27 27 100 0.375
27 27 27 100 0.249997
0 28 27 100 0.000483193
22 28 27 100 0.166622
25 28 27 100 0.332895
27 28 27 100 0.5
23 29 27 100 0.333334
26 29 27 100 0.666666
23 30 27 100 0.5
27 30 27 100 0.5
23 31 27 100 1
0 32 27 100 0.167054
24 32 27 100 0.832946
25 33 27 100 1
0 34 27 100 1
26 35 27 100 1
27 36 27 100 1
0 1 28 100 3.2387e-06
1 1 28 100 0.999997
0 2 28 100 0.0012642
1 2 28 100 0.1
2 2 28 100 0.898736
0 3 28 100 0.00306457
2 3 28 100 0.1
3 3 28 100 0.896935
0 4 28 100 4.05163e-06
3 4 28 100 0.1
4 4 28 100 0.899996
0 5 28 100 3.61184e-05
4 5 28 100 0.1
5 5 28 100 0.899964
0 6 28 100 4.08453e-05
5 6 28 100 0.1
6 6 28 100 0.899954
7 6 28 100 4.82607e-06
0 7 28 100 0.00140065
6 7 28 100 0.0986042
7 7 28 100 0.799995
8 7 28 100 0.1
0 8 28 100 0.00277761
7 8 28 100 0.1
8 8 28 100 0.697778
9 8 28 100 0.199445
0 9 28 100 0.000607612
8 9 28 100 0.1
9 9 28 100 0.599658
10 9 28 100 0.19973
11 9 28 100 0.100004
0 10 28 100 2.91297e-05
9 10 28 100 0.1
10 10 28 100 0.599971
11 10 28 100 0.2
12 10 28 100 0.0999993
0 11 28 100 8.7432e-05
10 11 28 100 0.1
11 11 28 100 0.599912
12 11 28 100 0.2
13 11 28 100 0.1
0 12 28 100 0.0868483
7 12 28 100 1.81273e-06
11 12 28 100 0.2
12 12 28 100 0.417092
13 12 28 100 0.196058
14 12 28 100 0.1
0 13 28 100 0.0175484
11 13 28 100 0.0995209
12 13 28 100 0.182908
13 13 28 100 0.399879
14 13 28 100 0.200144
15 13 28 100 0.1
0 14 28 100 0.00131659
12 14 28 100 0.0999558
13 14 28 100 0.2
14 14 28 100 0.399932
15 14 28 100 0.198795
16 14 28 100 0.1
13 15 28 100 0.1
14 15 28 100 0.2
15 15 28 100 0.4
16 15 28 100 0.2
17 15 28 100 0.1
0 16 28 100 0.100433
15 16 28 100 0.2
16 16 28 100 0.399567
17 16 28 100 0.2
18 16 28 100 0.0999951
19 16 28 100 4.87161e-06
0 17 28 100 9.91309e-05
11 17 28 100 6.41185e-06
14 17 28 100 0.0999936
16 17 28 100 0.199901
17 17 28 100 0.5
18 17 28 100 0.100005
19 17 28 100 0.0999951
0 18 28 100 0.00148222
14 18 28 100 0.0999994
17 18 28 100 0.199647
18 18 28 100 0.499999
19 18 28 100 0.0999985
20 18 28 100 0.0988739
0 19 28 100 0.000622425
15 19 28 100 0.099971
16 19 28 100 2.90348e-05
18 19 28 100 0.199959
19 19 28 100 0.499692
20 19 28 100 0.0997263
21 19 28 100 0.1
15 20 28 100 2.90348e-05
16 20 28 100 0.099971
18 20 28 100 3.48382e-05
19 20 28 100 0.199965
20 20 28 100 0.5
21 20 28 100 0.1
22 20 28 100 0.1
0 21 28 100 0.00155983
17 21 28 100 0.1
20 21 28 100 0.2
21 21 28 100 0.498441
22 21 28 100 0.0999985
23 21 28 100 0.1
0 22 28 100 0.00141828
18 22 28 100 0.1
21 22 28 100 0.199995
22 22 28 100 0.498587
23 22 28 100 0.1
24 22 28 100 0.1
0 23 28 100 0.000528007
18 23 28 100 0.0999998
22 23 28 100 0.2
23 23 28 100 0.499472
24 23 28 100 0.1
25 23 28 100 0.1
0 24 28 100 0.00553646
19 24 28 100 0.1
23 24 28 100 0.19999
24 24 28 100 0.499065
25 24 28 100 0.1
26 24 28 100 0.0954079
0 25 28 100 0.000750662
20 25 28 100 0.0999999
24 25 28 100 0.2
25 25 28 100 0.499561
27 25 28 100 0.199689
0 26 28 100 0.00465209
7 26 28 100 2.0371e-06
21 26 28 100 0.1
25 26 28 100 0.199995
26 26 28 100 0.495351
28 26 28 100 0.2
0 27 28 100 9.82168e-05
22 27 28 100 0.125
26 27 28 100 0.249902
27 27 28 100 0.625
23 28 28 100 0.125
27 28 28 100 0.25
28 28 28 100 0.625
24 29 28 100 0.333333
28 29 28 100 0.666667
25 30 28 100 1
26 31 28 100 1
27 32 28 100 1
28 33 28 100 1
0 1 29 100 8.7405e-05
1 1 29 100 0.909083
4 1 29 100 0.0443836
5 1 29 100 0.0464458
0 2 29 100 0.0906219
2 2 29 100 0.909378
0 3 29 100 0.182868
3 3 29 100 0.817132
0 4 29 100 0.178741
3 4 29 100 0.0909811
4 4 29 100 0.636214
10 4 29 100 0.0909091
12 4 29 100 1.5633e-06
29 4 29 100 0.00315351
0 5 29 100 0.0909192
3 5 29 100 0.090909
4 5 29 100 0.181818
5 5 29 100 0.545444
10 5 29 100 0.0909091
0 6 29 100 0.0895756
4 6 29 100 0.0921749
5 6 29 100 0.272795
6 6 29 100 0.545455
0 7 29 100 0.00487555
5 7 29 100 0.0897567
6 7 29 100 0.272721
7 7 29 100 0.541737
11 7 29 100 0.0909091
0 8 29 100 0.000171836
6 8 29 100 0.181858
7 8 29 100 0.272686
8 8 29 100 0.545283
9 8 29 100 9.57835e-07
0 9 29 100 6.73349e-06
6 9 29 100 2.23995e-05
7 9 29 100 0.272705
8 9 29 100 0.181819
9 9 29 100 0.545447
0 10 29 100 0.000582065
8 10 29 100 0.182147
9 10 29 100 0.362972
10 10 29 100 0.454299
0 11 29 100 0.000392162
9 11 29 100 0.181563
10 11 29 100 0.272727
11 11 29 100 0.545318
0 12 29 100 0.000158428
10 12 29 100 0.272713
11 12 29 100 0.272727
12 12 29 100 0.454402
0 13 29 100 0.000364931
11 13 29 100 0.272726
12 13 29 100 0.272362
13 13 29 100 0.363636
28 13 29 100 0.0909091
29 13 29 100 1.55734e-06
0 14 29 100 3.49034e-05
11 14 29 100 6.29278e-06
12 14 29 100 0.272686
13 14 29 100 0.272721
14 14 29 100 0.363643
29 14 29 100 0.0909086
13 15 29 100 0.272727
14 15 29 100 0.363637
15 15 29 100 0.272727
16 15 29 100 0.0909092
0 16 29 100 0.0909633
3 16 29 100 1.50785e-06
14 16 29 100 0.272728
15 16 29 100 0.36358
16 16 29 100 0.181818
17 16 29 100 0.0909085
0 17 29 100 0.00118396
15 17 29 100 0.272691
16 17 29 100 0.453398
17 17 29 100 0.181818
18 17 29 100 0.0909091
0 18 29 100 2.14544e-05
16 18 29 100 0.272726
17 18 29 100 0.454478
18 18 29 100 0.181818
19 18 29 100 0.0908982
29 18 29 100 5.76842e-05
0 19 29 100 0.000952673
17 19 29 100 0.272727
18 19 29 100 0.453594
19 19 29 100 0.181817
20 19 29 100 0.0909092
0 20 29 100 0.184051
9 20 29 100 1.49065e-06
13 20 29 100 0.00138042
18 20 29 100 0.272727
19 20 29 100 0.27283
20 20 29 100 0.178101
21 20 29 100 0.0909091
0 21 29 100 0.0881946
18 21 29 100 0.0909092
19 21 29 100 0.184532
20 21 29 100 0.272728
21 21 29 100 0.272728
22 21 29 100 0.0909086
0 22 29 100 0.0915413
2 22 29 100 9.82085e-07
18 22 29 100 0.0909091
19 22 29 100 0.0907965
20 22 29 100 0.272727
21 22 29 100 0.181817
22 22 29 100 0.181818
23 22 29 100 0.0903898
0 23 29 100 0.0911059
18 23 29 100 0.0908884
20 23 29 100 0.0909092
21 23 29 100 0.272618
22 23 29 100 0.181751
23 23 29 100 0.181818
24 23 29 100 0.0909092
0 24 29 100 0.0909116
17 24 29 100 1.10912e-05
19 24 29 100 0.0909066
21 24 29 100 0.0909091
22 24 29 100 0.181818
23 24 29 100 0.181818
24 24 29 100 0.181818
25 24 29 100 0.0909091
29 24 29 100 0.090898
0 25 29 100 0.1814
15 25 29 100 0.000470514
19 25 29 100 1.8325e-06
22 25 29 100 0.0909091
23 25 29 100 0.363636
24 25 29 100 0.181765
25 25 29 100 0.181818
0 26 29 100 0.0909215
9 26 29 100 2.59807e-06
21 26 29 100 0.0909091
23 26 29 100 0.0909091
24 26 29 100 0.272727
25 26 29 100 0.181817
26 26 29 100 0.272714
0 27 29 100 0.0909092
22 27 29 100 0.0909092
24 27 29 100 0.0909091
25 27 29 100 0.272727
26 27 29 100 0.181818
27 27 29 100 0.272728
0 28 29 100 2.72718e-06
23 28 29 100 0.090909
24 28 29 100 0.0909044
25 28 29 100 0.0909127
26 28 29 100 0.272726
27 28 29 100 0.181817
28 28 29 100 0.181818
29 28 29 100 0.0909107
0 29 29 100 0.100659
24 29 29 100 0.101609
25 29 29 100 0.0982559
26 29 29 100 0.1
27 29 29 100 0.299476
28 29 29 100 0.2
29 29 29 100 0.1
0 30 29 100 0.02067
21 30 29 100 1.76993e-06
25 30 29 100 0.222221
27 30 29 100 0.111101
28 30 29 100 0.333332
29 30 29 100 0.312675
17 31 29 100 2.32283e-05
26 31 29 100 0.166667
28 31 29 100 0.166667
29 31 29 100 0.666643
27 32 29 100 0.250001
29 32 29 100 0.749999
0 33 29 100 0.499957
12 33 29 100 4.267e-05
29 33 29 100 0.5
28 34 29 100 1
29 35 29 100 1
0 1 30 100 1.48551e-05
1 1 30 100 0.799985
2 1 30 100 8.19402e-06
10 1 30 100 0.133325
27 1 30 100 0.0666667
0 2 30 100 0.00052836
1 2 30 100 0.000721185
2 2 30 100 0.799484
3 2 30 100 0.0659565
4 2 30 100 0.0666437
10 2 30 100 0.0666667
0 3 30 100 0.000636393
2 3 30 100 0.133338
3 3 30 100 0.59948
4 3 30 100 0.133333
5 3 30 100 0.0666657
15 3 30 100 0.0665461
0 4 30 100 0.0048868
3 4 30 100 0.198419
4 4 30 100 0.596766
5 4 30 100 0.133262
6 4 30 100 0.0666667
0 5 30 100 3.67374e-06
4 5 30 100 0.2
5 5 30 100 0.599996
6 5 30 100 0.133333
7 5 30 100 0.0666667
0 6 30 100 0.0037962
5 6 30 100 0.19633
6 6 30 100 0.666662
7 6 30 100 0.0665455
8 6 30 100 0.0666667
0 7 30 100 0.0669287
6 7 30 100 0.199999
7 7 30 100 0.533041
8 7 30 100 0.133333
9 7 30 100 0.0666667
21 7 30 100 3.08051e-05
0 8 30 100 0.000594378
4 8 30 100 0.0666666
7 8 30 100 0.266072
8 8 30 100 0.533333
9 8 30 100 0.0666667
10 8 30 100 0.0666667
0 9 30 100 0.000910243
7 9 30 100 0.0666667
8 9 30 100 0.2
9 9 30 100 0.532423
10 9 30 100 0.0666667
11 9 30 100 0.0666667
12 9 30 100 0.0666667
0 10 30 100 0.00132775
6 10 30 100 0.0666667
8 10 30 100 0.133269
9 10 30 100 0.133321
10 10 30 100 0.465419
11 10 30 100 0.0666652
12 10 30 100 0.0666655
20 10 30 100 0.0666667
0 11 30 100 0.0669831
6 11 30 100 0.0666667
9 11 30 100 0.0666667
10 11 30 100 0.133565
11 11 30 100 0.466119
12 11 30 100 0.0666667
13 11 30 100 0.0666664
19 11 30 100 0.0666667
0 12 30 100 0.000693178
10 12 30 100 0.0666667
11 12 30 100 0.199714
12 12 30 100 0.46603
13 12 30 100 0.0666667
14 12 30 100 0.133333
15 12 30 100 0.000229046
20 12 30 100 0.0666667
0 13 30 100 8.74143e-05
11 13 30 100 0.133325
12 13 30 100 0.199922
13 13 30 100 0.466666
14 13 30 100 0.0666667
15 13 30 100 0.133333
0 14 30 100 0.00054793
12 14 30 100 0.133332
13 14 30 100 0.2
14 14 30 100 0.466648
15 14 30 100 0.0666667
16 14 30 100 0.132805
0 15 30 100 0.0077671
13 15 30 100 0.133332
14 15 30 100 0.266347
15 15 30 100 0.392558
16 15 30 100 0.0666661
17 15 30 100 0.13333
0 16 30 100 0.0200294
14 16 30 100 0.133333
15 16 30 100 0.313734
16 16 30 100 0.266236
17 16 30 100 0.133334
18 16 30 100 0.0666667
19 16 30 100 0.0666633
20 16 30 100 3.32019e-06
0 17 30 100 0.000238702
15 17 30 100 0.133332
16 17 30 100 0.333334
17 17 30 100 0.266517
18 17 30 100 0.133333
19 17 30 100 0.0665805
20 17 30 100 0.0666599
21 17 30 100 3.45144e-06
0 18 30 100 0.00225428
16 18 30 100 0.133333
17 18 30 100 0.33246
18 18 30 100 0.331953
19 18 30 100 0.0666667
20 18 30 100 4.42281e-06
21 18 30 100 0.133329
0 19 30 100 0.00122719
17 19 30 100 0.133193
18 19 30 100 0.39987
19 19 30 100 0.26571
20 19 30 100 0.0666703
22 19 30 100 0.133329
0 20 30 100 0.131261
6 20 30 100 1.04655e-06
15 20 30 100 3.82698e-06
18 20 30 100 0.135461
19 20 30 100 0.266664
20 20 30 100 0.266609
21 20 30 100 0.0666667
23 20 30 100 0.133333
0 21 30 100 0.0669364
18 21 30 100 0.0666701
19 21 30 100 0.133333
20 21 30 100 0.266283
21 21 30 100 0.266778
22 21 30 100 0.0666659
24 21 30 100 0.133333
0 22 30 100 9.92056e-05
19 22 30 100 0.0666667
20 22 30 100 0.19992
21 22 30 100 0.276428
22 22 30 100 0.256886
23 22 30 100 0.0666667
25 22 30 100 0.133333
0 23 30 100 0.00127189
15 23 30 100 0.000124043
20 23 30 100 0.0666667
21 23 30 100 0.199705
22 23 30 100 0.398891
23 23 30 100 0.2
24 23 30 100 0.0666667
26 23 30 100 8.05388e-06
30 23 30 100 0.0666666
0 24 30 100 0.00105394
21 24 30 100 0.0714283
22 24 30 100 0.213985
23 24 30 100 0.356392
24 24 30 100 0.214284
25 24 30 100 0.0714286
26 24 30 100 0.0714286
0 25 30 100 0.0717882
22 25 30 100 0.0714286
23 25 30 100 0.214003
24 25 30 100 0.285638
25 25 30 100 0.142857
26 25 30 100 0.142857
27 25 30 100 0.0714286
0 26 30 100 0.00200815
23 26 30 100 0.071418
24 26 30 100 0.214286
25 26 30 100 0.284045
26 26 30 100 0.142857
27 26 30 100 0.214286
28 26 30 100 0.0711
0 27 30 100 0.0715969
24 27 30 100 0.0714274
25 27 30 100 0.214117
26 27 30 100 0.285714
27 27 30 100 0.214287
29 27 30 100 0.142857
0 28 30 100 0.00173009
25 28 30 100 0.0714286
26 28 30 100 0.214285
27 28 30 100 0.355415
28 28 30 100 0.214285
30 28 30 100 0.142857
0 29 30 100 0.0108827
26 29 30 100 0.0833333
27 29 30 100 0.240999
28 29 30 100 0.414932
29 29 30 100 0.249854
0 30 30 100 0.0817561
27 30 30 100 0.0833333
28 30 30 100 0.166667
29 30 30 100 0.418244
30 30 30 100 0.25
0 31 30 100 5.19332e-06
28 31 30 100 0.111111
29 31 30 100 0.222217
30 31 30 100 0.666667
29 32 30 100 0.333332
30 32 30 100 0.666668
30 33 30 100 1
0 1 31 100 9.56242e-06
1 1 31 100 0.947357
2 1 31 100 1.89232e-06
31 1 31 100 0.0526316
0 2 31 100 0.00106311
2 2 31 100 0.893957
3 2 31 100 0.0523486
31 2 31 100 0.0526316
0 3 31 100 0.0530132
2 3 31 100 0.0526316
3 3 31 100 0.789201
4 3 31 100 0.0525222
13 3 31 100 7.64103e-07
31 3 31 100 0.0526316
0 4 31 100 0.000275359
3 4 31 100 0.157895
4 4 31 100 0.788479
5 4 31 100 0.000718836
7 4 31 100 0.0526316
0 5 31 100 0.000233638
3 5 31 100 0.0526316
4 5 31 100 0.105263
5 5 31 100 0.736608
6 5 31 100 0.0526316
8 5 31 100 0.0526316
0 6 31 100 0.0526364
3 6 31 100 0.0526316
5 6 31 100 0.105263
6 6 31 100 0.684214
7 6 31 100 6.51018e-07
9 6 31 100 0.0526316
31 6 31 100 0.052623
0 7 31 100 0.105278
3 7 31 100 0.0526276
6 7 31 100 0.105268
7 7 31 100 0.684191
10 7 31 100 0.0526316
13 7 31 100 5.84454e-07
19 7 31 100 3.88107e-06
0 8 31 100 0.0529911
6 8 31 100 0.0526316
7 8 31 100 0.210251
8 8 31 100 0.578862
11 8 31 100 0.0526316
27 8 31 100 5.96515e-07
31 8 31 100 0.0526316
0 9 31 100 0.00187519
6 9 31 100 0.0526281
8 9 31 100 0.263119
9 9 31 100 0.57708
10 9 31 100 3.54089e-05
12 9 31 100 0.0526316
31 9 31 100 0.0526316
0 10 31 100 0.0552426
7 10 31 100 0.0526275
8 10 31 100 3.46762e-05
9 10 31 100 0.156683
10 10 31 100 0.630156
13 10 31 100 0.0526237
15 10 31 100 7.13273e-07
31 10 31 100 0.0526316
0 11 31 100 0.000657329
8 11 31 100 0.052631
9 11 31 100 0.0526316
10 11 31 100 0.157895
11 11 31 100 0.526275
12 11 31 100 0.0526316
14 11 31 100 0.0526316
20 11 31 100 0.0526316
31 11 31 100 0.0520153
0 12 31 100 0.000337167
8 12 31 100 0.0526316
9 12 31 100 0.0526316
10 12 31 100 0.0526316
11 12 31 100 0.210193
12 12 31 100 0.47368
13 12 31 100 0.0526316
15 12 31 100 0.0526316
20 12 31 100 0.0526316
0 13 31 100 0.105277
3 13 31 100 8.20331e-07
7 13 31 100 1.15938e-06
8 13 31 100 1.25199e-06
9 13 31 100 0.105265
10 13 31 100 0.0526322
11 13 31 100 0.155207
12 13 31 100 0.157895
13 13 31 100 0.368393
14 13 31 100 0.000217807
15 13 31 100 1.08436e-05
16 13 31 100 0.0550951
18 13 31 100 1.25397e-06
22 13 31 100 6.74653e-07
27 13 31 100 5.33817e-07
30 13 31 100 7.26555e-07
0 14 31 100 0.160062
2 14 31 100 0.000417893
4 14 31 100 7.38525e-07
10 14 31 100 0.103215
12 14 31 100 0.157646
13 14 31 100 0.157781
14 14 31 100 0.315613
16 14 31 100 0.0526316
17 14 31 100 0.0526321
30 14 31 100 7.9556e-07
0 15 31 100 0.0531725
10 15 31 100 0.0526176
11 15 31 100 0.105263
13 15 31 100 0.21036
14 15 31 100 0.210324
15 15 31 100 0.263036
17 15 31 100 0.0525952
18 15 31 100 0.0526316
0 16 31 100 0.052833
7 16 31 100 5.97431e-07
11 16 31 100 0.000165966
12 16 31 100 0.105097
14 16 31 100 0.263138
15 16 31 100 0.210526
16 16 31 100 0.262975
19 16 31 100 0.105263
26 16 31 100 6.15682e-07
0 17 31 100 0.0442331
7 17 31 100 1.15944e-06
8 17 31 100 5.95317e-07
10 17 31 100 8.15352e-06
11 17 31 100 0.0526314
13 17 31 100 0.105262
15 17 31 100 0.219384
16 17 31 100 0.210297
17 17 31 100 0.262917
20 17 31 100 0.105263
22 17 31 100 6.74653e-07
27 17 31 100 5.33817e-07
0 18 31 100 0.00910079
12 18 31 100 0.0526316
14 18 31 100 0.0524729
15 18 31 100 0.0438059
16 18 31 100 0.105263
17 18 31 100 0.210418
18 18 31 100 0.315789
21 18 31 100 0.105255
30 18 31 100 0.0526316
31 18 31 100 0.0526316
0 19 31 100 0.000508631
13 19 31 100 0.0526316
15 19 31 100 0.0526316
16 19 31 100 0.105243
17 19 31 100 1.02665e-05
18 19 31 100 0.26289
19 19 31 100 0.368216
22 19 31 100 0.0526063
30 19 31 100 0.0526316
31 19 31 100 0.0526312
0 20 31 100 0.0526348
11 20 31 100 1.45247e-05
14 20 31 100 0.0526316
15 20 31 100 0.0526316
16 20 31 100 0.105249
17 20 31 100 0.0526316
18 20 31 100 0.0526316
19 20 31 100 0.210523
20 20 31 100 0.31579
23 20 31 100 0.0526316
25 20 31 100 0.0526316
0 21 31 100 0.107741
2 21 31 100 0.000170949
7 21 31 100 1.15938e-06
8 21 31 100 5.87191e-07
10 21 31 100 6.42938e-07
15 21 31 100 0.0526357
16 21 31 100 0.0526316
17 21 31 100 0.0526316
18 21 31 100 0.0526316
19 21 31 100 0.105263
20 21 31 100 0.157894
21 21 31 100 0.313132
22 21 31 100 6.74653e-07
24 21 31 100 0.0526316
26 21 31 100 0.0526316
27 21 31 100 5.33817e-07
30 21 31 100 7.9556e-07
0 22 31 100 0.0531675
6 22 31 100 2.24572e-06
12 22 31 100 6.69985e-07
16 22 31 100 0.0526316
17 22 31 100 0.105393
18 22 31 100 0.0526316
19 22 31 100 0.105263
20 22 31 100 0.0526316
21 22 31 100 0.157894
22 22 31 100 0.263155
23 22 31 100 0.0526314
25 22 31 100 0.0519673
27 22 31 100 0.0526316
0 23 31 100 0.0554656
13 23 31 100 6.75647e-07
17 23 31 100 0.0526316
18 23 31 100 0.105263
19 23 31 100 0.0526339
20 23 31 100 0.105263
21 23 31 100 0.0526316
22 23 31 100 0.157839
23 23 31 100 0.260615
24 23 31 100 0.0524017
26 23 31 100 0.0526316
28 23 31 100 0.0526231
0 24 31 100 0.000204416
18 24 31 100 0.0526316
19 24 31 100 0.105263
20 24 31 100 0.105263
21 24 31 100 0.105259
22 24 31 100 0.0526355
23 24 31 100 0.157697
24 24 31 100 0.263148
25 24 31 100 0.0526358
27 24 31 100 0.0526316
29 24 31 100 0.0526316
0 25 31 100 0.00046653
19 25 31 100 0.0526316
20 25 31 100 0.105263
21 25 31 100 0.104802
22 25 31 100 0.105259
23 25 31 100 0.0526314
24 25 31 100 0.157899
25 25 31 100 0.263153
26 25 31 100 0.0526316
28 25 31 100 0.0526308
30 25 31 100 0.0526316
0 26 31 100 0.000250746
20 26 31 100 0.0526316
21 26 31 100 0.105263
22 26 31 100 0.105263
23 26 31 100 0.105263
24 26 31 100 0.052387
25 26 31 100 0.157894
26 26 31 100 0.263156
27 26 31 100 0.0526316
29 26 31 100 0.0526285
31 26 31 100 0.0526316
0 27 31 100 0.05562
21 27 31 100 0.0555556
22 27 31 100 0.111108
23 27 31 100 0.111111
24 27 31 100 0.111111
25 27 31 100 0.0555556
26 27 31 100 0.166605
27 27 31 100 0.166667
28 27 31 100 0.0555556
30 27 31 100 0.0555556
31 27 31 100 0.0555556
0 28 31 100 0.115205
22 28 31 100 0.0555556
23 28 31 100 0.111111
24 28 31 100 0.111111
25 28 31 100 0.166622
26 28 31 100 0.107064
27 28 31 100 0.0555556
28 28 31 100 0.111111
29 28 31 100 0.0555556
31 28 31 100 0.111109
0 29 31 100 0.000248854
3 29 31 100 0.0588235
23 29 31 100 0.0588235
24 29 31 100 0.117647
25 29 31 100 0.0585778
26 29 31 100 0.235294
27 29 31 100 0.117647
28 29 31 100 0.117644
29 29 31 100 0.117647
30 29 31 100 0.0588235
31 29 31 100 0.0588235
0 30 31 100 0.000134779
3 30 31 100 0.0588235
24 30 31 100 0.0588235
25 30 31 100 0.117647
26 30 31 100 0.0588233
27 30 31 100 0.235294
28 30 31 100 0.117644
29 30 31 100 0.117516
30 30 31 100 0.117647
31 30 31 100 0.117647
0 31 31 100 0.000759761
3 31 31 100 0.0625
25 31 31 100 0.0624999
26 31 31 100 0.124852
27 31 31 100 0.0625
28 31 31 100 0.249978
29 31 31 100 0.124975
30 31 31 100 0.125001
31 31 31 100 0.186935
0 32 31 100 0.0715719
4 32 31 100 5.8302e-06
5 32 31 100 8.55862e-06
26 32 31 100 0.0714274
27 32 31 100 0.142854
28 32 31 100 0.0714343
29 32 31 100 0.356985
30 32 31 100 0.142855
31 32 31 100 0.142857
0 33 31 100 0.000461307
2 33 31 100 1.18416e-06
27 33 31 100 0.153774
28 33 31 100 0.153846
29 33 31 100 0.0769232
30 33 31 100 0.384226
31 33 31 100 0.230769
0 34 31 100 0.0817883
28 34 31 100 0.2
29 34 31 100 0.2
30 34 31 100 0.1
31 34 31 100 0.418212
29 35 31 100 0.333334
30 35 31 100 0.333333
31 35 31 100 0.333333
26 36 31 100 0.0218185
30 36 31 100 0.478182
31 36 31 100 0.5
31 37 31 100 1
0 1 32 100 0.00697332
1 1 32 100 0.993025
2 1 32 100 1.35069e-06
0 2 32 100 0.00066836
1 2 32 100 1.3458e-06
2 2 32 100 0.91105
3 2 32 100 0.0295847
13 2 32 100 0.0586954
0 3 32 100 0.0600861
2 3 32 100 2.32662e-06
3 3 32 100 0.881088
14 3 32 100 0.0588236
0 4 32 100 0.0598814
3 4 32 100 0.117648
4 4 32 100 0.821921
5 4 32 100 0.000244731
32 4 32 100 0.00030536
0 5 32 100 0.000207073
4 5 32 100 0.176471
5 5 32 100 0.705746
6 5 32 100 0.117576
0 6 32 100 0.00042676
5 6 32 100 0.235294
6 6 32 100 0.646923
7 6 32 100 0.0588236
8 6 32 100 0.0585326
0 7 32 100 0.117647
5 7 32 100 0.0588234
6 7 32 100 0.176469
7 7 32 100 0.588129
8 7 32 100 0.0589298
17 7 32 100 7.35897e-07
0 8 32 100 0.0588653
6 8 32 100 0.117647
7 8 32 100 0.235229
8 8 32 100 0.470611
9 8 32 100 0.117646
17 8 32 100 1.26e-06
0 9 32 100 0.000229649
6 9 32 100 0.0588235
7 9 32 100 0.0588466
8 9 32 100 0.294095
9 9 32 100 0.411587
10 9 32 100 0.117595
32 9 32 100 0.0588235
0 10 32 100 0.000282187
7 10 32 100 0.0588236
8 10 32 100 0.0588232
9 10 32 100 0.294118
10 10 32 100 0.411457
11 10 32 100 0.117673
32 10 32 100 0.0588236
0 11 32 100 0.0390982
8 11 32 100 0.0588236
9 11 32 100 0.0588236
10 11 32 100 0.294106
11 11 32 100 0.314184
12 11 32 100 0.176471
32 11 32 100 0.0584943
0 12 32 100 0.00075392
9 12 32 100 0.0588235
10 12 32 100 0.0588405
11 12 32 100 0.294101
12 12 32 100 0.35282
13 12 32 100 0.175838
32 12 32 100 0.0588235
0 13 32 100 0.000599471
10 13 32 100 0.00649524
11 13 32 100 0.111152
12 13 32 100 0.294116
13 13 32 100 0.352787
14 13 32 100 0.176471
32 13 32 100 0.0583795
0 14 32 100 0.0606727
12 14 32 100 0.0587847
13 14 32 100 0.293423
14 14 32 100 0.293806
15 14 32 100 0.234518
32 14 32 100 0.0587951
0 15 32 100 1.78547e-05
12 15 32 100 0.0588235
13 15 32 100 0.0588235
14 15 32 100 0.294101
15 15 32 100 0.294118
16 15 32 100 0.17647
17 15 32 100 0.0588235
32 15 32 100 0.0588235
0 16 32 100 0.000778976
13 16 32 100 0.0588233
14 16 32 100 0.0588183
15 16 32 100 0.293882
16 16 32 100 0.352874
17 16 32 100 0.176
18 16 32 100 0.0588236
0 17 32 100 0.0602888
7 17 32 100 7.10252e-07
14 17 32 100 0.0588235
15 17 32 100 0.058761
16 17 32 100 0.293927
17 17 32 100 0.293447
18 17 32 100 0.175928
19 17 32 100 0.0588235
0 18 32 100 0.00630005
15 18 32 100 0.0588236
16 18 32 100 0.0588236
17 18 32 100 0.290261
18 18 32 100 0.294106
19 18 32 100 0.235294
20 18 32 100 0.0563921
0 19 32 100 6.25608e-06
16 19 32 100 0.0588235
17 19 32 100 0.0588235
18 19 32 100 0.294116
19 19 32 100 0.352938
20 19 32 100 0.17647
21 19 32 100 0.0588235
0 20 32 100 0.00978556
17 20 32 100 0.0588052
18 20 32 100 0.0588236
19 20 32 100 0.293578
20 20 32 100 0.352941
21 20 32 100 0.167246
22 20 32 100 0.000304026
23 20 32 100 0.0585164
0 21 32 100 0.0282277
18 21 32 100 0.0588235
19 21 32 100 0.0588236
20 21 32 100 0.293756
21 21 32 100 0.384056
22 21 32 100 0.117473
23 21 32 100 1.57417e-05
24 21 32 100 0.0588236
27 21 32 100 6.89624e-07
0 22 32 100 0.00178471
19 22 32 100 0.0588235
20 22 32 100 0.0588235
21 22 32 100 0.294044
22 22 32 100 0.410074
23 22 32 100 0.0876486
24 22 32 100 0.0299781
25 22 32 100 0.0588235
0 23 32 100 7.77355e-05
20 23 32 100 0.0588226
21 23 32 100 0.0588235
22 23 32 100 0.294044
23 23 32 100 0.411763
24 23 32 100 0.0588235
25 23 32 100 0.0588235
26 23 32 100 0.0588226
0 24 32 100 6.39335e-06
18 24 32 100 0.0588235
21 24 32 100 0.0588235
22 24 32 100 0.0588235
23 24 32 100 0.294098
24 24 32 100 0.411778
25 24 32 100 0.0588235
27 24 32 100 0.0588235
0 25 32 100 0.00152561
22 25 32 100 0.0586069
23 25 32 100 0.058803
24 25 32 100 0.293421
25 25 32 100 0.411473
26 25 32 100 0.0585239
28 25 32 100 0.117647
0 26 32 100 0.059367
17 26 32 100 0.0106509
19 26 32 100 7.58717e-07
23 26 32 100 0.0588235
24 26 32 100 0.0588235
25 26 32 100 0.235294
26 26 32 100 0.342401
27 26 32 100 0.175816
29 26 32 100 0.0588235
0 27 32 100 0.120396
20 27 32 100 7.6665e-07
24 27 32 100 0.0588223
25 27 32 100 0.0588236
26 27 32 100 0.173953
27 27 32 100 0.293887
28 27 32 100 0.17647
29 27 32 100 0.0588236
30 27 32 100 0.0588236
0 28 32 100 0.00218049
25 28 32 100 0.117647
26 28 32 100 0.0588235
27 28 32 100 0.235294
28 28 32 100 0.234432
29 28 32 100 0.233976
30 28 32 100 0.0588235
32 28 32 100 0.0588235
0 29 32 100 0.0640163
13 29 32 100 9.54138e-07
26 29 32 100 0.125
27 29 32 100 0.0622914
28 29 32 100 0.249135
29 29 32 100 0.249746
30 29 32 100 0.187498
31 29 32 100 0.0623114
0 30 32 100 0.00324264
27 30 32 100 0.124986
28 30 32 100 0.125014
29 30 32 100 0.249996
30 30 32 100 0.187605
31 30 32 100 0.246656
32 30 32 100 0.0625
0 31 32 100 2.71135e-06
10 31 32 100 0.0666665
27 31 32 100 0.0666818
28 31 32 100 0.0666515
29 31 32 100 0.133331
30 31 32 100 0.266667
31 31 32 100 0.133333
32 31 32 100 0.266667
0 32 32 100 0.00118714
27 32 32 100 0.0909091
29 32 32 100 0.0909091
30 32 32 100 0.181818
31 32 32 100 0.362449
32 32 32 100 0.272727
30 33 32 100 0.111111
31 33 32 100 0.333333
32 33 32 100 0.555556
31 34 32 100 0.25
32 34 32 100 0.75
0 35 32 100 0.000397768
32 35 32 100 0.999602
0 1 33 100 3.94697e-05
1 1 33 100 0.999742
2 1 33 100 0.000218841
0 2 33 100 0.00182566
2 2 33 100 0.748273
3 2 33 100 0.187402
33 2 33 100 0.0624996
0 3 33 100 0.000442634
3 3 33 100 0.749557
4 3 33 100 0.125
8 3 33 100 0.0625
33 3 33 100 0.0625
0 4 33 100 7.40898e-06
4 4 33 100 0.812492
5 4 33 100 0.125001
33 4 33 100 0.0625
0 5 33 100 0.0625041
4 5 33 100 6.99869e-07
5 5 33 100 0.812494
6 5 33 100 0.125
17 5 33 100 7.09834e-07
0 6 33 100 0.0628266
6 6 33 100 0.749674
7 6 33 100 0.125
33 6 33 100 0.0624988
0 7 33 100 0.00297754
2 7 33 100 0.0625
6 7 33 100 0.0625
7 7 33 100 0.562481
8 7 33 100 0.184541
10 7 33 100 0.0625
33 7 33 100 0.0625
0 8 33 100 0.000428299
7 8 33 100 0.125
8 8 33 100 0.562182
9 8 33 100 0.18739
11 8 33 100 0.0625001
33 8 33 100 0.0624995
0 9 33 100 0.000284067
7 9 33 100 0.11911
8 9 33 100 0.0624614
9 9 33 100 0.499755
10 9 33 100 0.192243
12 9 33 100 0.0625001
19 9 33 100 1.20641e-06
22 9 33 100 0.000672276
28 9 33 100 0.000472843
33 9 33 100 0.0625001
0 10 33 100 0.000160043
6 10 33 100 0.06234
7 10 33 100 0.0625
9 10 33 100 2.06605e-06
10 10 33 100 0.5625
11 10 33 100 0.249998
13 10 33 100 0.0625
0 11 33 100 6.66073e-06
7 11 33 100 0.125
11 11 33 100 0.624997
12 11 33 100 0.187497
14 11 33 100 0.0625
0 12 33 100 0.0626389
8 12 33 100 0.0625001
12 12 33 100 0.624853
13 12 33 100 0.1875
15 12 33 100 0.0625001
24 12 33 100 7.54288e-06
0 13 33 100 0.00517593
9 13 33 100 0.0624642
12 13 33 100 0.0625
13 13 33 100 0.619858
14 13 33 100 0.187502
16 13 33 100 0.0625
0 14 33 100 0.0625071
10 14 33 100 0.0625001
14 14 33 100 0.624993
15 14 33 100 0.1875
17 14 33 100 0.0625001
0 15 33 100 0.000215809
12 15 33 100 0.0625
13 15 33 100 0.0625
15 15 33 100 0.624794
16 15 33 100 0.187491
18 15 33 100 0.0625
0 16 33 100 0.00200978
12 16 33 100 0.0625
14 16 33 100 0.0625
16 16 33 100 0.560408
17 16 33 100 0.187582
19 16 33 100 0.0625
31 16 33 100 0.0625
0 17 33 100 0.122449
13 17 33 100 0.0625
15 17 33 100 0.0652379
17 17 33 100 0.499816
18 17 33 100 0.187497
20 17 33 100 0.0625
0 18 33 100 0.000131069
14 18 33 100 0.0625
16 18 33 100 0.125
18 18 33 100 0.437517
19 18 33 100 0.124977
20 18 33 100 0.124897
21 18 33 100 0.0625
33 18 33 100 0.0624776
0 19 33 100 0.0629051
8 19 33 100 8.25384e-07
12 19 33 100 0.0619958
16 19 33 100 0.000501227
17 19 33 100 0.124647
19 19 33 100 0.49995
20 19 33 100 0.0625
21 19 33 100 0.125
22 19 33 100 0.0625
0 20 33 100 0.0638768
17 20 33 100 0.0624988
18 20 33 100 0.0625
19 20 33 100 0.0625
20 20 33 100 0.43614
21 20 33 100 0.0625
22 20 33 100 0.062498
23 20 33 100 0.124984
25 20 33 100 2.65812e-06
33 20 33 100 0.0625
0 21 33 100 0.0626386
8 21 33 100 7.02283e-07
14 21 33 100 6.92278e-07
18 21 33 100 0.0625
19 21 33 100 0.0625
20 21 33 100 0.0625
21 21 33 100 0.437434
22 21 33 100 0.0624946
23 21 33 100 0.0625
24 21 33 100 0.124932
33 21 33 100 0.0625
0 22 33 100 0.0658413
18 22 33 100 0.0624999
19 22 33 100 0.0608567
20 22 33 100 0.0625
21 22 33 100 0.0625
22 22 33 100 0.436652
23 22 33 100 0.061884
24 22 33 100 0.0625
25 22 33 100 0.124766
0 23 33 100 0.000601922
19 23 33 100 0.124993
20 23 33 100 0.0625
21 23 33 100 0.062498
22 23 33 100 0.0624843
23 23 33 100 0.436944
24 23 33 100 0.0625
25 23 33 100 0.0624993
26 23 33 100 0.12498
0 24 33 100 0.00354802
8 24 33 100 0.0625
20 24 33 100 0.125
21 24 33 100 0.0597885
22 24 33 100 0.0625
23 24 33 100 0.0620641
24 24 33 100 0.374852
25 24 33 100 0.0625
26 24 33 100 0.0623069
27 24 33 100 0.12494
0 25 33 100 0.0559345
8 25 33 100 0.0624378
13 25 33 100 7.96373e-07
21 25 33 100 0.125
22 25 33 100 0.0625
23 25 33 100 0.0624993
24 25 33 100 0.069392
25 25 33 100 0.312237
26 25 33 100 0.0625078
27 25 33 100 0.0625041
28 25 33 100 0.0625
29 25 33 100 0.0624863
0 26 33 100 0.000280937
8 26 33 100 0.0625
22 26 33 100 0.124924
23 26 33 100 0.0625
25 26 33 100 0.125008
26 26 33 100 0.374992
27 26 33 100 0.0625
28 26 33 100 0.0625
29 26 33 100 0.0625
30 26 33 100 0.0622953
0 27 33 100 4.86421e-05
8 27 33 100 0.0625
23 27 33 100 0.125
24 27 33 100 0.0625
26 27 33 100 0.124983
27 27 33 100 0.374998
28 27 33 100 0.0624883
29 27 33 100 0.0625
30 27 33 100 0.0625
31 27 33 100 0.0624826
0 28 33 100 0.0625467
24 28 33 100 0.125
25 28 33 100 0.0625001
27 28 33 100 0.0625001
28 28 33 100 0.3125
29 28 33 100 0.0625001
30 28 33 100 0.124953
31 28 33 100 0.0625001
32 28 33 100 0.0625001
33 28 33 100 0.0624993
0 29 33 100 0.0664892
23 29 33 100 1.00592e-06
25 29 33 100 0.124954
26 29 33 100 0.0625
27 29 33 100 3.31004e-06
28 29 33 100 0.0624984
29 29 33 100 0.309435
30 29 33 100 0.0616225
31 29 33 100 0.124997
32 29 33 100 0.0625
33 29 33 100 0.125
0 30 33 100 0.00240522
24 30 33 100 0.0666667
26 30 33 100 0.133333
27 30 33 100 0.0666667
28 30 33 100 0.0666442
29 30 33 100 0.0666667
30 30 33 100 0.33235
32 30 33 100 0.132576
33 30 33 100 0.132692
0 31 33 100 0.00342208
24 31 33 100 0.0714286
27 31 33 100 0.142857
28 31 33 100 0.0714283
29 31 33 100 0.0714447
30 31 33 100 0.0714197
31 31 33 100 0.353729
33 31 33 100 0.21427
0 32 33 100 0.0834035
28 32 33 100 0.166616
29 32 33 100 0.0833334
30 32 33 100 0.0833334
31 32 33 100 0.0833333
32 32 33 100 0.416647
33 32 33 100 0.0833334
29 33 33 100 0.181818
30 33 33 100 0.0909091
31 33 33 100 0.0909091
32 33 33 100 0.0909091
33 33 33 100 0.545455
30 34 33 100 0.4
31 34 33 100 0.2
32 34 33 100 0.2
33 34 33 100 0.2
31 35 33 100 0.5
32 35 33 100 0.25
33 35 33 100 0.25
32 36 33 100 0.666666
33 36 33 100 0.333334
33 37 33 100 1
0 1 34 100 5.58423e-05
1 1 34 100 0.999937
2 1 34 100 3.93414e-06
3 1 34 100 3.30991e-06
0 2 34 100 0.0905359
1 2 34 100 0.000159167
2 2 34 100 0.818182
3 2 34 100 0.0909057
28 2 34 100 0.000217412
0 3 34 100 0.182393
2 3 34 100 5.16349e-05
3 3 34 100 0.726673
4 3 34 100 0.0908513
24 3 34 100 2.86158e-05
25 3 34 100 1.29243e-06
28 3 34 100 1.26917e-06
0 4 34 100 0.0956356
2 4 34 100 0.0908218
3 4 34 100 2.68754e-05
4 4 34 100 0.633082
5 4 34 100 0.180434
0 5 34 100 0.00140949
3 5 34 100 0.0909072
4 5 34 100 0.0909091
5 5 34 100 0.634956
6 5 34 100 0.0909091
8 5 34 100 0.0909091
0 6 34 100 0.00139851
4 6 34 100 0.0909091
6 6 34 100 0.634965
7 6 34 100 0.181818
8 6 34 100 0.0909091
5 7 34 100 0.0909091
7 7 34 100 0.636364
8 7 34 100 0.272727
0 8 34 100 0.12581
6 8 34 100 0.0909101
8 8 34 100 0.545116
9 8 34 100 0.238164
0 9 34 100 0.179936
7 9 34 100 0.0909091
8 9 34 100 0.090921
9 9 34 100 0.454544
10 9 34 100 0.183687
17 9 34 100 1.07325e-06
24 9 34 100 1.20298e-06
32 9 34 100 1.07748e-06
0 10 34 100 0.181832
8 10 34 100 0.0909091
9 10 34 100 0.0909091
10 10 34 100 0.363659
11 10 34 100 0.27269
17 10 34 100 1.07325e-06
32 10 34 100 1.07748e-06
0 11 34 100 0.00217325
9 11 34 100 0.0935771
10 11 34 100 0.270842
11 11 34 100 0.363634
12 11 34 100 0.269774
0 12 34 100 2.51446e-06
10 12 34 100 0.0909091
11 12 34 100 0.272727
12 12 34 100 0.363634
13 12 34 100 0.272727
0 13 34 100 8.67566e-05
11 13 34 100 0.0909091
12 13 34 100 0.272727
13 13 34 100 0.363615
14 13 34 100 0.272661
0 14 34 100 0.0903716
12 14 34 100 0.0909091
13 14 34 100 0.272722
14 14 34 100 0.27327
15 14 34 100 0.272727
0 15 34 100 0.000124338
11 15 34 100 1.84622e-06
13 15 34 100 0.0909091
14 15 34 100 0.36351
15 15 34 100 0.363636
16 15 34 100 0.181818
0 16 34 100 0.00936895
14 16 34 100 0.0909092
15 16 34 100 0.445171
16 16 34 100 0.272732
17 16 34 100 0.181818
0 17 34 100 0.00113832
15 17 34 100 0.181802
16 17 34 100 0.272727
17 17 34 100 0.363351
18 17 34 100 0.180981
0 18 34 100 0.091585
5 18 34 100 1.18993e-06
16 18 34 100 0.0909091
17 18 34 100 0.272313
18 18 34 100 0.363376
19 18 34 100 0.181816
0 19 34 100 9.91173e-06
17 19 34 100 0.181818
18 19 34 100 0.272727
19 19 34 100 0.363627
20 19 34 100 0.181818
0 20 34 100 0.00141002
18 20 34 100 0.180826
19 20 34 100 0.363227
20 20 34 100 0.272719
21 20 34 100 0.181818
0 21 34 100 3.7824e-05
18 21 34 100 4.92464e-06
19 21 34 100 0.181813
20 21 34 100 0.363599
21 21 34 100 0.272727
22 21 34 100 0.181818
0 22 34 100 0.00138604
20 22 34 100 0.0909105
21 22 34 100 0.453155
22 22 34 100 0.272731
23 22 34 100 0.181818
0 23 34 100 0.181952
5 23 34 100 0.000302936
6 23 34 100 9.55948e-07
10 23 34 100 1.18019e-06
14 23 34 100 0.0909104
18 23 34 100 1.20581e-06
21 23 34 100 0.090911
22 23 34 100 0.363533
23 23 34 100 0.0909261
24 23 34 100 0.181462
0 24 34 100 0.0677046
22 24 34 100 0.0909091
23 24 34 100 0.545455
24 24 34 100 0.114113
25 24 34 100 0.181818
0 25 34 100 0.00105003
24 25 34 100 0.635313
25 25 34 100 0.181818
26 25 34 100 0.181818
0 26 34 100 0.00550221
25 26 34 100 0.630861
26 26 34 100 0.181818
27 26 34 100 0.181818
0 27 34 100 1.73616e-05
26 27 34 100 0.636349
27 27 34 100 0.181818
28 27 34 100 0.0909091
29 27 34 100 0.0909066
0 28 34 100 0.0103127
15 28 34 100 9.21751e-06
22 28 34 100 3.09887e-06
26 28 34 100 0.0909091
27 28 34 100 0.53513
28 28 34 100 0.181819
29 28 34 100 0.0909073
30 28 34 100 0.0909089
0 29 34 100 0.00564119
26 29 34 100 0.0909091
27 29 34 100 0.0882453
28 29 34 100 0.453307
29 29 34 100 0.180447
30 29 34 100 0.0909091
31 29 34 100 0.0905416
0 30 34 100 0.00776118
27 30 34 100 0.0909201
28 30 34 100 0.090898
29 30 34 100 0.446787
30 30 34 100 0.181818
31 30 34 100 0.0909091
32 30 34 100 0.0909069
0 31 34 100 0.000118344
28 31 34 100 0.0909091
29 31 34 100 0.181706
30 31 34 100 0.363631
31 31 34 100 0.181818
32 31 34 100 0.0909091
33 31 34 100 0.0909091
0 32 34 100 0.000207501
29 32 34 100 0.0907848
30 32 34 100 0.181818
31 32 34 100 0.363553
32 32 34 100 0.181818
33 32 34 100 0.0909091
34 32 34 100 0.0909091
0 33 34 100 0.1
30 33 34 100 0.1
31 33 34 100 0.1
32 33 34 100 0.4
33 33 34 100 0.2
34 33 34 100 0.1
0 34 34 100 0.113886
31 34 34 100 0.220116
33 34 34 100 0.443776
34 34 34 100 0.222222
0 35 34 100 0.142862
32 35 34 100 0.285709
34 35 34 100 0.571429
32 36 34 100 0.333333
33 36 34 100 0.666667
33 37 34 100 0.333333
34 37 34 100 0.666667
34 38 34 100 1
0 1 35 100 0.00444153
1 1 35 100 0.942922
2 1 35 100 5.06178e-06
3 1 35 100 0.0526316
0 2 35 100 0.00102686
1 2 35 100 0.104527
2 2 35 100 0.842076
3 2 35 100 0.0523675
5 2 35 100 2.53311e-06
0 3 35 100 0.000641043
2 3 35 100 0.105229
3 3 35 100 0.841498
4 3 35 100 0.0526316
0 4 35 100 0.0425858
3 4 35 100 0.052507
4 4 35 100 0.885416
5 4 35 100 0.00889974
29 4 35 100 0.0105911
0 5 35 100 0.0531528
4 5 35 100 0.105263
5 5 35 100 0.788963
6 5 35 100 0.0526211
0 6 35 100 0.00123796
1 6 35 100 1.32829e-06
5 6 35 100 0.156962
6 6 35 100 0.789156
7 6 35 100 0.0526432
0 7 35 100 0.0131356
5 7 35 100 0.00500319
6 7 35 100 0.144873
7 7 35 100 0.789457
10 7 35 100 0.0475316
0 8 35 100 0.000214594
6 8 35 100 0.0524502
7 8 35 100 0.157895
8 8 35 100 0.789352
9 8 35 100 1.44541e-06
10 8 35 100 8.74325e-05
0 9 35 100 0.00076695
7 9 35 100 0.0525867
8 9 35 100 0.157893
9 9 35 100 0.788753
0 10 35 100 0.00418775
2 10 35 100 1.0624e-06
8 10 35 100 0.0526315
9 10 35 100 0.207096
10 10 35 100 0.735762
23 10 35 100 7.23191e-07
27 10 35 100 0.000320621
0 11 35 100 6.45392e-05
9 11 35 100 0.105263
10 11 35 100 0.157895
11 11 35 100 0.736775
12 11 35 100 2.70896e-06
0 12 35 100 0.0528681
10 12 35 100 0.0526316
11 12 35 100 0.157881
12 12 35 100 0.736617
13 12 35 100 2.52278e-06
0 13 35 100 0.000600591
6 13 35 100 8.01694e-07
10 13 35 100 0.104865
12 13 35 100 0.157897
13 13 35 100 0.736634
14 13 35 100 2.15234e-06
0 14 35 100 0.00866532
11 14 35 100 0.101557
13 14 35 100 0.157897
14 14 35 100 0.681618
15 14 35 100 0.0502628
0 15 35 100 0.0030512
12 15 35 100 0.105165
14 15 35 100 0.208359
15 15 35 100 0.630744
16 15 35 100 4.94622e-05
22 15 35 100 0.0526316
0 16 35 100 0.0529955
13 16 35 100 0.0526316
15 16 35 100 0.157896
16 16 35 100 0.683845
35 16 35 100 0.0526314
0 17 35 100 4.84345e-05
13 17 35 100 0.0526316
14 17 35 100 0.0526316
16 17 35 100 0.157895
17 17 35 100 0.684162
35 17 35 100 0.0526316
0 18 35 100 0.0686748
14 18 35 100 0.0526311
15 18 35 100 0.0526316
17 18 35 100 0.210711
18 18 35 100 0.615346
29 18 35 100 5.79006e-06
0 19 35 100 0.158023
10 19 35 100 6.35805e-07
14 19 35 100 0.00289003
15 19 35 100 0.0497412
16 19 35 100 0.0526342
17 19 35 100 1.45548e-06
18 19 35 100 0.157887
19 19 35 100 0.526134
23 19 35 100 5.57792e-05
26 19 35 100 5.31687e-07
30 19 35 100 0.0526322
0 20 35 100 0.0432136
16 20 35 100 0.0526316
17 20 35 100 0.0526302
18 20 35 100 0.114687
19 20 35 100 0.210526
20 20 35 100 0.526306
21 20 35 100 5.02583e-06
0 21 35 100 0.000121048
17 21 35 100 0.0526316
18 21 35 100 0.0526316
19 21 35 100 0.157895
20 21 35 100 0.210471
21 21 35 100 0.52625
0 22 35 100 0.0010912
7 22 35 100 0.0526316
10 22 35 100 0.0526316
18 22 35 100 0.0526316
20 22 35 100 0.157864
21 22 35 100 0.210312
22 22 35 100 0.420206
34 22 35 100 0.0525235
35 22 35 100 0.000108079
0 23 35 100 0.0527153
7 23 35 100 0.0526316
11 23 35 100 2.94908e-06
19 23 35 100 0.0526166
20 23 35 100 1.49449e-05
21 23 35 100 0.157895
22 23 35 100 0.210459
23 23 35 100 0.421033
35 23 35 100 0.0526316
0 24 35 100 0.0533332
7 24 35 100 0.0526316
11 24 35 100 2.94921e-06
19 24 35 100 1.49449e-05
20 24 35 100 0.0526167
22 24 35 100 0.210124
23 24 35 100 0.210525
24 24 35 100 0.420752
0 25 35 100 0.00206676
7 25 35 100 0.0526316
21 25 35 100 0.105262
23 25 35 100 0.156188
24 25 35 100 0.262799
25 25 35 100 0.421053
0 26 35 100 0.0558369
18 26 35 100 3.08261e-06
22 26 35 100 0.157895
23 26 35 100 0.0526316
24 26 35 100 0.102382
25 26 35 100 0.263156
26 26 35 100 0.368096
0 27 35 100 0.0526324
7 27 35 100 8.69962e-07
8 27 35 100 6.05419e-07
13 27 35 100 5.71837e-07
23 27 35 100 0.157895
24 27 35 100 0.0526316
25 27 35 100 0.105261
26 27 35 100 0.159409
27 27 35 100 0.419536
28 27 35 100 0.0526335
0 28 35 100 0.0527103
24 28 35 100 0.105263
25 28 35 100 0.105263
26 28 35 100 0.105195
27 28 35 100 0.105262
28 28 35 100 0.421043
29 28 35 100 0.0526316
32 28 35 100 0.0526316
0 29 35 100 0.0198616
5 29 35 100 0.0526316
25 29 35 100 0.105262
26 29 35 100 0.0525852
27 29 35 100 0.157836
28 29 35 100 0.105263
29 29 35 100 0.401297
30 29 35 100 0.0526316
33 29 35 100 0.0526316
0 30 35 100 0.0870674
5 30 35 100 0.0526315
23 30 35 100 0.00087054
26 30 35 100 0.105263
27 30 35 100 0.0526316
28 30 35 100 0.105191
29 30 35 100 0.121427
30 30 35 100 0.317894
31 30 35 100 0.105263
34 30 35 100 0.0517611
0 31 35 100 0.107748
5 31 35 100 0.0526316
21 31 35 100 1.19799e-06
23 31 35 100 6.33479e-07
27 31 35 100 0.105263
28 31 35 100 0.105263
29 31 35 100 0.105263
30 31 35 100 0.155408
31 31 35 100 0.210527
32 31 35 100 0.105262
35 31 35 100 0.0526316
0 32 35 100 0.0560934
26 32 35 100 3.76192e-06
28 32 35 100 0.110883
29 32 35 100 0.0555556
30 32 35 100 0.111106
31 32 35 100 0.277477
32 32 35 100 0.277778
33 32 35 100 0.111103
0 33 35 100 0.0555671
29 33 35 100 0.111111
30 33 35 100 0.0555556
31 33 35 100 0.111111
32 33 35 100 0.277768
33 33 35 100 0.222221
34 33 35 100 0.166667
0 34 35 100 0.00570385
29 34 35 100 0.0500006
30 34 35 100 0.0555556
31 34 35 100 0.111111
32 34 35 100 0.111111
33 34 35 100 0.277777
34 34 35 100 0.166667
35 34 35 100 0.222073
0 35 35 100 0.062498
30 35 35 100 0.0625002
31 35 35 100 0.125
32 35 35 100 0.0625002
33 35 35 100 0.125
34 35 35 100 0.125
35 35 35 100 0.437501
0 36 35 100 0.000440636
28 36 35 100 0.0909028
31 36 35 100 0.0909091
32 36 35 100 0.181699
33 36 35 100 0.0909091
34 36 35 100 0.181818
35 36 35 100 0.363321
0 37 35 100 1.24489e-05
32 37 35 100 0.111111
33 37 35 100 0.22221
34 37 35 100 0.111111
35 37 35 100 0.555555
0 38 35 100 0.000133789
33 38 35 100 0.199866
34 38 35 100 0.4
35 38 35 100 0.4
0 39 35 100 0.0162751
34 39 35 100 0.333333
35 39 35 100 0.650392
0 40 35 100 0.333791
35 40 35 100 0.666209
35 41 35 100 1
0 1 36 100 0.000448865
1 1 36 100 0.904312
2 1 36 100 0.0476199
20 1 36 100 0.0476191
0 2 36 100 0.000363221
2 2 36 100 0.85678
3 2 36 100 0.0952381
21 2 36 100 0.0476191
0 3 36 100 0.00130799
3 3 36 100 0.808215
4 3 36 100 0.142857
21 3 36 100 0.0476191
36 3 36 100 6.53242e-07
0 4 36 100 0.00106183
1 4 36 100 0.0476191
4 4 36 100 0.76085
5 4 36 100 0.14285
36 4 36 100 0.047619
0 5 36 100 0.00123732
2 5 36 100 0.0475608
4 5 36 100 0.0476191
5 5 36 100 0.714286
6 5 36 100 0.142159
7 5 36 100 0.0471379
0 6 36 100 0.000892545
3 6 36 100 0.0476191
5 6 36 100 0.0476191
6 6 36 100 0.713393
7 6 36 100 0.142857
36 6 36 100 0.0476191
0 7 36 100 0.000275198
4 7 36 100 0.0476188
6 7 36 100 0.0476191
7 7 36 100 0.666398
8 7 36 100 0.142852
14 7 36 100 0.0476183
36 7 36 100 0.0476191
0 8 36 100 0.0494563
5 8 36 100 0.0476191
7 8 36 100 0.0476191
8 8 36 100 0.61721
9 8 36 100 0.0952374
10 8 36 100 0.0476191
14 8 36 100 0.0476191
15 8 36 100 4.94536e-07
36 8 36 100 0.0476198
0 9 36 100 0.00440615
6 9 36 100 0.0476175
7 9 36 100 0.0476041
8 9 36 100 0.0476191
9 9 36 100 0.61869
10 9 36 100 0.0952381
11 9 36 100 0.0476191
35 9 36 100 0.0435871
36 9 36 100 0.0476191
0 10 36 100 0.00270713
7 10 36 100 0.0476176
8 10 36 100 0.0476191
9 10 36 100 0.0952379
10 10 36 100 0.619015
11 10 36 100 0.092564
12 10 36 100 0.0476191
19 10 36 100 4.84954e-07
36 10 36 100 0.0476191
0 11 36 100 0.0449934
8 11 36 100 0.047619
9 11 36 100 0.0505783
10 11 36 100 0.0475936
11 11 36 100 0.618932
12 11 36 100 0.142663
13 11 36 100 0.0476191
36 11 36 100 1.40203e-06
0 12 36 100 0.164714
9 12 36 100 0.0476192
10 12 36 100 0.0476199
11 12 36 100 0.0476328
12 12 36 100 0.501938
13 12 36 100 0.0952547
14 12 36 100 0.0476192
20 12 36 100 0.0476028
0 13 36 100 0.0486736
4 13 36 100 0.0476189
7 13 36 100 0.0476191
10 13 36 100 0.0476191
11 13 36 100 0.047619
12 13 36 100 0.0476405
13 13 36 100 0.570353
14 13 36 100 0.0476191
15 13 36 100 0.047619
20 13 36 100 0.0476191
0 14 36 100 4.52024e-05
7 14 36 100 0.0476191
10 14 36 100 0.0476176
11 14 36 100 0.0476191
12 14 36 100 0.0952259
13 14 36 100 0.0476191
14 14 36 100 0.666629
15 14 36 100 6.42161e-06
16 14 36 100 0.0476191
0 15 36 100 0.000817849
10 15 36 100 0.0476189
11 15 36 100 0.047557
12 15 36 100 0.0476191
13 15 36 100 0.142857
14 15 36 100 0.142136
15 15 36 100 0.523774
16 15 36 100 6.65095e-07
17 15 36 100 0.0476191
0 16 36 100 0.000121508
12 16 36 100 0.0476191
13 16 36 100 0.0476191
14 16 36 100 0.190469
15 16 36 100 0.0952201
16 16 36 100 0.571326
18 16 36 100 0.0476191
34 16 36 100 5.68923e-06
0 17 36 100 0.00316185
8 17 36 100 5.72567e-07
10 17 36 100 0.0476189
13 17 36 100 0.0476191
14 17 36 100 0.0474158
15 17 36 100 0.190418
16 17 36 100 0.0926119
17 17 36 100 0.523535
19 17 36 100 0.0476191
0 18 36 100 0.0502192
14 18 36 100 0.0476202
15 18 36 100 0.0476191
16 18 36 100 0.187925
17 18 36 100 0.0476179
18 18 36 100 0.523768
19 18 36 100 0.0476191
20 18 36 100 0.0476114
0 19 36 100 0.000947
15 19 36 100 0.0476191
16 19 36 100 0.0491975
17 19 36 100 0.236509
18 19 36 100 0.0474086
19 19 36 100 0.427842
20 19 36 100 0.142857
21 19 36 100 0.0476191
0 20 36 100 0.0476629
16 20 36 100 0.0476191
17 20 36 100 0.0476191
18 20 36 100 0.142856
19 20 36 100 0.0951966
20 20 36 100 0.42857
21 20 36 100 0.142857
22 20 36 100 0.0476191
0 21 36 100 0.011566
17 21 36 100 0.0476191
18 21 36 100 0.0448065
19 21 36 100 0.0952348
20 21 36 100 0.186489
21 21 36 100 0.365696
22 21 36 100 0.20097
23 21 36 100 0.0476191
0 22 36 100 0.101532
18 22 36 100 0.0952365
19 22 36 100 0.0476191
20 22 36 100 0.0952364
21 22 36 100 0.0889518
22 22 36 100 0.380951
23 22 36 100 0.142855
24 22 36 100 0.0476183
0 23 36 100 0.0485022
19 23 36 100 0.142451
20 23 36 100 0.0476191
21 23 36 100 0.14261
22 23 36 100 0.142755
23 23 36 100 0.28571
24 23 36 100 0.142733
25 23 36 100 0.0476191
36 23 36 100 5.62898e-07
0 24 36 100 0.0008969
20 24 36 100 0.142857
21 24 36 100 0.0476191
22 24 36 100 0.237561
23 24 36 100 0.0952394
24 24 36 100 0.285362
25 24 36 100 0.142857
26 24 36 100 0.0476075
0 25 36 100 4.20554e-06
21 25 36 100 0.142857
22 25 36 100 0.0952381
23 25 36 100 0.190475
24 25 36 100 0.0952381
25 25 36 100 0.285714
26 25 36 100 0.142854
27 25 36 100 0.047619
0 26 36 100 0.048431
19 26 36 100 8.24274e-07
22 26 36 100 0.0952352
23 26 36 100 0.0952378
24 26 36 100 0.190475
25 26 36 100 0.0952382
26 26 36 100 0.284764
27 26 36 100 0.142857
28 26 36 100 0.0476191
34 26 36 100 2.43431e-06
36 26 36 100 0.000140068
0 27 36 100 0.0010251
21 27 36 100 0.0476191
23 27 36 100 0.0952381
24 27 36 100 0.0952107
25 27 36 100 0.190435
26 27 36 100 0.0948488
27 27 36 100 0.285181
28 27 36 100 0.142857
29 27 36 100 0.047585
0 28 36 100 0.0953478
19 28 36 100 8.23912e-07
24 28 36 100 0.0475585
25 28 36 100 0.0951405
26 28 36 100 0.190476
27 28 36 100 0.095238
28 28 36 100 0.285621
29 28 36 100 0.142857
30 28 36 100 0.0476191
36 28 36 100 0.000140065
0 29 36 100 0.0526188
15 29 36 100 5.80069e-06
24 29 36 100 0.0476191
25 29 36 100 0.0952035
26 29 36 100 0.0928345
27 29 36 100 0.190476
28 29 36 100 0.0952377
29 29 36 100 0.238095
30 29 36 100 0.14029
31 29 36 100 0.0476191
0 30 36 100 0.0077312
25 30 36 100 0.047619
26 30 36 100 0.142846
27 30 36 100 0.0476191
28 30 36 100 0.183451
29 30 36 100 0.142857
30 30 36 100 0.238065
31 30 36 100 0.142192
32 30 36 100 0.0476191
36 30 36 100 6.20392e-07
0 31 36 100 0.000582914
26 31 36 100 0.0476191
27 31 36 100 0.142857
28 31 36 100 0.0952381
29 31 36 100 0.142855
30 31 36 100 0.142379
31 31 36 100 0.237989
32 31 36 100 0.142861
33 31 36 100 0.0476191
0 32 36 100 0.0502014
27 32 36 100 0.0476065
28 32 36 100 0.142857
29 32 36 100 0.0476115
30 32 36 100 0.142856
31 32 36 100 0.142861
32 32 36 100 0.238091
33 32 36 100 0.140297
34 32 36 100 0.00415863
35 32 36 100 0.0434604
0 33 36 100 0.0569214
18 33 36 100 6.03322e-07
28 33 36 100 0.2
29 33 36 100 0.05
30 33 36 100 0.05
31 33 36 100 0.14973
32 33 36 100 0.140934
33 33 36 100 0.199672
34 33 36 100 0.152742
0 34 36 100 0.000195393
28 34 36 100 0.05
29 34 36 100 0.104548
30 34 36 100 0.0454486
31 34 36 100 0.0499921
32 34 36 100 0.200008
33 34 36 100 0.199822
34 34 36 100 0.15
35 34 36 100 0.199986
28 35 36 100 0.055553
30 35 36 100 0.0555556
31 35 36 100 0.0555666
32 35 36 100 0.0555468
33 35 36 100 0.222222
34 35 36 100 0.166667
35 35 36 100 0.16991
36 35 36 100 0.218979
0 36 36 100 0.000693711
31 36 36 100 0.0666667
32 36 36 100 0.133317
33 36 36 100 0.0665789
34 36 36 100 0.266634
35 36 36 100 0.199443
36 36 36 100 0.266667
0 37 36 100 0.000618164
32 37 36 100 0.0833333
33 37 36 100 0.166667
34 37 36 100 0.0833333
35 37 36 100 0.332715
36 37 36 100 0.333333
0 38 36 100 1.49282e-06
33 38 36 100 0.11111
34 38 36 100 0.222222
35 38 36 100 0.222222
36 38 36 100 0.444444
34 39 36 100 0.142857
35 39 36 100 0.428571
36 39 36 100 0.428572
0 40 36 100 0.00279672
35 40 36 100 0.5
36 40 36 100 0.497203
36 41 36 100 1
0 1 37 100 0.0399577
1 1 37 100 0.919979
2 1 37 100 5.14923e-07
7 1 37 100 0.04
21 1 37 100 3.61525e-06
22 1 37 100 3.69209e-06
26 1 37 100 5.57569e-05
0 2 37 100 0.0508052
1 2 37 100 0.0400005
2 2 37 100 0.828608
3 2 37 100 0.04
8 2 37 100 0.039989
28 2 37 100 2.14387e-06
29 2 37 100 0.000212662
36 2 37 100 0.000382721
0 3 37 100 0.0707449
1 3 37 100 0.04
2 3 37 100 0.0104887
3 3 37 100 0.718755
4 3 37 100 0.04
6 3 37 100 5.16282e-06
8 3 37 100 2.67231e-06
9 3 37 100 0.04
10 3 37 100 0.04
13 3 37 100 7.79628e-07
22 3 37 100 0.04
25 3 37 100 2.85746e-06
0 4 37 100 0.000116282
2 4 37 100 0.0399993
3 4 37 100 0.119992
4 4 37 100 0.679899
5 4 37 100 0.04
6 4 37 100 0.0399928
10 4 37 100 0.04
22 4 37 100 0.04
0 5 37 100 0.0403681
3 5 37 100 0.0399992
4 5 37 100 0.159989
5 5 37 100 0.679643
6 5 37 100 0.04
23 5 37 100 0.04
0 6 37 100 0.0408171
3 6 37 100 0.0399997
4 6 37 100 0.04
5 6 37 100 0.119992
6 6 37 100 0.679191
7 6 37 100 0.0400011
36 6 37 100 0.04
0 7 37 100 0.00103496
4 7 37 100 0.0399999
5 7 37 100 0.04
6 7 37 100 0.139191
7 7 37 100 0.619534
8 7 37 100 0.0799548
11 7 37 100 0.040286
37 7 37 100 0.04
0 8 37 100 0.000284355
5 8 37 100 0.04
6 8 37 100 0.04
7 8 37 100 0.2
8 8 37 100 0.599974
9 8 37 100 0.08
12 8 37 100 0.0397415
0 9 37 100 0.0410674
6 9 37 100 0.04
7 9 37 100 0.080061
8 9 37 100 0.039991
9 9 37 100 0.63888
10 9 37 100 0.08
13 9 37 100 0.04
18 9 37 100 4.25487e-07
37 9 37 100 0.04
0 10 37 100 0.0052523
6 10 37 100 0.04
7 10 37 100 0.0799485
8 10 37 100 0.0790632
10 10 37 100 0.578708
11 10 37 100 0.12
13 10 37 100 0.0556424
14 10 37 100 0.00138574
37 10 37 100 0.04
0 11 37 100 0.0846162
2 11 37 100 4.97367e-07
6 11 37 100 0.04
7 11 37 100 0.04
8 11 37 100 0.0755125
9 11 37 100 0.0800001
10 11 37 100 0.0388056
11 11 37 100 0.439998
12 11 37 100 0.08
14 11 37 100 0.04
15 11 37 100 0.0799147
17 11 37 100 5.15789e-07
23 11 37 100 0.0011492
36 11 37 100 3.01418e-06
0 12 37 100 2.5753e-05
9 12 37 100 0.08
10 12 37 100 0.16
11 12 37 100 0.0799803
12 12 37 100 0.44
13 12 37 100 0.119999
15 12 37 100 0.04
16 12 37 100 0.0799955
0 13 37 100 0.0429794
9 13 37 100 4.93303e-07
10 13 37 100 0.0799924
11 13 37 100 0.15982
12 13 37 100 0.0799998
13 13 37 100 0.397282
14 13 37 100 0.119928
16 13 37 100 0.0399974
17 13 37 100 0.04
19 13 37 100 0.0194033
30 13 37 100 0.0205972
32 13 37 100 5.64309e-07
0 14 37 100 0.0803622
11 14 37 100 0.04
12 14 37 100 0.16
13 14 37 100 0.079802
14 14 37 100 0.399978
15 14 37 100 0.0798635
16 14 37 100 0.04
17 14 37 100 0.0399945
18 14 37 100 0.04
31 14 37 100 0.04
0 15 37 100 0.00383061
11 15 37 100 0.04
12 15 37 100 0.04
13 15 37 100 0.159673
14 15 37 100 0.12
15 15 37 100 0.396497
16 15 37 100 0.08
18 15 37 100 0.0399989
19 15 37 100 0.04
31 15 37 100 0.04
32 15 37 100 0.04
0 16 37 100 0.0400648
7 16 37 100 4.174e-07
12 16 37 100 0.0398945
13 16 37 100 0.04
14 16 37 100 0.159996
15 16 37 100 0.0806203
16 16 37 100 0.399981
17 16 37 100 0.0794411
19 16 37 100 0.0399993
21 16 37 100 0.0400004
29 16 37 100 1.73329e-06
32 16 37 100 0.04
34 16 37 100 0.04
0 17 37 100 1.15517e-06
13 17 37 100 0.04
14 17 37 100 0.04
15 17 37 100 0.2
16 17 37 100 0.12
17 17 37 100 0.399876
18 17 37 100 0.0801231
20 17 37 100 0.04
21 17 37 100 0.04
35 17 37 100 0.04
0 18 37 100 0.0835581
9 18 37 100 0.04
11 18 37 100 2.05497e-05
14 18 37 100 0.04
15 18 37 100 0.04
16 18 37 100 0.199584
17 18 37 100 0.0788829
18 18 37 100 0.359993
19 18 37 100 0.0779613
22 18 37 100 0.04
36 18 37 100 0.04
0 19 37 100 0.120473
10 19 37 100 0.0400001
15 19 37 100 0.04
17 19 37 100 0.239995
18 19 37 100 0.0397843
19 19 37 100 0.319823
20 19 37 100 0.119925
23 19 37 100 0.0399999
37 19 37 100 0.04
0 20 37 100 0.00444836
16 20 37 100 0.0833334
17 20 37 100 0.0416568
18 20 37 100 0.25
19 20 37 100 0.0833331
20 20 37 100 0.328897
21 20 37 100 0.166666
24 20 37 100 0.0416667
0 21 37 100 0.00829137
17 21 37 100 0.0833065
19 21 37 100 0.283403
20 21 37 100 0.125
21 21 37 100 0.291663
22 21 37 100 0.16667
25 21 37 100 0.0416667
0 22 37 100 0.000180145
18 22 37 100 0.0833334
20 22 37 100 0.291283
21 22 37 100 0.167047
22 22 37 100 0.249996
23 22 37 100 0.166601
26 22 37 100 0.0415598
0 23 37 100 0.00151856
19 23 37 100 0.0832385
20 23 37 100 0.000380997
21 23 37 100 0.2482
22 23 37 100 0.125004
23 23 37 100 0.333326
24 23 37 100 0.166665
27 23 37 100 0.0416667
0 24 37 100 0.0393587
20 24 37 100 0.0832811
21 24 37 100 0.00141172
22 24 37 100 0.168216
23 24 37 100 0.166665
24 24 37 100 0.375002
25 24 37 100 0.124341
26 24 37 100 5.83203e-05
28 24 37 100 0.0416667
0 25 37 100 0.00200734
21 25 37 100 0.0833333
22 25 37 100 0.040122
23 25 37 100 0.166669
24 25 37 100 0.166665
25 25 37 100 0.333333
26 25 37 100 0.124539
29 25 37 100 0.041664
30 25 37 100 1.69089e-06
37 25 37 100 0.0416667
0 26 37 100 0.000776021
22 26 37 100 0.0833333
23 26 37 100 0.0416667
24 26 37 100 0.166656
25 26 37 100 0.12498
26 26 37 100 0.374252
27 26 37 100 0.124999
30 26 37 100 0.0416663
37 26 37 100 0.0416701
0 27 37 100 0.000170105
20 27 37 100 0.0416667
23 27 37 100 0.0833313
24 27 37 100 0.0416774
25 27 37 100 0.166493
26 27 37 100 0.0834553
27 27 37 100 0.333333
28 27 37 100 0.124998
31 27 37 100 0.0416315
34 27 37 100 2.00191e-06
37 27 37 100 0.083242
0 28 37 100 0.0025524
20 28 37 100 0.0416667
24 28 37 100 0.0833149
25 28 37 100 0.0225051
26 28 37 100 0.166655
27 28 37 100 0.124913
28 28 37 100 0.333333
29 28 37 100 0.162604
30 28 37 100 0.0207892
32 28 37 100 0.0416666
0 29 37 100 0.000696575
25 29 37 100 0.0833443
26 29 37 100 0.0416667
27 29 37 100 0.166641
28 29 37 100 0.124953
29 29 37 100 0.333379
30 29 37 100 0.0826575
31 29 37 100 0.124996
35 29 37 100 0.0416667
0 30 37 100 0.04454
26 30 37 100 0.125
27 30 37 100 0.0416666
28 30 37 100 0.124674
29 30 37 100 0.166666
30 30 37 100 0.247563
31 30 37 100 0.0833301
32 30 37 100 0.124893
36 30 37 100 0.0416667
0 31 37 100 0.0428143
17 31 37 100 5.52397e-05
27 31 37 100 0.0833329
28 31 37 100 0.125
29 31 37 100 0.0416664
30 31 37 100 0.207161
31 31 37 100 0.291639
32 31 37 100 0.0833311
33 31 37 100 0.0833334
37 31 37 100 0.0416667
0 32 37 100 0.00362025
3 32 37 100 0.0434783
28 32 37 100 0.0650706
29 32 37 100 0.151117
30 32 37 100 0.0869565
31 32 37 100 0.217391
32 32 37 100 0.258458
33 32 37 100 0.0869515
34 32 37 100 0.0869565
0 33 37 100 0.000536806
2 33 37 100 0.0430093
4 33 37 100 0.000543306
27 33 37 100 6.31144e-07
29 33 37 100 0.0439434
30 33 37 100 0.129951
31 33 37 100 0.216847
32 33 37 100 0.173914
33 33 37 100 0.217377
34 33 37 100 0.0869554
35 33 37 100 0.0869217
0 34 37 100 0.000140926
4 34 37 100 0.0434783
28 34 37 100 0.000811013
30 34 37 100 0.0869566
31 34 37 100 0.130373
32 34 37 100 0.173907
33 34 37 100 0.173913
34 34 37 100 0.217318
35 34 37 100 0.0869566
36 34 37 100 0.0861454
0 35 37 100 0.00044802
31 35 37 100 0.13037
32 35 37 100 0.173978
33 35 37 100 0.130435
34 35 37 100 0.173913
35 35 37 100 0.173539
36 35 37 100 0.130362
37 35 37 100 0.0869556
0 36 37 100 0.000643396
32 36 37 100 0.04762
33 36 37 100 0.285538
34 36 37 100 0.1425
35 36 37 100 0.190396
36 36 37 100 0.142857
37 36 37 100 0.190445
0 37 37 100 3.94209e-06
22 37 37 100 0.0539053
33 37 37 100 0.0555535
34 37 37 100 0.333332
35 37 37 100 0.166666
36 37 37 100 0.168317
37 37 37 100 0.222222
0 38 37 100 0.00217912
33 38 37 100 0.0636787
34 38 37 100 0.0666626
35 38 37 100 0.399999
36 38 37 100 0.201355
37 38 37 100 0.266125
0 39 37 100 0.0527459
18 39 37 100 8.45816e-07
27 39 37 100 2.14562e-06
29 39 37 100 0.0271003
35 39 37 100 0.0769222
36 39 37 100 0.458785
37 39 37 100 0.384443
36 40 37 100 0.142857
37 40 37 100 0.857143
37 41 37 100 1
0 1 38 100 1.16879e-05
1 1 38 100 0.869581
2 1 38 100 0.130403
3 1 38 100 4.01322e-06
0 2 38 100 0.0918065
2 2 38 100 0.690811
3 2 38 100 0.173912
15 2 38 100 0.0434705
0 3 38 100 0.0788221
2 3 38 100 0.18247
3 3 38 100 0.608273
4 3 38 100 0.0869566
5 3 38 100 0.0434783
0 4 38 100 0.0435265
2 4 38 100 0.0434753
3 4 38 100 0.130395
4 4 38 100 0.521529
5 4 38 100 0.174118
6 4 38 100 0.0434783
8 4 38 100 0.0434783
0 5 38 100 0.0865779
3 5 38 100 0.0867744
4 5 38 100 0.130395
5 5 38 100 0.478261
6 5 38 100 0.17391
7 5 38 100 0.0434783
27 5 38 100 0.000603216
0 6 38 100 0.00133735
4 6 38 100 0.130434
5 6 38 100 0.173771
6 6 38 100 0.477242
7 6 38 100 0.173913
8 6 38 100 0.0433027
0 7 38 100 0.000996167
4 7 38 100 0.0434771
5 7 38 100 0.0869616
6 7 38 100 0.173861
7 7 38 100 0.477313
8 7 38 100 0.173913
9 7 38 100 0.0434783
0 8 38 100 0.000116097
3 8 38 100 0.0434783
4 8 38 100 0.0434783
6 8 38 100 0.086955
7 8 38 100 0.174134
8 8 38 100 0.434497
9 8 38 100 0.173913
10 8 38 100 0.0434287
0 9 38 100 0.000617934
3 9 38 100 0.0434783
6 9 38 100 1.0294e-05
7 9 38 100 0.086937
8 9 38 100 0.260859
9 9 38 100 0.391304
10 9 38 100 0.173315
11 9 38 100 0.0434783
0 10 38 100 0.00113906
7 10 38 100 0.0434783
8 10 38 100 0.130435
9 10 38 100 0.216557
10 10 38 100 0.39128
11 10 38 100 0.173632
12 10 38 100 0.0434783
0 11 38 100 0.00172938
8 11 38 100 0.0434783
9 11 38 100 0.130435
10 11 38 100 0.215696
11 11 38 100 0.304317
12 11 38 100 0.173912
14 11 38 100 0.0434778
15 11 38 100 0.0434783
31 11 38 100 0.0434759
0 12 38 100 0.000790537
9 12 38 100 0.0434664
10 12 38 100 0.130434
11 12 38 100 0.217339
12 12 38 100 0.303683
13 12 38 100 0.217336
15 12 38 100 0.0869511
0 13 38 100 0.0173186
10 13 38 100 0.0434783
11 13 38 100 0.130433
12 13 38 100 0.21742
13 13 38 100 0.260881
14 13 38 100 0.217184
16 13 38 100 0.0434783
