0 1 1 100 8.73905e-05
1 1 1 100 0.999913
0 2 1 100 0.196396
1 2 1 100 0.803604
0 3 1 100 0.254889
1 3 1 100 0.745111
0 4 1 100 0.163482
1 4 1 100 0.836518
0 5 1 100 0.304848
1 5 1 100 0.695152
0 6 1 100 0.166426
1 6 1 100 0.833574
0 7 1 100 0.0329231
1 7 1 100 0.967077
0 8 1 100 7.07531e-05
1 8 1 100 0.999929
0 9 1 100 0.0136321
1 9 1 100 0.986368
0 1 2 100 0.000233893
1 1 2 100 0.764836
2 1 2 100 0.23493
0 2 2 100 0.223899
1 2 2 100 0.574361
2 2 2 100 0.20174
0 3 2 100 0.356243
1 3 2 100 0.321141
2 3 2 100 0.322616
0 4 2 100 0.0937631
1 4 2 100 0.453012
2 4 2 100 0.453225
0 5 2 100 0.14471
1 5 2 100 0.478747
2 5 2 100 0.376542
0 6 2 100 0.243065
1 6 2 100 0.400325
2 6 2 100 0.356609
0 7 2 100 0.100104
1 7 2 100 0.699977
2 7 2 100 0.199919
0 8 2 100 0.250357
1 8 2 100 0.499643
2 8 2 100 0.25
0 9 2 100 0.166667
1 9 2 100 0.166667
2 9 2 100 0.666667
0 10 2 100 0.410583
1 10 2 100 0.199999
2 10 2 100 0.389418
0 11 2 100 0.108702
1 11 2 100 0.404602
2 11 2 100 0.486696
0 12 2 100 0.200054
1 12 2 100 0.599947
2 12 2 100 0.199999
0 13 2 100 0.2
1 13 2 100 0.8
0 14 2 100 0.333333
1 14 2 100 0.666667
0 15 2 100 0.5
1 15 2 100 0.5
1 16 2 100 1
0 17 2 100 0.000164906
1 17 2 100 0.999835
1 18 2 100 1
0 1 3 100 0.00141169
1 1 3 100 0.399903
2 1 3 100 0.159085
3 1 3 100 0.439601
0 2 3 100 0.320663
1 2 3 100 0.243935
2 2 3 100 0.15732
3 2 3 100 0.278082
0 3 3 100 0.385022
1 3 3 100 0.44123
2 3 3 100 0.0431935
3 3 3 100 0.130555
0 4 3 100 0.185219
1 4 3 100 0.461156
2 4 3 100 0.058823
3 4 3 100 0.294802
0 5 3 100 0.00530705
1 5 3 100 0.461353
2 5 3 100 0.2
3 5 3 100 0.33334
0 6 3 100 0.247852
1 6 3 100 0.218916
2 6 3 100 0.332205
3 6 3 100 0.201026
0 7 3 100 0.221916
1 7 3 100 0.244756
2 7 3 100 0.199999
3 7 3 100 0.33333
0 8 3 100 0.133353
1 8 3 100 0.266925
2 8 3 100 0.199722
3 8 3 100 0.4
0 9 3 100 0.181302
1 9 3 100 0.272727
2 9 3 100 0.181818
3 9 3 100 0.364153
0 10 3 100 0.200045
1 10 3 100 0.300002
2 10 3 100 0.200035
3 10 3 100 0.299918
0 11 3 100 0.11113
1 11 3 100 0.444425
2 11 3 100 0.111111
3 11 3 100 0.333333
0 12 3 100 0.222223
1 12 3 100 0.333333
2 12 3 100 0.333333
3 12 3 100 0.111111
0 13 3 100 0.333314
1 13 3 100 0.111111
2 13 3 100 0.444463
3 13 3 100 0.111111
0 14 3 100 0.408859
1 14 3 100 0.22224
2 14 3 100 0.330618
3 14 3 100 0.038282
0 15 3 100 0.22204
1 15 3 100 0.222222
2 15 3 100 0.333333
3 15 3 100 0.222405
0 16 3 100 0.111606
1 16 3 100 0.222145
2 16 3 100 0.555173
3 16 3 100 0.111076
0 17 3 100 0.00234721
1 17 3 100 0.374992
2 17 3 100 0.495417
3 17 3 100 0.127244
1 18 3 100 0.499999
2 18 3 100 0.500001
0 19 3 100 0.249993
1 19 3 100 0.249999
2 19 3 100 0.500001
3 19 3 100 6.36223e-06
0 20 3 100 0.489276
2 20 3 100 0.5
3 20 3 100 0.0107241
0 21 3 100 0.5
2 21 3 100 0.5
2 22 3 100 0.5
3 22 3 100 0.5
0 23 3 100 0.5
3 23 3 100 0.5
2 24 3 100 0.5
3 24 3 100 0.5
0 25 3 100 0.0397724
2 25 3 100 0.5
3 25 3 100 0.460228
0 26 3 100 0.228348
2 26 3 100 0.5
3 26 3 100 0.271653
3 27 3 100 1
0 1 4 100 0.0664862
1 1 4 100 0.26657
2 1 4 100 0.133377
3 1 4 100 0.333165
4 1 4 100 0.200401
0 2 4 100 0.267715
1 2 4 100 0.132935
2 2 4 100 0.133379
3 2 4 100 0.266432
4 2 4 100 0.199538
0 3 4 100 0.347503
1 3 4 100 0.0543441
2 3 4 100 0.0666701
3 3 4 100 0.332902
4 3 4 100 0.19858
0 4 4 100 0.119944
1 4 4 100 0.133323
2 4 4 100 0.26662
3 4 4 100 0.213544
4 4 4 100 0.266569
0 5 4 100 0.154029
2 5 4 100 0.307692
3 5 4 100 0.30751
4 5 4 100 0.230769
0 6 4 100 0.307426
2 6 4 100 0.357631
3 6 4 100 0.166667
4 6 4 100 0.168276
0 7 4 100 0.333655
1 7 4 100 0.0833466
2 7 4 100 0.166365
3 7 4 100 0.333333
4 7 4 100 0.0833004
0 8 4 100 0.183627
1 8 4 100 0.0833333
2 8 4 100 0.316097
3 8 4 100 0.33361
4 8 4 100 0.0833333
0 9 4 100 0.271843
1 9 4 100 0.0909164
2 9 4 100 0.273552
3 9 4 100 0.27278
4 9 4 100 0.0909091
0 10 4 100 0.192101
1 10 4 100 1.94409e-06
2 10 4 100 0.272471
3 10 4 100 0.363644
4 10 4 100 0.171782
0 11 4 100 0.19286
1 11 4 100 0.272723
2 11 4 100 0.272727
3 11 4 100 0.0798715
4 11 4 100 0.181818
0 12 4 100 0.0101412
1 12 4 100 0.272727
2 12 4 100 0.181073
3 12 4 100 0.272727
4 12 4 100 0.263331
0 13 4 100 0.00409178
1 13 4 100 0.375
2 13 4 100 0.125
3 13 4 100 0.121018
4 13 4 100 0.37489
0 14 4 100 0.124085
1 14 4 100 0.251692
3 14 4 100 0.125
4 14 4 100 0.499222
0 15 4 100 0.000227914
1 15 4 100 0.499314
3 15 4 100 0.124971
4 15 4 100 0.375488
0 16 4 100 0.142857
1 16 4 100 0.428571
4 16 4 100 0.428571
0 17 4 100 0.481995
1 17 4 100 0.144891
4 17 4 100 0.373114
0 18 4 100 0.166668
1 18 4 100 0.333333
4 18 4 100 0.499998
0 19 4 100 0.2
4 19 4 100 0.8
1 20 4 100 0.2
3 20 4 100 0.199999
4 20 4 100 0.600001
0 21 4 100 0.250046
1 21 4 100 0.25
4 21 4 100 0.499953
0 22 4 100 0.333333
1 22 4 100 0.333333
4 22 4 100 0.333333
2 23 4 100 1
2 24 4 100 1
2 25 4 100 1
2 26 4 100 0.5
4 26 4 100 0.5
0 27 4 100 1
4 28 4 100 1
0 1 5 100 2.16371e-05
1 1 5 100 0.31276
2 1 5 100 0.124729
3 1 5 100 0.126504
5 1 5 100 0.435986
0 2 5 100 0.207748
1 2 5 100 0.312188
2 2 5 100 0.0625029
3 2 5 100 0.0659989
4 2 5 100 1.44442e-06
5 2 5 100 0.351562
0 3 5 100 0.532004
1 3 5 100 0.250044
2 3 5 100 0.0625049
4 3 5 100 4.87219e-06
5 3 5 100 0.155442
0 4 5 100 0.199998
1 4 5 100 0.199997
2 4 5 100 0.133333
3 4 5 100 0.133336
4 4 5 100 0.200002
5 4 5 100 0.133333
0 5 5 100 0.392683
1 5 5 100 0.142126
2 5 5 100 0.071416
3 5 5 100 0.0714286
4 5 5 100 0.121495
5 5 5 100 0.20085
0 6 5 100 0.384616
1 6 5 100 0.230769
3 6 5 100 0.0769231
4 6 5 100 0.0769231
5 6 5 100 0.230769
0 7 5 100 0.25
1 7 5 100 0.165092
2 7 5 100 0.0833334
3 7 5 100 0.168241
4 7 5 100 0.0833334
5 7 5 100 0.25
0 8 5 100 0.0750026
1 8 5 100 0.166657
2 8 5 100 0.187999
3 8 5 100 0.166667
4 8 5 100 0.0831767
5 8 5 100 0.320498
0 9 5 100 0.276175
1 9 5 100 0.0833364
2 9 5 100 0.166668
3 9 5 100 0.0833333
4 9 5 100 0.0833333
5 9 5 100 0.307154
0 10 5 100 0.0833343
1 10 5 100 0.166667
2 10 5 100 0.166666
3 10 5 100 0.25
4 10 5 100 0.0833333
5 10 5 100 0.25
0 11 5 100 0.0909225
1 11 5 100 0.0909091
2 11 5 100 0.181805
3 11 5 100 0.181818
4 11 5 100 0.0909091
5 11 5 100 0.363636
0 12 5 100 0.349808
1 12 5 100 2.24741e-06
2 12 5 100 0.181818
4 12 5 100 0.272471
5 12 5 100 0.195901
0 13 5 100 0.200246
1 13 5 100 0.0999998
2 13 5 100 0.099754
3 13 5 100 0.1
4 13 5 100 0.3
5 13 5 100 0.2
0 14 5 100 0.332651
1 14 5 100 0.111753
2 14 5 100 0.182766
3 14 5 100 0.150562
4 14 5 100 0.111117
5 14 5 100 0.111151
0 15 5 100 0.292079
1 15 5 100 0.111111
2 15 5 100 0.137857
3 15 5 100 0.00528724
4 15 5 100 0.301304
5 15 5 100 0.152361
0 16 5 100 0.111108
1 16 5 100 0.111111
2 16 5 100 0.111115
3 16 5 100 0.111111
4 16 5 100 0.444441
5 16 5 100 0.111115
0 17 5 100 0.222222
4 17 5 100 0.444444
5 17 5 100 0.333333
0 18 5 100 0.250006
4 18 5 100 0.374994
5 18 5 100 0.375
0 19 5 100 0.142889
4 19 5 100 0.42854
5 19 5 100 0.428571
0 20 5 100 0.2
4 20 5 100 0.6
5 20 5 100 0.2
4 21 5 100 0.600001
5 21 5 100 0.399999
0 22 5 100 8.68147e-05
3 22 5 100 0.287708
4 22 5 100 0.5
5 22 5 100 0.212205
0 23 5 100 0.333329
2 23 5 100 4.08996e-06
4 23 5 100 0.333333
5 23 5 100 0.333333
0 24 5 100 0.333502
2 24 5 100 3.63756e-06
3 24 5 100 0.597557
5 24 5 100 0.0689378
0 25 5 100 7.83646e-06
3 25 5 100 0.333333
4 25 5 100 0.666659
3 26 5 100 0.666667
4 26 5 100 0.333333
0 27 5 100 1.01065e-05
3 27 5 100 0.333333
4 27 5 100 0.333329
5 27 5 100 0.333328
0 28 5 100 0.3731
3 28 5 100 0.6269
3 29 5 100 1
2 30 5 100 1
0 31 5 100 0.0010964
2 31 5 100 0.998904
3 32 5 100 1
2 33 5 100 1
2 34 5 100 1
2 35 5 100 1
0 36 5 100 0.130181
5 36 5 100 0.869819
5 37 5 100 1
0 1 6 100 4.8618e-05
1 1 6 100 0.0416147
2 1 6 100 0.0439484
3 1 6 100 0.00636974
4 1 6 100 0.211543
5 1 6 100 0.364342
6 1 6 100 0.332133
0 2 6 100 0.225972
1 2 6 100 0.0245621
2 2 6 100 0.0454546
3 2 6 100 0.0454554
4 2 6 100 0.0450736
5 2 6 100 0.295817
6 2 6 100 0.317665
0 3 6 100 0.266419
1 3 6 100 0.108163
3 3 6 100 0.0454546
4 3 6 100 0.123178
5 3 6 100 0.184586
6 3 6 100 0.2722
0 4 6 100 0.288563
1 4 6 100 0.136279
3 4 6 100 0.0454546
4 4 6 100 0.0907337
5 4 6 100 0.166242
6 4 6 100 0.272727
0 5 6 100 0.248633
1 5 6 100 0.132657
2 5 6 100 0.0951596
4 5 6 100 0.0476191
5 5 6 100 0.238093
6 5 6 100 0.237839
0 6 6 100 0.0809659
1 6 6 100 0.0952381
2 6 6 100 0.142744
3 6 6 100 0.0143244
4 6 6 100 0.0952381
5 6 6 100 0.238157
6 6 6 100 0.333333
0 7 6 100 0.112907
1 7 6 100 0.277779
2 7 6 100 0.111111
3 7 6 100 0.0457192
4 7 6 100 0.110917
5 7 6 100 0.0606093
6 7 6 100 0.280957
0 8 6 100 0.174286
1 8 6 100 0.222161
2 8 6 100 0.055557
3 8 6 100 0.0555246
4 8 6 100 0.0503953
5 8 6 100 0.111111
6 8 6 100 0.330965
0 9 6 100 0.257128
1 9 6 100 0.250005
2 9 6 100 0.0625032
3 9 6 100 0.0553751
4 9 6 100 0.0625
5 9 6 100 0.0625
6 9 6 100 0.249989
0 10 6 100 0.0671934
1 10 6 100 0.266667
2 10 6 100 0.0666646
3 10 6 100 0.0666666
4 10 6 100 0.133333
5 10 6 100 0.0666687
6 10 6 100 0.332807
0 11 6 100 0.134069
1 11 6 100 0.398933
2 11 6 100 0.0666588
4 11 6 100 0.0666667
5 11 6 100 0.133333
6 11 6 100 0.200339
0 12 6 100 0.0769228
1 12 6 100 0.384515
3 12 6 100 0.0769231
4 12 6 100 0.0770231
5 12 6 100 0.153846
6 12 6 100 0.230769
0 13 6 100 0.166693
1 13 6 100 0.416634
3 13 6 100 0.0833334
4 13 6 100 0.0833334
5 13 6 100 0.0833334
6 13 6 100 0.166673
0 14 6 100 0.166667
1 14 6 100 0.333333
3 14 6 100 0.165991
4 14 6 100 0.166666
5 14 6 100 0.166667
6 14 6 100 0.000675237
0 15 6 100 0.182441
1 15 6 100 0.453094
3 15 6 100 0.0909092
4 15 6 100 0.0909092
5 15 6 100 0.182647
0 16 6 100 0.199871
1 16 6 100 0.3
3 16 6 100 0.1
5 16 6 100 0.200129
6 16 6 100 0.2
0 17 6 100 0.445549
1 17 6 100 3.80926e-05
2 17 6 100 0.111202
4 17 6 100 0.111002
5 17 6 100 0.221097
6 17 6 100 0.111111
0 18 6 100 0.22248
1 18 6 100 0.111103
4 18 6 100 0.221968
5 18 6 100 0.222226
6 18 6 100 0.222222
0 19 6 100 0.119206
1 19 6 100 0.111111
2 19 6 100 1.59373e-06
4 19 6 100 0.222222
5 19 6 100 0.222126
6 19 6 100 0.325333
0 20 6 100 0.153219
1 20 6 100 0.111111
4 20 6 100 0.292813
5 20 6 100 0.111111
6 20 6 100 0.331745
0 21 6 100 0.000691093
1 21 6 100 1.42822e-05
4 21 6 100 0.555556
6 21 6 100 0.443739
0 22 6 100 0.111637
3 22 6 100 0.000388624
4 22 6 100 0.555485
5 22 6 100 0.111111
6 22 6 100 0.221378
0 23 6 100 0.113203
1 23 6 100 0.222219
4 23 6 100 0.332097
5 23 6 100 0.110873
6 23 6 100 0.221608
0 24 6 100 0.570989
1 24 6 100 0.142452
5 24 6 100 0.142857
6 24 6 100 0.143702
0 25 6 100 0.338447
4 25 6 100 0.166667
6 25 6 100 0.494886
0 26 6 100 0.199645
3 26 6 100 0.200354
4 26 6 100 0.2
6 26 6 100 0.4
2 27 6 100 0.2
4 27 6 100 0.2
6 27 6 100 0.6
2 28 6 100 0.500001
4 28 6 100 0.499999
0 29 6 100 0.000428634
2 29 6 100 0.666238
4 29 6 100 0.333333
0 30 6 100 0.335026
2 30 6 100 0.331641
4 30 6 100 0.333333
0 31 6 100 0.00964935
4 31 6 100 0.496698
6 31 6 100 0.493653
0 32 6 100 0.521737
4 32 6 100 0.00492108
6 32 6 100 0.473342
5 33 6 100 1
5 34 6 100 1
6 35 6 100 1
0 36 6 100 0.234151
6 36 6 100 0.765849
0 37 6 100 1
1 38 6 100 9.84908e-05
5 38 6 100 0.999902
5 39 6 100 1
3 40 6 100 1
0 41 6 100 0.0120896
1 41 6 100 0.987812
5 41 6 100 9.84913e-05
1 1 7 100 0.108491
2 1 7 100 4.6357e-05
3 1 7 100 0.110455
4 1 7 100 0.210526
5 1 7 100 0.286701
6 1 7 100 0.153158
7 1 7 100 0.130622
0 2 7 100 0.16433
1 2 7 100 0.106283
2 2 7 100 0.0526306
4 2 7 100 0.157923
5 2 7 100 0.207809
6 2 7 100 0.204952
7 2 7 100 0.106073
0 3 7 100 0.367534
1 3 7 100 0.0528011
2 3 7 100 0.0525731
4 3 7 100 0.157848
5 3 7 100 0.158654
6 3 7 100 0.105276
7 3 7 100 0.105314
0 4 7 100 0.173006
1 4 7 100 0.105263
2 4 7 100 0.0387019
3 4 7 100 1.11087e-06
4 4 7 100 0.210487
5 4 7 100 0.189174
6 4 7 100 0.105263
7 4 7 100 0.178103
0 5 7 100 0.106401
1 5 7 100 0.105337
2 5 7 100 0.157895
4 5 7 100 0.210512
5 5 7 100 0.218999
6 5 7 100 0.0526316
7 5 7 100 0.148225
0 6 7 100 0.222217
1 6 7 100 0.111044
2 6 7 100 0.111111
4 6 7 100 0.222222
5 6 7 100 0.166665
6 6 7 100 0.0555555
7 6 7 100 0.111186
0 7 7 100 0.166675
1 7 7 100 0.111111
2 7 7 100 0.166667
4 7 7 100 0.111111
5 7 7 100 0.111111
6 7 7 100 0.0555555
7 7 7 100 0.277769
0 8 7 100 0.21619
1 8 7 100 0.0665653
2 8 7 100 0.2
5 8 7 100 0.199982
7 8 7 100 0.317263
0 9 7 100 0.308748
1 9 7 100 0.076925
2 9 7 100 0.0748976
4 9 7 100 0.0789486
5 9 7 100 0.153423
7 9 7 100 0.307058
0 10 7 100 0.377807
1 10 7 100 0.0769231
4 10 7 100 0.0769231
5 10 7 100 0.230767
6 10 7 100 8.37315e-06
7 10 7 100 0.237572
0 11 7 100 0.0887495
1 11 7 100 0.0833413
2 11 7 100 0.0833333
3 11 7 100 0.000287527
4 11 7 100 0.083374
5 11 7 100 0.249608
6 11 7 100 0.166667
7 11 7 100 0.244639
0 12 7 100 0.0837294
1 12 7 100 0.166642
2 12 7 100 0.0833333
3 12 7 100 0.000413675
4 12 7 100 0.166315
5 12 7 100 0.0833333
6 12 7 100 0.0833333
7 12 7 100 0.332899
0 13 7 100 0.499831
1 13 7 100 0.166667
2 13 7 100 0.0833334
4 13 7 100 7.70195e-06
5 13 7 100 0.0833334
6 13 7 100 0.0834942
7 13 7 100 0.0833334
0 14 7 100 0.0833437
1 14 7 100 0.166667
2 14 7 100 0.0833334
4 14 7 100 0.166667
5 14 7 100 0.0833334
6 14 7 100 0.166667
7 14 7 100 0.249989
0 15 7 100 0.139126
1 15 7 100 0.166662
2 15 7 100 0.166667
3 15 7 100 8.47152e-06
4 15 7 100 0.195434
5 15 7 100 0.0803625
7 15 7 100 0.251741
0 16 7 100 0.274014
1 16 7 100 0.181818
4 16 7 100 0.179843
5 16 7 100 0.000574904
6 16 7 100 0.182017
7 16 7 100 0.181733
0 17 7 100 0.00335454
1 17 7 100 0.2
4 17 7 100 0.1
5 17 7 100 0.1
6 17 7 100 0.3
7 17 7 100 0.296645
0 18 7 100 0.25
1 18 7 100 0.125
4 18 7 100 0.125
5 18 7 100 0.125
6 18 7 100 0.375
0 19 7 100 0.25
1 19 7 100 0.25
5 19 7 100 0.125
6 19 7 100 0.125
7 19 7 100 0.249999
0 20 7 100 0.125
1 20 7 100 0.124999
2 20 7 100 0.125
5 20 7 100 0.125
6 20 7 100 0.375
7 20 7 100 0.125
0 21 7 100 0.375
1 21 7 100 0.125
2 21 7 100 0.125
4 21 7 100 0.125
6 21 7 100 0.125
7 21 7 100 0.125
0 22 7 100 0.12438
2 22 7 100 0.589906
4 22 7 100 0.142857
7 22 7 100 0.142857
0 23 7 100 0.000663197
2 23 7 100 0.166666
4 23 7 100 0.166667
5 23 7 100 0.333334
6 23 7 100 0.166667
7 23 7 100 0.166004
0 24 7 100 0.416615
1 24 7 100 0.0833344
2 24 7 100 0.166643
5 24 7 100 0.000275442
6 24 7 100 0.166667
7 24 7 100 0.166465
0 25 7 100 0.336995
1 25 7 100 0.166667
5 25 7 100 0.000258877
6 25 7 100 0.166667
7 25 7 100 0.329412
0 26 7 100 0.323104
1 26 7 100 0.166667
4 26 7 100 0.166667
5 26 7 100 0.166409
6 26 7 100 0.166667
7 26 7 100 0.0104861
0 27 7 100 0.166658
1 27 7 100 0.166675
5 27 7 100 0.5
7 27 7 100 0.166667
0 28 7 100 0.166667
1 28 7 100 0.333329
2 28 7 100 0.166667
4 28 7 100 4.82656e-06
5 28 7 100 0.166667
7 28 7 100 0.166667
0 29 7 100 0.250876
1 29 7 100 0.0826985
2 29 7 100 0.333092
5 29 7 100 0.166667
7 29 7 100 0.166667
0 30 7 100 0.2
4 30 7 100 0.2
5 30 7 100 0.2
6 30 7 100 0.2
7 30 7 100 0.2
0 31 7 100 0.199999
2 31 7 100 0.2
4 31 7 100 0.2
7 31 7 100 0.4
0 32 7 100 2.94271e-06
4 32 7 100 0.5
6 32 7 100 0.249997
7 32 7 100 0.25
0 33 7 100 0.333333
2 33 7 100 0.333333
3 33 7 100 0.333333
0 34 7 100 0.333333
2 34 7 100 0.333333
6 34 7 100 0.333333
2 35 7 100 0.333333
4 35 7 100 0.333333
6 35 7 100 0.333333
0 36 7 100 0.333333
2 36 7 100 0.666667
0 37 7 100 0.328766
2 37 7 100 0.334294
3 37 7 100 0.333333
4 37 7 100 0.00360641
0 38 7 100 0.331153
2 38 7 100 0.00210552
4 38 7 100 0.333408
7 38 7 100 0.333333
3 39 7 100 0.333333
4 39 7 100 0.333333
7 39 7 100 0.333333
0 40 7 100 0.335402
1 40 7 100 0.333333
2 40 7 100 0.331265
3 41 7 100 0.333333
6 41 7 100 0.333333
7 41 7 100 0.333333
0 42 7 100 0.336251
2 42 7 100 0.330416
7 42 7 100 0.333333
0 43 7 100 0.091577
2 43 7 100 0.241756
5 43 7 100 0.333334
7 43 7 100 0.333333
0 44 7 100 0.333333
1 44 7 100 0.333333
3 44 7 100 0.333333
2 45 7 100 0.333333
6 45 7 100 0.333333
7 45 7 100 0.333333
3 46 7 100 0.333333
6 46 7 100 0.333333
7 46 7 100 0.333333
0 47 7 100 8.38592e-05
2 47 7 100 0.333249
6 47 7 100 0.333333
7 47 7 100 0.333333
2 48 7 100 0.333333
6 48 7 100 0.333333
7 48 7 100 0.333333
1 49 7 100 0.5
2 49 7 100 0.5
1 50 7 100 0.5
2 50 7 100 0.5
2 51 7 100 1
2 52 7 100 0.5
3 52 7 100 0.5
3 53 7 100 1
3 54 7 100 1
3 55 7 100 1
4 56 7 100 1
0 57 7 100 1
1 58 7 100 1
4 59 7 100 1
0 1 8 100 0.0379033
1 1 8 100 0.00670365
2 1 8 100 0.0333978
3 1 8 100 0.0839568
4 1 8 100 0.176665
5 1 8 100 0.181135
6 1 8 100 0.104999
7 1 8 100 0.0554756
8 1 8 100 0.319763
0 2 8 100 0.191726
2 2 8 100 0.040009
3 2 8 100 0.000378991
4 2 8 100 0.076795
5 2 8 100 0.153812
6 2 8 100 0.0758539
7 2 8 100 0.0384616
8 2 8 100 0.422963
0 3 8 100 0.146772
1 3 8 100 2.41294e-06
2 3 8 100 0.0384608
3 3 8 100 0.0769231
4 3 8 100 0.111415
5 3 8 100 0.153976
6 3 8 100 0.115505
7 3 8 100 0.0451244
8 3 8 100 0.311821
0 4 8 100 0.122966
1 4 8 100 2.45149e-06
3 4 8 100 0.0768676
4 4 8 100 0.076966
5 4 8 100 0.153861
6 4 8 100 0.15377
7 4 8 100 0.0769126
8 4 8 100 0.338654
0 5 8 100 0.279313
1 5 8 100 0.0820149
2 5 8 100 0.00538332
3 5 8 100 0.12
4 5 8 100 0.0399871
5 5 8 100 0.0464651
6 5 8 100 0.199541
7 5 8 100 0.0671285
8 5 8 100 0.160166
0 6 8 100 0.200947
1 6 8 100 0.0399999
3 6 8 100 0.119979
4 6 8 100 0.0800011
5 6 8 100 0.0400369
6 6 8 100 0.199041
7 6 8 100 0.199996
8 6 8 100 0.12
0 7 8 100 0.137513
1 7 8 100 0.0869566
2 7 8 100 9.01208e-06
3 7 8 100 0.0780124
4 7 8 100 0.0867178
5 7 8 100 0.0434815
6 7 8 100 0.177502
7 7 8 100 0.217387
8 7 8 100 0.172421
0 8 8 100 0.230622
1 8 8 100 0.0909083
2 8 8 100 1.42649e-06
3 8 8 100 0.0454546
4 8 8 100 0.0454546
5 8 8 100 0.0376522
6 8 8 100 0.226937
7 8 8 100 0.187088
8 8 8 100 0.135883
0 9 8 100 0.14605
1 9 8 100 0.0952381
2 9 8 100 1.89134e-05
3 9 8 100 0.0476191
4 9 8 100 0.0952311
6 9 8 100 0.234904
7 9 8 100 0.190476
8 9 8 100 0.190462
0 10 8 100 0.157893
1 10 8 100 0.105263
3 10 8 100 0.105263
4 10 8 100 0.0526341
6 10 8 100 0.263158
7 10 8 100 0.105263
8 10 8 100 0.210525
0 11 8 100 0.171778
1 11 8 100 0.0625001
3 11 8 100 0.0592049
4 11 8 100 0.12499
5 11 8 100 5.12896e-06
6 11 8 100 0.250482
7 11 8 100 0.0630492
8 11 8 100 0.26799
0 12 8 100 0.266246
1 12 8 100 0.0714286
4 12 8 100 0.0711774
6 12 8 100 0.285713
7 12 8 100 0.0714286
8 12 8 100 0.234006
0 13 8 100 0.167228
1 13 8 100 0.166118
2 13 8 100 0.00448746
3 13 8 100 0.0833333
4 13 8 100 0.0833211
6 13 8 100 0.412179
8 13 8 100 0.0833334
0 14 8 100 0.00350843
1 14 8 100 0.111111
4 14 8 100 0.218714
5 14 8 100 0.0148379
6 14 8 100 0.429607
7 14 8 100 0.111111
8 14 8 100 0.111111
0 15 8 100 0.222222
1 15 8 100 0.111111
3 15 8 100 0.111111
4 15 8 100 0.111111
6 15 8 100 0.111111
7 15 8 100 0.222222
8 15 8 100 0.111111
0 16 8 100 0.373223
1 16 8 100 0.111111
2 16 8 100 0.00075246
7 16 8 100 0.293378
8 16 8 100 0.221535
0 17 8 100 0.111187
3 17 8 100 0.333266
4 17 8 100 0.222205
7 17 8 100 0.111111
8 17 8 100 0.22223
0 18 8 100 0.000809824
1 18 8 100 0.125
3 18 8 100 0.249803
4 18 8 100 0.125
7 18 8 100 0.249977
8 18 8 100 0.249411
0 19 8 100 0.142897
2 19 8 100 0.142857
3 19 8 100 0.142857
4 19 8 100 0.142857
7 19 8 100 0.285714
8 19 8 100 0.142817
0 20 8 100 0.285823
3 20 8 100 0.428462
4 20 8 100 0.142857
6 20 8 100 0.142857
0 21 8 100 0.142857
3 21 8 100 0.428571
4 21 8 100 0.285714
6 21 8 100 0.142857
0 22 8 100 0.166667
1 22 8 100 0.166667
3 22 8 100 0.166667
6 22 8 100 0.333333
8 22 8 100 0.166667
0 23 8 100 0.400039
1 23 8 100 0.2
3 23 8 100 0.399961
0 24 8 100 0.2
1 24 8 100 0.2
3 24 8 100 0.2
6 24 8 100 0.4
0 25 8 100 0.201545
1 25 8 100 0.2
5 25 8 100 0.2
6 25 8 100 0.398455
0 26 8 100 0.399939
2 26 8 100 0.2
6 26 8 100 0.400006
7 26 8 100 5.51811e-05
0 27 8 100 0.401094
4 27 8 100 0.2
6 27 8 100 0.2
8 27 8 100 0.198906
3 28 8 100 0.2
4 28 8 100 0.6
8 28 8 100 0.2
0 29 8 100 0.2
3 29 8 100 0.2
4 29 8 100 0.4
8 29 8 100 0.2
0 30 8 100 2.9686e-05
3 30 8 100 0.199995
4 30 8 100 0.20486
6 30 8 100 0.2
8 30 8 100 0.395115
0 31 8 100 0.2
4 31 8 100 0.2
6 31 8 100 0.4
8 31 8 100 0.2
0 32 8 100 2.24567e-05
6 32 8 100 0.399978
7 32 8 100 0.399999
8 32 8 100 0.2
6 33 8 100 0.25
7 33 8 100 0.5
8 33 8 100 0.25
0 34 8 100 0.00153993
6 34 8 100 0.248498
7 34 8 100 0.499962
8 34 8 100 0.25
0 35 8 100 0.00421201
6 35 8 100 0.662454
7 35 8 100 0.333334
0 36 8 100 0.5
7 36 8 100 0.5
7 37 8 100 0.5
8 37 8 100 0.5
0 38 8 100 1
4 39 8 100 0.5
6 39 8 100 0.5
0 40 8 100 0.5
8 40 8 100 0.5
0 41 8 100 0.5
5 41 8 100 0.5
5 42 8 100 0.5
6 42 8 100 0.5
4 43 8 100 0.5
6 43 8 100 0.5
4 44 8 100 0.5
7 44 8 100 0.5
4 45 8 100 1
0 46 8 100 1
1 47 8 100 1
1 48 8 100 1
1 49 8 100 1
1 50 8 100 1
1 51 8 100 1
4 52 8 100 1
4 53 8 100 1
0 1 9 100 0.000366002
1 1 9 100 0.166079
2 1 9 100 0.00479038
3 1 9 100 0.245484
4 1 9 100 0.310441
5 1 9 100 0.149002
6 1 9 100 0.0855824
8 1 9 100 0.0301197
9 1 9 100 0.00813602
0 2 9 100 0.354533
1 2 9 100 0.0455161
2 2 9 100 3.22682e-06
3 2 9 100 0.08
4 2 9 100 0.199943
5 2 9 100 0.160647
6 2 9 100 0.0799106
8 2 9 100 0.0394467
9 2 9 100 0.04
0 3 9 100 0.24394
1 3 9 100 0.0465175
2 3 9 100 0.120001
3 3 9 100 0.239963
4 3 9 100 0.109258
5 3 9 100 0.0804013
6 3 9 100 0.0798498
8 3 9 100 0.0400696
9 3 9 100 0.04
0 4 9 100 0.155261
1 4 9 100 0.0798517
2 4 9 100 0.0800109
3 4 9 100 0.237285
4 4 9 100 0.079961
5 4 9 100 0.16
6 4 9 100 0.0802117
8 4 9 100 0.0874202
9 4 9 100 0.0399983
0 5 9 100 0.272847
1 5 9 100 0.0398779
2 5 9 100 0.04
3 5 9 100 0.279367
4 5 9 100 0.00748896
5 5 9 100 0.120004
6 5 9 100 0.0801355
7 5 9 100 0.160276
9 5 9 100 3.40383e-06
0 6 9 100 0.200212
1 6 9 100 0.04
2 6 9 100 3.01728e-06
3 6 9 100 0.199937
4 6 9 100 0.0400663
5 6 9 100 0.199782
6 6 9 100 0.12
7 6 9 100 0.16
8 6 9 100 0.04
0 7 9 100 0.0648919
1 7 9 100 0.0416666
2 7 9 100 0.0416667
3 7 9 100 0.175832
4 7 9 100 0.0926116
5 7 9 100 0.166667
6 7 9 100 0.166667
7 7 9 100 0.125
8 7 9 100 0.0833308
9 7 9 100 0.0416667
0 8 9 100 0.139167
1 8 9 100 0.0454211
3 8 9 100 0.223981
4 8 9 100 0.0458501
5 8 9 100 0.136356
6 8 9 100 0.181818
7 8 9 100 0.136192
8 8 9 100 0.0912066
9 8 9 100 7.3229e-06
0 9 9 100 0.135382
1 9 9 100 0.0454409
2 9 9 100 0.0454546
3 9 9 100 0.227266
4 9 9 100 0.0909091
5 9 9 100 0.181733
6 9 9 100 0.181815
7 9 9 100 0.0454545
8 9 9 100 6.8671e-06
9 9 9 100 0.0465384
0 10 9 100 0.272729
2 10 9 100 0.0499787
3 10 9 100 0.2
4 10 9 100 0.0500008
5 10 9 100 0.143466
7 10 9 100 0.133809
8 10 9 100 0.0500001
9 10 9 100 0.100016
0 11 9 100 0.214772
2 11 9 100 0.0501371
3 11 9 100 0.157141
5 11 9 100 0.157895
6 11 9 100 0.0517562
7 11 9 100 0.105255
8 11 9 100 0.05287
9 11 9 100 0.210174
0 12 9 100 0.176225
1 12 9 100 2.85258e-05
2 12 9 100 0.117647
3 12 9 100 0.117647
5 12 9 100 0.0588235
6 12 9 100 0.0588235
7 12 9 100 0.181231
8 12 9 100 0.171927
9 12 9 100 0.117647
0 13 9 100 0.154315
1 13 9 100 0.0625001
2 13 9 100 0.124975
3 13 9 100 0.0628273
5 13 9 100 0.0625001
6 13 9 100 0.0569691
7 13 9 100 0.25
8 13 9 100 0.100913
9 13 9 100 0.125
0 14 9 100 0.129774
1 14 9 100 0.0669039
2 14 9 100 0.133602
3 14 9 100 0.000275337
5 14 9 100 0.133064
6 14 9 100 0.140251
7 14 9 100 0.2
8 14 9 100 0.129462
9 14 9 100 0.0666677
0 15 9 100 0.15303
2 15 9 100 0.0768656
4 15 9 100 0.000881125
5 15 9 100 0.153846
6 15 9 100 0.076923
7 15 9 100 0.0769232
8 15 9 100 0.230769
9 15 9 100 0.230762
0 16 9 100 0.112753
2 16 9 100 0.0833334
3 16 9 100 3.41577e-05
4 16 9 100 0.0563691
5 16 9 100 0.0833921
6 16 9 100 0.249932
7 16 9 100 0.0833357
8 16 9 100 0.166666
9 16 9 100 0.164185
0 17 9 100 0.502879
4 17 9 100 0.0804531
5 17 9 100 1.81218e-06
6 17 9 100 0.0833332
7 17 9 100 0.0833333
8 17 9 100 0.166667
9 17 9 100 0.0833332
0 18 9 100 0.546429
3 18 9 100 0.0909092
5 18 9 100 0.0899105
8 18 9 100 0.181818
9 18 9 100 0.0909333
0 19 9 100 0.0923668
1 19 9 100 2.15581e-06
4 19 9 100 0.0907266
5 19 9 100 0.18104
8 19 9 100 0.0909091
9 19 9 100 0.544955
0 20 9 100 0.138258
1 20 9 100 0.0839638
4 20 9 100 0.111111
5 20 9 100 0.111111
9 20 9 100 0.555556
0 21 9 100 0.125
2 21 9 100 0.125
4 21 9 100 0.125
5 21 9 100 0.125
9 21 9 100 0.5
0 22 9 100 1.42125e-05
1 22 9 100 0.142857
2 22 9 100 0.142857
5 22 9 100 0.142843
8 22 9 100 2.14954e-06
9 22 9 100 0.571426
1 23 9 100 0.166667
2 23 9 100 0.166667
4 23 9 100 0.166667
8 23 9 100 0.166667
9 23 9 100 0.333333
1 24 9 100 0.166667
2 24 9 100 0.5
4 24 9 100 0.166667
8 24 9 100 0.166667
0 25 9 100 0.334318
1 25 9 100 0.166667
2 25 9 100 0.166667
4 25 9 100 0.165682
6 25 9 100 0.166667
1 26 9 100 0.333333
2 26 9 100 0.333333
6 26 9 100 0.166667
9 26 9 100 0.166667
0 27 9 100 0.166335
2 27 9 100 0.166667
5 27 9 100 0.166667
6 27 9 100 0.333333
9 27 9 100 0.166998
0 28 9 100 0.493834
2 28 9 100 0.166667
4 28 9 100 0.000234585
5 28 9 100 0.166667
6 28 9 100 0.00586706
7 28 9 100 0.166731
0 29 9 100 0.34767
4 29 9 100 0.15233
5 29 9 100 0.333333
7 29 9 100 0.166667
0 30 9 100 0.166666
2 30 9 100 0.166667
5 30 9 100 0.333333
9 30 9 100 0.333333
0 31 9 100 0.499998
1 31 9 100 2.09744e-06
8 31 9 100 0.166667
9 31 9 100 0.333333
5 32 9 100 0.2
6 32 9 100 0.0781949
7 32 9 100 0.321805
9 32 9 100 0.4
5 33 9 100 0.4
7 33 9 100 0.2
9 33 9 100 0.4
0 34 9 100 0.2
1 34 9 100 0.2
7 34 9 100 0.4
9 34 9 100 0.2
0 35 9 100 0.2
1 35 9 100 0.4
7 35 9 100 0.4
0 36 9 100 8.2528e-05
1 36 9 100 0.399918
2 36 9 100 0.2
7 36 9 100 0.199999
8 36 9 100 0.2
0 37 9 100 0.182925
1 37 9 100 0.417075
2 37 9 100 0.2
5 37 9 100 0.2
0 38 9 100 0.2
1 38 9 100 0.6
5 38 9 100 0.2
0 39 9 100 0.5
2 39 9 100 0.25
5 39 9 100 0.25
0 40 9 100 0.249157
1 40 9 100 0.5
2 40 9 100 0.25
5 40 9 100 0.000842753
1 41 9 100 0.25
5 41 9 100 0.25
6 41 9 100 0.25
9 41 9 100 0.25
0 42 9 100 3.21535e-05
1 42 9 100 0.25
5 42 9 100 0.25
6 42 9 100 0.249968
9 42 9 100 0.25
1 43 9 100 0.666667
9 43 9 100 0.333333
0 44 9 100 0.0365646
1 44 9 100 0.963435
1 45 9 100 1
1 46 9 100 0.5
7 46 9 100 0.5
0 47 9 100 0.997617
4 47 9 100 0.00237808
5 47 9 100 5.31937e-06
2 48 9 100 0.5
8 48 9 100 0.5
2 49 9 100 0.5
8 49 9 100 0.5
2 50 9 100 1
0 51 9 100 0.499981
4 51 9 100 1.89011e-05
5 51 9 100 0.5
0 52 9 100 0.499818
2 52 9 100 0.5
4 52 9 100 0.000167162
5 52 9 100 1.5204e-05
2 53 9 100 0.5
8 53 9 100 0.5
0 54 9 100 0.5
2 54 9 100 0.5
0 55 9 100 0.499999
4 55 9 100 0.500001
0 56 9 100 0.5
2 56 9 100 0.5
0 57 9 100 0.5
8 57 9 100 0.5
2 58 9 100 0.5
7 58 9 100 0.5
0 59 9 100 0.5
2 59 9 100 0.5
2 60 9 100 0.5
5 60 9 100 0.5
5 61 9 100 1
0 62 9 100 6.60917e-06
5 62 9 100 0.999993
5 63 9 100 1
5 64 9 100 1
5 65 9 100 1
0 66 9 100 1
5 67 9 100 1
8 68 9 100 1
0 69 9 100 1
4 70 9 100 1
2 71 9 100 1
8 72 9 100 1
8 73 9 100 1
0 1 10 100 0.000593158
1 1 10 100 0.0412016
2 1 10 100 0.00525483
3 1 10 100 0.000548761
4 1 10 100 0.0370371
5 1 10 100 0.182558
6 1 10 100 0.100965
7 1 10 100 0.252787
8 1 10 100 0.158266
9 1 10 100 0.00226935
10 1 10 100 0.218519
0 2 10 100 0.157264
1 2 10 100 0.0792189
3 2 10 100 0.0356411
4 2 10 100 0.0411085
5 2 10 100 0.154894
6 2 10 100 0.115372
7 2 10 100 0.228432
8 2 10 100 0.0771349
9 2 10 100 1.39101e-05
10 2 10 100 0.110921
0 3 10 100 0.295359
1 3 10 100 0.07694
3 3 10 100 1.71794e-06
4 3 10 100 0.0378127
5 3 10 100 0.1376
6 3 10 100 0.115314
7 3 10 100 0.115662
8 3 10 100 0.075123
9 3 10 100 7.07381e-05
10 3 10 100 0.146117
0 4 10 100 0.215555
1 4 10 100 0.0764062
3 4 10 100 7.71884e-06
4 4 10 100 0.0800051
5 4 10 100 0.116781
6 4 10 100 0.122175
7 4 10 100 0.152932
8 4 10 100 0.0802208
9 4 10 100 0.04
10 4 10 100 0.115917
0 5 10 100 0.178218
1 5 10 100 0.115487
2 5 10 100 0.0416667
4 5 10 100 0.0828274
5 5 10 100 0.124752
6 5 10 100 0.0833334
7 5 10 100 0.125144
8 5 10 100 0.0418983
9 5 10 100 0.041808
10 5 10 100 0.164865
0 6 10 100 0.178572
1 6 10 100 0.0436169
3 6 10 100 0.0834011
4 6 10 100 0.0434783
5 6 10 100 0.130244
6 6 10 100 0.130435
7 6 10 100 0.15886
8 6 10 100 0.03204
9 6 10 100 0.0869687
10 6 10 100 0.112384
0 7 10 100 0.0913494
1 7 10 100 0.0909092
3 7 10 100 0.090909
4 7 10 100 0.0454546
5 7 10 100 0.136311
6 7 10 100 0.136325
7 7 10 100 0.090909
8 7 10 100 5.64297e-05
9 7 10 100 0.0909091
10 7 10 100 0.226867
0 8 10 100 0.116001
1 8 10 100 0.149995
3 8 10 100 0.1
5 8 10 100 0.0865098
6 8 10 100 0.1
7 8 10 100 0.1
8 8 10 100 0.0516275
9 8 10 100 0.05
10 8 10 100 0.245866
0 9 10 100 0.159719
1 9 10 100 0.0526316
2 9 10 100 0.0526322
3 9 10 100 0.105263
5 9 10 100 0.0526316
6 9 10 100 0.105263
7 9 10 100 0.105065
8 9 10 100 0.0526437
9 9 10 100 0.0526388
10 9 10 100 0.261512
0 10 10 100 0.273937
1 10 10 100 0.117647
2 10 10 100 0.0588287
3 10 10 100 0.108278
4 10 10 100 0.0588236
5 10 10 100 0.0588236
6 10 10 100 0.0588254
7 10 10 100 0.117711
8 10 10 100 0.0783745
9 10 10 100 0.0605678
10 10 10 100 0.00818249
0 11 10 100 0.212953
1 11 10 100 0.125
2 11 10 100 0.098938
3 11 10 100 0.125
4 11 10 100 0.0625
6 11 10 100 0.0625
7 11 10 100 0.0625
8 11 10 100 0.0625
9 11 10 100 0.0631089
10 11 10 100 0.125
0 12 10 100 0.141379
1 12 10 100 0.21394
3 12 10 100 0.142857
4 12 10 100 0.0714286
5 12 10 100 0.0714173
6 12 10 100 0.07142
8 12 10 100 0.0022146
9 12 10 100 0.0714285
10 12 10 100 0.213915
0 13 10 100 0.143054
1 13 10 100 0.214286
3 13 10 100 0.142857
4 13 10 100 0.0714286
5 13 10 100 0.0714286
6 13 10 100 0.071239
7 13 10 100 0.0714213
8 13 10 100 0.142857
9 13 10 100 0.0714286
0 14 10 100 0.157346
1 14 10 100 0.142857
3 14 10 100 0.0714286
4 14 10 100 0.0708771
5 14 10 100 0.0714286
6 14 10 100 0.142857
7 14 10 100 0.0575231
8 14 10 100 0.142822
9 14 10 100 0.0714286
10 14 10 100 0.0714315
0 15 10 100 0.0582012
1 15 10 100 0.304488
2 15 10 100 0.0219019
3 15 10 100 0.153846
4 15 10 100 0.0769231
5 15 10 100 0.0769455
6 15 10 100 0.153846
7 15 10 100 0.0769231
10 15 10 100 0.0769244
0 16 10 100 0.200283
1 16 10 100 0.299732
2 16 10 100 0.10507
3 16 10 100 0.000162467
4 16 10 100 0.194766
6 16 10 100 0.10005
7 16 10 100 0.0999367
0 17 10 100 0.299626
1 17 10 100 0.2
2 17 10 100 0.2
6 17 10 100 0.1
7 17 10 100 0.10004
8 17 10 100 0.000209132
9 17 10 100 0.000124869
10 17 10 100 0.1
0 18 10 100 0.1001
1 18 10 100 0.4
2 18 10 100 0.0998944
4 18 10 100 0.0999002
5 18 10 100 0.000105198
6 18 10 100 0.1
7 18 10 100 0.1
10 18 10 100 0.1
0 19 10 100 0.117769
1 19 10 100 0.222222
2 19 10 100 0.10448
4 19 10 100 0.111111
6 19 10 100 0.222222
7 19 10 100 0.111085
10 19 10 100 0.111111
0 20 10 100 0.295759
1 20 10 100 0.418585
6 20 10 100 0.285646
10 20 10 100 1.05475e-05
0 21 10 100 0.446086
1 21 10 100 0.285702
2 21 10 100 0.110612
7 21 10 100 0.142857
8 21 10 100 0.0147427
0 22 10 100 0.144252
1 22 10 100 0.284405
2 22 10 100 0.142856
3 22 10 100 0.000578234
6 22 10 100 7.62021e-05
7 22 10 100 0.427833
0 23 10 100 0.295693
1 23 10 100 0.142857
6 23 10 100 0.275735
7 23 10 100 0.285714
0 24 10 100 0.00133919
1 24 10 100 0.166667
2 24 10 100 0.166667
3 24 10 100 0.16539
6 24 10 100 0.166611
7 24 10 100 0.333327
0 25 10 100 0.2
2 25 10 100 0.199998
3 25 10 100 0.2
5 25 10 100 2.38335e-06
7 25 10 100 0.2
10 25 10 100 0.2
0 26 10 100 0.599998
2 26 10 100 0.199974
5 26 10 100 2.53161e-05
7 26 10 100 0.200002
0 27 10 100 0.2
1 27 10 100 0.2
2 27 10 100 0.000215136
5 27 10 100 0.199785
6 27 10 100 0.2
9 27 10 100 0.2
0 28 10 100 0.401579
1 28 10 100 0.2
6 28 10 100 0.2
7 28 10 100 3.54897e-06
9 28 10 100 0.198411
10 28 10 100 6.43091e-06
0 29 10 100 0.399989
1 29 10 100 0.2
7 29 10 100 8.64376e-06
9 29 10 100 0.400002
0 30 10 100 0.500014
9 30 10 100 0.499986
0 31 10 100 0.25
1 31 10 100 0.75
0 32 10 100 4.94627e-05
2 32 10 100 0.25
8 32 10 100 0.25
9 32 10 100 0.499951
9 33 10 100 0.666666
10 33 10 100 0.333334
0 34 10 100 0.333333
1 34 10 100 0.333334
10 34 10 100 0.333334
0 35 10 100 0.037893
9 35 10 100 0.958634
10 35 10 100 0.00347325
2 36 10 100 0.5
7 36 10 100 0.5
5 37 10 100 1
5 38 10 100 1
5 39 10 100 1
10 40 10 100 1
10 41 10 100 1
10 42 10 100 1
10 43 10 100 1
10 44 10 100 1
2 45 10 100 1
2 46 10 100 1
5 47 10 100 1
5 48 10 100 1
5 49 10 100 1
5 50 10 100 1
0 51 10 100 1
0 1 11 100 0.00145
1 1 11 100 0.000281049
2 1 11 100 0.0180511
3 1 11 100 0.0400001
4 1 11 100 0.165816
5 1 11 100 0.196009
6 1 11 100 0.0835763
8 1 11 100 0.155548
9 1 11 100 0.0946604
10 1 11 100 0.0768076
11 1 11 100 0.167801
0 2 11 100 0.21317
2 2 11 100 2.60529e-06
3 2 11 100 0.0399991
4 2 11 100 0.11128
5 2 11 100 0.159971
6 2 11 100 0.102476
7 2 11 100 0.0574839
8 2 11 100 0.123944
9 2 11 100 0.12
10 2 11 100 0.0328075
11 2 11 100 0.0388666
0 3 11 100 0.216375
1 3 11 100 1.38585e-05
2 3 11 100 0.0388931
3 3 11 100 3.59218e-05
4 3 11 100 0.121878
5 3 11 100 0.124496
6 3 11 100 0.0833319
7 3 11 100 1.48922e-06
8 3 11 100 0.125001
9 3 11 100 0.125961
10 3 11 100 0.0804481
11 3 11 100 0.0835656
0 4 11 100 0.330431
1 4 11 100 1.06344e-06
2 4 11 100 1.40204e-05
4 4 11 100 0.124531
5 4 11 100 0.125009
6 4 11 100 0.0832848
7 4 11 100 0.0833334
8 4 11 100 0.125476
9 4 11 100 0.0833334
11 4 11 100 0.0445861
0 5 11 100 0.216732
1 5 11 100 0.0416768
2 5 11 100 0.03715
3 5 11 100 2.77486e-05
4 5 11 100 0.0401133
5 5 11 100 0.0417972
6 5 11 100 0.0833369
7 5 11 100 0.0416689
8 5 11 100 0.166667
9 5 11 100 0.122584
10 5 11 100 0.0832661
11 5 11 100 0.12498
0 6 11 100 0.13149
1 6 11 100 0.0443661
2 6 11 100 0.0434782
3 6 11 100 0.0456188
4 6 11 100 0.170886
5 6 11 100 0.0434783
6 6 11 100 0.0434877
7 6 11 100 0.0869566
8 6 11 100 0.158237
9 6 11 100 0.00767516
10 6 11 100 0.130972
11 6 11 100 0.0933539
0 7 11 100 0.137071
1 7 11 100 0.0454552
2 7 11 100 0.0454546
3 7 11 100 0.0454546
4 7 11 100 0.136364
5 7 11 100 0.0454284
6 7 11 100 0.0909092
7 7 11 100 0.0454546
8 7 11 100 0.181131
9 7 11 100 0.136364
10 7 11 100 0.0454592
11 7 11 100 0.0454546
0 8 11 100 0.238677
1 8 11 100 0.047776
2 8 11 100 0.000134121
3 8 11 100 0.0476151
4 8 11 100 0.141981
5 8 11 100 0.047623
6 8 11 100 0.0476212
7 8 11 100 0.0952412
8 8 11 100 0.190477
9 8 11 100 0.0476169
10 8 11 100 0.0476191
11 8 11 100 0.0476191
0 9 11 100 0.0931773
1 9 11 100 0.0476191
2 9 11 100 0.000131187
3 9 11 100 0.0952403
4 9 11 100 0.0952381
5 9 11 100 0.0475027
6 9 11 100 0.142857
7 9 11 100 4.90227e-07
8 9 11 100 0.19091
9 9 11 100 0.0952381
10 9 11 100 0.049229
11 9 11 100 0.142857
0 10 11 100 0.0782719
1 10 11 100 0.051065
2 10 11 100 0.000527846
3 10 11 100 0.105167
4 10 11 100 0.0576952
6 10 11 100 0.105264
7 10 11 100 0.0478989
8 10 11 100 0.25763
9 10 11 100 0.179406
10 10 11 100 0.105272
11 10 11 100 0.0118014
0 11 11 100 0.233524
1 11 11 100 0.0714286
3 11 11 100 0.0714286
4 11 11 100 2.12968e-05
5 11 11 100 5.96181e-05
6 11 11 100 0.0714286
7 11 11 100 0.0581426
8 11 11 100 0.012558
9 11 11 100 0.285167
10 11 11 100 0.0728484
11 11 11 100 0.123394
0 12 11 100 0.0769342
1 12 11 100 0.0769241
2 12 11 100 0.077339
3 12 11 100 0.153846
4 12 11 100 0.000415926
7 12 11 100 0.0769229
8 12 11 100 0.153846
9 12 11 100 0.153837
10 12 11 100 0.0769231
11 12 11 100 0.153012
0 13 11 100 0.0833352
1 13 11 100 0.0833334
2 13 11 100 0.0841849
3 13 11 100 0.155225
4 13 11 100 0.000851973
6 13 11 100 0.0114423
8 13 11 100 0.166667
9 13 11 100 0.166667
10 13 11 100 0.0833334
11 13 11 100 0.164961
0 14 11 100 0.151725
1 14 11 100 0.0827333
2 14 11 100 0.017946
3 14 11 100 0.0833349
5 14 11 100 0.0126221
6 14 11 100 0.0997597
7 14 11 100 0.0833333
8 14 11 100 0.135202
9 14 11 100 0.166668
10 14 11 100 0.0833317
11 14 11 100 0.0833445
0 15 11 100 0.182627
1 15 11 100 0.090896
2 15 11 100 0.181009
6 15 11 100 0.181827
7 15 11 100 0.0909136
8 15 11 100 0.0909091
9 15 11 100 0.0909091
10 15 11 100 0.0909091
0 16 11 100 3.74049e-05
2 16 11 100 0.0999999
3 16 11 100 0.1
6 16 11 100 0.2
8 16 11 100 0.199963
9 16 11 100 0.298996
10 16 11 100 0.101004
0 17 11 100 0.142883
3 17 11 100 0.142857
6 17 11 100 0.285689
8 17 11 100 0.142857
9 17 11 100 0.142857
10 17 11 100 0.142857
0 18 11 100 0.571426
1 18 11 100 2.2566e-06
3 18 11 100 0.142857
6 18 11 100 0.142857
9 18 11 100 0.142857
0 19 11 100 0.142985
3 19 11 100 0.142857
6 19 11 100 0.142857
8 19 11 100 0.142857
9 19 11 100 0.285587
11 19 11 100 0.142857
0 20 11 100 0.142896
1 20 11 100 0.000121299
6 20 11 100 0.142857
8 20 11 100 9.01368e-06
9 20 11 100 0.285553
10 20 11 100 5.03099e-06
11 20 11 100 0.428559
0 21 11 100 0.143175
3 21 11 100 0.142857
6 21 11 100 0.285715
8 21 11 100 5.57352e-06
10 21 11 100 0.142857
11 21 11 100 0.28539
0 22 11 100 0.285714
3 22 11 100 0.14252
4 22 11 100 0.142857
5 22 11 100 0.000337618
6 22 11 100 0.285714
11 22 11 100 0.142857
0 23 11 100 0.571088
3 23 11 100 0.000337613
5 23 11 100 0.14252
6 23 11 100 3.22512e-05
10 23 11 100 0.142857
11 23 11 100 0.143165
0 24 11 100 0.42859
5 24 11 100 0.142857
9 24 11 100 0.142857
10 24 11 100 0.142857
11 24 11 100 0.142839
0 25 11 100 0.285714
5 25 11 100 0.285714
10 25 11 100 0.142857
11 25 11 100 0.285714
5 26 11 100 0.142857
6 26 11 100 0.142857
9 26 11 100 0.142857
10 26 11 100 0.142857
11 26 11 100 0.428571
0 27 11 100 0.158533
6 27 11 100 0.166667
9 27 11 100 0.166667
10 27 11 100 0.00878063
11 27 11 100 0.499353
4 28 11 100 0.4
6 28 11 100 0.2
8 28 11 100 0.2
11 28 11 100 0.2
0 29 11 100 0.25008
5 29 11 100 0.25
7 29 11 100 0.24992
8 29 11 100 0.25
0 30 11 100 0.250001
4 30 11 100 0.0094392
5 30 11 100 0.250001
6 30 11 100 0.250001
11 30 11 100 0.240559
0 31 11 100 0.25
4 31 11 100 0.226865
5 31 11 100 0.25
6 31 11 100 0.25
11 31 11 100 0.0231348
0 32 11 100 0.0745191
2 32 11 100 0.00161091
4 32 11 100 0.0214167
7 32 11 100 0.492842
8 32 11 100 0.250006
11 32 11 100 0.159605
0 33 11 100 0.248696
2 33 11 100 0.00112776
3 33 11 100 0.249997
4 33 11 100 0.25
6 33 11 100 0.000268313
7 33 11 100 0.249828
9 33 11 100 8.20076e-05
6 34 11 100 0.5
7 34 11 100 0.5
6 35 11 100 0.5
7 35 11 100 0.5
0 36 11 100 0.5
11 36 11 100 0.5
0 37 11 100 1
6 38 11 100 1
7 39 11 100 1
7 40 11 100 1
0 1 12 100 3.16979e-05
1 1 12 100 0.075524
2 1 12 100 0.00850818
4 1 12 100 2.43686e-06
5 1 12 100 0.00101812
6 1 12 100 0.0071587
7 1 12 100 0.000117189
8 1 12 100 0.233647
9 1 12 100 0.11765
10 1 12 100 0.117647
11 1 12 100 0.264597
12 1 12 100 0.174099
0 2 12 100 0.300586
1 2 12 100 0.0588208
5 2 12 100 1.72143e-06
8 2 12 100 0.231463
9 2 12 100 0.117647
10 2 12 100 0.0593316
11 2 12 100 6.73468e-05
12 2 12 100 0.232082
0 3 12 100 0.307362
1 3 12 100 0.0588254
2 3 12 100 0.0588236
5 3 12 100 1.14275e-05
6 3 12 100 0.0458301
7 3 12 100 0.0588236
8 3 12 100 0.176033
9 3 12 100 0.117841
10 3 12 100 0.117681
11 3 12 100 0.00032048
12 3 12 100 0.0584476
0 4 12 100 0.223534
1 4 12 100 0.0588577
2 4 12 100 0.0588236
4 4 12 100 1.38729e-06
6 4 12 100 0.0593612
7 4 12 100 0.0588229
8 4 12 100 0.177258
9 4 12 100 0.176103
10 4 12 100 0.0591241
12 4 12 100 0.128114
0 5 12 100 0.0595825
1 5 12 100 0.0625022
2 5 12 100 0.0625
6 5 12 100 0.125
7 5 12 100 2.78531e-05
8 5 12 100 0.318533
9 5 12 100 0.1875
10 5 12 100 0.0624524
12 5 12 100 0.121902
0 6 12 100 0.125176
1 6 12 100 0.0625
2 6 12 100 0.0625
6 6 12 100 0.124805
7 6 12 100 0.0625
8 6 12 100 0.25
9 6 12 100 0.125
10 6 12 100 0.0625
12 6 12 100 0.125019
0 7 12 100 0.213874
1 7 12 100 0.0718391
2 7 12 100 0.0714286
6 7 12 100 0.0714286
7 7 12 100 0.0714286
8 7 12 100 0.214287
9 7 12 100 0.142857
12 7 12 100 0.142857
0 8 12 100 0.0846164
2 8 12 100 0.0833334
4 8 12 100 0.0833334
6 8 12 100 0.0833334
7 8 12 100 0.0864215
8 8 12 100 0.328964
9 8 12 100 0.166664
12 8 12 100 0.0833333
0 9 12 100 0.4783
1 9 12 100 0.000347005
2 9 12 100 1.36969e-05
4 9 12 100 0.090909
5 9 12 100 0.0006879
6 9 12 100 0.0909091
7 9 12 100 0.0909092
8 9 12 100 0.0664529
9 9 12 100 0.090909
12 9 12 100 0.0905621
0 10 12 100 4.69038e-05
4 10 12 100 0.0999672
6 10 12 100 0.1
7 10 12 100 0.2
8 10 12 100 0.2
9 10 12 100 0.2
11 10 12 100 0.0999859
12 10 12 100 0.1
0 11 12 100 0.38191
4 11 12 100 0.1
7 11 12 100 0.2
8 11 12 100 0.0180899
9 11 12 100 0.1
12 11 12 100 0.2
0 12 12 100 0.4
1 12 12 100 5.4867e-06
4 12 12 100 0.1
7 12 12 100 0.199995
8 12 12 100 0.1
9 12 12 100 0.0999998
12 12 12 100 0.1
0 13 12 100 0.204625
4 13 12 100 0.1
5 13 12 100 2.34328e-06
6 13 12 100 0.1
7 13 12 100 0.288969
10 13 12 100 0.1
11 13 12 100 0.00641994
12 13 12 100 0.199983
0 14 12 100 0.101901
4 14 12 100 0.1
6 14 12 100 0.198231
7 14 12 100 0.1
8 14 12 100 0.1
10 14 12 100 0.1
12 14 12 100 0.299867
0 15 12 100 0.333506
4 15 12 100 0.111054
6 15 12 100 0.222106
8 15 12 100 0.111111
9 15 12 100 0.111111
12 15 12 100 0.111111
0 16 12 100 0.258875
4 16 12 100 0.114928
5 16 12 100 0.125
6 16 12 100 0.124507
8 16 12 100 0.127096
9 16 12 100 0.125
10 16 12 100 3.61663e-06
11 16 12 100 0.12459
0 17 12 100 0.428615
4 17 12 100 0.142857
5 17 12 100 0.142857
6 17 12 100 0.142813
9 17 12 100 0.142857
0 18 12 100 3.0011e-05
3 18 12 100 0.285699
4 18 12 100 0.142857
8 18 12 100 0.142857
9 18 12 100 0.2857
10 18 12 100 0.142857
0 19 12 100 0.176385
3 19 12 100 0.142847
4 19 12 100 0.142313
5 19 12 100 0.110348
9 19 12 100 0.141848
10 19 12 100 0.285715
12 19 12 100 0.00054457
0 20 12 100 0.145208
3 20 12 100 0.140627
4 20 12 100 0.142857
9 20 12 100 0.285714
10 20 12 100 0.285594
0 21 12 100 0.00738403
1 21 12 100 2.85062e-06
3 21 12 100 0.166667
4 21 12 100 0.166667
9 21 12 100 0.166391
10 21 12 100 0.166667
12 21 12 100 0.326221
0 22 12 100 0.200022
1 22 12 100 6.8986e-05
5 22 12 100 0.2
9 22 12 100 0.199909
10 22 12 100 0.4
0 23 12 100 0.00426435
4 23 12 100 0.25
9 23 12 100 0.249657
10 23 12 100 0.25
11 23 12 100 0.246078
0 24 12 100 0.333333
4 24 12 100 0.333334
10 24 12 100 0.333333
0 25 12 100 6.16117e-05
4 25 12 100 0.333333
9 25 12 100 0.333272
10 25 12 100 0.333333
0 26 12 100 0.666667
12 26 12 100 0.333333
0 27 12 100 0.370663
3 27 12 100 0.129338
10 27 12 100 0.499998
10 28 12 100 0.5
12 28 12 100 0.5
10 29 12 100 0.500002
12 29 12 100 0.499998
7 30 12 100 0.5
12 30 12 100 0.5
0 31 12 100 0.494238
5 31 12 100 0.00576205
7 31 12 100 0.5
7 32 12 100 0.5
12 32 12 100 0.5
12 33 12 100 1
0 1 13 100 7.59047e-07
1 1 13 100 0.00038284
2 1 13 100 0.0122401
3 1 13 100 0.00116378
4 1 13 100 0.199875
5 1 13 100 0.304952
6 1 13 100 0.0876998
7 1 13 100 0.100209
8 1 13 100 0.0639074
9 1 13 100 0.1
10 1 13 100 0.0445861
11 1 13 100 0.0660241
12 1 13 100 0.0188913
13 1 13 100 6.76321e-05
0 2 13 100 0.238598
2 2 13 100 7.99261e-07
3 2 13 100 0.0555556
4 2 13 100 0.106808
5 2 13 100 0.147503
7 2 13 100 0.167942
8 2 13 100 0.00275581
9 2 13 100 0.110721
10 2 13 100 0.000281947
11 2 13 100 0.0555556
12 2 13 100 0.0587224
13 2 13 100 0.0555556
0 3 13 100 0.222638
1 3 13 100 1.1963e-05
2 3 13 100 3.35856e-06
3 3 13 100 0.0555556
4 3 13 100 0.111108
5 3 13 100 0.0555556
6 3 13 100 0.0555319
7 3 13 100 0.11111
8 3 13 100 0.0555564
9 3 13 100 0.111111
11 3 13 100 0.0555556
12 3 13 100 0.0551508
13 3 13 100 0.111111
0 4 13 100 0.355004
1 4 13 100 0.000107738
5 4 13 100 0.117651
6 4 13 100 0.0588236
7 4 13 100 0.0588246
8 4 13 100 0.0181801
9 4 13 100 0.117632
11 4 13 100 0.0993401
12 4 13 100 0.0588236
13 4 13 100 0.115613
0 5 13 100 0.385073
2 5 13 100 0.11686
3 5 13 100 0.0588236
4 5 13 100 1.18525e-06
5 5 13 100 0.117647
6 5 13 100 0.0588084
7 5 13 100 0.112681
9 5 13 100 0.091277
10 5 13 100 2.05668e-06
11 5 13 100 0.0588236
13 5 13 100 3.15346e-06
0 6 13 100 0.127192
1 6 13 100 0.000469192
2 6 13 100 0.0625001
4 6 13 100 0.0625028
5 6 13 100 0.0625001
6 6 13 100 0.125
7 6 13 100 0.125
8 6 13 100 0.0625001
9 6 13 100 0.0625
10 6 13 100 0.0625001
11 6 13 100 0.0599754
12 6 13 100 0.00164078
13 6 13 100 0.18572
0 7 13 100 0.143211
2 7 13 100 0.0711557
3 7 13 100 0.0714317
4 7 13 100 0.0713826
5 7 13 100 0.142231
6 7 13 100 0.0720549
7 7 13 100 3.33467e-05
8 7 13 100 0.0494887
9 7 13 100 0.0713122
10 7 13 100 0.0714286
11 7 13 100 0.0219845
13 7 13 100 0.214286
0 8 13 100 0.286743
2 8 13 100 0.0713667
3 8 13 100 0.0729077
4 8 13 100 0.0714286
5 8 13 100 0.000264401
6 8 13 100 0.0714285
9 8 13 100 0.0687181
10 8 13 100 0.0714286
12 8 13 100 0.0714286
13 8 13 100 0.214286
0 9 13 100 0.0730566
2 9 13 100 0.140641
3 9 13 100 0.0714286
4 9 13 100 0.0714286
6 9 13 100 0.142857
9 9 13 100 0.0714285
10 9 13 100 0.142857
12 9 13 100 0.0714286
13 9 13 100 0.214873
0 10 13 100 0.155517
3 10 13 100 2.05693e-06
4 10 13 100 0.0767304
5 10 13 100 0.0769231
7 10 13 100 0.000448821
8 10 13 100 0.076923
9 10 13 100 0.000194725
10 10 13 100 0.228714
12 10 13 100 0.0768832
13 10 13 100 0.307664
0 11 13 100 0.236528
1 11 13 100 0.153846
6 11 13 100 0.0769282
7 11 13 100 4.02407e-05
8 11 13 100 0.0768431
10 11 13 100 0.153715
12 11 13 100 0.148253
13 11 13 100 0.153846
0 12 13 100 0.0769231
1 12 13 100 0.153846
6 12 13 100 0.153805
8 12 13 100 0.153846
9 12 13 100 0.0769231
10 12 13 100 0.0769231
11 12 13 100 0.0769646
13 12 13 100 0.230769
0 13 13 100 0.105363
1 13 13 100 0.180068
6 13 13 100 0.0909092
8 13 13 100 0.272727
9 13 13 100 0.169113
11 13 13 100 0.0909092
13 13 13 100 0.0909092
0 14 13 100 0.437998
1 14 13 100 2.31009e-05
6 14 13 100 0.222222
8 14 13 100 0.222224
9 14 13 100 3.48383e-06
11 14 13 100 0.111094
13 14 13 100 0.00643434
0 15 13 100 0.222236
1 15 13 100 0.222222
6 15 13 100 0.223316
7 15 13 100 0.110002
8 15 13 100 0.11111
11 15 13 100 0.111111
12 15 13 100 1.91634e-06
0 16 13 100 1.72106e-06
1 16 13 100 0.221952
4 16 13 100 0.000270214
6 16 13 100 0.222221
7 16 13 100 0.111111
8 16 13 100 0.222222
9 16 13 100 0.111111
11 16 13 100 0.111111
0 17 13 100 3.14784e-06
1 17 13 100 0.125
3 17 13 100 0.0213071
6 17 13 100 0.25
7 17 13 100 0.125
8 17 13 100 0.125
9 17 13 100 0.228675
11 17 13 100 0.125015
0 18 13 100 2.48829e-05
1 18 13 100 0.166667
6 18 13 100 0.166667
7 18 13 100 0.166642
8 18 13 100 0.166667
9 18 13 100 0.166667
11 18 13 100 0.166667
0 19 13 100 0.00106551
1 19 13 100 0.166667
6 19 13 100 0.165615
7 19 13 100 0.166418
8 19 13 100 0.166666
9 19 13 100 0.166667
11 19 13 100 0.166902
0 20 13 100 0.337585
1 20 13 100 0.16178
5 20 13 100 0.000219735
6 20 13 100 0.166886
7 20 13 100 0.166849
9 20 13 100 0.166675
10 20 13 100 4.28451e-06
0 21 13 100 0.211231
2 21 13 100 0.00770724
4 21 13 100 0.188807
8 21 13 100 0.267271
9 21 13 100 0.321191
11 21 13 100 0.00379204
0 22 13 100 0.2
4 22 13 100 0.4
9 22 13 100 0.2
12 22 13 100 0.2
0 23 13 100 0.2
4 23 13 100 0.4
7 23 13 100 3.05771e-06
8 23 13 100 0.199997
12 23 13 100 0.2
0 24 13 100 6.14327e-06
1 24 13 100 0.249994
4 24 13 100 0.25
5 24 13 100 0.25
12 24 13 100 0.249999
0 25 13 100 0.25
4 25 13 100 0.5
8 25 13 100 0.25
1 26 13 100 0.25
4 26 13 100 0.5
10 26 13 100 0.25
0 27 13 100 0.333333
4 27 13 100 0.333333
10 27 13 100 0.333333
0 28 13 100 0.333407
1 28 13 100 0.33326
11 28 13 100 0.332526
12 28 13 100 0.000806937
1 29 13 100 0.5
4 29 13 100 0.5
0 30 13 100 0.103388
4 30 13 100 0.5
13 30 13 100 0.396612
0 31 13 100 0.5
4 31 13 100 0.5
4 32 13 100 0.5
13 32 13 100 0.5
4 33 13 100 0.5
13 33 13 100 0.5
0 34 13 100 0.000244032
4 34 13 100 0.5
13 34 13 100 0.499756
1 35 13 100 0.5
13 35 13 100 0.5
0 36 13 100 1
2 37 13 100 1
1 38 13 100 1
1 39 13 100 1
1 40 13 100 1
1 41 13 100 1
11 42 13 100 1
0 43 13 100 1
11 44 13 100 1
11 45 13 100 1
0 46 13 100 1
11 47 13 100 1
9 48 13 100 1
9 49 13 100 1
0 50 13 100 1
13 51 13 100 1
0 52 13 100 1
13 53 13 100 1
11 54 13 100 1
1 55 13 100 1
1 56 13 100 1
1 57 13 100 1
0 1 14 100 0.000284512
1 1 14 100 0.00158159
2 1 14 100 0.0728292
3 1 14 100 0.0390593
4 1 14 100 0.00788298
5 1 14 100 0.0119819
6 1 14 100 0.110893
7 1 14 100 0.000238279
8 1 14 100 0.00088829
9 1 14 100 1.70893e-05
10 1 14 100 0.34616
11 1 14 100 0.0878389
12 1 14 100 0.00568035
13 1 14 100 0.0422236
14 1 14 100 0.272441
0 2 14 100 0.409491
1 2 14 100 0.0454507
2 2 14 100 1.87538e-05
3 2 14 100 1.89248e-05
4 2 14 100 5.09245e-07
6 2 14 100 0.0453113
9 2 14 100 9.89235e-06
10 2 14 100 0.135971
11 2 14 100 0.0909177
12 2 14 100 6.47713e-05
13 2 14 100 0.045502
14 2 14 100 0.227244
0 3 14 100 0.41249
6 3 14 100 0.0452038
7 3 14 100 2.34825e-05
8 3 14 100 0.0454552
9 3 14 100 0.000250794
10 3 14 100 0.180629
11 3 14 100 0.0454546
13 3 14 100 0.0909093
14 3 14 100 0.179584
0 4 14 100 0.160507
1 4 14 100 0.0454563
2 4 14 100 0.0017342
4 4 14 100 0.0454546
6 4 14 100 0.0909091
8 4 14 100 0.0909091
9 4 14 100 0.000406285
10 4 14 100 0.245657
11 4 14 100 0.0454546
12 4 14 100 0.0453229
13 4 14 100 0.0909091
14 4 14 100 0.13728
0 5 14 100 0.19877
1 5 14 100 0.0501135
2 5 14 100 0.000156958
3 5 14 100 0.05
4 5 14 100 0.05
6 5 14 100 0.0500014
7 5 14 100 2.72994e-06
8 5 14 100 0.1
10 5 14 100 0.15
11 5 14 100 0.05
12 5 14 100 0.100956
13 5 14 100 0.05
14 5 14 100 0.15
0 6 14 100 0.455798
1 6 14 100 0.000530086
4 6 14 100 0.0526317
6 6 14 100 0.0526317
7 6 14 100 8.7745e-07
8 6 14 100 0.104719
10 6 14 100 0.052655
11 6 14 100 0.105263
12 6 14 100 0.0526317
13 6 14 100 0.0531613
14 6 14 100 0.0699768
0 7 14 100 0.210911
2 7 14 100 0.00202616
4 7 14 100 0.0526316
6 7 14 100 0.157312
8 7 14 100 0.05261
9 7 14 100 0.050566
10 7 14 100 0.105263
11 7 14 100 0.157896
12 7 14 100 4.21327e-05
13 7 14 100 0.105263
14 7 14 100 0.105479
0 8 14 100 0.195486
1 8 14 100 0.111111
2 8 14 100 6.61929e-07
4 8 14 100 0.0555556
6 8 14 100 0.0555556
7 8 14 100 3.433e-06
8 8 14 100 0.111111
10 8 14 100 0.000197062
11 8 14 100 0.183873
12 8 14 100 0.111127
13 8 14 100 0.111389
14 8 14 100 0.064591
0 9 14 100 0.220667
1 9 14 100 0.111097
4 9 14 100 0.0554884
5 9 14 100 0.0555556
6 9 14 100 0.111111
8 9 14 100 0.111056
9 9 14 100 2.5299e-05
10 9 14 100 0.0555556
11 9 14 100 0.11145
12 9 14 100 0.111111
13 9 14 100 0.0555556
14 9 14 100 0.00132682
0 10 14 100 0.0580741
1 10 14 100 0.11109
4 10 14 100 0.0555556
5 10 14 100 0.166667
6 10 14 100 0.108774
8 10 14 100 0.0555556
10 10 14 100 0.111111
11 10 14 100 0.0555556
12 10 14 100 0.0555556
13 10 14 100 0.166627
14 10 14 100 0.0554339
0 11 14 100 0.11792
1 11 14 100 0.117647
4 11 14 100 0.0588235
5 11 14 100 0.0588235
6 11 14 100 0.0588235
8 11 14 100 0.0588235
9 11 14 100 0.0588235
10 11 14 100 0.117659
11 11 14 100 0.176471
12 11 14 100 0.0588235
13 11 14 100 0.117362
0 12 14 100 0.352899
2 12 14 100 9.19853e-07
3 12 14 100 3.20566e-06
4 12 14 100 0.0588236
5 12 14 100 0.0588236
6 12 14 100 0.11765
8 12 14 100 0.0588236
9 12 14 100 8.51007e-06
10 12 14 100 0.0588236
11 12 14 100 0.176471
13 12 14 100 0.117647
14 12 14 100 2.54165e-05
0 13 14 100 0.249078
1 13 14 100 0.0625001
5 13 14 100 0.0625001
6 13 14 100 0.125
10 13 14 100 0.125
11 13 14 100 0.3125
12 13 14 100 0.00120587
13 13 14 100 0.0622154
0 14 14 100 0.133346
1 14 14 100 0.0666667
5 14 14 100 0.0666667
6 14 14 100 0.0666541
8 14 14 100 0.0655312
10 14 14 100 0.201136
11 14 14 100 0.2
12 14 14 100 0.0666667
13 14 14 100 0.133333
0 15 14 100 0.427714
2 15 14 100 3.82468e-06
3 15 14 100 2.7332e-06
5 15 14 100 0.0714313
6 15 14 100 0.000102611
8 15 14 100 0.0715312
9 15 14 100 5.94493e-05
10 15 14 100 0.140618
11 15 14 100 0.142857
12 15 14 100 0.0728334
13 15 14 100 0.0728215
14 15 14 100 2.47174e-05
0 16 14 100 0.0714466
1 16 14 100 0.0714286
5 16 14 100 0.0714296
6 16 14 100 0.142857
8 16 14 100 0.285696
11 16 14 100 0.214282
12 16 14 100 0.0714286
13 16 14 100 0.0714286
14 16 14 100 2.89407e-06
0 17 14 100 0.333907
5 17 14 100 0.166138
6 17 14 100 0.0833334
7 17 14 100 1.4161e-05
8 17 14 100 0.166667
11 17 14 100 0.166667
13 17 14 100 0.083274
0 18 14 100 0.000142568
5 18 14 100 0.0909091
7 18 14 100 7.63484e-05
8 18 14 100 0.27272
11 18 14 100 0.363526
12 18 14 100 0.181818
13 18 14 100 0.0908086
0 19 14 100 0.246289
2 19 14 100 7.62429e-05
5 19 14 100 0.0909047
7 19 14 100 1.96817e-05
8 19 14 100 0.361937
11 19 14 100 0.0909091
12 19 14 100 0.11903
13 19 14 100 0.0908329
0 20 14 100 0.392346
5 20 14 100 0.090909
7 20 14 100 0.090889
8 20 14 100 0.0909092
9 20 14 100 0.007021
10 20 14 100 0.000167393
11 20 14 100 0.226484
13 20 14 100 0.0909092
14 20 14 100 0.0103644
0 21 14 100 0.182311
5 21 14 100 0.0700269
7 21 14 100 0.181941
8 21 14 100 0.272728
11 21 14 100 0.0145765
12 21 14 100 0.0024975
13 21 14 100 0.181818
14 21 14 100 0.0941013
0 22 14 100 0.000588772
3 22 14 100 0.1
4 22 14 100 0.1
8 22 14 100 0.2
9 22 14 100 0.1
11 22 14 100 0.1
13 22 14 100 0.299411
14 22 14 100 0.1
0 23 14 100 0.111799
4 23 14 100 0.118649
8 23 14 100 0.111111
9 23 14 100 0.111111
11 23 14 100 0.111105
13 23 14 100 0.32579
14 23 14 100 0.110435
0 24 14 100 0.229307
3 24 14 100 0.111111
4 24 14 100 0.111111
5 24 14 100 0.111111
8 24 14 100 0.111111
12 24 14 100 0.111111
13 24 14 100 0.111111
14 24 14 100 0.104027
0 25 14 100 0.188846
2 25 14 100 0.000405448
3 25 14 100 0.0237741
4 25 14 100 0.0237741
5 25 14 100 0.16771
6 25 14 100 0.0237741
7 25 14 100 0.000313741
8 25 14 100 0.285697
12 25 14 100 0.142857
13 25 14 100 0.142849
0 26 14 100 0.333826
2 26 14 100 0.332841
8 26 14 100 0.166667
12 26 14 100 0.166667
2 27 14 100 0.166667
6 27 14 100 7.59241e-06
8 27 14 100 0.333333
10 27 14 100 0.166659
12 27 14 100 0.166667
14 27 14 100 0.166667
0 28 14 100 0.200054
7 28 14 100 0.199963
8 28 14 100 0.199982
11 28 14 100 0.2
14 28 14 100 0.2
2 29 14 100 0.5
8 29 14 100 0.25
14 29 14 100 0.25
0 30 14 100 0.666662
2 30 14 100 0.333333
11 30 14 100 4.4592e-06
0 31 14 100 0.333333
2 31 14 100 0.333333
3 31 14 100 0.333333
0 32 14 100 0.660533
2 32 14 100 0.00613372
14 32 14 100 0.333333
0 33 14 100 0.00296027
2 33 14 100 0.663706
14 33 14 100 0.333333
0 34 14 100 0.00056263
2 34 14 100 0.666104
14 34 14 100 0.333333
0 35 14 100 0.333333
10 35 14 100 0.333333
14 35 14 100 0.333333
0 36 14 100 0.333333
10 36 14 100 0.333333
11 36 14 100 0.333333
2 37 14 100 0.333333
8 37 14 100 0.333333
10 37 14 100 0.333333
0 38 14 100 0.666667
10 38 14 100 0.333333
0 39 14 100 0.49994
8 39 14 100 0.5
13 39 14 100 5.96472e-05
0 40 14 100 0.499998
6 40 14 100 0.500002
0 41 14 100 1.81716e-05
6 41 14 100 0.5
8 41 14 100 0.499982
1 42 14 100 0.5
7 42 14 100 0.5
0 43 14 100 0.49906
1 43 14 100 0.5
8 43 14 100 0.00094024
1 44 14 100 1
1 45 14 100 1
1 46 14 100 1
0 47 14 100 0.000103979
1 47 14 100 0.999896
0 48 14 100 0.5
6 48 14 100 0.5
1 49 14 100 1
1 50 14 100 1
1 51 14 100 0.5
14 51 14 100 0.5
0 52 14 100 0.5
14 52 14 100 0.5
1 53 14 100 1
0 54 14 100 0.00633293
8 54 14 100 0.993667
2 55 14 100 1
13 56 14 100 1
0 1 15 100 0.000230204
1 1 15 100 0.120208
2 1 15 100 0.151978
4 1 15 100 0.0399751
5 1 15 100 0.0877879
6 1 15 100 0.00369706
7 1 15 100 0.120021
8 1 15 100 0.199981
9 1 15 100 0.000751977
11 1 15 100 0.119999
12 1 15 100 0.00684402
13 1 15 100 0.109183
15 1 15 100 0.0393436
0 2 15 100 0.0934206
1 2 15 100 0.0733038
4 2 15 100 7.0971e-05
5 2 15 100 0.113026
6 2 15 100 0.039929
7 2 15 100 0.0802874
8 2 15 100 0.24
9 2 15 100 0.000476226
11 2 15 100 0.0800029
12 2 15 100 0.000102158
13 2 15 100 0.199381
14 2 15 100 0.04
15 2 15 100 0.04
0 3 15 100 0.35713
1 3 15 100 1.734e-05
2 3 15 100 0.0399814
4 3 15 100 1.93367e-06
5 3 15 100 0.114104
6 3 15 100 1.05069e-06
7 3 15 100 0.0399321
8 3 15 100 0.165217
9 3 15 100 0.00131495
10 3 15 100 0.00102932
11 3 15 100 0.0403277
13 3 15 100 0.16
14 3 15 100 0.0400001
15 3 15 100 0.0409431
0 4 15 100 0.28182
1 4 15 100 0.04
2 4 15 100 0.04
4 4 15 100 0.04
5 4 15 100 0.0799892
6 4 15 100 0.0400097
7 4 15 100 0.08
8 4 15 100 0.159222
11 4 15 100 0.079979
12 4 15 100 0.000778164
13 4 15 100 0.118193
14 4 15 100 0.04
15 4 15 100 8.19542e-06
0 5 15 100 0.158554
1 5 15 100 0.0750948
2 5 15 100 0.04
4 5 15 100 0.0800309
5 5 15 100 0.04
7 5 15 100 0.0799533
8 5 15 100 0.159372
9 5 15 100 0.0405662
10 5 15 100 2.523e-05
11 5 15 100 0.0800001
12 5 15 100 0.000611686
13 5 15 100 0.160014
14 5 15 100 0.040929
15 5 15 100 0.044849
0 6 15 100 0.0914941
1 6 15 100 0.0431763
3 6 15 100 0.0434783
4 6 15 100 0.128539
6 6 15 100 0.0869565
7 6 15 100 0.0869007
8 6 15 100 0.26087
10 6 15 100 1.29717e-05
11 6 15 100 0.0866918
13 6 15 100 0.128401
15 6 15 100 0.0434795
0 7 15 100 0.150731
1 7 15 100 0.0434783
3 7 15 100 0.0434783
4 7 15 100 0.130157
5 7 15 100 1.67453e-06
6 7 15 100 0.0869565
7 7 15 100 0.0868576
8 7 15 100 0.173911
11 7 15 100 0.0868573
12 7 15 100 7.68417e-05
13 7 15 100 0.121742
14 7 15 100 0.00161878
15 7 15 100 0.0741345
0 8 15 100 0.227535
1 8 15 100 0.045423
3 8 15 100 0.0451778
4 8 15 100 0.090923
5 8 15 100 5.75954e-07
6 8 15 100 0.0454522
7 8 15 100 0.0455048
8 8 15 100 0.136318
9 8 15 100 0.045431
11 8 15 100 0.0909213
12 8 15 100 4.48574e-05
13 8 15 100 0.136378
14 8 15 100 0.0454367
15 8 15 100 0.0454546
0 9 15 100 0.156236
1 9 15 100 0.0476215
3 9 15 100 0.043065
4 9 15 100 0.0952381
6 9 15 100 0.0476191
7 9 15 100 0.133244
8 9 15 100 0.0952381
9 9 15 100 8.6228e-05
10 9 15 100 0.000143117
11 9 15 100 0.0952381
13 9 15 100 0.14294
14 9 15 100 0.0480921
15 9 15 100 0.0952381
0 10 15 100 0.253763
1 10 15 100 0.0998738
3 10 15 100 0.05
4 10 15 100 0.0953341
5 10 15 100 0.0495528
7 10 15 100 0.0500438
9 10 15 100 0.0013006
10 10 15 100 4.49954e-05
11 10 15 100 0.150021
13 10 15 100 0.100067
14 10 15 100 0.05
15 10 15 100 0.1
0 11 15 100 0.249119
1 11 15 100 0.000301291
2 11 15 100 6.64364e-07
3 11 15 100 0.0554393
4 11 15 100 0.0555611
5 11 15 100 0.11109
6 11 15 100 6.99453e-06
7 11 15 100 0.111718
8 11 15 100 0.0555556
11 11 15 100 0.166669
12 11 15 100 0.0212524
13 11 15 100 0.117731
14 11 15 100 0.0555555
0 12 15 100 0.100062
1 12 15 100 0.0625001
3 12 15 100 0.0625
4 12 15 100 0.0625001
5 12 15 100 0.125
6 12 15 100 0.125
8 12 15 100 0.1875
11 12 15 100 0.0625001
13 12 15 100 0.0663122
14 12 15 100 0.0631257
15 12 15 100 0.0830001
0 13 15 100 0.133345
1 13 15 100 0.133333
3 13 15 100 0.0670194
4 13 15 100 0.0666667
5 13 15 100 0.132282
6 13 15 100 0.0666678
8 13 15 100 0.132952
13 13 15 100 0.0666667
14 13 15 100 0.0666667
15 13 15 100 0.134401
0 14 15 100 0.000107626
2 14 15 100 1.59043e-05
3 14 15 100 0.0283453
5 14 15 100 0.249969
6 14 15 100 0.0833627
8 14 15 100 0.333327
10 14 15 100 1.95236e-06
11 14 15 100 0.110819
12 14 15 100 0.0274858
14 14 15 100 0.0832327
15 14 15 100 0.0833334
0 15 15 100 0.195667
1 15 15 100 0.181818
2 15 15 100 0.09091
5 15 15 100 9.10269e-05
6 15 15 100 0.0909091
8 15 15 100 0.181835
11 15 15 100 0.0909091
14 15 15 100 0.0769507
15 15 15 100 0.0909091
0 16 15 100 0.000274804
1 16 15 100 0.1
2 16 15 100 0.1
3 16 15 100 2.61819e-06
8 16 15 100 0.399732
9 16 15 100 0.1
11 16 15 100 0.1
13 16 15 100 0.0980304
14 16 15 100 0.0019649
15 16 15 100 0.0999954
0 17 15 100 0.374969
1 17 15 100 0.124982
6 17 15 100 0.125
8 17 15 100 0.125
9 17 15 100 0.125
15 17 15 100 0.125049
0 18 15 100 0.261506
1 18 15 100 0.125
4 18 15 100 0.125
5 18 15 100 0.125
9 18 15 100 0.113494
10 18 15 100 0.125
11 18 15 100 0.125
0 19 15 100 0.12539
5 19 15 100 0.24961
8 19 15 100 0.125
10 19 15 100 0.25
11 19 15 100 0.25
1 20 15 100 0.125
3 20 15 100 2.161e-05
4 20 15 100 4.77908e-05
5 20 15 100 0.125
7 20 15 100 0.12493
8 20 15 100 0.125
10 20 15 100 0.25
11 20 15 100 0.25
0 21 15 100 0.166539
1 21 15 100 0.166667
3 21 15 100 0.166667
5 21 15 100 0.333333
8 21 15 100 0.000127566
10 21 15 100 0.166667
0 22 15 100 0.599949
1 22 15 100 0.2
3 22 15 100 0.2
15 22 15 100 5.03579e-05
1 23 15 100 0.2
3 23 15 100 0.2
6 23 15 100 0.4
10 23 15 100 0.2
0 24 15 100 0.398946
6 24 15 100 0.4
10 24 15 100 0.2
14 24 15 100 0.00105432
0 25 15 100 0.197386
3 25 15 100 0.2
6 25 15 100 0.2
7 25 15 100 0.2
10 25 15 100 0.2
13 25 15 100 0.00261401
0 26 15 100 0.406184
3 26 15 100 0.2
6 26 15 100 0.193793
10 26 15 100 0.2
14 26 15 100 2.23748e-05
0 27 15 100 0.0126973
1 27 15 100 0.2
3 27 15 100 0.2
6 27 15 100 0.2
7 27 15 100 0.199711
11 27 15 100 0.187592
0 28 15 100 0.200084
1 28 15 100 0.2
3 28 15 100 0.2
6 28 15 100 0.399916
0 29 15 100 0.200002
1 29 15 100 0.2
3 29 15 100 0.2
11 29 15 100 0.199998
15 29 15 100 0.2
1 30 15 100 0.2
7 30 15 100 0.2
11 30 15 100 0.4
15 30 15 100 0.2
4 31 15 100 0.2
5 31 15 100 0.2
8 31 15 100 0.4
11 31 15 100 0.2
1 32 15 100 0.25
5 32 15 100 0.25
8 32 15 100 0.499788
9 32 15 100 0.000211675
0 33 15 100 1.28163e-05
4 33 15 100 0.25
5 33 15 100 0.249987
8 33 15 100 0.25
10 33 15 100 0.25
0 34 15 100 0.333333
3 34 15 100 0.333334
8 34 15 100 0.333334
0 35 15 100 0.99988
7 35 15 100 1.18039e-05
8 35 15 100 0.000108283
0 36 15 100 0.333333
8 36 15 100 0.333333
10 36 15 100 0.333333
0 37 15 100 9.44223e-05
8 37 15 100 0.666667
14 37 15 100 0.333239
0 38 15 100 0.0110934
2 38 15 100 0.333333
9 38 15 100 0.333333
14 38 15 100 0.32224
2 39 15 100 0.333333
9 39 15 100 0.333333
14 39 15 100 0.333333
9 40 15 100 0.333333
10 40 15 100 0.333333
14 40 15 100 0.333333
9 41 15 100 0.333333
10 41 15 100 0.333333
14 41 15 100 0.333333
0 42 15 100 0.000373372
10 42 15 100 0.666661
14 42 15 100 0.332966
0 43 15 100 0.666667
11 43 15 100 0.333333
0 44 15 100 0.333249
10 44 15 100 0.333333
11 44 15 100 0.333333
15 44 15 100 8.39298e-05
0 45 15 100 0.666667
11 45 15 100 0.333333
0 46 15 100 0.658707
4 46 15 100 0.333333
15 46 15 100 0.00796009
10 47 15 100 0.666667
11 47 15 100 0.333333
10 48 15 100 0.666667
11 48 15 100 0.333333
10 49 15 100 0.666667
11 49 15 100 0.333333
0 50 15 100 0.33334
10 50 15 100 0.333333
11 50 15 100 0.333327
0 51 15 100 0.333333
1 51 15 100 0.333334
15 51 15 100 0.333334
6 52 15 100 0.333333
10 52 15 100 0.333333
11 52 15 100 0.333333
0 53 15 100 0.499239
1 53 15 100 3.86721e-05
5 53 15 100 0.500723
11 54 15 100 1
12 55 15 100 1
0 56 15 100 1
14 57 15 100 1
0 1 16 100 0.0265466
1 1 16 100 0.0286071
2 1 16 100 0.00761575
3 1 16 100 0.00618252
4 1 16 100 0.00260874
5 1 16 100 0.0687085
6 1 16 100 0.230934
7 1 16 100 0.0106676
8 1 16 100 0.0386631
9 1 16 100 0.252129
10 1 16 100 0.00216702
11 1 16 100 0.115554
12 1 16 100 0.0430349
13 1 16 100 0.078587
14 1 16 100 0.0238208
15 1 16 100 0.0628886
16 1 16 100 0.00128476
0 2 16 100 0.29836
1 2 16 100 3.66578e-06
3 2 16 100 0.00082702
4 2 16 100 6.75722e-06
5 2 16 100 1.79023e-05
6 2 16 100 0.192062
7 2 16 100 3.617e-06
8 2 16 100 0.0384615
9 2 16 100 0.160122
10 2 16 100 0.0386603
11 2 16 100 0.0769628
12 2 16 100 0.00135462
13 2 16 100 0.0392978
14 2 16 100 0.0384616
15 2 16 100 0.115385
16 2 16 100 1.39001e-05
0 3 16 100 0.301293
1 3 16 100 0.000297586
6 3 16 100 0.191395
8 3 16 100 0.0384678
9 3 16 100 0.192117
10 3 16 100 0.0392221
11 3 16 100 0.000130168
13 3 16 100 0.0384615
14 3 16 100 0.0384518
15 3 16 100 0.16016
16 3 16 100 4.17083e-06
0 4 16 100 0.287402
1 4 16 100 0.0400016
3 4 16 100 1.38572e-05
6 4 16 100 0.119972
7 4 16 100 5.60782e-07
9 4 16 100 0.155163
10 4 16 100 0.0400006
11 4 16 100 0.04
13 4 16 100 0.0799903
15 4 16 100 0.237455
0 5 16 100 0.0431437
1 5 16 100 0.0416676
3 5 16 100 0.0416667
5 5 16 100 1.13302e-05
6 5 16 100 0.0833334
7 5 16 100 0.0416667
8 5 16 100 0.0833333
9 5 16 100 0.207353
11 5 16 100 0.083322
13 5 16 100 0.125
14 5 16 100 1.69044e-05
15 5 16 100 0.207819
16 5 16 100 0.0416667
0 6 16 100 0.0855115
1 6 16 100 0.0416667
6 6 16 100 0.0833541
7 6 16 100 0.0416678
8 6 16 100 0.0833333
9 6 16 100 0.249765
10 6 16 100 0.000261461
11 6 16 100 0.0416667
13 6 16 100 0.104795
15 6 16 100 0.208254
16 6 16 100 0.0597237
0 7 16 100 0.153231
1 7 16 100 0.0416667
3 7 16 100 7.96704e-07
5 7 16 100 4.22091e-07
6 7 16 100 0.0433056
7 7 16 100 0.0139385
8 7 16 100 0.0833334
9 7 16 100 0.164525
11 7 16 100 0.0416576
12 7 16 100 2.42247e-05
13 7 16 100 0.125005
15 7 16 100 0.249978
16 7 16 100 0.0833333
0 8 16 100 0.171199
1 8 16 100 0.000517562
2 8 16 100 4.54769e-06
5 8 16 100 0.0416624
6 8 16 100 0.0833328
7 8 16 100 0.0830074
8 8 16 100 0.0833738
9 8 16 100 0.0846421
11 8 16 100 0.0416667
13 8 16 100 0.125046
14 8 16 100 8.75936e-06
15 8 16 100 0.163711
16 8 16 100 0.121827
0 9 16 100 0.0571107
1 9 16 100 0.0436961
3 9 16 100 1.39822e-05
5 9 16 100 5.3576e-07
6 9 16 100 0.130434
7 9 16 100 0.0434783
8 9 16 100 0.0869338
9 9 16 100 0.16798
11 9 16 100 1.27698e-06
13 9 16 100 0.04348
14 9 16 100 0.0433328
15 9 16 100 0.296323
16 9 16 100 0.0872157
0 10 16 100 0.003681
1 10 16 100 0.0555556
4 10 16 100 1.50531e-06
6 10 16 100 0.166546
7 10 16 100 0.0555541
8 10 16 100 0.0555556
9 10 16 100 0.166666
10 10 16 100 0.0555556
13 10 16 100 0.111112
15 10 16 100 0.21866
16 10 16 100 0.111111
0 11 16 100 0.158028
1 11 16 100 0.0588237
4 11 16 100 1.15359e-06
6 11 16 100 0.000314912
7 11 16 100 0.0570709
8 11 16 100 0.088629
9 11 16 100 0.176731
10 11 16 100 0.0588236
13 11 16 100 0.0588237
14 11 16 100 0.0588237
15 11 16 100 0.234637
16 11 16 100 0.049294
0 12 16 100 0.29473
1 12 16 100 0.0588236
6 12 16 100 0.0588236
7 12 16 100 0.000500665
8 12 16 100 0.0588236
9 12 16 100 0.175343
10 12 16 100 0.0588308
11 12 16 100 0.0588236
12 12 16 100 0.0588308
13 12 16 100 0.0588236
14 12 16 100 0.0588236
15 12 16 100 0.0588236
0 13 16 100 0.279156
1 13 16 100 0.0625028
4 13 16 100 9.79841e-05
5 13 16 100 0.000266324
6 13 16 100 3.21592e-06
7 13 16 100 0.0063316
8 13 16 100 0.0625
9 13 16 100 0.0624968
10 13 16 100 0.071138
11 13 16 100 0.0625
12 13 16 100 0.0625305
14 13 16 100 0.137043
15 13 16 100 0.192944
16 13 16 100 0.000490176
0 14 16 100 0.277609
2 14 16 100 1.84299e-05
6 14 16 100 0.0714286
8 14 16 100 0.214286
9 14 16 100 0.142373
10 14 16 100 0.0714286
11 14 16 100 0.0714286
12 14 16 100 0.0714286
14 14 16 100 0.0714286
15 14 16 100 0.00698794
16 14 16 100 0.00158353
0 15 16 100 0.215266
3 15 16 100 0.0012312
6 15 16 100 0.153783
8 15 16 100 0.153846
9 15 16 100 0.0768986
10 15 16 100 0.0678725
11 15 16 100 0.0769231
12 15 16 100 0.0769231
13 15 16 100 0.0061052
14 15 16 100 0.0769231
15 15 16 100 0.0769231
16 15 16 100 0.0173051
0 16 16 100 0.143459
3 16 16 100 0.0833334
6 16 16 100 0.0833267
8 16 16 100 0.156583
9 16 16 100 6.64217e-06
10 16 16 100 0.0332912
11 16 16 100 0.0833334
12 16 16 100 0.0833334
14 16 16 100 0.166667
15 16 16 100 0.166667
0 17 16 100 0.333328
5 17 16 100 9.49597e-05
6 17 16 100 0.166667
7 17 16 100 0.0833334
8 17 16 100 0.0832385
11 17 16 100 4.16907e-06
12 17 16 100 0.0833334
14 17 16 100 0.166667
15 17 16 100 0.0833334
0 18 16 100 0.0872245
6 18 16 100 0.162756
7 18 16 100 0.166667
8 18 16 100 0.0833333
9 18 16 100 0.0833334
12 18 16 100 0.0833334
13 18 16 100 2.10575e-05
14 18 16 100 0.166666
15 18 16 100 0.166666
0 19 16 100 0.164875
6 19 16 100 0.181803
7 19 16 100 0.198102
8 19 16 100 0.0909091
9 19 16 100 0.090924
10 19 16 100 3.97088e-05
14 19 16 100 0.181779
15 19 16 100 0.0909287
16 19 16 100 0.000639048
0 20 16 100 0.219289
5 20 16 100 0.111111
6 20 16 100 0.222222
7 20 16 100 0.111111
8 20 16 100 0.222222
13 20 16 100 0.00293366
14 20 16 100 0.111111
0 21 16 100 0.249999
5 21 16 100 0.125
6 21 16 100 0.125
8 21 16 100 0.375
14 21 16 100 0.125
0 22 16 100 0.000110147
6 22 16 100 0.374723
8 22 16 100 0.25
9 22 16 100 0.000170014
10 22 16 100 0.124996
14 22 16 100 0.25
0 23 16 100 0.116232
6 23 16 100 0.257547
8 23 16 100 0.375
9 23 16 100 0.000117424
10 23 16 100 0.126104
13 23 16 100 0.125
0 24 16 100 0.125007
4 24 16 100 0.125
5 24 16 100 1.30856e-06
6 24 16 100 0.249998
8 24 16 100 0.499994
0 25 16 100 0.249998
3 25 16 100 2.04989e-06
4 25 16 100 0.125
6 25 16 100 0.124981
8 25 16 100 0.375
9 25 16 100 1.95202e-05
14 25 16 100 0.125
0 26 16 100 0.285715
4 26 16 100 0.142857
5 26 16 100 0.00316864
6 26 16 100 0.139688
8 26 16 100 0.285715
14 26 16 100 0.142857
0 27 16 100 0.5
5 27 16 100 0.162984
6 27 16 100 0.00368254
7 27 16 100 0.166667
8 27 16 100 0.166667
0 28 16 100 0.333333
7 28 16 100 0.166667
8 28 16 100 0.333333
14 28 16 100 0.166667
0 29 16 100 0.166667
2 29 16 100 0.000118121
5 29 16 100 0.166546
6 29 16 100 2.23834e-06
7 29 16 100 0.166667
8 29 16 100 0.333333
14 29 16 100 0.166667
0 30 16 100 0.333333
5 30 16 100 0.166667
7 30 16 100 0.166644
8 30 16 100 1.7924e-05
12 30 16 100 4.34622e-06
14 30 16 100 0.333333
0 31 16 100 0.0055061
4 31 16 100 0.166667
5 31 16 100 0.494467
6 31 16 100 0.166678
9 31 16 100 1.56157e-05
14 31 16 100 0.166667
0 32 16 100 3.60272e-06
3 32 16 100 0.2
4 32 16 100 0.2
7 32 16 100 0.199996
10 32 16 100 0.199995
12 32 16 100 4.35719e-06
14 32 16 100 0.2
0 33 16 100 0.200053
4 33 16 100 0.2
6 33 16 100 0.2
10 33 16 100 0.199947
14 33 16 100 0.2
0 34 16 100 0.00117447
7 34 16 100 0.399876
8 34 16 100 0.2
10 34 16 100 0.198825
11 34 16 100 0.2
12 34 16 100 0.000123636
0 35 16 100 0.000101926
6 35 16 100 0.2
8 35 16 100 0.4
9 35 16 100 0.199898
10 35 16 100 0.2
0 36 16 100 0.451318
8 36 16 100 0.25
9 36 16 100 0.25
10 36 16 100 0.00198445
12 36 16 100 0.000120172
15 36 16 100 0.00137996
16 36 16 100 0.045197
9 37 16 100 0.25
11 37 16 100 0.25
12 37 16 100 0.25
16 37 16 100 0.25
0 38 16 100 0.248361
9 38 16 100 0.501719
11 38 16 100 0.249914
12 38 16 100 5.80492e-06
8 39 16 100 0.25
9 39 16 100 0.25
11 39 16 100 0.25
12 39 16 100 0.25
8 40 16 100 0.666667
12 40 16 100 0.333333
0 41 16 100 0.666579
5 41 16 100 0.333333
15 41 16 100 8.81403e-05
8 42 16 100 1
8 43 16 100 1
8 44 16 100 1
8 45 16 100 1
0 46 16 100 0.5
8 46 16 100 0.5
4 47 16 100 0.5
8 47 16 100 0.5
0 48 16 100 0.500007
8 48 16 100 0.499993
0 49 16 100 0.5
5 49 16 100 0.5
5 50 16 100 0.5
8 50 16 100 0.5
6 51 16 100 0.5
14 51 16 100 0.5
0 52 16 100 0.499999
7 52 16 100 0.500001
7 53 16 100 0.5
10 53 16 100 0.5
0 54 16 100 0.000270816
10 54 16 100 0.499729
16 54 16 100 0.5
16 55 16 100 1
16 56 16 100 1
0 57 16 100 0.499833
1 57 16 100 0.000167397
6 57 16 100 0.499999
0 58 16 100 0.500001
9 58 16 100 0.499999
0 59 16 100 0.5
12 59 16 100 0.5
14 60 16 100 0.5
16 60 16 100 0.5
0 61 16 100 0.5
14 61 16 100 0.5
14 62 16 100 0.5
15 62 16 100 0.5
0 63 16 100 0.000167197
1 63 16 100 0.499833
14 63 16 100 0.5
0 64 16 100 1
9 65 16 100 1
15 66 16 100 1
0 1 17 100 1.19662e-05
1 1 17 100 0.0952414
2 1 17 100 0.0352054
3 1 17 100 0.0952424
4 1 17 100 0.197348
5 1 17 100 0.0002418
6 1 17 100 0.0433413
7 1 17 100 0.142567
8 1 17 100 0.18624
9 1 17 100 0.0485657
11 1 17 100 6.22974e-05
12 1 17 100 9.98134e-07
13 1 17 100 9.96087e-07
14 1 17 100 0.0466166
15 1 17 100 0.108054
16 1 17 100 7.63944e-07
17 1 17 100 0.00125833
0 2 17 100 0.142764
1 2 17 100 0.0475412
2 2 17 100 0.0476189
3 2 17 100 0.141256
4 2 17 100 0.0952379
5 2 17 100 2.68978e-06
7 2 17 100 0.190406
8 2 17 100 0.188282
9 2 17 100 0.0518951
13 2 17 100 1.57518e-06
14 2 17 100 0.0476191
15 2 17 100 0.0472964
16 2 17 100 7.98722e-05
0 3 17 100 0.322961
1 3 17 100 0.052633
3 3 17 100 0.0526316
4 3 17 100 0.156903
7 3 17 100 0.0526316
8 3 17 100 0.10528
9 3 17 100 0.0526316
11 3 17 100 0.0526316
14 3 17 100 0.0569633
15 3 17 100 0.052637
16 3 17 100 0.0420947
17 3 17 100 1.47295e-06
0 4 17 100 0.402684
1 4 17 100 0.0526316
2 4 17 100 5.81479e-05
3 4 17 100 0.0526316
4 4 17 100 0.105313
6 4 17 100 1.1373e-06
7 4 17 100 0.0519475
8 4 17 100 0.108444
9 4 17 100 0.0543415
12 4 17 100 5.26074e-05
14 4 17 100 0.0528978
15 4 17 100 0.117489
16 4 17 100 0.000888677
17 4 17 100 0.000618911
0 5 17 100 0.171778
1 5 17 100 0.0555556
2 5 17 100 0.0555983
3 5 17 100 0.0555556
4 5 17 100 0.0556002
7 5 17 100 0.0508319
8 5 17 100 0.0555556
9 5 17 100 0.166667
10 5 17 100 2.02451e-06
11 5 17 100 0.110538
14 5 17 100 0.0555597
15 5 17 100 0.166673
17 5 17 100 8.58223e-05
0 6 17 100 0.122134
1 6 17 100 4.84785e-05
2 6 17 100 4.0652e-06
3 6 17 100 0.111109
4 6 17 100 5.74182e-05
7 6 17 100 0.00299853
8 6 17 100 0.0558007
9 6 17 100 0.114703
11 6 17 100 0.166559
12 6 17 100 0.000144812
13 6 17 100 0.0554567
14 6 17 100 0.111088
15 6 17 100 0.166667
16 6 17 100 0.037675
17 6 17 100 0.0555556
0 7 17 100 0.229974
1 7 17 100 1.46664e-06
3 7 17 100 0.111101
6 7 17 100 8.18308e-07
7 7 17 100 0.00275079
8 7 17 100 3.84753e-06
9 7 17 100 0.0549526
11 7 17 100 0.111073
12 7 17 100 2.99e-05
13 7 17 100 0.0546198
14 7 17 100 0.111111
15 7 17 100 0.166667
16 7 17 100 0.0555556
17 7 17 100 0.102159
0 8 17 100 0.331119
1 8 17 100 3.10031e-06
3 8 17 100 0.0557472
7 8 17 100 0.0555556
8 8 17 100 0.0555556
9 8 17 100 0.0555556
11 8 17 100 0.11061
13 8 17 100 0.00264861
14 8 17 100 0.0555556
15 8 17 100 0.166638
16 8 17 100 0.0555556
17 8 17 100 0.0554564
0 9 17 100 0.175963
3 9 17 100 0.116955
5 9 17 100 0.00187261
6 9 17 100 0.000968605
7 9 17 100 0.0588294
8 9 17 100 0.0588235
9 9 17 100 0.117647
10 9 17 100 0.0606962
11 9 17 100 0.0588235
13 9 17 100 0.000294323
15 9 17 100 0.135665
16 9 17 100 0.0958145
17 9 17 100 0.117647
0 10 17 100 0.192179
3 10 17 100 0.0579509
5 10 17 100 1.02306e-06
6 10 17 100 2.16875e-06
8 10 17 100 0.125
9 10 17 100 0.0625075
10 10 17 100 0.0625
11 10 17 100 0.1249
13 10 17 100 0.0625
15 10 17 100 0.18746
16 10 17 100 0.0624998
17 10 17 100 0.0625
0 11 17 100 0.0667513
4 11 17 100 0.0666649
8 11 17 100 0.0666667
9 11 17 100 0.133333
10 11 17 100 0.133253
11 11 17 100 0.133333
13 11 17 100 0.0666644
15 11 17 100 0.2
17 11 17 100 0.133333
0 12 17 100 0.427813
5 12 17 100 6.11871e-06
9 12 17 100 0.0721807
10 12 17 100 0.142857
11 12 17 100 0.0714286
12 12 17 100 0.0714286
15 12 17 100 0.0714286
17 12 17 100 0.142857
0 13 17 100 0.141526
2 13 17 100 5.15025e-06
3 13 17 100 0.000101105
8 13 17 100 0.142862
9 13 17 100 0.0714606
10 13 17 100 0.142857
11 13 17 100 0.146212
12 13 17 100 0.0714309
13 13 17 100 0.0714286
14 13 17 100 0.000819474
17 13 17 100 0.211296
0 14 17 100 0.0767787
3 14 17 100 0.0699618
6 14 17 100 3.69045e-06
8 14 17 100 0.142857
9 14 17 100 0.072508
10 14 17 100 0.142388
11 14 17 100 0.214286
12 14 17 100 0.142857
17 14 17 100 0.13836
0 15 17 100 0.154144
7 15 17 100 0.0769089
8 15 17 100 0.0769231
10 15 17 100 0.153846
11 15 17 100 0.153846
12 15 17 100 0.153766
16 15 17 100 1.41573e-05
17 15 17 100 0.230552
0 16 17 100 0.121261
2 16 17 100 0.0769231
3 16 17 100 0.0769231
7 16 17 100 0.0769023
8 16 17 100 0.0769231
10 16 17 100 0.0769231
12 16 17 100 0.230769
15 16 17 100 1.32707e-06
16 16 17 100 1.2742e-05
17 16 17 100 0.263361
0 17 17 100 0.166667
2 17 17 100 0.0833333
3 17 17 100 0.0833333
7 17 17 100 0.0832219
8 17 17 100 0.0833333
10 17 17 100 0.166667
12 17 17 100 0.166667
16 17 17 100 0.000111473
17 17 17 100 0.166667
0 18 17 100 0.109581
2 18 17 100 0.0968459
3 18 17 100 0.000173026
7 18 17 100 0.100102
8 18 17 100 0.000130167
10 18 17 100 0.199977
12 18 17 100 0.198836
15 18 17 100 0.0068803
16 18 17 100 0.087474
17 18 17 100 0.2
0 19 17 100 0.228859
2 19 17 100 0.123668
7 19 17 100 0.125
9 19 17 100 0.124997
10 19 17 100 0.113597
12 19 17 100 0.282682
13 19 17 100 0.00119716
0 20 17 100 0.271555
2 20 17 100 0.103447
3 20 17 100 0.125
12 20 17 100 0.374998
17 20 17 100 0.125
0 21 17 100 0.25525
1 21 17 100 1.30318e-05
2 21 17 100 1.79455e-05
3 21 17 100 0.125
5 21 17 100 0.0611039
9 21 17 100 0.250001
12 21 17 100 0.124999
17 21 17 100 0.183615
0 22 17 100 0.125014
2 22 17 100 0.125
3 22 17 100 0.124999
5 22 17 100 0.120766
6 22 17 100 0.000573313
7 22 17 100 0.125
9 22 17 100 0.249993
12 22 17 100 0.125
13 22 17 100 0.00365433
0 23 17 100 0.285502
2 23 17 100 0.285714
3 23 17 100 7.12265e-06
7 23 17 100 0.143062
12 23 17 100 0.142857
13 23 17 100 0.142857
0 24 17 100 0.165775
6 24 17 100 0.166667
7 24 17 100 0.166667
9 24 17 100 0.167579
12 24 17 100 0.166667
13 24 17 100 0.166646
0 25 17 100 0.499737
6 25 17 100 0.166387
7 25 17 100 0.000263048
12 25 17 100 0.166667
14 25 17 100 0.166667
16 25 17 100 0.000279619
0 26 17 100 0.201934
3 26 17 100 3.84307e-06
6 26 17 100 0.198362
7 26 17 100 0.199694
13 26 17 100 0.2
14 26 17 100 0.200006
3 27 17 100 0.25
4 27 17 100 0.25
9 27 17 100 0.25
14 27 17 100 0.25
4 28 17 100 0.333333
9 28 17 100 0.333333
14 28 17 100 0.333333
0 29 17 100 0.333333
6 29 17 100 0.333333
9 29 17 100 0.333333
0 30 17 100 0.605698
12 30 17 100 0.333337
13 30 17 100 0.0609651
6 31 17 100 0.5
12 31 17 100 0.5
0 32 17 100 0.00774598
6 32 17 100 0.492254
12 32 17 100 0.5
6 33 17 100 0.5
12 33 17 100 0.5
0 34 17 100 0.459925
12 34 17 100 0.5
17 34 17 100 0.0400748
6 35 17 100 0.5
12 35 17 100 0.5
6 36 17 100 0.5
12 36 17 100 0.5
3 37 17 100 0.5
7 37 17 100 0.5
0 38 17 100 0.500001
3 38 17 100 0.499999
3 39 17 100 0.499999
7 39 17 100 0.500001
7 40 17 100 1
8 41 17 100 1
9 42 17 100 1
9 43 17 100 1
0 44 17 100 1
12 45 17 100 1
12 46 17 100 1
12 47 17 100 1
0 1 18 100 0.104933
1 1 18 100 0.0102847
2 1 18 100 0.0432919
3 1 18 100 5.19332e-06
6 1 18 100 0.0336195
7 1 18 100 0.21364
8 1 18 100 0.0150486
9 1 18 100 9.08523e-06
11 1 18 100 9.08523e-06
12 1 18 100 0.148714
13 1 18 100 3.37582e-05
14 1 18 100 0.263187
15 1 18 100 0.00928652
16 1 18 100 4.28644e-05
18 1 18 100 0.157895
0 2 18 100 0.263269
4 2 18 100 0.00128352
6 2 18 100 0.0526317
7 2 18 100 0.315789
12 2 18 100 0.0526317
14 2 18 100 0.20925
16 2 18 100 2.237e-05
18 2 18 100 0.105123
0 3 18 100 0.361713
1 3 18 100 0.00591214
2 3 18 100 0.000144435
6 3 18 100 9.25195e-05
7 3 18 100 0.210226
10 3 18 100 0.00148604
12 3 18 100 0.157771
14 3 18 100 0.157364
16 3 18 100 0.0526316
18 3 18 100 0.0526583
0 4 18 100 0.369337
2 4 18 100 6.94134e-07
7 4 18 100 0.157754
12 4 18 100 0.105216
14 4 18 100 0.157888
16 4 18 100 0.0526364
17 4 18 100 0.0519143
18 4 18 100 0.105253
0 5 18 100 0.216843
4 5 18 100 0.106332
7 5 18 100 0.156105
12 5 18 100 0.157895
14 5 18 100 0.203869
16 5 18 100 0.0536932
18 5 18 100 0.105263
0 6 18 100 0.00702467
1 6 18 100 2.64689e-06
2 6 18 100 0.0011507
3 6 18 100 0.0035257
4 6 18 100 0.103134
6 6 18 100 0.0526316
7 6 18 100 0.261113
9 6 18 100 0.0526428
12 6 18 100 0.168333
13 6 18 100 0.0241572
14 6 18 100 0.105263
15 6 18 100 0.0630698
16 6 18 100 0.0526316
18 6 18 100 0.10532
0 7 18 100 0.165562
4 7 18 100 0.0555708
6 7 18 100 2.41584e-05
7 7 18 100 0.222232
9 7 18 100 0.0555556
12 7 18 100 0.167156
13 7 18 100 2.85731e-05
14 7 18 100 0.0555268
16 7 18 100 0.111677
17 7 18 100 0.0555556
18 7 18 100 0.111111
0 8 18 100 0.200346
2 8 18 100 2.41908e-06
3 8 18 100 0.000359276
4 8 18 100 0.00152374
7 8 18 100 0.180883
9 8 18 100 0.0776988
10 8 18 100 0.000317746
11 8 18 100 0.128993
12 8 18 100 0.176533
13 8 18 100 0.0588236
16 8 18 100 0.0568728
17 8 18 100 0.0588236
18 8 18 100 0.0588236
0 9 18 100 0.187826
4 9 18 100 0.0625
6 9 18 100 0.0625
7 9 18 100 0.125
9 9 18 100 0.0625
11 9 18 100 0.125
12 9 18 100 0.187385
13 9 18 100 0.0624711
16 9 18 100 5.09014e-05
17 9 18 100 0.124767
0 10 18 100 0.0627191
4 10 18 100 0.125
6 10 18 100 0.0625
7 10 18 100 0.125
9 10 18 100 0.124729
11 10 18 100 0.125
12 10 18 100 0.125052
13 10 18 100 0.0625
14 10 18 100 0.0625
17 10 18 100 0.125
0 11 18 100 0.12568
4 11 18 100 0.0625
5 11 18 100 0.0625
6 11 18 100 0.0625
7 11 18 100 0.125
9 11 18 100 0.0625
11 11 18 100 0.18747
12 11 18 100 0.125
14 11 18 100 0.0625
17 11 18 100 0.12435
0 12 18 100 0.25084
4 12 18 100 0.0625
5 12 18 100 0.005271
6 12 18 100 0.0625
7 12 18 100 0.125
10 12 18 100 5.86834e-06
11 12 18 100 0.120393
12 12 18 100 0.0621259
13 12 18 100 0.0625
14 12 18 100 0.125
17 12 18 100 0.123845
18 12 18 100 1.87878e-05
0 13 18 100 0.165776
2 13 18 100 0.00224233
4 13 18 100 0.0624978
5 13 18 100 0.000929215
7 13 18 100 0.0626754
9 13 18 100 0.0625001
11 13 18 100 0.14529
12 13 18 100 0.0625001
13 13 18 100 0.0625236
14 13 18 100 0.250235
16 13 18 100 0.0620242
17 13 18 100 0.0608061
0 14 18 100 0.367048
2 14 18 100 0.000255787
4 14 18 100 0.0586521
5 14 18 100 3.54886e-06
7 14 18 100 0.0625001
9 14 18 100 0.125
10 14 18 100 0.0691225
11 14 18 100 0.0672547
12 14 18 100 0.062579
13 14 18 100 5.51871e-06
14 14 18 100 0.1875
16 14 18 100 7.89364e-05
0 15 18 100 0.318033
4 15 18 100 0.0625
5 15 18 100 0.0625001
6 15 18 100 0.0625001
10 15 18 100 0.0625001
11 15 18 100 0.0624998
12 15 18 100 0.0624999
14 15 18 100 0.0155
15 15 18 100 0.125
16 15 18 100 0.128153
17 15 18 100 0.0383134
0 16 18 100 0.00099575
2 16 18 100 0.0022851
3 16 18 100 0.0643816
4 16 18 100 0.0666667
5 16 18 100 0.066665
6 16 18 100 1.22132e-06
7 16 18 100 0.133332
9 16 18 100 0.0666667
10 16 18 100 0.0666589
11 16 18 100 0.132341
12 16 18 100 0.0666644
13 16 18 100 7.74175e-06
15 16 18 100 0.0666667
16 16 18 100 0.266667
0 17 18 100 0.321867
3 17 18 100 0.0666668
4 17 18 100 0.0780863
6 17 18 100 0.133333
11 17 18 100 0.0666667
14 17 18 100 0.0666668
16 17 18 100 0.266713
0 18 18 100 0.344528
4 18 18 100 0.0714287
6 18 18 100 0.0714287
7 18 18 100 0.0714287
8 18 18 100 5.51819e-06
9 18 18 100 2.47291e-06
10 18 18 100 5.51819e-06
11 18 18 100 2.47291e-06
12 18 18 100 0.0714287
15 18 18 100 0.071431
16 18 18 100 0.297076
18 18 18 100 0.0012344
0 19 18 100 0.166657
4 19 18 100 0.0833333
5 19 18 100 2.52019e-06
6 19 18 100 0.166667
7 19 18 100 0.0833333
8 19 18 100 4.12212e-05
9 19 18 100 0.0833333
11 19 18 100 0.0833333
15 19 18 100 0.0833333
16 19 18 100 0.166634
18 19 18 100 0.0833323
0 20 18 100 0.0833334
2 20 18 100 0.0833334
4 20 18 100 0.166667
6 20 18 100 0.166667
7 20 18 100 0.0833334
9 20 18 100 0.0833343
12 20 18 100 0.0828964
15 20 18 100 0.0833327
16 20 18 100 0.166667
17 20 18 100 0.000435671
0 21 18 100 2.28896e-06
2 21 18 100 0.0833335
4 21 18 100 0.0833335
5 21 18 100 0.0833407
6 21 18 100 0.166658
7 21 18 100 0.0833335
11 21 18 100 0.166667
12 21 18 100 0.0833311
15 21 18 100 0.0833334
16 21 18 100 0.166667
0 22 18 100 0.181816
2 22 18 100 1.18395e-06
4 22 18 100 0.181818
5 22 18 100 0.00533781
6 22 18 100 0.176409
11 22 18 100 0.0909092
14 22 18 100 1.16158e-06
15 22 18 100 0.0909092
16 22 18 100 0.181818
17 22 18 100 7.07642e-05
18 22 18 100 0.0909092
0 23 18 100 0.181943
5 23 18 100 0.178839
6 23 18 100 0.0909092
11 23 18 100 0.0804919
14 23 18 100 0.000679244
15 23 18 100 0.103265
16 23 18 100 0.272728
17 23 18 100 0.0911131
18 23 18 100 3.16993e-05
0 24 18 100 0.101044
4 24 18 100 0.272727
5 24 18 100 0.181816
6 24 18 100 0.0909091
7 24 18 100 1.02018e-05
14 24 18 100 0.0909091
15 24 18 100 0.0804432
16 24 18 100 0.181718
17 24 18 100 0.000418139
18 24 18 100 4.37862e-06
0 25 18 100 0.114765
4 25 18 100 0.222222
5 25 18 100 0.111111
6 25 18 100 3.03609e-05
7 25 18 100 0.11108
11 25 18 100 0.222185
14 25 18 100 0.111111
16 25 18 100 0.107495
0 26 18 100 0.111047
1 26 18 100 7.45819e-05
5 26 18 100 0.222217
7 26 18 100 0.222217
9 26 18 100 0.111111
11 26 18 100 0.222222
17 26 18 100 0.111111
0 27 18 100 0.236572
4 27 18 100 0.111111
7 27 18 100 0.222222
9 27 18 100 0.111111
12 27 18 100 0.089955
13 27 18 100 0.00101165
15 27 18 100 0.111067
16 27 18 100 0.00482698
17 27 18 100 0.00101165
18 27 18 100 0.111111
0 28 18 100 0.120802
4 28 18 100 0.25
7 28 18 100 0.125
9 28 18 100 0.129198
11 28 18 100 0.125
18 28 18 100 0.25
0 29 18 100 0.166885
3 29 18 100 0.166667
7 29 18 100 0.166667
14 29 18 100 0.166505
18 29 18 100 0.333276
0 30 18 100 0.0230522
3 30 18 100 0.2
4 30 18 100 0.2
6 30 18 100 0.178842
14 30 18 100 0.199999
18 30 18 100 0.198106
0 31 18 100 2.76973e-06
3 31 18 100 0.2
6 31 18 100 0.2
14 31 18 100 0.2
15 31 18 100 0.2
18 31 18 100 0.199997
6 32 18 100 0.2
9 32 18 100 0.2
14 32 18 100 0.4
15 32 18 100 0.199997
18 32 18 100 3.37918e-06
0 33 18 100 0.200026
6 33 18 100 0.199977
11 33 18 100 0.2
14 33 18 100 0.199996
15 33 18 100 0.2
0 34 18 100 0.644247
6 34 18 100 0.155589
8 34 18 100 3.19842e-05
11 34 18 100 0.000131795
15 34 18 100 0.2
0 35 18 100 0.25
8 35 18 100 0.25
10 35 18 100 0.25
14 35 18 100 0.25
8 36 18 100 0.25
10 36 18 100 0.25
14 36 18 100 0.5
0 37 18 100 0.25
8 37 18 100 0.25
10 37 18 100 0.25
17 37 18 100 0.25
8 38 18 100 0.25
10 38 18 100 0.25
16 38 18 100 0.25
17 38 18 100 0.25
0 39 18 100 0.0196221
1 39 18 100 0.25
10 39 18 100 0.249916
16 39 18 100 0.230458
17 39 18 100 0.25
18 39 18 100 3.10805e-06
0 40 18 100 0.000385157
1 40 18 100 0.25
10 40 18 100 0.249615
16 40 18 100 0.25
17 40 18 100 0.25
0 41 18 100 0.0484212
1 41 18 100 0.201579
10 41 18 100 0.25
14 41 18 100 0.249999
16 41 18 100 0.25
0 42 18 100 0.00231452
1 42 18 100 0.25
10 42 18 100 0.25
14 42 18 100 0.249973
16 42 18 100 0.247713
0 43 18 100 0.000524795
10 43 18 100 0.333334
16 43 18 100 0.333334
17 43 18 100 0.332807
0 44 18 100 0.335169
16 44 18 100 0.331497
18 44 18 100 0.333333
0 45 18 100 0.666667
18 45 18 100 0.333333
6 46 18 100 0.333333
16 46 18 100 0.333333
17 46 18 100 0.333333
6 47 18 100 0.333333
16 47 18 100 0.333334
17 47 18 100 0.333333
0 48 18 100 0.00231035
6 48 18 100 0.49769
17 48 18 100 0.5
0 49 18 100 0.0514721
8 49 18 100 0.499999
17 49 18 100 0.448529
0 50 18 100 0.948595
17 50 18 100 0.0514054
15 51 18 100 0.5
17 51 18 100 0.5
15 52 18 100 1
15 53 18 100 1
8 54 18 100 1
8 55 18 100 1
8 56 18 100 1
0 57 18 100 1
18 58 18 100 1
18 59 18 100 1
18 60 18 100 1
0 61 18 100 0.01631
7 61 18 100 0.98369
0 62 18 100 1
7 63 18 100 1
0 64 18 100 0.000706797
10 64 18 100 8.72305e-05
12 64 18 100 0.999206
2 65 18 100 1
2 66 18 100 1
0 67 18 100 1
0 68 18 100 0.992648
2 68 18 100 6.55641e-05
15 68 18 100 0.00725552
16 68 18 100 3.04347e-05
0 69 18 100 0.000157256
2 69 18 100 0.999843
2 70 18 100 1
0 71 18 100 9.19617e-05
15 71 18 100 0.999908
0 72 18 100 0.0432955
15 72 18 100 0.956705
18 73 18 100 1
16 74 18 100 1
0 75 18 100 0.0370286
17 75 18 100 0.962971
0 1 19 100 7.05821e-06
1 1 19 100 0.0030638
2 1 19 100 0.00017227
3 1 19 100 0.0699804
4 1 19 100 0.0502833
5 1 19 100 0.0575081
6 1 19 100 0.0264786
7 1 19 100 0.126062
8 1 19 100 0.00295779
9 1 19 100 0.0358893
10 1 19 100 0.134082
11 1 19 100 0.000528194
12 1 19 100 0.0126726
13 1 19 100 4.69415e-07
14 1 19 100 0.0745679
15 1 19 100 0.0718485
16 1 19 100 0.0481783
17 1 19 100 1.13117e-06
18 1 19 100 0.178575
19 1 19 100 0.107143
0 2 19 100 0.215889
1 2 19 100 2.06286e-05
3 2 19 100 0.0384799
5 2 19 100 7.07726e-05
6 2 19 100 6.92434e-05
7 2 19 100 0.074192
9 2 19 100 0.0369822
10 2 19 100 0.148051
11 2 19 100 3.59656e-05
12 2 19 100 6.15791e-05
13 2 19 100 0.0405723
14 2 19 100 0.0370165
15 2 19 100 0.148148
16 2 19 100 0.0701153
18 2 19 100 0.116216
19 2 19 100 0.0740795
0 3 19 100 0.230487
1 3 19 100 2.98377e-06
3 3 19 100 0.0384616
4 3 19 100 0.000310137
5 3 19 100 7.44561e-07
7 3 19 100 0.076923
9 3 19 100 0.0769231
10 3 19 100 0.152582
13 3 19 100 0.00158686
14 3 19 100 1.89338e-05
15 3 19 100 0.191465
16 3 19 100 4.32589e-06
17 3 19 100 1.52659e-05
18 3 19 100 0.154295
19 3 19 100 0.0769231
0 4 19 100 0.316884
1 4 19 100 0.000276617
2 4 19 100 1.48843e-06
7 4 19 100 0.04
9 4 19 100 0.0799553
10 4 19 100 0.12
13 4 19 100 0.0393514
14 4 19 100 0.0800001
15 4 19 100 0.0801971
16 4 19 100 0.0400116
17 4 19 100 6.4235e-06
18 4 19 100 0.163316
19 4 19 100 0.04
0 5 19 100 0.239056
4 5 19 100 1.1921e-06
5 5 19 100 0.0800001
7 5 19 100 0.0400001
9 5 19 100 0.0798213
10 5 19 100 0.0801087
13 5 19 100 0.00062817
14 5 19 100 0.12
15 5 19 100 0.1203
16 5 19 100 7.05791e-05
17 5 19 100 0.00237709
18 5 19 100 0.12
19 5 19 100 0.117638
0 6 19 100 0.200074
1 6 19 100 6.54717e-07
3 6 19 100 1.40479e-06
4 6 19 100 0.0799902
5 6 19 100 5.14232e-07
6 6 19 100 7.48018e-05
8 6 19 100 0.04
9 6 19 100 0.08
10 6 19 100 0.159925
13 6 19 100 0.0399826
14 6 19 100 0.0799456
15 6 19 100 5.43087e-06
16 6 19 100 0.04
18 6 19 100 0.2
19 6 19 100 0.08
0 7 19 100 0.208361
1 7 19 100 1.73423e-06
4 7 19 100 0.0416407
5 7 19 100 5.04762e-05
6 7 19 100 0.000151999
8 7 19 100 0.0416666
9 7 19 100 0.0416667
10 7 19 100 0.122177
12 7 19 100 0.0431085
13 7 19 100 0.0842819
14 7 19 100 0.0415653
15 7 19 100 0.041671
16 7 19 100 0.0833345
18 7 19 100 0.166989
19 7 19 100 0.0833334
0 8 19 100 0.199966
1 8 19 100 4.31503e-06
6 8 19 100 5.95392e-06
8 8 19 100 0.0952387
9 8 19 100 0.0476222
10 8 19 100 0.0952389
11 8 19 100 5.67946e-05
12 8 19 100 0.0487326
13 8 19 100 0.0499244
14 8 19 100 0.0856505
15 8 19 100 0.0476198
16 8 19 100 0.0952381
17 8 19 100 2.5952e-05
18 8 19 100 0.0952381
19 8 19 100 0.139438
0 9 19 100 0.190815
2 9 19 100 0.000195731
3 9 19 100 0.0474233
5 9 19 100 5.71789e-07
6 9 19 100 0.00585868
8 9 19 100 0.0476214
9 9 19 100 0.0480262
10 9 19 100 0.168251
13 9 19 100 0.0476191
14 9 19 100 0.111185
15 9 19 100 0.0476191
18 9 19 100 0.190147
19 9 19 100 0.0952381
0 10 19 100 0.210886
2 10 19 100 0.0526313
8 10 19 100 0.103887
9 10 19 100 0.0526316
10 10 19 100 0.10628
14 10 19 100 0.0526316
16 10 19 100 0.105263
17 10 19 100 0.105263
18 10 19 100 0.105263
19 10 19 100 0.105263
0 11 19 100 0.15797
5 11 19 100 0.0526316
8 11 19 100 0.0508946
9 11 19 100 0.0526316
10 11 19 100 0.107
14 11 19 100 0.0526316
15 11 19 100 0.0526316
16 11 19 100 0.157895
17 11 19 100 0.10521
18 11 19 100 0.210504
19 11 19 100 7.84115e-07
0 12 19 100 0.104646
7 12 19 100 1.94614e-06
8 12 19 100 0.0526316
9 12 19 100 0.0526316
10 12 19 100 0.104995
15 12 19 100 0.105263
16 12 19 100 0.263144
17 12 19 100 0.0526316
18 12 19 100 0.157895
19 12 19 100 0.10616
0 13 19 100 0.267263
4 13 19 100 0.000331815
8 13 19 100 0.105263
9 13 19 100 1.54146e-05
10 13 19 100 0.0526352
14 13 19 100 0.0526448
15 13 19 100 0.158227
16 13 19 100 0.157895
17 13 19 100 0.0528005
18 13 19 100 0.0476582
19 13 19 100 0.105267
0 14 19 100 0.112348
1 14 19 100 3.73212e-06
4 14 19 100 0.0478902
5 14 19 100 5.18973e-05
8 14 19 100 0.158142
13 14 19 100 0.0526315
14 14 19 100 1.94832e-05
16 14 19 100 0.261276
17 14 19 100 0.0531454
18 14 19 100 0.10399
19 14 19 100 0.210503
0 15 19 100 0.201972
3 15 19 100 0.105261
5 15 19 100 0.0526317
8 15 19 100 0.105263
10 15 19 100 0.0526316
14 15 19 100 0.00137108
15 15 19 100 0.0526317
16 15 19 100 0.110242
17 15 19 100 0.0526316
18 15 19 100 0.000114302
19 15 19 100 0.26525
0 16 19 100 0.283894
3 16 19 100 0.0588235
5 16 19 100 0.117647
8 16 19 100 0.117647
12 16 19 100 1.90494e-06
14 16 19 100 2.5384e-06
16 16 19 100 0.0646827
17 16 19 100 0.117647
18 16 19 100 0.0589351
19 16 19 100 0.180719
0 17 19 100 0.0670918
3 17 19 100 0.0666667
5 17 19 100 0.133334
10 17 19 100 0.0666667
12 17 19 100 0.0666283
13 17 19 100 0.066666
15 17 19 100 0.133372
16 17 19 100 0.133333
17 17 19 100 0.066242
19 17 19 100 0.2
0 18 19 100 0.0777744
5 18 19 100 0.0714286
8 18 19 100 0.0737599
10 18 19 100 0.0690962
12 18 19 100 0.0712672
15 18 19 100 0.07159
16 18 19 100 0.209436
17 18 19 100 0.071088
18 18 19 100 0.0702736
19 18 19 100 0.214286
0 19 19 100 0.182674
1 19 19 100 0.000197404
5 19 19 100 0.153895
8 19 19 100 0.0781756
10 19 19 100 0.0754732
13 19 19 100 0.0769231
15 19 19 100 0.153647
17 19 19 100 0.0493196
18 19 19 100 0.0482457
19 19 19 100 0.18145
0 20 19 100 0.0843634
5 20 19 100 0.165719
13 20 19 100 0.0832806
15 20 19 100 0.166617
16 20 19 100 0.166667
18 20 19 100 0.0833334
19 20 19 100 0.250019
0 21 19 100 0.216011
5 21 19 100 0.151871
8 21 19 100 0.0909091
12 21 19 100 0.000558202
15 21 19 100 0.18126
16 21 19 100 0.181818
18 21 19 100 0.0909091
19 21 19 100 0.0866641
0 22 19 100 0.292814
1 22 19 100 0.0909092
3 22 19 100 0.0909092
5 22 19 100 0.270229
9 22 19 100 0.00081574
10 22 19 100 6.30108e-06
11 22 19 100 0.00162608
15 22 19 100 0.0909092
18 22 19 100 0.0909092
19 22 19 100 0.070872
0 23 19 100 0.253918
2 23 19 100 1.39096e-06
3 23 19 100 0.0909092
4 23 19 100 0.0909123
5 23 19 100 0.114528
12 23 19 100 0.0904259
15 23 19 100 0.0866346
16 23 19 100 0.0909092
18 23 19 100 0.181762
0 24 19 100 0.199725
1 24 19 100 2.12747e-05
3 24 19 100 0.1
5 24 19 100 0.2
10 24 19 100 2.8458e-06
12 24 19 100 0.0999877
14 24 19 100 0.000351431
15 24 19 100 0.100009
17 24 19 100 0.100054
18 24 19 100 0.199848
0 25 19 100 0.200361
1 25 19 100 0.0999997
3 25 19 100 0.1
5 25 19 100 0.299639
12 25 19 100 0.0999944
15 25 19 100 0.100006
18 25 19 100 0.1
0 26 19 100 0.389159
2 26 19 100 0.000727358
3 26 19 100 0.199272
4 26 19 100 0.1
5 26 19 100 0.0105917
12 26 19 100 0.0997108
15 26 19 100 0.000289437
17 26 19 100 0.199999
18 26 19 100 0.00024975
0 27 19 100 0.221533
1 27 19 100 0.111111
2 27 19 100 0.000223607
3 27 19 100 0.110887
4 27 19 100 0.111111
6 27 19 100 0.111111
8 27 19 100 0.111111
10 27 19 100 6.87507e-06
11 27 19 100 0.000682844
15 27 19 100 0.111111
17 27 19 100 0.111103
19 27 19 100 7.36126e-06
0 28 19 100 0.334387
1 28 19 100 0.111111
2 28 19 100 0.110007
3 28 19 100 0.00110389
4 28 19 100 0.111111
8 28 19 100 0.110057
15 28 19 100 0.111111
18 28 19 100 0.111111
0 29 19 100 0.125163
4 29 19 100 0.499838
5 29 19 100 1.47411e-06
8 29 19 100 0.25
15 29 19 100 0.124997
0 30 19 100 0.125035
4 30 19 100 0.249965
6 30 19 100 0.125
8 30 19 100 0.25
10 30 19 100 0.25
0 31 19 100 0.143012
2 31 19 100 0.142857
4 31 19 100 0.142857
8 31 19 100 0.142857
10 31 19 100 0.285714
17 31 19 100 0.142702
0 32 19 100 0.166667
2 32 19 100 0.166667
4 32 19 100 0.166666
8 32 19 100 0.166666
10 32 19 100 0.333334
0 33 19 100 0.684412
2 33 19 100 0.2
13 33 19 100 0.000187415
18 33 19 100 0.115401
0 34 19 100 0.396434
2 34 19 100 0.399245
3 34 19 100 0.000829118
10 34 19 100 0.20123
18 34 19 100 0.00226183
2 35 19 100 1.10734e-05
3 35 19 100 0.199989
4 35 19 100 0.199941
10 35 19 100 0.4
11 35 19 100 0.2
18 35 19 100 5.85374e-05
0 36 19 100 0.2
3 36 19 100 0.199999
10 36 19 100 0.4
11 36 19 100 0.2
0 37 19 100 0.2
2 37 19 100 1.24442e-05
3 37 19 100 0.199988
10 37 19 100 0.4
11 37 19 100 0.2
2 38 19 100 2.63386e-05
3 38 19 100 0.249974
11 38 19 100 0.25
15 38 19 100 0.25
17 38 19 100 0.25
0 39 19 100 0.333333
11 39 19 100 0.333333
17 39 19 100 0.333333
7 40 19 100 0.333333
11 40 19 100 0.333333
17 40 19 100 0.333333
0 41 19 100 0.666667
7 41 19 100 0.333333
0 42 19 100 3.72925e-06
6 42 19 100 0.333328
7 42 19 100 0.333334
11 42 19 100 0.333334
0 43 19 100 0.333333
16 43 19 100 0.333333
17 43 19 100 0.333333
4 44 19 100 0.333333
16 44 19 100 0.333333
17 44 19 100 0.333333
0 45 19 100 0.333374
4 45 19 100 0.333333
16 45 19 100 0.333293
4 46 19 100 0.333333
16 46 19 100 0.333333
17 46 19 100 0.333333
5 47 19 100 0.333333
16 47 19 100 0.666667
5 48 19 100 0.5
15 48 19 100 0.5
5 49 19 100 0.5
15 49 19 100 0.5
3 50 19 100 0.5
5 50 19 100 0.5
0 51 19 100 0.5
5 51 19 100 0.5
0 52 19 100 1
3 53 19 100 0.5
5 53 19 100 0.5
0 1 20 100 0.0645436
1 1 20 100 1.62656e-05
2 1 20 100 0.0382053
3 1 20 100 0.00264098
4 1 20 100 0.000170974
5 1 20 100 0.000153459
6 1 20 100 1.53813e-06
7 1 20 100 0.377787
8 1 20 100 3.86716e-05
9 1 20 100 1.37115e-06
10 1 20 100 2.22516e-06
11 1 20 100 0.0130377
12 1 20 100 0.0159023
13 1 20 100 0.100539
14 1 20 100 0.225095
15 1 20 100 2.90267e-05
16 1 20 100 0.0655812
17 1 20 100 0.00578327
18 1 20 100 0.0828319
19 1 20 100 0.00480467
20 1 20 100 0.0028344
0 2 20 100 0.127062
1 2 20 100 2.31566e-06
2 2 20 100 1.46258e-05
4 2 20 100 0.00247053
5 2 20 100 0.0713663
7 2 20 100 0.233685
8 2 20 100 0.142331
9 2 20 100 0.000236663
10 2 20 100 0.000986277
12 2 20 100 0.0157862
14 2 20 100 0.214277
17 2 20 100 0.035809
18 2 20 100 0.0714287
19 2 20 100 0.0687586
20 2 20 100 0.0157862
0 3 20 100 0.341008
1 3 20 100 5.37561e-06
4 3 20 100 0.0714128
5 3 20 100 0.000272361
6 3 20 100 0.00745734
7 3 20 100 0.200077
8 3 20 100 0.0714009
10 3 20 100 1.31821e-05
12 3 20 100 0.00739552
13 3 20 100 0.0714321
14 3 20 100 0.142798
15 3 20 100 0.000191798
18 3 20 100 0.0861433
19 3 20 100 0.000391781
0 4 20 100 0.307317
4 4 20 100 9.14235e-06
7 4 20 100 0.153389
10 4 20 100 0.153846
12 4 20 100 2.12372e-05
13 4 20 100 0.000328162
14 4 20 100 0.230769
16 4 20 100 0.0769315
17 4 20 100 8.42869e-06
18 4 20 100 0.0769231
19 4 20 100 0.000457247
0 5 20 100 0.00591878
4 5 20 100 0.0718266
5 5 20 100 0.0769231
7 5 20 100 0.153369
10 5 20 100 0.134742
11 5 20 100 0.0769231
13 5 20 100 0.0769231
14 5 20 100 0.229548
16 5 20 100 0.0773117
17 5 20 100 0.0766745
18 5 20 100 0.0181419
19 5 20 100 0.000722703
20 5 20 100 0.000975234
0 6 20 100 0.241975
4 6 20 100 0.0833372
7 6 20 100 0.0833331
10 6 20 100 0.157664
11 6 20 100 0.0832891
13 6 20 100 0.0833334
14 6 20 100 0.0828434
15 6 20 100 0.0103851
16 6 20 100 0.0833334
17 6 20 100 0.00138284
18 6 20 100 0.00032682
19 6 20 100 0.088797
0 7 20 100 0.322812
4 7 20 100 0.0915599
5 7 20 100 0.00422345
6 7 20 100 0.0900078
7 7 20 100 0.0909091
9 7 20 100 6.09881e-05
10 7 20 100 0.122734
12 7 20 100 0.00410508
13 7 20 100 0.000108456
14 7 20 100 0.0909091
16 7 20 100 0.0909384
17 7 20 100 3.21149e-05
19 7 20 100 0.0912308
20 7 20 100 0.000368408
0 8 20 100 0.100984
4 8 20 100 0.0980863
6 8 20 100 0.2
7 8 20 100 0.1
8 8 20 100 0.0999452
10 8 20 100 0.000352674
11 8 20 100 0.000635962
13 8 20 100 0.1
14 8 20 100 0.0999896
16 8 20 100 0.1
19 8 20 100 0.0999977
20 8 20 100 8.43032e-06
0 9 20 100 0.332712
2 9 20 100 8.10321e-06
4 9 20 100 0.111106
8 9 20 100 0.111111
13 9 20 100 0.111111
16 9 20 100 0.222223
17 9 20 100 0.000639297
19 9 20 100 0.111089
0 10 20 100 0.197563
2 10 20 100 0.00235137
4 10 20 100 0.111103
6 10 20 100 0.111111
7 10 20 100 1.34783e-06
8 10 20 100 0.133502
9 10 20 100 1.41823e-05
11 10 20 100 0.111111
16 10 20 100 0.222132
18 10 20 100 0.111111
0 11 20 100 0.352618
1 11 20 100 2.91889e-05
2 11 20 100 0.0166565
4 11 20 100 0.00290889
5 11 20 100 2.39472e-06
6 11 20 100 0.000262672
7 11 20 100 0.000229547
8 11 20 100 0.111172
10 11 20 100 0.0716609
11 11 20 100 0.111111
16 11 20 100 0.22223
17 11 20 100 7.26661e-06
19 11 20 100 0.111111
0 12 20 100 0.33166
3 12 20 100 0.111108
6 12 20 100 0.111111
8 12 20 100 0.111111
13 12 20 100 0.112325
18 12 20 100 0.111111
19 12 20 100 0.111574
0 13 20 100 0.220411
3 13 20 100 0.111084
6 13 20 100 0.222223
12 13 20 100 2.11783e-05
13 13 20 100 0.112304
15 13 20 100 1.60958e-05
16 13 20 100 0.111111
18 13 20 100 0.111212
19 13 20 100 0.111568
20 13 20 100 4.92182e-05
0 14 20 100 0.111111
1 14 20 100 0.111111
2 14 20 100 1.74999e-05
6 14 20 100 0.333316
13 14 20 100 0.111111
16 14 20 100 0.111111
18 14 20 100 0.111111
19 14 20 100 0.111111
1 15 20 100 0.12501
4 15 20 100 2.85307e-06
6 15 20 100 0.25
8 15 20 100 0.247361
9 15 20 100 0.00262406
12 15 20 100 1.7365e-06
16 15 20 100 0.125
18 15 20 100 0.125
19 15 20 100 0.125
0 16 20 100 0.249329
6 16 20 100 0.25
7 16 20 100 2.26387e-06
8 16 20 100 0.125
11 16 20 100 6.52598e-06
12 16 20 100 0.124997
14 16 20 100 1.07048e-05
15 16 20 100 0.125
16 16 20 100 0.124972
17 16 20 100 0.000400665
18 16 20 100 0.000282213
0 17 20 100 0.125429
6 17 20 100 0.249988
8 17 20 100 0.249374
9 17 20 100 1.21375e-05
10 17 20 100 0.000614167
15 17 20 100 0.12476
16 17 20 100 0.249822
0 18 20 100 0.00118268
1 18 20 100 0.166667
4 18 20 100 0.166666
6 18 20 100 0.33215
8 18 20 100 0.166667
15 18 20 100 0.166666
0 19 20 100 0.500475
3 19 20 100 0.0256019
4 19 20 100 0.223848
6 19 20 100 0.249998
7 19 20 100 5.72094e-06
13 19 20 100 2.64549e-06
19 19 20 100 3.93056e-05
20 19 20 100 3.0228e-05
0 20 20 100 5.39116e-05
4 20 20 100 0.249946
6 20 20 100 0.25
8 20 20 100 0.25
13 20 20 100 0.25
0 21 20 100 0.25
6 21 20 100 0.25
8 21 20 100 0.25
13 21 20 100 0.249999
6 22 20 100 0.333334
8 22 20 100 0.333333
13 22 20 100 0.333334
0 23 20 100 0.333316
7 23 20 100 0.333328
8 23 20 100 0.333333
11 23 20 100 1.77117e-05
14 23 20 100 6.00492e-06
0 24 20 100 0.333333
7 24 20 100 0.333333
8 24 20 100 0.333333
8 25 20 100 0.5
13 25 20 100 0.5
0 26 20 100 0.500051
8 26 20 100 0.499949
13 27 20 100 1
13 28 20 100 1
13 29 20 100 1
0 30 20 100 1
13 31 20 100 1
0 32 20 100 1
13 33 20 100 1
1 34 20 100 1
0 35 20 100 1
1 36 20 100 1
1 37 20 100 1
0 1 21 100 0.00135633
1 1 21 100 0.00117679
2 1 21 100 0.124808
4 1 21 100 3.91144e-06
5 1 21 100 6.4748e-06
6 1 21 100 0.0613141
7 1 21 100 0.143915
9 1 21 100 0.0130493
10 1 21 100 0.0625017
11 1 21 100 0.0710692
12 1 21 100 0.000217981
13 1 21 100 9.41553e-06
14 1 21 100 0.145441
15 1 21 100 0.187252
18 1 21 100 0.000213678
19 1 21 100 0.00118602
21 1 21 100 0.186478
0 2 21 100 0.402904
1 2 21 100 0.0666381
2 2 21 100 4.17944e-06
3 2 21 100 3.52629e-05
6 2 21 100 0.0666916
7 2 21 100 0.0671145
8 2 21 100 0.0668449
11 2 21 100 1.40801e-05
12 2 21 100 0.0666821
14 2 21 100 0.0666667
17 2 21 100 1.62301e-06
18 2 21 100 4.55751e-05
19 2 21 100 3.41946e-05
20 2 21 100 0.0667265
21 2 21 100 0.129597
0 3 21 100 0.423243
1 3 21 100 0.0731969
2 3 21 100 0.0714295
6 3 21 100 0.0650193
7 3 21 100 0.069733
9 3 21 100 0.00237859
10 3 21 100 0.000951353
11 3 21 100 0.00311377
12 3 21 100 0.000147298
13 3 21 100 0.000445278
14 3 21 100 0.0708265
15 3 21 100 0.14192
16 3 21 100 9.42797e-07
18 3 21 100 0.00212349
19 3 21 100 0.00403964
20 3 21 100 0.0714316
0 4 21 100 0.303972
1 4 21 100 0.0771647
7 4 21 100 0.076794
8 4 21 100 0.153837
11 4 21 100 8.93942e-06
12 4 21 100 0.0018121
13 4 21 100 0.076923
14 4 21 100 0.0786549
15 4 21 100 0.0781607
16 4 21 100 1.25315e-06
19 4 21 100 0.0769231
20 4 21 100 0.000637329
21 4 21 100 0.0751109
0 5 21 100 0.143228
1 5 21 100 0.0769366
2 5 21 100 0.0769289
7 5 21 100 0.0835473
8 5 21 100 0.15384
9 5 21 100 6.19401e-06
11 5 21 100 0.00272635
12 5 21 100 0.0769231
14 5 21 100 0.0769432
15 5 21 100 0.152348
16 5 21 100 0.00272635
19 5 21 100 0.0769229
21 5 21 100 0.0769231
0 6 21 100 0.0769241
1 6 21 100 0.0769231
2 6 21 100 0.0769231
5 6 21 100 0.000162849
6 6 21 100 9.0691e-05
7 6 21 100 0.153592
8 6 21 100 0.0769231
9 6 21 100 0.0769231
12 6 21 100 0.0769231
13 6 21 100 0.0777002
14 6 21 100 0.0769231
19 6 21 100 0.153069
21 6 21 100 0.0769231
0 7 21 100 0.0833352
2 7 21 100 0.0833333
6 7 21 100 0.0833333
7 7 21 100 0.0833315
8 7 21 100 0.0833333
12 7 21 100 0.0833333
13 7 21 100 0.0833333
15 7 21 100 0.166667
19 7 21 100 0.0833333
21 7 21 100 0.166667
0 8 21 100 0.0777802
2 8 21 100 0.083341
4 8 21 100 1.1921e-06
6 8 21 100 0.0833361
8 8 21 100 0.0802482
9 8 21 100 0.0832696
10 8 21 100 0.00210718
11 8 21 100 0.0494284
12 8 21 100 1.28653e-06
13 8 21 100 0.181844
14 8 21 100 0.0150732
15 8 21 100 0.166667
19 8 21 100 0.0832653
20 8 21 100 0.0096966
21 8 21 100 0.0839404
