0 3 0.100442
0 5 0.00109677
0 7 0.000378399
0 8 0.140365
0 16 0.00630458
0 18 0.0240363
0 19 0.0152524
0 20 0.0413844
0 21 0.301672
0 24 0.0989877
0 27 0.00157595
0 32 1.96837e-06
0 33 0.0433941
0 40 0.118872
0 43 6.22584e-07
0 50 0.00186331
0 52 7.61022e-05
0 53 0.0430365
0 58 0.0226269
0 59 0.00386681
0 63 0.00363068
0 64 0.0193513
0 72 0.000630076
0 81 7.04719e-07
0 90 0.000105347
0 96 1.03082e-07
0 155 0.000586496
0 172 0.000635856
0 177 0.00115957
0 198 0.000421089
0 213 0.000370887
0 214 0.000751841
0 216 0.00116113
0 233 0.000376769
0 241 0.000376077
0 243 0.000473145
0 289 0.000376185
0 309 0.000274141
0 336 5.2485e-05
0 351 0.000383732
0 422 0.000151626
0 479 0.000377929
0 567 0.000376102
0 590 0.000376066
0 591 0.000376065
0 735 0.000376081
0 1175 0.000376134
0 1176 0.000398512
0 1344 0.000376008
0 1366 8.80568e-05
0 1581 0.000376068
2 33 0.0587213
2 60 0.0588365
2 63 0.176502
2 64 0.176405
2 67 0.0588364
2 68 0.117673
2 106 0.058844
2 240 0.0588365
2 260 0.0588365
2 294 0.0588365
2 317 0.0588365
2 1035 0.0588365
3 19 0.0399053
3 33 0.200326
3 42 0.0394267
3 53 0.0397131
3 61 0.0393456
3 63 0.0399744
3 64 0.0393772
3 67 0.0392362
3 68 0.0459259
3 78 0.0394528
3 106 0.0403354
3 155 0.0829178
3 201 0.039228
3 237 0.0394966
3 294 0.0392239
3 386 0.0392231
3 475 0.0392231
3 574 0.0392231
3 769 0.0392231
3 1021 0.0392231
4 2 0.144415
4 3 0.00142303
4 4 0.144415
4 5 0.144207
4 6 0.144415
4 7 0.144333
4 8 0.132377
4 9 0.144415
5 20 0.481345
5 47 0.064041
5 58 0.0670794
5 78 0.00181698
5 82 0.129785
5 106 0.0637715
5 185 0.0640783
5 1588 0.0640414
5 1589 0.0640414
6 8 0.000495122
6 39 0.178456
6 40 0.187979
6 59 0.150239
6 216 0.160943
6 543 0.321888
7 52 0.413358
7 64 0.195546
7 203 0.195548
7 540 0.195548
8 19 0.121502
8 32 0.00693747
8 63 0.119004
8 155 0.601714
8 237 0.0461911
8 296 0.0463265
8 309 0.0120887
8 1381 0.0462358
9 156 0.0332647
9 223 0.483368
9 224 0.483368
10 5 0.498699
10 12 0.501301
11 5 0.199157
11 19 0.20974
11 32 7.12484e-05
11 34 0.0396755
11 35 0.0786269
11 43 0.0397122
11 52 0.0400759
11 64 6.03408e-07
11 107 0.0393306
11 455 0.0393306
11 456 0.0389943
11 475 0.0393012
11 505 0.0393307
11 572 0.0393306
11 631 0.0786618
11 1450 0.0393305
11 1603 0.0393306
12 10 0.5
12 11 0.5
13 13 0.287912
13 14 0.287795
13 15 0.143859
13 16 0.0645164
13 29 0.0719612
13 30 0.0719781
13 31 0.0719781
14 31 0.202101
14 52 0.137921
14 63 0.05838
14 64 0.0495135
14 151 0.345054
14 383 0.0690099
14 600 0.0690108
14 618 0.0690108
15 5 0.376815
15 29 0.078384
15 137 0.0783589
15 176 0.0783589
15 631 0.309724
15 826 0.0783589
16 14 0.141973
16 19 0.218606
16 27 0.141783
16 210 0.0709283
16 570 0.142998
16 578 0.0709283
16 778 0.141857
16 1245 0.0709283
17 16 0.090598
17 18 0.0333813
17 19 0.0856315
17 24 0.027478
17 29 0.0254743
17 32 0.474181
17 35 0.0253557
17 40 4.52545e-07
17 42 0.025994
17 59 0.0524161
17 105 0.031082
17 176 0.0262258
17 445 0.000615585
17 456 0.0255501
17 475 1.87508e-05
17 522 0.0253305
17 1331 0.0253335
17 1437 0.0253335
18 8 0.129809
18 19 0.0644416
18 21 0.350385
18 31 0.0627643
18 33 0.000246467
18 59 0.0593004
18 68 0.10716
18 78 0.10308
18 88 0.0642543
18 260 0.058559
19 20 0.485503
19 32 0.0258585
19 160 0.244322
19 1475 0.244317
20 5 0.149418
20 6 0.0340014
20 18 7.02568e-07
20 32 0.0970861
20 33 0.000106765
20 58 0.370542
20 66 0.0940882
20 155 0.103509
20 214 9.6778e-05
20 294 0.031707
20 367 0.0316825
20 525 0.0318147
20 1222 0.0316824
20 1366 0.0242641
21 19 0.318073
21 32 0.134422
21 58 0.0341022
21 59 0.0185682
21 64 0.0315004
21 66 0.0296048
21 106 0.030073
21 109 0.0297726
21 138 0.0295871
21 173 0.0591836
21 201 0.059152
21 206 0.0295437
21 209 0.0592589
21 299 0.0189814
21 547 0.0295464
21 760 0.0295437
21 761 0.0295437
21 1390 0.0295437
22 16 0.112094
22 17 0.111178
22 19 0.222092
22 20 0.221104
22 22 0.111178
22 23 0.111178
22 25 0.111178
23 3 1.80579e-05
23 10 0.0953921
23 32 0.00591576
23 33 0.0976673
23 40 0.418849
23 173 0.382158
24 50 0.067004
24 58 0.190476
24 79 0.0670043
24 109 0.0670043
24 151 0.0670043
24 196 0.0670078
24 243 0.273487
24 651 0.0670041
24 656 0.0670043
24 1646 0.0670043
25 20 0.0944457
25 40 0.548031
25 106 0.0893822
25 169 0.268141
26 16 0.451974
26 155 0.548026
27 16 0.0026975
27 32 0.575553
27 42 0.148422
27 55 0.0828859
27 59 0.0494833
27 88 0.0666681
27 243 0.07429
28 26 0.166679
28 27 0.166642
28 28 0.166679
28 238 0.166642
28 877 0.166679
28 967 0.166679
29 20 0.0876071
29 43 0.165864
29 49 0.248843
29 378 0.0829476
29 446 0.0829476
29 473 0.0829476
29 1058 0.0829476
29 1079 0.0829476
29 1080 0.0829476
30 35 0.0833343
30 43 0.166658
30 73 0.166668
30 122 0.0833343
30 135 0.0833343
30 136 0.0833343
30 138 0.0833343
30 139 0.0833343
30 140 0.0833343
30 926 0.0833335
31 5 0.774814
31 32 0.000278885
31 356 0.116311
31 630 0.108597
32 15 0.0717604
32 109 0.0714033
32 126 0.0714033
32 127 0.357013
32 128 0.0714033
32 141 0.0714033
32 142 0.0714033
32 143 0.0714033
32 247 0.0714033
32 261 0.0714033
33 3 0.105124
33 16 0.0886647
33 18 0.00571162
33 32 0.0239936
33 50 0.0650232
33 52 0.0875163
33 59 0.0228034
33 62 0.0218752
33 112 0.0218765
33 114 0.0499707
33 156 0.0230016
33 172 0.0218902
33 177 0.0437418
33 206 0.0218752
33 207 0.0218746
33 213 0.0218771
33 216 0.0218453
33 231 0.0218752
33 239 0.0218755
33 250 0.0218752
33 357 0.0218756
33 457 0.0218752
33 468 0.0218752
33 469 0.0218752
33 470 0.0218752
33 491 0.0223469
33 648 0.0246082
33 702 0.0218752
33 703 0.021877
33 736 0.0218752
33 999 0.0218752
33 1586 0.0218752
34 18 0.0420274
34 20 0.169871
34 21 0.209141
34 24 0.0423412
34 32 4.25871e-05
34 33 0.0423013
34 43 0.0817482
34 49 0.0410051
34 106 0.0839676
34 155 9.10852e-07
34 164 0.0427905
34 185 0.0408754
34 279 0.0408219
34 507 0.0407666
34 877 0.0407666
34 1011 0.0407666
34 1212 0.0407666
35 10 0.000628251
35 16 0.278199
35 72 0.180174
35 106 0.0901661
35 246 0.0901665
35 247 0.180333
35 248 0.180333
36 32 0.000171789
36 155 0.999828
37 5 0.111667
37 24 0.107449
37 32 0.113846
37 33 0.108597
37 34 0.111688
37 35 0.111688
37 36 0.111688
37 37 0.111688
37 38 0.111688
38 5 0.165916
38 8 2.20905e-06
38 66 0.333633
38 505 0.166816
38 703 0.166816
38 704 0.166816
39 10 0.333333
39 35 0.333333
39 36 0.333333
40 6 0.0770073
40 26 0.0770073
40 27 0.0768111
40 43 0.0761472
40 65 0.0770091
40 66 0.154008
40 67 0.0770073
40 68 0.0770073
40 95 0.0770073
40 177 0.153981
40 199 0.0770073
41 3 0.0838043
41 8 0.130597
41 16 0.0609811
41 20 0.0597773
41 32 0.188367
41 39 0.0615723
41 40 1.72237e-05
41 58 0.106766
41 74 0.0615722
41 124 0.0618293
41 125 0.0615723
41 1433 0.0615723
41 1434 0.0615722
42 19 0.0547679
42 32 0.243748
42 63 0.0572053
42 105 0.0293037
42 162 0.0878445
42 170 0.0292796
42 176 0.0294089
42 227 0.0292796
42 231 0.0293485
42 237 0.0877141
42 480 0.0585616
42 481 0.0293022
42 662 0.0292796
42 683 0.0292796
42 1013 0.029279
42 1177 0.0292796
42 1212 0.0292796
42 1285 0.0292796
42 1332 0.0292796
42 1399 0.0292796
43 24 0.0825623
43 41 0.116216
43 154 0.114383
43 213 0.114308
43 243 0.114996
43 317 0.114383
43 328 0.114387
43 333 0.114383
43 334 0.114383
44 5 0.00864013
44 18 0.196482
44 19 0.232398
44 32 3.46544e-06
44 50 0.212008
44 220 0.116901
44 480 0.116805
44 1528 0.116763
45 40 0.341882
45 54 0.158295
45 59 0.341528
45 184 0.158295
46 63 0.142858
46 69 0.142858
46 70 0.142858
46 71 0.142858
46 72 0.142853
46 73 0.142858
46 74 0.142858
47 15 0.285714
47 29 0.142857
47 60 0.428571
47 967 0.142857
48 19 0.0832089
48 43 0.0763927
48 46 0.15273
48 47 0.15273
48 49 0.152879
48 50 0.0767564
48 51 0.0764174
48 52 0.0763622
48 61 0.0761595
48 62 0.0763648
49 58 0.0803644
49 63 0.304238
49 64 0.388608
49 77 0.15121
49 78 0.0755804
50 26 0.0847967
50 29 0.0843114
50 53 0.240301
50 60 0.0843114
50 65 0.0843114
50 66 0.169034
50 67 0.084311
50 117 0.0843114
50 749 0.0843114
51 29 0.0783634
51 53 0.451278
51 58 1.11133e-05
51 60 0.0780807
51 76 0.0782048
51 315 0.156172
51 695 0.0780807
51 696 0.0798084
52 8 0.0838007
52 32 0.232033
52 42 0.0762413
52 43 0.0754351
52 144 0.0754314
52 173 0.150595
52 185 0.07518
52 356 0.0751811
52 630 0.0809573
52 1265 0.0751446
53 3 2.60969e-05
53 20 0.124353
53 40 0.0619265
53 46 0.125185
53 47 0.125185
53 48 0.250369
53 146 0.0625923
53 703 0.125179
53 820 0.0625923
53 935 0.0625923
54 32 0.629607
54 33 0.101209
54 155 0.269184
55 2 0.111111
55 35 0.111111
55 36 0.111111
55 42 0.111111
55 43 0.222222
55 44 0.111111
55 45 0.111111
55 57 0.111111
56 5 0.231103
56 34 0.225194
56 76 0.0750646
56 78 0.0750646
56 213 0.018251
56 327 0.0750646
56 696 0.150129
56 768 0.0750646
56 1097 0.0750646
57 42 0.333333
57 54 0.111111
57 55 0.111111
57 56 0.111111
57 75 0.222222
57 76 0.111111
58 31 0.166667
58 61 0.166667
58 62 0.166667
58 296 0.333333
58 365 0.166667
59 32 0.249216
59 59 0.143553
59 173 0.121519
59 213 0.121092
59 372 0.12154
59 622 0.12154
59 642 0.12154
60 5 0.395751
60 58 0.00733196
60 59 0.00639695
60 66 0.492149
60 1588 0.0983712
61 8 0.0616241
61 18 1.52708e-06
61 20 0.0603456
61 21 0.137485
61 33 0.0606208
61 34 0.117998
61 35 0.060006
61 64 0.0612247
61 72 0.0206492
61 105 2.83898e-06
61 502 0.060006
61 504 0.060006
61 686 0.060006
61 702 0.060006
61 886 0.060006
61 887 0.060006
61 1364 0.060006
62 24 0.109891
62 34 0.0984066
62 54 0.0984053
62 64 0.102626
62 92 0.0984025
62 122 0.0986208
62 185 0.0984063
62 231 0.0984085
62 243 0.0984309
62 1112 0.0984023
63 16 0.140662
63 19 0.421122
63 32 0.000163206
63 201 0.138802
63 423 0.138802
63 543 0.0216463
63 1290 0.138802
64 5 0.268673
64 27 0.0677318
64 29 0.134764
64 173 0.0672269
64 216 0.0628248
64 243 0.067097
64 631 0.331683
65 32 0.222739
65 40 0.31013
65 58 0.0185145
65 176 2.16367e-06
65 243 0.448615
66 32 2.4317e-06
66 58 0.26861
66 63 0.35314
66 64 0.358014
66 155 0.00185825
66 245 0.0183635
66 385 1.29445e-05
67 8 0.123246
67 32 0.00010038
67 40 0.112642
67 59 0.525299
67 148 0.0466352
67 155 0.0523303
67 214 0.0465777
67 462 0.0465817
67 632 0.0465882
68 155 0.760771
68 216 0.120877
68 671 0.118352
69 2 0.0362526
69 8 0.041442
69 24 0.11058
69 50 0.0362522
69 75 0.0361967
69 78 0.0360958
69 88 0.0724208
69 96 0.0361967
69 115 0.0361973
69 119 0.0361965
69 124 0.0361963
69 156 0.0362908
69 173 0.0361967
69 207 0.0361967
69 294 0.0301194
69 302 0.0361967
69 351 0.035459
69 422 0.022145
69 423 0.0361899
69 475 0.0361967
69 635 0.0361967
69 688 0.0361967
69 903 0.0361967
69 961 0.0361967
69 1252 0.0361963
70 16 1.25609e-05
70 40 0.000496275
70 59 0.546383
70 109 0.343432
70 155 1.17064e-06
70 231 0.109674
70 543 1.31146e-06
71 16 4.69577e-05
71 40 6.66387e-05
71 59 0.164801
71 109 0.273153
71 176 3.06904e-05
71 209 0.0706147
71 230 0.066812
71 231 0.0706834
71 243 0.0713424
71 592 0.0706147
71 593 0.0706055
71 677 0.0706146
71 1632 0.0706146
72 79 0.148812
72 80 0.148812
72 81 0.148812
72 90 0.107126
72 91 0.148812
72 93 0.148812
72 94 0.148812
73 19 0.119083
73 160 0.110115
73 231 0.110115
73 240 0.110115
73 254 0.110115
73 275 0.110115
73 337 0.110115
73 578 0.110115
73 678 0.110115
74 6 0.111111
74 82 0.111111
74 83 0.111111
74 84 0.111111
74 85 0.111111
74 86 0.111111
74 87 0.111111
74 88 0.111111
74 89 0.111111
75 32 0.00038423
75 50 0.00171887
75 81 0.213462
75 107 0.175177
75 155 0.0935289
75 164 0.515729
76 18 0.505128
76 105 0.494872
77 50 0.0973392
77 54 0.0904162
77 216 0.269738
77 220 0.0904176
77 457 0.0904176
77 1112 0.0904187
77 1145 0.0904175
77 1221 0.0904172
77 1502 0.0904176
78 5 0.146591
78 21 0.101206
78 32 0.706864
78 156 0.0453393
79 32 0.00311049
79 94 0.110969
79 96 0.110738
79 97 0.110738
79 98 0.110738
79 99 0.110738
79 100 0.110743
79 101 0.110738
79 102 0.110738
79 103 0.110738
79 385 1.26157e-05
80 32 0.252921
80 66 0.0639341
80 79 0.0318165
80 94 0.127306
80 156 0.0640388
80 171 0.031823
80 181 0.0318165
80 201 0.0319549
80 213 0.036854
80 216 0.0319859
80 222 0.0318165
80 239 0.0636398
80 385 0.0954711
80 1145 0.0409885
80 1161 0.0318165
80 1286 0.0318159
80 1475 3.34962e-07
81 19 0.0554833
81 27 0.0555576
81 46 0.0555664
81 47 0.0555664
81 61 0.0555664
81 62 0.0555664
81 67 0.0555664
81 68 0.0555664
81 148 0.166602
81 170 0.0555664
81 171 0.0555664
81 172 0.05556
81 510 0.0555664
81 523 0.0555664
81 524 0.0555664
81 585 0.0555664
82 19 0.145007
82 24 0.0176159
82 32 0.193916
82 78 0.0236018
82 105 0.0782878
82 109 0.233162
82 148 0.154273
82 201 0.0770693
82 570 0.0770671
83 20 0.355047
83 50 0.143764
83 58 0.358193
83 285 0.142995
84 27 0.200393
84 72 0.198783
84 168 0.19998
84 176 0.201974
84 237 0.19887
85 18 0.361262
85 40 0.21276
85 105 0.425978
86 104 1
87 20 0.498093
87 160 0.501907
88 33 0.288835
88 196 0.248425
88 213 0.248425
88 980 0.214315
89 402 0.5
89 403 0.5
90 63 0.493566
90 64 0.506434
91 3 0.269543
91 27 0.0913053
91 50 0.0911798
91 106 0.0913286
91 260 0.0913286
91 319 0.0913287
91 405 0.0913288
91 584 0.0913288
91 636 0.0913288
92 3 0.000446197
92 5 0.288269
92 32 0.137045
92 58 0.430251
92 527 0.143988
93 8 0.0110041
93 39 0.251535
93 40 0.236923
93 59 0.249106
93 172 0.251433
94 20 3.39276e-06
94 63 0.366582
94 64 0.449802
94 68 0.183612
95 18 0.166815
95 33 0.155639
95 105 0.169386
95 106 0.169387
95 107 0.169387
95 108 0.169387
96 39 0.126394
96 106 0.241552
96 109 0.126486
96 110 0.126394
96 111 0.126394
96 112 0.126387
96 113 0.126394
97 24 0.949005
97 114 0.0509947
98 24 1
99 16 0.107291
99 23 0.216254
99 27 0.108781
99 50 0.217818
99 58 0.13439
99 295 0.107734
99 607 0.107733
100 15 0.16723
100 24 4.49293e-06
100 29 0.166307
100 30 0.16723
100 31 0.16723
100 59 0.166703
100 114 0.165296
101 27 0.0370265
101 66 0.0370375
101 92 0.0370375
101 122 0.0370375
101 148 0.0370375
101 152 0.0370375
101 231 0.0370375
101 249 0.0370375
101 285 0.0370375
101 320 0.0370375
101 468 0.0370375
101 505 0.0740746
101 511 0.0370375
101 636 0.0370375
101 695 0.0370375
101 704 0.0370375
101 889 0.0370375
101 947 0.0370375
101 1003 0.0370375
101 1399 0.0370375
101 1513 0.0370375
101 1605 0.0370375
101 1606 0.0370375
101 1611 0.0370375
101 1612 0.0370375
101 1613 0.0370375
102 3 0.136455
102 27 0.137709
102 32 9.57078e-06
102 50 0.308821
102 172 0.0725261
102 243 0.0691244
102 356 0.137672
102 630 0.0688469
102 1365 0.068836
103 42 0.176164
103 50 0.175782
103 75 0.176164
103 115 0.176163
103 116 0.176164
103 117 0.119562
104 117 1
105 21 0.170115
105 34 0.0554226
105 92 0.0551525
105 109 0.0562754
105 112 0.0551525
105 137 0.0551525
105 172 0.111427
105 173 0.0552151
105 174 0.0551525
105 207 0.0551541
105 243 0.0551624
105 333 0.0551612
105 334 0.0551525
105 555 0.0551525
105 1367 0.0551525
106 23 0.111111
106 82 0.111111
106 118 0.111111
106 119 0.111111
106 120 0.111111
106 121 0.111111
106 122 0.222222
106 123 0.111111
107 40 4.66701e-06
107 64 0.00535078
107 137 0.745934
107 412 0.24871
108 2 0.0817554
108 58 0.0924599
108 63 0.0909116
108 64 0.162586
108 76 0.0817554
108 77 0.0817554
108 78 0.0817554
108 79 0.0817554
108 315 0.0817554
108 350 0.0817554
108 961 0.0817554
109 7 0.0838087
109 18 0.162002
109 105 0.167518
109 114 0.167627
109 282 0.0838087
109 310 0.0838087
109 461 0.0838087
109 479 0.0838087
109 1635 0.0838087
110 20 1.61126e-05
110 33 0.333374
110 129 0.111101
110 130 0.111101
110 131 0.111101
110 132 0.111103
110 133 0.111101
110 134 0.111101
111 15 0.076768
111 24 1.91481e-06
111 29 0.0767681
111 58 0.0767088
111 59 0.00207273
111 60 0.0767681
111 66 0.0767681
111 88 0.153536
111 107 0.0767681
111 146 0.230304
111 687 0.0767681
111 697 0.0767681
112 109 0.111111
112 137 0.222222
112 144 0.111111
112 145 0.111111
112 147 0.111111
112 148 0.111111
112 149 0.111111
112 150 0.111111
113 50 0.0686848
113 53 0.0693438
113 58 0.106341
113 59 0.0677024
113 63 0.0697822
113 113 0.0686829
113 120 0.0686829
113 151 0.0686828
113 152 0.0686828
113 153 0.0686829
113 154 0.0686827
113 503 0.137366
113 730 0.0686829
114 96 0.125
114 157 0.125
114 158 0.125
114 159 0.125
114 174 0.125
114 175 0.125
114 176 0.25
115 67 0.111111
115 68 0.111111
115 107 0.111111
115 170 0.111111
115 171 0.111111
115 172 0.111111
115 173 0.111111
115 174 0.111111
115 175 0.111111
116 59 0.499939
116 155 0.333439
116 156 0.166622
117 31 0.0850793
117 33 0.479448
117 40 0.181223
117 350 0.169499
117 1321 0.0847497
118 163 0.222222
118 164 0.111111
118 165 0.111111
118 166 0.111111
118 167 0.111111
118 168 0.111111
118 169 0.111111
118 178 0.111111
119 18 2.9876e-05
119 33 0.260976
119 105 0.138686
119 148 0.137964
119 155 0.324383
119 158 0.137961
120 18 0.00207469
120 105 0.645756
120 109 0.282107
120 114 0.0700625
121 106 0.111111
121 157 0.111111
121 158 0.111111
121 159 0.111111
121 160 0.111111
121 161 0.111111
121 162 0.111111
121 179 0.111111
121 180 0.111111
122 113 0.25
122 151 0.25
122 491 0.25
122 1398 0.25
123 27 0.13449
123 32 0.394454
123 50 0.337026
123 475 0.13403
124 10 0.111601
124 40 0.223491
124 43 0.218551
124 109 0.11155
124 137 0.111602
124 171 0.111602
124 239 0.111602
125 3 0.258317
125 21 0.0741857
125 40 0.324019
125 155 0.343479
126 35 0.2
126 72 0.2
126 176 0.2
126 653 0.2
126 755 0.2
127 18 0.222487
127 105 0.222415
127 171 0.11102
127 226 0.11102
127 227 0.11102
127 370 0.11102
127 411 0.11102
128 17 0.111162
128 18 0.110782
128 66 0.111162
128 105 0.110788
128 176 0.111457
128 505 0.111162
128 678 0.111162
128 703 0.111162
128 704 0.111162
129 148 0.334292
129 243 0.331416
129 343 0.334292
130 3 0.0231513
130 21 0.000202029
130 34 0.121653
130 106 0.122371
130 148 0.121931
130 185 0.121932
130 226 0.121932
130 243 0.122965
130 323 0.121932
130 324 0.121932
131 20 0.24994
131 183 1.89808e-05
131 184 0.125007
131 185 0.125007
131 186 0.125007
131 187 0.125007
131 188 0.125007
131 189 0.125007
132 3 0.0625
132 8 0.0625
132 18 0.0625
132 20 0.0625
132 21 0.0625
132 40 0.0625
132 155 0.0625
132 181 0.0625
132 182 0.0625
132 183 0.0625
132 184 0.0625
132 185 0.0625
132 186 0.0625
132 187 0.0625
132 188 0.0625
132 189 0.0625
133 32 0.37165
133 105 0.0737064
133 155 0.200652
133 156 0.353991
134 81 0.499804
134 106 0.250098
134 651 0.250098
135 137 0.1
135 164 0.1
135 197 0.1
135 207 0.1
135 228 0.0999997
135 241 0.0999992
135 611 0.1
135 688 0.1
135 826 0.1
135 827 0.1
136 8 0.00135517
136 18 0.198734
136 40 0.16331
136 181 0.212211
136 182 0.212211
136 183 0.212179
137 144 0.200008
137 173 0.199968
137 504 0.200008
137 1105 0.200008
137 1106 0.200008
138 94 0.125109
138 173 0.125134
138 177 0.24932
138 409 0.125109
138 867 0.125109
138 1107 0.125109
138 1108 0.125109
139 42 0.111044
139 43 0.11163
139 73 0.222087
139 632 0.111065
139 671 0.222087
139 672 0.111044
139 673 0.111044
140 5 0.222678
140 29 0.101373
140 76 0.0968603
140 124 0.0961809
140 258 0.096584
140 631 0.096584
140 675 0.0965715
140 707 0.096584
140 732 0.0965838
141 50 0.368722
141 53 0.000197
141 122 0.124819
141 155 0.131807
141 327 0.124819
141 969 0.124819
141 1357 0.124819
142 15 0.0906071
142 46 0.0909394
142 47 0.0909394
142 61 0.181879
142 62 0.181879
142 498 0.0909394
142 559 0.0909385
142 568 0.0909394
142 722 0.0909393
143 77 0.111112
143 177 0.111106
143 307 0.111112
143 530 0.111112
143 596 0.222223
143 796 0.111112
143 797 0.111112
143 798 0.111112
144 33 0.114908
144 55 0.0554957
144 59 0.054829
144 64 0.111471
144 74 0.0552856
144 75 0.0552956
144 109 0.221025
144 243 0.0552615
144 333 0.0552856
144 334 0.0552856
144 335 0.0552856
144 342 0.0552856
144 584 0.0552856
145 59 0.324267
145 155 0.342626
145 156 0.333107
146 799 0.5
146 1005 0.5
147 18 0.404162
147 20 0.12069
147 105 0.339266
147 160 0.0339572
147 191 0.0679152
147 630 0.0340095
148 15 0.143151
148 18 0.141202
148 30 0.143151
148 31 0.143149
148 209 0.14315
148 648 0.143047
148 684 0.143151
149 155 1
150 23 0.100311
150 106 0.0999301
150 165 0.0999301
150 172 0.196713
150 357 0.0999301
150 423 0.0999301
150 818 0.102365
150 831 0.0999301
150 1079 0.0999301
150 1184 0.00103124
151 3 2.35028e-06
151 21 0.0205798
151 40 0.184722
151 43 0.038016
151 50 0.0377844
151 52 0.147399
151 81 0.076023
151 126 0.0393182
151 130 0.0380107
151 138 0.0380117
151 171 0.0380117
151 214 8.25939e-07
151 240 0.114035
151 306 0.0380271
151 370 0.0380117
151 409 0.0380117
151 531 0.0380117
151 554 0.0380117
151 1335 0.0380117
152 42 0.0459916
152 43 0.0906442
152 58 0.0490912
152 63 0.171026
152 64 0.0996626
152 67 0.0906062
152 68 0.135909
152 208 0.0453028
152 213 0.0905556
152 383 0.0906057
152 398 0.0453029
152 399 0.0453028
153 63 0.33193
153 64 0.272516
153 67 0.142382
153 68 0.142357
153 168 0.0158936
153 423 0.0474605
153 1152 0.0474607
154 66 0.199999
154 231 0.1
154 505 0.200001
154 651 0.199999
154 704 0.200001
154 1651 0.1
155 63 0.250817
155 64 0.247413
155 182 0.250885
155 219 0.250885
156 10 1
157 63 0.407259
157 64 0.592741
158 10 0.137238
158 183 0.145253
158 185 0.145253
158 190 0.145253
158 191 0.136497
158 192 0.145253
158 193 0.145253
159 16 0.0626443
159 25 0.062432
159 33 2.91459e-05
159 61 0.124861
159 62 0.12486
159 176 0.0624877
159 306 0.0624298
159 350 0.0624301
159 407 0.0624304
159 445 0.0632327
159 543 0.0624411
159 562 0.0624304
159 814 0.0624303
159 1284 0.0624304
159 1285 0.0624303
160 10 1
161 18 0.227128
161 58 0.431767
161 64 0.127013
161 73 0.106572
161 105 0.107521
162 58 0.217308
162 63 0.214028
162 172 0.211776
162 398 0.0713778
162 503 0.0713778
162 628 0.0713778
162 961 0.0713778
162 1407 0.0713778
163 109 0.125
163 213 0.25
163 315 0.25
163 517 0.125
163 973 0.125
163 1408 0.125
164 227 0.111111
164 250 0.111111
164 263 0.111111
164 264 0.111111
164 294 0.111111
164 426 0.111111
164 626 0.111111
164 708 0.111111
164 808 0.111111
165 63 0.310189
165 67 0.340446
165 68 0.274409
165 651 0.0686074
165 1382 0.00634886
166 3 0.0057008
166 34 0.00348848
166 50 0.117438
166 58 0.159374
166 176 0.120093
166 198 0.116597
166 221 0.119327
166 407 0.119327
166 569 0.119327
166 1444 0.119327
167 177 0.244503
167 294 0.265592
167 299 0.489904
168 5 0.304212
168 32 0.479983
168 66 0.128281
168 176 0.0875245
169 18 0.272474
169 19 0.202576
169 42 0.125595
169 105 0.203057
169 156 0.196298
170 19 0.146562
170 42 0.142296
170 109 0.142375
170 130 0.142192
170 651 0.142192
170 804 0.142192
170 1017 0.142192
171 18 0.344415
171 81 0.0814093
171 105 0.162936
171 148 0.16345
171 155 0.0849701
171 194 0.08141
171 503 0.08141
172 18 0.133587
172 32 0.218878
172 42 0.215844
172 43 3.80067e-06
172 273 0.107922
172 524 0.107922
172 525 0.107922
172 574 0.107922
173 5 0.153448
173 66 0.0761653
173 170 0.153441
173 171 0.15348
173 172 0.0780134
173 191 0.0785718
173 243 0.0767202
173 570 0.153441
173 678 0.0767203
174 2 0.0528379
174 16 0.202695
174 18 0.11919
174 32 0.164767
174 43 0.158571
174 49 0.167632
174 50 0.0781439
174 58 0.0561641
175 58 0.163375
175 191 0.172222
175 310 0.166101
175 507 0.166101
175 649 0.166101
175 1629 0.166101
176 50 0.333332
176 82 0.333334
176 165 0.333334
177 41 0.111113
177 42 0.222227
177 75 0.111113
177 177 0.333321
177 257 0.111113
177 263 0.111113
178 19 0.333334
178 27 0.480721
178 164 0.0932327
178 248 0.0927121
179 35 0.111111
179 36 0.111111
179 250 0.111111
179 251 0.111111
179 252 0.111111
179 253 0.111111
179 254 0.111111
179 255 0.111111
179 256 0.111111
180 16 0.431221
180 32 0.227872
180 40 0.113488
180 58 8.7752e-06
180 59 0.115638
180 249 0.111773
181 20 9.90469e-06
181 32 0.443602
181 243 0.370739
181 578 0.185649
182 58 0.27545
182 59 0.143264
182 413 0.0726592
182 560 0.0726618
182 561 0.0726592
182 562 0.0726697
182 563 0.0726592
182 594 0.0726592
182 595 0.0726592
182 1544 0.0726592
183 142 1
184 19 0.114921
184 27 0.123882
184 42 0.126912
184 58 0.126632
184 81 0.126913
184 195 0.126913
184 196 0.126913
184 197 0.126913
185 75 0.202391
185 79 0.20239
185 115 0.20239
185 142 0.190439
185 194 0.202391
186 8 0.141099
186 72 0.19081
186 152 0.0477096
186 246 0.0477096
186 247 0.190839
186 248 0.190961
186 420 0.0477096
186 421 0.0954193
186 422 3.35244e-05
186 506 0.0477096
187 15 0.142857
187 72 0.142857
187 238 0.142857
187 247 0.142857
187 260 0.142857
187 261 0.142857
187 262 0.142857
188 32 0.165174
188 52 0.166945
188 137 0.16697
188 203 0.333941
188 204 0.16697
189 15 0.2
189 133 0.2
189 205 0.2
189 206 0.2
189 207 0.2
190 52 0.252185
190 159 0.0840678
190 208 0.168136
190 243 0.0752733
190 299 0.0840678
190 328 0.0840678
190 350 0.0840678
190 987 0.168135
191 20 1.04716e-05
191 35 0.124998
191 84 0.124998
191 88 0.124998
191 137 0.249997
191 156 2.28994e-06
191 209 0.124998
191 210 0.124998
191 211 0.124998
192 18 0.345802
192 19 0.15369
192 27 0.0581535
192 32 0.000170865
192 43 0.0292462
192 49 0.0602173
192 58 0.00406192
192 105 0.232233
192 176 0.0291059
192 462 0.0291063
192 625 0.0291063
192 1514 0.0291063
193 174 0.111239
193 213 0.111078
193 227 0.111098
193 320 0.111098
193 404 0.111098
193 410 0.111098
193 664 0.111097
193 697 0.111098
193 799 0.111098
194 2 0.0630934
194 54 0.0630966
194 58 0.114674
194 88 0.126193
194 105 0.0630966
194 109 0.0650744
194 127 0.0630966
194 262 0.126193
194 350 0.0630966
194 679 0.0630966
194 903 0.0630966
194 1039 0.0630966
194 1645 0.0630966
195 26 0.0914452
195 34 0.000104853
195 63 0.210353
195 64 0.126523
195 65 0.0914452
195 66 0.0915316
195 67 0.137161
195 68 0.137129
195 106 0.0457228
195 294 0.0457226
195 1098 0.0228613
196 8 0.00266322
196 32 0.664182
196 40 0.333154
197 32 0.0770171
197 39 0.0788064
197 81 0.0937975
197 137 0.187594
197 138 0.0937975
197 231 0.0937974
197 305 0.0937975
197 474 0.0937975
197 491 0.0937975
197 1624 0.0937975
198 356 0.222198
198 445 0.222229
198 457 0.111114
198 630 0.222229
198 671 0.222229
199 52 0.254841
199 64 0.166022
199 66 0.125385
199 81 0.125905
199 176 0.201958
199 216 0.12589
200 122 0.111114
200 124 0.111114
200 133 0.111114
200 134 0.111114
200 181 0.111114
200 212 0.111114
200 213 0.111109
200 214 0.111092
200 215 0.111114
201 3 0.0791399
201 5 0.0779466
201 16 0.0843962
201 33 0.0826421
201 172 0.0844482
201 217 0.0844896
201 218 0.0844895
201 221 0.0844896
201 308 0.0844896
201 543 0.0844896
201 776 0.0844896
201 777 0.0844896
202 35 0.142834
202 181 0.142997
202 197 0.142834
202 258 0.142834
202 259 0.142834
202 752 0.142834
202 753 0.142834
203 64 0.200014
203 81 0.199839
203 157 0.200049
203 229 0.200049
203 844 0.200049
204 109 0.14286
204 315 0.14284
204 383 0.14286
204 688 0.14286
204 1035 0.14286
204 1244 0.14286
204 1374 0.14286
205 26 0.199868
205 66 0.400396
205 67 0.199868
205 68 0.199868
206 213 0.111058
206 299 0.111241
206 574 0.1111
206 629 0.2222
206 635 0.1111
206 682 0.1111
206 1473 0.1111
206 1474 0.1111
207 32 1
208 10 0.861992
208 40 0.0139141
208 120 0.124094
209 3 0.0146484
209 32 0.55726
209 600 0.428091
210 3 0.020047
210 10 0.100837
210 16 0.0746435
210 33 0.0622868
210 63 0.0739869
210 64 0.0685982
210 81 0.0748304
210 177 0.0749334
210 182 0.0749728
210 219 0.0749728
210 220 0.0749728
210 221 0.0749727
210 294 0.0749728
210 549 0.0749728
211 172 0.0911518
211 243 0.272355
211 333 0.272775
211 334 0.272789
211 1256 0.0909295
212 5 0.24893
212 19 0.0636166
212 34 0.373758
212 50 0.313696
213 3 0.275135
213 16 0.23751
213 24 7.17494e-06
213 32 0.128334
213 50 0.119645
213 183 0.0598419
213 184 0.059843
213 527 0.0598419
213 905 0.0598418
214 39 0.111137
214 58 0.110904
214 181 0.111137
214 190 0.111137
214 191 0.111137
214 204 0.111137
214 222 0.111137
214 223 0.111137
214 224 0.111137
215 105 0.231688
215 156 0.150481
215 242 0.0772288
215 244 0.0772288
215 292 0.0772288
215 307 0.0772288
215 523 0.0772288
215 524 0.0772288
215 1375 0.0772288
215 1426 0.0772288
216 16 0.0995078
216 20 0.0998341
216 223 0.100082
216 225 0.100082
216 226 0.100082
216 227 0.100082
216 228 0.100082
216 229 0.100082
216 230 0.100082
216 231 0.100082
217 19 0.0826688
217 27 0.149451
217 137 0.0747641
217 155 0.244004
217 158 0.0747422
217 168 0.0753812
217 232 0.0747422
217 239 0.0747626
217 240 0.0747422
217 385 0.0747422
218 53 0.294722
218 158 0.0881693
218 224 0.0881694
218 233 0.0880923
218 234 0.0881695
218 235 0.0881694
218 236 0.0881695
218 237 0.0881695
218 238 0.0881694
219 43 0.142857
219 145 0.142857
219 169 0.142857
219 264 0.142857
219 265 0.142857
219 266 0.142857
219 267 0.142857
220 2 0.0909061
220 27 0.0909039
220 42 0.181827
220 120 0.0909059
220 174 0.0909061
220 175 0.0909061
220 176 0.0909268
220 395 0.0909061
220 396 0.0909061
220 397 0.0909061
221 53 0.125339
221 105 0.111141
221 107 0.111141
221 114 0.111141
221 120 0.111141
221 236 0.111141
221 336 0.0966727
221 393 0.111141
221 400 0.111141
222 3 0.209271
222 16 0.263056
222 32 0.263804
222 268 0.263869
223 43 0.0649891
223 137 0.0623333
223 154 0.0623335
223 171 0.0623335
223 213 0.0623332
223 239 0.0623336
223 299 0.0623336
223 317 0.0623334
223 340 0.0623336
223 341 0.0623336
223 350 0.0623418
223 653 0.0623333
223 738 0.0623336
223 903 0.0623335
223 910 0.0623336
223 1163 0.0623336
224 53 0.221978
224 58 0.221795
224 155 0.112058
224 156 0.111042
224 209 0.111042
224 864 0.111042
224 1240 0.111042
225 40 0.164686
225 53 0.166814
225 73 0.167125
225 404 0.167124
225 687 0.167125
225 1173 0.167125
226 6 0.111111
226 85 0.111111
226 86 0.111111
226 349 0.111111
226 480 0.111111
226 481 0.111111
226 748 0.111111
226 793 0.111111
226 794 0.111111
227 43 0.111111
227 278 0.111111
227 413 0.111111
227 560 0.111111
227 561 0.111111
227 562 0.111111
227 563 0.111111
227 565 0.111111
227 566 0.111111
228 18 0.123385
228 53 0.111972
228 105 0.127445
228 151 0.127445
228 177 0.127416
228 345 0.127445
228 1612 0.127445
228 1620 0.127445
229 43 0.249999
229 201 0.25
229 230 0.25
229 343 0.25
230 18 0.148685
230 185 0.212829
230 456 0.212829
230 507 0.212829
230 754 0.106414
230 824 0.106414
231 280 0.5
231 281 0.5
232 63 0.140383
232 64 0.000203043
232 76 0.146614
232 243 0.126344
232 273 0.146614
232 299 0.146614
232 696 0.146614
232 910 0.146614
233 18 0.277506
233 24 1.6711e-05
233 105 0.277447
233 109 0.389438
233 144 0.0555929
234 8 0.252146
234 15 0.0536692
234 33 0.0501627
234 72 0.214669
234 247 0.161008
234 261 0.0536692
234 360 0.0536692
234 468 0.0536692
234 903 0.0536692
234 947 0.0536692
235 5 0.0824671
235 66 0.0764618
235 137 0.152901
235 138 0.0764619
235 162 0.152923
235 191 0.0764619
235 239 0.0764619
235 242 0.0764619
235 243 0.152924
235 452 0.0764619
235 631 1.37865e-05
236 27 0.124785
236 608 0.125031
236 634 0.125031
236 1191 0.125031
236 1305 0.125031
236 1306 0.125031
236 1328 0.125031
236 1498 0.125031
237 23 0.142866
237 42 0.142843
237 43 0.142866
237 58 0.142829
237 282 0.142866
237 283 0.142866
237 284 0.142866
238 42 0.519909
238 75 0.480091
239 185 0.111109
239 240 0.111111
239 275 0.0555557
239 317 0.111111
239 356 0.111111
239 423 0.111111
239 521 0.111111
239 574 0.111111
239 630 0.111111
239 1289 0.0555557
240 58 0.187615
240 81 0.203099
240 385 0.406188
240 1303 0.203099
241 3 0.292139
241 16 0.122269
241 32 0.220009
241 50 0.305696
241 349 0.0598876
242 72 0.234806
242 73 0.0589988
242 184 0.0587059
242 247 0.23482
242 248 0.23482
242 293 0.0587123
242 309 0.000562237
242 349 0.059869
242 383 0.0587051
243 17 0.0475854
243 42 0.0951658
243 43 0.0476722
243 172 0.0475738
243 201 0.0475854
243 216 0.0475778
243 293 0.0475854
243 356 0.095809
243 412 0.0475943
243 445 0.0951704
243 457 0.0475854
243 630 0.190339
243 669 0.0475854
243 984 0.0475854
243 1110 0.0475854
244 6 0.307066
244 32 0.000923981
244 63 0.076741
244 64 0.0767115
244 66 0.154726
244 76 0.230298
244 208 0.0767667
244 260 0.0767667
245 155 1
246 5 0.165321
246 20 0.167193
246 32 0.171175
246 66 0.165437
246 517 0.165437
246 600 0.165437
247 39 0.110335
247 50 0.102378
247 70 0.11247
247 82 0.11247
247 144 0.11247
247 197 0.11247
247 451 0.11247
247 923 0.11247
247 1164 0.11247
248 223 0.493345
248 224 0.506655
249 3 0.00188089
249 10 0.10045
249 29 0.0997627
249 33 0.0947643
249 106 0.401817
249 243 0.100422
249 688 0.100452
249 950 0.100452
250 23 0.100014
250 50 0.299904
250 88 0.100014
250 131 0.100014
250 315 0.200027
250 478 0.100014
250 611 0.100014
251 223 1
252 63 0.112233
252 66 0.110971
252 73 0.110971
252 139 0.110971
252 385 0.110971
252 741 0.110971
252 742 0.110971
252 745 0.110971
252 750 0.110971
253 30 0.201062
253 66 0.201704
253 107 0.39617
253 365 0.201064
254 5 0.269196
254 29 0.104521
254 34 0.207065
254 177 0.103171
254 445 0.109676
254 456 0.103182
254 631 0.103189
255 46 0.111423
255 47 0.111423
255 61 0.111423
255 62 0.111423
255 63 0.111376
255 64 0.108662
255 122 0.111423
255 877 0.111423
255 878 0.111423
256 27 0.246574
256 40 0.176518
256 52 0.247201
256 122 0.0824981
256 471 0.082403
256 955 0.082403
256 1357 0.0824028
257 75 0.111251
257 105 0.111088
257 115 0.111088
257 144 0.111088
257 173 0.111071
257 463 0.111152
257 574 0.111088
257 732 0.111088
257 1413 0.111088
258 145 0.166672
258 214 0.166641
258 299 0.166672
258 313 0.166672
258 500 0.166672
258 889 0.166672
259 209 0.333334
259 733 0.333334
259 734 0.333333
260 63 0.111147
260 64 0.11062
260 81 0.111276
260 273 0.222319
260 275 0.222319
260 630 0.222319
261 180 0.166632
261 243 0.166852
261 244 0.333259
261 592 0.166628
261 1035 0.166629
262 578 0.33318
262 1029 0.33341
262 1241 0.33341
263 16 0.196111
263 42 0.215059
263 43 0.196136
263 53 0.000422818
263 246 0.196136
263 1030 0.196136
264 6 0.161356
264 27 0.185458
264 50 0.0930537
264 58 1.99202e-05
264 155 0.000679104
264 237 0.0927631
264 243 0.188381
264 328 0.0927632
264 636 0.0927631
264 637 0.0927631
265 32 1
266 53 0.120172
266 122 0.125712
266 216 0.125562
266 288 0.125713
266 289 0.125704
266 290 0.125713
266 291 0.125713
266 292 0.125713
267 53 0.284933
267 59 0.143013
267 138 0.143014
267 360 0.143014
267 1342 0.143014
267 1343 0.143014
268 32 5.4045e-05
268 53 0.263104
268 285 0.245614
268 286 0.245614
268 287 0.245614
269 18 0.376733
269 105 0.28398
269 423 0.0566998
269 570 0.225887
269 1560 0.0566998
270 42 0.0769609
270 68 9.06952e-06
270 72 0.0769609
270 107 0.0769609
270 185 0.153735
270 216 0.153608
270 247 0.0769609
270 360 0.0769609
270 457 0.0769609
270 461 0.0769609
270 687 0.0769609
270 1351 0.0769609
271 23 0.110121
271 24 0.122452
271 63 0.125828
271 64 0.0884833
271 109 0.11263
271 356 0.110121
271 903 0.110121
271 1170 0.220243
272 16 0.249479
272 106 0.501265
272 1619 0.249256
273 67 0.111112
273 68 0.111112
273 77 0.111112
273 138 0.111112
273 156 0.111112
273 213 0.111105
273 823 0.111112
273 1278 0.111112
273 1291 0.111112
274 43 0.142857
274 122 0.142857
274 127 0.142857
274 212 0.142857
274 310 0.142857
274 311 0.142857
274 312 0.142857
275 63 0.00706877
275 67 0.00311548
275 75 0.0897835
275 115 0.0825147
275 142 0.0825213
275 194 0.0825147
275 195 0.0825147
275 222 0.0825147
275 310 0.0825147
275 385 0.165029
275 905 0.0825147
275 1089 0.0825147
275 1382 0.0748786
276 10 0.111433
276 19 0.111404
276 20 0.220572
276 73 0.110875
276 184 0.111431
276 223 0.111433
276 224 0.111433
276 293 0.111419
277 18 0.10186
277 33 0.499561
277 105 0.0993492
277 170 0.0993466
277 171 0.100539
277 519 0.0993453
278 88 0.25
278 237 0.5
278 1545 0.25
279 5 0.0788509
279 34 0.0791075
279 39 0.0789793
279 55 0.227221
279 81 0.21932
279 239 0.0789793
279 248 0.0800971
279 386 0.0784656
279 1457 0.0789793
280 63 0.0713144
280 81 0.0715111
280 164 0.0714258
280 220 0.0714316
280 243 0.0714313
280 349 0.0714318
280 378 0.0714318
280 385 0.0714318
280 455 0.0714317
280 507 0.0714318
280 765 0.0714318
280 979 0.0714317
280 1505 0.0714318
280 1506 0.0714318
281 32 0.0425113
281 63 0.164348
281 67 0.0881325
281 68 0.0881266
281 88 0.0440593
281 107 0.0440633
281 148 0.0440633
281 185 0.0881266
281 196 0.0440632
281 356 0.0881265
281 503 0.0881266
281 630 0.0440633
281 1352 0.0440632
281 1582 0.0440633
281 1583 0.0440633
282 32 0.174263
282 50 0.206437
282 145 0.103217
282 151 0.103217
282 268 0.103217
282 279 0.103217
282 691 0.103217
282 1084 0.103217
283 20 0.139417
283 58 0.142044
283 72 0.143686
283 246 0.143713
283 247 0.143713
283 248 0.143713
283 301 0.143713
284 25 0.111111
284 81 0.111111
284 106 0.111111
284 226 0.111111
284 231 0.111111
284 238 0.111111
284 503 0.111111
284 1193 0.111111
284 1194 0.111111
285 59 0.656144
285 673 0.171928
285 1543 0.171928
286 172 0.111111
286 286 0.111111
286 300 0.111111
286 371 0.111111
286 384 0.111111
286 517 0.111111
286 651 0.111111
286 1256 0.111111
286 1419 0.111111
287 10 0.200086
287 21 0.00190628
287 40 0.197749
287 294 0.200086
287 299 0.200086
287 300 0.200086
288 74 0.111111
288 227 0.111111
288 302 0.111111
288 303 0.111111
288 304 0.111111
288 305 0.111111
288 306 0.111111
288 307 0.111111
288 308 0.111111
289 20 0.0944522
289 52 0.0918258
289 58 0.157834
289 137 0.0930767
289 144 0.0930768
289 155 0.190249
289 170 0.0931055
289 171 0.18638
290 155 0.332825
290 172 0.334351
290 196 0.332824
291 8 0.0630674
291 33 0.233972
291 72 0.117118
291 78 0.117168
291 88 0.0585841
291 247 0.117168
291 653 0.117169
291 768 0.0585841
291 905 0.0585841
291 1342 0.0585841
292 18 0.177673
292 19 0.459736
292 49 0.18119
292 238 0.181401
293 243 0.496535
293 333 0.251733
293 334 0.251733
294 78 0.111111
294 272 0.111111
294 273 0.111111
294 313 0.222222
294 314 0.111111
294 315 0.111111
294 316 0.111111
294 317 0.111111
295 5 0.11518
295 35 0.115295
295 213 0.190116
295 315 0.230589
295 462 0.118218
295 631 0.115309
295 1147 0.115294
296 52 1
297 24 0.288681
297 35 0.142264
297 41 0.142264
297 57 0.142264
297 551 0.142264
297 557 0.142264
298 32 0.0743604
298 64 0.11647
298 122 0.134876
298 124 0.134876
298 133 0.134876
298 134 0.134876
298 215 0.134876
298 216 0.134792
299 5 0.146129
299 41 0.1467
299 50 0.120509
299 66 0.146563
299 79 0.1467
299 318 0.1467
299 319 0.1467
300 15 0.200561
300 29 0.200115
300 31 0.198361
300 114 0.200115
300 315 0.200847
301 31 0.125958
301 239 0.124863
301 243 0.124863
301 303 0.124863
301 662 0.124863
301 677 0.124863
301 974 0.124863
301 1217 0.124863
302 92 0.5
302 124 0.5
303 18 0.449373
303 105 0.275276
303 109 0.275352
304 63 0.111111
304 106 0.111111
304 109 0.111111
304 191 0.111111
304 408 0.111111
304 413 0.111111
304 414 0.111111
304 416 0.111111
304 697 0.111111
305 33 0.084757
305 52 0.0832039
305 63 0.0832039
305 67 0.249612
305 68 0.166408
305 127 0.0832039
305 502 0.0832039
305 616 0.0832039
305 1615 0.0832039
306 3 0.140265
306 10 0.169578
306 40 0.165684
306 50 0.0188863
306 350 0.168529
306 903 0.168529
306 1590 0.168529
307 29 0.111111
307 73 0.111111
307 85 0.111111
307 122 0.111111
307 133 0.111111
307 134 0.111111
307 317 0.111111
307 320 0.111111
307 321 0.111111
308 168 0.171625
308 176 0.103051
308 327 0.103606
308 651 0.103606
308 653 0.103686
308 1038 0.103606
308 1061 0.103606
308 1451 0.103606
308 1610 0.103606
309 216 0.333333
309 260 0.333333
309 322 0.333333
310 106 0.331921
310 176 0.336157
310 185 0.331921
311 54 0.158408
311 63 0.118142
311 64 0.08981
311 76 0.079204
311 111 0.079204
311 328 0.0792116
311 813 0.079204
311 1180 0.079204
311 1181 0.158408
311 1182 0.079204
312 67 0.166672
312 68 0.166672
312 72 0.0833354
312 160 0.0833359
312 213 0.0833307
312 247 0.0833359
312 260 0.0833359
312 327 0.0833359
312 328 0.0833111
312 926 0.0833358
313 5 0.0656805
313 20 0.0677905
313 82 0.0650327
313 94 0.0667914
313 122 0.0667914
313 133 0.0667914
313 134 0.0667914
313 248 0.0667914
313 279 0.0667914
313 313 0.0667914
313 326 0.0667914
313 498 0.0667914
313 572 0.0667912
313 804 0.0667914
313 1017 0.0667912
314 43 0.110969
314 94 0.110966
314 155 0.111008
314 156 0.112229
314 258 0.110966
314 319 0.110965
314 1131 0.110966
314 1134 0.110966
314 1135 0.110966
315 25 0.0833372
315 50 0.0832658
315 88 0.0833369
315 199 0.166675
315 237 0.0833372
315 325 0.166675
315 328 0.083362
315 388 0.0833373
315 462 0.0833373
315 542 0.0833373
316 10 0.111079
316 94 0.111183
316 185 0.111078
316 356 0.111272
316 373 0.111078
316 502 0.111078
316 630 0.111078
316 998 0.111078
316 1466 0.111078
317 5 0.143378
317 32 0.0673061
317 34 0.143609
317 35 0.0718043
317 36 0.0718043
317 59 0.0712732
317 380 0.143608
317 381 0.143609
317 382 0.0718042
317 818 0.0718043
318 20 0.110978
318 64 0.111143
318 85 0.111144
318 122 0.111016
318 133 0.111144
318 134 0.111144
318 177 0.111142
318 329 0.111144
318 330 0.111144
319 248 1
320 72 0.14279
320 160 0.142803
320 176 0.142881
320 247 0.142881
320 299 0.142881
320 331 0.142881
320 332 0.142881
321 16 0.774936
321 32 0.225064
322 72 0.111198
322 88 0.111229
322 106 0.111229
322 247 0.111229
322 262 0.111229
322 336 0.110198
322 337 0.111229
322 338 0.111229
322 339 0.111229
323 19 5.31841e-05
323 49 0.249987
323 121 0.249987
323 137 0.249986
323 165 0.249987
324 227 0.111111
324 240 0.111111
324 315 0.111111
324 344 0.111111
324 345 0.111111
324 346 0.111111
324 347 0.111111
324 348 0.111111
324 352 0.111111
325 5 0.0908693
325 9 0.0909131
325 66 0.090913
325 127 0.0909131
325 162 0.0909131
325 174 0.0909131
325 319 0.0909131
325 378 0.0909131
325 404 0.0909131
325 467 0.0909131
325 481 0.0909131
326 42 0.174328
326 43 0.224158
326 155 0.337265
326 156 0.152756
326 479 0.111492
327 30 0.20017
327 106 0.199262
327 355 0.200189
327 356 0.200189
327 357 0.200189
328 138 0.333008
328 353 0.333496
328 354 0.333496
329 40 0.352979
329 52 0.323283
329 1339 0.323738
330 30 0.111121
330 60 0.11111
330 67 0.11111
330 68 0.11111
330 107 0.11111
330 160 0.11111
330 530 0.11111
330 668 0.11111
330 755 0.11111
331 3 0.000453783
331 18 0.175982
331 58 0.372385
331 109 0.176491
331 151 0.0978513
331 648 0.0885935
331 651 0.0882434
332 43 0.112006
332 59 0.117985
332 151 0.434708
332 160 0.111767
332 315 0.111767
332 1189 0.111767
333 58 0.452356
333 155 0.410671
333 156 0.000747048
333 328 0.136227
334 358 1
335 81 0.142858
335 185 0.142854
335 299 0.285715
335 509 0.142857
335 618 0.142858
335 1015 0.142857
336 5 0.1111
336 29 0.111126
336 30 0.111138
336 81 0.110949
336 114 0.111138
336 350 0.111138
336 585 0.111138
336 631 0.111136
336 974 0.111138
337 64 0.168166
337 358 0.157147
337 359 0.168672
337 360 0.168672
337 361 0.168672
337 362 0.168672
338 21 0.190339
338 29 0.088305
338 64 0.0976476
338 164 0.088305
338 168 0.088305
338 184 0.088305
338 574 0.088305
338 631 0.182183
338 1178 0.088305
339 66 0.160198
339 156 0.339444
339 191 0.161773
339 243 0.338585
340 23 0.0907175
340 52 0.0915564
340 59 0.181454
340 75 0.0907175
340 109 0.182686
340 162 0.181435
340 357 0.0907154
340 787 0.0907175
341 6 0.109908
341 16 0.109338
341 20 0.108341
341 41 0.109908
341 59 0.12287
341 216 0.109908
341 385 0.109908
341 877 0.109908
341 935 0.109908
342 363 1
343 64 0.498727
343 886 0.250637
343 887 0.250637
344 363 1
345 363 1
346 19 0.202966
346 20 0.305289
346 32 0.0748791
346 106 0.104215
346 185 0.10422
346 191 0.20843
347 58 0.0671867
347 122 0.071755
347 231 0.0717536
347 250 0.071755
347 315 0.071755
347 503 0.071755
347 511 0.071755
347 512 0.071755
347 569 0.071755
347 570 0.14351
347 1233 0.071755
347 1234 0.071755
347 1236 0.071755
348 364 1
349 364 0.984347
349 365 0.0156533
350 27 0.220124
350 243 0.197703
350 364 0.142173
350 365 0.219613
350 366 0.220388
351 42 0.334577
351 43 0.25214
351 157 0.165094
351 209 0.165133
351 243 0.0830563
352 155 0.00346271
352 243 0.996537
353 174 1
354 3 0.195509
354 114 0.0257719
354 122 0.1965
354 174 0.189218
354 199 0.1965
354 367 0.1965
355 40 0.0452347
355 57 0.0634463
355 169 0.126893
355 455 0.0634463
355 523 0.253785
355 524 0.19341
355 525 0.190339
355 1329 0.0634463
356 114 1
357 19 0.166487
357 51 0.166708
357 52 0.16668
357 350 0.166708
357 368 0.166708
357 369 0.166708
358 16 0.0681451
358 27 0.0783096
358 39 0.0793043
358 53 0.0793045
358 58 0.0606663
358 144 0.0793044
358 155 0.0791395
358 160 0.0793044
358 171 0.0793043
358 370 0.0793045
358 371 0.0793039
358 582 0.0793045
358 609 0.0793045
359 5 0.0254082
359 10 0.0256507
359 16 0.0241255
359 32 0.0769826
359 34 0.0256507
359 43 0.000592193
359 59 0.0509142
359 63 0.051224
359 66 0.0256507
359 105 0.0513015
359 109 0.0256507
359 114 0.0256507
359 128 0.0256507
359 155 0.0274296
359 164 0.0256507
359 172 0.0256506
359 177 0.0512083
359 198 0.0255227
359 238 0.0256507
359 243 0.0252414
359 333 0.0256506
359 334 8.33823e-05
359 385 0.0256507
359 423 0.0256506
359 480 0.0256507
359 1127 0.0256507
359 1161 0.0256507
359 1306 0.0256507
359 1361 0.0256507
359 1394 0.0256507
359 1515 0.0256507
359 1528 0.0256507
359 1529 0.0256507
359 1596 0.0256507
359 1603 0.0256506
360 16 0.141903
360 18 0.141325
360 20 0.142965
360 32 0.0714422
360 105 0.143393
360 109 0.14388
360 148 0.143394
360 279 0.071697
361 32 0.14201
361 59 0.145747
361 73 0.142533
361 109 0.142532
361 213 0.142114
361 321 0.142533
361 372 0.142533
362 42 0.10001
362 43 0.299917
362 238 0.10001
362 356 0.100024
362 523 0.10001
362 663 0.10001
362 664 0.10001
362 665 0.10001
363 33 0.0440404
363 295 0.318653
363 376 0.318653
363 377 0.318653
364 10 0.111225
364 33 0.110314
364 35 0.111225
364 36 0.111225
364 213 0.111111
364 372 0.111225
364 373 0.111225
364 374 0.111225
364 375 0.111225
365 25 0.500093
365 158 0.249953
365 746 0.249953
366 3 0.0875768
366 9 0.0550179
366 39 0.0550176
366 50 0.0550025
366 64 0.0321803
366 94 0.0550171
366 109 0.110071
366 172 0.0549179
366 176 0.0550178
366 220 0.0550565
366 335 0.0550178
366 371 0.0550177
366 378 0.0550179
366 379 0.0550178
366 412 0.0550179
366 504 0.0550177
366 1335 0.0550179
367 220 0.5
367 263 0.5
368 39 0.52217
368 315 0.47783
369 39 0.111956
369 172 0.107937
369 216 0.11196
369 349 0.112014
369 371 0.112014
369 379 0.110254
369 383 0.109835
369 384 0.112014
369 385 0.112014
370 172 0.983116
370 379 0.0168839
371 379 0.439822
371 383 0.560178
372 18 0.110428
372 19 0.110658
372 49 0.111273
372 170 0.111273
372 171 0.111273
372 196 0.111273
372 378 0.111273
372 427 0.111273
372 428 0.111273
373 231 0.142857
373 315 0.142857
373 391 0.142857
373 392 0.142857
373 393 0.142857
373 394 0.142857
373 395 0.142857
374 23 0.12538
374 59 0.125334
374 64 0.122253
374 155 0.00013238
374 386 0.12538
374 387 0.12538
374 388 0.12538
374 389 0.12538
374 390 0.12538
375 105 0.799762
375 155 0.200238
376 3 0.128051
376 16 0.169724
376 58 0.341336
376 172 0.36089
377 10 0.0770418
377 19 0.0672679
377 25 0.155143
377 43 0.0775704
377 64 0.00240704
377 121 0.0775713
377 254 0.0775713
377 296 0.155143
377 360 0.0775711
377 543 0.155143
377 951 0.0775713
378 6 0.207344
378 43 0.396299
378 50 0.000311308
378 155 0.197897
378 337 0.198148
379 15 0.0909235
379 164 0.0909235
379 170 0.181847
379 171 0.181847
379 172 0.363535
379 1280 0.0909235
380 3 0.237134
380 174 0.12728
380 243 0.126466
380 300 0.12728
380 333 0.12728
380 334 0.12728
380 404 0.12728
381 475 1
382 401 0.333333
382 402 0.333333
382 403 0.333333
383 3 1
384 405 1
385 15 0.33332
385 24 4.16692e-05
385 547 0.333319
385 659 0.33332
386 3 1.96658e-05
386 176 0.180642
386 310 0.271995
386 405 0.00335415
386 406 0.271995
386 407 0.271995
387 176 1
388 59 0.000616053
388 176 0.997071
388 405 0.00231332
389 31 0.111111
389 180 0.111111
389 285 0.111111
389 321 0.111111
389 975 0.111111
389 1074 0.111111
389 1318 0.111111
389 1643 0.111111
389 1644 0.111111
390 32 0.0778018
390 59 0.46095
390 109 0.153765
390 151 0.230612
390 175 0.0768708
391 32 0.999383
391 59 0.000616843
392 35 0.058425
392 42 0.11685
392 43 0.058425
392 53 0.0652003
392 237 0.058425
392 310 0.058425
392 382 0.058425
392 443 0.058425
392 547 0.058425
392 548 0.11685
392 558 0.058425
392 973 0.058425
392 1098 0.058425
392 1209 0.058425
392 1210 0.058425
393 5 0.111111
393 29 0.111111
393 45 0.111111
393 46 0.111111
393 47 0.111111
393 416 0.111111
393 631 0.111111
393 681 0.111111
393 1187 0.111111
394 33 0.133604
394 91 0.144399
394 121 0.144399
394 127 0.144399
394 265 0.144399
394 405 0.144399
394 662 0.144399
395 9 0.122631
395 20 0.141588
395 109 0.12263
395 131 0.245261
395 132 0.24526
395 378 0.122631
396 20 0.00215176
396 27 0.249429
396 31 0.249473
396 180 0.249473
396 366 0.249473
397 5 0.249746
397 10 0.250088
397 66 0.250079
397 408 0.250087
398 16 0.221825
398 78 0.111156
398 184 0.111237
398 664 0.111156
398 696 0.111156
398 1110 0.111156
398 1170 0.111156
398 1320 0.111156
399 7 0.110771
399 10 0.113924
399 94 0.110772
399 196 0.110772
399 216 0.221447
399 317 0.110772
399 1102 0.110772
399 1215 0.110772
400 33 0.154774
400 174 0.169046
400 377 0.169045
400 404 0.169046
400 409 0.169044
400 410 0.169046
401 209 0.111113
401 279 0.111113
401 328 0.111113
401 632 0.111097
401 673 0.111113
401 787 0.111113
401 1203 0.111113
401 1603 0.111113
401 1617 0.111113
402 59 0.145812
402 328 0.144983
402 352 0.141841
402 483 0.141841
402 484 0.141841
402 1266 0.141841
402 1304 0.141841
403 33 1.70623e-06
403 52 0.0711621
403 58 0.217792
403 59 0.0705444
403 78 0.0711702
403 216 0.0711065
403 296 0.0711702
403 307 0.0711702
403 334 0.0711702
403 385 0.0711758
403 409 0.0711702
403 475 0.0711702
403 485 0.0711702
403 1265 2.6183e-05
404 328 0.111111
404 412 0.111111
404 413 0.111111
404 414 0.111111
404 415 0.111111
404 416 0.111111
404 417 0.111111
404 418 0.111111
404 419 0.111111
405 27 0.115076
405 53 0.109252
405 60 0.221621
405 73 0.11081
405 261 0.11081
405 424 0.11081
405 425 0.11081
405 426 0.11081
406 40 0.125242
406 59 0.173909
406 70 0.171153
406 138 0.171154
406 155 0.187389
406 398 0.171154
407 111 0.333402
407 155 0.333196
407 173 0.333402
408 8 0.297509
408 32 0.116936
408 75 0.117126
408 115 0.117107
408 491 0.117107
408 1460 0.117107
408 1637 0.117107
409 26 0.225501
409 63 0.096946
409 66 0.226568
409 67 0.225501
409 68 0.225484
410 33 0.166621
410 82 0.166676
410 212 0.166676
410 213 0.166676
410 1012 0.166676
410 1042 0.166676
411 181 1
412 15 0.0909091
412 72 0.181818
412 237 0.0909091
412 247 0.181818
412 261 0.0909091
412 274 0.0909091
412 275 0.0909091
412 517 0.0909091
412 617 0.0909091
413 19 0.198007
413 20 0.396126
413 58 0.207629
413 630 0.198239
414 181 0.516653
414 222 0.483347
415 222 1
416 24 0.249005
416 120 0.250339
416 155 0.250316
416 442 0.250339
417 52 0.128859
417 60 0.124449
417 94 0.124448
417 413 0.248898
417 414 0.248898
417 998 0.124449
418 16 0.0527193
418 59 0.209039
418 63 0.210241
418 92 0.0526882
418 162 0.0526891
418 164 0.0526882
418 243 0.052692
418 286 0.0526882
418 333 0.0526981
418 334 0.0526882
418 456 0.159168
419 15 0.111111
419 31 0.11111
419 41 0.111111
419 127 0.111111
419 169 0.111111
419 180 0.111111
419 187 0.111111
419 588 0.111111
419 589 0.111111
420 8 0.00522629
420 23 0.167939
420 24 0.153478
420 39 0.169982
420 40 0.163411
420 229 0.169982
420 443 0.169982
421 34 0.145881
421 50 0.563422
421 155 0.144816
421 1159 0.145881
422 15 0.19999
422 46 0.0999949
422 106 0.100046
422 200 0.0999949
422 220 0.0999949
422 356 0.0999949
422 527 0.0999949
422 630 0.19999
423 23 0.111586
423 216 0.110974
423 319 0.111063
423 356 0.111063
423 445 0.111063
423 578 0.111063
423 630 0.111063
423 831 0.111062
423 1033 0.111063
424 63 0.0995846
424 64 0.102949
424 231 0.19937
424 273 0.0996854
424 275 0.0996853
424 498 0.0996853
424 630 0.0996695
424 664 0.0996854
424 722 0.0996854
425 21 4.17035e-05
425 53 0.197334
425 78 0.200864
425 475 0.200587
425 1161 0.200587
425 1268 0.200587
426 31 0.110761
426 33 0.224705
426 176 0.110761
426 177 0.110726
426 307 0.110761
426 407 0.110761
426 630 0.110761
426 1224 0.110761
427 20 0.33062
427 299 0.167345
427 300 0.167345
427 335 0.167345
427 894 0.167345
428 16 0.141711
428 24 0.147856
428 198 0.142086
428 371 0.142087
428 432 0.142087
428 462 0.142087
428 496 0.142087
429 148 0.123155
429 176 0.123366
429 328 0.123155
429 412 0.137705
429 443 0.123155
429 755 0.123155
429 921 0.123155
429 922 0.123155
430 5 0.169192
430 7 0.169388
430 8 0.00622706
430 40 0.146455
430 126 0.16958
430 645 0.16958
430 1205 0.16958
431 33 0.111112
431 78 0.111114
431 138 0.111113
431 164 0.111114
431 165 0.111114
431 166 0.111114
431 275 0.111093
431 444 0.111114
431 445 0.111114
432 15 0.25
432 60 0.25
432 335 0.25
432 446 0.25
433 170 0.111111
433 171 0.222222
433 208 0.111111
433 397 0.222222
433 635 0.111111
433 1479 0.222222
434 21 1
435 275 1
436 33 0.290591
436 117 0.23647
436 737 0.23647
436 738 0.23647
437 78 0.111111
437 82 0.111111
437 92 0.111111
437 174 0.111111
437 176 0.111111
437 275 0.111111
437 434 0.111111
437 447 0.111111
437 448 0.111111
438 5 0.226228
438 20 0.170821
438 34 0.150823
438 57 0.0753109
438 66 0.0754314
438 113 0.0754117
438 176 0.150561
438 755 0.0754117
439 5 0.134105
439 14 0.134101
439 34 0.134101
439 81 0.134101
439 243 0.195388
439 800 0.134101
439 1002 0.134101
440 449 0.5
440 450 0.5
441 451 0.5
441 452 0.5
442 137 0.111111
442 170 0.111111
442 171 0.111111
442 275 0.111111
442 345 0.111111
442 466 0.111111
442 1222 0.111111
442 1303 0.111111
442 1559 0.111111
443 32 0.27084
443 43 0.273531
443 50 0.0908921
443 230 0.273553
443 781 0.0911842
444 20 0.179001
444 23 0.081183
444 453 0.184954
444 454 0.184954
444 455 0.184954
444 456 0.184954
445 23 1
446 196 0.344424
446 243 0.327775
446 656 0.327801
447 16 0.249438
447 30 0.166295
447 41 0.0831477
447 50 0.0821847
447 172 0.252639
447 216 0.0831475
447 248 0.0831477
448 31 0.111111
448 96 0.111111
448 120 0.111111
448 137 0.111111
448 180 0.111111
448 247 0.111111
448 458 0.111111
448 459 0.111111
448 460 0.111111
449 60 0.111111
449 72 0.111109
449 74 0.111111
449 169 0.111111
449 201 0.222223
449 397 0.111111
449 457 0.111111
449 461 0.111111
450 53 0.0749378
450 76 0.231292
450 78 0.0770972
450 124 0.0770972
450 198 0.0770754
450 213 0.0770122
450 258 0.0770972
450 273 0.0770996
450 696 0.154194
450 704 0.0770972
451 19 0.0997561
451 43 0.100027
451 121 0.100027
451 165 0.100027
451 209 0.100027
451 230 0.100027
451 410 0.100027
451 494 0.100027
451 828 0.100027
451 829 0.100027
452 35 0.111111
452 57 0.111111
452 84 0.111111
452 106 0.222222
452 132 0.111111
452 366 0.111111
452 380 0.111111
452 410 0.111111
453 31 0.0469159
453 50 0.0536629
453 66 0.0469208
453 185 0.0940416
453 237 0.0469159
453 356 0.23458
453 555 0.187664
453 630 0.242383
453 731 0.0469159
454 9 0.111111
454 154 0.111111
454 331 0.111111
454 378 0.111111
454 462 0.111111
454 463 0.111111
454 464 0.111111
454 465 0.111111
454 466 0.111111
455 66 0.126416
455 78 0.244302
455 220 0.252833
455 234 0.126416
455 328 0.250033
456 3 0.12388
456 20 0.21503
456 58 0.109405
456 208 0.110336
456 818 0.110337
456 1078 0.110337
456 1184 0.110337
456 1188 0.110337
457 18 0.0668729
457 59 0.373806
457 105 0.223977
457 109 0.279335
457 543 0.0560098
458 49 0.0589878
458 67 0.352839
458 68 0.294131
458 82 0.0588064
458 177 0.0588145
458 248 0.0588091
458 260 0.0588064
458 536 0.0588064
459 15 0.138756
459 39 0.141389
459 59 0.164836
459 151 0.138756
459 207 0.138756
459 248 0.13875
459 688 0.138756
460 32 0.449069
460 196 0.550931
461 10 0.100806
461 27 0.149926
461 31 0.149967
461 52 0.149961
461 60 0.149967
461 191 0.149406
461 328 0.149967
462 10 1
463 75 0.109861
463 109 0.109861
463 172 0.109861
463 243 0.121111
463 247 0.109861
463 659 0.109861
463 894 0.109861
463 1633 0.109861
463 1634 0.109861
464 107 0.111118
464 147 0.111118
464 172 0.111054
464 180 0.111118
464 299 0.111118
464 313 0.111118
464 471 0.111118
464 472 0.111118
464 473 0.111118
465 27 0.20035
465 138 0.26655
465 366 0.26655
465 383 0.26655
466 126 1
467 10 0.401417
467 19 0.200421
467 52 0.196928
467 173 0.100292
467 423 0.100943
468 19 6.48185e-06
468 27 0.199839
468 50 0.200015
468 366 0.200046
468 383 0.200047
468 845 0.200047
469 59 0.111048
469 176 0.111119
469 327 0.111119
469 328 0.111119
469 406 0.111119
469 407 0.111119
469 456 0.111119
469 474 0.111119
469 475 0.111119
470 370 0.111111
470 426 0.111111
470 427 0.111111
470 428 0.111111
470 476 0.111111
470 477 0.111111
470 478 0.111111
470 480 0.111111
470 482 0.111111
471 3 0.0890877
471 5 0.0913303
471 78 0.0913309
471 101 0.0913308
471 109 0.0891363
471 126 0.0913309
471 170 0.0912978
471 171 0.0911629
471 475 0.0913309
471 592 0.0913308
471 1516 0.0913309
472 16 0.111111
472 33 0.222222
472 78 0.111111
472 238 0.111111
472 574 0.111111
472 768 0.111111
472 769 0.111111
472 770 0.111111
473 412 0.503953
473 422 0.496047
474 23 0.0833957
474 81 0.0834091
474 162 0.0833957
474 171 0.0833957
474 176 0.083452
474 316 0.0833957
474 406 0.0833957
474 407 0.0833957
474 555 0.0824374
474 580 0.0833957
474 757 0.0835361
474 981 0.0833957
475 10 0.266418
475 75 0.4851
475 523 0.248482
476 63 0.45877
476 64 0.426535
476 380 0.114695
477 16 0.247706
477 30 0.247264
477 155 0.257766
477 196 0.247264
478 24 0.110267
478 107 0.111217
478 145 0.111217
478 160 0.111217
478 335 0.111217
478 511 0.111217
478 512 0.111217
478 513 0.111217
478 514 0.111217
479 41 1
480 41 0.151188
480 75 0.169774
480 127 0.169774
480 155 0.169721
480 275 0.169774
480 328 0.169768
481 16 0.302374
481 50 0.348812
481 486 0.348814
482 20 0.0201606
482 23 0.326613
482 487 0.326613
482 488 0.326613
483 27 0.26295
483 53 0.211022
483 489 0.263014
483 490 0.263014
484 59 0.326923
484 109 0.32601
484 155 0.347067
485 41 1
486 26 0.111116
486 27 0.111072
486 65 0.111116
486 350 0.111116
486 536 0.111116
486 572 0.111116
486 573 0.111116
486 574 0.111116
486 575 0.111116
487 50 0.500917
487 58 0.499083
488 14 0.111111
488 148 0.111111
488 201 0.111111
488 423 0.111111
488 516 0.111111
488 517 0.111111
488 540 0.111111
488 682 0.111111
488 778 0.111111
489 491 1
490 243 0.249688
490 333 0.250015
490 1496 0.250148
490 1513 0.250149
491 491 1
492 33 0.107366
492 50 0.109969
492 220 0.113316
492 281 0.113484
492 376 0.113484
492 491 0.101931
492 492 0.113484
492 493 0.113484
492 494 0.113484
493 39 1
494 52 0.165117
494 82 0.333955
494 141 0.16698
494 142 0.166966
494 176 2.31968e-06
494 382 0.166979
495 19 0.101767
495 33 0.377057
495 52 0.114108
495 273 0.101767
495 527 0.101767
495 528 0.101767
495 530 0.101767
496 42 0.25
496 227 0.25
496 346 0.25
496 954 0.25
497 35 0.111111
497 101 0.111111
497 156 0.111111
497 558 0.111111
497 585 0.111111
497 612 0.111111
497 681 0.111111
497 723 0.111111
497 853 0.111111
498 18 0.128266
498 27 0.124473
498 105 0.12448
498 109 0.248956
498 114 0.124869
498 292 0.248956
499 18 0.134977
499 50 0.295563
499 105 0.143891
499 109 0.290328
499 823 0.135241
500 33 0.112712
500 78 0.332733
500 207 0.110911
500 275 0.221822
500 397 0.110911
500 1084 0.110911
501 39 1
502 47 0.111113
502 48 0.111113
502 122 0.111113
502 260 0.111113
502 333 0.111093
502 334 0.111113
502 362 0.111113
502 494 0.111113
502 1003 0.111113
503 32 0.0207707
503 59 0.617609
503 681 0.36162
504 106 0.298799
504 190 0.100172
504 216 0.100171
504 244 0.100172
504 384 0.100172
504 385 0.100172
504 736 0.100172
504 828 0.100172
505 16 0.502123
505 64 0.497877
506 371 0.222222
506 379 0.111111
506 432 0.111111
506 462 0.222222
506 495 0.111111
506 496 0.222222
507 53 0.110073
507 240 0.11126
507 315 0.111164
507 317 0.11125
507 350 0.11125
507 423 0.11125
507 486 0.11125
507 521 0.11125
507 574 0.11125
508 412 1
509 19 0.111111
509 75 0.111111
509 96 0.111111
509 115 0.111111
509 238 0.111111
509 479 0.111111
509 526 0.111111
509 529 0.111111
509 530 0.111111
510 81 0.111318
510 164 0.111085
510 167 0.111085
510 220 0.111085
510 231 0.111085
510 279 0.111085
510 662 0.111085
510 1011 0.111085
510 1130 0.111085
511 148 0.200082
511 516 0.19998
511 851 0.19998
511 852 0.19998
511 853 0.199979
512 35 0.111111
512 109 0.111111
512 113 0.111111
512 138 0.111111
512 160 0.111111
512 434 0.111111
512 653 0.111111
512 1021 0.111111
512 1031 0.111111
513 143 0.111111
513 191 0.222222
513 239 0.111111
513 507 0.222222
513 724 0.111111
513 727 0.111111
513 728 0.111111
514 111 0.25
514 237 0.25
514 634 0.25
514 894 0.25
515 23 0.333333
515 223 0.333333
515 224 0.333333
516 18 0.102598
516 19 0.0489487
516 43 0.106056
516 49 0.159085
516 148 0.106057
516 201 0.0530283
516 356 0.106057
516 555 0.106056
516 630 0.106058
516 1179 0.0530283
516 1183 0.0530283
517 5 0.111256
517 50 0.111115
517 53 0.110876
517 107 0.111174
517 148 0.111116
517 156 0.111116
517 631 0.111116
517 690 0.111116
517 1460 0.111116
518 33 0.0907159
518 42 0.0908596
518 59 0.0915806
518 127 0.0908596
518 151 0.0908596
518 162 0.181699
518 213 0.0908512
518 216 0.0908549
518 543 0.0908596
518 1009 0.0908596
519 75 0.0625312
519 81 0.06249
519 96 0.124982
519 243 0.124975
519 333 0.187529
519 334 0.187493
519 397 0.0624993
519 574 0.0625003
519 631 0.0625004
519 1427 0.0624994
520 426 0.111111
520 427 0.111111
520 462 0.111111
520 497 0.111111
520 498 0.111111
520 499 0.111111
520 507 0.111111
520 508 0.111111
520 509 0.111111
521 31 0.0909026
521 35 0.0909026
521 122 0.0909026
521 160 0.0909026
521 180 0.0909026
521 231 0.181877
521 244 0.0909026
521 279 0.0909026
521 445 0.0909026
521 504 0.0909026
522 26 0.111111
522 52 0.111111
522 65 0.111111
522 107 0.222222
522 500 0.111111
522 501 0.111111
522 502 0.111111
522 505 0.111111
523 10 1
524 46 0.11112
524 47 0.11112
524 50 0.11104
524 61 0.11112
524 328 0.22224
524 627 0.11112
524 628 0.11112
524 629 0.11112
525 10 0.630213
525 190 0.369787
526 5 0.292177
526 190 0.1233
526 191 0.292261
526 510 0.292261
527 10 1
528 73 0.111111
528 185 0.111111
528 281 0.111111
528 299 0.111111
528 570 0.111111
528 664 0.111111
528 799 0.111111
528 829 0.111111
528 852 0.111111
529 19 0.11112
529 52 0.11113
529 63 0.110944
529 73 0.111134
529 75 0.111134
529 106 0.111134
529 244 0.111134
529 328 0.111134
529 596 0.111134
530 5 0.124956
530 42 0.125007
530 53 0.125
530 139 0.125007
530 148 0.125007
530 156 0.125007
530 1075 0.125007
530 1076 0.125007
531 18 0.0554643
531 30 0.0554643
531 67 0.110929
531 68 0.110929
531 105 0.110929
531 107 0.112571
531 127 0.0554643
531 151 0.0554643
531 160 0.110929
531 598 0.0554643
531 687 0.0554643
531 697 0.0554643
531 700 0.0554643
532 30 0.664429
532 120 0.335571
533 33 0.204758
533 151 0.265081
533 152 0.265081
533 515 0.265081
534 360 0.125
534 516 0.125
534 517 0.125
534 518 0.125
534 519 0.125
534 520 0.125
534 521 0.125
534 522 0.125
535 3 0.110492
535 19 0.109427
535 97 0.11144
535 98 0.11144
535 119 0.11144
535 412 0.11144
535 715 0.11144
535 716 0.11144
535 717 0.11144
536 33 0.111111
536 92 0.111111
536 165 0.111111
536 320 0.111111
536 503 0.111111
536 532 0.111111
536 533 0.111111
536 534 0.111111
536 535 0.111111
537 43 0.222224
537 50 0.222222
537 151 0.111111
537 502 0.111111
537 523 0.111111
537 524 0.111111
537 525 0.111111
538 8 8.6543e-05
538 16 0.311815
538 18 0.0773369
538 21 0.00104399
538 40 0.0625261
538 57 0.0783382
538 105 0.0783377
538 109 0.078338
538 114 0.0783382
538 177 0.0771628
538 315 0.0783382
538 519 0.0783382
539 16 0.212024
539 32 0.466593
539 191 0.214217
539 365 0.107166
540 7 0.0779078
540 61 0.0779079
540 67 0.233724
540 68 0.233723
540 213 0.143014
540 896 0.0779079
540 899 0.0779079
540 900 0.0779079
541 19 0.110971
541 20 0.110799
541 50 0.112386
541 161 0.110974
541 220 0.110974
541 343 0.110974
541 472 0.110974
541 570 0.110974
541 896 0.110974
542 221 0.111111
542 445 0.111111
542 476 0.111111
542 477 0.111111
542 478 0.111111
542 482 0.111111
542 502 0.111111
542 537 0.111111
542 538 0.111111
543 50 0.120283
543 299 0.0428983
543 328 0.358637
543 388 0.119545
543 416 0.119546
543 539 0.119545
543 910 0.119546
544 299 0.2
544 331 0.2
544 332 0.2
544 664 0.4
545 2 0.111111
545 81 0.111111
545 82 0.111111
545 311 0.111111
545 402 0.111111
545 403 0.111111
545 417 0.111111
545 585 0.111111
545 1001 0.111111
546 18 0.109186
546 19 0.110367
546 25 0.111492
546 296 0.111492
546 476 0.111492
546 543 0.111492
546 748 0.111492
546 749 0.111492
546 825 0.111492
547 215 0.333333
547 695 0.333333
547 1260 0.333333
548 18 0.204411
548 43 5.35015e-05
548 106 0.1003
548 198 0.0934351
548 296 0.1003
548 509 0.1003
548 543 0.1003
548 544 0.1003
548 545 0.1003
548 546 0.1003
549 21 0.0616044
549 155 0.463616
549 156 0.47478
550 19 0.199631
550 462 0.200092
550 472 0.200092
550 499 0.200092
550 541 0.200092
551 16 0.333222
551 32 0.333391
551 55 0.333387
552 18 0.194462
552 53 0.201306
552 105 0.201411
552 547 0.201411
552 548 0.201411
553 7 0.200029
553 265 0.200029
553 461 0.200029
553 479 0.199884
553 549 0.200029
554 620 1
555 33 0.220831
555 53 0.111291
555 101 0.111313
555 196 0.111313
555 210 0.111313
555 980 0.111313
555 1003 0.111313
555 1004 0.111313
556 53 0.341094
556 357 0.164726
556 551 0.164726
556 557 0.164726
556 1373 0.164726
557 42 1
558 32 1
559 3 0.243101
559 10 0.2523
559 191 0.252299
559 551 0.2523
560 50 0.099784
560 63 0.10244
560 64 0.100605
560 65 0.199192
560 114 0.0995959
560 144 0.0995959
560 168 0.0995959
560 237 0.199192
561 18 0.133292
561 19 0.115359
561 105 0.150275
561 177 0.150247
561 530 0.150275
561 550 0.150276
561 1052 0.150275
562 27 0.493623
562 42 0.506377
563 59 0.249953
563 184 0.250289
563 543 2.74265e-05
563 846 0.249466
563 933 0.250265
564 46 0.165844
564 47 0.165844
564 49 0.165864
564 63 0.165843
564 543 0.00491674
564 1273 0.165844
564 1274 0.165844
565 20 0.645448
565 66 0.141659
565 124 0.0709623
565 176 0.0709681
565 747 0.0709623
566 5 0.067977
566 43 0.0670461
566 170 0.0665126
566 171 0.0665126
566 172 0.066534
566 176 0.0665193
566 184 0.133088
566 240 0.0665126
566 544 0.0665126
566 631 0.0665221
566 846 0.066725
566 1335 0.0665126
566 1444 0.0665126
566 1445 0.0665126
567 550 1
568 10 0.0956624
568 23 0.0908059
568 33 3.73845e-06
568 61 0.0908059
568 122 0.0908059
568 160 0.090924
568 172 0.359379
568 206 0.0908059
568 678 0.0908071
569 3 0.185731
569 16 0.21078
569 19 0.201625
569 49 0.212427
569 550 0.189437
570 33 1
571 21 1
572 53 0.426027
572 58 0.147933
572 160 0.142013
572 218 0.142013
572 765 0.142013
573 58 0.170048
573 536 0.331981
573 547 0.16599
573 760 0.16599
573 761 0.16599
574 2 0.142634
574 3 0.000151604
574 27 0.144081
574 112 0.142634
574 154 0.285272
574 239 0.142595
574 366 0.142634
575 3 0.0951986
575 14 0.0906726
575 20 3.29106e-05
575 33 0.180427
575 122 0.176058
575 600 0.181345
575 877 0.0906724
575 878 0.0906726
575 976 0.0949201
576 58 0.249429
576 151 0.122091
576 155 0.201793
576 432 0.183136
576 905 0.183136
576 1184 0.0604155
577 105 0.200006
577 185 0.200008
577 240 0.100003
577 243 0.0999712
577 247 0.100003
577 337 0.100003
577 578 0.100003
577 1342 0.100003
578 6 0.00820103
578 19 0.0581796
578 27 0.116366
578 32 0.0599865
578 50 0.117238
578 199 0.0581845
578 213 0.0581845
578 220 0.0581845
578 231 0.0581845
578 274 0.0581845
578 295 0.0581845
578 331 0.0581845
578 382 0.0581845
578 472 0.0581845
578 521 0.0581845
578 1391 0.0581844
579 51 0.333333
579 973 0.333333
579 1573 0.333333
580 231 0.199994
580 413 0.199994
580 423 0.199994
580 563 0.200023
580 678 0.199994
581 17 0.0767917
581 50 0.153556
581 155 0.0785263
581 231 0.153585
581 268 0.0767914
581 294 0.153583
581 315 0.0767918
581 449 0.153584
581 983 0.0767918
582 10 0.168081
582 27 0.168081
582 145 0.168082
582 156 0.159592
582 682 0.168082
582 1110 0.168082
583 5 0.132681
583 20 0.104542
583 32 0.158901
583 33 0.0718801
583 66 0.133039
583 216 0.13288
583 384 0.133039
583 385 0.133039
584 19 0.142436
584 27 0.142895
584 30 0.142934
584 42 0.142934
584 106 0.142934
584 551 0.142934
584 553 0.142934
585 165 0.166672
585 166 0.166672
585 185 0.166672
585 194 0.166672
585 213 0.166641
585 552 0.166672
586 164 0.5
586 319 0.5
587 176 0.131639
587 609 0.263304
587 610 0.263304
587 826 0.131652
587 855 0.131652
587 969 0.0784495
588 2 0.111111
588 35 0.111111
588 243 0.11111
588 328 0.111111
588 594 0.111111
588 596 0.111111
588 678 0.111111
588 688 0.111111
588 703 0.111111
589 165 0.111116
589 169 0.111111
589 253 0.222222
589 305 0.111111
589 789 0.111107
589 882 0.111111
589 900 0.111111
589 1077 0.111111
590 10 0.11112
590 31 0.11111
590 120 0.11111
590 413 0.11111
590 414 0.11111
590 416 0.11111
590 554 0.11111
590 555 0.11111
590 556 0.11111
591 25 0.181818
591 39 0.0909092
591 43 0.0909092
591 49 0.181817
591 133 0.0909092
591 237 0.0909092
591 297 0.0909092
591 558 0.0909092
591 564 0.0909092
592 536 0.333333
592 576 0.333333
592 577 0.333333
593 18 0.112904
593 88 0.110818
593 105 0.221761
593 109 0.111002
593 569 0.110879
593 570 0.221757
593 571 0.110879
594 63 0.345741
594 64 0.374421
594 65 0.0699593
594 231 0.209879
595 32 0.213262
595 40 0.000244531
595 137 0.262165
595 168 0.262164
595 579 0.262164
596 24 3.03081e-06
596 43 0.166666
596 114 0.166666
596 170 0.166666
596 171 0.166666
596 889 0.166666
596 934 0.166666
597 24 0.222222
597 57 0.111111
597 106 0.111111
597 220 0.111111
597 240 0.111111
597 337 0.111111
597 534 0.111111
597 578 0.111111
598 16 0.15882
598 106 0.168236
598 111 0.168236
598 119 0.168236
598 205 0.168236
598 888 0.168236
599 63 0.506151
599 64 0.493848
600 17 0.055597
600 32 0.115904
600 50 0.0555056
600 59 0.0541027
600 63 0.0517228
600 64 8.03349e-05
600 163 0.055597
600 164 0.055597
600 172 0.0555202
600 215 0.0555971
600 273 0.0555971
600 328 0.0555971
600 412 0.0555971
600 420 0.055597
600 585 0.055597
600 742 0.055597
600 819 0.0555971
600 850 0.055597
601 15 0.255249
601 21 0.000424609
601 39 0.233828
601 580 0.255249
601 581 0.255249
602 50 1
603 50 1
604 39 1
605 33 0.139244
605 198 0.143454
605 201 0.14346
605 750 0.14346
605 988 0.14346
605 989 0.14346
605 990 0.14346
606 40 1
607 39 7.14497e-05
607 40 0.015124
607 50 0.313458
607 294 0.335771
607 463 0.335576
608 18 1
609 8 0.421789
609 40 0.578211
610 35 0.111117
610 78 0.111061
610 148 0.111117
610 194 0.111117
610 212 0.111117
610 1148 0.111117
610 1149 0.111117
610 1150 0.111117
610 1151 0.111117
611 50 0.222072
611 106 0.111133
611 114 0.111133
611 176 0.222265
611 570 0.111132
611 1291 0.111133
611 1380 0.111133
612 46 0.16667
612 47 0.16667
612 106 0.166652
612 191 0.166669
612 343 0.16667
612 832 0.16667
613 587 1
614 24 0.999839
614 562 0.000161068
615 24 1
616 544 0.25
616 583 0.25
616 584 0.25
616 585 0.25
617 19 0.16509
617 240 0.166983
617 337 0.166983
617 560 0.166977
617 561 0.166983
617 578 0.166983
618 156 0.200022
618 413 0.200022
618 562 0.19999
618 586 0.200021
618 587 0.199947
619 107 0.395291
619 191 0.407064
619 507 0.197645
620 19 0.111093
620 20 0.109929
620 42 0.111283
620 109 0.111283
620 160 0.111283
620 371 0.111283
620 462 0.111283
620 499 0.111283
620 596 0.111283
621 31 0.076959
621 42 0.0769537
621 43 0.0767869
621 59 0.07667
621 111 0.076959
621 146 0.0769589
621 148 0.0769589
621 180 0.076959
621 542 0.0769589
621 597 0.076959
621 598 0.076959
621 812 0.076959
621 813 0.0769589
622 59 0.182482
622 155 0.0509956
622 156 0.383207
622 172 0.191651
622 1350 0.191665
623 5 0.384958
623 20 0.108149
623 162 0.0966218
623 631 0.410272
624 24 0.120322
624 39 0.109782
624 170 0.109822
624 171 0.110002
624 172 0.110944
624 461 0.109782
624 1081 0.109782
624 1082 0.109782
624 1083 0.109782
625 8 0.501814
625 40 0.498186
626 27 0.333343
626 232 0.166706
626 233 0.166541
626 490 0.166706
626 599 0.166706
627 33 0.247376
627 53 0.125365
627 66 0.125455
627 72 0.12544
627 466 0.125455
627 600 0.125455
627 601 0.125455
628 16 0.0941786
628 30 0.300936
628 64 0.199811
628 160 0.100312
628 191 0.104139
628 969 0.100312
628 1212 0.100312
629 5 0.0913101
629 24 3.85927e-06
629 27 0.272143
629 29 0.0921496
629 82 0.0907323
629 185 0.181465
629 606 0.0907323
629 631 0.0907323
629 852 0.0907323
630 75 0.25
630 191 0.25
630 525 0.25
630 602 0.25
631 216 0.111107
631 220 0.111112
631 523 0.111112
631 524 0.111112
631 551 0.111112
631 557 0.111112
631 603 0.111112
631 604 0.111112
631 605 0.111112
632 19 0.16533
632 58 0.166959
632 177 0.166971
632 198 0.166747
632 227 0.166996
632 1541 0.166996
633 607 1
634 607 1
635 169 0.166667
635 383 0.166667
635 604 0.166667
635 613 0.166667
635 614 0.166667
635 615 0.166667
636 27 0.115261
636 40 0.0853038
636 64 0.107789
636 212 0.115276
636 213 0.115268
636 373 0.115276
636 377 0.115276
636 490 0.115276
636 608 0.115276
637 16 0.0828348
637 39 0.083363
637 42 0.0833617
637 49 0.083363
637 174 0.083537
637 268 0.0833629
637 279 0.083363
637 315 0.0833629
637 404 0.083363
637 410 0.083363
637 1220 0.083363
637 1502 0.083363
638 43 0.0912791
638 58 0.0881285
638 75 0.182559
638 120 0.0903569
638 300 0.0912795
638 315 0.0912794
638 416 0.0912792
638 556 0.0912795
638 679 0.0912795
638 680 0.0912795
639 363 1
640 363 1
641 3 0.0871667
641 18 0.0116216
641 21 2.70134e-05
641 43 0.0846752
641 58 0.0939419
641 155 0.166682
641 156 0.0857022
641 162 0.128553
641 306 0.0428337
641 320 0.042851
641 334 0.0427116
641 445 0.0418045
641 491 0.0428511
641 626 0.042851
641 820 0.042851
641 1285 0.0428511
641 1344 2.51705e-05
642 75 0.111143
642 76 0.110825
642 97 0.111143
642 170 0.111143
642 171 0.111143
642 172 0.11116
642 209 0.111143
642 319 0.111143
642 675 1.42863e-05
642 900 0.111143
643 18 0.232779
643 35 0.17051
643 105 0.255687
643 144 0.0852594
643 491 0.0852549
643 612 0.17051
644 10 0.111113
644 276 0.111111
644 290 0.111111
644 584 0.111111
644 585 0.111111
644 603 0.111111
644 609 0.111111
644 610 0.111111
644 611 0.111111
645 42 0.111111
645 117 0.111111
645 299 0.111111
645 300 0.111111
645 317 0.111111
645 335 0.111111
645 472 0.111111
645 851 0.111111
645 1136 0.111111
646 29 0.111092
646 58 0.111268
646 79 0.111092
646 1014 0.111092
646 1170 0.111092
646 1267 0.111092
646 1318 0.111092
646 1320 0.111092
646 1322 0.111092
647 5 0.166826
647 61 0.166826
647 66 0.166752
647 127 0.166826
647 201 0.165945
647 619 0.166826
648 50 0.111111
648 99 0.222222
648 297 0.111111
648 574 0.111111
648 631 0.111111
648 725 0.111111
648 743 0.111111
648 744 0.111111
649 66 0.500078
649 67 0.499922
650 50 0.161018
650 75 0.335593
650 96 0.167796
650 315 0.167796
650 1596 0.167796
651 18 0.0872867
651 32 0.112741
651 59 0.113793
651 105 0.114436
651 170 0.114407
651 171 0.114157
651 172 0.34318
652 67 0.125
652 68 0.125
652 111 0.25
652 678 0.125
652 813 0.25
652 1220 0.125
653 15 0.1
653 51 0.1
653 66 0.2
653 139 0.1
653 296 0.1
653 547 0.1
653 572 0.1
653 760 0.1
653 761 0.1
654 75 0.202478
654 173 0.202402
654 191 0.190359
654 243 0.202344
654 1096 0.202417
655 24 0.107123
655 29 0.113318
655 39 0.114665
655 52 0.113836
655 413 0.111091
655 420 0.115079
655 502 0.115078
655 563 0.0947312
655 620 0.115079
656 413 1
657 137 0.125006
657 138 0.125005
657 480 0.124961
657 481 0.125006
657 523 0.125006
657 524 0.125006
657 570 0.125006
657 1375 0.125006
658 39 1
659 156 0.111111
659 184 0.111111
659 305 0.111111
659 306 0.111111
659 455 0.111111
659 664 0.111111
659 701 0.111111
659 765 0.111111
659 1511 0.111111
660 63 0.0833334
660 273 0.0833334
660 275 0.0833334
660 356 0.166667
660 445 0.0833331
660 449 0.0833334
660 630 0.166667
660 660 0.0833334
660 661 0.0833334
660 662 0.0833326
661 563 1
662 39 1
663 10 0.111111
663 292 0.111111
663 313 0.111111
663 386 0.111111
663 387 0.111111
663 621 0.111111
663 622 0.111111
663 623 0.111111
663 624 0.11111
664 18 0.0990611
664 32 9.50756e-05
664 43 0.099681
664 49 0.102761
664 72 0.0996808
664 168 0.100316
664 248 0.0996811
664 315 0.0996811
664 385 0.0996811
664 544 0.0996811
664 962 0.0996811
665 46 0.2
665 47 0.2
665 67 0.1
665 68 0.1
665 283 0.1
665 285 0.1
665 420 0.1
665 445 0.1
666 5 0.11111
666 91 0.111111
666 92 0.111111
666 168 0.111111
666 388 0.111111
666 462 0.111111
666 542 0.111111
666 545 0.111111
666 626 0.111111
667 628 1
668 63 0.0500054
668 64 0.0997764
668 67 0.150039
668 68 0.0500125
668 168 0.100026
668 185 0.0500127
668 215 0.100026
668 216 0.100024
668 299 0.050013
668 335 0.050013
668 356 0.050013
668 410 0.050013
668 630 0.050013
668 1170 0.050013
669 628 1
670 574 0.333333
670 631 0.333333
670 1288 0.333333
671 46 0.125995
671 47 0.12604
671 328 0.126324
671 356 0.126324
671 412 0.126324
671 445 0.116749
671 628 0.125918
671 630 0.126324
672 18 0.110256
672 20 0.115759
672 27 0.110304
672 105 0.110372
672 148 0.110372
672 164 0.110372
672 213 0.111822
672 702 0.110372
672 742 0.110372
673 5 0.14378
673 20 0.131074
673 35 0.141189
673 40 0.00810272
673 212 0.144026
673 543 0.144026
673 631 0.143987
673 1414 0.143815
674 46 0.166978
674 47 0.166918
674 53 0.166472
674 73 0.166544
674 139 0.166544
674 1400 0.166544
675 18 1.32867e-06
675 19 0.120617
675 49 0.105057
675 165 0.129063
675 220 0.129011
675 253 0.129063
675 383 0.129063
675 384 0.129063
675 789 0.129063
676 148 0.111172
676 299 0.111104
676 420 0.111104
676 516 0.111104
676 517 0.111104
676 518 0.111104
676 1578 0.111104
676 1579 0.111104
676 1580 0.111104
677 111 0.333333
677 634 0.333333
677 635 0.333333
678 59 0.145577
678 106 0.151091
678 109 0.0986514
678 574 0.151157
678 631 0.151174
678 632 0.151174
678 633 0.151174
679 109 0.999663
679 574 0.000336505
680 5 0.125604
680 39 0.129327
680 66 0.125506
680 172 0.243046
680 349 0.125506
680 632 0.125506
680 638 0.125506
681 8 0.00115554
681 27 0.0999622
681 40 0.194204
681 59 0.105732
681 106 0.0999622
681 198 0.099138
681 570 0.0999622
681 975 0.0999622
681 1109 0.0999622
681 1198 0.0999594
682 300 0.200001
682 382 0.399998
682 1488 0.200001
682 1489 0.200001
683 27 0.111111
683 72 0.111111
683 75 0.111111
683 82 0.111111
683 248 0.111111
683 639 0.111111
683 640 0.111111
683 641 0.222222
684 19 0.141898
684 21 3.4883e-06
684 155 0.285985
684 544 0.143029
684 600 0.143029
684 1265 0.143029
684 1266 0.143029
685 631 1
686 34 0.11112
686 59 0.222158
686 160 0.11112
686 384 0.111124
686 445 0.11112
686 537 0.11112
686 574 0.11112
686 643 0.11112
687 14 0.0778241
687 18 0.152543
687 29 0.0739647
687 105 0.078219
687 191 0.081103
687 310 0.0778241
687 416 0.0778241
687 507 0.0778241
687 648 0.0694016
687 649 0.0778241
687 650 0.0778241
687 651 0.0778237
688 5 0.149163
688 10 0.149445
688 34 0.147795
688 64 0.10391
688 360 0.149895
688 644 0.149896
688 645 0.149896
689 34 0.112066
689 42 0.110979
689 43 0.11098
689 154 0.110979
689 168 0.110979
689 209 0.110979
689 294 0.11108
689 463 0.110979
689 1255 0.110979
690 646 0.999832
690 647 0.000167565
691 3 0.106488
691 53 0.109827
691 64 0.223989
691 243 0.228567
691 622 0.114291
691 646 0.102548
691 647 0.11429
692 201 0.333333
692 622 0.333333
692 642 0.333333
693 164 0.090909
693 275 0.0909092
693 279 0.090909
693 310 0.0909091
693 383 0.0909091
693 502 0.0909091
693 503 0.0909091
693 681 0.0909089
693 1011 0.0909091
693 1303 0.0909091
693 1317 0.0909092
694 58 0.586231
694 243 0.413769
695 53 0.111114
695 156 0.111115
695 172 0.111078
695 174 0.111115
695 527 0.111115
695 584 0.111115
695 606 0.111115
695 669 0.111115
695 1167 0.111115
696 5 0.249705
696 33 0.0836788
696 34 0.329188
696 185 0.164226
696 243 0.090905
696 1395 0.0822971
697 5 0.249705
697 66 0.250869
697 296 0.249721
697 487 0.249705
698 64 0.000224999
698 109 0.321141
698 128 0.226211
698 1256 0.226211
698 1419 0.226211
699 111 0.111111
699 180 0.111111
699 315 0.111111
699 459 0.111111
699 569 0.111111
699 688 0.111111
699 1025 0.111111
699 1035 0.111111
699 1036 0.111111
700 51 0.166961
700 52 0.16677
700 78 0.165655
700 296 0.166692
700 412 0.166961
700 652 0.166961
701 60 0.200037
701 169 0.200014
701 172 0.199921
701 823 0.200014
701 1214 0.200014
702 5 0.0523219
702 34 0.0525778
702 39 0.0538396
702 92 0.105159
702 111 0.0525793
702 138 0.0525791
702 185 0.105159
702 243 0.0525715
702 342 0.0525793
702 408 0.105158
702 456 0.0525793
702 630 0.157738
702 859 0.0525793
702 860 0.0525793
703 156 0.249933
703 172 0.375179
703 308 0.124963
703 1154 0.124963
703 1155 0.124961
704 33 1
705 35 0.124999
705 55 0.125
705 114 0.125
705 296 0.125
705 310 0.125
705 382 0.124999
705 653 0.125
705 657 0.125
706 18 0.32788
706 93 0.11202
706 105 0.11202
706 213 0.112019
706 294 0.11202
706 406 0.11202
706 449 0.11202
707 16 2.68402e-05
707 32 0.000109096
707 40 0.0114653
707 161 0.0823825
707 209 0.0823827
707 227 0.0823827
707 231 0.0821889
707 416 0.0823827
707 426 0.0823828
707 461 0.0823828
707 543 0.0823828
707 650 0.0823828
707 654 0.0823828
707 655 0.0823826
707 708 0.0823828
708 19 0.158208
708 20 0.12455
708 185 0.191256
708 456 0.191268
708 471 0.191268
708 1003 0.143451
709 52 0.100259
709 57 0.100255
709 59 0.19796
709 106 0.100255
709 177 0.200504
709 388 0.100255
709 658 0.100255
709 659 0.100255
710 20 0.26012
710 502 0.260295
710 666 0.260406
710 667 0.21918
711 64 0.214164
711 82 0.112241
711 317 0.112266
711 947 0.112266
711 1122 0.112266
711 1136 0.112266
711 1256 0.112266
711 1302 0.112266
712 667 1
713 502 1
714 21 0.499716
714 32 0.500284
715 19 0.184172
715 149 0.204006
715 213 0.203809
715 398 0.204006
715 668 0.204006
716 3 0.331254
716 59 0.333736
716 173 0.167513
716 177 0.167497
717 43 0.111111
717 81 0.111111
717 197 0.111111
717 313 0.111111
717 504 0.111111
717 757 0.111111
717 826 0.111111
717 992 0.111111
717 1577 0.111111
718 10 0.191294
718 109 0.044743
718 243 0.190081
718 462 0.191294
718 669 0.191295
718 670 0.191295
719 43 0.119954
719 58 0.00517225
719 72 0.124981
719 230 0.124982
719 285 0.124982
719 568 0.124982
719 1066 0.124982
719 1131 0.124982
719 1132 0.124982
720 19 0.127195
720 25 0.109101
720 27 0.0545503
720 296 0.109101
720 299 0.0545503
720 462 0.0545503
720 471 0.0545503
720 530 0.054551
720 543 0.109101
720 544 0.0545503
720 629 0.0545503
720 636 0.0545503
720 699 0.0545503
720 701 0.0545503
721 19 0.163813
721 27 0.167221
721 237 0.167085
721 366 0.167295
721 530 0.167292
721 604 0.167295
722 237 1
723 50 0.111009
723 52 0.222217
723 155 0.111045
723 203 0.111146
723 403 0.111146
723 570 0.222291
723 1480 0.111146
724 10 0.25
724 46 0.25
724 47 0.25
724 168 0.25
725 24 0.0697378
725 198 0.232565
725 221 0.232566
725 306 0.232565
725 432 0.232566
726 19 0.124778
726 50 0.124982
726 243 0.125064
726 306 0.125035
726 432 0.125035
726 596 0.125035
726 1486 0.125035
726 1487 0.125035
727 5 0.111141
727 53 0.111088
727 59 0.11088
727 66 0.111152
727 88 0.111152
727 328 0.111152
727 412 0.111152
727 632 0.111131
727 633 0.111152
728 547 0.333333
728 548 0.333333
728 674 0.333333
729 176 0.111111
729 384 0.111111
729 523 0.111111
729 524 0.111111
729 547 0.111109
729 675 0.111111
729 676 0.111111
729 677 0.111111
729 678 0.111111
730 27 0.166667
730 122 0.333333
730 154 0.166667
730 681 0.166667
730 682 0.166667
731 3 0.200898
731 20 0.109709
731 413 0.114899
731 414 0.114899
731 462 0.114899
731 463 0.114899
731 583 0.114899
731 1275 0.114899
732 111 0.166667
732 423 0.166667
732 426 0.166667
732 427 0.166667
732 506 0.166667
732 634 0.166667
733 237 7.56086e-05
733 607 0.999924
734 20 0.124278
734 35 0.250206
734 328 0.125103
734 405 0.125103
734 843 0.250206
734 1049 0.125103
735 50 0.202603
735 59 0.20171
735 155 0.190474
735 203 0.202606
735 651 0.202606
736 126 1
737 40 0.0819435
737 59 0.457543
737 117 0.460513
738 144 0.111111
738 160 0.111111
738 169 0.111111
738 268 0.111111
738 554 0.111111
738 877 0.111111
738 924 0.111111
738 967 0.111111
738 969 0.111111
739 79 0.166667
739 111 0.166667
739 137 0.166667
739 276 0.166667
739 682 0.166667
739 683 0.166667
740 5 0.111111
740 50 0.111111
740 52 0.111111
740 58 0.111111
740 79 0.111111
740 107 0.111111
740 172 0.111111
740 299 0.111111
740 471 0.111111
741 52 0.230919
741 59 0.10716
741 105 0.110317
741 155 0.11033
741 156 0.110317
741 177 0.110322
741 456 0.220634
742 5 0.11111
742 7 0.111156
742 19 0.110807
742 52 0.111153
742 77 0.111158
742 100 0.111158
742 177 0.111141
742 685 0.111158
742 686 0.111158
743 3 0.125778
743 40 0.156507
743 78 0.14982
743 127 0.149821
743 155 0.118436
743 480 0.149817
743 693 0.149821
744 691 1
745 5 0.203954
745 29 0.203955
745 631 0.203977
745 691 0.184136
745 692 0.203977
746 24 1
747 29 0.199799
747 32 0.200698
747 145 0.199834
747 164 0.199834
747 827 0.199834
748 648 1
749 21 0.0788542
749 106 0.230286
749 120 0.153524
749 185 0.0767622
749 526 0.0767622
749 535 0.0767621
749 549 0.0767621
749 1060 0.0767621
749 1554 0.153524
750 16 0.0417464
750 19 0.0523278
750 24 0.1303
750 58 0.17321
750 100 0.129045
750 155 0.086237
750 160 0.17206
750 164 0.0430149
750 248 0.0430149
750 530 0.0430149
750 748 0.0430149
750 749 0.0430149
751 24 1
752 15 0.111307
752 18 0.222358
752 53 0.111075
752 105 0.221331
752 687 0.222623
752 690 0.111307
753 18 0.331503
753 544 0.334259
753 648 0.334238
754 18 2.68626e-05
754 25 0.142638
754 105 0.00163423
754 243 0.142524
754 299 0.142638
754 471 0.142638
754 687 0.142625
754 688 0.142637
754 689 0.142638
755 21 2.94065e-05
755 168 0.499985
755 455 0.499985
756 6 0.0999106
756 27 0.0998889
756 185 0.199821
756 199 0.0999106
756 328 0.0999106
756 462 0.100826
756 542 0.0999106
756 822 0.0999106
756 823 0.0999106
757 10 0.111111
757 59 0.11111
757 61 0.111111
757 62 0.111111
757 88 0.111111
757 101 0.111111
757 321 0.111111
757 694 0.111111
757 695 0.111111
758 18 0.173711
758 32 0.129746
758 105 0.174153
758 173 0.0870767
758 177 0.0870058
758 371 0.0870767
758 408 0.0870767
758 687 0.174153
759 41 0.0909092
759 120 0.0909083
759 138 0.0909092
759 209 0.0909092
759 378 0.0909092
759 536 0.181818
759 576 0.181818
759 577 0.181818
760 53 0.224883
760 156 0.515333
760 502 0.259784
761 124 0.111111
761 148 0.222222
761 274 0.111111
761 319 0.111111
761 331 0.111111
761 498 0.111111
761 521 0.111111
761 698 0.111111
762 20 0.105041
762 74 0.112099
762 122 0.112099
762 231 0.112099
762 491 0.110266
762 578 0.112099
762 681 0.112099
762 996 0.112099
762 1257 0.112099
763 21 0.00285588
763 32 0.997144
764 527 0.333333
764 635 0.333333
764 829 0.333333
765 15 0.25
765 31 0.25
765 74 0.25
765 154 0.25
766 15 0.0833333
766 21 0.0833333
766 24 0.0833333
766 29 0.0833333
766 31 0.0833333
766 32 0.0833333
766 74 0.0833333
766 154 0.0833333
766 209 0.0833333
766 383 0.0833333
766 705 0.0833333
766 706 0.0833333
767 28 0.0716035
767 35 0.143278
767 53 1.02143e-05
767 64 0.140638
767 109 0.0716128
767 310 0.0716035
767 462 0.143207
767 463 0.143207
767 572 0.143236
767 1618 0.0716035
768 29 0.166667
768 209 0.166667
768 383 0.333333
768 705 0.166667
768 706 0.166667
769 27 0.100207
769 63 0.200377
769 64 0.299622
769 122 0.100018
769 462 0.0993127
769 463 0.100232
769 1361 0.100232
770 58 0.111108
770 117 0.111112
770 220 0.111112
770 299 0.111112
770 378 0.111112
770 471 0.111112
770 697 0.111112
770 749 0.111112
770 754 0.111112
771 2 0.110998
771 16 0.221982
771 25 0.11117
771 124 0.11117
771 258 0.11117
771 296 0.11117
771 543 0.11117
771 707 0.11117
772 3 0.151474
772 39 0.152741
772 59 0.152154
772 144 0.152741
772 173 0.152741
772 709 0.152741
772 710 0.0854077
773 710 1
774 31 0.111111
774 81 0.111111
774 162 0.111111
774 243 0.111111
774 328 0.111111
774 333 0.111111
774 334 0.111111
774 711 0.111111
774 712 0.111111
775 35 0.111111
775 36 0.111111
775 152 0.111111
775 274 0.111111
775 275 0.111111
775 412 0.111111
775 517 0.111111
775 713 0.111111
775 714 0.111111
776 5 0.111138
776 6 0.111138
776 7 0.111127
776 58 0.333363
776 64 0.110956
776 92 0.111138
776 139 0.111138
777 8 0.147717
777 61 0.0852283
777 99 0.0852283
777 100 0.0852283
777 109 0.0852283
777 527 0.0852283
777 568 0.0852283
777 702 0.0852283
777 725 0.0852283
777 726 0.0852283
777 818 0.0852283
778 19 0.0844131
778 124 0.228897
778 160 0.114448
778 498 0.228897
778 698 0.114448
778 718 0.114448
778 729 0.114448
779 164 0.142857
779 498 0.142857
779 719 0.142857
779 720 0.142857
779 721 0.142857
779 722 0.142857
779 723 0.142857
780 68 1
781 59 1
782 26 0.25
782 65 0.25
782 731 0.25
782 732 0.25
783 76 0.125
783 78 0.125
783 327 0.125
783 356 0.125
783 555 0.125
783 630 0.125
783 696 0.25
784 185 0.333333
784 313 0.333333
784 1114 0.333333
785 32 1
786 156 0.412382
786 185 0.587618
787 164 0.111115
787 172 0.111083
787 185 0.111115
787 205 0.111115
787 206 0.111115
787 294 0.111115
787 382 0.111115
787 735 0.111111
787 736 0.111115
788 94 7.69821e-06
788 216 0.44694
788 274 0.298001
788 521 0.149003
788 1145 0.106047
789 50 0.11046
789 89 0.111193
789 90 0.111192
789 99 0.111193
789 100 0.111193
789 148 0.111192
789 300 0.111193
789 371 0.111193
789 740 0.111193
790 3 0.115272
790 58 0.328823
790 66 0.111181
790 257 0.111181
790 505 0.111181
790 569 0.111181
790 704 0.111181
791 59 0.199976
791 109 0.200016
791 168 0.200003
791 996 0.200003
791 1244 0.200003
792 3 0.110933
792 105 0.111422
792 109 0.108852
792 114 0.111465
792 154 0.111465
792 162 0.111465
792 317 0.111465
792 855 0.111465
792 1584 0.111465
793 16 0.163059
793 25 0.163086
793 133 0.163086
793 134 0.163086
793 155 0.0215123
793 297 0.163086
793 739 0.163086
794 2 0.0624949
794 55 0.0624949
794 94 0.0624949
794 170 0.24998
794 171 0.312556
794 360 0.0624949
794 370 0.0624948
794 386 0.0624949
794 1330 0.0624949
795 152 0.5
795 511 0.5
796 16 0.161878
796 33 0.164139
796 64 0.179224
796 498 0.16492
796 600 0.16492
796 718 0.16492
797 119 0.333333
797 120 0.333333
797 121 0.333333
798 18 0.287397
798 29 0.142521
798 105 0.285041
798 109 0.142521
798 196 0.142521
799 20 0.221517
799 30 0.111212
799 196 0.111212
799 243 0.111208
799 371 0.111212
799 472 0.111212
799 656 0.111212
799 686 0.111212
800 191 0.5
800 371 0.5
801 155 0.350424
801 156 0.250468
801 185 0.266111
801 260 0.132996
802 7 0.101512
802 64 0.303402
802 148 0.0997668
802 155 0.0922258
802 156 0.103767
802 461 0.099792
802 479 0.0997669
802 1336 0.0997669
803 74 0.250001
803 154 0.250001
803 751 0.25
803 758 0.249999
804 18 0.0675103
804 43 0.0729107
804 58 0.0659842
804 63 0.138629
804 105 0.072912
804 109 0.072912
804 164 0.144582
804 385 0.072912
804 456 0.0729119
804 742 0.145824
804 1418 0.072912
805 4 0.0907536
805 35 0.183375
805 214 0.0905956
805 356 0.0907536
805 445 0.272261
805 630 0.0907536
805 863 0.181507
806 51 0.111141
806 52 0.111109
806 81 0.111123
806 412 0.111111
806 432 0.111141
806 653 0.111141
806 755 0.111141
806 756 0.111141
806 757 0.110954
807 50 0.199819
807 52 0.000712617
807 53 4.89755e-05
807 106 0.199855
807 117 0.199855
807 203 0.199855
807 244 0.199855
808 24 0.347961
808 32 0.306355
808 604 0.345684
809 24 0.0149122
809 604 0.985088
810 17 0.165775
810 213 0.17116
810 313 0.331517
810 860 0.165775
810 1334 0.165775
811 196 0.207716
811 360 0.207716
811 543 0.169137
811 606 0.207716
811 1501 0.207716
812 26 0.166667
812 65 0.166667
812 97 0.166667
812 172 0.166666
812 687 0.166667
812 759 0.166667
813 691 0.2
813 692 0.2
813 762 0.2
813 763 0.2
813 764 0.2
814 74 0.111111
814 276 0.111111
814 282 0.222222
814 374 0.111111
814 766 0.111111
814 767 0.111111
814 771 0.111111
814 772 0.111111
815 5 0.250178
815 53 0.249279
815 156 0.125155
815 162 0.125129
815 279 0.125129
815 618 0.125129
816 231 0.083371
816 243 0.16629
816 294 0.083371
816 299 0.083371
816 300 0.083371
816 333 0.166742
816 334 0.166742
816 573 0.083371
816 773 0.083371
817 5 0.124288
817 53 0.372671
817 191 0.126794
817 243 0.125342
817 775 0.125452
817 953 0.125452
818 191 0.666667
818 1398 0.333333
819 2 0.111111
819 176 0.111111
819 299 0.111111
819 331 0.111111
819 332 0.111111
819 462 0.111111
819 507 0.111111
819 716 0.111111
819 774 0.111111
820 146 0.25
820 518 0.25
820 779 0.25
820 780 0.25
821 231 0.333333
821 785 0.333333
821 786 0.333333
822 148 0.142857
822 164 0.142857
822 169 0.142857
822 223 0.142857
822 328 0.142857
822 783 0.142857
822 784 0.142857
823 32 0.101284
823 40 1.15022e-06
823 58 1.42137e-06
823 59 0.3036
823 155 0.0895976
823 156 0.101228
823 502 0.100425
823 655 0.101287
823 781 0.101287
823 782 0.101287
824 64 0.11675
824 215 0.12619
824 216 0.126109
824 293 0.12619
824 498 0.12619
824 619 0.12619
824 790 0.12619
824 791 0.12619
825 67 0.500015
825 162 0.499985
826 170 0.411409
826 171 0.411409
826 172 0.177182
827 165 0.2
827 166 0.2
827 445 0.2
827 788 0.2
827 789 0.2
828 72 0.111098
828 114 0.111113
828 122 0.111113
828 182 0.111113
828 184 0.111113
828 219 0.111113
828 570 0.111113
828 789 0.111113
828 1144 0.111113
829 263 0.333333
829 264 0.333333
829 787 0.333333
830 5 0.111097
830 34 0.111111
830 53 0.111127
830 81 0.111111
830 160 0.111111
830 197 0.111111
830 594 0.111111
830 749 0.111111
830 757 0.111111
831 35 0.166667
831 148 0.166667
831 279 0.166667
831 445 0.166667
831 692 0.166666
831 792 0.166667
832 32 0.186744
832 59 0.154594
832 138 0.0940946
832 191 0.0940945
832 310 0.0940946
832 480 0.0940946
832 481 0.0940946
832 507 0.0940946
832 795 0.0940946
833 59 0.166681
833 138 0.166681
833 172 0.166594
833 569 0.166681
833 664 0.166681
833 799 0.166681
834 3 1.09971e-05
834 18 0.159874
834 19 0.160126
834 43 0.153201
834 49 0.158471
834 58 0.0634232
834 78 0.0750918
834 120 0.0766005
834 416 0.0766005
834 1010 0.0766005
835 61 0.166606
835 62 0.166679
835 82 0.166679
835 106 0.166679
835 802 0.166679
835 803 0.166679
836 33 1
837 5 0.111095
837 57 0.111243
837 234 0.111095
837 237 0.111095
837 408 0.111095
837 413 0.222189
837 414 0.111095
837 563 0.111095
838 46 0.109323
838 47 0.109323
838 48 0.109323
838 51 0.109248
838 64 0.12552
838 215 0.109323
838 216 0.109299
838 237 0.109318
838 409 0.109323
839 105 0.5
839 114 0.5
840 81 0.166669
840 204 0.166669
840 243 0.166653
840 656 0.166669
840 800 0.166669
840 801 0.166669
841 52 0.324731
841 804 0.337635
841 805 0.337635
842 50 0.14305
842 105 0.14185
842 177 0.143067
842 213 0.142817
842 257 0.143072
842 569 0.143072
842 806 0.143072
843 54 0.104247
843 158 0.104247
843 172 0.165024
843 190 0.104247
843 231 0.208494
843 275 0.105003
843 1218 0.104247
843 1219 0.104247
843 1467 0.000245158
844 5 0.118638
844 19 0.113563
844 52 0.233761
844 66 0.0593373
844 88 0.0593376
844 174 0.0593376
844 272 0.0593376
844 293 0.0593376
844 296 0.0593376
844 423 0.0593376
844 1206 0.0593376
844 1309 0.0593376
845 75 0.142857
845 101 0.142857
845 231 0.142857
845 444 0.142857
845 1064 0.142857
845 1065 0.142857
845 1068 0.142857
846 648 1
847 18 0.0742456
847 52 0.115058
847 64 0.230467
847 171 0.116046
847 370 0.116046
847 748 0.116046
847 749 0.116046
847 807 0.116046
848 8 0.396959
848 60 0.201014
848 703 0.402027
849 127 0.0907087
849 155 0.183622
849 176 0.0907087
849 328 0.0907087
849 560 0.0907087
849 679 0.0907087
849 688 0.0907087
849 945 0.0907087
849 985 0.0907087
849 986 0.0907087
850 16 0.242585
850 155 0.0191093
850 328 0.2461
850 804 0.246103
850 805 0.246103
851 63 0.327989
851 64 0.339382
851 544 0.332629
852 155 1
853 3 0.656505
853 560 0.343495
854 18 0.164752
854 50 0.166265
854 105 0.167324
854 144 0.166937
854 171 0.167361
854 981 0.167361
855 63 0.333324
855 182 0.333338
855 219 0.333338
856 5 0.0191141
856 18 0.236112
856 19 0.234762
856 43 0.169064
856 49 0.168921
856 66 0.00295182
856 97 0.0845432
856 350 0.0845317
857 34 0.111087
857 35 0.111114
857 36 0.111114
857 250 0.111114
857 294 0.111114
857 320 0.111114
857 365 0.111114
857 808 0.111114
857 809 0.111114
858 5 0.27498
858 34 0.157297
858 155 0.253223
858 156 0.314501
859 58 0.575771
859 172 0.424229
860 20 0.115439
860 75 0.110574
860 109 0.11058
860 216 0.110535
860 384 0.110574
860 398 0.110574
860 487 0.110574
860 810 0.110574
860 811 0.110574
861 75 0.100004
861 109 0.100004
861 172 0.0999642
861 217 0.100004
861 240 0.100004
861 343 0.100004
861 483 0.100004
861 543 0.100004
861 814 0.100004
861 815 0.100004
862 43 0.333345
862 336 0.333309
862 400 0.333345
863 7 0.163784
863 65 0.167243
863 164 0.167243
863 816 0.167243
863 817 0.167243
863 818 0.167243
864 24 0.0180813
864 26 0.326577
864 66 0.326874
864 562 0.328468
865 75 1
866 24 0.028218
866 64 0.15792
866 75 0.162202
866 349 0.162915
866 807 0.162915
866 820 0.162915
866 821 0.162915
867 491 1
868 207 0.111111
868 356 0.111111
868 432 0.111111
868 555 0.111111
868 630 0.111111
868 688 0.111111
868 804 0.111111
868 903 0.111111
868 1017 0.111111
869 15 0.111111
869 31 0.111111
869 81 0.111111
869 97 0.111111
869 98 0.111111
869 319 0.111111
869 432 0.111111
869 649 0.111111
869 1062 0.111111
870 155 0.499991
870 830 0.250004
870 969 0.250004
871 107 0.111111
871 299 0.111111
871 471 0.111111
871 516 0.111111
871 517 0.111111
871 518 0.111111
871 606 0.111111
871 911 0.111111
871 954 0.111111
872 683 0.5
872 1327 0.5
873 52 0.234321
873 64 0.217663
873 127 0.109602
873 328 0.219207
873 334 0.109603
873 831 0.109603
874 32 1
875 26 0.333333
875 65 0.333333
875 66 0.333333
876 32 0.332371
876 59 0.335434
876 833 0.332194
877 64 0.14288
877 121 0.142853
877 164 0.142853
877 742 0.142853
877 807 0.142853
877 834 0.142853
877 835 0.142853
878 52 1
879 59 1
880 272 0.125
880 509 0.125
880 759 0.125
880 838 0.125
880 839 0.125
880 840 0.125
880 841 0.125
880 842 0.125
881 59 0.124249
881 127 0.145959
881 169 0.145959
881 349 0.145959
881 423 0.145959
881 491 0.145958
881 682 0.145959
882 6 0.0909093
882 94 0.0909092
882 184 0.0909092
882 199 0.0909093
882 273 0.0909092
882 275 0.0909092
882 388 0.0909085
882 630 0.0909093
882 664 0.0909084
882 836 0.0909093
882 837 0.0909093
883 35 0.142904
883 52 0.14279
883 328 0.142904
883 370 0.142904
883 412 0.142904
883 479 0.142689
883 843 0.142904
884 6 0.111111
884 27 0.111111
884 184 0.111111
884 199 0.111111
884 240 0.111111
884 328 0.111111
884 412 0.111111
884 845 0.111111
884 846 0.111111
885 3 1
886 155 1
887 231 0.166666
887 445 0.166667
887 537 0.166667
887 551 0.166667
887 1117 0.166667
887 1118 0.166667
888 237 0.199966
888 331 0.199966
888 648 0.200135
888 674 0.199966
888 829 0.199966
889 14 0.111111
889 76 0.111111
889 78 0.111111
889 299 0.111111
889 320 0.111111
889 778 0.111111
889 1401 0.111111
889 1587 0.111111
889 1589 0.111111
890 3 0.119815
890 18 0.291963
890 58 0.291982
890 648 0.29624
891 12 0.143314
891 20 0.140115
891 78 0.143314
891 208 0.143314
891 551 0.143314
891 959 0.143314
891 1005 0.143314
892 20 0.142857
892 131 0.142902
892 132 0.142902
892 216 0.142876
892 384 0.142896
892 385 0.142664
892 828 0.142902
893 64 1
894 39 1
895 2 0.243941
895 3 0.194523
895 8 0.0740424
895 31 0.243859
895 52 0.243634
896 3 1
897 73 0.222222
897 139 0.111111
897 162 0.222222
897 356 0.111111
897 671 0.111111
897 969 0.111111
897 1116 0.111111
898 2 0.250028
898 45 0.250028
898 164 0.250028
898 172 0.249915
899 63 0.125854
899 64 0.114535
899 172 0.126378
899 184 0.126647
899 570 0.126647
899 572 0.126647
899 831 0.126647
899 847 0.126647
900 74 0.148776
900 154 0.148776
900 201 0.404894
900 848 0.148776
900 849 0.148776
901 32 1
902 144 0.166667
902 175 0.166667
902 176 0.333333
902 854 0.166667
902 959 0.166667
903 10 0.143171
903 40 1.82723e-06
903 299 0.141105
903 300 0.14317
903 464 0.143171
903 479 0.143038
903 508 0.143171
903 551 0.143171
904 299 1
905 28 0.111111
905 35 0.111111
905 39 0.111111
905 42 0.111111
905 154 0.111111
905 201 0.111111
905 236 0.111111
905 310 0.111111
905 1220 0.111111
906 58 0.137061
906 60 0.143823
906 94 0.143823
906 127 0.143823
906 174 0.143823
906 201 0.143823
906 856 0.143823
907 40 1
908 59 0.0561035
908 155 0.943897
909 59 1
910 40 3.32702e-05
910 628 0.999967
911 49 1
912 53 0.110776
912 127 0.111153
912 148 0.111153
912 164 0.111153
912 320 0.222306
912 412 0.111153
912 688 0.111153
912 938 0.111153
913 58 0.249138
913 59 0.250284
913 328 0.250289
913 342 0.250289
914 5 0.13759
914 34 0.143963
914 43 0.143202
914 243 0.143356
914 305 0.143963
914 362 0.143963
914 855 0.143963
915 49 1
916 33 0.63931
916 59 0.36069
917 7 0.499986
917 166 0.500014
918 631 1
919 25 0.111259
919 155 0.111131
919 213 0.110967
919 293 0.111259
919 527 0.111259
919 574 0.111259
919 631 0.110348
919 731 0.111259
919 857 0.111259
920 46 0.111148
920 47 0.11111
920 48 0.111105
920 50 0.111112
920 231 0.111105
920 517 0.111105
920 688 0.111105
920 821 0.111105
920 858 0.111105
921 148 0.142913
921 155 0.285437
921 156 0.142913
921 1170 0.142913
921 1320 0.142913
921 1343 0.142913
922 5 0.166652
922 107 0.166663
922 160 0.166663
922 268 0.166663
922 315 0.166663
922 385 3.18079e-05
922 1326 0.166663
923 5 0.111183
923 16 0.111189
923 25 0.111189
923 66 0.11113
923 216 0.110552
923 296 0.111189
923 384 0.111189
923 543 0.111189
923 580 0.111189
924 40 1
925 26 0.125
925 46 0.125
925 47 0.125
925 65 0.125
925 66 0.125
925 128 0.125
925 916 0.125
925 1346 0.125
926 39 1
927 40 0.29284
927 46 0.177039
927 47 0.177042
927 50 0.176038
927 628 0.177042
928 107 0.0909092
928 154 0.0909092
928 172 0.0909092
928 250 0.0909092
928 272 0.181817
928 305 0.0909092
928 306 0.090909
928 662 0.0909092
928 838 0.0909092
928 1216 0.0909092
929 49 0.142859
929 59 0.142845
929 81 0.142859
929 535 0.142859
929 757 0.142859
929 863 0.142859
929 864 0.142859
930 58 0.0887171
930 81 0.0914051
930 176 0.272971
930 177 0.180997
930 678 0.0914766
930 861 0.182955
930 869 0.0914777
931 98 0.142857
931 117 0.142857
931 320 0.285714
931 397 0.142857
931 749 0.142857
931 862 0.142857
932 43 0.0665299
932 50 0.200159
932 155 0.132844
932 300 0.0667186
932 315 0.200156
932 328 0.133437
932 570 0.133437
