1 1 100 1 1
1 2 100 1 1
1 3 100 1 1
1 4 100 1 1
1 5 100 1 1
1 6 100 1 1
1 7 100 1 1
1 8 100 1 1
1 9 100 1 1
1 10 100 1 1
1 11 100 1 1
1 12 100 1 1
1 13 100 1 1
1 14 100 1 1
1 15 100 1 1
1 16 100 1 1
1 17 100 1 1
1 18 100 1 1
1 19 100 1 1
1 20 100 1 1
1 21 100 1 1
1 22 100 1 1
1 23 100 1 1
1 24 100 1 1
1 25 100 1 1
1 26 100 1 1
1 27 100 1 1
1 29 100 1 1
1 30 100 1 1
1 31 100 1 1
1 34 100 1 1
1 35 100 1 1
1 36 100 1 1
1 42 100 1 1
1 44 100 1 1
1 45 100 1 1
1 46 100 1 1
1 47 100 1 1
1 48 100 1 1
1 52 100 1 1
1 53 100 1 1
1 55 100 1 1
1 58 100 1 1
1 59 100 1 1
1 60 100 1 1
1 63 100 1 1
1 64 100 1 1
1 65 100 1 1
1 67 100 1 1
1 68 100 1 1
1 69 100 1 1
1 70 100 1 1
1 71 100 1 1
1 74 100 1 1
1 75 100 1 1
1 85 100 1 1
1 0 100 2 0.0103717
2 0 100 2 0.989628
1 1 100 2 0.504335
2 1 100 2 0.495665
1 2 100 2 0.765271
2 2 100 2 0.234729
1 3 100 2 0.665762
2 3 100 2 0.334238
2 4 100 2 1
1 6 100 2 0.999719
2 6 100 2 0.000281053
1 7 100 2 0.337772
2 7 100 2 0.662228
1 8 100 2 0.364063
2 8 100 2 0.635937
1 9 100 2 0.00100459
2 9 100 2 0.998995
1 10 100 2 4.5467e-05
2 10 100 2 0.999955
2 11 100 2 1
2 12 100 2 1
2 13 100 2 1
1 14 100 2 0.474291
2 14 100 2 0.525709
1 15 100 2 0.50214
2 15 100 2 0.49786
2 16 100 2 1
1 17 100 2 0.997177
2 17 100 2 0.00282311
2 18 100 2 1
2 19 100 2 1
1 21 100 2 0.520818
2 21 100 2 0.479182
1 64 100 2 0.5
2 64 100 2 0.5
1 0 100 3 0.000549478
2 0 100 3 0.31458
3 0 100 3 0.684871
1 1 100 3 0.368669
2 1 100 3 0.295176
3 1 100 3 0.336154
1 2 100 3 0.533885
2 2 100 3 0.463324
3 2 100 3 0.0027907
1 3 100 3 0.320199
2 3 100 3 0.36381
3 3 100 3 0.315991
1 4 100 3 0.487939
2 4 100 3 0.245871
3 4 100 3 0.26619
1 5 100 3 0.500691
2 5 100 3 0.247173
3 5 100 3 0.252135
1 6 100 3 0.342965
2 6 100 3 0.342196
3 6 100 3 0.314839
1 7 100 3 0.945051
2 7 100 3 0.0336792
3 7 100 3 0.0212699
1 8 100 3 0.0251164
2 8 100 3 0.504293
3 8 100 3 0.470591
1 9 100 3 0.172857
2 9 100 3 0.00128939
3 9 100 3 0.825853
1 10 100 3 0.256995
2 10 100 3 0.511997
3 10 100 3 0.231008
1 11 100 3 0.0492873
2 11 100 3 0.478609
3 11 100 3 0.472104
1 12 100 3 0.0521745
2 12 100 3 0.0178014
3 12 100 3 0.930024
1 13 100 3 0.314437
2 13 100 3 0.318539
3 13 100 3 0.367024
1 14 100 3 0.998944
2 14 100 3 0.00104722
3 14 100 3 8.37327e-06
1 15 100 3 0.67473
2 15 100 3 0.016256
3 15 100 3 0.309014
1 16 100 3 0.415404
2 16 100 3 0.283499
3 16 100 3 0.301097
1 17 100 3 0.915118
2 17 100 3 0.0356201
3 17 100 3 0.0492617
1 18 100 3 0.355805
2 18 100 3 0.32538
3 18 100 3 0.318815
1 19 100 3 0.965308
2 19 100 3 0.0344414
3 19 100 3 0.000250162
1 20 100 3 0.963383
2 20 100 3 0.0305465
3 20 100 3 0.00607036
1 21 100 3 0.0685798
2 21 100 3 0.211357
3 21 100 3 0.720063
1 22 100 3 0.920575
2 22 100 3 0.061733
3 22 100 3 0.017692
1 23 100 3 0.943533
2 23 100 3 0.00133601
3 23 100 3 0.0551309
1 24 100 3 0.400844
2 24 100 3 0.301076
3 24 100 3 0.298081
1 25 100 3 0.523203
2 25 100 3 0.462654
3 25 100 3 0.0141434
1 26 100 3 0.99195
2 26 100 3 3.14899e-05
3 26 100 3 0.00801888
1 27 100 3 0.999912
2 27 100 3 8.77898e-05
2 28 100 3 1
2 29 100 3 1
1 30 100 3 0.000711151
2 30 100 3 0.0237979
3 30 100 3 0.975491
2 31 100 3 1
3 32 100 3 1
2 33 100 3 0.501839
3 33 100 3 0.498161
1 34 100 3 0.0864988
2 34 100 3 0.913501
1 35 100 3 0.996116
2 35 100 3 0.00388386
1 36 100 3 1
1 37 100 3 0.998329
2 37 100 3 0.0016708
2 38 100 3 0.999143
3 38 100 3 0.000856681
1 39 100 3 1
1 44 100 3 1
1 45 100 3 1
1 0 100 4 0.0881101
2 0 100 4 0.185066
3 0 100 4 0.28646
4 0 100 4 0.440364
1 1 100 4 0.192506
2 1 100 4 0.254501
3 1 100 4 0.2412
4 1 100 4 0.311793
1 2 100 4 0.99881
2 2 100 4 0.00112412
3 2 100 4 6.63368e-05
1 3 100 4 0.508892
2 3 100 4 0.491091
4 3 100 4 1.71661e-05
1 4 100 4 0.274359
2 4 100 4 0.240607
3 4 100 4 0.242517
4 4 100 4 0.242517
1 5 100 4 0.0964989
2 5 100 4 0.903501
1 6 100 4 0.99733
2 6 100 4 0.000176135
3 6 100 4 0.00165542
4 6 100 4 0.000838654
1 7 100 4 0.321265
2 7 100 4 0.316389
3 7 100 4 0.0528339
4 7 100 4 0.309512
1 8 100 4 0.269686
2 8 100 4 0.267184
3 8 100 4 0.267214
4 8 100 4 0.195916
1 9 100 4 0.987145
2 9 100 4 0.000323242
3 9 100 4 1.00149e-05
4 9 100 4 0.0125219
1 10 100 4 0.155999
2 10 100 4 0.294446
3 10 100 4 0.294988
4 10 100 4 0.254568
1 11 100 4 0.983277
2 11 100 4 0.0162065
3 11 100 4 0.000430472
4 11 100 4 8.59524e-05
1 12 100 4 0.00476986
2 12 100 4 0.355426
3 12 100 4 0.356278
4 12 100 4 0.283526
1 13 100 4 0.231166
2 13 100 4 0.316587
3 13 100 4 0.22761
4 13 100 4 0.224638
1 14 100 4 0.467454
2 14 100 4 0.183154
3 14 100 4 0.173779
4 14 100 4 0.175614
1 15 100 4 0.105067
2 15 100 4 0.0159736
3 15 100 4 0.43362
4 15 100 4 0.445339
1 16 100 4 0.188191
2 16 100 4 0.275928
3 16 100 4 0.259471
4 16 100 4 0.27641
1 17 100 4 0.979388
2 17 100 4 0.0012831
3 17 100 4 0.000245557
4 17 100 4 0.0190833
1 18 100 4 0.999502
2 18 100 4 0.000429419
3 18 100 4 5.02182e-05
4 18 100 4 1.8691e-05
1 19 100 4 0.984725
2 19 100 4 0.00194793
3 19 100 4 0.0114646
4 19 100 4 0.00186278
1 20 100 4 0.982663
2 20 100 4 0.00950166
3 20 100 4 0.000548549
4 20 100 4 0.00728666
1 21 100 4 0.247636
2 21 100 4 0.000875711
3 21 100 4 0.38291
4 21 100 4 0.368578
1 22 100 4 0.845483
2 22 100 4 0.15348
3 22 100 4 0.00078151
4 22 100 4 0.000255268
1 23 100 4 0.944281
2 23 100 4 0.0495296
3 23 100 4 0.000797779
4 23 100 4 0.00539146
1 24 100 4 0.169303
2 24 100 4 0.279937
3 24 100 4 0.282372
4 24 100 4 0.268388
1 25 100 4 0.587838
2 25 100 4 0.00903656
3 25 100 4 0.00793815
4 25 100 4 0.395187
1 26 100 4 0.594032
2 26 100 4 0.405961
3 26 100 4 1.27272e-06
4 26 100 4 5.71063e-06
1 27 100 4 0.533174
2 27 100 4 0.46428
3 27 100 4 0.00254669
1 28 100 4 0.997649
2 28 100 4 0.00235074
1 29 100 4 0.999734
2 29 100 4 0.000266051
1 30 100 4 0.0330218
3 30 100 4 0.966978
1 31 100 4 0.967414
2 31 100 4 0.0325472
3 31 100 4 3.84292e-05
2 32 100 4 1
1 33 100 4 5.72341e-05
2 33 100 4 0.0539267
3 33 100 4 0.473353
4 33 100 4 0.472663
1 34 100 4 0.534356
3 34 100 4 0.465644
1 35 100 4 1
2 36 100 4 1
1 37 100 4 0.999995
2 37 100 4 2.27228e-06
3 37 100 4 2.56998e-06
1 38 100 4 0.85912
2 38 100 4 0.137502
3 38 100 4 0.0033777
1 39 100 4 0.0823753
2 39 100 4 0.305872
3 39 100 4 0.305851
4 39 100 4 0.305902
1 40 100 4 0.107834
2 40 100 4 0.449306
3 40 100 4 0.440467
4 40 100 4 0.00239393
1 42 100 4 1
1 43 100 4 1
1 47 100 4 1
1 48 100 4 0.0653345
2 48 100 4 0.299874
3 48 100 4 0.316986
4 48 100 4 0.317806
1 49 100 4 0.994999
2 49 100 4 0.00144255
3 49 100 4 0.0035589
1 50 100 4 0.0183972
3 50 100 4 0.981603
1 52 100 4 0.414296
2 52 100 4 0.00042681
3 52 100 4 0.000370665
4 52 100 4 0.584907
1 53 100 4 1
1 54 100 4 0.00453147
3 54 100 4 0.995469
1 55 100 4 1
1 56 100 4 1
1 57 100 4 0.999803
2 57 100 4 0.000129311
3 57 100 4 4.81954e-05
4 57 100 4 1.99376e-05
1 58 100 4 1
1 61 100 4 1
1 62 100 4 0.14939
2 62 100 4 0.85061
1 63 100 4 0.999716
2 63 100 4 0.00021275
3 63 100 4 7.14855e-05
1 64 100 4 1
1 70 100 4 1
1 0 100 5 0.0655637
2 0 100 5 0.350383
3 0 100 5 0.259551
4 0 100 5 0.266014
5 0 100 5 0.058488
1 1 100 5 0.272251
2 1 100 5 0.272516
3 1 100 5 0.183307
4 1 100 5 0.0904418
5 1 100 5 0.181484
1 2 100 5 0.999472
2 2 100 5 0.000527779
1 3 100 5 0.22881
2 3 100 5 0.181837
3 3 100 5 0.196436
4 3 100 5 0.196478
5 3 100 5 0.196439
1 4 100 5 0.017014
2 4 100 5 0.011724
3 4 100 5 0.223102
4 4 100 5 0.338306
5 4 100 5 0.409854
1 5 100 5 0.186571
2 5 100 5 0.0983948
3 5 100 5 0.238345
4 5 100 5 0.238344
5 5 100 5 0.238345
1 6 100 5 0.999316
2 6 100 5 0.000683743
1 7 100 5 0.390706
2 7 100 5 0.0093479
3 7 100 5 0.00602234
4 7 100 5 0.295832
5 7 100 5 0.298091
1 8 100 5 0.642767
2 8 100 5 0.345813
3 8 100 5 0.0113459
4 8 100 5 4.06176e-05
5 8 100 5 3.35185e-05
1 9 100 5 0.219491
2 9 100 5 0.18813
3 9 100 5 0.22034
4 9 100 5 0.159726
5 9 100 5 0.212312
1 10 100 5 0.243079
2 10 100 5 0.25215
3 10 100 5 0.251624
4 10 100 5 0.000484239
5 10 100 5 0.252663
1 11 100 5 0.42782
2 11 100 5 0.0105812
3 11 100 5 0.561226
4 11 100 5 1.8196e-06
5 11 100 5 0.000370843
2 12 100 5 0.977902
3 12 100 5 0.00226033
4 12 100 5 6.34427e-05
5 12 100 5 0.0197739
1 13 100 5 0.992947
2 13 100 5 0.000864855
3 13 100 5 0.00464256
4 13 100 5 0.000956919
5 13 100 5 0.000588849
1 14 100 5 0.000111708
2 14 100 5 0.240087
3 14 100 5 0.253356
4 14 100 5 0.253244
5 14 100 5 0.253202
1 15 100 5 0.999367
2 15 100 5 0.000140002
3 15 100 5 7.44353e-05
5 15 100 5 0.000418243
1 16 100 5 0.000125835
2 16 100 5 0.0108525
3 16 100 5 0.3712
4 16 100 5 0.000178081
5 16 100 5 0.617643
1 17 100 5 0.433855
2 17 100 5 0.564736
3 17 100 5 0.000146472
4 17 100 5 1.59911e-05
5 17 100 5 0.00124659
1 18 100 5 0.249835
2 18 100 5 0.187638
3 18 100 5 0.0648693
4 18 100 5 0.247851
5 18 100 5 0.249807
1 19 100 5 0.253695
2 19 100 5 0.691904
3 19 100 5 0.0527299
5 19 100 5 0.00167087
1 20 100 5 0.0118045
2 20 100 5 0.986016
3 20 100 5 0.000740293
4 20 100 5 0.000194916
5 20 100 5 0.0012445
1 21 100 5 0.992588
2 21 100 5 0.00120346
3 21 100 5 0.00360774
5 21 100 5 0.00260112
1 22 100 5 0.999271
2 22 100 5 0.000139054
3 22 100 5 0.000590368
1 23 100 5 0.873108
2 23 100 5 0.123431
3 23 100 5 0.00162214
5 23 100 5 0.00183902
1 24 100 5 0.189234
2 24 100 5 0.2045
3 24 100 5 0.206625
4 24 100 5 0.201261
5 24 100 5 0.198379
2 25 100 5 0.587145
3 25 100 5 0.361993
5 25 100 5 0.0508623
1 26 100 5 0.388361
2 26 100 5 0.611374
5 26 100 5 0.000264935
3 27 100 5 0.486972
5 27 100 5 0.513028
2 29 100 5 8.07292e-05
3 29 100 5 0.130099
5 29 100 5 0.86982
1 30 100 5 1
3 31 100 5 1
2 33 100 5 1
3 34 100 5 1
2 36 100 5 1
2 40 100 5 1
3 43 100 5 1
4 45 100 5 1
2 47 100 5 1
3 48 100 5 1
2 52 100 5 1
1 60 100 5 0.000298275
2 60 100 5 0.999702
2 61 100 5 1
1 62 100 5 0.0806769
2 62 100 5 0.894285
5 62 100 5 0.0250378
2 63 100 5 1
2 67 100 5 1
2 70 100 5 1
2 71 100 5 1
2 73 100 5 1
2 79 100 5 1
1 81 100 5 0.0277316
2 81 100 5 0.857331
5 81 100 5 0.114937
2 83 100 5 1
2 84 100 5 1
2 88 100 5 1
1 0 100 6 0.0541552
2 0 100 6 0.336375
3 0 100 6 0.209464
4 0 100 6 0.293719
5 0 100 6 0.0474961
6 0 100 6 0.0587895
1 1 100 6 0.225457
2 1 100 6 0.196971
3 1 100 6 0.196981
4 1 100 6 0.197064
5 1 100 6 0.183241
6 1 100 6 0.000284607
1 2 100 6 0.304641
2 2 100 6 0.232329
3 2 100 6 0.231515
4 2 100 6 0.231515
1 3 100 6 0.197218
3 3 100 6 0.201538
4 3 100 6 0.201226
5 3 100 6 0.198449
6 3 100 6 0.201569
1 4 100 6 0.246127
2 4 100 6 0.196652
3 4 100 6 0.172592
4 4 100 6 2.43078e-05
5 4 100 6 0.192169
6 4 100 6 0.192436
1 5 100 6 0.184769
2 5 100 6 0.134931
3 5 100 6 0.107816
4 5 100 6 0.142971
5 5 100 6 0.214307
6 5 100 6 0.215206
1 6 100 6 0.996471
3 6 100 6 0.00160693
4 6 100 6 0.000624147
5 6 100 6 0.00127515
6 6 100 6 2.26366e-05
1 7 100 6 0.194388
2 7 100 6 0.133321
3 7 100 6 0.168769
4 7 100 6 0.175584
5 7 100 6 0.170737
6 7 100 6 0.157201
1 8 100 6 0.164429
2 8 100 6 0.124789
3 8 100 6 0.194647
4 8 100 6 0.132072
5 8 100 6 0.191263
6 8 100 6 0.1928
1 9 100 6 0.22149
2 9 100 6 0.202287
3 9 100 6 0.000328977
4 9 100 6 0.122769
5 9 100 6 0.219593
6 9 100 6 0.233533
1 10 100 6 0.135584
2 10 100 6 0.16559
3 10 100 6 0.173624
4 10 100 6 0.175517
5 10 100 6 0.174219
6 10 100 6 0.175466
1 11 100 6 0.240873
2 11 100 6 0.152243
3 11 100 6 0.152332
4 11 100 6 0.152466
5 11 100 6 0.152051
6 11 100 6 0.150036
1 12 100 6 0.80993
2 12 100 6 0.000109861
3 12 100 6 0.131189
4 12 100 6 0.000292235
5 12 100 6 0.000152912
6 12 100 6 0.0583258
1 13 100 6 0.168579
2 13 100 6 0.152046
3 13 100 6 0.167
4 13 100 6 0.167949
5 13 100 6 0.16671
6 13 100 6 0.177716
1 14 100 6 0.149791
2 14 100 6 0.182125
3 14 100 6 0.167693
4 14 100 6 0.166751
5 14 100 6 0.16677
6 14 100 6 0.166869
1 15 100 6 0.997864
2 15 100 6 0.00133219
3 15 100 6 0.00077668
4 15 100 6 2.39928e-05
5 15 100 6 1.74544e-06
6 15 100 6 9.93484e-07
1 16 100 6 0.202591
2 16 100 6 0.212558
3 16 100 6 0.166049
4 16 100 6 1.82535e-05
5 16 100 6 0.213765
6 16 100 6 0.205019
1 17 100 6 0.0507042
2 17 100 6 0.21446
3 17 100 6 0.0093673
4 17 100 6 0.249611
5 17 100 6 0.236761
6 17 100 6 0.239096
1 18 100 6 0.985998
2 18 100 6 0.000725927
3 18 100 6 0.00870398
4 18 100 6 0.00221777
5 18 100 6 0.00232932
6 18 100 6 2.46953e-05
1 19 100 6 5.79518e-06
2 19 100 6 4.71852e-05
3 19 100 6 0.000653824
4 19 100 6 0.339952
5 19 100 6 0.343069
6 19 100 6 0.316272
1 20 100 6 0.000778103
2 20 100 6 0.490676
3 20 100 6 0.495613
4 20 100 6 0.0120513
5 20 100 6 0.000740589
6 20 100 6 0.000140718
1 21 100 6 0.996827
2 21 100 6 0.00141603
3 21 100 6 0.000879278
4 21 100 6 0.000841518
5 21 100 6 2.72406e-05
6 21 100 6 9.29985e-06
1 22 100 6 0.971082
2 22 100 6 0.000893437
3 22 100 6 0.000874011
4 22 100 6 0.00120132
5 22 100 6 0.00329874
6 22 100 6 0.0226504
2 23 100 6 0.558026
3 23 100 6 0.433168
4 23 100 6 0.00754083
5 23 100 6 0.00126457
1 24 100 6 0.0220999
2 24 100 6 0.00764269
3 24 100 6 0.245897
4 24 100 6 0.243434
5 24 100 6 0.241121
6 24 100 6 0.239806
1 25 100 6 0.00100028
2 25 100 6 0.995609
3 25 100 6 0.0023001
4 25 100 6 0.000792029
5 25 100 6 0.000296884
6 25 100 6 1.34414e-06
1 26 100 6 0.817276
2 26 100 6 0.124909
3 26 100 6 0.0472617
4 26 100 6 0.00193696
6 26 100 6 0.00861596
1 27 100 6 0.0213238
2 27 100 6 0.248594
3 27 100 6 0.243343
4 27 100 6 1.3205e-06
5 27 100 6 0.243365
6 27 100 6 0.243373
1 28 100 6 0.000570081
2 28 100 6 0.0236887
3 28 100 6 0.917748
4 28 100 6 0.0579929
1 29 100 6 0.258798
2 29 100 6 1.21049e-05
3 29 100 6 0.22796
4 29 100 6 0.000861709
5 29 100 6 0.256172
6 29 100 6 0.256197
1 30 100 6 0.00696231
2 30 100 6 0.00307319
3 30 100 6 0.534477
4 30 100 6 0.446671
6 30 100 6 0.00881623
1 31 100 6 0.164811
2 31 100 6 0.0017053
3 31 100 6 0.0272351
4 31 100 6 0.274717
5 31 100 6 0.270794
6 31 100 6 0.260737
1 32 100 6 0.984887
2 32 100 6 7.70567e-06
3 32 100 6 0.00027408
6 32 100 6 0.014831
1 33 100 6 0.873821
2 33 100 6 0.00181389
3 33 100 6 0.124365
1 34 100 6 0.544315
2 34 100 6 0.00642089
3 34 100 6 0.449264
1 35 100 6 0.000845809
2 35 100 6 0.00298193
3 35 100 6 0.995818
4 35 100 6 0.000353812
3 36 100 6 0.0038968
4 36 100 6 0.996103
2 37 100 6 0.28581
3 37 100 6 0.714046
4 37 100 6 0.000144639
2 38 100 6 0.0191756
3 38 100 6 0.400016
4 38 100 6 0.580809
1 39 100 6 0.0537397
2 39 100 6 0.000328864
3 39 100 6 0.76889
4 39 100 6 6.38201e-05
6 39 100 6 0.176978
1 40 100 6 5.25517e-05
2 40 100 6 0.000372333
3 40 100 6 0.0700154
4 40 100 6 0.92956
1 41 100 6 0.536684
2 41 100 6 0.0047128
3 41 100 6 0.458522
4 41 100 6 8.08572e-05
1 42 100 6 0.026415
2 42 100 6 0.000278564
3 42 100 6 0.00610525
4 42 100 6 0.967201
2 43 100 6 6.7886e-05
3 43 100 6 0.999847
4 43 100 6 8.54497e-05
1 44 100 6 0.730352
2 44 100 6 0.000512752
4 44 100 6 0.26676
5 44 100 6 0.00237476
3 45 100 6 0.852415
6 45 100 6 0.147585
3 46 100 6 0.452276
4 46 100 6 0.547724
1 47 100 6 0.159043
3 47 100 6 0.840957
1 48 100 6 0.500589
2 48 100 6 0.000817991
3 48 100 6 0.438848
5 48 100 6 0.00270584
6 48 100 6 0.0570391
2 49 100 6 0.845037
3 49 100 6 0.0123073
4 49 100 6 0.124864
5 49 100 6 8.48123e-05
6 49 100 6 0.0177074
1 50 100 6 0.9975
2 50 100 6 0.000673914
3 50 100 6 0.00030403
4 50 100 6 5.12038e-05
5 50 100 6 6.68932e-05
6 50 100 6 0.00140418
1 51 100 6 0.00158717
2 51 100 6 0.168951
3 51 100 6 0.824654
4 51 100 6 0.00382972
5 51 100 6 0.000977977
1 52 100 6 0.108579
2 52 100 6 0.0337196
3 52 100 6 0.815247
4 52 100 6 0.0362741
5 52 100 6 0.00618103
2 53 100 6 0.00507471
3 53 100 6 0.994761
5 53 100 6 0.00016392
5 55 100 6 0.266106
6 55 100 6 0.733894
1 56 100 6 0.000551738
2 56 100 6 0.00117131
3 56 100 6 0.00401799
5 56 100 6 0.020034
6 56 100 6 0.974225
2 57 100 6 0.904892
3 57 100 6 0.0947192
5 57 100 6 0.000149474
6 57 100 6 0.000239188
2 58 100 6 0.493348
3 58 100 6 0.0305165
4 58 100 6 0.47606
5 58 100 6 7.56327e-05
2 59 100 6 0.00283847
3 59 100 6 0.293041
4 59 100 6 0.330527
5 59 100 6 0.08267
6 59 100 6 0.290924
5 60 100 6 1
1 61 100 6 0.0130264
5 61 100 6 0.00853409
6 61 100 6 0.97844
1 62 100 6 0.430004
2 62 100 6 0.553987
3 62 100 6 0.0158065
4 62 100 6 7.18133e-06
6 62 100 6 0.00019547
2 63 100 6 0.123206
3 63 100 6 0.876794
1 64 100 6 0.400283
2 64 100 6 0.599717
1 67 100 6 1
1 68 100 6 0.994312
5 68 100 6 0.00568789
6 78 100 6 1
1 80 100 6 0.938215
6 80 100 6 0.0617851
6 81 100 6 1
1 82 100 6 0.0364369
2 82 100 6 0.0916338
3 82 100 6 0.863364
5 82 100 6 0.00190036
6 82 100 6 0.00666462
5 83 100 6 2.43557e-05
6 83 100 6 0.999976
1 84 100 6 1
6 85 100 6 1
1 88 100 6 1
1 90 100 6 1
5 91 100 6 1
1 96 100 6 1
1 97 100 6 0.304282
6 97 100 6 0.695718
1 100 100 6 1
1 0 100 7 0.000130361
2 0 100 7 0.254626
3 0 100 7 0.181503
4 0 100 7 0.125238
5 0 100 7 0.240265
6 0 100 7 0.0992677
7 0 100 7 0.0989701
1 1 100 7 0.162813
2 1 100 7 0.160334
3 1 100 7 0.12307
4 1 100 7 0.16036
5 1 100 7 0.072716
6 1 100 7 0.160333
7 1 100 7 0.160374
1 2 100 7 0.0222317
2 2 100 7 0.357249
3 2 100 7 0.356759
4 2 100 7 0.262639
5 2 100 7 0.00112119
1 3 100 7 0.369856
2 3 100 7 0.290393
3 3 100 7 0.2535
4 3 100 7 0.0862513
1 4 100 7 0.181264
2 4 100 7 0.0689685
3 4 100 7 0.115033
4 4 100 7 0.115423
5 4 100 7 0.135987
6 4 100 7 0.190884
7 4 100 7 0.192441
1 5 100 7 0.166525
2 5 100 7 0.11495
3 5 100 7 0.0969141
4 5 100 7 0.112808
5 5 100 7 0.169677
6 5 100 7 0.16965
7 5 100 7 0.169477
1 6 100 7 0.108411
2 6 100 7 0.0980105
3 6 100 7 0.203475
4 6 100 7 0.196638
5 6 100 7 0.0983403
6 6 100 7 0.0984979
7 6 100 7 0.196628
1 7 100 7 0.157681
2 7 100 7 0.105313
3 7 100 7 0.114492
4 7 100 7 0.158295
5 7 100 7 0.156379
6 7 100 7 0.158027
7 7 100 7 0.149813
1 8 100 7 0.174633
2 8 100 7 0.193899
3 8 100 7 0.195451
4 8 100 7 0.240799
5 8 100 7 0.195158
6 8 100 7 5.73367e-05
7 8 100 7 2.22081e-06
1 9 100 7 0.0951176
2 9 100 7 0.158796
3 9 100 7 0.151296
4 9 100 7 0.146388
5 9 100 7 0.149099
6 9 100 7 0.149473
7 9 100 7 0.149831
1 10 100 7 0.0994883
2 10 100 7 0.118358
3 10 100 7 0.116265
4 10 100 7 0.115018
5 10 100 7 0.115066
6 10 100 7 0.206108
7 10 100 7 0.229698
1 11 100 7 0.986359
2 11 100 7 0.00986932
3 11 100 7 0.00228257
4 11 100 7 0.000247796
5 11 100 7 0.000187343
6 11 100 7 0.000574959
7 11 100 7 0.000479503
1 12 100 7 0.188701
2 12 100 7 0.0875724
3 12 100 7 0.128356
4 12 100 7 0.196065
5 12 100 7 0.130078
6 12 100 7 0.134627
7 12 100 7 0.134601
1 13 100 7 0.00191138
2 13 100 7 0.00178469
3 13 100 7 0.00315319
4 13 100 7 0.00101996
5 13 100 7 0.325456
6 13 100 7 0.335975
7 13 100 7 0.330699
1 14 100 7 0.383421
2 14 100 7 0.227405
3 14 100 7 0.00577821
4 14 100 7 0.189844
5 14 100 7 0.190179
6 14 100 7 0.0033712
7 14 100 7 7.49923e-07
1 15 100 7 0.241043
2 15 100 7 0.24036
3 15 100 7 0.234876
4 15 100 7 0.00181679
5 15 100 7 0.240127
6 15 100 7 0.0388817
7 15 100 7 0.00289515
1 16 100 7 0.348037
2 16 100 7 0.021463
3 16 100 7 0.611664
4 16 100 7 0.000571115
5 16 100 7 0.0179724
6 16 100 7 0.000176728
7 16 100 7 0.00011591
1 17 100 7 0.374606
2 17 100 7 0.00783523
3 17 100 7 0.614543
4 17 100 7 0.000105972
5 17 100 7 0.000645032
6 17 100 7 0.00033749
7 17 100 7 0.00192777
1 18 100 7 0.145732
2 18 100 7 0.17868
3 18 100 7 0.127777
4 18 100 7 0.178706
5 18 100 7 0.00979965
6 18 100 7 0.179889
7 18 100 7 0.179415
1 19 100 7 0.0080357
2 19 100 7 0.00192612
3 19 100 7 0.0599033
4 19 100 7 0.0144467
5 19 100 7 8.84251e-06
6 19 100 7 0.915679
2 20 100 7 0.12497
4 20 100 7 0.873846
5 20 100 7 0.000518464
6 20 100 7 0.000193974
7 20 100 7 0.000471546
1 21 100 7 0.377839
2 21 100 7 0.346845
3 21 100 7 0.271907
4 21 100 7 0.00338012
5 21 100 7 2.08673e-06
6 21 100 7 2.29012e-05
7 21 100 7 3.39449e-06
1 22 100 7 0.0248273
2 22 100 7 0.00344443
3 22 100 7 0.142445
4 22 100 7 0.00156045
5 22 100 7 2.96842e-05
6 22 100 7 0.397907
7 22 100 7 0.429785
1 23 100 7 2.72923e-05
2 23 100 7 3.63017e-05
3 23 100 7 0.161193
4 23 100 7 0.209624
5 23 100 7 0.209966
6 23 100 7 0.209616
7 23 100 7 0.209537
1 24 100 7 0.956736
2 24 100 7 0.0113313
3 24 100 7 0.0180693
4 24 100 7 0.00136999
5 24 100 7 0.00183635
6 24 100 7 0.0106566
2 25 100 7 0.224586
3 25 100 7 0.3242
4 25 100 7 0.451073
6 25 100 7 0.00014011
2 26 100 7 0.830466
4 26 100 7 0.164217
6 26 100 7 0.00531749
1 27 100 7 1.61858e-05
2 27 100 7 2.43499e-05
3 27 100 7 0.979071
4 27 100 7 0.0192323
6 27 100 7 0.001656
1 28 100 7 0.000342318
2 28 100 7 0.000143148
3 28 100 7 0.00711438
4 28 100 7 0.251721
5 28 100 7 0.000166612
6 28 100 7 0.370585
7 28 100 7 0.369927
2 29 100 7 5.45172e-06
3 29 100 7 0.183535
4 29 100 7 0.24191
5 29 100 7 0.192346
6 29 100 7 0.189804
7 29 100 7 0.1924
1 30 100 7 0.00251705
2 30 100 7 0.0248698
3 30 100 7 0.0128948
4 30 100 7 0.958989
5 30 100 7 0.000506121
6 30 100 7 0.000223554
1 31 100 7 0.000307992
2 31 100 7 0.943939
3 31 100 7 0.00858496
4 31 100 7 0.00726066
6 31 100 7 0.00238254
7 31 100 7 0.0375245
1 32 100 7 0.288741
2 32 100 7 0.170075
3 32 100 7 0.156822
4 32 100 7 0.114059
5 32 100 7 0.143554
6 32 100 7 0.126749
1 33 100 7 0.996615
2 33 100 7 0.00266971
3 33 100 7 2.54627e-05
4 33 100 7 0.00057654
5 33 100 7 0.000113577
1 34 100 7 0.957541
2 34 100 7 0.00091193
4 34 100 7 0.0336339
5 34 100 7 7.23676e-06
6 34 100 7 0.00790612
1 35 100 7 0.000637522
2 35 100 7 0.00095179
3 35 100 7 0.000967449
4 35 100 7 0.892399
5 35 100 7 0.104092
6 35 100 7 0.000952347
1 36 100 7 0.0418222
2 36 100 7 0.001481
3 36 100 7 0.674633
4 36 100 7 0.281368
5 36 100 7 0.000137235
6 36 100 7 7.58504e-05
7 36 100 7 0.000483484
1 37 100 7 0.000271963
3 37 100 7 0.0331443
4 37 100 7 0.953933
5 37 100 7 0.0126504
1 38 100 7 0.0266568
2 38 100 7 0.0130577
4 38 100 7 0.959713
6 38 100 7 0.000572541
1 39 100 7 0.000833942
3 39 100 7 0.182924
4 39 100 7 0.816242
1 40 100 7 0.986976
2 40 100 7 3.53071e-05
3 40 100 7 0.0027625
4 40 100 7 0.0102263
4 41 100 7 1
3 42 100 7 0.0652804
4 42 100 7 0.855675
5 42 100 7 0.00939046
6 42 100 7 2.28356e-05
7 42 100 7 0.0696318
1 43 100 7 0.0788254
2 43 100 7 0.383974
3 43 100 7 0.000909103
4 43 100 7 0.532932
6 43 100 7 0.00335884
1 44 100 7 0.166989
2 44 100 7 0.166989
3 44 100 7 0.166437
4 44 100 7 2.0088e-05
5 44 100 7 0.166527
6 44 100 7 0.166989
7 44 100 7 0.166049
2 45 100 7 0.111356
6 45 100 7 0.888644
1 46 100 7 0.924219
2 46 100 7 0.000374917
4 46 100 7 0.0518955
6 46 100 7 0.0235102
3 47 100 7 0.00877131
4 47 100 7 0.00468324
5 47 100 7 0.000196018
6 47 100 7 0.000469704
7 47 100 7 0.98588
1 48 100 7 0.999953
6 48 100 7 4.72888e-05
4 49 100 7 0.971465
6 49 100 7 0.0285353
2 50 100 7 1
1 51 100 7 0.996361
2 51 100 7 0.00363856
2 52 100 7 0.139252
3 52 100 7 0.000889738
4 52 100 7 0.859858
1 53 100 7 0.843811
4 53 100 7 0.156189
3 54 100 7 0.00399714
4 54 100 7 0.996003
1 56 100 7 0.998897
2 56 100 7 0.00050651
3 56 100 7 0.000358789
4 56 100 7 0.000179608
5 56 100 7 5.24811e-05
6 56 100 7 5.82756e-06
4 58 100 7 1
1 59 100 7 0.0530503
2 59 100 7 0.154268
3 59 100 7 0.158636
4 59 100 7 0.157673
5 59 100 7 0.158981
6 59 100 7 0.158539
7 59 100 7 0.158853
4 61 100 7 1
4 64 100 7 0.162234
7 64 100 7 0.837766
1 0 100 8 0.000287713
2 0 100 8 0.244691
3 0 100 8 0.223801
4 0 100 8 0.141435
5 0 100 8 0.0913083
6 0 100 8 0.11682
7 0 100 8 0.0670099
8 0 100 8 0.114648
1 1 100 8 0.122468
2 1 100 8 0.0733689
3 1 100 8 0.060288
4 1 100 8 0.118366
5 1 100 8 0.146808
6 1 100 8 0.168679
7 1 100 8 0.163215
8 1 100 8 0.146806
1 2 100 8 0.127059
2 2 100 8 0.12261
3 2 100 8 0.0605868
4 2 100 8 0.122569
5 2 100 8 0.200596
6 2 100 8 0.12144
7 2 100 8 0.122569
8 2 100 8 0.122569
1 3 100 8 0.186202
2 3 100 8 0.0745704
3 3 100 8 0.0742136
4 3 100 8 0.111273
5 3 100 8 0.148494
6 3 100 8 0.148465
7 3 100 8 0.145153
8 3 100 8 0.111628
1 4 100 8 0.261233
2 4 100 8 0.157913
3 4 100 8 0.18712
4 4 100 8 0.0786256
5 4 100 8 0.0788021
6 4 100 8 0.0787386
7 4 100 8 0.0787128
8 4 100 8 0.0788554
1 5 100 8 0.179776
2 5 100 8 0.163907
3 5 100 8 3.18398e-05
5 5 100 8 0.163941
6 5 100 8 0.163909
7 5 100 8 0.163896
8 5 100 8 0.164539
1 6 100 8 0.219639
2 6 100 8 0.182362
3 6 100 8 0.182892
4 6 100 8 0.140762
5 6 100 8 0.0457146
6 6 100 8 0.0914421
7 6 100 8 0.0914292
8 6 100 8 0.045759
1 7 100 8 0.0970397
2 7 100 8 0.0757155
3 7 100 8 0.14577
4 7 100 8 0.151464
5 7 100 8 0.151434
6 7 100 8 0.0757135
7 7 100 8 0.151431
8 7 100 8 0.151432
1 8 100 8 0.709371
4 8 100 8 0.0789615
6 8 100 8 0.211668
1 9 100 8 0.201261
2 9 100 8 0.200677
3 9 100 8 0.0386682
4 9 100 8 0.186716
5 9 100 8 0.186935
6 9 100 8 0.00178831
7 9 100 8 0.183665
8 9 100 8 0.000289047
1 10 100 8 0.000974141
2 10 100 8 0.00766067
3 10 100 8 0.000769057
4 10 100 8 0.0323087
5 10 100 8 0.0364619
6 10 100 8 0.021993
7 10 100 8 0.0648277
8 10 100 8 0.835005
1 11 100 8 0.111352
2 11 100 8 0.0749022
3 11 100 8 0.003418
4 11 100 8 0.123098
5 11 100 8 0.124689
6 11 100 8 0.18765
7 11 100 8 0.186698
8 11 100 8 0.188193
1 12 100 8 0.0013875
2 12 100 8 0.00699157
3 12 100 8 0.143714
4 12 100 8 0.209034
5 12 100 8 0.000933856
6 12 100 8 0.20924
7 12 100 8 0.209309
8 12 100 8 0.21939
1 13 100 8 0.156928
2 13 100 8 0.0949714
3 13 100 8 0.145316
4 13 100 8 0.157441
5 13 100 8 0.137274
6 13 100 8 0.0818286
7 13 100 8 0.0777774
8 13 100 8 0.148463
1 14 100 8 0.00464734
2 14 100 8 0.00046607
3 14 100 8 0.000655412
4 14 100 8 1.5897e-05
5 14 100 8 0.000624375
6 14 100 8 0.326458
7 14 100 8 0.337678
8 14 100 8 0.329455
1 15 100 8 0.15158
2 15 100 8 0.00291906
3 15 100 8 0.00438745
4 15 100 8 0.0441034
5 15 100 8 0.0465979
6 15 100 8 0.00054097
7 15 100 8 0.0648161
8 15 100 8 0.685055
1 16 100 8 0.485551
2 16 100 8 0.428871
3 16 100 8 0.0813174
4 16 100 8 0.00109391
5 16 100 8 0.00239137
6 16 100 8 0.000129249
7 16 100 8 7.8779e-05
8 16 100 8 0.00056714
1 17 100 8 0.0293885
2 17 100 8 0.136923
3 17 100 8 0.266363
4 17 100 8 0.138764
5 17 100 8 0.262794
6 17 100 8 0.121973
7 17 100 8 3.71298e-05
8 17 100 8 0.0437574
1 18 100 8 0.151244
2 18 100 8 0.0746078
3 18 100 8 0.0755664
4 18 100 8 0.144625
5 18 100 8 0.1445
6 18 100 8 0.144632
7 18 100 8 0.141752
8 18 100 8 0.123073
1 19 100 8 0.174082
2 19 100 8 0.00972572
3 19 100 8 0.165124
4 19 100 8 0.165574
5 19 100 8 0.167644
6 19 100 8 0.165079
7 19 100 8 0.151845
8 19 100 8 0.000924827
1 20 100 8 0.933283
2 20 100 8 0.0411646
3 20 100 8 0.0104503
4 20 100 8 0.0005118
5 20 100 8 0.0140319
6 20 100 8 7.04413e-05
7 20 100 8 3.12113e-05
8 20 100 8 0.000456903
1 21 100 8 0.0150889
2 21 100 8 0.00746036
3 21 100 8 0.192157
4 21 100 8 0.194543
5 21 100 8 0.193841
6 21 100 8 0.216376
7 21 100 8 0.180015
8 21 100 8 0.000518355
1 22 100 8 0.132199
2 22 100 8 0.000207602
3 22 100 8 0.000305532
4 22 100 8 0.00130412
5 22 100 8 0.000407087
6 22 100 8 4.85806e-05
7 22 100 8 0.0863379
8 22 100 8 0.77919
1 23 100 8 0.00694768
2 23 100 8 0.164949
3 23 100 8 0.0195161
4 23 100 8 0.166304
5 23 100 8 0.162812
6 23 100 8 0.16665
7 23 100 8 0.144857
8 23 100 8 0.167965
1 24 100 8 0.976163
2 24 100 8 0.00397827
3 24 100 8 0.00472281
4 24 100 8 0.00126953
5 24 100 8 0.00294923
6 24 100 8 0.000122885
7 24 100 8 0.000869305
8 24 100 8 0.00992455
1 25 100 8 0.946923
2 25 100 8 0.000657903
3 25 100 8 0.000415813
4 25 100 8 1.95513e-05
5 25 100 8 0.00417009
6 25 100 8 4.81709e-06
7 25 100 8 0.000132596
8 25 100 8 0.0476758
1 26 100 8 0.996057
2 26 100 8 0.000194708
3 26 100 8 7.75019e-05
4 26 100 8 3.69682e-05
5 26 100 8 8.54714e-06
7 26 100 8 0.000136399
8 26 100 8 0.00348847
1 27 100 8 0.996153
2 27 100 8 0.00172347
3 27 100 8 0.000326152
4 27 100 8 0.00145474
5 27 100 8 1.65902e-05
6 27 100 8 3.52253e-05
7 27 100 8 0.000164881
8 27 100 8 0.000126009
2 28 100 8 1.42904e-05
3 28 100 8 8.14198e-05
4 28 100 8 5.33313e-05
5 28 100 8 4.83605e-06
6 28 100 8 4.24503e-05
7 28 100 8 0.000816208
8 28 100 8 0.998987
2 29 100 8 0.000485706
3 29 100 8 0.000169936
4 29 100 8 0.00375888
5 29 100 8 0.000904591
6 29 100 8 0.000861695
7 29 100 8 0.0102297
8 29 100 8 0.98359
1 30 100 8 0.165868
2 30 100 8 0.0173068
3 30 100 8 0.00607608
4 30 100 8 0.796552
5 30 100 8 0.000990311
6 30 100 8 0.0125645
7 30 100 8 0.000230505
8 30 100 8 0.000411916
1 31 100 8 0.991263
2 31 100 8 0.000679807
3 31 100 8 0.000791984
4 31 100 8 0.00447092
5 31 100 8 3.80939e-05
6 31 100 8 2.96341e-05
7 31 100 8 6.68256e-06
8 31 100 8 0.00272008
1 32 100 8 0.786425
2 32 100 8 0.00214035
3 32 100 8 0.000172692
5 32 100 8 0.00877164
6 32 100 8 0.000158333
7 32 100 8 0.00537163
8 32 100 8 0.19696
2 33 100 8 0.0679185
3 33 100 8 0.127484
4 33 100 8 0.157505
6 33 100 8 0.00221014
7 33 100 8 0.0248542
8 33 100 8 0.620029
1 34 100 8 0.998697
3 34 100 8 3.03698e-05
4 34 100 8 0.00026789
5 34 100 8 4.17982e-06
6 34 100 8 0.000354352
8 34 100 8 0.000645817
1 35 100 8 0.284443
2 35 100 8 7.96312e-05
3 35 100 8 5.90026e-05
5 35 100 8 4.88132e-05
7 35 100 8 0.000140982
8 35 100 8 0.715228
1 36 100 8 5.56604e-05
2 36 100 8 0.165112
3 36 100 8 0.167403
4 36 100 8 0.165127
5 36 100 8 9.05058e-05
6 36 100 8 0.167186
7 36 100 8 0.167836
8 36 100 8 0.167191
1 37 100 8 0.83177
2 37 100 8 0.0218437
3 37 100 8 0.000126747
4 37 100 8 0.142036
5 37 100 8 0.000339454
6 37 100 8 0.00108711
7 37 100 8 0.000144254
8 37 100 8 0.00265319
1 38 100 8 0.146098
2 38 100 8 0.165247
3 38 100 8 0.16506
4 38 100 8 0.0107631
5 38 100 8 0.165378
6 38 100 8 1.99978e-07
7 38 100 8 0.165153
8 38 100 8 0.182302
1 39 100 8 0.410396
2 39 100 8 0.000260404
4 39 100 8 0.0085003
5 39 100 8 3.68457e-05
6 39 100 8 5.37316e-05
7 39 100 8 0.00702426
8 39 100 8 0.573729
2 40 100 8 0.0751052
3 40 100 8 0.0805739
4 40 100 8 0.0235289
6 40 100 8 0.00980028
7 40 100 8 5.77217e-05
8 40 100 8 0.810934
2 41 100 8 0.851139
3 41 100 8 0.142476
4 41 100 8 0.00226933
6 41 100 8 0.00411584
2 42 100 8 0.666562
3 42 100 8 0.000162695
4 42 100 8 0.107425
7 42 100 8 0.000213921
8 42 100 8 0.225637
1 43 100 8 0.0137873
2 43 100 8 0.00771057
3 43 100 8 0.00825398
4 43 100 8 0.0911802
6 43 100 8 0.426549
8 43 100 8 0.452519
2 44 100 8 6.5861e-05
3 44 100 8 2.26903e-06
7 44 100 8 0.00777682
8 44 100 8 0.992155
2 45 100 8 0.0227191
3 45 100 8 0.063543
6 45 100 8 0.800961
7 45 100 8 0.101609
8 45 100 8 0.0111685
1 46 100 8 0.998362
2 46 100 8 0.000575913
3 46 100 8 0.000961612
4 46 100 8 4.2508e-05
5 46 100 8 2.01076e-06
6 46 100 8 1.43476e-05
7 46 100 8 4.18698e-05
1 47 100 8 1.26745e-06
2 47 100 8 0.214468
3 47 100 8 0.236964
4 47 100 8 0.240824
5 47 100 8 0.237013
6 47 100 8 0.0029901
7 47 100 8 0.0677396
2 48 100 8 0.209867
3 48 100 8 0.739807
6 48 100 8 0.0503261
2 49 100 8 0.0865093
3 49 100 8 0.205396
6 49 100 8 0.00840062
7 49 100 8 0.699694
2 50 100 8 0.00163623
3 50 100 8 0.157221
4 50 100 8 0.134925
5 50 100 8 0.176802
6 50 100 8 0.177179
7 50 100 8 0.177444
8 50 100 8 0.174793
2 51 100 8 0.017439
3 51 100 8 0.307759
4 51 100 8 0.362805
6 51 100 8 0.304778
7 51 100 8 0.00721965
2 52 100 8 0.00509847
3 52 100 8 8.48475e-05
4 52 100 8 8.65428e-06
5 52 100 8 7.3793e-05
6 52 100 8 5.87049e-06
7 52 100 8 0.994728
6 53 100 8 1
2 55 100 8 6.32398e-06
6 55 100 8 0.00224211
8 55 100 8 0.997752
1 56 100 8 0.127109
8 56 100 8 0.872891
2 57 100 8 0.0425229
6 57 100 8 0.125178
7 57 100 8 0.000291616
8 57 100 8 0.832008
2 58 100 8 0.158946
6 58 100 8 0.839665
7 58 100 8 0.00138947
7 59 100 8 0.00117564
8 59 100 8 0.998824
2 60 100 8 1
2 62 100 8 0.00227965
6 62 100 8 0.99772
2 63 100 8 0.387103
6 63 100 8 0.612897
1 64 100 8 0.980673
7 64 100 8 2.87488e-05
8 64 100 8 0.0192981
8 65 100 8 1
8 66 100 8 1
2 67 100 8 0.965161
6 67 100 8 0.0348389
8 68 100 8 1
1 69 100 8 0.981305
2 69 100 8 0.0186952
2 70 100 8 0.112486
6 70 100 8 0.887514
2 71 100 8 0.669843
6 71 100 8 0.330157
8 72 100 8 1
2 74 100 8 0.376739
8 74 100 8 0.623261
1 75 100 8 0.874391
3 75 100 8 0.124274
6 75 100 8 0.00133502
2 76 100 8 0.0290334
3 76 100 8 0.0356554
7 76 100 8 0.935311
1 79 100 8 1
1 80 100 8 0.991457
7 80 100 8 0.00854344
2 81 100 8 0.0334989
7 81 100 8 0.0653863
8 81 100 8 0.901115
7 83 100 8 0.0379389
8 83 100 8 0.962061
2 85 100 8 1
1 86 100 8 1
2 87 100 8 0.405169
7 87 100 8 0.594831
2 89 100 8 1
2 90 100 8 1
2 91 100 8 1
7 92 100 8 0.563434
8 92 100 8 0.436566
1 94 100 8 0.0735308
2 94 100 8 0.925967
7 94 100 8 0.000502012
7 100 100 8 1
1 0 100 9 7.23309e-06
2 0 100 9 0.183659
3 0 100 9 0.172625
4 0 100 9 0.124186
5 0 100 9 0.0777003
6 0 100 9 0.19686
7 0 100 9 0.135909
8 0 100 9 0.0609416
9 0 100 9 0.0481114
1 1 100 9 0.161144
2 1 100 9 0.0817287
3 1 100 9 0.117049
4 1 100 9 0.136398
5 1 100 9 0.109106
6 1 100 9 0.0705634
7 1 100 9 0.0899753
8 1 100 9 0.117178
9 1 100 9 0.116856
1 2 100 9 0.393154
4 2 100 9 4.71562e-05
5 2 100 9 3.00364e-05
8 2 100 9 0.000138316
9 2 100 9 0.606631
1 3 100 9 0.0197445
2 3 100 9 0.192098
3 3 100 9 0.197029
4 3 100 9 0.0985321
5 3 100 9 0.19702
7 3 100 9 0.098517
8 3 100 9 0.0985145
9 3 100 9 0.0985462
1 4 100 9 0.227234
2 4 100 9 0.0776324
3 4 100 9 0.077589
4 4 100 9 0.0836225
5 4 100 9 1.0673e-05
6 4 100 9 0.0686557
7 4 100 9 0.154801
8 4 100 9 0.155227
9 4 100 9 0.155227
1 5 100 9 0.246376
2 5 100 9 0.0923573
3 5 100 9 0.0923414
4 5 100 9 0.0923588
5 5 100 9 0.107219
6 5 100 9 0.0924465
7 5 100 9 0.0923573
8 5 100 9 0.0923424
9 5 100 9 0.0922018
1 6 100 9 0.112106
2 6 100 9 0.110507
3 6 100 9 0.110423
4 6 100 9 0.110517
5 6 100 9 0.110004
6 6 100 9 0.109303
7 6 100 9 0.110934
8 6 100 9 0.110636
9 6 100 9 0.11557
1 7 100 9 0.171136
2 7 100 9 0.15569
3 7 100 9 0.155661
4 7 100 9 0.154979
5 7 100 9 0.0977312
6 7 100 9 0.0546861
7 7 100 9 0.054456
8 7 100 9 0.103774
9 7 100 9 0.0518868
1 8 100 9 0.131149
2 8 100 9 0.0673121
3 8 100 9 0.0647206
4 8 100 9 0.066001
5 8 100 9 0.133266
6 8 100 9 0.134618
7 8 100 9 0.134326
8 8 100 9 0.134289
9 8 100 9 0.134317
1 9 100 9 0.131416
2 9 100 9 0.113645
3 9 100 9 0.102486
4 9 100 9 0.100299
5 9 100 9 0.101115
6 9 100 9 0.102037
7 9 100 9 0.150848
8 9 100 9 0.0511354
9 9 100 9 0.147019
1 10 100 9 0.108172
2 10 100 9 0.104193
3 10 100 9 0.142397
4 10 100 9 0.061519
5 10 100 9 0.143276
6 10 100 9 0.129597
7 10 100 9 0.0718315
8 10 100 9 0.108227
9 10 100 9 0.130786
1 11 100 9 0.0807616
2 11 100 9 0.13204
3 11 100 9 0.0726341
4 11 100 9 0.0836503
5 11 100 9 0.140331
6 11 100 9 0.141071
7 11 100 9 0.0720866
8 11 100 9 0.14097
9 11 100 9 0.136456
1 12 100 9 0.150623
2 12 100 9 0.120995
3 12 100 9 0.00150222
4 12 100 9 0.122727
5 12 100 9 0.120896
6 12 100 9 0.120717
7 12 100 9 0.121093
8 12 100 9 0.120494
9 12 100 9 0.120953
1 13 100 9 0.00964347
2 13 100 9 0.158554
3 13 100 9 0.0067782
4 13 100 9 0.163056
5 13 100 9 0.00823271
6 13 100 9 0.164176
7 13 100 9 0.161321
8 13 100 9 0.161618
9 13 100 9 0.166621
1 14 100 9 0.0236815
2 14 100 9 6.94371e-05
3 14 100 9 7.44435e-05
4 14 100 9 0.000252099
5 14 100 9 0.125507
6 14 100 9 0.24007
7 14 100 9 0.246737
8 14 100 9 0.226792
9 14 100 9 0.136816
1 15 100 9 0.113672
2 15 100 9 0.0804497
3 15 100 9 0.101272
4 15 100 9 0.134302
5 15 100 9 0.134943
6 15 100 9 0.134789
7 15 100 9 0.135206
8 15 100 9 0.0899059
9 15 100 9 0.0754606
1 16 100 9 0.846446
2 16 100 9 0.0138607
3 16 100 9 0.00130024
4 16 100 9 0.00370871
5 16 100 9 0.000349964
6 16 100 9 0.00063091
7 16 100 9 0.000447191
8 16 100 9 7.80147e-05
9 16 100 9 0.133179
1 17 100 9 0.189782
2 17 100 9 0.179333
3 17 100 9 0.0360999
4 17 100 9 0.191605
5 17 100 9 0.210876
6 17 100 9 8.27705e-05
7 17 100 9 0.00150699
8 17 100 9 0.188397
9 17 100 9 0.00231676
1 18 100 9 0.133959
2 18 100 9 0.133917
3 18 100 9 0.0675344
4 18 100 9 0.13371
5 18 100 9 0.133404
6 18 100 9 0.0647744
7 18 100 9 0.0670344
8 18 100 9 0.133661
9 18 100 9 0.132006
1 19 100 9 0.986409
2 19 100 9 5.85054e-05
3 19 100 9 0.000316585
4 19 100 9 0.000609376
5 19 100 9 0.00084732
6 19 100 9 0.0017416
7 19 100 9 0.00028997
9 19 100 9 0.00972767
1 20 100 9 0.19265
2 20 100 9 0.00270175
3 20 100 9 0.146429
4 20 100 9 0.0276032
5 20 100 9 0.156571
6 20 100 9 0.00273613
7 20 100 9 0.157126
8 20 100 9 0.156702
9 20 100 9 0.157481
1 21 100 9 0.148766
2 21 100 9 0.210258
3 21 100 9 0.000478438
4 21 100 9 8.45987e-05
5 21 100 9 2.34624e-06
6 21 100 9 0.000130963
7 21 100 9 0.20652
8 21 100 9 0.216887
9 21 100 9 0.216872
1 22 100 9 0.000153356
2 22 100 9 0.000351811
3 22 100 9 0.00043756
4 22 100 9 7.03711e-05
5 22 100 9 0.00803092
6 22 100 9 0.30853
7 22 100 9 0.000510398
8 22 100 9 0.315552
9 22 100 9 0.366363
1 23 100 9 0.195114
2 23 100 9 0.249423
3 23 100 9 0.00142485
4 23 100 9 0.274667
5 23 100 9 0.266103
6 23 100 9 0.00646866
7 23 100 9 2.41285e-05
8 23 100 9 2.11237e-06
9 23 100 9 0.00677432
1 24 100 9 0.000512395
2 24 100 9 0.00191725
3 24 100 9 0.199559
4 24 100 9 0.199792
5 24 100 9 0.199849
6 24 100 9 0.1999
7 24 100 9 0.19686
8 24 100 9 0.000683405
9 24 100 9 0.000926574
1 25 100 9 2.99915e-05
2 25 100 9 3.57341e-05
3 25 100 9 4.42468e-05
4 25 100 9 0.00281749
5 25 100 9 2.45408e-06
7 25 100 9 0.0156664
8 25 100 9 0.485334
9 25 100 9 0.49607
1 26 100 9 0.50578
2 26 100 9 0.313177
3 26 100 9 0.00455467
4 26 100 9 0.0321588
5 26 100 9 0.0267916
6 26 100 9 5.89701e-05
7 26 100 9 0.00457821
9 26 100 9 0.1129
1 27 100 9 0.485142
2 27 100 9 0.000252985
3 27 100 9 0.472949
4 27 100 9 0.00355842
5 27 100 9 8.48542e-05
6 27 100 9 0.000281317
7 27 100 9 5.6427e-06
8 27 100 9 2.58259e-05
9 27 100 9 0.0377001
1 28 100 9 0.0427533
2 28 100 9 0.00145454
3 28 100 9 0.000128875
4 28 100 9 5.05187e-05
5 28 100 9 0.000130131
6 28 100 9 0.0365921
7 28 100 9 0.000239255
9 28 100 9 0.918651
1 29 100 9 0.995221
2 29 100 9 0.000130581
3 29 100 9 4.89989e-05
4 29 100 9 1.22689e-05
5 29 100 9 2.05122e-06
6 29 100 9 0.00012073
7 29 100 9 0.000114236
8 29 100 9 6.05356e-06
9 29 100 9 0.00434449
1 30 100 9 0.533848
2 30 100 9 0.00136095
3 30 100 9 0.00018553
4 30 100 9 0.103102
5 30 100 9 0.00158576
6 30 100 9 0.000350552
7 30 100 9 9.60482e-05
9 30 100 9 0.359472
1 31 100 9 0.00545897
2 31 100 9 0.00228983
3 31 100 9 7.2188e-05
4 31 100 9 0.00142719
5 31 100 9 0.030603
9 31 100 9 0.960149
2 32 100 9 9.61997e-05
3 32 100 9 6.31225e-05
4 32 100 9 0.000339437
5 32 100 9 0.00205422
6 32 100 9 0.995956
7 32 100 9 0.00147775
8 32 100 9 1.3292e-05
1 33 100 9 0.999224
2 33 100 9 2.48215e-05
3 33 100 9 0.000579606
5 33 100 9 2.53849e-05
7 33 100 9 4.5542e-06
8 33 100 9 0.000141504
1 34 100 9 9.83163e-07
2 34 100 9 0.444788
3 34 100 9 0.102634
4 34 100 9 0.436296
5 34 100 9 0.0116496
6 34 100 9 0.00447956
7 34 100 9 6.82554e-07
9 34 100 9 0.000150619
1 35 100 9 0.537831
2 35 100 9 0.320116
3 35 100 9 0.0183136
5 35 100 9 0.0105331
6 35 100 9 0.001737
7 35 100 9 0.0298943
9 35 100 9 0.0815755
1 36 100 9 0.000441955
2 36 100 9 0.948898
3 36 100 9 2.26133e-05
4 36 100 9 0.0445853
5 36 100 9 0.00588635
7 36 100 9 0.00016564
1 37 100 9 0.133628
2 37 100 9 0.000718217
3 37 100 9 0.144454
4 37 100 9 0.00020875
5 37 100 9 0.14423
6 37 100 9 0.144434
7 37 100 9 0.143841
8 37 100 9 0.144061
9 37 100 9 0.144426
1 38 100 9 0.0971803
2 38 100 9 0.059499
4 38 100 9 0.00138655
5 38 100 9 0.762713
6 38 100 9 0.000148643
7 38 100 9 0.000497633
9 38 100 9 0.078575
2 39 100 9 0.00500987
5 39 100 9 0.0202148
6 39 100 9 0.00133462
7 39 100 9 0.973441
1 40 100 9 0.971213
2 40 100 9 0.000842766
3 40 100 9 0.000458081
4 40 100 9 0.0032567
5 40 100 9 0.00169612
6 40 100 9 0.0225334
1 41 100 9 0.998832
2 41 100 9 1.79339e-05
3 41 100 9 0.000181073
5 41 100 9 0.000144676
6 41 100 9 0.000220835
7 41 100 9 8.77595e-05
8 41 100 9 7.4629e-05
9 41 100 9 0.000441359
6 42 100 9 0.516325
7 42 100 9 0.483675
1 43 100 9 0.424937
2 43 100 9 0.0319342
3 43 100 9 0.000648786
4 43 100 9 0.452059
5 43 100 9 0.000532976
6 43 100 9 0.0885135
7 43 100 9 0.00137414
2 44 100 9 0.0735975
4 44 100 9 0.064318
5 44 100 9 0.000110011
6 44 100 9 0.0401013
7 44 100 9 0.821873
1 45 100 9 7.6673e-05
2 45 100 9 0.101754
4 45 100 9 0.536482
5 45 100 9 0.000302238
6 45 100 9 0.35841
7 45 100 9 0.00297473
2 46 100 9 0.472602
4 46 100 9 0.129079
6 46 100 9 0.0803672
7 46 100 9 0.317952
2 47 100 9 0.000580754
4 47 100 9 0.00341155
7 47 100 9 0.996008
2 48 100 9 0.00337831
4 48 100 9 0.995828
5 48 100 9 0.000793393
2 49 100 9 6.90472e-07
3 49 100 9 0.00283796
4 49 100 9 0.155708
5 49 100 9 0.167807
6 49 100 9 0.169029
7 49 100 9 0.169028
8 49 100 9 0.168859
9 49 100 9 0.16673
5 51 100 9 0.952459
7 51 100 9 0.0475413
5 52 100 9 0.202351
6 52 100 9 0.797649
2 53 100 9 0.991991
4 53 100 9 0.00374127
6 53 100 9 0.00426729
4 54 100 9 1
2 55 100 9 0.000181247
3 55 100 9 0.967612
4 55 100 9 0.0298695
5 55 100 9 0.0021223
6 55 100 9 4.45132e-05
7 55 100 9 0.000170224
1 56 100 9 0.143976
2 56 100 9 3.01466e-07
3 56 100 9 0.119234
4 56 100 9 0.145511
5 56 100 9 0.147589
6 56 100 9 0.0125413
7 56 100 9 0.146318
8 56 100 9 0.14807
9 56 100 9 0.136761
2 57 100 9 0.934178
6 57 100 9 0.06532
7 57 100 9 0.000502476
1 59 100 9 0.000590678
3 59 100 9 0.921429
4 59 100 9 0.0655797
5 59 100 9 0.011885
7 59 100 9 0.000515171
2 61 100 9 0.166743
6 61 100 9 0.833257
2 62 100 9 0.0898164
6 62 100 9 0.910184
1 64 100 9 1
2 65 100 9 1
2 66 100 9 0.561022
6 66 100 9 0.0299418
7 66 100 9 0.409036
2 67 100 9 0.000761957
6 67 100 9 0.237618
7 67 100 9 0.76162
2 69 100 9 1
2 70 100 9 1
7 71 100 9 1
1 0 100 10 0.000124942
2 0 100 10 0.170021
3 0 100 10 0.108619
4 0 100 10 0.137449
5 0 100 10 0.0908964
6 0 100 10 0.166727
7 0 100 10 0.0723495
8 0 100 10 0.124701
9 0 100 10 0.071409
10 0 100 10 0.057704
1 1 100 10 0.134975
2 1 100 10 0.0451228
3 1 100 10 0.134299
4 1 100 10 0.132978
5 1 100 10 0.13335
6 1 100 10 0.108455
7 1 100 10 0.0871342
8 1 100 10 0.0894416
9 1 100 10 0.0447473
10 1 100 10 0.0894982
1 2 100 10 0.265408
2 2 100 10 6.24182e-05
5 2 100 10 0.0314779
6 2 100 10 3.12519e-06
8 2 100 10 0.232919
9 2 100 10 0.233892
10 2 100 10 0.236238
1 3 100 10 0.116925
2 3 100 10 0.0746854
3 3 100 10 0.0734048
4 3 100 10 0.0733309
5 3 100 10 0.0733628
6 3 100 10 0.0778631
7 3 100 10 0.146669
8 3 100 10 0.0703931
9 3 100 10 0.146683
10 3 100 10 0.146683
1 4 100 10 0.107174
2 4 100 10 0.0705939
3 4 100 10 0.0708192
4 4 100 10 0.0709023
5 4 100 10 0.0420567
6 4 100 10 0.103942
7 4 100 10 0.1418
8 4 100 10 0.141151
9 4 100 10 0.1418
10 4 100 10 0.109761
1 5 100 10 0.238586
2 5 100 10 0.158661
3 5 100 10 0.150009
4 5 100 10 0.226372
5 5 100 10 0.150915
6 5 100 10 0.075455
8 5 100 10 1.81379e-06
1 6 100 10 0.106203
2 6 100 10 0.0679866
3 6 100 10 0.103374
4 6 100 10 0.103399
5 6 100 10 0.103424
6 6 100 10 0.103424
7 6 100 10 0.102245
8 6 100 10 0.0342196
9 6 100 10 0.137898
10 6 100 10 0.137827
1 7 100 10 0.104541
3 7 100 10 0.000114449
4 7 100 10 0.005015
5 7 100 10 0.214618
6 7 100 10 0.250862
7 7 100 10 0.125526
8 7 100 10 0.28822
10 7 100 10 0.0111036
1 8 100 10 0.138166
2 8 100 10 0.135095
3 8 100 10 0.135198
4 8 100 10 0.134021
5 8 100 10 0.0900406
6 8 100 10 0.0529179
7 8 100 10 0.0894009
8 8 100 10 0.0450335
9 8 100 10 0.0900634
10 8 100 10 0.0900634
1 9 100 10 0.622746
2 9 100 10 0.0798716
8 9 100 10 0.000169969
10 9 100 10 0.297212
1 10 100 10 0.0849872
2 10 100 10 0.0141189
3 10 100 10 0.0698588
4 10 100 10 3.89338e-05
5 10 100 10 0.149046
6 10 100 10 0.149234
7 10 100 10 0.149229
8 10 100 10 0.149221
9 10 100 10 0.149278
10 10 100 10 0.0849891
1 11 100 10 0.120307
2 11 100 10 0.111007
3 11 100 10 0.106109
4 11 100 10 0.120134
5 11 100 10 0.10524
6 11 100 10 1.46013e-05
8 11 100 10 0.170017
9 11 100 10 0.120132
10 11 100 10 0.147038
1 12 100 10 0.694469
2 12 100 10 0.289452
3 12 100 10 0.00626028
4 12 100 10 0.000156778
5 12 100 10 0.00019697
6 12 100 10 0.000572763
7 12 100 10 0.000486011
8 12 100 10 8.81727e-05
9 12 100 10 0.00300889
10 12 100 10 0.00530888
1 13 100 10 0.336798
2 13 100 10 0.312775
3 13 100 10 0.338093
4 13 100 10 0.000154025
5 13 100 10 0.000532915
6 13 100 10 0.000137889
8 13 100 10 0.00023209
9 13 100 10 0.000441774
10 13 100 10 0.0108358
1 14 100 10 0.174684
2 14 100 10 0.163353
3 14 100 10 0.108235
4 14 100 10 0.105191
5 14 100 10 0.101877
6 14 100 10 0.081877
7 14 100 10 0.0815463
8 14 100 10 0.0820347
9 14 100 10 0.00277652
10 14 100 10 0.0984252
1 15 100 10 0.116822
2 15 100 10 0.117124
3 15 100 10 0.116152
4 15 100 10 0.0595922
5 15 100 10 0.117356
6 15 100 10 0.0599862
7 15 100 10 0.116962
8 15 100 10 0.0620061
9 15 100 10 0.11698
10 15 100 10 0.11702
1 16 100 10 0.123032
2 16 100 10 0.13236
3 16 100 10 0.13351
4 16 100 10 0.133513
5 16 100 10 0.0806534
6 16 100 10 0.0628641
7 16 100 10 0.133394
8 16 100 10 0.0685253
9 16 100 10 0.066734
10 16 100 10 0.0654137
1 17 100 10 0.0786823
2 17 100 10 0.0690889
3 17 100 10 0.0709809
4 17 100 10 0.0705238
5 17 100 10 0.0688144
6 17 100 10 0.14372
7 17 100 10 0.141849
8 17 100 10 0.0704101
9 17 100 10 0.141803
10 17 100 10 0.144127
1 18 100 10 0.0006875
2 18 100 10 1.02751e-05
3 18 100 10 0.000121343
4 18 100 10 1.30067e-05
5 18 100 10 6.39016e-05
6 18 100 10 0.000145218
7 18 100 10 1.26286e-05
8 18 100 10 2.5107e-05
9 18 100 10 0.423937
10 18 100 10 0.574984
1 19 100 10 0.051431
2 19 100 10 0.329288
3 19 100 10 0.00189572
4 19 100 10 0.000339053
5 19 100 10 0.0899906
6 19 100 10 0.0048598
7 19 100 10 0.00901174
8 19 100 10 0.00666921
9 19 100 10 0.0121422
10 19 100 10 0.494373
1 20 100 10 0.016892
2 20 100 10 0.0596998
3 20 100 10 0.0769006
4 20 100 10 0.00863767
5 20 100 10 0.138326
6 20 100 10 0.0801389
7 20 100 10 0.156196
8 20 100 10 0.154393
9 20 100 10 0.154521
10 20 100 10 0.154295
1 21 100 10 0.110686
2 21 100 10 0.112558
3 21 100 10 0.108883
4 21 100 10 0.110139
5 21 100 10 0.124228
6 21 100 10 0.000104267
7 21 100 10 0.11018
8 21 100 10 0.110051
9 21 100 10 0.104061
10 21 100 10 0.109109
1 22 100 10 2.91542e-06
2 22 100 10 0.000647627
3 22 100 10 0.165184
4 22 100 10 0.166838
5 22 100 10 0.167228
6 22 100 10 0.000109331
7 22 100 10 0.166301
8 22 100 10 0.166303
9 22 100 10 0.166305
10 22 100 10 0.00107906
1 23 100 10 0.996229
2 23 100 10 0.003525
3 23 100 10 4.28633e-06
4 23 100 10 2.48064e-06
5 23 100 10 3.98304e-05
6 23 100 10 0.000122377
7 23 100 10 1.39014e-05
9 23 100 10 6.32303e-05
1 24 100 10 0.0468129
2 24 100 10 0.00230047
3 24 100 10 0.0026863
4 24 100 10 0.750911
5 24 100 10 0.00269916
6 24 100 10 0.132002
8 24 100 10 0.00260693
9 24 100 10 0.00461869
10 24 100 10 0.0553624
1 25 100 10 0.0354829
2 25 100 10 2.40552e-05
3 25 100 10 0.0024928
4 25 100 10 0.00125293
6 25 100 10 0.0113501
7 25 100 10 0.000168353
9 25 100 10 0.784384
10 25 100 10 0.164845
1 26 100 10 0.0876874
2 26 100 10 0.15633
3 26 100 10 0.141293
4 26 100 10 0.151173
5 26 100 10 5.8661e-05
6 26 100 10 0.129734
7 26 100 10 0.151642
8 26 100 10 0.150746
9 26 100 10 0.0313264
10 26 100 10 9.50187e-06
2 27 100 10 0.00292564
3 27 100 10 0.106955
5 27 100 10 0.126154
6 27 100 10 0.325438
7 27 100 10 0.132292
8 27 100 10 0.104733
9 27 100 10 0.112617
10 27 100 10 0.088885
1 28 100 10 0.719118
2 28 100 10 6.12349e-05
3 28 100 10 3.0311e-05
4 28 100 10 0.000880907
5 28 100 10 0.00182754
6 28 100 10 0.00719636
7 28 100 10 0.00101531
8 28 100 10 0.269871
1 29 100 10 0.0451662
2 29 100 10 5.1864e-05
3 29 100 10 4.89577e-06
4 29 100 10 2.50473e-06
5 29 100 10 0.00121702
6 29 100 10 0.00642557
7 29 100 10 0.227699
8 29 100 10 0.234096
9 29 100 10 0.238932
10 29 100 10 0.246404
1 30 100 10 0.978207
2 30 100 10 0.00521868
3 30 100 10 2.95408e-05
4 30 100 10 6.45847e-05
5 30 100 10 1.86765e-05
6 30 100 10 0.00705393
7 30 100 10 0.00141435
8 30 100 10 0.00772837
9 30 100 10 0.000264911
1 31 100 10 1.13509e-05
2 31 100 10 0.922008
3 31 100 10 0.000129913
4 31 100 10 0.000720275
5 31 100 10 0.0613621
6 31 100 10 0.00238293
7 31 100 10 0.00743482
8 31 100 10 0.00134888
9 31 100 10 0.00188342
10 31 100 10 0.00271858
1 32 100 10 0.0220932
2 32 100 10 0.138353
3 32 100 10 0.00115169
4 32 100 10 0.0723738
5 32 100 10 0.0157716
6 32 100 10 0.491632
7 32 100 10 0.129171
8 32 100 10 0.129171
9 32 100 10 0.000283371
1 33 100 10 0.0597543
2 33 100 10 0.868771
3 33 100 10 0.000124145
4 33 100 10 0.000409556
5 33 100 10 0.000288677
6 33 100 10 0.0026174
7 33 100 10 0.0438848
8 33 100 10 0.000183803
9 33 100 10 0.0239661
2 34 100 10 0.0704834
3 34 100 10 0.00895846
4 34 100 10 0.184244
5 34 100 10 0.184371
6 34 100 10 0.181516
7 34 100 10 0.00147253
8 34 100 10 0.00147253
9 34 100 10 0.186929
10 34 100 10 0.180552
2 35 100 10 0.805947
3 35 100 10 0.000261115
4 35 100 10 0.000301573
5 35 100 10 0.000342484
6 35 100 10 0.000436475
7 35 100 10 5.97146e-05
8 35 100 10 5.97146e-05
9 35 100 10 0.0229113
10 35 100 10 0.169681
1 36 100 10 7.12084e-05
2 36 100 10 0.00495003
3 36 100 10 5.5217e-06
5 36 100 10 0.00815814
6 36 100 10 0.000122802
7 36 100 10 0.000165827
8 36 100 10 6.41723e-05
10 36 100 10 0.986462
2 37 100 10 0.638212
6 37 100 10 0.215891
9 37 100 10 0.145897
2 38 100 10 0.00012169
3 38 100 10 0.00103391
4 38 100 10 0.00476103
6 38 100 10 0.993782
10 38 100 10 0.000301768
1 39 100 10 0.0387159
2 39 100 10 0.398042
5 39 100 10 0.288867
6 39 100 10 0.229765
9 39 100 10 0.0446103
1 40 100 10 0.112182
2 40 100 10 0.000639406
3 40 100 10 0.111022
4 40 100 10 0.110942
5 40 100 10 0.111002
6 40 100 10 0.110595
7 40 100 10 0.110532
8 40 100 10 0.111042
9 40 100 10 0.111022
10 40 100 10 0.111022
2 41 100 10 0.100074
3 41 100 10 0.00010892
4 41 100 10 0.703482
6 41 100 10 0.000123392
7 41 100 10 0.145609
8 41 100 10 0.0506028
1 42 100 10 0.00112331
2 42 100 10 0.183266
5 42 100 10 0.0103713
6 42 100 10 0.0545885
7 42 100 10 0.650783
8 42 100 10 0.0998679
2 43 100 10 0.99313
3 43 100 10 1.54294e-05
4 43 100 10 4.49338e-06
5 43 100 10 0.0067404
6 43 100 10 2.84441e-06
7 43 100 10 4.7476e-05
10 43 100 10 5.96009e-05
2 44 100 10 0.989012
6 44 100 10 0.00725518
7 44 100 10 0.00373256
2 45 100 10 0.997535
6 45 100 10 0.0024648
1 46 100 10 0.06438
2 46 100 10 0.921755
3 46 100 10 0.0137782
6 46 100 10 4.33023e-05
7 46 100 10 4.33023e-05
1 47 100 10 0.0490097
2 47 100 10 0.73735
7 47 100 10 0.21364
4 48 100 10 0.999695
6 48 100 10 0.000305437
2 49 100 10 0.831686
6 49 100 10 0.168314
1 50 100 10 0.10163
2 50 100 10 0.0266795
7 50 100 10 0.87169
6 51 100 10 0.908453
9 51 100 10 0.0915469
2 52 100 10 0.138738
6 52 100 10 0.512901
7 52 100 10 0.348361
6 53 100 10 1
1 54 100 10 0.127486
2 54 100 10 0.00448013
6 54 100 10 0.868034
3 55 100 10 0.0826057
6 55 100 10 0.917394
3 56 100 10 0.982371
4 56 100 10 0.0152236
6 56 100 10 0.00240524
1 57 100 10 0.999991
2 57 100 10 8.60986e-06
1 58 100 10 0.00323868
2 58 100 10 0.765793
4 58 100 10 0.230968
1 59 100 10 0.101633
2 59 100 10 0.898367
1 60 100 10 0.76079
2 60 100 10 0.23921
1 61 100 10 0.568159
2 61 100 10 0.431841
1 62 100 10 0.999992
2 62 100 10 7.82138e-06
1 64 100 10 1
2 65 100 10 0.992986
10 65 100 10 0.00701375
1 67 100 10 1
1 69 100 10 0.884988
2 69 100 10 0.115012
1 71 100 10 0.34665
2 71 100 10 0.465239
6 71 100 10 0.188111
1 72 100 10 0.993414
2 72 100 10 0.00658611
6 73 100 10 1
1 75 100 10 0.0172486
2 75 100 10 0.982751
1 0 100 11 0.000316037
2 0 100 11 0.0489954
3 0 100 11 0.276981
4 0 100 11 0.100308
5 0 100 11 0.142478
6 0 100 11 0.0820556
7 0 100 11 0.0815519
8 0 100 11 0.0796028
9 0 100 11 0.105884
10 0 100 11 0.0539717
11 0 100 11 0.0278561
1 1 100 11 0.0675339
2 1 100 11 0.0606361
3 1 100 11 0.0231471
4 1 100 11 0.06062
5 1 100 11 0.12124
6 1 100 11 0.121241
7 1 100 11 0.12124
8 1 100 11 0.121242
9 1 100 11 0.121245
10 1 100 11 0.06062
11 1 100 11 0.121235
1 2 100 11 1.65593e-05
2 2 100 11 0.000912344
3 2 100 11 0.000211218
8 2 100 11 0.0018504
9 2 100 11 9.55031e-06
10 2 100 11 0.137664
11 2 100 11 0.859336
1 3 100 11 0.0637828
4 3 100 11 3.41974e-06
6 3 100 11 0.152759
7 3 100 11 0.159256
8 3 100 11 0.15925
9 3 100 11 0.159255
10 3 100 11 0.146437
11 3 100 11 0.159256
1 4 100 11 0.325744
2 4 100 11 0.331859
3 4 100 11 0.18507
4 4 100 11 0.109749
5 4 100 11 0.0475759
10 4 100 11 1.69283e-06
1 5 100 11 0.0926823
2 5 100 11 0.0559793
3 5 100 11 0.0507306
4 5 100 11 0.0977846
5 5 100 11 2.46738e-06
6 5 100 11 0.101177
7 5 100 11 0.101461
8 5 100 11 0.101459
9 5 100 11 0.101449
10 5 100 11 0.145112
11 5 100 11 0.152163
1 6 100 11 0.166327
2 6 100 11 0.111172
3 6 100 11 0.0560083
4 6 100 11 0.0555848
5 6 100 11 0.0554921
6 6 100 11 0.11117
7 6 100 11 0.11117
8 6 100 11 0.11117
9 6 100 11 0.0555848
10 6 100 11 0.11073
11 6 100 11 0.0555918
1 7 100 11 0.106855
2 7 100 11 0.0931314
3 7 100 11 0.0926088
4 7 100 11 0.093164
5 7 100 11 0.0310274
6 7 100 11 0.0931685
7 7 100 11 0.0621119
8 7 100 11 0.0932023
9 7 100 11 0.117836
10 7 100 11 0.0931366
11 7 100 11 0.123758
1 8 100 11 0.0955187
2 8 100 11 0.103038
3 8 100 11 0.0352618
4 8 100 11 0.139087
5 8 100 11 0.104401
6 8 100 11 0.0696047
7 8 100 11 0.104403
8 8 100 11 0.0691323
9 8 100 11 0.0734495
10 8 100 11 0.104402
11 8 100 11 0.101703
1 9 100 11 0.0663679
2 9 100 11 0.311757
3 9 100 11 0.310872
4 9 100 11 0.310859
6 9 100 11 8.66633e-05
9 9 100 11 5.67446e-05
1 10 100 11 0.641952
6 10 100 11 0.000915501
10 10 100 11 0.352797
11 10 100 11 0.00433521
1 11 100 11 0.0873466
2 11 100 11 0.118554
3 11 100 11 0.0595379
4 11 100 11 0.118722
5 11 100 11 0.119079
6 11 100 11 0.0871519
7 11 100 11 0.118756
8 11 100 11 0.0893102
9 11 100 11 0.0572892
10 11 100 11 0.0602097
11 11 100 11 0.0840428
1 12 100 11 0.000567544
6 12 100 11 0.0613156
10 12 100 11 0.938117
1 13 100 11 0.0764243
2 13 100 11 0.0687826
3 13 100 11 0.13725
4 13 100 11 0.128541
5 13 100 11 0.137161
6 13 100 11 0.121948
7 13 100 11 0.119069
8 13 100 11 0.137577
9 13 100 11 0.0721829
10 13 100 11 0.000976672
11 13 100 11 8.80434e-05
1 14 100 11 0.107193
2 14 100 11 0.101378
3 14 100 11 0.00104428
4 14 100 11 0.00104636
5 14 100 11 0.222472
6 14 100 11 0.113246
7 14 100 11 0.112765
8 14 100 11 1.79486e-05
9 14 100 11 0.115281
10 14 100 11 0.112875
11 14 100 11 0.112683
1 15 100 11 9.57299e-06
2 15 100 11 0.00141704
3 15 100 11 5.91008e-05
4 15 100 11 0.00302713
5 15 100 11 0.14176
6 15 100 11 0.141823
7 15 100 11 0.141964
8 15 100 11 0.141724
9 15 100 11 0.142266
10 15 100 11 0.144127
11 15 100 11 0.141823
1 16 100 11 0.122456
2 16 100 11 0.0166798
3 16 100 11 0.00790981
4 16 100 11 0.0728031
5 16 100 11 0.111634
6 16 100 11 0.115325
7 16 100 11 0.111601
8 16 100 11 0.114588
9 16 100 11 0.0838653
10 16 100 11 0.120489
11 16 100 11 0.122649
1 17 100 11 0.0616525
2 17 100 11 0.0215888
3 17 100 11 0.0643915
4 17 100 11 0.122337
5 17 100 11 0.122149
6 17 100 11 0.121981
7 17 100 11 0.0665851
8 17 100 11 0.122202
9 17 100 11 0.0612013
10 17 100 11 0.123248
11 17 100 11 0.112664
1 18 100 11 0.00673179
2 18 100 11 0.701121
3 18 100 11 0.0691446
4 18 100 11 0.0303086
6 18 100 11 0.0239009
7 18 100 11 0.00625736
8 18 100 11 0.0428386
9 18 100 11 0.0013106
10 18 100 11 0.116817
11 18 100 11 0.00156997
1 19 100 11 0.941289
2 19 100 11 0.0415494
3 19 100 11 0.00582609
4 19 100 11 0.0101587
5 19 100 11 5.78507e-06
6 19 100 11 0.000162045
7 19 100 11 0.000676041
8 19 100 11 0.000307775
9 19 100 11 7.3126e-06
11 19 100 11 1.7555e-05
1 20 100 11 0.00904901
2 20 100 11 0.508684
3 20 100 11 0.473636
4 20 100 11 0.00827991
5 20 100 11 1.3707e-05
6 20 100 11 1.30593e-05
7 20 100 11 0.000237892
8 20 100 11 3.17064e-05
9 20 100 11 5.13742e-06
10 20 100 11 1.0161e-06
11 20 100 11 4.9391e-05
1 21 100 11 0.0032199
2 21 100 11 0.10793
3 21 100 11 0.00255394
4 21 100 11 0.000324422
5 21 100 11 8.10789e-06
6 21 100 11 7.49356e-05
7 21 100 11 0.000934029
8 21 100 11 0.00114627
9 21 100 11 0.000345028
10 21 100 11 0.000210647
11 21 100 11 0.883253
1 22 100 11 0.000215075
2 22 100 11 0.000200582
3 22 100 11 0.992268
4 22 100 11 0.00570636
5 22 100 11 2.69358e-05
6 22 100 11 0.000110621
7 22 100 11 1.48785e-05
8 22 100 11 0.000171893
9 22 100 11 1.18614e-05
10 22 100 11 0.000788886
11 22 100 11 0.000484915
1 23 100 11 0.00159269
2 23 100 11 0.00162101
3 23 100 11 0.337847
5 23 100 11 0.49744
6 23 100 11 0.0157972
7 23 100 11 0.0206733
8 23 100 11 0.000154068
9 23 100 11 0.047012
11 23 100 11 0.0778628
1 24 100 11 0.459026
2 24 100 11 0.539121
3 24 100 11 0.000194818
4 24 100 11 0.000982907
5 24 100 11 5.90274e-06
6 24 100 11 6.61437e-05
7 24 100 11 0.000334481
8 24 100 11 0.000260782
9 24 100 11 1.82408e-06
11 24 100 11 6.36194e-06
1 25 100 11 0.000100234
2 25 100 11 0.0121794
3 25 100 11 0.00314761
4 25 100 11 0.00616116
6 25 100 11 3.16964e-06
8 25 100 11 2.21185e-05
9 25 100 11 0.473229
10 25 100 11 0.50515
11 25 100 11 6.58452e-06
1 26 100 11 0.000883674
2 26 100 11 0.0336331
3 26 100 11 0.10924
4 26 100 11 0.00749764
5 26 100 11 0.00299844
7 26 100 11 0.0314097
8 26 100 11 4.26918e-05
9 26 100 11 0.445799
10 26 100 11 0.368496
1 27 100 11 0.190832
2 27 100 11 0.192403
3 27 100 11 0.000846709
4 27 100 11 0.197268
5 27 100 11 0.191972
6 27 100 11 0.174471
7 27 100 11 0.000399249
8 27 100 11 0.000994387
9 27 100 11 0.0123487
10 27 100 11 0.0203414
11 27 100 11 0.0181235
1 28 100 11 0.600226
2 28 100 11 0.0025909
3 28 100 11 0.000807656
4 28 100 11 3.38144e-05
5 28 100 11 0.000263178
6 28 100 11 1.01477e-05
7 28 100 11 0.000692051
8 28 100 11 0.00015464
10 28 100 11 0.395222
2 29 100 11 0.00714395
3 29 100 11 0.00375848
4 29 100 11 0.00591423
5 29 100 11 0.000337117
7 29 100 11 0.0871355
8 29 100 11 0.00959664
10 29 100 11 0.886114
1 30 100 11 0.00647933
2 30 100 11 0.0143697
3 30 100 11 0.0847173
4 30 100 11 0.612466
6 30 100 11 0.000596428
7 30 100 11 0.21048
8 30 100 11 0.000276689
9 30 100 11 0.00175486
10 30 100 11 0.0688597
1 31 100 11 0.116124
2 31 100 11 0.116132
3 31 100 11 0.114267
4 31 100 11 0.11622
5 31 100 11 0.11613
6 31 100 11 2.58299e-07
7 31 100 11 0.116158
8 31 100 11 0.116124
9 31 100 11 0.115431
10 31 100 11 0.0583005
11 31 100 11 0.0151128
1 32 100 11 0.933158
3 32 100 11 0.0158938
4 32 100 11 0.000287158
6 32 100 11 0.000307671
7 32 100 11 0.0495073
8 32 100 11 0.00067668
9 32 100 11 6.08699e-05
10 32 100 11 0.000108876
1 33 100 11 0.995327
2 33 100 11 0.000776663
3 33 100 11 6.67629e-05
4 33 100 11 2.0579e-06
6 33 100 11 0.00204405
7 33 100 11 0.0017748
8 33 100 11 8.7466e-06
2 34 100 11 7.14091e-07
4 34 100 11 9.77706e-07
7 34 100 11 1.60091e-06
8 34 100 11 0.238092
9 34 100 11 0.25443
10 34 100 11 0.254386
11 34 100 11 0.253089
3 35 100 11 0.00110436
7 35 100 11 0.0173142
8 35 100 11 0.981581
1 36 100 11 0.157745
2 36 100 11 0.440748
3 36 100 11 0.36872
4 36 100 11 0.0010243
6 36 100 11 4.28492e-05
7 36 100 11 0.0247751
8 36 100 11 0.000652987
9 36 100 11 0.00629183
1 37 100 11 0.00051283
2 37 100 11 0.149056
3 37 100 11 0.114816
4 37 100 11 0.592194
6 37 100 11 3.50534e-05
7 37 100 11 0.142766
8 37 100 11 0.000563361
10 37 100 11 5.66706e-05
2 38 100 11 0.880194
3 38 100 11 0.0351987
4 38 100 11 0.074384
6 38 100 11 7.75968e-05
7 38 100 11 0.0010609
8 38 100 11 0.00882954
10 38 100 11 0.000254948
3 39 100 11 0.120282
4 39 100 11 0.206248
6 39 100 11 0.359073
7 39 100 11 0.000964992
8 39 100 11 0.28243
9 39 100 11 0.0234157
10 39 100 11 0.00758519
2 40 100 11 0.997459
3 40 100 11 0.00189197
4 40 100 11 0.000515551
9 40 100 11 0.000133311
2 41 100 11 0.162617
3 41 100 11 0.832932
4 41 100 11 0.00132335
9 41 100 11 0.00312741
1 42 100 11 0.519488
3 42 100 11 0.0390442
4 42 100 11 0.421523
8 42 100 11 0.00288455
9 42 100 11 0.0170594
1 43 100 11 0.0344224
2 43 100 11 0.181422
3 43 100 11 0.391178
4 43 100 11 0.392977
2 44 100 11 0.998632
3 44 100 11 3.64493e-05
6 44 100 11 0.0013207
9 44 100 11 4.39319e-06
10 44 100 11 6.04738e-06
2 45 100 11 0.00046713
3 45 100 11 1.26642e-05
4 45 100 11 0.000916528
5 45 100 11 0.00114675
7 45 100 11 0.00114287
8 45 100 11 0.00133728
10 45 100 11 0.00141559
11 45 100 11 0.993561
2 46 100 11 0.00381238
3 46 100 11 9.35234e-05
4 46 100 11 7.64846e-07
7 46 100 11 0.000142597
8 46 100 11 0.0015402
9 46 100 11 0.000602284
10 46 100 11 0.362601
11 46 100 11 0.631208
1 47 100 11 0.0156136
2 47 100 11 0.683881
3 47 100 11 0.168914
4 47 100 11 0.108296
6 47 100 11 1.89367e-05
9 47 100 11 9.21078e-05
10 47 100 11 0.023185
2 48 100 11 5.33531e-05
3 48 100 11 0.995804
4 48 100 11 0.00284072
9 48 100 11 0.000831894
11 48 100 11 0.000470065
1 49 100 11 0.00254406
2 49 100 11 0.487105
3 49 100 11 0.165143
4 49 100 11 0.0789396
7 49 100 11 0.266268
1 50 100 11 0.965165
2 50 100 11 0.00704048
3 50 100 11 0.00945072
4 50 100 11 0.00453961
6 50 100 11 0.0067712
10 50 100 11 0.00703241
2 51 100 11 0.0231375
3 51 100 11 0.549704
6 51 100 11 0.0591857
9 51 100 11 0.367972
3 52 100 11 0.0195491
4 52 100 11 0.293156
6 52 100 11 0.664055
8 52 100 11 0.00369145
9 52 100 11 0.0195491
1 53 100 11 0.180215
2 53 100 11 0.731719
3 53 100 11 0.0792002
4 53 100 11 0.000266058
6 53 100 11 0.000181371
10 53 100 11 0.00841783
1 54 100 11 0.000288199
2 54 100 11 0.271601
3 54 100 11 0.0838314
4 54 100 11 0.641748
6 54 100 11 0.00245702
10 54 100 11 7.41699e-05
2 55 100 11 0.00550592
3 55 100 11 0.082325
9 55 100 11 0.112753
10 55 100 11 0.799416
2 56 100 11 0.511521
3 56 100 11 0.424371
9 56 100 11 0.0481076
10 56 100 11 0.0160002
2 57 100 11 3.42637e-05
3 57 100 11 1.90334e-06
4 57 100 11 0.147151
5 57 100 11 0.14295
6 57 100 11 0.142944
7 57 100 11 0.14295
8 57 100 11 0.142694
9 57 100 11 0.14299
10 57 100 11 0.13711
11 57 100 11 0.00117447
2 58 100 11 0.0242793
3 58 100 11 0.975233
4 58 100 11 0.000198091
10 58 100 11 0.000289499
1 59 100 11 2.1607e-05
2 59 100 11 0.00839173
3 59 100 11 0.00511945
4 59 100 11 0.00855992
10 59 100 11 0.000238509
11 59 100 11 0.977669
2 60 100 11 1
2 61 100 11 0.975419
3 61 100 11 0.024368
4 61 100 11 0.000212543
1 62 100 11 0.410484
2 62 100 11 0.582891
3 62 100 11 0.000362335
4 62 100 11 0.00626265
1 63 100 11 0.802165
8 63 100 11 0.197835
4 64 100 11 1
4 66 100 11 1
1 67 100 11 0.0196368
2 67 100 11 0.0933027
3 67 100 11 0.0919644
4 67 100 11 0.113983
5 67 100 11 0.677766
6 67 100 11 0.00240442
7 67 100 11 0.000152387
8 67 100 11 0.000790983
1 68 100 11 0.220573
2 68 100 11 0.00478761
4 68 100 11 0.0805737
6 68 100 11 0.256191
8 68 100 11 0.437875
1 69 100 11 0.369531
2 69 100 11 0.00276691
3 69 100 11 0.00486544
4 69 100 11 0.622836
1 72 100 11 0.00160179
2 72 100 11 0.00313527
3 72 100 11 0.0507496
4 72 100 11 0.944513
1 73 100 11 0.369465
2 73 100 11 0.00278387
3 73 100 11 0.00491047
4 73 100 11 0.622841
1 76 100 11 0.997214
2 76 100 11 0.0022431
3 76 100 11 0.000542625
3 77 100 11 0.991734
4 77 100 11 0.00826613
1 78 100 11 0.225884
2 78 100 11 0.000308105
3 78 100 11 0.00690253
4 78 100 11 0.766906
1 79 100 11 0.0187719
2 79 100 11 0.0884384
3 79 100 11 0.087914
4 79 100 11 0.108869
5 79 100 11 0.692952
6 79 100 11 0.00229852
8 79 100 11 0.000756145
1 80 100 11 0.00128386
2 80 100 11 0.124242
3 80 100 11 0.0801793
4 80 100 11 0.794295
2 81 100 11 0.000423686
3 81 100 11 0.26266
4 81 100 11 0.716194
8 81 100 11 0.0207224
1 82 100 11 0.788555
2 82 100 11 0.00234539
3 82 100 11 0.0550948
4 82 100 11 0.154005
1 83 100 11 0.689233
2 83 100 11 0.000413891
3 83 100 11 0.00432891
4 83 100 11 0.306024
1 84 100 11 0.631083
2 84 100 11 0.00299829
3 84 100 11 0.0922205
4 84 100 11 0.273698
1 86 100 11 0.0645298
2 86 100 11 0.00457479
4 86 100 11 0.10102
6 86 100 11 0.30632
8 86 100 11 0.523555
1 88 100 11 0.866212
2 88 100 11 0.102782
3 88 100 11 0.0196999
4 88 100 11 0.0113066
1 89 100 11 1
1 90 100 11 0.0719301
2 90 100 11 0.000109873
3 90 100 11 0.220929
4 90 100 11 0.707031
1 93 100 11 0.0392037
2 93 100 11 8.00493e-05
3 93 100 11 0.212991
4 93 100 11 0.747726
2 94 100 11 0.913531
3 94 100 11 0.0864694
1 95 100 11 0.226413
2 95 100 11 0.00505868
3 95 100 11 0.189629
4 95 100 11 0.578899
1 96 100 11 0.0311131
2 96 100 11 0.181632
3 96 100 11 0.539258
4 96 100 11 0.247997
3 97 100 11 1
1 0 100 12 8.6274e-05
2 0 100 12 0.146907
3 0 100 12 0.146068
4 0 100 12 0.0560343
5 0 100 12 0.0983818
6 0 100 12 0.100071
7 0 100 12 0.124293
8 0 100 12 0.0584086
9 0 100 12 0.101142
10 0 100 12 0.0771715
11 0 100 12 0.050017
12 0 100 12 0.0414185
1 1 100 12 0.12541
2 1 100 12 0.124884
3 1 100 12 0.124981
4 1 100 12 0.12491
5 1 100 12 0.124938
6 1 100 12 0.124939
10 1 100 12 2.67179e-06
11 1 100 12 0.124938
12 1 100 12 0.124998
1 2 100 12 0.0911722
3 2 100 12 0.0417435
4 2 100 12 0.083487
5 2 100 12 0.125223
6 2 100 12 0.0834912
7 2 100 12 0.125073
8 2 100 12 0.115526
9 2 100 12 0.0839466
10 2 100 12 0.0833691
11 2 100 12 0.0834808
12 2 100 12 0.083487
1 3 100 12 0.0969049
2 3 100 12 0.143665
3 3 100 12 0.143355
4 3 100 12 0.0927322
5 3 100 12 0.0957736
6 3 100 12 0.0478889
7 3 100 12 0.0957799
8 3 100 12 0.092312
9 3 100 12 0.0479184
10 3 100 12 0.0957803
11 3 100 12 0.0478889
12 3 100 12 1.03136e-06
1 4 100 12 0.39872
2 4 100 12 5.82865e-06
3 4 100 12 9.69965e-06
4 4 100 12 0.200644
7 4 100 12 0.199937
8 4 100 12 4.06144e-05
12 4 100 12 0.200644
1 5 100 12 0.206766
2 5 100 12 0.209246
3 5 100 12 0.206912
4 5 100 12 0.170651
5 5 100 12 0.103202
6 5 100 12 0.103218
7 5 100 12 3.97534e-06
12 5 100 12 2.22294e-06
1 6 100 12 0.0416701
2 6 100 12 0.0416674
3 6 100 12 0.124843
4 6 100 12 0.0834936
5 6 100 12 0.124993
6 6 100 12 0.125002
8 6 100 12 0.0833347
9 6 100 12 0.125002
10 6 100 12 0.0833364
11 6 100 12 0.0833232
12 6 100 12 0.0833347
1 7 100 12 0.0506562
2 7 100 12 0.0475762
4 7 100 12 0.091447
5 7 100 12 0.0914191
6 7 100 12 0.0913909
7 7 100 12 0.0457235
8 7 100 12 0.13717
9 7 100 12 0.0914474
10 7 100 12 0.133059
11 7 100 12 0.128664
12 7 100 12 0.0914468
1 8 100 12 0.303775
2 8 100 12 0.31707
3 8 100 12 0.160171
4 8 100 12 0.186469
8 8 100 12 0.00104823
9 8 100 12 0.0014696
11 8 100 12 0.0281583
12 8 100 12 0.00183894
1 9 100 12 0.0963878
2 9 100 12 0.0516251
3 9 100 12 0.0519907
4 9 100 12 0.103968
5 9 100 12 0.103981
6 9 100 12 0.103981
7 9 100 12 0.103897
8 9 100 12 0.102013
9 9 100 12 0.126183
10 9 100 12 0.0519921
11 9 100 12 0.0519907
12 9 100 12 0.0519907
1 10 100 12 0.199217
2 10 100 12 0.099609
3 10 100 12 0.0996084
4 10 100 12 0.000262513
5 10 100 12 0.0988569
6 10 100 12 0.0996084
7 10 100 12 0.0996067
8 10 100 12 0.0996084
9 10 100 12 0.102987
10 10 100 12 1.59534e-05
11 10 100 12 0.10062
1 11 100 12 0.114113
2 11 100 12 0.111094
3 11 100 12 0.000375984
6 11 100 12 0.111094
7 11 100 12 0.111094
8 11 100 12 0.111094
9 11 100 12 0.111094
10 11 100 12 0.111117
11 11 100 12 0.111094
12 11 100 12 0.107829
1 12 100 12 0.984524
2 12 100 12 0.00619102
3 12 100 12 0.000103844
4 12 100 12 0.00918162
1 13 100 12 0.000423434
2 13 100 12 0.0646784
3 13 100 12 0.0646784
4 13 100 12 0.0646814
6 13 100 12 1.20205e-06
7 13 100 12 0.0646784
8 13 100 12 0.0646784
9 13 100 12 0.0901976
10 13 100 12 0.193968
11 13 100 12 0.194035
12 13 100 12 0.19798
1 14 100 12 0.687831
2 14 100 12 0.00057143
3 14 100 12 0.000339204
4 14 100 12 0.297866
5 14 100 12 0.00014854
6 14 100 12 0.000316613
7 14 100 12 0.00592764
8 14 100 12 0.000572458
9 14 100 12 0.000102148
10 14 100 12 5.76881e-05
11 14 100 12 2.21943e-05
12 14 100 12 0.00624495
1 15 100 12 0.132879
2 15 100 12 0.00134817
3 15 100 12 0.000911258
4 15 100 12 0.00981791
5 15 100 12 0.000890259
6 15 100 12 0.000994277
7 15 100 12 0.172665
8 15 100 12 0.163386
9 15 100 12 2.75549e-05
10 15 100 12 0.163358
11 15 100 12 0.163291
12 15 100 12 0.190432
1 16 100 12 1.63061e-06
2 16 100 12 0.0623884
3 16 100 12 0.0626118
4 16 100 12 0.062917
5 16 100 12 0.0628971
6 16 100 12 0.125118
7 16 100 12 0.125155
8 16 100 12 0.123817
9 16 100 12 0.125052
10 16 100 12 0.0624696
11 16 100 12 0.0625116
12 16 100 12 0.125062
1 17 100 12 0.66552
2 17 100 12 0.0794952
3 17 100 12 0.133318
4 17 100 12 0.0602992
5 17 100 12 0.0378562
6 17 100 12 9.01629e-05
8 17 100 12 0.0211408
9 17 100 12 0.000140906
10 17 100 12 0.00180822
11 17 100 12 0.000331518
1 18 100 12 0.182897
2 18 100 12 0.456423
3 18 100 12 0.0295894
4 18 100 12 0.110658
5 18 100 12 0.11091
6 18 100 12 0.00208648
7 18 100 12 0.0067866
8 18 100 12 0.00379129
9 18 100 12 0.0303697
12 18 100 12 0.0664888
1 19 100 12 0.360734
2 19 100 12 0.028746
3 19 100 12 0.0158831
4 19 100 12 0.000550733
5 19 100 12 0.0287379
6 19 100 12 0.0153311
7 19 100 12 0.00483344
8 19 100 12 0.0114678
9 19 100 12 0.00293227
10 19 100 12 9.7253e-05
11 19 100 12 7.4677e-05
12 19 100 12 0.530612
1 20 100 12 0.00132243
2 20 100 12 0.00455412
3 20 100 12 0.0307786
4 20 100 12 0.00031718
5 20 100 12 0.00132627
7 20 100 12 0.00172388
9 20 100 12 0.959978
1 21 100 12 0.190891
2 21 100 12 5.25333e-06
3 21 100 12 0.000102057
4 21 100 12 0.26099
5 21 100 12 9.21062e-05
6 21 100 12 7.45126e-05
7 21 100 12 7.56022e-05
8 21 100 12 0.000263822
9 21 100 12 0.00699797
10 21 100 12 0.180092
11 21 100 12 0.180116
12 21 100 12 0.1803
1 22 100 12 1.95591e-05
2 22 100 12 5.69179e-05
3 22 100 12 9.58635e-06
4 22 100 12 0.0027344
5 22 100 12 0.495013
6 22 100 12 0.493913
7 22 100 12 0.00089683
8 22 100 12 0.00733896
9 22 100 12 2.40636e-06
10 22 100 12 6.47026e-07
11 22 100 12 2.00544e-06
12 22 100 12 1.33238e-05
1 23 100 12 0.0249508
2 23 100 12 0.0163959
3 23 100 12 0.437096
4 23 100 12 0.422375
5 23 100 12 0.0938246
6 23 100 12 0.00385541
8 23 100 12 5.05858e-05
10 23 100 12 0.000869674
12 23 100 12 0.000582461
2 24 100 12 0.000757094
3 24 100 12 0.0143618
4 24 100 12 0.0892304
5 24 100 12 0.884179
6 24 100 12 0.0113112
10 24 100 12 0.000160513
1 25 100 12 0.0656672
2 25 100 12 0.0159102
3 25 100 12 0.0497406
4 25 100 12 0.0387335
5 25 100 12 0.022019
6 25 100 12 0.0152653
8 25 100 12 5.10098e-05
10 25 100 12 0.000110964
12 25 100 12 0.792502
1 26 100 12 0.978557
5 26 100 12 0.00166511
6 26 100 12 0.01975
10 26 100 12 2.74218e-05
1 27 100 12 0.996147
2 27 100 12 0.00316437
3 27 100 12 0.000467581
4 27 100 12 0.000117251
5 27 100 12 1.22699e-05
6 27 100 12 1.85721e-05
9 27 100 12 3.26341e-06
10 27 100 12 3.97322e-05
11 27 100 12 2.98587e-05
1 28 100 12 0.00037727
2 28 100 12 9.67373e-06
3 28 100 12 2.76078e-05
4 28 100 12 0.00015445
5 28 100 12 1.05124e-05
6 28 100 12 2.92657e-05
7 28 100 12 0.148574
8 28 100 12 0.150334
9 28 100 12 0.151314
10 28 100 12 0.145769
11 28 100 12 0.153499
12 28 100 12 0.249901
2 29 100 12 4.03967e-05
3 29 100 12 4.63607e-06
4 29 100 12 0.998292
5 29 100 12 0.000356932
6 29 100 12 0.00123108
10 29 100 12 7.48355e-05
2 30 100 12 0.039933
3 30 100 12 0.00292591
4 30 100 12 0.956091
5 30 100 12 0.00105061
1 31 100 12 9.64224e-05
2 31 100 12 0.00417753
3 31 100 12 0.0870505
4 31 100 12 0.00513198
5 31 100 12 0.000109488
6 31 100 12 0.00137346
11 31 100 12 4.59841e-05
12 31 100 12 0.902015
1 32 100 12 0.00413954
2 32 100 12 0.00596961
3 32 100 12 0.00984762
4 32 100 12 0.0100221
5 32 100 12 0.0148672
6 32 100 12 0.0128523
9 32 100 12 0.00121358
10 32 100 12 0.941088
2 33 100 12 0.0169487
3 33 100 12 0.10349
4 33 100 12 0.0302512
5 33 100 12 0.602825
6 33 100 12 0.246485
2 34 100 12 0.00821254
3 34 100 12 0.00845817
4 34 100 12 0.980606
5 34 100 12 0.000888141
6 34 100 12 0.00183537
1 35 100 12 0.208726
2 35 100 12 0.0033094
3 35 100 12 0.300463
4 35 100 12 0.0211223
5 35 100 12 0.466232
6 35 100 12 0.000148073
1 36 100 12 0.964828
2 36 100 12 0.000682342
3 36 100 12 0.0110023
4 36 100 12 0.0178037
5 36 100 12 0.000669399
6 36 100 12 0.00163834
10 36 100 12 0.00337558
1 37 100 12 0.935018
2 37 100 12 0.00148792
3 37 100 12 0.000362241
4 37 100 12 0.0014596
5 37 100 12 0.0196189
6 37 100 12 0.0418657
10 37 100 12 0.000187781
2 38 100 12 0.0289093
3 38 100 12 0.6042
5 38 100 12 0.00452609
6 38 100 12 0.362364
3 40 100 12 1
3 41 100 12 0.70355
4 41 100 12 0.115897
8 41 100 12 0.180553
2 42 100 12 0.00223666
3 42 100 12 0.0286683
4 42 100 12 0.968814
5 42 100 12 0.000281234
2 43 100 12 0.215546
3 43 100 12 0.748513
5 43 100 12 0.0359412
1 44 100 12 0.98832
2 44 100 12 0.00573635
3 44 100 12 0.00594317
1 0 100 13 0.000309724
2 0 100 13 0.10648
3 0 100 13 0.129205
4 0 100 13 0.0748137
5 0 100 13 0.114965
6 0 100 13 0.116811
7 0 100 13 0.0940071
8 0 100 13 0.00522593
9 0 100 13 0.056603
10 0 100 13 0.133117
11 0 100 13 0.0800962
12 0 100 13 0.0571864
13 0 100 13 0.0311792
1 1 100 13 0.0995805
2 1 100 13 0.0987105
3 1 100 13 0.0497687
4 1 100 13 0.0991177
5 1 100 13 0.0993411
6 1 100 13 0.0554842
7 1 100 13 0.0746357
8 1 100 13 0.0746173
9 1 100 13 0.0746357
10 1 100 13 0.0745729
11 1 100 13 0.0753135
12 1 100 13 0.0497504
13 1 100 13 0.0744719
1 2 100 13 0.149663
2 2 100 13 0.1132
3 2 100 13 0.113039
4 2 100 13 0.0565199
5 2 100 13 0.0565242
6 2 100 13 0.116717
7 2 100 13 0.0565383
8 2 100 13 0.113041
9 2 100 13 0.11304
11 2 100 13 0.0551986
12 2 100 13 0.0565195
1 3 100 13 0.033189
2 3 100 13 2.81401e-05
3 3 100 13 0.0652016
4 3 100 13 0.0652016
5 3 100 13 0.130417
6 3 100 13 0.0652041
7 3 100 13 0.122561
8 3 100 13 0.0652016
9 3 100 13 0.0652016
10 3 100 13 0.130423
11 3 100 13 0.0617641
12 3 100 13 0.0652039
13 3 100 13 0.130403
1 4 100 13 0.134722
2 4 100 13 0.0645244
4 4 100 13 0.000632699
6 4 100 13 0.121751
7 4 100 13 0.124026
8 4 100 13 0.124465
9 4 100 13 0.124464
10 4 100 13 0.11855
11 4 100 13 0.0622321
12 4 100 13 0.0623982
13 4 100 13 0.0622336
1 5 100 13 0.175463
2 5 100 13 0.0832293
3 5 100 13 0.152529
4 5 100 13 0.0832636
6 5 100 13 0.00763776
7 5 100 13 8.31302e-06
12 5 100 13 0.249623
13 5 100 13 0.248246
1 6 100 13 0.0616366
2 6 100 13 0.0537302
3 6 100 13 0.0351679
4 6 100 13 0.105508
5 6 100 13 0.105505
6 6 100 13 0.0351854
7 6 100 13 0.0405063
8 6 100 13 0.140673
9 6 100 13 0.105533
10 6 100 13 0.140244
11 6 100 13 0.0356396
12 6 100 13 0.0703352
13 6 100 13 0.0703358
1 7 100 13 0.04021
3 7 100 13 0.000143677
6 7 100 13 0.117367
10 7 100 13 6.2512e-06
11 7 100 13 0.285955
12 7 100 13 0.278146
13 7 100 13 0.278172
1 8 100 13 0.0826458
2 8 100 13 0.0880149
3 8 100 13 0.063579
4 8 100 13 0.0592454
5 8 100 13 0.0293714
6 8 100 13 0.0880351
7 8 100 13 0.0576835
8 8 100 13 0.115978
9 8 100 13 0.0778396
10 8 100 13 0.0293488
11 8 100 13 0.102874
12 8 100 13 0.117349
13 8 100 13 0.0880351
1 9 100 13 0.174327
2 9 100 13 0.164889
3 9 100 13 0.16459
4 9 100 13 0.110841
5 9 100 13 0.110171
6 9 100 13 0.109825
7 9 100 13 0.0553015
10 9 100 13 0.000137691
12 9 100 13 0.0549589
13 9 100 13 0.0549589
1 10 100 13 0.204066
2 10 100 13 0.00126651
3 10 100 13 0.078683
6 10 100 13 0.000374215
8 10 100 13 0.00891977
9 10 100 13 0.000350138
10 10 100 13 0.00047415
12 10 100 13 0.353098
13 10 100 13 0.352768
1 11 100 13 0.160891
3 11 100 13 0.0805632
4 11 100 13 0.0804547
5 11 100 13 0.160886
6 11 100 13 0.0873379
7 11 100 13 0.0803135
8 11 100 13 0.0804453
9 11 100 13 0.108218
10 11 100 13 0.0804453
11 11 100 13 0.0804453
1 12 100 13 0.0687427
2 12 100 13 0.00449208
3 12 100 13 0.0722051
4 12 100 13 0.144923
5 12 100 13 0.0759581
6 12 100 13 1.28507e-06
7 12 100 13 0.0723151
8 12 100 13 0.0723443
9 12 100 13 0.0659671
10 12 100 13 0.143175
11 12 100 13 0.144622
12 12 100 13 0.0721092
13 12 100 13 0.0631452
2 13 100 13 0.061871
3 13 100 13 0.0622548
4 13 100 13 0.121603
6 13 100 13 0.123845
7 13 100 13 0.134899
8 13 100 13 0.123834
9 13 100 13 0.123738
10 13 100 13 0.0622834
11 13 100 13 0.0618691
12 13 100 13 0.0619341
13 13 100 13 0.0618691
1 14 100 13 0.154117
2 14 100 13 0.243384
3 14 100 13 0.356224
4 14 100 13 0.121727
5 14 100 13 0.124542
7 14 100 13 2.8867e-06
10 14 100 13 3.39543e-06
1 15 100 13 0.0358124
2 15 100 13 0.000261916
3 15 100 13 2.60845e-05
4 15 100 13 1.3372e-06
5 15 100 13 0.00148903
6 15 100 13 0.00561677
7 15 100 13 8.66753e-05
8 15 100 13 5.55037e-06
9 15 100 13 8.89583e-06
10 15 100 13 0.000121168
11 15 100 13 0.185554
12 15 100 13 0.385646
13 15 100 13 0.38537
1 16 100 13 0.000689409
2 16 100 13 0.000721857
3 16 100 13 0.000238259
4 16 100 13 0.244953
5 16 100 13 0.244339
6 16 100 13 0.00150327
7 16 100 13 0.00107294
8 16 100 13 0.236333
9 16 100 13 0.242947
10 16 100 13 0.0263224
11 16 100 13 0.000596032
12 16 100 13 0.000253678
13 16 100 13 2.9704e-05
1 17 100 13 0.112409
2 17 100 13 0.0691677
3 17 100 13 0.067005
4 17 100 13 0.051464
5 17 100 13 0.0681006
6 17 100 13 0.135391
7 17 100 13 0.124915
8 17 100 13 0.0683315
9 17 100 13 0.0677392
10 17 100 13 0.0676523
11 17 100 13 0.067838
12 17 100 13 0.0680295
13 17 100 13 0.0319582
1 18 100 13 0.0604778
2 18 100 13 0.00635623
3 18 100 13 1.89023e-05
4 18 100 13 0.060089
5 18 100 13 3.84532e-06
6 18 100 13 0.062572
7 18 100 13 0.000372319
8 18 100 13 0.124124
9 18 100 13 0.125453
10 18 100 13 0.0633256
11 18 100 13 0.187458
12 18 100 13 0.184279
13 18 100 13 0.125471
1 19 100 13 0.12587
2 19 100 13 0.108696
3 19 100 13 9.02417e-05
4 19 100 13 0.10618
5 19 100 13 0.108317
6 19 100 13 0.108246
7 19 100 13 0.119521
8 19 100 13 0.108197
9 19 100 13 0.1082
10 19 100 13 0.106592
11 19 100 13 8.89795e-05
12 19 100 13 1.12499e-06
1 20 100 13 0.142376
2 20 100 13 0.0104049
3 20 100 13 0.0612327
4 20 100 13 0.417616
5 20 100 13 0.0350226
6 20 100 13 0.0230039
7 20 100 13 0.000182257
8 20 100 13 0.0844748
9 20 100 13 0.037772
10 20 100 13 0.000147513
11 20 100 13 0.0003443
12 20 100 13 0.0109708
13 20 100 13 0.176452
1 21 100 13 0.36067
2 21 100 13 0.30587
3 21 100 13 0.302662
4 21 100 13 0.00139876
5 21 100 13 0.000384283
6 21 100 13 0.00777301
7 21 100 13 3.77102e-05
8 21 100 13 0.000275198
9 21 100 13 9.66487e-05
10 21 100 13 2.23755e-06
11 21 100 13 5.67196e-07
12 21 100 13 0.000170614
13 21 100 13 0.0206591
1 22 100 13 7.89941e-06
2 22 100 13 3.35849e-05
3 22 100 13 0.000176569
4 22 100 13 0.0010064
5 22 100 13 3.58947e-06
6 22 100 13 0.125838
7 22 100 13 0.125214
8 22 100 13 0.125197
9 22 100 13 0.125189
10 22 100 13 0.121758
11 22 100 13 0.125067
12 22 100 13 0.125736
13 22 100 13 0.124772
1 23 100 13 0.493949
2 23 100 13 0.408425
3 23 100 13 0.000835994
4 23 100 13 3.26112e-05
5 23 100 13 0.00382246
6 23 100 13 0.000226445
7 23 100 13 1.4933e-06
8 23 100 13 6.52032e-05
9 23 100 13 2.05899e-05
10 23 100 13 1.58031e-05
11 23 100 13 3.97705e-06
12 23 100 13 0.0495725
13 23 100 13 0.0430292
1 24 100 13 0.173652
2 24 100 13 0.164949
3 24 100 13 3.47894e-05
4 24 100 13 0.167071
5 24 100 13 0.169018
6 24 100 13 0.164515
7 24 100 13 0.160695
8 24 100 13 4.90489e-05
10 24 100 13 5.7455e-06
12 24 100 13 8.12645e-06
13 24 100 13 2.16799e-06
1 25 100 13 0.315432
2 25 100 13 0.269267
3 25 100 13 0.254387
4 25 100 13 0.155642
5 25 100 13 0.00466645
6 25 100 13 0.000166792
7 25 100 13 0.00015994
8 25 100 13 2.05742e-05
9 25 100 13 7.17111e-05
10 25 100 13 3.44321e-05
11 25 100 13 1.17022e-05
12 25 100 13 1.05804e-05
13 25 100 13 0.000130124
1 26 100 13 0.000489784
2 26 100 13 7.45494e-07
3 26 100 13 1.82129e-05
4 26 100 13 0.00157198
5 26 100 13 0.000835836
6 26 100 13 0.055307
7 26 100 13 0.0534314
8 26 100 13 0.145871
9 26 100 13 0.126621
10 26 100 13 0.110025
11 26 100 13 0.169033
12 26 100 13 0.169077
13 26 100 13 0.167716
1 27 100 13 0.00319286
2 27 100 13 1.00093e-06
3 27 100 13 3.33631e-06
4 27 100 13 0.00200762
5 27 100 13 0.131233
6 27 100 13 0.0682324
7 27 100 13 0.18932
8 27 100 13 0.136109
9 27 100 13 0.133535
10 27 100 13 0.129255
11 27 100 13 0.0666396
12 27 100 13 0.0668201
13 27 100 13 0.0736508
1 28 100 13 0.121397
2 28 100 13 0.135921
3 28 100 13 0.117231
4 28 100 13 0.295528
5 28 100 13 0.160556
6 28 100 13 0.00570925
7 28 100 13 1.41555e-05
8 28 100 13 2.60211e-06
9 28 100 13 3.23447e-06
10 28 100 13 9.18982e-06
11 28 100 13 8.29183e-07
12 28 100 13 0.100883
13 28 100 13 0.0627436
1 29 100 13 0.0120708
2 29 100 13 0.0133932
3 29 100 13 0.0291804
4 29 100 13 0.0106656
5 29 100 13 0.0722812
6 29 100 13 0.0745641
7 29 100 13 0.142507
8 29 100 13 0.143971
9 29 100 13 0.141542
10 29 100 13 0.000152051
11 29 100 13 0.144626
12 29 100 13 0.0708043
13 29 100 13 0.144242
1 30 100 13 1.03857e-05
2 30 100 13 0.000252373
3 30 100 13 0.000104082
4 30 100 13 0.0106619
5 30 100 13 0.240162
6 30 100 13 0.252617
7 30 100 13 0.244441
8 30 100 13 0.241791
9 30 100 13 0.00970794
10 30 100 13 0.000214522
11 30 100 13 1.16302e-06
12 30 100 13 2.42204e-05
13 30 100 13 1.27441e-05
1 31 100 13 0.0016692
2 31 100 13 0.00057474
3 31 100 13 0.0353384
4 31 100 13 0.116342
5 31 100 13 0.0160665
6 31 100 13 0.0157865
7 31 100 13 0.00536088
8 31 100 13 0.00922505
9 31 100 13 0.799036
10 31 100 13 0.000601156
1 32 100 13 0.416485
2 32 100 13 0.0105639
3 32 100 13 0.302187
4 32 100 13 0.27037
5 32 100 13 0.000158935
6 32 100 13 0.000156601
8 32 100 13 3.44216e-06
9 32 100 13 3.44216e-06
10 32 100 13 1.46058e-05
12 32 100 13 5.66907e-05
1 33 100 13 0.022066
2 33 100 13 4.23619e-05
3 33 100 13 0.975858
4 33 100 13 4.51684e-05
5 33 100 13 0.00025154
6 33 100 13 0.00150783
8 33 100 13 8.52679e-06
9 33 100 13 0.000220683
1 34 100 13 0.0521147
2 34 100 13 0.0028339
3 34 100 13 0.461085
4 34 100 13 0.483137
5 34 100 13 0.000796404
7 34 100 13 1.25578e-06
10 34 100 13 1.94981e-06
12 34 100 13 2.96333e-05
1 35 100 13 0.00593247
2 35 100 13 0.00135317
3 35 100 13 0.0041778
4 35 100 13 0.0153634
5 35 100 13 0.000811522
6 35 100 13 0.000508651
7 35 100 13 3.77308e-06
8 35 100 13 7.18344e-06
9 35 100 13 9.34574e-05
10 35 100 13 0.00163009
11 35 100 13 1.54782e-05
12 35 100 13 0.000991307
13 35 100 13 0.969112
1 36 100 13 5.49551e-05
2 36 100 13 0.000185607
3 36 100 13 0.00135369
4 36 100 13 0.156946
5 36 100 13 0.159639
6 36 100 13 2.33108e-05
8 36 100 13 0.000486477
9 36 100 13 0.0231023
10 36 100 13 0.164112
11 36 100 13 0.164125
12 36 100 13 0.165838
13 36 100 13 0.164133
1 37 100 13 0.551564
2 37 100 13 0.0338846
3 37 100 13 0.0072918
4 37 100 13 0.385367
5 37 100 13 3.32746e-05
6 37 100 13 0.000167164
7 37 100 13 6.49026e-06
9 37 100 13 0.000754823
10 37 100 13 0.00012943
12 37 100 13 3.02402e-05
13 37 100 13 0.0207707
1 38 100 13 0.065364
2 38 100 13 0.880351
3 38 100 13 0.000415344
4 38 100 13 0.000197721
5 38 100 13 0.0509759
6 38 100 13 3.22672e-05
7 38 100 13 0.00264283
9 38 100 13 1.61325e-05
10 38 100 13 4.47791e-06
1 39 100 13 0.851418
2 39 100 13 0.147591
3 39 100 13 2.72073e-06
4 39 100 13 0.000207427
5 39 100 13 0.000748731
6 39 100 13 2.70554e-05
10 39 100 13 4.49119e-06
1 40 100 13 0.971198
2 40 100 13 0.00779286
3 40 100 13 0.0110955
4 40 100 13 0.000149398
5 40 100 13 1.28013e-05
6 40 100 13 0.00939253
8 40 100 13 0.000142405
10 40 100 13 0.000216091
1 41 100 13 0.0558007
2 41 100 13 0.0377699
3 41 100 13 0.00012392
4 41 100 13 0.0014185
5 41 100 13 0.275056
6 41 100 13 0.5732
7 41 100 13 0.00025292
8 41 100 13 3.76773e-05
9 41 100 13 0.00109041
10 41 100 13 0.0510315
11 41 100 13 2.98661e-05
12 41 100 13 0.00378602
13 41 100 13 0.000402548
1 42 100 13 0.000168902
2 42 100 13 0.00791254
3 42 100 13 0.000120328
4 42 100 13 0.00021353
5 42 100 13 0.00208649
6 42 100 13 0.988441
9 42 100 13 5.24009e-05
10 42 100 13 0.000784966
11 42 100 13 1.76538e-06
12 42 100 13 8.52937e-05
13 42 100 13 0.000132459
1 43 100 13 0.00281364
2 43 100 13 0.00244213
3 43 100 13 0.00658351
4 43 100 13 0.727647
5 43 100 13 0.0115467
6 43 100 13 0.248776
7 43 100 13 0.000115822
10 43 100 13 7.51185e-05
2 44 100 13 0.0185343
4 44 100 13 0.507817
6 44 100 13 0.319092
7 44 100 13 0.140466
9 44 100 13 0.00639393
10 44 100 13 0.00769627
2 45 100 13 0.00698575
3 45 100 13 0.000275073
4 45 100 13 0.0617932
5 45 100 13 0.00193131
6 45 100 13 0.00156512
10 45 100 13 0.92544
12 45 100 13 0.00200997
1 46 100 13 0.145767
2 46 100 13 0.0164335
3 46 100 13 0.001344
4 46 100 13 0.000104215
5 46 100 13 0.0062368
6 46 100 13 0.8281
8 46 100 13 0.000227711
9 46 100 13 0.000383094
12 46 100 13 0.00117406
13 46 100 13 0.000229117
2 47 100 13 0.000422197
4 47 100 13 0.00849467
5 47 100 13 0.455833
6 47 100 13 0.533973
10 47 100 13 0.000226092
11 47 100 13 0.000256952
12 47 100 13 0.000793448
1 48 100 13 0.576158
2 48 100 13 0.122542
3 48 100 13 0.00065571
4 48 100 13 0.000191134
5 48 100 13 0.00338358
6 48 100 13 0.292907
10 48 100 13 0.00366089
12 48 100 13 0.00050217
1 49 100 13 0.84745
2 49 100 13 0.00945035
3 49 100 13 0.000703238
4 49 100 13 3.57179e-05
6 49 100 13 0.142202
10 49 100 13 0.000120185
12 49 100 13 3.84585e-05
1 50 100 13 4.81453e-06
2 50 100 13 2.16779e-07
4 50 100 13 0.000223673
5 50 100 13 2.03487e-06
6 50 100 13 2.53415e-06
7 50 100 13 0.164641
8 50 100 13 0.167407
9 50 100 13 0.167424
10 50 100 13 0.166809
11 50 100 13 0.166226
13 50 100 13 0.16726
2 51 100 13 0.0380545
5 51 100 13 0.757269
6 51 100 13 0.201566
12 51 100 13 0.00311056
1 52 100 13 0.412494
2 52 100 13 6.74519e-05
3 52 100 13 0.000366165
4 52 100 13 0.00114139
5 52 100 13 0.360264
6 52 100 13 0.223225
10 52 100 13 0.000162739
11 52 100 13 0.000617051
12 52 100 13 0.00166203
1 53 100 13 0.0651754
2 53 100 13 0.00473457
3 53 100 13 0.000383159
4 53 100 13 0.000206074
5 53 100 13 0.00192016
6 53 100 13 0.00757177
8 53 100 13 4.17292e-05
10 53 100 13 0.919744
12 53 100 13 0.000223261
3 54 100 13 1
1 55 100 13 0.806424
2 55 100 13 0.00285598
3 55 100 13 0.0397692
4 55 100 13 0.0628491
5 55 100 13 0.00399048
6 55 100 13 0.0212206
8 55 100 13 0.000859453
12 55 100 13 0.0620313
5 56 100 13 0.000613293
6 56 100 13 0.999278
12 56 100 13 0.000108772
3 57 100 13 0.000867021
4 57 100 13 0.00693911
5 57 100 13 0.459762
6 57 100 13 0.532037
12 57 100 13 0.000395639
2 58 100 13 0.000618056
3 58 100 13 0.0003184
4 58 100 13 0.00132538
5 58 100 13 0.00042258
6 58 100 13 0.995027
8 58 100 13 3.95469e-05
12 58 100 13 0.00224921
2 59 100 13 0.00185162
3 59 100 13 0.0051919
4 59 100 13 0.00351515
5 59 100 13 0.160871
6 59 100 13 0.749864
8 59 100 13 0.0287519
12 59 100 13 0.0499542
2 60 100 13 2.01516e-06
3 60 100 13 6.8888e-06
4 60 100 13 0.000496185
5 60 100 13 0.143263
6 60 100 13 0.00109291
7 60 100 13 0.143341
8 60 100 13 0.138467
9 60 100 13 0.143341
10 60 100 13 0.143321
11 60 100 13 0.143341
12 60 100 13 1.88243e-07
13 60 100 13 0.143328
1 61 100 13 0.0156369
2 61 100 13 0.727441
3 61 100 13 0.0222907
4 61 100 13 0.222829
6 61 100 13 0.00334104
7 61 100 13 0.00022121
8 61 100 13 0.00757462
12 61 100 13 0.000665636
1 62 100 13 0.993468
2 62 100 13 0.0010386
3 62 100 13 0.000829895
4 62 100 13 0.000570031
6 62 100 13 0.000232513
8 62 100 13 0.00272327
12 62 100 13 0.00113718
1 63 100 13 0.992424
2 63 100 13 0.000682722
3 63 100 13 0.00329022
4 63 100 13 0.00173787
5 63 100 13 0.000929341
6 63 100 13 0.000568864
8 63 100 13 0.000121901
12 63 100 13 0.000245563
5 64 100 13 0.768065
6 64 100 13 0.231935
5 66 100 13 0.00349107
7 66 100 13 0.988965
8 66 100 13 0.00754414
4 67 100 13 0.00462202
5 67 100 13 0.0898377
6 67 100 13 0.90554
6 68 100 13 1
5 69 100 13 0.000492881
6 69 100 13 0.999507
4 70 100 13 0.00350169
5 70 100 13 0.47154
6 70 100 13 0.524959
5 71 100 13 0.020769
6 71 100 13 0.979231
4 73 100 13 0.000105046
5 73 100 13 0.0208782
6 73 100 13 0.979017
5 74 100 13 0.170542
6 74 100 13 0.829458
4 75 100 13 0.26961
5 75 100 13 0.402432
6 75 100 13 0.327957
5 76 100 13 0.0186521
6 76 100 13 0.981348
5 77 100 13 0.963346
6 77 100 13 0.0366543
5 78 100 13 0.0579843
6 78 100 13 0.942016
1 79 100 13 0.980456
5 79 100 13 0.0195441
5 80 100 13 0.768651
6 80 100 13 0.231349
4 81 100 13 1
4 82 100 13 0.997363
6 82 100 13 0.0026366
5 83 100 13 0.931088
6 83 100 13 0.0689119
5 84 100 13 0.106053
6 84 100 13 0.893947
1 85 100 13 0.265639
2 85 100 13 0.26794
3 85 100 13 0.267945
4 85 100 13 0.195887
5 85 100 13 4.44582e-05
6 85 100 13 7.51994e-06
7 85 100 13 0.00253719
5 86 100 13 0.00333712
6 86 100 13 0.996663
5 87 100 13 0.00604013
6 87 100 13 0.99396
5 88 100 13 0.0773677
6 88 100 13 0.922632
5 89 100 13 0.00673226
6 89 100 13 0.993268
5 90 100 13 0.0621475
6 90 100 13 0.937853
5 92 100 13 0.721625
6 92 100 13 0.278375
5 93 100 13 0.779226
6 93 100 13 0.220774
6 95 100 13 1
4 96 100 13 0.0592566
12 96 100 13 0.940743
6 98 100 13 1
5 99 100 13 0.00146068
6 99 100 13 0.998539
5 100 100 13 0.791279
6 100 100 13 0.208721
1 0 100 14 6.83281e-05
2 0 100 14 0.0393781
3 0 100 14 0.107973
4 0 100 14 0.0957343
5 0 100 14 0.0386964
6 0 100 14 0.0578475
7 0 100 14 0.137706
8 0 100 14 0.0820514
9 0 100 14 0.0562393
10 0 100 14 0.0794513
11 0 100 14 0.0893866
12 0 100 14 0.123815
13 0 100 14 0.0508323
14 0 100 14 0.0408192
1 1 100 14 0.0385497
2 1 100 14 0.0767385
3 1 100 14 0.0385318
4 1 100 14 0.0384716
5 1 100 14 0.115383
6 1 100 14 0.0384716
7 1 100 14 0.0386937
8 1 100 14 0.0765717
9 1 100 14 0.0769394
10 1 100 14 0.0769286
11 1 100 14 0.0769432
12 1 100 14 0.0384728
13 1 100 14 0.115418
14 1 100 14 0.153886
1 2 100 14 0.268438
2 2 100 14 0.161451
3 2 100 14 0.0814785
4 2 100 14 0.0813842
5 2 100 14 0.0814785
6 2 100 14 0.000129649
7 2 100 14 0.0814121
9 2 100 14 0.0814785
10 2 100 14 0.0812714
11 2 100 14 0.0814785
1 3 100 14 0.0616748
2 3 100 14 6.0738e-05
3 3 100 14 0.0617082
4 3 100 14 0.0616927
5 3 100 14 0.0616748
6 3 100 14 0.123334
7 3 100 14 0.0137336
8 3 100 14 0.123289
9 3 100 14 0.12334
10 3 100 14 0.0616748
11 3 100 14 0.122467
12 3 100 14 0.0616782
13 3 100 14 0.0619978
14 3 100 14 0.0616748
1 4 100 14 0.0874343
4 4 100 14 4.06484e-06
5 4 100 14 1.32855e-05
6 4 100 14 0.0813276
7 4 100 14 0.0993354
8 4 100 14 0.160958
9 4 100 14 0.162484
10 4 100 14 0.162457
11 4 100 14 0.00212697
12 4 100 14 0.0812441
13 4 100 14 0.0813715
14 4 100 14 0.0812441
1 5 100 14 0.108509
2 5 100 14 0.157427
3 5 100 14 0.0673647
4 5 100 14 0.0784076
5 5 100 14 0.0784191
6 5 100 14 0.0392092
8 5 100 14 1.54058e-06
9 5 100 14 0.0392092
10 5 100 14 0.0392092
11 5 100 14 0.117627
12 5 100 14 0.117627
13 5 100 14 0.0785852
14 5 100 14 0.0784036
1 6 100 14 7.63784e-07
2 6 100 14 0.0375401
3 6 100 14 0.0663514
4 6 100 14 0.0376106
5 6 100 14 0.0749408
6 6 100 14 0.0749631
7 6 100 14 0.112437
8 6 100 14 0.110767
9 6 100 14 0.0748615
10 6 100 14 0.0747109
11 6 100 14 0.0746744
12 6 100 14 0.0375417
13 6 100 14 0.110966
14 6 100 14 0.112635
1 7 100 14 0.106482
4 7 100 14 0.00483408
7 7 100 14 0.000251078
8 7 100 14 0.888433
1 8 100 14 0.147139
2 8 100 14 0.144184
3 8 100 14 0.0723269
4 8 100 14 0.0750775
5 8 100 14 2.31855e-06
6 8 100 14 0.0723652
7 8 100 14 0.0723879
8 8 100 14 2.20325e-06
10 8 100 14 0.0647714
11 8 100 14 0.0010758
12 8 100 14 0.0658186
13 8 100 14 0.144356
14 8 100 14 0.140493
1 9 100 14 0.000841218
2 9 100 14 0.000189608
4 9 100 14 0.0556432
5 9 100 14 0.165694
6 9 100 14 0.110819
7 9 100 14 0.110683
8 9 100 14 0.166902
9 9 100 14 0.111286
10 9 100 14 0.0540249
11 9 100 14 0.111786
12 9 100 14 0.111289
14 9 100 14 0.000842534
1 10 100 14 0.00758093
3 10 100 14 0.00203835
9 10 100 14 0.000947544
10 10 100 14 0.315301
11 10 100 14 0.315276
13 10 100 14 0.0435736
14 10 100 14 0.315283
1 11 100 14 0.0020981
2 11 100 14 0.000126938
3 11 100 14 0.110871
4 11 100 14 0.110794
5 11 100 14 0.110873
7 11 100 14 0.110874
9 11 100 14 0.110873
11 11 100 14 0.110873
12 11 100 14 0.110873
13 11 100 14 0.110873
14 11 100 14 0.110873
1 12 100 14 0.142415
2 12 100 14 0.278267
3 12 100 14 0.266344
4 12 100 14 0.143183
5 12 100 14 0.0266983
6 12 100 14 0.143039
13 12 100 14 5.33864e-05
1 13 100 14 0.182459
4 13 100 14 0.136357
5 13 100 14 0.136296
6 13 100 14 0.136357
8 13 100 14 0.136357
9 13 100 14 0.136357
10 13 100 14 0.135818
1 14 100 14 0.335656
2 14 100 14 0.0315525
9 14 100 14 0.00145302
13 14 100 14 0.631339
1 15 100 14 0.111228
2 15 100 14 0.111247
3 15 100 14 0.11122
4 15 100 14 0.11122
5 15 100 14 0.111106
6 15 100 14 0.11122
7 15 100 14 0.11122
8 15 100 14 0.109961
9 15 100 14 0.11122
13 15 100 14 0.000358656
1 16 100 14 0.104339
2 16 100 14 0.0263596
3 16 100 14 0.0930182
4 16 100 14 0.092984
5 16 100 14 0.0929616
6 16 100 14 0.0929686
7 16 100 14 0.0933369
8 16 100 14 8.39812e-07
9 16 100 14 0.0930507
10 16 100 14 0.0929891
11 16 100 14 0.0929682
12 16 100 14 0.0930953
13 16 100 14 0.0165838
14 16 100 14 0.0153444
1 17 100 14 0.164666
2 17 100 14 0.171052
3 17 100 14 0.160805
4 17 100 14 0.160442
5 17 100 14 0.00113354
6 17 100 14 1.86404e-05
7 17 100 14 8.73935e-05
8 17 100 14 5.45423e-06
9 17 100 14 6.25746e-06
10 17 100 14 6.84518e-05
11 17 100 14 0.000390999
12 17 100 14 7.37793e-05
13 17 100 14 0.189675
14 17 100 14 0.151576
1 18 100 14 0.949101
2 18 100 14 0.000341017
3 18 100 14 0.00035044
4 18 100 14 9.11573e-06
5 18 100 14 0.000565059
7 18 100 14 0.0377224
8 18 100 14 2.79793e-05
10 18 100 14 2.1424e-05
11 18 100 14 2.18943e-05
12 18 100 14 0.00758248
13 18 100 14 0.00423297
14 18 100 14 2.40577e-05
1 19 100 14 0.0209398
2 19 100 14 0.322637
3 19 100 14 0.00209661
4 19 100 14 1.54137e-05
5 19 100 14 0.000554909
6 19 100 14 0.616062
7 19 100 14 0.000733438
8 19 100 14 2.09557e-05
10 19 100 14 0.0287564
11 19 100 14 0.000183102
12 19 100 14 0.00105518
13 19 100 14 0.00530022
14 19 100 14 0.00164443
1 20 100 14 0.49112
2 20 100 14 0.507451
3 20 100 14 3.74382e-05
4 20 100 14 2.93002e-05
7 20 100 14 2.59378e-05
8 20 100 14 2.12414e-05
9 20 100 14 1.72077e-06
11 20 100 14 0.000122243
12 20 100 14 2.63882e-05
13 20 100 14 4.91123e-05
14 20 100 14 0.0011153
1 21 100 14 0.000836053
2 21 100 14 0.00374211
3 21 100 14 7.37387e-06
4 21 100 14 0.000414877
5 21 100 14 0.149065
6 21 100 14 0.172466
7 21 100 14 1.76611e-05
8 21 100 14 0.154562
9 21 100 14 0.17249
10 21 100 14 0.172713
11 21 100 14 4.60636e-05
12 21 100 14 0.173455
13 21 100 14 5.80695e-05
14 21 100 14 0.000126971
2 22 100 14 7.18256e-06
3 22 100 14 0.764025
4 22 100 14 6.30908e-05
5 22 100 14 0.000543992
7 22 100 14 0.0738936
8 22 100 14 0.000490188
10 22 100 14 0.000149983
11 22 100 14 0.000459117
12 22 100 14 0.157274
13 22 100 14 0.000486541
14 22 100 14 0.00260776
1 23 100 14 5.35603e-06
11 23 100 14 0.000413059
12 23 100 14 0.000178611
13 23 100 14 0.999403
2 24 100 14 7.50512e-06
3 24 100 14 4.20999e-05
4 24 100 14 7.29376e-06
5 24 100 14 4.00004e-06
8 24 100 14 6.68993e-07
10 24 100 14 4.86936e-07
11 24 100 14 0.245313
12 24 100 14 0.215791
13 24 100 14 0.275457
14 24 100 14 0.263377
1 25 100 14 6.13902e-05
2 25 100 14 2.34024e-05
3 25 100 14 0.000116276
4 25 100 14 0.000297027
5 25 100 14 5.45215e-06
6 25 100 14 2.89571e-05
7 25 100 14 0.984141
9 25 100 14 6.65164e-06
12 25 100 14 4.85046e-05
13 25 100 14 0.0152715
1 26 100 14 0.205874
3 26 100 14 6.75823e-05
5 26 100 14 0.00577569
7 26 100 14 0.000180403
8 26 100 14 0.0010477
11 26 100 14 0.579151
13 26 100 14 0.0024104
14 26 100 14 0.205493
1 27 100 14 0.00040141
2 27 100 14 0.00399944
4 27 100 14 0.000170467
7 27 100 14 5.71569e-05
11 27 100 14 0.0118585
12 27 100 14 0.0247159
13 27 100 14 0.0640572
14 27 100 14 0.89474
1 28 100 14 0.499987
2 28 100 14 0.499481
3 28 100 14 2.82263e-05
4 28 100 14 4.24047e-05
5 28 100 14 1.65257e-05
7 28 100 14 5.30865e-07
8 28 100 14 2.75396e-06
9 28 100 14 8.06652e-07
10 28 100 14 0.000173437
11 28 100 14 5.68622e-06
12 28 100 14 4.79982e-05
13 28 100 14 0.000205716
14 28 100 14 8.49854e-06
1 29 100 14 0.0020915
2 29 100 14 0.000718286
3 29 100 14 0.000488422
4 29 100 14 0.184585
5 29 100 14 0.00674774
7 29 100 14 0.000363201
8 29 100 14 0.000863781
11 29 100 14 0.000472912
12 29 100 14 4.02172e-05
13 29 100 14 0.663491
14 29 100 14 0.140137
1 30 100 14 0.00017885
2 30 100 14 0.000286409
5 30 100 14 0.000210262
7 30 100 14 0.000266814
11 30 100 14 0.00119002
12 30 100 14 0.108229
13 30 100 14 0.88835
14 30 100 14 0.00128836
2 31 100 14 0.00918532
3 31 100 14 0.000492092
4 31 100 14 0.983329
5 31 100 14 0.00157455
12 31 100 14 0.00541886
1 32 100 14 0.976955
2 32 100 14 5.70916e-05
3 32 100 14 0.002365
4 32 100 14 0.00416528
7 32 100 14 4.05475e-05
8 32 100 14 0.00341514
9 32 100 14 0.00625446
11 32 100 14 3.71146e-05
12 32 100 14 0.000131145
13 32 100 14 0.00655351
14 32 100 14 2.52397e-05
2 33 100 14 0.0100506
3 33 100 14 0.0592232
4 33 100 14 0.00623567
5 33 100 14 0.0107407
7 33 100 14 0.00336615
8 33 100 14 0.00332017
13 33 100 14 0.907064
5 34 100 14 0.00714692
7 34 100 14 0.322373
8 34 100 14 0.000776109
11 34 100 14 0.000197486
12 34 100 14 0.668567
13 34 100 14 0.000938928
1 35 100 14 0.892794
2 35 100 14 0.0599542
3 35 100 14 6.04539e-06
4 35 100 14 0.000679995
5 35 100 14 0.000510004
7 35 100 14 0.00507207
12 35 100 14 0.00631945
13 35 100 14 0.034664
1 36 100 14 0.874517
2 36 100 14 0.0976554
5 36 100 14 1.6254e-05
7 36 100 14 0.00104415
11 36 100 14 0.0263915
12 36 100 14 0.000375502
1 37 100 14 0.000871371
4 37 100 14 2.39245e-06
7 37 100 14 0.000104563
10 37 100 14 6.94612e-07
11 37 100 14 0.315207
12 37 100 14 2.52264e-06
13 37 100 14 0.341919
14 37 100 14 0.341892
1 38 100 14 0.110589
2 38 100 14 0.110589
3 38 100 14 0.110597
4 38 100 14 0.110592
5 38 100 14 0.110591
6 38 100 14 0.110589
7 38 100 14 0.110364
8 38 100 14 2.91055e-07
9 38 100 14 0.110583
10 38 100 14 0.110506
11 38 100 14 0.00460488
13 38 100 14 1.47622e-07
14 38 100 14 0.00039418
1 39 100 14 0.000293552
2 39 100 14 0.139291
3 39 100 14 0.172898
4 39 100 14 0.172918
5 39 100 14 0.16997
6 39 100 14 0.1728
7 39 100 14 0.165242
8 39 100 14 0.0065859
9 39 100 14 1.77385e-07
14 39 100 14 5.07117e-07
2 40 100 14 0.579273
3 40 100 14 0.000567412
4 40 100 14 0.237941
5 40 100 14 0.0112412
13 40 100 14 0.170978
1 41 100 14 0.999501
2 41 100 14 2.31383e-06
7 41 100 14 0.000485005
8 41 100 14 2.72027e-06
9 41 100 14 2.72027e-06
12 41 100 14 2.68624e-06
13 41 100 14 3.74498e-06
2 42 100 14 0.00011462
3 42 100 14 0.0289709
4 42 100 14 0.970914
1 43 100 14 0.226426
3 43 100 14 0.138451
4 43 100 14 0.48351
12 43 100 14 0.151613
2 44 100 14 0.000725298
3 44 100 14 0.00449285
4 44 100 14 0.000384798
9 44 100 14 0.294336
12 44 100 14 0.68756
13 44 100 14 0.0125011
4 45 100 14 0.954783
7 45 100 14 0.0452166
1 46 100 14 0.000386908
2 46 100 14 0.000176575
3 46 100 14 0.0020359
4 46 100 14 0.754994
11 46 100 14 7.17704e-05
13 46 100 14 0.229799
14 46 100 14 0.012536
2 47 100 14 0.00164988
3 47 100 14 0.013301
4 47 100 14 0.938215
12 47 100 14 0.0468339
1 48 100 14 3.01149e-05
3 48 100 14 8.76233e-05
5 48 100 14 0.00394297
6 48 100 14 0.995939
2 49 100 14 0.170379
3 49 100 14 0.00038434
8 49 100 14 0.589989
9 49 100 14 0.239248
2 50 100 14 0.272848
4 50 100 14 0.727152
3 51 100 14 7.39267e-06
4 51 100 14 3.32187e-05
11 51 100 14 0.00527094
12 51 100 14 0.994688
4 52 100 14 0.0339671
7 52 100 14 0.00599669
8 52 100 14 0.0154924
9 52 100 14 0.0100973
11 52 100 14 0.934447
1 53 100 14 0.000433971
3 53 100 14 0.000564982
4 53 100 14 0.000863907
8 53 100 14 0.000900303
9 53 100 14 0.00353274
12 53 100 14 0.993704
1 54 100 14 0.332913
2 54 100 14 0.332852
3 54 100 14 0.331946
4 54 100 14 0.00221814
9 54 100 14 7.12491e-05
2 55 100 14 0.005242
5 55 100 14 0.00439846
6 55 100 14 0.98766
8 55 100 14 0.000911639
9 55 100 14 0.000593909
10 55 100 14 0.00119417
4 56 100 14 0.00196468
10 56 100 14 0.970267
11 56 100 14 0.0277679
4 57 100 14 1
2 58 100 14 0.992213
3 58 100 14 0.0011401
7 58 100 14 0.00664712
9 59 100 14 0.0201952
13 59 100 14 0.979805
7 60 100 14 1
8 61 100 14 0.992839
9 61 100 14 0.00716117
4 62 100 14 0.997764
7 62 100 14 0.00223634
7 63 100 14 0.571916
8 63 100 14 0.0480142
9 63 100 14 0.38007
3 64 100 14 0.000190585
4 64 100 14 0.089585
5 64 100 14 0.116767
6 64 100 14 0.116837
7 64 100 14 2.73719e-06
8 64 100 14 0.0722653
9 64 100 14 0.0209089
10 64 100 14 0.116836
11 64 100 14 0.116836
12 64 100 14 0.116838
13 64 100 14 0.116146
14 64 100 14 0.116788
3 65 100 14 0.000419891
4 65 100 14 0.999246
5 65 100 14 4.10861e-05
6 65 100 14 3.55866e-05
8 65 100 14 6.82479e-05
9 65 100 14 5.80805e-05
10 65 100 14 3.43401e-05
11 65 100 14 3.05753e-05
12 65 100 14 2.68733e-05
13 65 100 14 2.31796e-05
14 65 100 14 1.65481e-05
7 66 100 14 0.00261353
9 66 100 14 0.00948855
10 66 100 14 0.987898
2 67 100 14 0.187146
8 67 100 14 0.812854
4 68 100 14 0.207158
7 68 100 14 0.0976857
8 68 100 14 0.440157
9 68 100 14 0.254999
6 69 100 14 0.987435
7 69 100 14 0.0123253
8 69 100 14 0.00013286
9 69 100 14 0.000106942
4 70 100 14 0.983086
7 70 100 14 0.00634274
8 70 100 14 0.0105715
7 71 100 14 0.195748
8 71 100 14 0.494073
9 71 100 14 0.310179
6 72 100 14 0.821756
7 72 100 14 0.00494893
10 72 100 14 0.000368627
11 72 100 14 0.172927
2 73 100 14 0.42143
8 73 100 14 0.367065
9 73 100 14 0.211505
8 76 100 14 0.000679667
9 76 100 14 0.000238861
12 76 100 14 0.999081
11 77 100 14 1
11 78 100 14 0.00602915
12 78 100 14 0.993971
1 79 100 14 2.43464e-06
2 79 100 14 1.83604e-07
7 79 100 14 0.00742607
8 79 100 14 0.161025
9 79 100 14 0.165907
10 79 100 14 0.165928
12 79 100 14 0.1666
13 79 100 14 0.166538
14 79 100 14 0.166573
9 80 100 14 1
9 81 100 14 0.244311
10 81 100 14 0.755689
2 82 100 14 0.999189
5 82 100 14 0.00081131
11 86 100 14 1
1 0 100 15 4.67652e-05
2 0 100 15 0.113844
3 0 100 15 0.157905
4 0 100 15 0.0999084
5 0 100 15 0.0535526
6 0 100 15 0.0332396
7 0 100 15 0.0614125
8 0 100 15 0.11875
9 0 100 15 0.0507516
10 0 100 15 0.0349551
11 0 100 15 0.125656
12 0 100 15 0.0343595
13 0 100 15 0.079853
14 0 100 15 0.0164576
15 0 100 15 0.019309
1 1 100 15 0.0988862
2 1 100 15 0.0434299
3 1 100 15 0.0917053
4 1 100 15 0.0827621
5 1 100 15 0.0767903
6 1 100 15 0.0433314
7 1 100 15 0.129994
8 1 100 15 0.0434841
9 1 100 15 4.81343e-07
11 1 100 15 0.0433314
12 1 100 15 0.0866134
13 1 100 15 0.0433314
14 1 100 15 0.129683
15 1 100 15 0.0866566
1 2 100 15 0.0922888
2 2 100 15 0.0916186
3 2 100 15 0.0888961
4 2 100 15 0.09159
5 2 100 15 0.118795
6 2 100 15 0.108981
7 2 100 15 0.0609131
8 2 100 15 0.0306771
9 2 100 15 0.0610546
10 2 100 15 0.0900587
11 2 100 15 0.0430407
12 2 100 15 0.0305369
13 2 100 15 0.0305249
14 2 100 15 0.0305107
15 2 100 15 0.0305144
1 3 100 15 0.0583071
2 3 100 15 1.70509e-05
3 3 100 15 0.0365237
4 3 100 15 0.0365365
5 3 100 15 0.0365357
6 3 100 15 0.0365358
7 3 100 15 0.109608
8 3 100 15 0.109592
9 3 100 15 0.178514
10 3 100 15 0.109573
11 3 100 15 0.0375241
