0 3 0.216436
0 8 0.0658053
0 15 0.00244931
0 16 0.307642
0 19 0.0491499
0 24 2.38317e-07
0 25 0.045695
0 27 0.0721456
0 29 0.0390257
0 50 0.00146351
0 60 0.0148598
0 61 1.17871e-07
0 63 5.0305e-07
0 69 0.00243425
0 71 0.0169005
0 78 0.00327424
0 79 0.0595048
0 88 0.0796462
0 93 0.000459304
0 123 3.55183e-07
0 137 0.00801889
0 202 1.98547e-07
0 212 0.0146928
0 287 8.12923e-07
0 459 3.50755e-06
0 884 0.000298173
0 1048 1.60445e-05
0 1342 7.48547e-05
2 2 0.666744
2 19 0.000228655
2 71 0.249684
2 1997 0.083343
3 3 0.983838
3 9 0.00611785
3 71 0.00886186
3 79 1.34991e-05
3 910 0.00113259
3 2071 3.56372e-05
4 4 0.571429
4 61 0.142857
4 1487 0.285714
5 5 1
6 6 0.666667
6 359 0.333333
7 96 0.928571
7 136 0.0714295
8 7 0.07848
8 60 0.905373
8 65 0.0104702
8 96 0.00559667
8 2299 7.96843e-05
9 47 0.967219
9 88 0.0327811
10 7 1
11 12 0.4
11 437 0.4
11 1049 0.2
12 3 0.0607883
12 8 0.828857
12 79 0.0549022
12 97 0.0554528
13 9 0.5
13 563 0.5
14 10 0.909859
14 69 0.0486506
14 103 0.00694548
14 205 0.00694549
14 631 0.00676266
14 1052 0.013891
14 1953 0.00694549
15 11 0.857143
15 489 0.142857
16 13 0.5
16 32 0.5
17 14 0.74995
17 60 6.61744e-05
17 1218 0.249983
18 15 0.333328
18 36 0.333336
18 394 0.333336
19 8 2.94465e-06
19 16 0.993177
19 56 0.00432822
19 71 1.2953e-07
19 476 0.00124559
19 879 3.91492e-07
19 1220 0.00124563
20 17 0.941176
20 1749 0.0588235
21 18 1
22 19 0.962958
22 22 0.0162767
22 61 6.37761e-07
22 221 0.00814828
22 334 0.00407395
22 1927 0.00407396
22 2091 0.000452672
22 2299 0.00401595
23 20 1
24 21 1
25 22 1
26 19 0.0148484
26 144 0.96926
26 1011 0.0158537
26 1074 3.81126e-05
27 25 0.0517422
27 29 0.948258
28 23 0.169417
28 24 0.169417
28 25 0.153352
28 26 0.169417
28 27 0.168981
28 28 0.169417
29 15 0.866957
29 50 0.0112412
29 88 0.121411
29 1048 0.000390094
30 3 0.000200517
30 29 0.897187
30 36 0.0876866
30 50 0.00798576
30 667 0.00689554
30 873 9.27943e-07
30 1208 4.37147e-05
31 30 0.9375
31 276 0.0625
32 31 1
33 10 0.00348551
33 19 0.0061537
33 27 0.990361
34 33 0.285714
34 384 0.285714
34 1102 0.285714
34 2172 0.142857
35 26 0.97619
35 1778 0.0238095
36 25 1.15325e-06
36 79 0.0275137
36 198 0.936945
36 221 0.00798088
36 868 0.0275588
37 22 0.258636
37 25 0.223681
37 34 0.258842
37 35 0.258842
38 37 0.5
38 38 0.5
39 39 1
40 40 1
41 41 1
42 42 1
43 43 0.916667
43 432 0.0833333
44 44 0.942856
44 306 0.0377143
44 446 0.0194298
45 45 0.5
45 205 0.125
45 436 0.25
45 2223 0.125
46 46 1
47 48 1
48 49 0.777778
48 1151 0.111111
48 1492 0.111111
49 50 0.99451
49 394 0.0054899
49 952 1.06707e-07
50 51 0.6
50 1558 0.4
51 52 0.08
51 324 0.92
52 53 0.0714279
52 54 0.0714279
52 196 0.857144
53 55 1
54 10 0.2
54 36 0.2
54 56 0.2
54 69 0.2
54 232 0.2
55 57 0.5
55 58 0.5
56 59 1
57 61 0.985991
57 366 0.0140093
58 62 1
59 19 0.166665
59 63 0.833335
60 40 0.000496271
60 64 0.799603
60 1828 0.199901
61 8 0.956233
61 79 0.00013096
61 97 0.0245455
61 197 0.00490911
61 262 0.00981821
61 2091 0.00436364
62 25 0.0101002
62 37 0.919185
62 100 0.0101011
62 123 0.0101011
62 188 0.0303034
62 242 0.0101078
62 1546 0.0101011
63 66 1
64 67 0.956522
64 2287 0.0434783
65 68 0.5
65 1010 0.5
66 69 0.0301789
66 212 0.909187
66 428 0.0606337
67 70 1
68 2 0.107399
68 71 0.865523
68 255 0.0201406
68 605 0.00693653
68 2028 1.10369e-06
69 16 0.00223742
69 25 0.99776
69 79 1.70409e-06
69 807 5.26857e-07
70 72 1
71 73 1
72 74 1
73 10 0.25027
73 19 0.249189
73 75 0.25027
73 476 0.25027
74 76 0.75
74 558 0.25
75 56 0.0333333
75 77 0.9
75 123 0.0666667
76 37 0.00522207
76 78 0.884828
76 139 0.00521405
76 181 0.0990398
76 286 0.000481425
76 631 2.19969e-06
76 2391 0.0052126
77 79 0.974633
77 123 0.00699354
77 140 1.35034e-06
77 221 0.00697561
77 331 0.00697561
77 2191 0.00442045
78 80 1
79 81 0.972222
79 429 0.0277778
80 82 0.25
80 83 0.25
80 601 0.25
80 2021 0.25
81 50 0.0585079
81 84 0.941492
82 85 1
83 86 0.875
83 1528 0.125
84 87 0.5
84 164 0.25
84 2297 0.25
85 15 0.166177
85 50 0.0134005
85 79 0.0016439
85 88 0.792531
85 195 0.00437449
85 197 0.0131236
85 1617 1.70148e-07
85 1873 0.00437449
85 1980 0.00437449
86 89 1
87 90 1
88 91 1
89 92 1
90 39 0.166667
90 63 0.166667
90 144 0.166667
90 198 0.166667
90 843 0.166667
90 1791 0.166667
91 93 1
92 94 1
93 95 1
94 3 0.0149522
94 8 0.0304429
94 16 0.0161632
94 97 0.889902
94 112 0.03236
94 184 0.01618
95 98 1
96 99 1
97 100 1
98 101 1
99 24 0.981652
99 1596 0.00917432
99 2503 0.0091738
100 102 1
101 102 1
102 103 0.25
102 104 0.75
103 105 1
104 3 1
105 106 1
106 107 1
107 108 0.923077
107 817 0.0769231
108 3 0.00223876
108 8 0.0283311
108 15 0.0249793
108 16 0.0253232
108 29 0.0249443
108 88 0.0697187
108 109 0.799481
108 1190 0.0249838
109 110 1
110 111 0.5
110 978 0.5
111 29 0.110741
111 112 0.778101
111 1448 0.111157
112 113 1
113 114 0.0555556
113 298 0.777778
113 765 0.111111
113 2233 0.0555556
114 115 1
115 116 1
116 117 1
117 118 1
118 119 1
119 120 0.888889
119 1344 0.111111
120 24 0.333333
120 81 0.333333
120 121 0.333333
121 122 1
122 79 0.110394
122 123 0.852535
122 388 0.0370709
123 124 1
124 125 0.615385
124 127 0.153846
124 196 0.153846
124 2385 0.0769231
125 126 1
126 50 0.0228484
126 71 0.0228137
126 125 0.0456274
126 127 0.661598
126 194 0.0228137
126 196 0.0228137
126 342 0.0228137
126 1342 0.0189756
126 1500 0.0228137
126 1543 0.0228137
126 1581 0.0228137
126 1622 0.0684412
126 2197 0.0228137
127 128 0.971429
127 1681 0.0285714
128 129 0.75
128 1243 0.25
129 130 0.666667
129 340 0.166667
129 2512 0.166667
130 131 1
131 16 0.0796362
131 132 0.832945
131 593 0.0219196
131 1965 0.0219188
131 2028 0.021916
131 2071 0.0216642
132 27 0.135073
132 88 0.0324556
132 133 0.832472
133 134 1
134 135 0.81251
134 139 0.18749
135 3 1.40236e-06
135 96 0.124999
135 136 0.862499
135 1937 0.0125
136 137 1
137 25 0.664301
137 138 0.335699
138 135 0.131533
138 139 0.868119
138 515 0.000348042
139 67 0.0477589
139 140 0.811901
139 142 0.0468973
139 2519 0.0477589
139 2571 0.0456838
140 141 1
141 100 0.49553
141 142 0.00893988
141 143 0.49553
142 145 1
143 146 1
144 147 1
145 19 0.0185178
145 78 0.0183994
145 148 0.963083
146 149 0.5
146 380 0.5
147 150 0.75
147 1305 0.25
148 151 0.5
148 152 0.5
149 153 0.980769
149 1169 0.0192308
150 154 0.833334
150 1518 0.166666
151 155 0.981251
151 205 0.000235422
151 1486 0.018514
152 156 1
153 39 0.333333
153 157 0.666667
154 158 1
155 159 1
156 160 1
157 161 1
158 79 0.0444907
158 114 0.910009
158 1158 0.0455004
159 162 1
160 163 1
161 164 1
162 165 1
163 166 1
164 167 1
165 169 0.916646
165 567 0.00129541
165 948 0.0683818
165 1552 0.0136764
165 1965 5.00378e-07
166 168 0.499998
166 170 0.500002
167 171 1
168 172 1
169 173 1
170 174 1
171 175 1
172 176 1
173 177 1
174 178 1
175 27 0.0245268
175 81 0.0348969
175 133 0.0332581
175 179 0.837524
175 891 0.0697937
176 180 1
177 181 1
178 25 1
179 182 0.166667
179 183 0.166667
179 184 0.666667
180 51 1
181 185 0.875
181 2271 0.125
182 186 1
183 187 1
184 123 0.0188679
184 148 0.0188679
184 188 0.924528
184 1277 0.0188679
184 1673 0.0188679
185 181 0.00909029
185 189 0.954549
185 803 0.00909029
185 1067 0.00909029
185 1708 0.00909029
185 2243 0.00909029
186 190 1
187 191 1
188 192 1
189 193 0.238095
189 268 0.714286
189 1232 0.0238095
189 1499 0.0238095
190 50 0.111116
190 297 0.777773
190 1732 0.11111
191 153 0.125
191 298 0.25
191 368 0.625
192 197 0.896104
192 430 0.0519481
192 473 0.012987
192 488 0.012987
192 937 0.0129868
192 1853 0.012987
193 199 1
194 200 1
195 201 1
196 15 0.250675
196 25 0.123076
196 88 0.375574
196 197 0.125337
196 2117 0.125338
197 202 0.499985
197 203 0.500015
198 204 0.625002
198 305 0.125
198 870 0.124998
198 1250 0.125
199 48 0.0770771
199 205 0.154155
199 379 0.614613
199 385 0.0770774
199 951 0.0770773
200 206 1
201 8 0.110717
201 137 0.221994
201 207 0.111215
201 210 0.444859
201 1496 0.111215
202 208 1
203 209 0.9375
203 271 0.0625
204 211 1
205 213 0.8
205 887 0.2
206 214 1
207 215 1
208 216 1
209 217 1
210 218 0.666667
210 682 0.333333
211 219 1
212 220 1
213 221 1
214 222 0.875
214 1936 0.125
215 223 1
216 224 1
217 15 0.499907
217 225 0.500093
218 97 0.5
218 2175 0.5
219 226 1
220 227 1
221 228 1
222 229 1
223 228 0.333333
223 410 0.666667
224 230 0.25
224 646 0.25
224 718 0.5
225 231 1
226 233 0.571429
226 1320 0.142857
226 1476 0.142857
226 1703 0.142857
227 234 0.25
227 1095 0.25
227 1279 0.25
227 2616 0.25
228 63 0.19997
228 235 0.80003
229 236 1
230 237 1
231 238 0.5
231 825 0.5
232 239 1
233 240 0.5
233 763 0.5
234 241 1
235 242 1
236 243 1
237 244 1
238 245 1
239 246 1
240 247 1
241 248 1
242 249 1
243 250 1
244 251 1
245 252 0.25
245 263 0.5
245 1790 0.25
246 255 0.200004
246 926 0.799996
247 253 0.5
247 254 0.5
248 256 1
249 1860 1
250 257 1
251 257 1
252 258 1
253 32 0.2
253 188 0.2
253 259 0.2
253 260 0.2
253 261 0.2
254 8 0.428464
254 262 0.571536
255 264 1
256 265 1
257 266 1
258 267 1
259 205 1
260 269 1
261 270 1
262 24 0.143267
262 88 0.140382
262 204 0.14327
262 205 0.14327
262 272 0.14327
262 273 0.14327
262 393 0.14327
263 274 1
264 275 1
265 276 1
266 37 0.166667
266 277 0.333333
266 516 0.166667
266 768 0.166667
266 2119 0.166667
267 25 2.58001e-06
267 278 0.636362
267 307 0.0909089
267 346 0.0909089
267 1914 0.0909089
267 1941 0.0909089
268 279 1
269 280 0.75
269 842 0.25
270 79 0.249996
270 281 0.500003
270 2132 0.250001
271 282 1
272 283 1
273 284 1
274 61 0.333333
274 285 0.333333
274 1220 0.333333
275 286 0.90807
275 309 0.018532
275 455 0.0548657
275 823 0.018532
276 40 0.0909094
276 169 0.0909064
276 287 0.727275
276 1459 0.0909094
277 32 0.875
277 1384 0.125
278 288 1
279 289 0.5
279 1587 0.5
280 290 1
281 291 1
282 160 0.1
282 540 0.8
282 1483 0.1
283 106 0.0526316
283 292 0.105263
283 294 0.0526316
283 468 0.684211
283 936 0.0526316
283 1951 0.0526316
284 293 0.888889
284 364 0.0555556
284 1214 0.0555556
285 197 0.166667
285 294 0.666667
285 1745 0.166667
286 41 0.142857
286 188 0.142856
286 295 0.714286
287 296 1
288 50 0.333321
288 394 0.666679
289 2 0.0555769
289 16 0.104234
289 19 0.0621276
289 27 0.055561
289 56 0.7225
290 299 1
291 300 1
292 37 0.0833333
292 301 0.75
292 896 0.166667
293 302 0.75013
293 1839 0.24987
294 93 0.0416665
294 303 0.958333
294 1478 5.12333e-07
295 304 1
296 305 0.666667
296 843 0.333333
297 306 1
298 8 0.166313
298 43 0.166737
298 278 0.166737
298 307 0.333475
298 1405 0.166737
299 308 1
300 292 1
301 310 1
302 311 1
303 160 0.16782
303 312 0.671296
303 1048 0.160884
304 313 1
305 2 0.0476177
305 71 0.0476459
305 314 0.809501
305 842 0.0476177
305 1281 0.0476177
306 315 1
307 48 0.125
307 316 0.875
308 15 1
309 317 1
310 318 1
311 319 1
312 320 0.909091
312 1146 0.0909091
313 30 0.25
313 321 0.75
314 322 1
315 323 0.666667
315 367 0.333333
316 325 0.77427
316 499 0.0966851
316 899 0.129045
317 326 1
318 327 1
319 328 1
320 329 0.25
320 514 0.5
320 926 0.25
321 330 1
322 196 1
323 97 0.000730404
323 184 0.199854
323 286 0.199854
323 331 0.199854
323 1301 0.199854
323 1751 0.199854
324 332 1
325 333 0.8
325 358 0.2
326 8 0.077156
326 334 0.780868
326 459 0.070988
326 891 0.0709879
327 335 1
328 36 0.111127
328 336 0.110982
328 339 0.444509
328 1485 0.222254
328 1639 0.111127
329 29 0.0624944
329 336 0.562547
329 339 0.0624961
329 446 0.0624783
329 1413 0.0624961
329 1485 0.0624961
329 1817 0.0624961
329 2225 0.0624961
330 337 1
331 309 0.0714281
331 338 0.821423
331 1079 0.107149
332 340 1
333 330 1
334 341 1
335 343 1
336 344 1
337 345 1
338 296 0.8
338 347 0.2
339 10 0.0833333
339 36 0.833333
339 1027 0.0833333
340 348 1
341 349 0.1
341 388 0.5
341 873 0.1
341 2063 0.1
341 2170 0.1
341 2430 0.1
342 3 1
343 350 1
344 52 0.4
344 324 0.2
344 2384 0.2
344 2532 0.2
345 351 1
346 352 0.2
346 355 0.8
347 353 1
348 354 1
349 10 0.577874
349 69 0.378764
349 1052 0.028908
349 2228 0.0144539
350 130 1
351 356 1
352 145 0.5
352 357 0.5
353 358 0.5
353 426 0.5
354 360 1
355 361 1
356 362 1
357 363 1
358 365 1
359 366 1
360 367 1
361 369 1
362 370 1
363 139 0.199988
363 371 0.600009
363 373 0.200003
364 24 0.500134
364 137 0.499866
365 372 1
366 185 0.25
366 776 0.75
367 373 1
368 374 1
369 37 0.500001
369 375 0.499999
370 376 1
371 29 0.0833331
371 61 0.0833334
371 114 0.0833334
371 144 0.0833334
371 614 0.583333
371 1617 0.0833334
372 377 1
373 81 0.0739936
373 378 0.923195
373 1216 0.00281098
374 379 0.5
374 1081 0.5
375 381 1
376 382 1
377 383 1
378 33 0.0686611
378 65 0.00441374
378 331 0.0343306
378 384 0.789603
378 1160 0.102992
379 385 1
380 61 0.336671
380 386 0.663329
381 387 1
382 389 0.857143
382 466 0.142857
383 390 1
384 391 0.857143
384 485 0.142857
385 8 0.0560589
385 16 0.161227
385 460 0.782714
386 144 0.0816135
386 392 0.612258
386 2183 0.306129
387 259 1
388 395 1
389 632 1
390 396 1
391 106 0.945946
391 1394 0.027027
391 2070 0.027027
392 338 0.0833333
392 397 0.916667
393 398 1
394 399 1
395 400 1
396 401 0.666667
396 413 0.333333
397 402 1
398 403 1
399 404 1
400 405 1
401 406 1
402 407 1
403 144 0.577471
403 221 0.211265
403 2107 0.211265
404 408 1
405 133 0.5
405 409 0.5
406 411 1
407 412 1
408 71 0.499999
408 94 0.500001
409 414 1
410 415 1
411 61 0.25
411 416 0.5
411 541 0.25
412 417 1
413 126 0.25
413 418 0.75
414 419 0.75
414 1197 0.25
415 420 1
416 421 1
417 422 1
418 133 0.333333
418 423 0.333333
418 424 0.333333
419 425 0.875
419 1878 0.125
420 427 1
421 429 1
422 197 0.166667
422 430 0.833333
423 346 0.0833333
423 431 0.75
423 547 0.0833333
423 1429 0.0833333
424 432 1
425 22 0.00601009
425 433 0.99399
426 155 0.166612
426 434 0.500033
426 609 0.166678
426 860 0.166678
427 435 1
428 63 0.1
428 436 0.8
428 1332 0.1
429 437 1
430 79 0.0146056
430 438 0.65693
430 802 0.328465
431 439 1
432 440 1
433 24 0.25
433 84 0.25
433 101 0.25
433 441 0.25
434 442 0.5
434 443 0.5
435 444 1
436 19 0.0818178
436 445 0.75124
436 915 0.166942
437 197 0.0157647
437 446 0.976977
437 452 0.00725783
438 447 1
439 8 0.166536
439 27 0.612608
439 60 0.0551972
439 448 0.110439
439 1679 0.0552196
440 60 0.33311
440 432 0.333445
440 449 0.333445
441 450 1
442 451 1
443 452 0.350492
443 453 0.649508
444 454 1
445 63 0.000207491
445 286 0.166632
445 455 0.83316
446 212 0.0770955
446 456 0.922904
447 457 1
448 458 1
449 8 0.368996
449 78 0.0630786
449 148 0.0631029
449 334 0.126206
449 459 0.252411
449 833 0.0631028
449 2056 0.0631029
450 151 1
451 25 0.333053
451 461 0.333669
451 2157 0.333278
452 462 1
453 463 1
454 464 1
455 465 0.333332
455 466 0.333334
455 467 0.333334
456 2 0.000438671
456 6 0.141483
456 10 0.00366653
456 15 0.282901
456 455 0.00557671
456 469 0.42445
456 1170 0.141483
457 470 0.333333
457 2146 0.333333
457 2148 0.333333
458 471 1
459 472 1
460 16 0.10876
460 473 0.89124
461 474 0.5
461 1329 0.5
462 475 1
463 16 0.0853142
463 24 0.0408874
463 25 0.123988
463 27 0.0069015
463 56 2.45127e-06
463 93 3.57263e-06
463 100 0.0406613
463 139 1.03913e-05
463 144 1.13043e-05
463 201 0.0511746
463 436 0.0406613
463 476 0.529061
463 1387 0.0813225
464 286 0.125
464 477 0.875
465 478 1
466 50 0.25
466 479 0.25
466 501 0.25
466 504 0.25
467 7 0.777658
467 56 0.111094
467 60 0.000153755
467 1153 0.111094
468 480 1
469 481 1
470 482 1
471 483 1
472 484 0.5
472 1798 0.5
473 69 0.000184219
473 78 0.999816
474 485 1
475 486 1
476 8 0.0909032
476 428 0.909097
477 27 0.0543273
477 487 0.709255
477 2397 0.236418
478 309 0.285714
478 488 0.714286
479 489 1
480 490 1
481 255 0.25
481 303 0.25
481 1261 0.5
482 491 1
483 168 1
484 492 1
485 493 1
486 197 0.0526316
486 309 0.894737
486 488 0.0526316
487 494 1
488 27 0.0448074
488 76 0.477596
488 508 0.238798
488 558 0.238798
489 393 0.5
489 495 0.5
490 56 0.5
490 365 0.5
491 496 1
492 497 1
493 498 0.499998
493 499 0.250001
493 1521 0.250001
494 499 0.857143
494 1423 0.142857
495 88 0.0542549
495 860 0.890113
495 971 0.0556321
496 500 1
497 502 1
498 37 0.5
498 503 0.5
499 505 0.750467
499 1013 0.249533
500 506 0.5
500 507 0.5
501 509 0.5
501 1527 0.5
502 510 1
503 511 1
504 512 1
505 139 0.5
505 513 0.5
506 56 0.125
506 275 0.125
506 514 0.125
506 515 0.125
506 584 0.25
506 1790 0.125
506 2586 0.125
507 188 0.5
507 465 0.5
508 516 0.5
508 517 0.5
509 518 1
510 519 1
511 520 1
512 44 0.25199
512 79 0.244029
512 521 0.50398
513 522 1
514 523 1
515 197 0.0476191
515 524 0.904762
515 860 0.0476191
516 525 1
517 526 1
518 527 1
519 528 1
520 529 1
521 530 1
522 531 1
523 532 1
524 533 1
525 534 1
526 535 0.8
526 559 0.0666667
526 2016 0.0666667
526 2162 0.0666667
527 536 1
528 61 0.333333
528 221 0.333333
528 537 0.333333
529 538 1
530 19 0.24986
530 50 0.250042
530 539 0.250049
530 786 0.250049
531 542 0.0909091
531 725 0.909091
532 60 0.240279
532 543 0.50648
532 560 0.25324
533 544 0.5
533 757 0.5
534 545 1
535 546 1
536 548 1
537 549 1
538 550 0.75
538 1740 0.25
539 44 0.333333
539 545 0.333333
539 551 0.333333
540 552 1
541 472 0.125
541 553 0.75
541 2092 0.125
542 554 1
543 555 0.9
543 1022 0.1
544 556 1
545 557 1
546 25 1
547 561 1
548 562 1
549 564 1
550 565 0.990008
550 2614 0.00999156
551 566 1
552 567 0.5
552 699 0.5
553 568 1
554 569 1
555 570 1
556 571 1
557 572 1
558 287 1
559 573 0.666667
559 821 0.333333
560 574 1
561 575 1
562 576 1
563 577 1
564 578 1
565 579 1
566 428 0.333333
566 843 0.333333
566 1389 0.333333
567 50 0.166653
567 580 0.33333
567 1018 0.166665
567 2589 0.166665
567 2590 2.29065e-05
567 2591 0.166665
568 581 1
569 582 1
570 583 1
571 584 1
572 10 0.69986
572 88 0.100006
572 585 0.100067
572 2585 0.100067
573 87 0.272727
573 586 0.727273
574 587 1
575 588 0.6
575 2131 0.2
575 2288 0.2
576 589 1
577 590 0.75
577 1894 0.25
578 591 1
579 431 0.333333
579 592 0.333333
579 690 0.333333
580 2 0.5
580 593 0.5
581 594 1
582 595 1
583 596 1
584 597 0.8
584 1298 0.2
585 598 1
586 599 1
587 600 0.5
587 729 0.5
588 601 1
589 79 0.333332
589 650 0.333334
589 979 0.333334
590 139 0.25
590 604 0.5
590 2278 0.25
591 602 0.25
591 603 0.25
591 605 0.25
591 606 0.25
592 60 0.749883
592 153 0.250117
593 607 1
594 608 1
595 56 0.0478295
595 241 1.36365e-06
595 609 0.952169
596 212 0.249944
596 609 0.250021
596 610 0.250018
596 611 0.250018
597 19 0.166124
597 22 0.833876
598 15 0.122685
598 25 0.141188
598 50 0.122687
598 612 0.245376
598 617 0.122688
598 815 0.122688
598 1526 0.122688
599 613 1
600 25 0.508767
600 615 0.491233
601 615 0.00726053
601 616 0.992739
602 618 0.5
602 619 0.5
603 620 1
604 36 0.25
604 46 0.25
604 621 0.5
605 622 1
606 540 0.125
606 623 0.875
607 624 1
608 625 1
609 626 1
610 627 1
611 628 0.333333
611 629 0.333333
611 631 0.333333
612 630 1
613 633 1
614 634 1
615 635 1
616 212 0.249541
616 286 0.250153
616 636 0.250153
616 637 0.250153
617 638 1
618 639 1
619 640 1
620 24 0.200131
620 29 0.199478
620 641 0.400261
620 823 0.200131
621 642 1
622 643 1
623 644 1
624 50 0.249999
624 641 0.25
624 645 0.25
624 1931 0.25
625 646 1
626 379 0.25
626 647 0.500001
626 1293 0.249999
627 648 1
628 649 1
629 650 1
630 651 1
631 652 1
632 456 0.166667
632 653 0.666667
632 1764 0.166667
633 654 1
634 379 0.00860184
634 655 0.991398
635 656 1
636 657 1
637 137 0.0713102
637 637 0.857252
637 1127 0.0714377
638 8 0.171625
638 56 0.171625
638 486 0.485125
638 934 0.171625
639 658 1
640 659 1
641 46 0.5
641 660 0.5
642 661 1
643 662 1
644 663 1
645 32 0.5
645 1318 0.5
646 664 1
647 665 1
648 666 1
649 8 0.193905
649 327 0.195023
649 667 0.611072
650 133 0.5
650 1038 0.5
651 668 0.5
651 669 0.5
652 670 1
653 542 1
654 671 1
655 672 1
656 673 1
657 674 1
658 675 1
659 676 1
660 677 1
661 678 1
662 679 1
663 680 1
664 681 1
665 683 0.562677
665 684 0.437323
666 684 0.100227
666 685 0.899773
667 688 1
668 27 0.199209
668 446 0.200198
668 686 0.200198
668 687 0.200198
668 689 0.200198
669 691 1
670 8 0.140505
670 16 0.764438
670 212 0.0473331
670 286 0.0477244
671 692 0.166667
671 693 0.166667
671 1625 0.166667
671 1636 0.166667
671 1996 0.166667
671 2471 0.166667
672 694 1
673 695 1
674 696 1
675 697 1
676 698 1
677 15 1
678 109 1
679 94 0.5
679 700 0.5
680 701 0.5
680 786 0.5
681 50 0.111199
681 704 0.555501
681 981 0.2222
681 1370 0.1111
682 705 1
683 702 0.333334
683 703 0.333334
683 706 0.333332
684 707 0.8
684 1335 0.2
685 708 0.5
685 711 0.5
686 378 0.457704
686 709 0.0845915
686 1157 0.457704
687 19 0.206526
687 212 0.2078
687 709 0.169592
687 710 0.208041
687 712 0.208041
688 3 0.878459
688 71 0.121541
689 238 1
690 504 1
691 460 0.333333
691 713 0.333333
691 714 0.333333
692 137 0.00153943
692 715 0.816922
692 1487 0.0907691
692 2110 0.0907691
693 716 1
694 717 1
695 719 1
696 720 1
697 721 1
698 722 1
699 573 1
700 723 0.5
700 2416 0.5
701 724 1
702 726 1
703 727 1
704 728 1
705 16 0.0405197
705 69 0.424621
705 476 0.534859
706 56 7.90277e-06
706 241 0.499986
706 730 0.500006
707 731 1
708 94 1
709 732 0.909091
709 898 0.0909091
710 25 2.55635e-05
710 733 0.999974
711 734 1
712 735 1
713 736 1
714 737 1
715 738 0.333333
715 895 0.333333
715 1793 0.333333
716 739 1
717 740 1
718 741 0.5
718 1026 0.5
719 742 0.500001
719 743 0.499999
720 585 0.5
720 744 0.5
721 204 0.25
721 745 0.25
721 746 0.25
721 747 0.249999
722 748 1
723 749 1
724 748 0.5
724 750 0.5
725 751 1
726 752 1
727 524 0.333332
727 753 0.333334
727 759 0.333334
728 754 1
729 56 0.333333
729 755 0.333333
729 756 0.333333
730 550 0.5
730 2104 0.5
731 36 0.5
731 767 0.5
732 221 0.499998
732 758 0.500002
733 760 1
734 137 0.166579
734 761 0.666737
734 1680 0.166684
735 762 1
736 763 1
737 764 0.75
737 2613 0.25
738 765 0.666667
738 1440 0.333333
739 766 1
740 768 1
741 19 1
742 769 1
743 731 1
744 770 1
745 771 1
746 39 0.250376
746 772 0.248871
746 1085 0.250376
746 1086 0.250376
747 772 0.00597174
747 773 0.994028
748 774 1
749 243 1
750 221 0.262081
750 775 0.737919
751 777 1
752 778 1
753 756 1
754 779 1
755 780 1
756 139 0.2
756 148 0.2
756 781 0.2
756 2112 0.2
756 2123 0.2
757 50 0.125
757 225 0.75
757 782 0.125
758 783 1
759 784 1
760 25 0.142841
760 256 0.28572
760 789 0.428579
760 1098 0.14286
761 787 1
762 10 0.333333
762 785 0.333333
762 788 0.333333
763 61 0.111111
763 80 0.111111
763 1045 0.111111
763 1568 0.666667
764 239 1
765 674 1
766 790 1
767 791 1
768 792 0.5
768 1771 0.5
769 793 0.9
769 1205 0.1
770 794 1
771 137 0.133154
771 795 0.866846
772 796 1
773 797 1
774 798 1
775 52 0.333333
775 799 0.666667
776 800 1
777 25 0.0257402
777 79 0.0711066
777 198 0.323106
777 212 0.237438
777 428 0.105479
777 516 0.079109
777 801 0.0791088
777 1078 0.0263697
777 1496 0.0263695
777 1618 0.0261743
778 44 0.142849
778 78 0.285807
778 803 0.285672
778 1406 0.142836
778 2582 0.142836
779 804 1
780 806 1
781 101 0.333333
781 242 0.333333
781 810 0.333333
782 204 0.5
782 794 0.5
783 805 0.166667
783 807 0.166665
783 808 0.166666
783 816 0.500001
784 10 0.25
784 197 0.25
784 430 0.25
784 809 0.25
785 811 0.5
785 1643 0.5
786 812 0.5
786 813 0.5
787 814 1
788 815 1
789 817 1
790 818 1
791 819 0.5
791 1470 0.5
792 820 1
793 145 0.5
793 742 0.5
794 50 1
795 79 0.124928
795 88 0.124957
795 205 0.125019
795 221 0.125019
795 255 0.125019
795 286 0.125019
795 309 0.125019
795 822 0.125019
796 97 1
797 824 1
798 826 1
799 743 0.249998
799 827 0.250001
799 1064 0.250001
799 1098 0.250001
800 828 1
801 829 1
802 830 1
803 831 1
804 56 1.71609e-05
804 791 0.999983
805 832 1
806 834 1
807 816 1
808 56 0.50392
808 486 0.49608
809 486 0.00771893
809 609 0.496141
809 835 0.496141
810 3 4.76373e-05
810 836 0.499976
810 837 0.499976
811 16 0.119233
811 29 0.146784
811 204 0.44039
811 1250 0.146797
811 2580 0.146797
812 838 1
813 65 0.857143
813 1230 0.142857
814 839 1
815 840 1
816 841 1
817 280 0.25
817 842 0.75
818 221 0.0625
818 843 0.875
818 1428 0.0625
819 844 1
820 845 1
821 846 1
822 25 0.000704492
822 847 0.999296
823 395 1
824 848 1
825 849 1
826 850 1
827 851 1
828 852 1
829 56 0.5
829 853 0.5
830 854 1
831 855 1
832 8 0.249839
832 69 0.37498
832 205 0.125138
832 235 0.125022
832 641 0.125022
833 10 0.76923
833 103 0.0769234
833 585 0.0769234
833 1052 0.0769234
834 849 1
835 856 1
836 8 0.333331
836 857 0.666669
837 858 1
838 859 1
839 26 4.17336e-05
839 860 0.999958
840 26 0.49999
840 861 0.50001
841 14 0.199995
841 60 0.200018
841 537 0.599986
842 862 0.666667
842 1608 0.333333
843 863 1
844 864 1
845 865 1
846 866 1
847 382 1
848 41 0.666667
848 81 0.333333
849 27 0.333047
849 137 0.333319
849 204 0.333633
850 25 0.333214
850 61 0.333393
850 867 0.333393
851 869 1
852 870 1
853 871 0.5
853 2188 0.5
854 872 0.333333
854 908 0.666667
855 137 0.138321
855 873 0.430814
855 874 0.430864
856 875 1
857 27 0.337193
857 876 0.662807
858 282 1
859 877 1
860 878 1
861 27 0.0789723
861 879 0.921028
862 880 1
863 881 1
864 882 1
865 883 1
866 486 0.166667
866 884 0.833333
867 885 1
868 69 0.168321
868 79 0.160383
868 212 0.166315
868 524 0.168327
868 886 0.168327
868 1514 0.168327
869 888 1
870 63 0.499685
870 889 0.500315
871 890 1
872 892 1
873 893 1
874 354 0.5
874 448 0.5
875 894 0.333333
875 1186 0.333333
875 1747 0.333333
876 896 1
877 15 1
878 897 1
879 12 0.307633
879 71 0.307602
879 499 0.0771312
879 516 0.307633
880 900 1
881 901 1
882 3 3.00573e-06
882 61 0.124983
882 94 0.125002
882 120 0.125002
882 847 0.500008
882 909 0.125002
883 902 1
884 903 0.666667
884 2365 0.333333
885 904 0.538462
885 935 0.230769
885 2035 0.076923
885 2219 0.0769231
885 2447 0.0769231
886 905 0.5
886 2528 0.5
887 906 1
888 907 1
889 910 1
890 911 1
891 912 0.500002
891 944 0.166667
891 1934 0.166665
891 1935 0.166665
892 913 0.5
892 914 0.5
893 2 0.333251
893 916 0.666749
894 144 0.2
894 218 0.2
894 2100 0.6
895 917 1
896 918 1
897 446 0.00789205
897 919 0.330703
897 921 0.330703
897 1131 0.330703
898 446 0.496269
898 920 0.503731
899 365 1
900 922 1
901 15 1
902 923 0.166667
902 974 0.166667
902 976 0.166667
902 1034 0.166667
902 1185 0.333333
903 924 1
904 925 1
905 927 1
906 928 1
907 929 1
908 930 1
909 931 1
910 932 0.5
910 991 0.5
911 204 0.333333
911 460 0.333334
911 933 0.333334
912 79 5.29648e-06
912 212 0.666662
912 934 0.333333
913 938 1
914 938 1
915 939 1
916 940 1
917 941 1
918 942 1
919 943 1
920 814 0.333333
920 1379 0.666667
921 71 0.60004
921 255 0.0999902
921 605 0.29997
922 945 1
923 946 1
924 947 1
925 948 1
926 19 0.155518
926 2629 0.844482
927 949 1
928 950 1
929 204 0.333335
929 515 0.333336
929 952 0.333329
930 71 0.33331
930 515 0.333345
930 953 0.333345
931 954 0.5
931 1163 0.5
932 955 1
933 956 1
934 957 1
935 515 0.496664
935 959 0.503336
936 960 0.5
936 1386 0.5
937 958 0.5
937 961 0.5
938 962 1
939 8 0.499945
939 963 0.500055
940 132 1
941 964 0.5
941 965 0.5
942 966 1
943 967 1
944 968 1
945 48 0.5
945 969 0.5
946 970 1
947 189 0.5
947 2198 0.5
948 972 1
949 973 1
950 141 1
951 975 1
952 895 0.25
952 977 0.25
952 1940 0.5
953 978 1
954 19 0.493106
954 444 0.506894
955 980 1
956 71 0.0335243
956 982 0.966476
957 983 0.5
957 1537 0.5
958 984 1
959 981 1
960 985 0.499998
960 986 0.500002
961 987 1
962 988 1
963 989 1
964 990 1
965 992 1
966 993 1
967 994 1
968 995 1
969 223 1
970 764 1
971 996 1
972 997 1
973 10 1
974 998 0.8
974 1164 0.2
975 999 1
976 1000 1
977 1001 1
978 1002 1
979 61 0.5
979 1003 0.5
980 1004 1
981 508 1
982 1005 1
983 1006 1
984 1007 1
985 1008 1
986 732 0.5
986 1009 0.5
987 351 0.285613
987 1013 0.000355335
987 1826 0.714032
988 1011 0.00226436
988 1012 0.997736
989 1014 1
990 1015 1
991 71 0.233078
991 109 0.255641
991 1016 0.255641
991 1039 0.255641
992 1017 0.75
992 2366 0.25
993 1019 1
994 8 0.49511
994 1020 0.50489
995 1021 1
996 1023 1
997 1024 1
998 1021 0.125
998 1096 0.75
998 2185 0.125
999 739 0.909091
999 2361 0.0909091
1000 1025 1
1001 1028 0.75
1001 1223 0.25
1002 733 0.5
1002 1029 0.5
1003 27 0.142857
1003 39 0.142857
1003 188 0.142857
1003 1030 0.285714
1003 1109 0.142857
1003 1110 0.142857
1004 1031 1
1005 734 1
1006 628 0.5
1006 1032 0.5
1007 1033 0.5
1007 1035 0.5
1008 1036 1
1009 225 0.333333
1009 772 0.333333
1009 1037 0.333333
1010 754 1
1011 1040 1
1012 967 0.5
1012 1165 0.5
1013 1041 1
1014 1042 1
1015 1043 1
1016 1044 1
1017 1045 1
1018 1046 1
1019 207 1
1020 745 0.75
1020 1413 0.25
1021 1047 0.5
1021 1091 0.5
1022 1050 1
1023 466 0.666667
1023 2501 0.333333
1024 188 0.166667
1024 499 0.5
1024 1051 0.333333
1025 1053 1
1026 1054 1
1027 1055 1
1028 1056 1
1029 1057 1
1030 1058 1
1031 19 1
1032 1059 0.5
1032 1060 0.5
1033 1061 1
1034 10 0.250001
1034 1062 0.250001
1034 1135 0.499998
1035 1063 1
1036 204 0.333333
1036 1064 0.666667
1037 1065 1
1038 1066 1
1039 549 0.5
1039 725 0.5
1040 2 0.5
1040 498 0.5
1041 189 0.333339
1041 1068 0.666661
1042 140 0.499952
1042 1069 0.500048
1043 444 0.5
1043 915 0.5
1044 1070 1
1045 1071 1
1046 208 0.5
1046 211 0.5
1047 1072 1
1048 1073 1
1049 56 0.5
1049 1093 0.5
1050 755 0.999864
1050 1074 0.000136182
1051 79 0.332239
1051 1074 0.333457
1051 1075 0.334304
1052 1076 1
1053 1077 1
1054 3 0.124719
1054 802 0.12504
1054 1079 0.625201
1054 1497 0.12504
1055 1080 1
1056 1082 1
1057 139 0.5
1057 843 0.5
1058 1083 1
1059 1084 1
1060 1087 1
1061 491 0.166667
1061 1088 0.166667
1061 1541 0.666667
1062 1089 1
1063 78 0.495927
1063 833 0.504074
1064 1090 1
1065 232 1
1066 1092 1
1067 1093 1
1068 1094 1
1069 1097 1
1070 1099 1
1071 1100 1
1072 1101 0.666667
1072 2264 0.333333
1073 1102 0.75
1073 2109 0.25
1074 1103 0.333333
1074 1104 0.666667
1075 327 0.666667
1075 1123 0.333333
1076 1105 0.857143
1076 1506 0.142857
1077 1106 1
1078 1103 0.8
1078 2514 0.2
1079 1107 1
1080 1099 0.25
1080 1108 0.25
1080 1589 0.5
1081 1111 1
1082 206 0.5
1082 1053 0.5
1083 1112 0.333333
1083 1130 0.666667
1084 1113 0.5
1084 1121 0.5
1085 78 0.497932
1085 1114 0.502068
1086 78 0.00194405
1086 1022 0.998056
1087 1115 1
1088 1116 1
1089 681 0.5
1089 1117 0.5
1090 1118 1
1091 168 0.499985
1091 1119 0.500015
1092 168 6.04466e-05
1092 1120 0.99994
1093 1122 1
1094 1103 0.25
1094 1124 0.75
1095 1125 1
1096 1126 1
1097 1127 1
1098 286 0.333333
1098 1128 0.666667
1099 1129 1
1100 1131 1
1101 1132 1
1102 10 0.5
1102 1133 0.5
1103 1134 1
1104 1135 1
1105 24 0.333317
1105 1136 0.333341
1105 1585 0.333342
1106 60 0.499751
1106 1137 0.500249
1107 1138 1
1108 1113 1
1109 160 0.666666
1109 1139 0.166667
1109 1309 0.166667
1110 629 1
1111 1140 1
1112 1141 1
1113 1142 1
1114 36 0.333333
1114 1047 0.666667
1115 1014 0.2
1115 1143 0.399999
1115 1226 0.2
1115 1243 0.2
1116 71 0.2499
1116 843 0.250033
1116 1144 0.500066
1117 515 1
1118 1145 1
1119 155 1
1120 17 1
1121 1147 1
1122 1148 1
1123 88 1
1124 1149 1
1125 1150 1
1126 1151 1
1127 910 0.386406
1127 1152 0.613594
1128 1154 1
1129 1155 1
1130 1156 1
1131 1159 1
1132 1161 1
1133 1162 1
1134 1166 0.666667
1134 1174 0.333333
1135 1167 0.5
1135 1191 0.5
1136 1168 1
1137 264 1
1138 990 0.333334
1138 1170 0.333332
1138 1171 0.333334
1139 1172 1
1140 1173 1
1141 421 1
1142 1177 0.666667
1142 1276 0.333333
1143 169 0.4
1143 1175 0.2
1143 1176 0.2
1143 1178 0.2
1144 1179 0.5
1144 1180 0.5
1145 1181 1
1146 1182 1
1147 1183 1
1148 78 1
1149 1184 1
1150 77 0.25025
1150 78 0.74975
1151 79 0.494508
1151 1187 0.505492
1152 1188 0.833333
1152 1192 0.166667
1153 1189 1
1154 47 0.333333
1154 1193 0.333333
1154 1375 0.333333
1155 1194 1
1156 1195 1
1157 1196 0.6
1157 2008 0.2
1157 2043 0.2
1158 491 0.5
1158 834 0.5
1159 1198 1
1160 321 1
1161 1199 1
1162 1200 1
1163 1201 1
1164 884 0.466999
1164 1202 0.533001
1165 56 0.285324
1165 71 0.356774
1165 1203 0.357902
1166 1204 1
1167 203 1
1168 169 0.25
1168 1206 0.75
1169 944 1
1170 1207 0.501376
1170 1208 0.498624
1171 24 0.436213
1171 81 0.563787
1172 1209 0.5
1172 1210 0.5
1173 1211 0.666667
1173 1876 0.333333
1174 1212 1
1175 1143 1
1176 15 0.333049
1176 1215 0.666951
1177 1213 1
1178 71 1
1179 1216 0.323724
1179 1217 0.338138
1179 1218 0.338138
1180 1219 1
1181 1220 0.5
1181 1221 0.5
1182 446 0.497727
1182 1222 0.502273
1183 446 0.0909089
1183 1223 0.909091
1184 137 0.405412
1184 1224 0.594588
1185 1225 1
1186 1227 1
1187 205 0.330495
1187 515 0.334752
1187 715 0.334752
1188 15 0.200023
1188 212 0.199887
1188 743 0.20003
1188 1041 0.20003
1188 1228 0.20003
1189 3 0.154099
1189 29 0.613479
1189 36 0.0774741
1189 1229 0.154948
1190 1220 0.909091
1190 2492 0.0909091
1191 1231 1
1192 1233 1
1193 1234 1
1194 1235 1
1195 29 2.9453e-05
1195 1236 0.499985
1195 1544 0.499985
1196 1237 1
1197 1014 1
1198 1238 0.5
1198 1508 0.5
1199 1239 0.5
1199 1247 0.5
1200 448 0.5
1200 1240 0.5
1201 1241 1
1202 1242 0.333333
1202 1243 0.666667
1203 327 1
1204 9 0.125
1204 29 0.125
1204 43 0.125
1204 60 0.125
1204 455 0.125
1204 657 0.125
1204 1244 0.125
1204 1245 0.125
1205 41 0.5
1205 1246 0.5
1206 60 1
1207 1248 1
1208 19 0.206566
1208 303 0.264478
1208 1249 0.264478
1208 1250 0.264478
1209 1251 1
1210 498 0.5
1210 1252 0.5
1211 1253 1
1212 100 0.333333
1212 1254 0.333333
1212 1286 0.333333
1213 791 1
1214 16 3.2683e-05
1214 1255 0.999967
1215 1256 0.999986
1215 1257 1.44986e-05
1216 217 0.500004
1216 1257 0.499996
1217 1258 1
1218 1259 1
1219 25 0.324212
1219 40 5.52035e-06
1219 1260 0.675782
1220 79 0.478532
1220 1262 0.521468
1221 1261 0.499995
1221 1263 0.500005
1222 524 0.5
1222 1264 0.5
1223 1265 0.333333
1223 1291 0.666667
1224 1242 1
1225 1266 1
1226 1267 1
1227 1268 1
1228 1134 1
1229 1269 1
1230 104 1
1231 19 3.20156e-05
1231 312 0.999968
1232 1270 1
1233 1271 1
1234 1272 1
1235 1273 1
1236 286 0.5
1236 1274 0.5
1237 29 0.0414835
1237 217 0.479258
1237 1275 0.479258
1238 189 0.769231
1238 1278 0.230769
1239 25 0.333268
1239 104 0.666732
1240 559 1
1241 1280 0.666667
1241 1373 0.333333
1242 643 0.25
1242 1281 0.25
1242 1282 0.25
1242 1283 0.25
1243 81 0.2
1243 1284 0.8
1244 1285 1
1245 1287 1
1246 1288 1
1247 1289 1
1248 1290 1
1249 1292 1
1250 271 1
1251 1294 1
1252 1295 1
1253 1296 1
1254 1293 0.5
1254 1297 0.5
1255 1299 1
1256 287 0.499914
1256 1300 0.500086
1257 1302 1
1258 873 1
1259 1303 1
1260 1304 1
1261 133 0.333333
1261 387 0.333333
1261 1697 0.333333
1262 1306 0.5
1262 1307 0.5
1263 206 0.25
1263 860 0.25
1263 1219 0.25
1263 1308 0.25
1264 25 0.204377
1264 34 0.530415
1264 515 0.265208
1265 415 1
1266 197 0.25
1266 1310 0.75
1267 1311 1
1268 1312 1
1269 1313 1
1270 1314 1
1271 1315 1
1272 137 0.497435
1272 378 0.502565
1273 1316 1
1274 1317 1
1275 1319 1
1276 144 0.200123
1276 1321 0.199969
1276 2343 0.199969
1276 2605 0.199969
1276 2606 0.199969
1277 36 0.250002
1277 1323 0.499996
1277 1633 0.250002
1278 1324 1
1279 39 0.25
1279 1322 0.25
1279 1325 0.25
1279 1326 0.25
1280 1327 1
1281 829 1
1282 1328 1
1283 1330 1
1284 1331 1
1285 1297 1
1286 327 1.20284e-05
1286 1333 0.999988
1287 1334 1
1288 1336 1
1289 1337 1
1290 60 0.00566232
1290 120 0.252735
1290 1338 0.236133
1290 1732 0.505469
1291 180 0.333333
1291 2518 0.333333
1291 2520 0.333333
1292 262 0.333333
1292 429 0.333333
1292 446 0.333333
1293 1339 1
1294 1135 0.938365
1294 1338 0.0616355
1295 1340 1
1296 1341 0.5
1296 2533 0.5
1297 198 0.428271
1297 1342 0.571729
1298 225 0.5
1298 782 0.5
1299 1343 1
1300 1345 1
1301 3 0.206057
1301 8 0.152749
1301 1351 0.641194
1302 1346 1
1303 1347 1
1304 50 0.332558
1304 1348 0.333721
1304 1349 0.333721
1305 39 0.5
1305 100 0.5
1306 1350 1
1307 1352 1
1308 8 1
1309 1349 1
1310 1353 1
1311 136 0.333333
1311 1354 0.666667
1312 257 1
1313 1355 1
1314 1354 1
1315 1356 1
1316 827 1
1317 656 1
1318 524 0.142857
1318 1357 0.714286
1318 1746 0.142857
1319 255 1
1320 1358 1
1321 1359 0.5
1321 1360 0.5
1322 41 0.5
1322 1923 0.5
1323 1361 1
1324 1362 0.5
1324 2317 0.5
1325 1363 1
1326 1364 1
1327 1365 1
1328 1366 1
1329 563 0.5
1329 1367 0.5
1330 189 0.5
1330 1368 0.5
1331 1369 1
1332 1371 1
1333 316 0.2
1333 1372 0.8
1334 1374 1
1335 1376 1
1336 1377 1
1337 1378 1
1338 1380 1
1339 19 0.00358601
1339 25 0.0289085
1339 137 0.322498
1339 1381 0.645007
1340 1382 1
1341 1383 1
1342 1384 1
1343 1385 1
1344 221 0.249999
1344 686 0.25
1344 763 0.25
1344 1425 0.25
1345 1388 1
1346 1390 1
1347 39 0.5
1347 44 0.5
1348 847 0.2
1348 1391 0.8
1349 15 1
1350 1395 1
1351 1396 1
1352 444 0.333333
1352 815 0.666667
1353 198 0.4
1353 1392 0.2
1353 1393 0.2
1353 1397 0.2
1354 1398 0.666667
1354 1602 0.333333
1355 303 0.333333
1355 367 0.666667
1356 1399 0.857143
1356 1449 0.142857
1357 109 0.333333
1357 447 0.333333
1357 1401 0.333333
1358 1400 0.333333
1358 1402 0.333333
1358 1403 0.333333
1359 1404 1
1360 306 0.333333
1360 1407 0.333333
1360 1408 0.333333
1361 1238 0.2
1361 1409 0.6
1361 1508 0.2
1362 15 0.117756
1362 197 0.0588163
1362 294 0.176449
1362 936 0.588163
1362 1754 0.0588162
1363 1410 1
1364 1410 1
1365 1411 1
1366 951 1
1367 1412 0.8
1367 2158 0.2
1368 1414 1
1369 1415 1
1370 84 0.25
1370 1416 0.5
1370 2321 0.25
1371 1417 0.5
1371 1504 0.5
1372 588 0.5
1372 1418 0.5
1373 1419 1
1374 189 0.5
1374 2531 0.5
1375 88 0.332435
1375 515 0.667565
1376 1420 0.5
1376 1421 0.5
1377 1422 1
1378 1424 0.5
1378 2187 0.5
1379 1426 1
1380 1427 1
1381 1428 1
1382 27 0.000533708
1382 1429 0.499733
1382 1430 0.499733
1383 56 0.0206764
1383 224 0.326441
1383 1591 0.652882
1384 221 1
1385 1431 0.25
1385 1432 0.25
1385 1433 0.25
1385 1434 0.25
1386 71 0.248669
1386 1435 0.250444
1386 1436 0.250443
1386 1437 0.250444
1387 1438 0.666667
1387 2467 0.333333
1388 1439 0.666667
1388 1645 0.333333
1389 188 0.666667
1389 237 0.333333
1390 1362 1
1391 1441 1
1392 1442 1
1393 1443 1
1394 619 0.833333
1394 1444 0.166667
1395 1445 1
1396 1446 1
1397 143 1
1398 137 0.499852
1398 1447 0.500148
1399 1229 0.5
1399 1450 0.5
1400 609 0.333333
1400 860 0.333333
1400 1451 0.333333
1401 1452 1
1402 1453 1
1403 1454 1
1404 1455 1
1405 1456 1
1406 1323 1
1407 1457 1
1408 1458 1
1409 1459 0.5
1409 1460 0.5
1410 466 1
1411 1461 1
1412 1462 1
1413 1079 1
1414 1463 0.333333
1414 1464 0.333333
1414 1465 0.333333
1415 1466 1
1416 1467 1
1417 60 0.0353443
1417 1468 0.964656
1418 1469 1
1419 78 0.331981
1419 1471 0.334009
1419 1472 0.334009
1420 565 0.5
1420 1473 0.5
1421 802 1
1422 1474 1
1423 567 0.475143
1423 1475 0.524857
1424 1477 0.333335
1424 1478 0.333331
1424 1479 0.333335
1425 1480 1
1426 1481 1
1427 486 0.333333
1427 1064 0.333333
1427 1482 0.333333
1428 1484 0.5
1428 2332 0.5
1429 346 1
1430 1488 0.5
1430 1489 0.5
1431 892 0.500034
1431 1490 0.499966
1432 1490 0.000136354
1432 1491 0.999864
1433 1493 1
1434 1494 1
1435 1495 1
1436 1498 1
1437 1501 1
1438 53 1
1439 1502 1
1440 1503 1
1441 1505 1
1442 328 0.333333
1442 2488 0.666667
1443 1105 0.333333
1443 1506 0.666667
1444 1507 1
1445 15 1
1446 1509 1
1447 2 0.5
1447 1510 0.5
1448 1511 0.5
1448 1512 0.5
1449 27 0.333332
1449 133 0.666668
1450 10 0.5
1450 1512 0.5
1451 2 0.50203
1451 27 0.49797
1452 1513 1
1453 325 0.5
1453 498 0.5
1454 1514 0.666667
1454 1980 0.333333
1455 2 0.250125
1455 79 0.249636
1455 1220 0.250114
1455 1515 0.250125
1456 1516 1
1457 132 1
1458 3 1
1459 1368 1
1460 1517 1
1461 26 0.2
1461 2139 0.8
1462 1519 1
1463 1520 0.5
1463 1522 0.5
1464 45 0.5
1464 908 0.5
1465 8 1
1466 1517 1
1467 1523 1
1468 827 0.5
1468 2633 0.5
1469 137 0.249995
1469 1524 0.250002
1469 1891 0.250002
1469 1893 0.250001
1470 193 1
1471 1525 1
1472 514 0.25
1472 1402 0.5
1472 1604 0.25
1473 1529 1
1474 1530 1
1475 309 0.5
1475 1531 0.5
1476 1532 1
1477 614 1
1478 977 0.5
1478 1450 0.5
1479 1533 1
1480 1534 1
1481 1535 1
1482 1536 1
1483 1538 1
1484 61 0.782113
1484 144 0.217887
1485 120 1
1486 1539 1
1487 237 1
1488 1540 0.5
1488 2598 0.5
1489 204 1
1490 198 1
1491 1542 1
1492 37 1
1493 37 0.333333
1493 181 0.666667
1494 50 0.493888
1494 1399 0.506112
1495 1413 0.5
1495 1545 0.5
1496 466 0.117648
1496 1547 0.294117
1496 2245 0.294117
1496 2515 0.294117
1497 303 1
1498 691 1
1499 262 0.333333
1499 1548 0.333333
1499 1549 0.333333
1500 1550 1
1501 82 1
1502 47 1
1503 93 0.447259
1503 1551 0.552741
1504 1553 1
1505 604 1
1506 445 0.5
1506 1554 0.5
1507 1439 1
1508 1555 1
1509 1556 0.5
1509 1559 0.5
1510 132 0.25
1510 205 0.25
1510 1557 0.25
1510 1558 0.25
1511 1560 1
1512 1561 1
1513 546 0.5
1513 1413 0.5
1514 1562 1
1515 1563 1
1516 1564 1
1517 306 0.333333
1517 1565 0.333334
1517 1566 0.333333
1518 78 0.333305
1518 181 0.333348
1518 1567 0.333348
1519 39 0.463274
1519 40 0.536726
1520 1569 1
1521 1570 1
1522 1571 1
1523 1572 1
1524 26 0.500003
1524 1573 0.499997
1525 1574 0.2
1525 2080 0.8
1526 1542 0.500003
1526 1575 0.499997
1527 27 0.249865
1527 56 0.250053
1527 97 0.250041
1527 1576 0.250041
1528 896 0.3
1528 1630 0.5
1528 2013 0.1
1528 2088 0.1
1529 12 0.333333
1529 1049 0.666667
1530 29 0.389401
1530 1577 0.610599
1531 1578 1
1532 1579 0.5
1532 1580 0.5
1533 1582 1
1534 455 1
1535 1583 1
1536 1584 1
1537 1586 1
1538 39 0.166667
1538 1588 0.833333
1539 135 0.5
1539 213 0.5
1540 8 0.11459
1540 1847 0.88541
1541 1590 1
1542 1592 1
1543 205 0.5
1543 1104 0.25
1543 1593 0.25
1544 1594 1
1545 11 0.399999
1545 428 0.600001
1546 1595 1
1547 1597 1
1548 1598 1
1549 1599 1
1550 1348 0.500002
1550 1383 0.499998
1551 1600 1
1552 605 1
1553 71 0.333035
1553 126 0.333483
1553 1601 0.333482
1554 1603 1
1555 516 0.25
1555 813 0.25
1555 1605 0.25
1555 1606 0.25
1556 27 0.285714
1556 137 0.142857
1556 188 0.142857
1556 455 0.142857
1556 657 0.142857
1556 1607 0.142857
1557 24 0.5
1557 101 0.5
1558 14 1
1559 24 0.199108
1559 100 0.200223
1559 101 0.200223
1559 237 0.200223
1559 1609 0.200223
1560 25 1
1561 832 0.333333
1561 1610 0.333333
1561 1921 0.333333
1562 1611 0.730568
1562 2614 0.269432
1563 1612 1
1564 1613 1
1565 1614 1
1566 1615 1
1567 1616 1
1568 444 0.498082
1568 1617 0.498229
1568 1618 0.00368963
1569 444 0.000333892
1569 1619 0.999666
1570 524 0.500005
1570 1620 0.499995
1571 602 0.333325
1571 1514 0.333338
1571 1737 0.333338
1572 1621 1
1573 1623 1
1574 1624 1
1575 97 0.666667
1575 460 0.333333
1576 1626 1
1577 1627 1
1578 1628 1
1579 50 0.499987
1579 460 0.500013
1580 1629 1
1581 139 0.249952
1581 904 0.250016
1581 1631 0.500032
1582 144 0.25
1582 2522 0.25
1582 2525 0.25
1582 2526 0.25
1583 1632 1
1584 1634 0.333333
1584 1668 0.666667
1585 1633 0.333331
1585 1635 0.666668
1586 1629 0.337923
1586 1637 0.337923
1586 1651 0.324154
1587 84 1
1588 1638 1
1589 807 0.333324
1589 1640 0.333338
1589 1641 0.333338
1590 1642 1
1591 1644 1
1592 41 0.333333
1592 1645 0.666667
1593 1646 1
1594 1647 1
1595 1281 0.360631
1595 1648 0.639369
1596 1281 0.303601
1596 1649 0.696399
1597 1651 0.0391505
1597 1652 0.96085
1598 168 1
1599 428 0.5
1599 542 0.5
1600 1650 1
1601 27 0.19969
1601 36 0.200077
1601 144 0.400155
1601 1035 0.200077
1602 34 1
1603 69 0.142857
1603 201 0.142857
1603 576 0.142857
1603 1206 0.142857
1603 1653 0.142857
1603 1654 0.142857
1603 1655 0.142857
1604 1656 1
1605 1657 1
1606 1658 1
1607 1659 1
1608 1660 0.666667
1608 1669 0.333333
1609 212 1
1610 1101 1
1611 446 0.333333
1611 1661 0.333333
1611 1685 0.333333
1612 486 0.0546235
1612 807 0.315126
1612 1662 0.315126
1612 1663 0.315125
1613 1664 1
1614 19 0.319068
1614 1665 0.680932
1615 1666 1
1616 1667 1
1617 1669 1
1618 1670 1
1619 1666 1
1620 1671 1
1621 1672 1
1622 1674 1
1623 1675 1
1624 1676 1
1625 1677 1
1626 1678 1
1627 1683 0.25
1627 1752 0.75
1628 205 0.25
1628 1682 0.25
1628 1684 0.25
1628 1772 0.25
1629 1686 1
1630 1687 1
1631 1688 1
1632 1689 1
1633 1690 1
1634 91 1
1635 1691 1
1636 1692 1
1637 1693 1
1638 1694 1
1639 1695 1
1640 1660 1
1641 29 1
1642 1696 1
1643 25 1
1644 1698 1
1645 1699 1
1646 1700 1
1647 1701 1
1648 1702 1
1649 394 0.331287
1649 490 0.334357
1649 905 0.334357
1650 114 0.333335
1650 1704 0.33333
1650 2183 0.333335
1651 133 1
1652 221 1
1653 63 1
1654 1657 1
1655 1705 0.5
1655 1709 0.5
1656 1706 1
1657 1487 0.888889
1657 1742 0.0555556
1657 1753 0.0555556
1658 1707 0.818182
1658 1905 0.0909091
1658 1968 0.0909091
1659 1710 1
1660 2 1
1661 1711 1
1662 1712 1
1663 179 1
1664 1713 1
1665 63 1
1666 1714 1
1667 1715 1
1668 1716 1
1669 1717 1
1670 727 1
1671 1208 1
1672 1718 1
1673 1719 1
1674 26 0.5
1674 1720 0.5
1675 1721 1
1676 1722 1
1677 155 1
1678 1723 0.5
1678 1968 0.5
1679 1724 1
1680 294 0.5
1680 1725 0.5
1681 1726 1
1682 1572 1
1683 233 1
1684 201 0.426172
1684 1727 0.573828
1685 491 1
1686 289 0.333333
1686 1803 0.666667
1687 1728 1
1688 1729 1
1689 1730 1
1690 977 1
1691 1731 1
1692 1733 1
1693 1734 0.4
1693 1735 0.4
1693 1736 0.2
1694 446 0.000285278
1694 1199 0.999715
1695 1578 1
1696 647 1
1697 1738 1
1698 1739 1
1699 569 1
1700 1144 1
1701 1741 0.5
1701 1761 0.5
1702 1742 1
1703 7 0.500001
1703 60 0.499999
1704 977 1
1705 137 0.441917
1705 1743 0.558083
1706 455 0.333333
1706 833 0.333333
1706 1744 0.333333
1707 1748 1
1708 148 0.5
1708 205 0.5
1709 1750 0.5
1709 2066 0.5
1710 1755 1
1711 1756 1
1712 37 0.33333
1712 327 0.66667
1713 1757 0.5
1713 1758 0.5
1714 181 1
1715 432 0.5
1715 1759 0.5
1716 88 1
1717 197 0.428571
1717 430 0.285714
1717 2002 0.285714
1718 1760 1
1719 1762 0.75
1719 1766 0.25
1720 1763 1
1721 50 0.166655
1721 1765 0.166669
1721 2557 0.166669
1721 2558 0.166669
1721 2559 0.166669
1721 2560 0.166669
1722 1514 1
1723 1413 1
1724 1767 1
1725 97 0.333333
1725 1768 0.333333
1725 1907 0.333333
1726 7 1
1727 977 1
1728 1769 1
1729 1770 1
1730 70 0.818182
1730 100 0.0909091
1730 2600 0.0909091
1731 61 0.00781054
1731 1773 0.992189
1732 1774 0.333333
1732 1972 0.333333
1732 1973 0.333333
1733 112 1
1734 1775 1
1735 1776 1
1736 1777 0.666667
1736 1781 0.333333
1737 885 1
1738 1094 1
1739 1779 1
1740 1780 1
1741 131 1
1742 1782 1
1743 1783 1
1744 1784 1
1745 88 0.498765
1745 1785 0.501235
1746 204 0.338107
1746 1786 0.338107
1746 1787 0.323785
1747 1787 0.0406278
1747 1788 0.959372
1748 1789 1
1749 1309 1
1750 781 0.2
1750 1792 0.2
1750 2123 0.4
1750 2155 0.2
1751 1794 1
1752 29 0.499975
1752 1795 0.500025
1753 1796 1
1754 1437 0.666873
1754 2260 0.333127
1755 1797 0.5
1755 1842 0.5
1756 255 1
1757 1318 0.5
1757 1804 0.5
1758 133 0.0448523
1758 1799 0.955148
1759 115 0.283166
1759 459 0.00891852
1759 1800 0.707915
1760 1801 1
1761 1802 1
1762 27 0.157887
1762 375 0.842113
1763 113 1
1764 1805 1
1765 1806 1
1766 515 0.5
1766 1807 0.5
1767 1808 1
1768 1481 0.5
1768 1809 0.5
1769 1810 1
1770 1811 1
1771 2125 1
1772 1812 1
1773 1813 1
1774 61 0.247036
1774 1497 0.752964
1775 1814 1
1776 1815 1
1777 24 1
1778 1816 1
1779 241 0.666667
1779 2061 0.333333
1780 1818 1
1781 47 0.666667
1781 1875 0.333333
1782 1819 1
1783 1820 1
1784 4 1
1785 1821 1
1786 1822 1
1787 1823 1
1788 1824 1
1789 1825 1
1790 1826 1
1791 1827 1
1792 1828 0.333333
1792 1834 0.666667
1793 1829 1
1794 1830 0.5
1794 2054 0.5
1795 1831 0.5
1795 1832 0.5
1796 887 0.5
1796 1833 0.5
1797 212 1
1798 43 0.5
1798 429 0.5
1799 1835 1
1800 1836 1
1801 910 1
1802 97 0.249386
1802 201 0.249995
1802 1102 0.25031
1802 1837 0.250309
1803 205 0.499827
1803 1839 0.000346395
1803 1919 0.499827
1804 1838 0.5
1804 1840 0.5
1805 1841 1
1806 1843 1
1807 1844 1
1808 212 0.333777
1808 879 0.332008
1808 1845 0.334214
1809 1846 1
1810 879 0.00624277
1810 1848 0.993757
1811 787 1
1812 1849 0.999537
1812 2260 0.000463146
1813 1617 1
1814 1850 1
1815 1851 1
1816 1792 0.5
1816 1852 0.5
1817 16 0.221955
1817 137 0.00667225
1817 1801 0.771373
1818 39 0.333333
1818 708 0.666667
1819 566 1
1820 1854 1
1821 25 1
1822 915 0.5
1822 1855 0.5
1823 1856 1
1824 60 0.749993
1824 140 0.250007
1825 1857 1
1826 1858 1
1827 8 1
1828 29 0.333067
1828 1859 0.333467
1828 1861 0.333467
1829 26 0.5
1829 1146 0.5
1830 1862 1
1831 1863 1
1832 1864 1
1833 1865 1
1834 1866 1
1835 1867 1
1836 1868 1
1837 1869 1
1838 61 0.142857
1838 78 0.142857
1838 137 0.142857
1838 144 0.142857
1838 496 0.142857
1838 1870 0.142857
1838 2536 0.142857
1839 1395 1
1840 1368 0.78388
1840 1795 0.21612
1841 1795 0.420363
1841 1871 0.579637
1842 1871 0.00127059
1842 1872 0.998729
1843 1874 0.2
1843 2144 0.6
1843 2178 0.2
1844 429 0.5
1844 1875 0.5
1845 1877 1
1846 1879 1
1847 27 0.00725643
1847 151 0.992744
1848 1880 1
1849 56 0.262007
1849 232 0.368997
1849 1881 0.368997
1850 1882 1
1851 1883 1
1852 1884 1
1853 1885 1
1854 1886 1
1855 1887 1
1856 1031 1
1857 886 1
1858 602 1
1859 168 0.4
1859 204 0.199999
1859 1888 0.2
1859 2016 0.2
1860 1889 1
1861 1309 1
1862 1890 0.5
1862 1933 0.5
1863 1892 1
1864 431 1
1865 1895 0.5
1865 2062 0.5
1866 1839 1
1867 1896 1
1868 16 0.200057
1868 132 0.199986
1868 912 0.199985
1868 944 0.199985
1868 1052 0.199986
1869 1897 1
1870 1898 1
1871 1899 1
1872 1900 1
1873 1901 1
1874 1902 1
1875 1129 0.5
1875 2143 0.5
1876 1903 1
1877 88 6.21669e-05
1877 339 0.999938
1878 1904 1
1879 1906 1
1880 1908 1
1881 56 0.333333
1881 1435 0.333333
1881 1909 0.333333
1882 1160 1
1883 1910 1
1884 97 0.5
1884 1911 0.5
1885 50 0.499994
1885 1209 0.500006
1886 1912 1
1887 1913 1
1888 999 1
1889 1915 1
1890 50 0.0633476
1890 1916 0.936652
1891 378 1
1892 1547 1
1893 1917 1
1894 1918 1
1895 1920 1
1896 1921 1
1897 1129 1
1898 1922 1
1899 1923 1
1900 1924 1
1901 1245 1
1902 1925 1
1903 1926 1
1904 1928 1
1905 1929 1
1906 10 0.5
1906 1930 0.5
1907 163 1
1908 1932 1
1909 1798 1
1910 256 1
1911 69 0.499954
1911 1938 0.500046
1912 96 0.499915
1912 1939 0.500085
1913 82 0.5
1913 1942 0.5
1914 71 0.496814
1914 1943 0.503186
1915 1944 1
1916 1945 1
1917 1946 1
1918 128 0.2
1918 144 0.2
1918 339 0.2
1918 386 0.2
1918 1947 0.2
1919 1948 0.5
1919 2341 0.5
1920 19 0.47233
1920 71 0.52767
1921 1949 1
1922 1950 1
1923 15 0.499853
1923 88 4.59815e-05
1923 1660 0.500101
1924 1952 1
1925 1954 1
1926 1955 1
1927 1956 1
1928 1957 1
1929 879 1
1930 10 0.5
1930 1922 0.5
1931 1958 1
1932 25 1
1933 1638 1
1934 15 0.249989
1934 1959 0.250004
1934 1960 0.250004
1934 1961 0.250004
1935 10 0.5
1935 1962 0.5
1936 71 0.499749
1936 1413 0.500251
1937 1963 1
1938 81 1
1939 1964 1
1940 27 0.342044
1940 29 0.257046
1940 488 0.40091
1941 616 1
1942 10 0.5
1942 1966 0.5
1943 25 0.000366463
1943 1967 0.999634
1944 1969 0.5
1944 2114 0.5
1945 15 1
1946 1970 1
1947 1971 1
1948 212 1
1949 1974 0.5
1949 1975 0.5
1950 306 0.499997
1950 1976 0.500003
1951 189 1
1952 1977 1
1953 1223 0.333333
1953 1244 0.333333
1953 1978 0.333333
1954 1979 1
1955 1982 1
1956 516 0.333333
1956 1981 0.333333
1956 1983 0.333333
1957 1984 1
1958 8 0.197608
1958 11 0.200976
1958 189 0.199464
1958 428 0.200976
1958 1985 0.200976
1959 1986 1
1960 309 1
1961 221 1
1962 1987 1
1963 1309 1
1964 8 0.499915
1964 909 0.500085
1965 1988 0.5
1965 1993 0.5
1966 1994 1
1967 144 0.999284
1967 1989 0.000715976
1968 1989 0.499821
1968 1990 0.500179
1969 481 1
1970 9 0.5
1970 1991 0.5
1971 43 0.333333
1971 1052 0.333333
1971 1992 0.333333
1972 10 1
1973 1995 1
1974 1413 0.25
1974 1999 0.75
1975 56 0.5
1975 197 0.5
1976 1855 1
1977 1998 1
1978 459 0.318779
1978 2000 0.681221
1979 2001 1
1980 2003 1
1981 2004 1
1982 468 0.5
1982 2005 0.5
1983 2006 1
1984 2007 1
1985 2009 1
1986 2010 1
1987 2011 1
1988 2012 1
1989 316 0.331605
1989 2014 0.668395
1990 189 0.992303
1990 316 0.00769683
1991 2015 0.5
1991 2258 0.5
1992 69 0.333333
1992 2083 0.666667
1993 2017 1
1994 2018 1
1995 2019 1
1996 2020 1
1997 1589 1
1998 56 0.333333
1998 486 0.333333
1998 2022 0.333333
1999 2014 0.5
1999 2023 0.5
2000 2024 1
2001 486 0.333333
2001 847 0.333333
2001 2032 0.333333
2002 2025 1
2003 2026 1
2004 2027 1
2005 15 1
2006 2029 0.25
2006 2030 0.25
2006 2034 0.25
2006 2050 0.25
2007 2031 1
2008 2033 1
2009 1469 0.5
2009 2036 0.5
2010 2037 1
2011 2038 0.666668
2011 2039 0.333332
2012 2040 1
2013 2041 1
2014 2042 1
2015 2044 1
2016 2045 1
2017 2046 1
2018 2047 1
2019 2048 1
2020 10 0.333333
2020 1774 0.333333
2020 2049 0.333333
2021 36 0.333333
2021 2051 0.333333
2021 2052 0.333333
2022 2053 1
2023 2055 1
2024 2057 1
2025 2058 1
2026 2059 1
2027 2060 1
2028 2064 1
2029 2065 1
2030 60 1
2031 25 0.377813
2031 2067 0.622187
2032 2068 1
2033 605 0.0307137
2033 2069 0.969286
2034 2072 1
2035 2073 1
2036 792 1
2037 2074 1
2038 2075 1
2039 2076 1
2040 19 0.0823326
2040 301 0.458834
2040 2077 0.458834
2041 376 1
2042 2078 1
2043 2006 0.333333
2043 2079 0.333333
2043 2081 0.333333
2044 2082 1
2045 60 0.666551
2045 2299 0.333449
2046 2084 1
2047 2040 0.5
2047 2085 0.5
2048 169 1
2049 2086 1
2050 2087 1
2051 113 0.500165
2051 242 0.499835
2052 459 0.499908
2052 2089 0.500092
2053 2090 1
2054 2093 1
2055 2094 1
2056 2095 1
2057 2096 1
2058 2097 1
2059 2098 1
2060 2099 1
2061 2101 1
2062 2102 1
2063 2103 1
2064 26 0.333333
2064 909 0.333333
2064 2105 0.333333
2065 61 0.166665
2065 69 0.166677
2065 2094 0.333329
2065 2106 0.166665
2065 2107 0.166665
2066 100 0.5
2066 2108 0.5
2067 1178 1
2068 2111 1
2069 145 0.5
2069 537 0.5
2070 2113 1
2071 668 1
2072 2115 1
2073 2116 1
2074 2118 1
2075 37 0.5
2075 67 0.5
2076 2119 1
2077 2120 1
2078 2121 1
2079 2122 1
2080 2124 1
2081 1943 0.5
2081 2126 0.5
2082 1939 1
2083 2127 1
2084 2128 1
2085 553 1
2086 2129 1
2087 2130 1
2088 2131 1
2089 2133 1
2090 2134 1
2091 2135 1
2092 29 1
2093 78 0.499944
2093 2136 0.500056
2094 2137 1
2095 2138 0.8
2095 2207 0.2
2096 431 1
2097 273 0.333333
2097 2140 0.333333
2097 2141 0.333333
2098 140 0.33333
2098 2142 0.66667
2099 126 0.5
2099 1849 0.5
2100 2145 1
2101 2147 1
2102 456 1
2103 386 0.333333
2103 2149 0.666667
2104 2150 1
2105 1429 1
2106 2151 1
2107 2152 1
2108 2153 1
2109 2154 1
2110 189 0.333464
2110 461 0.333073
2110 2156 0.333464
2111 2159 1
2112 79 0.400284
2112 2160 0.599716
2113 2161 1
2114 2163 0.5
2114 2164 0.5
2115 237 0.333333
2115 238 0.333333
2115 2165 0.333333
2116 136 0.5
2116 2166 0.5
2117 2167 0.5
2117 2179 0.5
2118 2168 1
2119 2169 1
2120 113 0.5
2120 2171 0.5
2121 2173 1
2122 136 0.5
2122 1833 0.5
2123 2174 1
2124 126 0.5
2124 860 0.5
2125 1459 1
2126 2176 1
2127 2177 1
2128 2180 1
2129 2181 1
2130 2182 1
2131 29 0.498368
2131 50 2.3025e-05
2131 1839 0.501609
2132 351 0.5
2132 2184 0.5
2133 2186 1
2134 2189 1
2135 327 0.5
2135 1064 0.5
2136 2190 1
2137 2191 0.268095
2137 2192 0.731905
2138 101 0.5
2138 2193 0.5
2139 125 0.333333
2139 286 0.333333
2139 2194 0.333333
2140 2195 1
2141 1342 0.12061
2141 2196 0.87939
2142 139 1
2143 2199 1
2144 169 0.5
2144 619 0.5
2145 2200 0.5
2145 2607 0.5
2146 2201 1
2147 2202 1
2148 2203 1
2149 88 0.0661796
2149 2204 0.93382
2150 2205 1
2151 2206 1
2152 2208 1
2153 2209 1
2154 2210 1
2155 2211 1
2156 2212 1
2157 2213 1
2158 2147 0.500003
2158 2214 0.499997
2159 27 0.333327
2159 515 0.333336
2159 1684 0.333336
2160 909 1
2161 212 0.665765
2161 2215 0.334235
2162 1497 1
2163 212 1
2164 24 0.333333
2164 2216 0.333333
2164 2217 0.333333
2165 2218 1
2166 2220 1
2167 2221 1
2168 2222 1
2169 126 0.333333
2169 460 0.333333
2169 2224 0.333333
2170 2226 1
2171 69 0.5
2171 2227 0.5
2172 616 1
2173 2229 1
2174 2230 1
2175 466 0.347825
2175 2231 0.217393
2175 2246 0.217388
2175 2333 0.217393
2176 2232 1
2177 2234 1
2178 2235 1
2179 2236 1
2180 2237 1
2181 2238 1
2182 40 0.5
2182 2239 0.5
2183 2240 1
2184 2241 1
2185 2242 1
2186 2244 1
2187 2247 1
2188 2248 1
2189 2249 0.333333
2189 2250 0.333333
2189 2620 0.333333
2190 2251 1
2191 2252 1
2192 2253 1
2193 936 0.499991
2193 2254 0.500009
2194 97 0.5
2194 316 0.5
2195 221 0.5
2195 2255 0.5
2196 2256 1
2197 61 0.5
2197 2257 0.5
2198 2259 1
2199 1176 1
2200 2261 0.5
2200 2406 0.5
2201 237 0.249998
2201 1713 0.250001
2201 2262 0.500001
2202 2263 1
2203 78 0.497115
2203 2265 0.502885
2204 2266 1
2205 2267 1
2206 2268 1
2207 88 0.0597248
2207 2269 0.940275
2208 2270 1
2209 201 0.976703
2209 212 0.0232971
2210 2272 1
2211 2273 1
2212 2274 1
2213 2275 1
2214 481 0.3668
2214 2276 0.6332
2215 431 0.703869
2215 481 0.296131
2216 2277 1
2217 2279 1
2218 2280 1
2219 951 1
2220 2281 1
2221 2282 1
2222 2283 1
2223 151 0.5
2223 2284 0.5
2224 8 0.333151
2224 101 0.333425
2224 2285 0.333424
2225 2286 1
2226 2289 1
2227 2290 1
2228 2291 0.75
2228 2502 0.25
2229 405 1
2230 189 1
2231 2292 1
2232 56 0.499995
2232 2293 0.500005
2233 873 0.499998
2233 2294 0.500002
2234 24 0.5
2234 37 0.5
2235 2295 1
2236 2296 0.5
2236 2350 0.5
2237 2298 1
2238 2300 1
2239 2301 1
2240 2302 1
2241 327 0.49518
2241 2303 0.50482
2242 2304 1
2243 2305 1
2244 2306 1
2245 2307 1
2246 2308 1
2247 2309 1
2248 185 0.5
2248 2310 0.5
2249 137 0.202456
2249 286 0.202674
2249 398 0.202674
2249 605 0.189522
2249 2311 0.202674
2250 2312 1
2251 40 0.0231466
2251 2313 0.976853
2252 1209 1
2253 2314 1
2254 2315 1
2255 2316 1
2256 139 0.401612
2256 1326 0.598388
2257 139 0.247466
2257 2318 0.752534
2258 2319 1
2259 2041 0.5
2259 2320 0.5
2260 29 0.500819
2260 1472 0.499181
2261 524 0.499999
2261 1077 0.500001
2262 2322 1
2263 2323 1
2264 97 0.25
2264 123 0.25
2264 623 0.25
2264 1671 0.25
2265 2324 1
2266 2325 1
2267 2326 1
2268 2327 1
2269 631 0.0127851
2269 2328 0.493607
2269 2396 0.493607
2270 2329 1
2271 2330 1
2272 2363 1
2273 2331 1
2274 2334 0.5
2274 2458 0.5
2275 2335 1
2276 2336 1
2277 2337 1
2278 2330 0.5
2278 2338 0.25
2278 2442 0.25
2279 1413 0.333333
2279 2339 0.333334
2279 2340 0.333333
2280 2341 1
2281 2332 1
2282 1801 1
2283 2342 1
2284 353 0.333333
2284 445 0.333333
2284 2344 0.333333
2285 2345 1
2286 97 1
2287 286 0.333333
2287 2346 0.333333
2287 2348 0.333333
2288 567 1
2289 2349 1
2290 29 0.249088
2290 97 0.25029
2290 139 0.250311
2290 2347 0.250311
2291 425 1
2292 444 0.25
2292 446 0.25
2292 469 0.25
2292 619 0.25
2293 445 0.333333
2293 1799 0.333333
2293 2351 0.333333
2294 2352 1
2295 2353 1
2296 2354 1
2297 2355 0.5
2297 2401 0.5
2298 2356 1
2299 2357 1
2300 2358 1
2301 2359 1
2302 2360 1
2303 222 1
2304 1022 1
2305 27 1.76008e-05
2305 199 0.499991
2305 309 0.499991
2306 460 0.5
2306 2362 0.5
2307 2364 1
2308 123 0.499994
2308 2367 0.500006
2309 2353 0.5
2309 2368 0.5
2310 2369 1
2311 2370 1
2312 2371 1
2313 2372 1
2314 81 1
2315 169 0.333333
2315 1220 0.333333
2315 2373 0.333333
2316 2374 1
2317 139 0.333333
2317 2375 0.333333
2317 2376 0.333334
2318 2377 1
2319 2378 1
2320 2379 1
2321 2380 1
2322 267 1
2323 2381 1
2324 2382 1
2325 2383 1
2326 2386 1
2327 2387 1
2328 2388 1
2329 2389 1
2330 2390 1
2331 251 1
2332 2392 1
2333 26 0.5
2333 2393 0.5
2334 2394 1
2335 2395 1
2336 2368 1
2337 1348 0.5
2337 2398 0.5
2338 3 0.333336
2338 27 0.33333
2338 113 0.333333
2339 2399 1
2340 1192 0.499993
2340 2400 0.500007
2341 2353 1
2342 8 0.399892
2342 148 0.200036
2342 428 0.200036
2342 2402 0.200036
2343 40 0.066483
2343 2403 0.933517
2344 2404 1
2345 2405 0.5
2345 2407 0.5
2346 2408 1
2347 2409 1
2348 2256 0.999987
2348 2410 1.25317e-05
2349 37 0.500004
2349 2410 0.499996
2350 2411 1
2351 1032 1
2352 985 0.500006
2352 2413 0.499994
2353 69 0.666667
2353 2412 0.333333
2354 2414 1
2355 14 0.334931
2355 19 0.330139
2355 94 0.334931
2356 2405 1
2357 2415 1
2358 459 1
2359 3 1
2360 2417 1
2361 2418 1
2362 2419 1
2363 2420 0.5
2363 2556 0.5
2364 432 1
2365 2421 1
2366 2422 1
2367 2423 1
2368 2424 1
2369 1064 1
2370 2425 1
2371 1333 1
2372 870 0.333333
2372 977 0.666667
2373 2426 1
2374 304 0.5
2374 2427 0.5
2375 2428 1
2376 205 0.499991
2376 2429 0.500009
2377 2431 1
2378 48 0.333333
2378 61 0.333333
2378 919 0.333333
2379 2432 1
2380 2433 1
2381 2434 1
2382 9 0.25
2382 1223 0.25
2382 2355 0.25
2382 2435 0.25
2383 2436 1
2384 169 0.493908
2384 2437 0.506092
2385 2438 1
2386 2439 1
2387 2440 1
2388 29 0.246302
2388 366 0.251232
2388 428 0.251233
2388 2441 0.251233
2389 1430 1
2390 2443 1
2391 2444 1
2392 127 0.333333
2392 446 0.333333
2392 2445 0.333333
2393 71 0.495114
2393 100 0.504886
2394 2446 1
2395 2448 1
2396 139 0.333333
2396 2449 0.333333
2396 2450 0.333333
2397 524 0.5
2397 2451 0.5
2398 2452 1
2399 411 0.5
2399 2453 0.5
2400 94 0.5
2400 2454 0.5
2401 966 0.333334
2401 2455 0.666666
2402 296 0.5
2402 2456 0.5
2403 2457 1
2404 71 0.332089
2404 128 0.333955
2404 189 0.333955
2405 2459 0.988998
2405 2460 0.0110019
2406 2460 0.497203
2406 2461 0.502797
2407 2462 1
2408 253 0.5
2408 1890 0.5
2409 118 1
2410 2463 1
2411 739 1
2412 2464 1
2413 2465 0.500001
2413 2466 0.499999
2414 88 4.51292e-05
2414 94 0.999955
2415 284 1
2416 50 0.109505
2416 314 0.296832
2416 2468 0.593663
2417 50 0.0710898
2417 78 0.92891
2418 221 0.5
2418 2469 0.5
2419 69 0.499988
2419 126 0.500012
2420 542 1
2421 2470 0.333334
2421 2482 0.333332
2421 2483 0.333334
2422 1787 1
2423 1170 0.5
2423 2472 0.5
2424 2473 1
2425 2474 1
2426 266 1
2427 2475 1
2428 45 0.333335
2428 286 0.333335
2428 2476 0.33333
2429 2477 1
2430 2478 1
2431 2479 1
2432 2480 1
2433 71 0.331651
2433 640 0.334174
2433 2481 0.334174
2434 189 1
2435 2484 1
2436 2485 1
2437 286 0.312157
2437 542 0.343921
2437 2486 0.343921
2438 2487 1
2439 2227 1
2440 1642 1
2441 40 0.333334
2441 61 0.333331
2441 2489 0.333334
2442 1864 1
2443 1249 1
2444 88 0.499727
2444 2490 0.500273
2445 2491 1
2446 2493 1
2447 71 0.0428847
2447 515 0.239279
2447 524 0.239279
2447 2478 0.239279
2447 2494 0.239278
2448 2144 1
2449 153 1
2450 198 0.499999
2450 2495 0.500001
2451 19 0.333333
2451 2496 0.666667
2452 2497 1
2453 2498 1
2454 2499 0.5
2454 2500 0.5
2455 25 1
2456 101 1
2457 2504 1
2458 2505 1
2459 2506 1
2460 2503 5.54188e-05
2460 2507 0.999945
2461 1097 1
2462 155 0.5
2462 2508 0.5
2463 2509 1
2464 97 0.333333
2464 1955 0.333333
2464 2510 0.333333
2465 78 1
2466 2511 1
2467 2513 1
2468 50 0.5
2468 609 0.5
2469 2516 1
2470 2517 1
2471 1661 1
2472 1717 1
2473 2521 1
2474 137 1
2475 15 0.499999
2475 2523 0.500001
2476 1064 0.500004
2476 2524 0.499996
2477 2527 1
2478 60 1
2479 197 0.333333
2479 1348 0.333333
2479 2529 0.333333
2480 19 1
2481 2530 1
2482 24 1
2483 3 1.78905e-05
2483 8 0.49918
2483 2534 0.500802
2484 3 0.000299443
2484 8 0.999701
2485 60 0.249978
2485 432 0.250008
2485 1449 0.250008
2485 2535 0.250007
2486 8 0.5
2486 2537 0.5
2487 1427 1
2488 16 0.101593
2488 27 0.154881
2488 29 0.288722
2488 137 0.454804
2489 1585 1
2490 101 0.333333
2490 2541 0.333333
2490 2542 0.333333
2491 50 0.125
2491 192 0.125
2491 232 0.125
2491 2538 0.25
2491 2539 0.125
2491 2540 0.125
2491 2543 0.125
2492 432 1
2493 43 0.334073
2493 78 0.331853
2493 136 0.334073
2494 1568 0.5
2494 2545 0.5
2495 97 1
2496 139 0.333333
2496 1472 0.333333
2496 2544 0.333333
2497 2546 1
2498 69 1
2499 33 0.167112
2499 88 0.16444
2499 201 0.167112
2499 2547 0.167112
2499 2548 0.167112
2499 2549 0.167112
2500 215 1
2501 25 0.497499
2501 637 0.251251
2501 2550 0.251251
2502 2551 1
2503 2552 1
2504 2553 1
2505 126 1
2506 2554 1
2507 69 0.333333
2507 105 0.333333
2507 2555 0.333333
2508 78 1
2509 909 0.5
2509 2561 0.5
2510 2562 1
2511 26 1
2512 25 0.31032
2512 2563 0.68968
2513 25 0.499913
2513 2564 0.250044
2513 2565 0.250044
2514 2555 1
2515 2567 1
2516 2568 0.5
2516 2569 0.5
2517 2566 1
2518 2570 0.958359
2518 2571 0.0416408
2519 19 0.2
2519 212 0.2
2519 221 0.2
2519 2572 0.2
2519 2573 0.2
2520 19 0.499849
2520 2574 0.500151
2521 704 1
2522 2575 1
2523 2584 0.666667
2523 2626 0.333333
2524 77 0.125
2524 160 0.125
2524 275 0.125
2524 286 0.125
2524 327 0.125
2524 833 0.125
2524 1250 0.125
2524 2576 0.125
2525 2577 1
2526 228 1
2527 2578 1
2528 2579 1
2529 2581 1
2530 78 0.496033
2530 977 0.503967
2531 2583 1
2532 103 0.499999
2532 220 0.500001
2533 2587 1
2534 2588 1
2535 2590 0.499965
2535 2592 0.500035
2536 88 0.0100909
2536 2593 0.989909
2537 88 0.200516
2537 2594 0.799484
2538 2595 1
2539 1125 0.5
2539 2596 0.5
2540 2597 1
2541 2599 1
2542 2601 1
2543 2602 1
2544 2603 1
2545 765 1
2546 2604 1
2547 1487 1
2548 2608 1
2549 2609 1
2550 2610 1
2551 1157 1
2552 2611 1
2553 2612 1
2554 2615 1
2555 2617 1
2556 585 1
2557 2618 1
2558 2619 1
2559 2621 1
2560 2622 1
2561 2623 1
2562 123 0.499969
2562 2624 0.500031
2563 2625 1
2564 455 1
2565 8 0.500084
2565 78 0.499916
2566 2627 1
2567 2628 1
2568 60 0.333333
2568 88 0.333333
2568 709 0.333333
2569 137 1
2570 2630 1
2571 2631 1
2572 2632 1
2573 2634 1
